smiles,z_0,z_1,z_2,z_3,z_4,z_5,z_6,z_7,z_8,z_9,z_10,z_11,z_12,z_13,z_14,z_15,z_16,z_17,z_18,z_19,z_20,z_21,z_22,z_23,z_24,z_25,z_26,z_27,z_28,z_29,z_30,z_31,z_32,z_33,z_34,z_35,z_36,z_37,z_38,z_39,z_40,z_41,z_42,z_43,z_44,z_45,z_46,z_47,z_48,z_49,z_50,z_51,z_52,z_53,z_54,z_55,z_56,z_57,z_58,z_59,z_60,z_61,z_62,z_63
C=CC(=O)OCCOCCOC(=O)C=C,0.0010462431,0.0065781847,-0.0023124553,0.0019869003,0.00307451,0.0005403578,-0.0037485575,-0.0020053491,-0.0008233283,-0.0006902935,-0.0021548085,-0.0009986896,0.005708711,-0.004023265,-0.0008115247,-0.0009863544,0.0030352613,0.0051560514,9.336788e-05,0.0026449817,0.0040240623,0.0028465241,0.0006258085,0.006063401,0.0023597572,-0.002222275,0.00088162,0.0023387466,-0.0031903815,0.00064004306,0.0020638646,0.00086549344,0.00049377093,-0.0009208764,0.00025869836,0.0041515827,0.0012507886,0.003951419,-0.0038308399,-0.0005639298,-0.002406247,-0.0001657391,-0.0021473905,-0.0011213832,-0.0034547471,0.0037416024,-0.00021404214,0.0005581826,-0.002123335,0.012033179,0.0038932832,0.003939605,-0.0012011784,-0.00125637,-0.00096824486,0.0032510837,0.0023378078,-0.0004819543,-0.0004050862,-0.0014096489,0.0015239278,-0.0038041277,0.004340779,-0.0064108307
C=CC(=O)OC(C)(C)C,0.0008567134,0.0068660453,-0.0015111994,0.0013451069,0.0027809571,0.0003563161,-0.003957076,-0.0014853692,-0.0017640321,-0.0018691802,-0.0028439872,-0.0006448248,0.0056753047,-0.0031778365,-0.0015075766,-0.0011235233,0.0029490758,0.005552901,-3.981497e-05,0.0023743575,0.0045499224,0.0022165235,0.00012219488,0.005911465,0.0019130576,-0.0022312473,0.0009021389,0.0025313008,-0.003009377,0.0009143101,0.0021027396,0.00079708593,0.001113656,-0.0015160642,0.0011565398,0.003850041,0.0012816135,0.0028271312,-0.003832586,-0.0011453731,-0.0015290277,0.0004847506,-0.0029642805,-0.0013851672,-0.0037165498,0.0037822751,2.6747584e-05,0.0014456008,-0.0020599116,0.01223814,0.0045009926,0.0049188514,-0.0016757105,-0.0008828491,-0.0006871568,0.0031721587,0.0027485453,-0.0010067467,-0.0017331485,-0.0012277113,0.0011814353,-0.0031107021,0.004431961,-0.0071345763
COC(OC)(C(=O)c1ccccc1)c1ccccc1,-0.0017069187,0.0041145803,-0.0018103356,0.0019084252,0.002307294,0.000677102,-0.0045725135,-0.0022924382,-0.0027265288,-0.0036022859,-0.004377641,-0.00076485024,0.0040891953,-0.0031535663,-0.0022978391,0.000108348206,0.0023688506,0.0051031765,4.210882e-05,0.0017562625,0.002781814,0.0003273394,-2.7518021e-05,0.003588302,0.0018427577,-0.0021710382,-0.0006011548,0.0038978262,-0.0026406925,0.00031358283,0.00090985,0.0038543856,0.00048058107,-0.00027742796,0.00013269647,0.0044157356,0.0007416047,0.0026536845,-0.0039932234,-0.0019901907,8.7610446e-05,0.00023958343,-0.0018875618,-0.0014818907,-0.0021666205,0.0034994297,-0.00070100464,0.0020548701,-0.0019623663,0.0116878385,0.0030743722,0.006496453,-0.0009886604,0.00045759324,-0.000255147,0.004129822,0.0024131704,-0.0011747596,-0.001877455,-0.0013140691,0.0027252347,-0.002445125,0.0021892376,-0.007677001
C=C(C)C(=O)OCCOCCOC(=O)C(=C)C,0.0020520212,0.0065130107,-0.0018724687,0.0013447399,0.0030181296,0.0012250755,-0.003918466,-0.0016128838,-0.0013123313,-0.0008882787,-0.0016411189,-0.00083134795,0.0048910417,-0.0025593918,0.00040546618,-0.00012696907,0.0025135633,0.0047721155,0.00035091676,0.0032619815,0.0044234972,0.0024456326,0.0009150754,0.006771762,0.0026838295,-0.0025234502,0.0013092409,0.002310881,-0.002759045,0.000351632,0.002109419,0.0013638167,0.0003494611,-0.00050946325,-0.00037420285,0.0033559743,0.00065547414,0.0039004255,-0.0038335472,0.0007526353,-0.0019940687,-0.00061530015,-0.0025785547,-0.0011706669,-0.0031814228,0.0037979838,0.0004955912,-0.000585787,-0.0021341576,0.012396084,0.0033022705,0.0036941175,-4.5888126e-05,-0.00016782712,-0.00043893233,0.0034390506,0.002538424,-0.0005074972,0.00044654496,-0.0014413288,0.0020483378,-0.0026445277,0.0047071995,-0.007240693
C=CC(=O)OCCOCCOCCOCCOC(=O)C=C,0.0018637171,0.006786162,-0.0021214923,0.0021883254,0.002182614,0.0010065085,-0.0036645299,-0.0023072425,-0.00046922825,-0.00030959398,-0.001079144,-0.0010853787,0.005668197,-0.002955759,-7.95722e-06,-3.4008175e-05,0.0032700282,0.0038309079,0.00017024111,0.00282483,0.0039615724,0.0030963812,0.0009618832,0.0068198917,0.0023449045,-0.0025912952,0.0010785342,0.0023089969,-0.0034436658,0.0010544639,0.0023584256,0.0016489811,0.00058826245,-0.0008362611,-0.00093519455,0.0041235797,0.0012958944,0.003906168,-0.00394422,0.00028057955,-0.0028307457,-0.00053138845,-0.0021714717,-0.0010766368,-0.003292344,0.0035490189,0.00030950736,-0.0005410481,-0.0018391213,0.011950507,0.0036722263,0.0035799365,-0.00025581568,-0.0012672106,-0.00074515585,0.003508831,0.00264588,7.231394e-05,0.0007331949,-0.0013886252,0.0016661715,-0.0032667099,0.0044207005,-0.0070610046
C=CC(=O)OCCOCCOCCOCCOCCOCCOCCOCCOCCOCCOC(=O)C=C,0.0023544664,0.005665308,-0.0016462831,0.0030175764,-0.00061862357,0.00078679714,-0.0022125915,-0.004846347,-0.0023785643,0.00096917525,0.0009701364,-0.00058423454,0.0068307947,-0.0023035575,-0.00024152547,0.0010149386,0.0028580474,0.0025554094,0.0014882218,0.0027984309,0.0019241171,0.0048141293,0.0008420537,0.006916674,0.0011554323,-0.0018523997,0.0004963343,0.0017168447,-0.001954658,0.0024047177,0.0033290875,0.0019499678,0.0007205461,-0.00010632211,-0.0027382902,0.0052288175,0.0013010222,0.003530778,-0.0035123657,-0.00091827195,-0.004808861,-0.0011478411,-0.0029294519,-0.0011475291,-0.00056953775,0.0023627644,0.0015721312,-0.0011956766,-0.0012492863,0.010857244,0.0041211396,0.0042686523,0.0008964874,-0.00273374,-0.00011077151,0.002170633,0.0026372615,0.0016477196,0.001935184,-0.0013209628,0.000982584,-0.0023423564,0.0017115325,-0.008373437
C=C(C)C(=O)OCCOCCOCCOCCOC(=O)C(=C)C,0.0025931904,0.0060195196,-0.001988506,0.00125437,0.0018253308,0.0012137205,-0.0035795001,-0.0024208094,-0.0015122872,-0.00040884316,-0.0010282043,-0.001091792,0.0059166364,-0.002124507,0.00016327016,0.0007712785,0.0024932744,0.0038127266,0.000588526,0.0030453624,0.0036363704,0.0026082583,0.0012990313,0.0068208333,0.0024364907,-0.0025111032,0.0009877526,0.0024389597,-0.0032013152,0.0018828157,0.002448818,0.002633892,1.71992e-05,-4.0412415e-05,-0.0012529097,0.0034876522,0.00063301437,0.004240172,-0.004036041,0.00041699782,-0.0026481496,-0.00086886645,-0.002527983,-0.0010278486,-0.0028186636,0.00400374,0.00093246065,-0.0016124081,-0.0013967063,0.011538337,0.0039005764,0.0040965113,0.00083668646,-0.001064986,-0.00022166502,0.0027951277,0.0027401727,-0.00047528278,0.0013141744,-0.0020044846,0.0020024078,-0.0031309295,0.0042815264,-0.0074655013
C=C(C)C(=O)OCCOCCOCCOCCOCCOCCOCCOCCOCCOC(=O)C(=C)C,0.0027880324,0.005340321,-0.0017120074,0.0021718508,-2.1165237e-05,0.0012353403,-0.0023916531,-0.004185885,-0.0030537937,0.00045425817,0.0005774461,-0.000108912966,0.006177269,-0.0020753592,0.00028224662,0.0014842171,0.0018623034,0.002624385,0.0015753927,0.0030914345,0.0022552311,0.0047575347,0.00073551317,0.0068884566,0.0009606574,-0.001651396,0.0005736555,0.0017544227,-0.0012289435,0.0019999035,0.0029861287,0.0022277487,0.00043511717,0.00043316232,-0.002690424,0.005230099,0.00081525743,0.0035701767,-0.0035392037,-0.0010537645,-0.0039700484,-0.0012705461,-0.0032165851,-0.0012859777,-0.00016888417,0.0023393817,0.0018280838,-0.0012360737,-0.0019447135,0.010955933,0.0037313476,0.0045030653,0.0013766731,-0.001747869,0.00029893126,0.0014823829,0.0022688098,0.0011959239,0.0018502194,-0.0014224434,0.001226713,-0.0019849204,0.0017097201,-0.008291762
c1ccc2c(c1)-c1ccccc1C2(c1ccc(OCCOCC2CO2)cc1)c1ccc(OCCOCC2CO2)cc1,-0.00017919671,0.0039928276,-0.0021366347,0.0007259003,0.0009751711,0.0020058057,-0.00057793595,-0.0014895122,-0.005064643,-0.002682182,-0.0019902363,0.00054780504,0.0026787762,-0.0013611242,-0.0009414684,0.0011743549,0.0025262004,0.001172509,-0.0006272653,0.00063174777,0.0014927108,0.0011387151,0.00036458182,0.00356921,-0.00057994947,-0.0013606674,-0.0016412116,0.0027832119,6.529875e-05,-0.000104024075,-0.0009001801,0.0028202087,-0.00080495933,-0.0024395413,-0.000680174,0.0057331957,-0.0013522264,0.0010386696,-0.0032577738,-0.0032250108,0.0002941722,0.00039249286,-0.00094292033,-0.0045221467,0.0003792718,0.0022080801,-0.0003282018,0.0008412935,-0.0019951982,0.010001078,0.00032199407,0.0074111014,-0.0014731251,-0.0013427911,0.0007534558,0.0026274272,0.0015433338,0.0005641333,-0.001142893,0.00017493777,-0.00057023857,2.9057264e-07,0.0027963854,-0.008382951
Nc1ccc(S(=O)(=O)c2ccc(N)cc2)cc1,-0.0013371399,0.0039736107,-0.0015135631,0.0013695699,0.0029455423,0.0014039644,-0.0044145165,-0.0011690103,-0.003020686,-0.002908024,-0.0045184875,-0.0003973549,0.0042269863,-0.0026242342,-0.0024935454,0.0004196521,0.0024084132,0.004969947,-0.00082882494,0.0023838878,0.0031394856,-0.00012831017,-5.795248e-05,0.003747929,0.0022067,-0.0023252172,-0.00088692375,0.004828068,-0.0020841248,0.0001774393,0.0009862129,0.0033712927,0.00018889364,-0.00018539559,0.0006592859,0.003991509,-4.5323744e-05,0.0023104586,-0.0036076745,-0.002302955,0.0009324113,-0.00011662813,-0.001913066,-0.0027726796,-0.0024456636,0.0043873778,-0.00046034344,0.001485534,-0.0013656719,0.0122040305,0.0024012905,0.0059711193,-0.0004995982,0.0007887138,0.00025308877,0.003916644,0.0032969695,-0.0020648567,-0.001811659,-0.00085274223,0.0028026905,-0.00362348,0.003241335,-0.0078088483
CC(C)(c1ccc(OCC2CO2)cc1)c1ccc(OCC2CO2)cc1,-0.0003425628,0.003117649,-0.0018760189,0.0014739526,0.0014373623,0.0009338204,-0.0030591944,-0.0027217355,-0.003199026,-0.0029689176,-0.0029491354,-0.0005831914,0.0037474893,-0.0015931949,-0.0020517223,0.0023149066,0.0028949296,0.0029085018,0.00082727894,0.0007926696,0.0014935704,8.06395e-05,-1.2862729e-05,0.0033545885,0.0017254632,-0.0016196971,-5.8610225e-05,0.0038820622,-0.0022004917,0.0007381514,0.00048218714,0.004014535,0.00031243637,-0.0010797982,-0.0002459716,0.0040277075,-0.0007838644,0.0024053864,-0.0035999175,-0.0016807122,-0.00020576827,0.00025186618,-0.00071262196,-0.002494743,-0.0015796551,0.0034327796,-0.000502686,0.00016413443,-0.0011643791,0.011980815,0.0017107269,0.0060945996,0.00054645864,-0.00090331957,0.0011798469,0.004114374,0.0035566855,8.8029075e-05,-0.00043925084,-0.00086845364,0.001578379,-0.0020155823,0.0019999277,-0.008035465
CC(N)COCC(C)OCC(C)OCC(C)OCC(C)OCC(C)OCC(C)N,0.0024693971,0.0043721367,-0.002810277,0.0018632556,0.0017016046,0.000777188,-0.002051671,-0.002996988,-0.003185735,0.00045797974,0.0005770344,-0.0014075802,0.005476825,-0.002406763,-0.000477314,5.930662e-06,0.0020188661,0.003975639,0.00038177427,0.002348993,0.0010524476,0.0037410203,0.0003305578,0.005940577,0.0015953574,-0.0016225395,0.00025040796,0.002104315,-0.003531661,0.0025350153,0.0021780424,0.0018786192,0.00072724884,-0.0009407825,-0.0014718308,0.0036461651,0.00074878894,0.0030948855,-0.0040726755,0.0005615596,-0.0034139054,-0.001598517,-0.0028834967,-0.0011729561,-0.001417065,0.004112038,0.00027216692,-0.001182925,-0.0012246254,0.011662152,0.0036070002,0.004277921,0.00043733,-0.0014886297,0.0014136974,0.0018122639,0.0031596366,0.00015662843,0.0024415534,-0.0012630513,0.00066144764,-0.0028826874,0.0034204163,-0.0075075524
NCCNCCN(CCNCCC(CN)CCN)CCN(CCNCCN)CCN(CCN)CCN,0.0025777603,0.0039660623,-0.0027356464,0.0020740945,0.0012423377,0.00028357026,-0.0023853434,-0.0038409927,-0.002802806,0.0013074111,2.1085143e-05,-0.0011450907,0.0061935615,-0.0020132568,-0.0002682414,0.0007792432,0.0017001424,0.0041141678,0.0010516774,0.0027258636,0.0020326609,0.0043168124,0.00035234797,0.006334842,0.0022115465,-0.0019675405,0.0003883422,0.00083857775,-0.001841316,0.0019681482,0.0022793247,0.0022656694,-0.0003577997,0.00030662538,-0.0022767156,0.0030872729,0.00087669864,0.0038549975,-0.0049187234,-4.2654574e-05,-0.004232251,-0.0013263829,-0.002207255,-0.0011680946,-0.0010775381,0.0036548115,0.0007968424,-0.0015064087,-0.0006420561,0.010983542,0.0034248931,0.0037936256,1.4450867e-05,-0.0017243689,0.00032702181,0.0007635844,0.001998784,0.00070105493,0.0028907154,-0.0030128313,0.0015412681,-0.0029374193,0.0037340745,-0.007010732
CC(N)COCC(C)OCC(C)OCC(C)N,0.0009079566,0.005822746,-0.002591135,0.0025253673,0.002730498,0.0008981887,-0.0038419738,-0.0013457172,-0.001402664,-0.0006440263,-0.0011080448,-0.00106945,0.0058474056,-0.003713766,-0.0008949805,-0.0005784072,0.0026772935,0.0049498454,-0.00069902,0.0031446337,0.003847191,0.0022747703,4.612375e-07,0.0063319495,0.0017234366,-0.0021519884,0.0007450505,0.0016218638,-0.0030660592,0.0013455916,0.001909177,0.0015382064,0.0011232141,-0.0016518948,0.000101678306,0.003449317,0.0017769206,0.0030560708,-0.0036930246,-0.0004889639,-0.0018158155,-0.0006549463,-0.0027267225,-0.0017957985,-0.003268239,0.0037658121,0.00012347288,0.0003716536,-0.00209211,0.012310666,0.0041602394,0.0046965093,-0.0013593659,-0.0006929571,-0.00038321037,0.003150322,0.0029994901,-0.00041808747,-0.0002667792,-0.0009909915,0.0016027591,-0.0041574966,0.0040800376,-0.0062681763
CCCCCCCCCCN,0.0014433255,0.0070220977,-0.0015146676,0.001048631,0.0023181736,0.0008823818,-0.0037303101,-0.00080798607,-0.0019693365,-0.0021427665,-0.0027363654,-0.00032712158,0.0060435403,-0.0032349508,-0.0012254249,-0.00078463927,0.0027623912,0.0050678942,-0.00042316504,0.0021163505,0.005101688,0.0022274218,0.0011127566,0.006249587,0.0019590706,-0.0024534697,0.0013916718,0.0033078329,-0.003091842,0.0009819074,0.0022367612,0.00092561403,0.0010932134,-0.0014135181,0.0015461826,0.0039052404,0.0016828794,0.0024551386,-0.003827528,-0.0012344578,-0.0012148581,0.00019060099,-0.002311634,-0.00091057457,-0.0032433702,0.003543608,0.00019197259,0.0014378801,-0.0019136113,0.012473813,0.0043770587,0.004780716,-0.001546728,-0.00056713447,-0.0005803164,0.0033513424,0.0027182512,-4.867511e-05,-0.0019349847,-0.001815916,0.0018112091,-0.0038694823,0.0041338718,-0.007105548
CC(C)(COCC1CO1)COCC1CO1,0.0010517621,0.005250696,-0.0028103516,0.0021389136,0.0035993606,0.0015161769,-0.003967272,-0.0018932131,-0.0011768565,-0.001532495,-0.0021661203,-0.0016378451,0.00478757,-0.0037832353,-0.000720514,-0.00064897723,0.0015227376,0.006168619,0.000653998,0.0022056387,0.0046880133,0.0020235926,0.0007298307,0.0054715592,0.0013390016,-0.0021476964,0.0017366104,0.0016415119,-0.003390925,0.00087920297,0.0022550002,0.0030521508,0.0010914835,-0.0013716039,6.399816e-06,0.004322067,0.00088440254,0.0035552718,-0.0038367165,-0.00041104015,-0.0017000698,-5.55797e-05,-0.0025038254,-0.0011692941,-0.0032146373,0.003602324,1.78935e-05,0.0005880054,-0.0026930412,0.011359181,0.0037525399,0.004773812,-0.00080064824,-7.937197e-05,-0.0008567255,0.0034210752,0.0026085563,-0.0015002051,-0.00032148696,-0.0016867025,0.0024583237,-0.0035014115,0.0033284547,-0.0069140242
CC(N)COCC(C)COCC(C)COCC(C)COCC(C)COCC(C)CN,0.0029455265,0.0043038465,-0.0024412982,0.00198024,0.0020093247,0.00047172396,-0.002330292,-0.0032116314,-0.0026197778,0.00075380504,-0.0001492314,-0.0013421017,0.005927421,-0.0023300815,0.00043671206,-9.41176e-05,0.002386909,0.0041903947,0.00027151778,0.0030037782,0.0017380705,0.0040080156,8.042669e-06,0.0060286503,0.0018740855,-0.002118053,0.00059109635,0.0019351803,-0.002998177,0.002805681,0.0020113532,0.0026190886,-0.00027232757,-0.00055756187,-0.0020124267,0.0033555403,0.00020339713,0.0035507046,-0.0042392565,0.0004903469,-0.0032417933,-0.0011244933,-0.0028539794,-0.00134019,-0.0016614147,0.00431138,0.0008316906,-0.0013383273,-0.0016792729,0.01103983,0.0035018437,0.0038210242,-7.2156545e-05,-0.0014441488,0.00066287536,0.0019181226,0.0026673377,3.5295263e-05,0.0023119487,-0.0015675994,0.0011570444,-0.0030067237,0.003470188,-0.0070548663
CC(N)COCC(C)COC(OCC(C)COCC(C)N)OCC(C)COCC(C)N,0.002822212,0.004273854,-0.0024686009,0.001489656,0.0013475418,0.0003266614,-0.002387439,-0.0027638602,-0.0029001245,0.00067745335,-0.00022868998,-0.0013806166,0.005486332,-0.002695579,0.00033761002,0.00018696673,0.00232343,0.0044713616,0.00035479106,0.0029969923,0.0014069919,0.0044021625,-0.0003904528,0.0059613436,0.0016330201,-0.0023282203,0.00055176846,0.0021949448,-0.0025178269,0.0023704376,0.0022577816,0.0021583699,0.00018305285,-0.0002734796,-0.0015396117,0.0034283474,0.00078671426,0.0031652208,-0.004121529,0.00026034098,-0.003480086,-0.00087546394,-0.002777893,-0.0011572465,-0.00093438895,0.0041676657,0.00042031892,-0.0009575933,-0.0016766284,0.011419225,0.0027604736,0.004169066,-9.007589e-05,-0.0014938377,0.00094723236,0.0015696478,0.0023177024,-5.5921264e-05,0.0019975994,-0.0015602307,0.001215646,-0.0026421743,0.003372793,-0.0066223936
CC(N)COCC(C)COCC(C)CN,0.0012601623,0.006135715,-0.0026942724,0.001916409,0.0031351168,0.00078944815,-0.0037536994,-0.0017309692,-0.0015137596,-0.0005889721,-0.0020632818,-0.0009117907,0.006209731,-0.004157018,-0.00078383833,-0.0010104347,0.0026438795,0.005211316,-0.0006267568,0.002889641,0.0042457003,0.0027440954,0.00019601709,0.0060138013,0.001577843,-0.0023161983,0.001103091,0.0021396703,-0.0032157414,0.0013353825,0.0018686103,0.0012910315,0.00056265807,-0.00136291,0.00070477126,0.0037538297,0.0013339799,0.0036244001,-0.0037315693,-0.0006508576,-0.0018228125,-0.0004892391,-0.0023664283,-0.0011892207,-0.0035031738,0.0037708394,-0.00016275235,0.0006727204,-0.002420224,0.011884268,0.004125038,0.0044509773,-0.001456819,-0.0009384407,-0.0005552117,0.0027399524,0.0025846735,-0.00045297807,-0.0006573163,-0.0011746986,0.0016969959,-0.0039272318,0.0037676897,-0.006203484
CC(C)(c1ccc(Oc2ccc3c(c2)C(=O)OC3=O)cc1)c1ccc(Oc2ccc3c(c2)C(=O)OC3=O)cc1,0.00064816605,0.0044352543,-0.0011791633,0.0011761594,0.00032290258,0.0011609665,-0.0011439519,-0.0003056162,-0.0035933098,-0.0026668217,-0.0037703859,0.0006006581,0.0023983773,-0.002485387,-0.00045439973,0.0020905565,0.0033896947,0.0007008575,-0.0015754765,2.3867935e-05,-1.3183802e-05,-0.0006668344,0.00025601056,0.0057037733,-0.0002212245,8.3607156e-05,-0.0014714177,0.0033192798,-0.00019913353,-0.0011110269,-0.0013210289,0.0023817308,-0.0018785154,-0.0025436808,0.00053169555,0.0057650674,-0.0007166248,0.0020376546,-0.0011251122,-0.0015608231,0.0010863692,-0.00010771374,0.00019202847,-0.0042593554,-0.0006347513,0.0031478908,-2.413895e-05,0.0009684898,-0.0021566742,0.010697283,-0.00031094672,0.0061102402,-0.0020585721,-0.0023999987,-0.00019436609,0.0009809006,0.0014054757,-0.00080970814,-0.0012395121,0.0010901596,-0.0010830611,-0.0007914314,0.0036193887,-0.008258721
Nc1ccc(Oc2ccc(N)cc2)cc1,-0.0009985501,0.004694788,-0.0014133127,0.002326169,0.003284229,0.001671972,-0.004353582,-0.0018548508,-0.0034425864,-0.0023261998,-0.005160616,0.00046097775,0.0047676004,-0.0025347658,-0.002644213,-0.000690585,0.002374866,0.005072275,0.0001929095,0.0024530753,0.0035844343,0.0008458551,0.0011747412,0.0037286244,0.0015311949,-0.0021419623,-0.0007959347,0.0046873894,-0.003010055,0.0005941931,0.0011823745,0.00285915,8.0543105e-05,-0.00021590618,0.0014596799,0.004602829,-8.662976e-05,0.0031214012,-0.004246855,-0.002932162,0.0014733709,-0.00039269147,-0.0021585412,-0.002494989,-0.0032017631,0.0041567525,-0.0002769651,0.0019062608,-0.002410972,0.011065018,0.0033803359,0.006099601,-0.0023950147,0.00029742438,-4.7993846e-05,0.0052241464,0.0034708753,-0.0016313996,-0.0019137803,-0.00048924144,0.002455648,-0.0030369787,0.0026558712,-0.008290299
Nc1ccc(N(c2ccc(N)cc2)c2ccc(N)cc2)cc1,-0.0014523491,0.0028727073,-0.0015450735,0.0016171467,0.0021998622,0.0007489447,-0.004915244,-0.001877134,-0.0040112725,-0.0035343207,-0.0044211997,0.0004062656,0.0041381083,-0.0025204811,-0.0027151238,0.0011296496,0.0027049482,0.0044995323,0.00066995155,0.0021807873,0.0019874647,-0.00039994717,-0.0003979341,0.0019608382,0.0016955137,-0.0015684352,-0.0017467759,0.004471707,-0.0025828984,-3.8473867e-05,-0.00030912738,0.0042433552,6.632693e-05,5.6437682e-05,0.0006667585,0.0044838805,-1.7194077e-05,0.0029958673,-0.0039968453,-0.00285557,0.0018305108,0.0005302178,-0.0019722749,-0.0035593975,-0.0020763585,0.004353947,-4.070811e-06,0.0014407542,-0.001679471,0.011556104,0.0018012244,0.0063993265,-0.0013660518,0.00029230118,0.00068934914,0.005148146,0.0029732287,-0.0017642537,-0.0013269335,-0.0010223882,0.0025933702,-0.0025808122,0.0033051986,-0.0075476244
CC(C)(c1ccc2c(c1)CN(c1ccccc1)CO2)c1ccc2c(c1)CN(c1ccccc1)CO2,-0.0007900484,0.0042347293,-0.0008117547,0.0005545481,0.00038739853,0.0018757561,-0.00052698795,-0.0009447723,-0.004170644,-0.003657925,-0.003975095,0.0013145099,0.003288947,-0.0014876276,-0.001561556,0.0016307402,0.0034785,0.000538392,-0.0014616642,0.00011376478,0.0012813713,-6.0457736e-05,-0.00024124957,0.0042576995,0.00019399635,-9.07355e-05,-0.00040228007,0.0037969006,-5.69243e-05,-0.0011805594,-0.0012606806,0.0022487883,-0.0011887355,-0.0023114174,0.00078661065,0.006487379,-0.0012066271,0.001118389,-0.0024526948,-0.0026987558,0.00041431002,0.001500126,-0.0007951474,-0.003590377,0.000270925,0.0030063167,-0.00088680256,0.002235122,-0.0017242907,0.01088152,-0.00082184,0.0061390377,-0.0012113848,-0.0017025732,0.00039690733,0.0021662586,0.0018356144,-0.00085052336,-0.0030838232,0.0010403888,0.0010284218,-0.00019962527,0.0029552402,-0.008309201
CC(N)COCC(C)OCC(C)OCC(C)OCCOCCOCCOCCOCCOCCOCCOCCOCCOCCOCCOCCOCC(C)OCC(C)OCC(C)N,0.0034498135,0.0046752747,-0.0045102127,0.0025589643,0.00047846138,0.0023406893,-0.001185636,-0.0028942467,-0.0030981041,0.0020678714,0.0015967637,-0.00420238,0.0044206753,-0.0011786595,0.00015539303,0.00019914843,0.0011279415,0.0016412698,0.0005854266,0.0024202159,-0.0012582149,0.0026710257,-0.0022557308,0.0075804163,-0.0025948565,-0.0035132323,-0.0021963264,-0.00025910325,-0.00113515,0.0017609922,0.0033230404,0.0019424986,-7.358147e-05,-0.0026663928,-0.00253351,0.0028164499,0.00073863566,0.002191485,-0.0025030067,-0.0036807964,-0.0050695566,-0.0010704035,-0.0032062717,-0.004900677,0.001593071,9.199604e-06,0.0026404513,-0.0017536916,-0.0047772946,0.010168918,0.004113811,0.0060280594,-0.0031025875,-0.0026520677,0.0009195674,-0.0005143238,0.0011109821,0.002012332,0.0047075264,-0.0028670179,0.0011216765,-0.0022572586,0.0023531746,-0.00856899
NCCOCCOCCN,0.0011710087,0.0065518282,-0.0013635159,0.0015040548,0.0022101756,0.00084862555,-0.0037214058,-0.001150135,-0.0019535935,-0.0018573003,-0.0030106818,-0.00038110034,0.006343119,-0.003421953,-0.0011656024,-0.00088594854,0.0027298946,0.004961852,-0.0003947243,0.0019628042,0.004939436,0.002313776,0.001374854,0.006391016,0.0019884612,-0.0023940518,0.001460474,0.0031923363,-0.0033618119,0.0008420823,0.002169956,0.0007981467,0.0008382066,-0.0011686026,0.0016705177,0.0042059068,0.0013675261,0.0027743438,-0.0036035115,-0.0014835028,-0.0013356777,-0.0002737136,-0.0019638203,-0.00090877153,-0.0034481639,0.003368455,-4.0547922e-05,0.0014265534,-0.0021788378,0.012375104,0.0044206753,0.0049304185,-0.0017165313,-0.00086561125,-0.0005377354,0.0028562746,0.002987694,-0.0003353171,-0.0020195656,-0.0018664291,0.0015704627,-0.004079967,0.0040134722,-0.0071434127
COCCOCCOCCOCCOCCOCCOCCOCCOCCOCCOCCOCCN,0.0027573137,0.0053119026,-0.0024930816,0.002748406,0.0008286182,0.0013549894,-0.0031429958,-0.004267837,-0.0017194999,0.0007214304,0.0005111918,-0.00071003014,0.0072103944,-0.0032263808,3.4712255e-05,0.00041039474,0.0021813745,0.0030539762,0.0005920697,0.0027137902,0.0026119202,0.0043468066,0.0017705404,0.007151695,0.0014980473,-0.0023748744,0.0014090664,0.0013131304,-0.0032386705,0.0029511228,0.002407443,0.0023442646,0.00011363719,-0.00030103838,-0.0022050717,0.004787918,0.0014437903,0.0044068694,-0.004067815,0.00042823236,-0.0044749165,-0.00090959994,-0.0011529913,-0.0002260916,-0.0019448961,0.003169207,0.0014576586,-0.0016662609,-0.00090999156,0.010851268,0.004494534,0.004172698,0.00039315945,-0.0021723313,-0.00039413106,0.0027369582,0.0030081905,0.002407914,0.0017896984,-0.0016262168,0.001934221,-0.0037467591,0.0014770329,-0.007342237
COCCOCCOCCOCCOCCOCCOCCOCCOCCOCCOCCOCCOCCOCCOCCOCCOCCOCCOCCOCCOCC(C)N,0.0035702055,0.004694013,-0.003516009,0.0013171551,0.00025651976,0.003164825,-0.0008972036,-0.0031399776,-0.0031573335,0.0021162406,0.0027052779,-0.00304991,0.0064715147,-0.0020568483,0.0008114651,-0.00026230514,0.0016558301,0.0013198107,0.00071167015,0.002567288,0.0017252853,0.0048320796,-2.707541e-05,0.007756577,-0.0014808755,-0.0027001288,-0.00059022417,0.00017673243,-0.0012136027,0.0024388414,0.002793915,0.0015818584,-0.00037059886,-0.0015520374,-0.0033875715,0.004733024,0.0011831298,0.0029597199,-0.0044292314,-0.0035350667,-0.006032263,-0.00017175241,-0.0017589601,-0.0034301858,0.0011960827,0.00024486892,0.0029088184,-0.0024209768,-0.0025706275,0.009583231,0.0040137907,0.0051549855,-0.0017579929,-0.0032665813,1.2343749e-05,0.0011231769,0.0014425442,0.0034304191,0.0035574492,-0.0030758781,0.0018641707,-0.0025354289,0.00041608885,-0.007882202
COCCOCCOCCOCCOCCOCCOCCOCCOCCOCCOCCOCCOCCOCCOCCOCCOCCOCCOCCOCCOCCOCCOCCOCCOCCOCCOCCOCCOCCOCCOCCOCCOCCOCC(C)OCC(C)OCC(C)OCC(C)OCC(C)OCC(C)OCC(C)OCC(C)OCC(C)OCC(C)N,0.007467118,0.000784046,-0.008066735,0.0037735305,-0.0057646334,0.00020030001,-0.002260183,-0.0034545613,0.0013968991,0.002999736,0.004631076,-0.0023145264,0.0053761285,-0.0021229219,-0.0011354052,0.00021169335,-0.00081420224,0.0025096107,3.9866194e-05,0.0023702234,7.6821074e-05,0.00010421127,0.00036717928,0.00720373,-0.0035053827,0.0005174228,-0.0017824552,-0.0022173487,-0.0037801005,0.0023632701,0.0014760438,0.00633311,-0.002497032,0.00032211095,-0.0012153417,0.0014621336,-0.0011542197,0.005385747,-0.002487274,-0.0018965332,-0.00580231,-0.0020475527,-0.0018346664,-0.00066876784,0.0003857375,0.0010261023,0.0023021623,0.0018913504,-0.011718899,0.009093418,0.0029878942,0.0021911203,-0.0020518145,-0.0041238796,-2.8641894e-05,-0.0059878253,0.0037360135,0.005159514,0.004940795,0.0012495546,0.001968633,-0.0036831722,0.0011937134,-0.008902361
COCCOCCOCCOCCOCCOCCOCCOCCOCCOCCOCCOCCOCCOCCOCCOCCOCCOCCOCCOCCOCCOCCOCCOCCOCCOCCOCCOCCOCCOCCOCCOCCOCCOCCOCCOCCOCCOCC(C)OCC(C)OCC(C)OCC(C)OCC(C)OCC(C)N,0.0073980624,0.0010200841,-0.0090162,0.0032795318,-0.0049050506,-9.214366e-05,-0.0024562348,-0.0017106998,0.0012350921,0.0027152207,0.0054319,-0.002266089,0.0049850475,-0.0022122413,-0.0013241209,-0.00020230003,-0.0007571187,0.0032860674,-0.0001113629,0.00086072227,-2.892688e-05,0.00024259463,0.0010990512,0.008310338,-0.0026537348,0.0004513478,-0.0017748922,-0.0026780684,-0.0019682217,0.0024388693,0.0015739934,0.0058609396,-0.003495933,-0.00030638324,-0.0019999666,0.0014253799,3.1597912e-05,0.0051583834,-0.0024737082,-0.0017318493,-0.004891419,-0.002178359,-0.0017919391,-0.00070969574,0.00030987617,-0.0005315468,0.0017397003,0.0025573745,-0.0108304415,0.0091419695,0.0044091847,0.003352683,-0.0017357678,-0.0038597537,-0.00057075545,-0.0062489174,0.003084803,0.0042365836,0.003894182,0.00019528624,0.0009916243,-0.0027093738,0.00021336786,-0.007805664
NCCCOCCOCCCN,0.0012183795,0.006582221,-0.0017385213,0.0014499938,0.0021076407,0.00084641995,-0.003669466,-0.0010652309,-0.0019227928,-0.0013719117,-0.0026836647,-0.0005085807,0.0061672647,-0.003511615,-0.0011494253,-0.00065664575,0.002484154,0.004723124,-0.00041250512,0.0019650124,0.0049466267,0.0023732483,0.001231944,0.006584214,0.0018103868,-0.002334084,0.0016863213,0.002828708,-0.0032652244,0.0007831352,0.002226418,0.00065237004,0.0008067731,-0.0011156504,0.0016668587,0.0041237846,0.0015244503,0.0026048115,-0.003562782,-0.0011915294,-0.0017092042,-0.00032209,-0.0018035648,-0.00066091307,-0.0035406686,0.003282722,-3.0027702e-05,0.0014037695,-0.0021427562,0.012151157,0.0041943826,0.004633494,-0.001411804,-0.00073401816,-0.00038012303,0.002555421,0.003287321,-0.00020835176,-0.0017715953,-0.002048361,0.0017808047,-0.003981866,0.0038687587,-0.007157361
CC(C)(C)N,0.0013670987,0.0069943666,-0.0011786781,0.0010169232,0.0023577698,0.0009810359,-0.0042261397,-0.0008237742,-0.0020586327,-0.002663575,-0.0033352636,0.00036139868,0.0061307363,-0.002952112,-0.0013329182,-0.0009990018,0.0028751409,0.005245056,-0.00053878035,0.0023996127,0.0050676037,0.0019404497,0.0010345585,0.006130498,0.0020851176,-0.002112199,0.0008661089,0.003540489,-0.0029889923,0.0013764622,0.0024321973,0.0011103135,0.0011349088,-0.0012450279,0.001963856,0.004277082,0.0015323032,0.0023805052,-0.0036978517,-0.002053869,-0.0006883284,0.00043020863,-0.002752481,-0.0014475323,-0.003503895,0.0037845122,0.00022135768,0.0015297551,-0.0025023182,0.012449662,0.0044413544,0.0055528223,-0.0021016477,-0.00040036533,-0.0006864965,0.0034857509,0.00316461,-0.00078459876,-0.0022050254,-0.0014467249,0.0017052488,-0.0039894134,0.004357839,-0.0076941745
CCCCN,0.0018542847,0.007175792,-0.0012394367,0.0010050591,0.0023933928,0.0010219426,-0.004364799,-0.00045567873,-0.0021873536,-0.0027519455,-0.003251601,0.00043530937,0.006296655,-0.0029004682,-0.0012041759,-0.0012560114,0.0031673396,0.005372891,-0.00055036135,0.0022510905,0.0049079256,0.0022025425,0.0011952354,0.005946275,0.0020977352,-0.002180912,0.00078337046,0.0038820496,-0.003598569,0.0014979346,0.0024087918,0.0010068542,0.0013019345,-0.0014241361,0.0021568723,0.004421791,0.0013615005,0.0022491692,-0.0038072104,-0.0018964326,-0.0008402122,0.0004775962,-0.002545801,-0.0014545284,-0.0035293482,0.0035220338,0.0003288472,0.0014528129,-0.0024997192,0.012507479,0.004447679,0.005451027,-0.002079973,-0.00038606673,-0.0007685367,0.0040754494,0.0030423012,-0.00040939962,-0.002076272,-0.0013973871,0.001600015,-0.003981014,0.0043500373,-0.0076145995
CCCCCCCCCCCCCCCCN,0.0017789779,0.0069254003,-0.0020538438,0.00076100044,0.0025191698,0.0012721231,-0.003514954,-0.0012018175,-0.001941815,-0.0015096478,-0.0018387474,-0.00045145204,0.005979676,-0.003739223,-0.00093364157,-0.0005794298,0.0030004904,0.0049132984,-0.00029953476,0.0022927779,0.004904476,0.0028034002,0.001045061,0.006195642,0.001761198,-0.002427591,0.0012620459,0.002994527,-0.0031844322,0.0012510549,0.0021141896,0.00076688174,0.0012108111,-0.001299717,0.00090637594,0.0042068716,0.0013091099,0.002985226,-0.0040350715,-0.00057127606,-0.0019662278,0.00037822733,-0.0018790476,-0.00055877864,-0.0032384014,0.003238256,0.00013262406,0.0010035895,-0.0019427682,0.01210282,0.004136229,0.0040399353,-0.0010129963,-0.0009629,-0.0004983144,0.0038795662,0.0027038362,0.00039832527,-0.001128953,-0.0018124068,0.0021745488,-0.0038533248,0.0037502144,-0.007059724
CC(N)COCC(C)OCC(C)OCC(C)OCC(C)OCC(C)OCC(C)OCC(C)OCC(C)OCC(C)OCC(C)OCC(C)OCC(C)OCC(C)OCC(C)OCC(C)OCC(C)OCC(C)OCC(C)OCC(C)OCC(C)OCC(C)OCC(C)OCC(C)OCC(C)OCC(C)OCC(C)OCC(C)OCC(C)OCC(C)OCC(C)OCC(C)OCC(C)OCC(C)OCC(C)N,0.0023639416,0.0038278503,-0.005332605,0.0046097506,-0.0054748617,-0.00063776236,-0.00095796026,-0.0047805803,-0.0002263533,0.0005978383,-0.00014920346,-0.0021420207,0.003744468,-0.0008233581,0.0012784004,0.0014072713,-0.003092396,0.0018459447,0.000828187,0.0026875641,-0.0044670515,0.0008523688,0.00053185713,0.006398798,-0.00034670718,0.0014306759,-0.0008472975,-5.574152e-05,-0.008028638,-0.00021246728,-0.0015592254,0.0034264484,-0.0029706997,-0.0014055348,0.0010601822,-0.0015157536,-0.0016271956,0.0028413674,-0.0011150856,0.0050440542,-0.0038564373,-0.005159547,-0.0032122442,-0.00039424747,0.0008600629,0.0054053357,-0.0007794043,0.0012204684,-0.0121776275,0.010437302,0.004481798,-0.0033753414,0.0002443595,-0.002809655,0.0020445604,-0.0063604424,0.0077578546,0.0021788147,0.003929043,0.0009823758,0.00043615932,-0.0036068251,0.0024629124,-0.008803128
CC(N)COCC(C)OCC(C)OCC(C)OCC(C)OCC(C)OCC(C)OCC(C)OCC(C)OCC(C)OCC(C)OCC(C)OCC(C)OCC(C)OCC(C)OCC(C)OCC(C)OCC(C)OCC(C)OCC(C)OCC(C)OCC(C)OCC(C)OCC(C)OCC(C)OCC(C)OCC(C)OCC(C)OCC(C)OCC(C)OCC(C)OCC(C)OCC(C)OCC(C)OCC(C)OCC(C)OCC(C)N,0.0023639416,0.0038278503,-0.005332605,0.0046097506,-0.0054748617,-0.00063776236,-0.00095796026,-0.0047805803,-0.0002263533,0.0005978383,-0.00014920346,-0.0021420207,0.003744468,-0.0008233581,0.0012784004,0.0014072713,-0.003092396,0.0018459447,0.000828187,0.0026875641,-0.0044670515,0.0008523688,0.00053185713,0.006398798,-0.00034670718,0.0014306759,-0.0008472975,-5.574152e-05,-0.008028638,-0.00021246728,-0.0015592254,0.0034264484,-0.0029706997,-0.0014055348,0.0010601822,-0.0015157536,-0.0016271956,0.0028413674,-0.0011150856,0.0050440542,-0.0038564373,-0.005159547,-0.0032122442,-0.00039424747,0.0008600629,0.0054053357,-0.0007794043,0.0012204684,-0.0121776275,0.010437302,0.004481798,-0.0033753414,0.0002443595,-0.002809655,0.0020445604,-0.0063604424,0.0077578546,0.0021788147,0.003929043,0.0009823758,0.00043615932,-0.0036068251,0.0024629124,-0.008803128
CC(N)COC(C)COCC(C)(COCC(C)OCC(C)N)COCC(C)OCC(C)N,0.0035592886,0.0040487135,-0.002887168,0.0019515329,0.0012119189,0.00043377466,-0.0020519178,-0.0032687443,-0.003431295,0.0004966762,-0.00019906648,-0.0015003562,0.005513113,-0.0020463876,-0.00010164827,0.00040939823,0.0018072827,0.0032938085,0.00065065455,0.0026945616,0.0013187183,0.0042435545,-2.791523e-05,0.005864721,0.0012013968,-0.0015997174,0.0005360906,0.0020437194,-0.0025312752,0.002682521,0.0024750498,0.002416595,-0.00034915376,-0.0005887118,-0.002082751,0.0042348616,0.0003231559,0.0031118821,-0.0041137394,-0.00033892877,-0.0041349055,-0.0014146324,-0.002811254,-0.0014917813,-0.0008929861,0.003960345,0.0006474061,-0.0011409279,-0.0020245435,0.011294076,0.0033144206,0.00388262,-0.00012947153,-0.0018255673,0.00070069823,0.0012107836,0.0027627423,0.00031437958,0.0026600547,-0.0017366195,0.0005819923,-0.0033159452,0.0029137312,-0.007310574
CC(N)COC(C)COC(C)COC(C)COC(C)COC(C)COC(C)COC(C)COC(C)COC(C)COC(C)COC(C)COC(C)COC(C)COC(C)COC(C)COC(C)COCC(C)(COCC(C)OCC(C)OCC(C)OCC(C)OCC(C)OCC(C)OCC(C)OCC(C)OCC(C)OCC(C)OCC(C)OCC(C)OCC(C)OCC(C)OCC(C)OCC(C)OCC(C)N)COCC(C)OCC(C)OCC(C)OCC(C)OCC(C)OCC(C)OCC(C)OCC(C)OCC(C)OCC(C)OCC(C)OCC(C)OCC(C)OCC(C)OCC(C)OCC(C)OCC(C)N,0.002463569,0.0029243873,-0.0037279371,0.0056505743,-0.004575545,-0.0017038211,-0.0011823857,-0.0040167207,0.0003885012,0.0006840341,-0.0013918635,-0.0013398256,0.004146738,-0.0005662069,0.0015987717,0.00038268045,-0.0017963527,0.0025061332,-9.449292e-05,0.0031090316,-0.0029492918,0.0016514137,-0.0002502494,0.0050974526,0.00022500567,-0.00015418557,-0.00044375542,-0.00021481235,-0.007253919,-0.0010579266,-0.0015982497,0.0045560077,-0.0045444854,-0.0024571638,0.0006376939,-0.0016170777,-0.0015419926,0.004175503,-0.0006360663,0.0037978152,-0.0023183292,-0.003485439,-0.0043617515,-0.0015016906,-0.0017033061,0.005888057,0.00028966554,0.0026891734,-0.01213672,0.010110532,0.005583768,-0.0036154585,-0.0013614777,-0.002405338,6.0365535e-05,-0.0043891766,0.008559059,0.0016168146,0.0026355162,0.0012647305,0.00030705053,-0.005081932,0.001968218,-0.008361397
CC(N)COC(C)COC(C)COC(C)COC(C)COC(C)COC(C)COC(C)COC(C)COC(C)COC(C)COC(C)COC(C)COC(C)COC(C)COC(C)COC(C)COC(C)COC(C)COC(C)COC(C)COC(C)COC(C)COC(C)COC(C)COC(C)COC(C)COC(C)COCC(C)(COCC(C)OCC(C)OCC(C)OCC(C)OCC(C)OCC(C)OCC(C)OCC(C)OCC(C)OCC(C)OCC(C)OCC(C)OCC(C)OCC(C)OCC(C)OCC(C)OCC(C)OCC(C)OCC(C)OCC(C)OCC(C)OCC(C)OCC(C)OCC(C)OCC(C)OCC(C)OCC(C)OCC(C)N)COCC(C)OCC(C)OCC(C)OCC(C)OCC(C)OCC(C)OCC(C)OCC(C)OCC(C)OCC(C)OCC(C)OCC(C)OCC(C)OCC(C)OCC(C)OCC(C)OCC(C)OCC(C)OCC(C)OCC(C)OCC(C)OCC(C)OCC(C)OCC(C)OCC(C)OCC(C)OCC(C)OCC(C)N,0.00267505,0.0039533637,-0.0043038996,0.00505972,-0.0029874872,-0.0015838556,-0.001422409,-0.004080978,-0.00037966017,0.0016784165,-0.0015380457,-0.002086361,0.0051110573,-0.001207862,0.002847951,0.00095511787,-0.00014369283,0.0024421979,-0.0010087248,0.002826421,-0.0029173605,0.0029018447,0.0013480822,0.005621044,0.0006125588,-0.0016571819,-0.00058606965,8.0258586e-05,-0.006454522,-0.0003103055,0.00030699186,0.0027871188,-0.004490708,-0.0020898306,0.0012543336,-0.0025331378,-0.0010948405,0.004196843,0.0007896386,0.0032520825,-0.0022660717,-0.0019020168,-0.0035858415,-0.0012963954,-0.00031477492,0.005672314,0.0018142657,0.002605807,-0.011584787,0.010377556,0.0055463333,-0.002908914,-0.0027353754,-0.0016982397,-0.0007106606,-0.004460032,0.007855364,0.002682235,0.001966549,0.00019198284,-0.0005403012,-0.0048229266,0.00093152,-0.007820012
CC(N)COC(C)COC(C)COC(C)COC(C)COC(C)COC(C)COC(C)COC(C)COC(C)COC(C)COC(C)COC(C)COC(C)COC(C)COC(C)COC(C)COCC(C)(COCC(C)OCC(C)OCC(C)OCC(C)OCC(C)OCC(C)OCC(C)OCC(C)OCC(C)OCC(C)OCC(C)OCC(C)OCC(C)OCC(C)OCC(C)OCC(C)OCC(C)N)COCC(C)OCC(C)OCC(C)OCC(C)OCC(C)OCC(C)OCC(C)OCC(C)OCC(C)OCC(C)OCC(C)OCC(C)OCC(C)OCC(C)OCC(C)OCC(C)OCC(C)OCC(C)N,0.002463569,0.0029243873,-0.0037279371,0.0056505743,-0.004575545,-0.0017038211,-0.0011823857,-0.0040167207,0.0003885012,0.0006840341,-0.0013918635,-0.0013398256,0.004146738,-0.0005662069,0.0015987717,0.00038268045,-0.0017963527,0.0025061332,-9.449292e-05,0.0031090316,-0.0029492918,0.0016514137,-0.0002502494,0.0050974526,0.00022500567,-0.00015418557,-0.00044375542,-0.00021481235,-0.007253919,-0.0010579266,-0.0015982497,0.0045560077,-0.0045444854,-0.0024571638,0.0006376939,-0.0016170777,-0.0015419926,0.004175503,-0.0006360663,0.0037978152,-0.0023183292,-0.003485439,-0.0043617515,-0.0015016906,-0.0017033061,0.005888057,0.00028966554,0.0026891734,-0.01213672,0.010110532,0.005583768,-0.0036154585,-0.0013614777,-0.002405338,6.0365535e-05,-0.0043891766,0.008559059,0.0016168146,0.0026355162,0.0012647305,0.00030705053,-0.005081932,0.001968218,-0.008361397
CC(N)COCC(C)OCC(C)OCC(C)OCCOCCOCCOCCOCCOCCOCCOCCOCCOCCOCCOCCOCCOCC(C)OCC(C)OCC(C)N,0.0038685529,0.004474627,-0.0048954356,0.0021162685,0.00040695444,0.0019083717,-0.0013009626,-0.0024274166,-0.0027829064,0.002560949,0.0017742813,-0.003674325,0.0044085328,-0.0011031386,4.482828e-05,-1.39493495e-05,0.001042542,0.0016724002,0.000500815,0.0021782946,-0.00036905892,0.0023276974,-0.0027540398,0.008120554,-0.0018701162,-0.0033143868,-0.0023534102,0.00013916288,-0.00053126924,0.0013420181,0.0032575275,0.0022716578,-0.00041534333,-0.0023673498,-0.002832813,0.0025368575,0.00051722303,0.0027573518,-0.0028517395,-0.0040159775,-0.0047001047,-0.000739828,-0.0037005339,-0.0039445776,0.0016021435,8.844491e-05,0.0025778366,-0.0017445274,-0.0048873834,0.009706343,0.0042291917,0.006038537,-0.0039597666,-0.0026705954,0.0005731704,-0.0007538609,0.0014107414,0.002641316,0.0035435446,-0.002419372,0.0015298491,-0.0022429777,0.002534166,-0.008585936
CC(N)COCC(C)OCC(C)OCC(C)OCC(C)OCC(C)OCC(C)OCCOCCOCCOCCOCCOCCOCCOCCOCCOCCOCCOCCOCCOCCOCCOCCOCCOCCOCCOCCOCCOCCOCCOCCOCCOCCOCCOCCOCCOCCOCCOCCOCCOCCOCCOCCOCC(C)OCC(C)OCC(C)OCC(C)OCC(C)N,0.0070989477,-0.00050198846,-0.0065334737,0.0021240045,-0.004865749,3.7754537e-05,-0.0020200517,-0.0021825924,0.00013686065,0.0015932526,0.002728438,-0.0040844567,0.0063561834,-0.0017987397,0.0018127393,-0.00013748743,-5.3690746e-05,0.003128836,-0.00021422282,0.0025366968,-0.0024493448,0.00066205673,0.00067681423,0.0050650947,-0.0023014657,0.0026147054,-0.003346235,-0.0014295848,-0.0066439398,0.0025461456,-0.00067717256,0.005396868,-0.005167303,-0.0020541926,-0.002626843,-0.0012362637,-0.003148878,0.005183803,-0.001759992,-0.0006767893,-0.0030584903,-0.004162803,-0.0039884457,-0.00057033636,-0.00083638355,0.0030858163,0.0015541613,0.003830772,-0.013236476,0.011594123,0.0036264295,0.0022923155,-0.003315643,-0.003953698,0.0041430807,-0.0041681277,0.004663324,0.0027881726,0.005651079,0.0028560748,0.0023523346,-0.001889918,0.004168989,-0.008414506
COCCOCCOCCOCCOCCOCCOCCOCCOCCOCCOCCN,0.002450102,0.005624989,-0.0028153928,0.0026616645,0.0015057884,0.0016324685,-0.003456547,-0.003680475,-0.0010934081,0.00032109208,0.00016860478,-0.0007206683,0.007089654,-0.003650125,7.947348e-05,0.00032281503,0.002555917,0.0034548286,0.00033662096,0.00267681,0.0028197756,0.004080301,0.0019386334,0.0069542984,0.0014173519,-0.0026136928,0.0009770796,0.0016400209,-0.0035499688,0.0027904846,0.0022569569,0.0023296494,0.00010989141,-0.0005796547,-0.0016651165,0.004867155,0.0016019009,0.0044902284,-0.003992051,0.00051191077,-0.0039508,-0.0010427879,-0.0010913312,9.328127e-06,-0.0027218394,0.0034616552,0.0011322945,-0.0016348455,-0.0011970401,0.011029448,0.0046533775,0.0040739323,0.00030815415,-0.0019482067,-0.0005543567,0.0030412446,0.0028776266,0.0018315674,0.0016735829,-0.0016094605,0.0018649572,-0.004218937,0.0019800067,-0.0069293603
COCCOCCOCCOCCOCCOCCOCCOCCOCCOCCOCCOCCOCCOCCOCCOCCOCCOCCOCCOCC(C)N,0.0034551555,0.005044475,-0.0035551088,0.00147198,-8.520484e-05,0.0028843018,-0.0009826142,-0.0034302317,-0.0030703936,0.0019098613,0.0023361575,-0.0027178093,0.0067744646,-0.0021827538,0.0009781234,-0.00015304983,0.0017444873,0.001214888,0.0008083023,0.002699992,0.001877117,0.005170133,0.00035367557,0.0074026147,-0.0014011525,-0.002772958,-0.00043360313,0.00045688357,-0.0010663625,0.0023201816,0.0026395668,0.0015823473,-0.00065121194,-0.0015573711,-0.0031902,0.004992863,0.0014899559,0.0031138053,-0.004210626,-0.0033298386,-0.006188919,-0.00049752905,-0.0019485867,-0.0031965505,0.0011561397,0.0005700141,0.0025186287,-0.0022950172,-0.002282272,0.009808566,0.0042111594,0.004636264,-0.0012431857,-0.0029897597,4.1938387e-05,0.0011067404,0.0013885759,0.0033630247,0.003091691,-0.0029898463,0.001578161,-0.0023936396,6.1344355e-05,-0.007916796
CC(C)(C1CCC(OCC2CO2)CC1)C1CCC(OCC2CO2)CC1,0.0032468336,0.0039630914,-0.0028389357,0.0010004318,0.0015258715,0.0006961273,-0.0035613598,-0.003327335,-0.002019953,-0.0010973429,-0.00069274567,-0.0023598338,0.0031850804,-0.0013776831,0.000448972,0.0016449485,0.0020511942,0.004390072,0.0026100567,0.0014822893,0.0022736592,0.0028340723,0.00050289393,0.0054665413,0.0012075789,-0.0014666659,0.0020857132,0.0021019415,-0.0028294474,0.0013130605,0.0025970319,0.004182251,0.0007517552,-0.0007124096,-0.0013130822,0.003653301,0.0001395382,0.004082814,-0.0045475494,0.00057025906,-0.0026380923,0.000600751,-0.0016928902,-0.001345057,-0.00040323427,0.0040589096,7.112138e-05,-0.0013025887,-0.0008741729,0.01143937,0.0029042056,0.0056904904,0.001324621,-0.0007773107,0.00038294494,0.002645344,0.0020858832,-0.00040066754,0.0022687055,-0.0027845548,0.0017478475,-0.001025036,0.0031085154,-0.0075489804
O=C1CCCC(=O)O1,0.00096659083,0.0057467017,-0.0010639671,0.0011725794,0.0032824632,0.00042498345,-0.0039999494,-0.0012720454,-0.0018839315,-0.0023928918,-0.003253445,-8.993718e-05,0.0049419366,-0.003008414,-0.0012727827,-0.00057538785,0.0012120595,0.0056028217,0.00014201179,0.002169488,0.005362278,0.0015330352,0.0006857456,0.006281864,0.0013468862,-0.0024297326,0.0016717263,0.003027388,-0.0025798678,0.0006608758,0.0019002971,0.0013105487,0.00065508904,-0.0007449086,0.0015632582,0.0038596354,0.0005936306,0.003495587,-0.0039290003,-0.000918,-0.0007921504,-0.00025190366,-0.0027440628,-0.0012011994,-0.0038369838,0.0038775047,7.44462e-05,0.0014207978,-0.0024105257,0.01171332,0.004242275,0.00506763,-0.0008901791,0.00051458087,-0.00092649274,0.0026758336,0.0029700156,-0.0020923754,-0.0012311451,-0.0023512403,0.0016407082,-0.0031702062,0.0038757678,-0.007096627
c1cc(N(CC2CO2)CC2CO2)ccc1Cc1ccc(N(CC2CO2)CC2CO2)cc1,-0.00016271789,0.0033013886,-0.0017360179,0.0006742254,0.0011747014,0.00062398775,-0.0020263046,-0.0031245674,-0.002990028,-0.0021903608,-0.0015366115,-0.00026261708,0.0031902678,-0.0011131708,-0.0006857049,0.002616575,0.002807119,0.002477372,0.0015785685,0.00025007967,0.0011191647,0.002112832,-0.00014588516,0.0037613139,0.0014120135,-0.0017762417,0.0011940433,0.0037289732,-0.0008251779,-0.00018541049,0.00076541724,0.0033198418,-0.00052419864,-0.0014147251,-0.0003789405,0.0048995074,3.7364662e-06,0.0023383582,-0.0035645561,-0.0011951597,-0.0018374994,0.0008745049,-0.00055827387,-0.0024042763,0.0007360205,0.0022387896,-0.0009732777,-6.727688e-05,-0.00030220533,0.012476243,0.0010876609,0.00687914,0.0014170376,-0.0014542462,0.0014670407,0.001305175,0.0028849095,3.2745302e-06,0.00025285035,-0.0012899889,0.000744883,-1.5380792e-05,0.0029313685,-0.00670259
CC(C)(c1ccc(OCC(O)CN=[N+]=[N-])cc1)c1ccc(OCC(O)CN=[N+]=[N-])cc1,0.0003526872,0.0035124766,-0.001375718,0.001103152,-0.00018565916,0.00058322493,0.00030354038,-0.0016581371,-0.0036252392,-0.0009769546,-0.0033944827,0.0010878204,0.00426952,-0.0025088098,-8.626655e-05,0.0017824657,0.002726363,0.0011940487,-0.0014865948,0.0020321691,0.0022169538,0.002179848,0.00063459226,0.00513405,0.0017419942,-0.0015701633,-0.0014903947,0.004196196,0.0009631403,-0.000681703,-8.553499e-05,0.0020609386,-0.00012350595,-0.0011621402,-8.204882e-05,0.0053112824,-0.0007877741,0.0018179426,-0.0008537909,-0.0027216626,-0.0013459325,-0.00015944685,-0.0006343778,-0.0040944777,0.0011367039,0.002754366,-6.5349974e-05,0.00044375658,-0.0014302167,0.010841211,-5.86519e-05,0.0045184647,-7.378752e-05,-0.0019426355,0.00054575596,0.00045789732,0.00013261661,7.6720025e-05,-0.0014812611,0.00069016777,-0.00020401832,-0.0013464969,0.0034540165,-0.0067262677
C#CCOc1ccc(Cc2ccc(O)cc2OCC#C)cc1,-0.0014214655,0.004739534,-0.0016837427,0.0025492487,0.0019878447,0.0015984629,-0.003951963,-0.0018480611,-0.0027161557,-0.0034504412,-0.0041361516,-0.000510603,0.0040741675,-0.0020396318,-0.0021598097,0.00064570457,0.0036109313,0.0039023682,-0.00037036184,0.0013225945,0.002830645,0.00036287494,0.00035164668,0.0038813148,0.0017411057,-0.0022455691,-0.0009996842,0.005174487,-0.0028718114,0.0004576631,0.0004984848,0.0034894645,-0.00010288833,-4.992215e-05,0.0003060894,0.0041190777,-0.00079855695,0.0026098546,-0.003788488,-0.0015449328,0.0009291051,-0.0002763851,-0.001969777,-0.0019266251,-0.0021797977,0.0034473026,-0.00074213,0.00055158883,-0.0023497932,0.01100173,0.002153228,0.0045543094,-0.0007524602,0.00023817178,6.459467e-05,0.0049046823,0.0022037774,-0.0009943089,-0.0012834929,-0.00064568315,0.0019536135,-0.0020687291,0.003040201,-0.008148859
CCCCCCCCCCCCN,0.0015301472,0.007056998,-0.0017226944,0.0010099285,0.002357576,0.0009608483,-0.0036516292,-0.0009204104,-0.0018614922,-0.0019051628,-0.0024096034,-0.00025184645,0.0059031565,-0.0032711793,-0.001238659,-0.00072310306,0.0029454445,0.0049654897,-0.00045561697,0.002167398,0.005004282,0.0022657719,0.00094921165,0.0063544335,0.0018816851,-0.0024585375,0.0013647294,0.003193698,-0.0030227918,0.001027206,0.0021536415,0.0008723666,0.0011964352,-0.0014370796,0.0013313117,0.0038885586,0.0016733147,0.002570141,-0.0038097678,-0.0009794319,-0.0013722479,0.0002524804,-0.0022133244,-0.00081456825,-0.0033648266,0.0033983123,0.00012167916,0.0014086757,-0.0019037046,0.012266848,0.0043205107,0.004516263,-0.0013189018,-0.00069602765,-0.0005786447,0.003498808,0.00264718,0.00012499793,-0.0017811097,-0.0017497623,0.0019212798,-0.0037841843,0.004002386,-0.0071748206
NCc1cccc(CN)c1,-6.017927e-05,0.006370358,-0.001191806,0.0016435995,0.0030667093,0.0008482048,-0.003755331,-0.0009253993,-0.0025197463,-0.0025999583,-0.0043563396,0.0004947443,0.00530619,-0.0020859279,-0.0020021554,-0.00089657493,0.0024760514,0.0055941995,0.0005333591,0.0020130058,0.005173429,0.0014154222,0.000923672,0.0053345244,0.001436878,-0.0022670752,0.00057899056,0.0038593314,-0.0022620335,0.0007266253,0.0015110467,0.0015449543,0.0006091604,-0.0008199983,0.0023000115,0.0036981124,0.00016361661,0.0029253196,-0.0040913178,-0.0020437678,0.0007426366,-0.00018294132,-0.0026747491,-0.0021512657,-0.003849366,0.0039443653,-2.4050474e-05,0.0012362953,-0.0026250565,0.011308986,0.004375552,0.005126137,-0.0018873899,0.00038596708,-0.00050945487,0.003937146,0.0034408271,-0.0016812934,-0.0022387002,-0.0010962365,0.0012632385,-0.0030909711,0.0034497539,-0.007825946
Nc1ccc(Cc2ccc(N)cc2)cc1,-0.0011540102,0.0049776994,-0.0016028322,0.0024527856,0.0030541047,0.0014302565,-0.003979683,-0.0016353843,-0.0035167513,-0.0026867623,-0.00498504,8.80092e-05,0.0046053976,-0.002732858,-0.0028270744,-0.00059974566,0.0023991894,0.005114572,3.7323684e-05,0.0024115816,0.003637216,0.0005912073,0.00091340556,0.0037034843,0.0013163537,-0.0023766062,-0.0006952468,0.0047432757,-0.0027903765,0.0005287798,0.0010464652,0.0026555061,8.721696e-05,-0.00013987767,0.0012240144,0.0040319413,-0.00026075542,0.003080085,-0.004461645,-0.0025644442,0.0011469433,-0.00018556882,-0.0021341592,-0.0021035261,-0.0031154337,0.004092927,-0.00037415978,0.0021984242,-0.00227308,0.010618377,0.003214009,0.005714755,-0.0021958645,0.00024349056,-4.618708e-05,0.0054607545,0.0030244626,-0.0015179655,-0.0021408536,-0.00066768844,0.0025047865,-0.0028814143,0.0025611874,-0.008171175
Nc1cccc(N)c1,0.00042124093,0.0063524786,-0.0010561589,0.0013402235,0.0027479418,0.0012424439,-0.004140652,-0.0009612158,-0.0028123986,-0.0025936095,-0.004449604,0.0010402037,0.005856026,-0.0021615494,-0.0017581917,-0.0009934101,0.0026060278,0.0058597755,0.0007025758,0.002333906,0.005127593,0.0017195437,0.0012193101,0.005271362,0.001576012,-0.002105202,0.00032408128,0.0036819857,-0.0026812032,0.0009940201,0.0017760722,0.001539086,0.00075587165,-0.00076025305,0.0026115878,0.0043778196,0.0003238842,0.0027442873,-0.0041707866,-0.0027148006,0.00078761484,0.00011053658,-0.0026962478,-0.0024823062,-0.0038893,0.003906667,0.0002342537,0.0012582447,-0.002793231,0.0116129005,0.004235178,0.0056061544,-0.0022444143,6.6111796e-05,-0.0004067188,0.0042206966,0.003863344,-0.0018012635,-0.002159886,-0.0009090444,0.001291804,-0.0032345718,0.0035512485,-0.008045006
CC(C)(c1ccc2c(c1)CN(c1ccccc1)CCO2)c1ccc2c(c1)CN(c1ccccc1)CCO2,-0.00089650974,0.0039513074,-0.0013139239,-0.00020754244,0.00051002763,0.002617781,-0.0007606745,-0.0010114717,-0.0042328266,-0.002891195,-0.0033539124,0.0008872023,0.0034947712,-0.0013621375,-0.0016782731,0.0016801488,0.0033029262,0.0011637248,-0.0012716777,-0.00020903582,0.0010029133,-0.00018713623,-0.00026113098,0.0041163936,0.00026508607,-0.0005466598,-0.0014947486,0.0031253784,-0.00026599504,-0.0007152427,-0.0017627738,0.002036932,-0.0009610425,-0.0021040211,0.00039613387,0.005479658,-0.0013760626,0.0013911109,-0.0028526615,-0.002397311,0.00021144934,0.001342779,-4.6333298e-05,-0.0038757976,0.00028936565,0.0027848752,-0.0010262877,0.0015590638,-0.0015926724,0.011328829,-0.00039943866,0.0059554228,-0.00037846854,-0.0017654374,0.0004539583,0.0023261723,0.001402637,-0.00050775614,-0.0026581753,0.00071508717,0.0007874798,-0.0010503158,0.0030825296,-0.008064639
c1cc(N(CC2CO2)CC2CO2)ccc1OCC1CO1,-0.00020301342,0.0038784249,-0.0024730135,0.0027192985,0.0030955877,0.0013144687,-0.0041045537,-0.0027078858,-0.0016279919,-0.002566265,-0.0019635353,-0.0006372975,0.0032792818,-0.0019986033,-0.0009344928,0.0012132153,0.0021484783,0.00474992,0.0011619423,0.0015062504,0.0034036962,0.0010401066,0.00043822383,0.0045825653,0.0018159319,-0.0030615183,0.00084357173,0.0025387234,-0.0023228042,0.00056476984,0.001694621,0.0041349614,0.00085404934,-0.0011201487,-0.00025704782,0.003397299,0.00068703294,0.0025179386,-0.004033982,-0.0007447442,-0.00033186562,-4.029204e-05,-0.0019023437,-0.0019974522,-0.0026484337,0.0033644848,-0.00019855332,-0.00030312128,-0.0023681947,0.012191568,0.0029453374,0.0060610413,-0.00050245505,-0.00012900587,-5.6429766e-05,0.0041380045,0.0030616224,-0.0012609744,0.0005010832,-0.0012436258,0.0021162722,-0.0021951674,0.0033157552,-0.0074289674
O=C(O)CC(O)(CC(=O)O)C(=O)O,0.0009839861,0.00552712,-0.0021290397,0.0021510362,0.0034900848,0.0003289429,-0.0044647744,-0.0011558286,-0.0013664924,-0.000881155,-0.0019415058,-0.0007053533,0.005269062,-0.003519399,-0.00066580623,-0.00040600635,0.001951525,0.005210899,-0.0005200058,0.0035666383,0.0040204823,0.0018511005,7.657171e-05,0.00662296,0.0022625718,-0.002584966,0.0010237151,0.002146333,-0.0025402252,0.00033062417,0.0019853762,0.0016687489,2.3760833e-05,-0.0016444162,0.00037388923,0.0036012828,0.0018229,0.003144757,-0.0035580834,-0.00046099816,-0.0016750032,-0.00031312136,-0.002577356,-0.001678817,-0.003113186,0.004778576,0.00045607053,1.5394762e-05,-0.0020630192,0.012211446,0.0034810416,0.004698913,-0.0011313693,0.00022658613,-0.0006759092,0.002848389,0.002651507,-0.0011749743,-0.00046860427,-0.0014896197,0.0016743359,-0.0042535793,0.0047448864,-0.0058948854
O=C(O)CCCCCCCCC(=O)O,0.0015034759,0.006797988,-0.001965288,0.0010224725,0.0026172474,0.0009888548,-0.0038924757,-0.0012035876,-0.0018351935,-0.0011971323,-0.0024646223,-0.00053164404,0.005851602,-0.0036609266,-0.0010240469,-0.0007223971,0.0024595298,0.005247848,-0.00032098126,0.002593387,0.0046209656,0.0024364442,0.0005934506,0.006257185,0.0018068161,-0.0023719077,0.0012870615,0.0027328436,-0.0030829608,0.0011664387,0.0020760857,0.0008887984,0.00058112806,-0.0014628614,0.0008948962,0.003972929,0.0013856087,0.0030640084,-0.0040210336,-0.00036183093,-0.0017690398,3.855559e-05,-0.0019007269,-0.000660941,-0.003426237,0.0038191807,0.00020343997,0.0009148121,-0.0021529861,0.012045762,0.0041632866,0.0044874004,-0.0008725743,-0.0005108658,-0.0008410881,0.003220703,0.0027154796,-0.00040481798,-0.0011176132,-0.0017278483,0.001958055,-0.0034688944,0.0036956342,-0.0067736525
Cn1ccnc1,0.00094992947,0.006918229,-0.0011488935,0.00060838787,0.002612181,0.0006571091,-0.0036861878,-0.00067290093,-0.0021288814,-0.0033645574,-0.00407476,0.00095077074,0.0055691805,-0.0027470496,-0.0013530664,-0.0015483089,0.0025174804,0.006105369,0.00072194356,0.0027155988,0.005739133,0.0020799115,0.0010789048,0.005552193,0.0016522743,-0.0024151504,0.0007680424,0.004377445,-0.0024653617,0.0012308275,0.0020769367,0.0015840973,0.0008996418,-0.00071860105,0.0024062186,0.004354913,0.00039345957,0.0027194833,-0.004485665,-0.0018652575,-0.0004148418,0.00028581475,-0.00227986,-0.0017944574,-0.003988633,0.0036368184,-7.123873e-05,0.00067693926,-0.0022767314,0.011584185,0.004055513,0.005298453,-0.0017354907,-0.00021720398,-0.0007490292,0.004496423,0.0035943538,-0.0006516888,-0.0023087878,-0.0013300674,0.0017976668,-0.0039666304,0.0041526332,-0.00792662
O=C(O)CCCC(=O)O,0.00095037464,0.0061884653,-0.0013007428,0.0013184915,0.002910858,0.0005124768,-0.0040298747,-0.0012611918,-0.0018339287,-0.001835878,-0.003153992,-0.00033218873,0.005693538,-0.0032679997,-0.0013601221,-0.0007064957,0.0018446138,0.0051888507,-0.00040193927,0.002539611,0.004873192,0.0017086342,0.0006619722,0.006493694,0.0018116068,-0.0023239562,0.001555376,0.002767614,-0.002601048,0.00069404487,0.002028887,0.0010483544,0.0001552417,-0.0009996179,0.0013330672,0.004025437,0.0013417527,0.0029210616,-0.0035709813,-0.0012244927,-0.0010823524,-0.00016380381,-0.0024801735,-0.0012198053,-0.0035161157,0.004088673,0.00021776557,0.0012786798,-0.0023489795,0.012293866,0.004257732,0.0051551606,-0.0011553704,6.958656e-05,-0.0006799288,0.0024659275,0.002929328,-0.0015990715,-0.0016562603,-0.0017946092,0.0013544443,-0.0036772452,0.004194203,-0.0069575226
C1OC1COC1COC2C(OCC3CO3)COC12,0.0019046338,0.0045606904,-0.0030761631,0.0027860468,0.0034955349,0.0020645112,-0.0044436874,-0.0025827372,-0.00078196544,-0.0014303094,-0.0022134334,-0.002421706,0.004294129,-0.0037809964,0.00029678084,0.00010098517,0.0013074977,0.005870564,0.000745981,0.001679909,0.004106269,0.001543723,0.0013757457,0.005248172,0.001233926,-0.0022517182,0.0022895965,0.002503966,-0.003845241,0.0012026243,0.0024177157,0.0041181548,0.00074412907,-0.0010897401,-0.00049146265,0.0040165093,0.00019062497,0.004390193,-0.0034833485,0.00055847596,-0.0011264682,-0.0008922727,-0.001964447,-0.0015965737,-0.0026448076,0.003274613,-0.00016433373,-0.00065588765,-0.0030461634,0.011259278,0.0027483357,0.0049846047,-0.00048659882,0.0003778711,-0.0014011078,0.0029762923,0.001857413,-0.0016916618,0.000307085,-0.0015007472,0.002355779,-0.0032424117,0.00298265,-0.0065158997
Nc1ccc(SSc2ccc(N)cc2)cc1,-0.0012015859,0.004222898,-0.0015167603,0.0024224743,0.002954593,0.0016541495,-0.0048018945,-0.0017839975,-0.0036772573,-0.0025391253,-0.0052809147,0.0004913724,0.004845109,-0.0024595,-0.0029456075,-0.00069310144,0.002241931,0.0058917664,0.0007900633,0.0027117766,0.0034288643,0.0008103959,0.0008916601,0.003794117,0.0018023178,-0.0021088743,-0.0010003,0.003996715,-0.0024723802,0.0002613701,0.0010569808,0.0030752812,0.000115554314,-0.0001692716,0.0015185751,0.004734585,-0.00010401383,0.002836232,-0.0040020533,-0.0031113448,0.0012648413,3.0105002e-07,-0.0022527073,-0.003683623,-0.002953503,0.004291489,0.00014008209,0.002029989,-0.0016522787,0.011292128,0.0034232102,0.0060287206,-0.0016069748,0.0004326189,2.539996e-05,0.005671535,0.0033033025,-0.0018672887,-0.0015244596,-0.00045743864,0.0020668334,-0.0034727538,0.0025644172,-0.008223492
CC(C)(c1ccc(OCCOCC2CO2)cc1)c1ccc(OCCOCC2CO2)cc1,6.07837e-05,0.0036721434,-0.0012820056,0.0014051883,0.0010500886,0.0009377231,-0.0025876202,-0.002627298,-0.0035528773,-0.0020582005,-0.0022206176,-7.2487164e-05,0.0041099787,-0.0018312018,-0.0014937222,0.0019389316,0.0026163403,0.0026481077,0.0009578187,0.0011412757,0.0016042152,0.001432674,-0.000384541,0.0040389616,0.0011574514,-0.001416448,0.0002177112,0.0034079934,-0.0014102552,0.0003935108,-0.00011978205,0.0033024093,-4.810095e-05,-0.0011304296,-0.0010065339,0.004970135,-0.00023100525,0.002793111,-0.0034848265,-0.0014490662,-0.0010198401,0.00044770073,-0.0008765338,-0.0027347729,-0.00012141373,0.0032802206,0.00016351696,0.00063703395,-0.0008026585,0.011290752,0.0013976004,0.005874025,0.0011942217,-0.0013473593,0.0012171222,0.0030297847,0.0024270471,0.00023329025,-0.00069899485,-0.0009994628,0.0014343504,-0.0010536769,0.0023273341,-0.007329195
O=C1OC(=O)C2CCCCC12,0.001427534,0.0063522607,-0.0016523208,0.001508492,0.003380943,0.0008834293,-0.0036391094,-0.0017294835,-0.00161862,-0.0024089608,-0.0025927732,-0.0012133257,0.0041938387,-0.0029834248,-0.0009989738,-0.0005987957,0.0016788486,0.006056482,0.0009020716,0.0014145211,0.004915066,0.0018140897,0.00078240805,0.005814638,0.0007750578,-0.0024186275,0.0019979393,0.0025468362,-0.0031592436,0.0005013803,0.002041197,0.0016245204,0.0013657403,-0.0010678782,0.00078489934,0.0035919193,0.00018608198,0.0034350846,-0.0040022004,1.6546808e-05,-0.0015535057,-1.5951227e-06,-0.0023977524,-0.00051161647,-0.003645075,0.0031088488,-3.6789104e-05,0.0014326181,-0.0026372506,0.011268178,0.0041741934,0.0042230072,-0.00081008254,0.00015475228,-0.001126857,0.0033389446,0.0026119277,-0.0016650623,-0.0012873225,-0.0020219097,0.0017315047,-0.0022035753,0.0031775236,-0.007209954
CN(C)Cc1cc(CN(C)C)c(O)c(CN(C)C)c1,-0.0006142333,0.0048249234,-0.0026078708,0.0021850131,0.0022543613,0.001070518,-0.004320451,-0.0013065884,-0.002522028,-0.0020499658,-0.0023603588,-0.0003106547,0.0044323113,-0.0015813746,-0.001710007,0.0010715015,0.0027492484,0.004021695,-0.0003024796,0.0019093854,0.0032952102,0.0004729405,0.00022287224,0.0048000365,0.0018424299,-0.0020518703,6.911601e-05,0.0033528912,-0.001836896,0.00042690523,0.001583002,0.0025976654,-0.00028793374,-0.0005869884,0.00048410543,0.003408501,8.0075115e-05,0.0022599995,-0.0037604757,-0.0011359351,-0.00014855247,-0.0005374062,-0.0021991841,-0.0018872954,-0.0026088068,0.003889149,-6.050989e-05,-0.00046566688,-0.0017933536,0.011946043,0.002438373,0.0051542684,-0.0009860392,-0.000116811134,0.0008770712,0.003838167,0.0036950074,-0.00096391,-0.0003475491,-0.0007340545,0.0013891077,-0.0029399712,0.003988495,-0.00764005
CC(C)(c1ccc(OCCOCCOCCOCC2CO2)cc1)c1ccc(OCCOCCOCCOCC2CO2)cc1,-0.00044276845,0.0050124805,-0.001916606,0.0009242967,-0.0010723751,0.0019870177,-0.00012616534,-0.002377125,-0.0039145956,-0.0005333936,-0.0012859777,0.00016822832,0.0048946273,-0.0020237397,-0.0006560348,0.0016847122,0.003348792,0.0010026246,0.00018224493,0.0011162339,0.0023416746,0.0024635773,0.0003957653,0.0053270534,0.00033593364,-0.0015357621,-0.0011587271,0.0028028772,0.0009747427,0.0007056212,0.00017790543,0.0025537228,-0.00014947727,-0.001240944,-0.001141866,0.004975207,-0.00013068132,0.0019348403,-0.0024120156,-0.0030179778,-0.0016836273,-0.0001563204,-0.0021047313,-0.0048350636,0.00045825774,0.0023063077,0.00046835095,-0.0005184598,-0.0015144162,0.010980539,-3.558118e-05,0.0049572545,0.00057720323,-0.0025330158,0.00072665047,0.0022768225,0.00073254853,0.00073981564,-0.0008004587,-0.00016167574,0.0014485363,-0.0010227561,0.0031285556,-0.0083556
Cc1cc(-c2cc(C)c(OCC3CO3)c(C)c2)c(C)cc1OCC1CO1,0.00068445224,0.0041874107,-0.002252819,0.00095011806,0.00048789568,0.0013006816,-0.0014818963,-0.0024251605,-0.0039542234,-0.0023919437,-0.002409719,-0.0010152222,0.004411323,-0.0021966118,-0.0011367146,0.0022279862,0.0026494367,0.0026465133,0.0003725607,0.0007875003,0.0018221503,0.0011813324,-0.00029321457,0.0036632493,0.001783412,-0.0019672825,-8.631282e-05,0.0036285827,-0.0009604022,0.00017471611,-0.00023725908,0.0027799923,-0.00037783058,-7.730117e-05,-0.00033583934,0.004216794,-0.00078242645,0.0023198482,-0.0033783251,-0.0014338987,-0.00036224257,0.00048429985,-0.0014221137,-0.002794508,0.0003319597,0.003064897,-0.00029480085,0.00021008402,-0.001780641,0.011734151,0.0015272694,0.004928294,0.0012019451,-0.0003873827,0.0011527175,0.0024048458,0.0024701618,0.00031551998,-0.00017178059,-0.00041231047,0.0010618484,-0.00088109076,0.0023094285,-0.0072078193
Cc1cc(OCC2CO2)c(C(C)(C)C)cc1-c1cc(C)c(OCC2CO2)c(C(C)(C)C)c1,-0.0008348059,0.0042074397,-0.0020070877,-0.00047339965,0.0010133404,0.0015797955,-0.001102413,-0.0019381519,-0.0043378146,-0.00076440815,-0.0018036794,-0.0016644818,0.003727911,-0.0017555207,-0.00089268945,0.0018189754,0.002564785,0.0031148568,-0.00033639,-0.0001883558,0.0016652653,0.0022847317,-0.00063694874,0.0038052034,0.001189148,-0.0011877678,-6.1930274e-05,0.0034937365,-0.0009486899,-0.00062901527,-5.4031145e-05,0.0020281924,0.00061224774,-0.0013028164,-0.00029036868,0.0043710284,-0.0009978842,0.0019094497,-0.0041046254,-0.0014517633,-0.001697449,0.0010077097,-0.0012301058,-0.002697233,0.0016421806,0.0021613976,-0.00062222406,0.0005078763,-0.00091648195,0.011790497,0.0006697159,0.005237701,3.482704e-05,-0.0015815422,0.0012795478,0.00035396218,0.0015382674,0.00029056286,-0.0010646991,-0.0009421157,0.0012071971,-2.5368296e-05,0.0034034895,-0.0073429104
N#COc1ccc(CC2CCCC(Cc3ccc(OC#N)cc3)C2)cc1,0.00037004147,0.00403376,-0.0023173913,0.0006609503,0.0021064077,0.00034432183,-0.0029208455,-0.0023182563,-0.00226718,-0.0031835036,-0.0030903518,-0.0006337018,0.0039019026,-0.0016308054,-0.0013554879,0.002001362,0.002962973,0.0033613667,0.00083208364,0.0004970692,0.0030573858,0.0006209258,-0.00036147237,0.0031737704,0.0015694965,-0.001827593,-5.209993e-05,0.0039878422,-0.002677342,0.00071879476,0.00014847936,0.003790331,-0.00026734872,-0.0003153016,2.1211337e-05,0.0037245322,-0.0016431473,0.0031577898,-0.003839068,-0.0007584216,-2.8362498e-05,-0.00014169235,-0.0010010432,-0.0018585175,-0.002000679,0.0028645238,-0.0009635994,-0.00028334558,-0.0021488932,0.012173353,0.0013574865,0.0037102294,0.00053864694,-0.0003876472,0.0007226402,0.0031479984,0.0029231422,-0.0005329717,7.473491e-05,-0.0018659877,0.0018475614,-0.0019285874,0.0037785554,-0.007604042
NCCNCCN,0.001593302,0.0067900326,-0.0011628075,0.0010804837,0.002396308,0.0007190367,-0.004010154,-0.00059922854,-0.0022489596,-0.002436798,-0.0033132387,0.00032636808,0.0061617047,-0.0031556059,-0.0012177154,-0.0010581203,0.0028877873,0.0052773617,-0.00053426437,0.002217617,0.004844241,0.0022742543,0.0012005407,0.006171396,0.0020648781,-0.0022874014,0.0008932976,0.0034537558,-0.0033641942,0.0012294324,0.0020084835,0.00077196583,0.0010562348,-0.0011696839,0.002060097,0.0044141375,0.0012694281,0.002471785,-0.0037680548,-0.0019222172,-0.0010641981,0.00030237064,-0.002402572,-0.0011963993,-0.0036520036,0.0035843719,0.0002168417,0.00157593,-0.0023682315,0.012315248,0.0045031393,0.0053819683,-0.0018669092,-0.00052074343,-0.00058576744,0.0035615922,0.0031056423,-0.0006478382,-0.0021152217,-0.0017224746,0.0015611518,-0.003960913,0.0041910326,-0.007508723
O=C=Nc1ccc(Cc2ccc(N=C=O)cc2)cc1,-0.0015720073,0.004963776,-0.0015012091,0.0021788962,0.0026117284,0.0016597293,-0.003338526,-0.0017043249,-0.0028642556,-0.0032083048,-0.004438471,-0.00030178291,0.0040305927,-0.003016701,-0.0023732781,0.00075590797,0.0032683043,0.0044376384,-0.0006871559,0.001620078,0.0026207939,0.00017790124,0.00018357416,0.0038115494,0.0018063746,-0.0024209367,-0.0014620114,0.0052188407,-0.0022670496,1.4699064e-05,0.00035007205,0.0030140579,0.0002058181,0.00045512337,0.00052745873,0.0035635717,-0.00059812143,0.0024630297,-0.0036980687,-0.0018484043,0.00062045176,-0.00042587705,-0.0017862739,-0.0017393101,-0.0027099047,0.003699502,-0.0005694404,0.0013861861,-0.0019717275,0.011065338,0.0016974257,0.0039709904,-0.0006360705,0.0004923474,-0.0002835309,0.0046942164,0.0023385864,-0.0015365425,-0.001685584,-0.0006970735,0.0025015357,-0.0027182149,0.002882706,-0.008259294
O=C(CCCC(=O)OCCCCOC(=O)CCCC(=O)OCCCCOC(=O)CCCC(=O)OCCCCOC(=O)CCCC(=O)OCCCCO)OCCCCO,0.004078255,0.0047872216,-0.0035868036,0.0017637582,0.0010416042,0.002384887,-0.0014058603,-0.0016481807,-0.0024159774,0.0014201347,-0.0004580319,-0.0025623776,0.0014979187,-0.0021073017,0.0013824962,0.0015091468,0.00045448076,0.001225844,0.0001359107,0.0022845222,-0.0011125188,0.0021226108,-0.0015781214,0.007331729,-0.0023588352,-0.0023501357,-0.0019946261,0.0034191553,-0.00074455515,0.0012173867,0.00326883,0.0027030269,-0.0012321249,-0.0009164498,-0.0021116624,0.004454663,-0.00065300055,0.002874584,-0.0014619157,-0.0014441712,-0.004115897,-0.0021822392,-0.0031375168,-0.0026805177,0.0006962251,0.00035406742,0.0014824299,-0.0018736701,-0.0057498943,0.010885973,0.0030563148,0.005548787,-0.0012133513,-0.0022182819,0.0015448239,-0.0021630048,0.0014072731,0.00106965,0.0041214637,-0.0034858352,-1.4581718e-05,-0.0010652896,0.004071393,-0.008584968
CCC(CO)(CO)CO,0.001255299,0.006520521,-0.0012942478,0.0012010653,0.002738515,0.00080644037,-0.004222841,-0.0011772744,-0.0020581437,-0.0018763775,-0.0031764945,-1.3283745e-05,0.0062726494,-0.003285762,-0.0013018362,-0.0012352895,0.0025465665,0.005325565,-0.0003527496,0.0027112938,0.0047915783,0.0019990169,0.0008006075,0.0061346786,0.0020343196,-0.0021489477,0.001062589,0.0030188784,-0.0032514408,0.0013134992,0.0020518862,0.0010816143,0.00068163686,-0.0014088531,0.0015821974,0.004325295,0.0013836343,0.0028415304,-0.0034767995,-0.0017497251,-0.00087965187,9.4070565e-06,-0.0025694817,-0.0018311739,-0.0035476857,0.0038129594,0.00014352612,0.0011940747,-0.0025215803,0.012275703,0.0045666136,0.0057055256,-0.0017826059,-0.00033934694,-0.0006018793,0.0030846247,0.0030219574,-0.00086745154,-0.001796145,-0.0011614272,0.0014247969,-0.0037153596,0.0042252718,-0.0071787285
O=C(CCCC(=O)OCCCCOC(=O)CCCC(=O)OCCCCOC(=O)CCCC(=O)OCCCCOC(=O)CCCC(=O)OCCCCOC(=O)CCCC(=O)OCCCCOC(=O)CCCC(=O)OCCCCOC(=O)CCCC(=O)OCCCCOC(=O)CCCC(=O)OCCCCOC(=O)CCCC(=O)OCCCCO)OCCCCO,0.0051331846,0.001751041,-0.0043509947,0.0033771587,-0.0049189124,-0.0013152434,-0.001964828,-0.0023707508,0.00013181474,0.00047551468,0.00079522096,-0.003084652,0.0021041278,0.00013279915,0.003559934,0.00267102,-0.0014018165,6.578304e-05,0.00086354185,0.0043875733,-0.00047276728,0.0005394872,-0.00036779768,0.005872042,-0.00076031685,0.0014748699,-0.001524615,0.00086287875,-0.004845662,0.0023548938,0.0017555119,0.0036103642,-0.0036517372,0.0021629022,-0.00091361813,-0.0003935229,-0.0031005796,0.0060104206,-0.00012656115,0.0023967642,-0.0024634106,-0.0036634635,-0.003971976,0.0006272048,-0.00080805086,0.0031277742,0.0018452406,0.0023957752,-0.01102265,0.011647504,0.0027665636,-0.0008361961,-0.00043999427,-0.0026752297,0.00043373276,-0.00578763,0.0060730036,0.0010337303,0.0038185678,0.0016441606,0.0017813025,-0.0022621201,0.0044844244,-0.008568828
O=C(CCCC(=O)OCCCCOC(=O)CCCC(=O)OCCCCOC(=O)CCCC(=O)OCCCCOC(=O)CCCC(=O)OCCCCOC(=O)CCCC(=O)OCCCCOC(=O)CCCC(=O)OCCCCOC(=O)CCCC(=O)OCCCCOC(=O)CCCC(=O)OCCCCOC(=O)CCCC(=O)OCCCCOC(=O)CCCC(=O)OCCCCOC(=O)CCCC(=O)OCCCCOC(=O)CCCC(=O)OCCCCOC(=O)CCCC(=O)OCCCCO)OCCCCO,0.00431157,0.0021572728,-0.0036515929,0.0051770364,-0.0067395736,-0.0020706754,-0.0021524355,-0.0038554212,0.000110707246,0.00022488087,0.0008269828,-0.0021791065,0.0017019212,-0.0001106821,0.0029397495,0.002731122,-0.002790541,0.0008094758,0.0016409801,0.0033656359,-0.0003909357,0.0012702607,0.00030998723,0.005670231,0.001880182,0.0023992625,-0.0012242292,0.0016158968,-0.00477181,-7.660873e-05,2.3457687e-05,0.004317535,-0.003617799,0.0019158083,0.00027547334,-0.0024904553,-0.0028241538,0.0043244753,-5.5006705e-05,0.004237742,-0.003519619,-0.004449012,-0.003160744,0.0018254537,0.0002354933,0.0038724784,0.0008150488,0.0016641058,-0.011883456,0.011357912,0.004071856,-0.003836983,-0.00068517076,-0.0025409777,-0.0004809592,-0.004672727,0.00825135,0.0012535225,0.0023513585,0.0012042988,0.00017420948,-0.003550386,0.0027977284,-0.009251803
C=C(C)C(=O)OCCOCCOCCOCCOCCOCCOCCOCCOCCOCCOCCOCCOCCOC(=O)C(=C)C,0.0023543136,0.0060117785,-0.0026010796,0.0020025629,0.0002084542,0.0015991444,-0.0013161451,-0.0032135549,-0.0032964582,0.0004239846,0.0018547587,-0.0018218439,0.005597068,-0.0016415007,0.0013471656,0.0009311661,0.001585423,0.0019816533,0.00069847796,0.0037589222,0.002963231,0.0052456427,0.00047957036,0.0077248346,-0.0002457872,-0.0016036127,-0.0002348763,0.0012639323,7.353909e-05,0.00072487537,0.0023125357,0.0022233184,-0.00013324991,-0.00015425542,-0.0024624642,0.0051214136,0.0010339171,0.003344575,-0.003773597,-0.0022913301,-0.004522714,-0.0007365227,-0.0031635938,-0.0023822784,0.001664638,0.0013593109,0.0027527139,-0.0015553385,-0.0023639794,0.010291143,0.003609702,0.004762882,6.319303e-05,-0.0012849076,-4.3164007e-05,0.00080335885,0.0016562473,0.0024322649,0.0019662157,-0.0021174857,0.0012280196,-0.0010372493,0.0007731877,-0.008561309
O=NN([O-])c1ccccc1.O=NN([O-])c1ccccc1.O=NN([O-])c1ccccc1.[Al+3],-0.0012440737,0.002865035,-0.0008434551,0.0010022274,0.0005212575,0.0010693723,-0.0017073294,-0.0011430737,-0.0038795015,-0.0022550058,-0.004874807,0.0013214084,0.0042611193,-0.0014987253,-0.0009428505,0.0017464831,0.0024713585,0.0021500122,-0.0008863723,0.0011398066,0.0017616851,0.0017398391,0.00035681226,0.004385287,0.0019137766,-0.0005684034,-0.0019641274,0.004467423,0.0012919158,-0.0017947098,-0.00062205875,0.0034665018,-0.0011447533,-0.0010739272,0.00033844227,0.006598916,-0.00099314,0.0011898894,-0.0013498832,-0.0024499698,0.00083912443,0.0002986351,-0.0012859553,-0.0037861802,0.00044048112,0.0023609046,-0.001335064,0.00055566244,-0.00017704675,0.011934427,-2.1184795e-05,0.005472345,-0.00015217578,-0.0023115026,-0.0012870203,0.0007384154,0.0014501344,-0.0009012697,-0.0038209632,0.00034347083,0.00047146762,-0.0027031554,0.0026299637,-0.0073855733
CC(COC(=O)CCS)(COC(=O)CCS)COC(=O)CCS,0.0020259349,0.0053052194,-0.0021129875,0.0026952233,0.0025587957,3.1335047e-05,-0.00436519,-0.002427224,-0.0018655919,-0.00014249329,-0.0017516017,-0.0013502606,0.0045564715,-0.0011832435,4.291907e-05,0.00070197694,0.0025288258,0.0048656464,0.0007275883,0.0034399924,0.0034529706,0.0020587388,0.0003347064,0.007151437,0.0029813107,-0.0026848535,0.00043656386,0.0017730538,-0.0024320874,0.0012982115,0.0023067896,0.0024336576,-0.0006261468,-0.00084038964,-0.00140119,0.0028848033,0.00029748678,0.003757069,-0.003737649,0.0006057061,-0.0027065426,-0.0009874825,-0.0023099799,-0.0018656775,-0.0024520103,0.004416759,0.0009070225,-0.001031233,-0.000989588,0.011371295,0.0040908474,0.004493113,-0.00012291642,-0.00044389348,-0.0005998574,0.0027851337,0.003059933,-0.00030966522,0.00094109774,-0.0013135215,0.0014536972,-0.003937468,0.0041586496,-0.006609885
C=CCn1c(=O)n(CC=C)c(=O)n(CC=C)c1=O,0.00077431183,0.0051543284,-0.0022896845,0.0011467473,0.0029625613,9.746512e-05,-0.0031948918,-0.0015049366,-0.0019436916,-0.002508385,-0.0021890402,-0.0003433153,0.0039431676,-0.0014879443,-0.0007083174,0.0002975557,0.002891926,0.004405204,4.897546e-05,0.0021696487,0.0030314624,0.0019083917,-0.00051420275,0.0048674494,0.002960872,-0.0026114967,-0.00070124376,0.0036798427,-0.0024207681,9.5666386e-05,0.0014485968,0.0026097521,-0.00024883635,-9.174412e-05,-0.00073635206,0.0032418892,-0.00048914924,0.001684566,-0.004687203,0.0006420063,-0.0019211378,2.0131702e-05,-0.0018787719,-0.001078289,-0.0032910407,0.0041264305,-0.0005840827,-0.00097525865,-0.0011847857,0.013244597,0.0035598911,0.0039791013,-0.000582275,-0.00055916794,-3.7558377e-05,0.0041115745,0.0028306749,-0.0008079908,0.00033542328,-0.0011076694,0.00093557173,-0.0020266818,0.0046283463,-0.008095205
C=CCOCC(COCC=C)(COCC=C)COC(=O)NCC1(C)CC(NC(=O)OCC(COCC=C)(COCC=C)COCC=C)CC(C)(C)C1,0.0040590735,0.004299829,-0.0056107063,0.0010382636,0.002142107,0.0015254582,-0.0014903601,-0.00089295383,-0.0015224367,0.00091122836,-0.00026241317,-0.003179018,0.0025097504,-0.0033232588,0.001803536,0.0014602728,0.0009922218,0.0012927372,-5.5378303e-05,0.00220411,-0.00045836903,0.003864171,-0.00081504905,0.005394155,-0.0020695198,-0.0023088926,-0.0006617405,0.0033775321,-0.001170544,0.00053283013,0.0031198757,0.0020444226,-0.0013747658,-0.002000744,-0.0007235829,0.004385518,0.0008170549,0.0040368084,-0.0021485286,-0.0014133481,-0.0037740832,-0.0007757009,-0.0013824729,-0.001610022,0.0017031902,0.0026985835,0.0025268877,-0.001982214,-0.005298268,0.010190301,0.0022722008,0.0042144298,-0.0013307468,-0.0025264751,0.00079322886,-0.0022710043,0.00092111155,4.4125132e-05,0.005756879,-0.0039526755,0.000112010166,-0.0005699992,0.0031069359,-0.0066427067
C=C(CCS)OCC(COC(=O)CCS)(COC(=O)CCS)COC(=O)CCSC(=O)NCC1(C)CC(NC(=O)SCCC(=O)OCC(COC(=O)CCS)(COC(=O)CCS)COC(=O)CCS)CC(C)(C)C1,0.0028257342,0.0044051837,-0.0056062425,0.0020243125,-0.0028534122,-0.00015382248,-0.0024848348,-0.0031294595,-0.0014951546,0.0022505485,-0.0020296797,-0.0015655588,0.0007388722,-0.004320815,0.00219273,0.0028670821,-0.0005943831,0.0032123309,0.00030377973,0.0013436428,-0.0013853703,0.0009751357,-0.00027998164,0.0072553214,-0.003000889,-0.0034430332,-0.0014619275,0.002195865,-0.001669893,0.00070123933,0.0029287657,0.0024847016,-0.0028076805,-0.001230571,-0.00058973767,0.0023257677,0.0009033121,0.0025631683,-3.5718083e-05,0.0021245806,-0.0031368332,-0.0016823054,-0.0023971014,-0.0008498877,-0.0011757237,0.0032316688,0.001425473,0.0011554882,-0.004910887,0.011399944,0.004584955,0.0029439419,-0.0013463828,-0.0035221288,-0.00089929625,-0.0052792784,-0.0002087988,0.00056804763,0.002486363,-0.0027211336,0.0009846673,-0.00027414132,0.0037624324,-0.005839537
C=CCOCC(CO)(COCC=C)COCC=C,0.001732708,0.0059970934,-0.0026959283,0.0020236848,0.0032456405,0.00078914105,-0.0037465254,-0.0019858694,-0.0011847159,-0.00019601919,-0.0018825922,-0.0012967684,0.0057467874,-0.003970355,-0.000112298876,-0.00078098103,0.002037636,0.005100675,0.00010194071,0.0031487665,0.0040797424,0.003125105,0.0006597771,0.0063766353,0.0017877091,-0.0023689712,0.0008524901,0.0015945565,-0.003288081,0.00084245857,0.0018820942,0.0016609272,-0.00010316353,-0.00057989685,-0.00027861097,0.004411675,0.00089339167,0.0038252566,-0.0038282024,0.00030831713,-0.002597738,-0.00050809,-0.0021436587,-0.00079360977,-0.003221089,0.0042226044,0.0004150467,-0.00041104108,-0.0025048014,0.0117651755,0.0037272144,0.0037602517,-0.00064542843,-0.00043136068,-0.0008661938,0.002644071,0.002487544,-0.00052561983,0.0003453456,-0.0014601843,0.0016330099,-0.0032805335,0.00379821,-0.0065194108
C=C(C)C(=O)OC,0.0011232411,0.006511839,-0.0011355169,0.0009924835,0.0027176924,0.0007287059,-0.0040609436,-0.0010905435,-0.0020246021,-0.0022488665,-0.0033723721,1.2278731e-05,0.0057383087,-0.0033357348,-0.001212718,-0.00065111555,0.0022277962,0.0054589063,-0.00039133802,0.002378805,0.0050099604,0.0018304698,0.00072894595,0.006363946,0.0018675737,-0.0026020422,0.0015025933,0.0030121752,-0.0022873692,0.00071400125,0.0018226274,0.00086043915,0.00052236207,-0.00087664416,0.0014957464,0.0036383849,0.0012057051,0.0031303298,-0.003539415,-0.0012387624,-0.0009719925,-0.00011322275,-0.0025036987,-0.0011944007,-0.0036060144,0.0038679168,0.00023296382,0.0014210828,-0.0023474267,0.012247617,0.0042139385,0.0050592744,-0.0010966347,-3.833417e-05,-0.00083030807,0.0029174448,0.0025206506,-0.0011154581,-0.0018301886,-0.0016378211,0.0014478532,-0.0034424253,0.0037599867,-0.0069863535
O=C(OOC(=O)c1ccccc1)c1ccccc1,-0.0018983865,0.0042331032,-0.0015738579,0.0019520363,0.0023308154,0.0013124612,-0.004376107,-0.0017807132,-0.0034063915,-0.0033370666,-0.005237976,-0.00075731723,0.003927579,-0.0022969004,-0.0022146646,4.97289e-05,0.001998433,0.005009994,-6.7153946e-05,0.0014776173,0.0033442108,0.00013604201,0.0004919076,0.0036181286,0.001453368,-0.0018913513,-0.0002094428,0.0041483194,-0.0028203875,0.00038693566,0.0006783041,0.0036226287,-0.00034830067,9.708572e-06,0.00027817558,0.0044265687,-0.0004899055,0.0021725986,-0.004241287,-0.0021956125,0.00062578823,-5.9265178e-05,-0.0016893642,-0.0012306944,-0.0019831986,0.0035326378,-0.00054010935,0.0024803728,-0.0024986365,0.011071795,0.002880292,0.005696366,-0.0012359791,0.0007920051,-6.1187893e-06,0.0041513727,0.0026597101,-0.0017813239,-0.002428703,-0.00165777,0.0025734054,-0.0025168443,0.0021045823,-0.008365654
C=C(C)C(=O)OCCOCCOCCOC(=O)C(=C)C,0.002318143,0.0063829776,-0.0020966632,0.0012203502,0.0025310144,0.0013289726,-0.0040282365,-0.0019572969,-0.0011406885,-0.0008533895,-0.001301717,-0.0010751337,0.0051130597,-0.0021117497,0.00042486377,0.00038251095,0.0023079123,0.0040921774,0.00046163518,0.0031010758,0.004106391,0.002584489,0.001262422,0.0069884397,0.0024154298,-0.0024397578,0.0014520399,0.002688067,-0.002972789,0.0009238636,0.0025117656,0.0018767975,0.00017000688,-0.00029155938,-0.00078983675,0.0034586508,0.0009191241,0.0041139163,-0.0039906073,0.0008476116,-0.0023792107,-0.00085757044,-0.0024204692,-0.0008564219,-0.0029107602,0.0038279565,0.0007193582,-0.0009986982,-0.001684767,0.012273607,0.003583503,0.0040059066,0.0005803299,-0.0004456332,-0.0003336994,0.0031188536,0.0027768277,-0.0004946203,0.0009086076,-0.0018056789,0.0021202252,-0.0029065534,0.0045032976,-0.0073430194
CC(C)(CCC(C)(C)N=C=O)CN=C=O,0.001869698,0.0062366147,-0.002922438,0.0017201789,0.0035473742,0.00063429656,-0.0041371277,-0.0014784344,-0.001210764,-0.0019672895,-0.0022581108,-0.0005252408,0.0050940122,-0.0040265396,-0.00010261126,-0.00016683713,0.0025042035,0.0054112636,-0.00010008272,0.0035918388,0.0038740346,0.00243197,6.677979e-05,0.0060398662,0.0026659202,-0.0025076084,-0.000119345845,0.0021395944,-0.0020919237,0.00080080144,0.002178657,0.0019384902,-0.0001383461,-0.0006331089,-9.220117e-05,0.003238503,0.0015336443,0.0037871022,-0.004166074,-0.00039377902,-0.00204317,4.6920497e-05,-0.0027418332,-0.0012072548,-0.0035061578,0.004800546,4.6409667e-05,-0.00012514181,-0.002285833,0.012185759,0.0031777238,0.0042148647,-0.0012003854,-0.0002850145,-0.0012035025,0.0035515218,0.0017633159,-0.00039356388,3.245659e-05,-0.0011067623,0.0013726787,-0.003384523,0.004224604,-0.006397549
C=CCOCC(CC)(CO)CO,0.0012660241,0.006334983,-0.001862009,0.0013141483,0.003022762,0.00057173194,-0.003987926,-0.0013646955,-0.0019723335,-0.0010243664,-0.0025543217,-0.0007183083,0.006160168,-0.0036648326,-0.0012381822,-0.0010521058,0.0023000585,0.0052721705,-0.0002688272,0.0025769882,0.0045033535,0.0023537837,0.00046996935,0.0060595097,0.0017182827,-0.002415677,0.001272175,0.002344056,-0.0034583695,0.0010236939,0.0020192182,0.00066425465,0.00035976106,-0.0016676742,0.0011681173,0.003985267,0.0014657397,0.0030766884,-0.003881636,-0.0007029781,-0.001741915,0.00014043972,-0.002129578,-0.0012158584,-0.0036296826,0.0036988035,0.00016012136,0.0009616837,-0.0022719218,0.011998435,0.004388503,0.0047045783,-0.0011511808,-0.00045711268,-0.0006850092,0.0028525381,0.0028328206,-0.0006743665,-0.00097331963,-0.0017207721,0.0014997218,-0.0030792374,0.0040594945,-0.006572554
CC(CO)CO,0.001357493,0.0071675256,-0.0011101188,0.00096598594,0.002314575,0.000990988,-0.0043264637,-0.0007894971,-0.0020402223,-0.0025460739,-0.0034727864,0.00013355026,0.0061843786,-0.002919849,-0.0013636779,-0.0011896659,0.0028083585,0.005304938,-0.00058322586,0.0023318133,0.0050615864,0.0018633958,0.0010501922,0.0061517823,0.002017362,-0.0021171006,0.0011444404,0.0036653262,-0.003169015,0.0016043726,0.002540134,0.0010308987,0.0010928032,-0.0014181207,0.0018942859,0.0042434875,0.0014649574,0.0023536645,-0.0035993084,-0.0019244337,-0.00068533793,0.000353568,-0.002615179,-0.0015586857,-0.0035224839,0.00383343,0.00022623595,0.0015805978,-0.002412658,0.012514512,0.004518074,0.0055783126,-0.0018918738,-0.00041155238,-0.0006631892,0.0034543243,0.0031687208,-0.0008357712,-0.0021158736,-0.0014301008,0.001574846,-0.003961754,0.004423242,-0.0076055843
C=CCCO,0.001649362,0.006913921,-0.0010511242,0.0010149148,0.0024164412,0.0009907263,-0.0042861653,-0.00068153074,-0.0022091633,-0.0026833117,-0.003294224,0.00017944907,0.0063737985,-0.003003819,-0.001159709,-0.0012217443,0.002890408,0.005318977,-0.0003836695,0.0021358985,0.0050656777,0.0022885725,0.0013112912,0.00598503,0.0020961333,-0.0023254352,0.00091577496,0.0038074884,-0.0035561305,0.001332215,0.002375142,0.0009272685,0.0010984228,-0.0014424645,0.0019244109,0.004557835,0.0011905804,0.002434317,-0.00382319,-0.0017065639,-0.00095877424,0.0005335598,-0.0024649464,-0.0013141148,-0.003531111,0.003574635,0.00041683856,0.0013669133,-0.002400273,0.0125624575,0.004382531,0.0052425466,-0.0017440589,-0.00039537344,-0.00082936743,0.0039486974,0.002882244,-0.0005685529,-0.0019185655,-0.0017429488,0.0014495729,-0.003918712,0.0044618007,-0.007568742
O=c1n(CCS)c(=O)n(CCS)c(=O)n1CCS,-0.0005463399,0.0051926672,-0.0017001592,0.000790128,0.0031136014,0.00056244526,-0.0036894362,-0.002025239,-0.0017074645,-0.0016136775,-0.002743668,8.1477425e-05,0.0043376368,-0.0020167306,-0.0007372126,-3.6085024e-05,0.002040985,0.005075289,0.0005370965,0.0020861267,0.0044634603,0.0012348834,-0.0006851477,0.006176478,0.0023885965,-0.0036975008,-5.543523e-05,0.0022163624,-0.0011508781,2.9711984e-05,0.0010583224,0.0020859754,0.00042620068,-0.001368403,-0.00021757046,0.0025076065,0.0004757829,0.0019611213,-0.00409994,-3.744848e-06,-0.0017471611,-0.0002553251,-0.001994552,-0.00064487755,-0.003185246,0.0043133562,-0.00035150629,2.7740374e-05,-0.0012663188,0.012731447,0.004172544,0.005386599,0.00032902253,-0.00015777443,-0.00030100625,0.0036473735,0.003080327,-0.0009695599,0.00021922961,-0.0005236184,0.0014286088,-0.002352776,0.0038556727,-0.006651975
CC(C)(CO)CO,0.0012913039,0.0068020895,-0.0012550782,0.0011526947,0.0025870912,0.00086734653,-0.004241611,-0.0011219896,-0.0020426512,-0.002263491,-0.003227746,2.085985e-05,0.006086014,-0.0031798184,-0.0015080683,-0.0011040159,0.0028108293,0.0053199735,-0.00042868592,0.002506934,0.0048394334,0.0018653758,0.00092234625,0.006061299,0.0021222662,-0.0020925575,0.0010426668,0.0032352712,-0.0030831583,0.0012902515,0.0021826362,0.0010833852,0.0009298376,-0.001440221,0.0016100418,0.004250968,0.0015142616,0.002724681,-0.0034320932,-0.0018829079,-0.0008317651,0.00016918196,-0.002692557,-0.001748832,-0.003472117,0.0038392143,0.00021227729,0.0013336521,-0.0022822798,0.012413235,0.0046070395,0.0057040495,-0.0018225098,-0.00046293717,-0.0006180862,0.003271516,0.0029653702,-0.00083614606,-0.0020350218,-0.0011568023,0.0013830164,-0.004041042,0.004274252,-0.007223619
OCC1CCC(CO)CC1,0.00086942036,0.006333418,-0.0016888147,0.0016077077,0.003058238,0.00048465375,-0.0034141755,-0.0015174896,-0.0020721676,-0.0019121785,-0.0025928877,-0.0011777028,0.005656,-0.0034351964,-0.001288576,-0.0010045916,0.0018398231,0.0057992656,0.00027923007,0.0023035593,0.0049283095,0.0020597633,0.0005101531,0.005719539,0.001665961,-0.0024757949,0.0016416882,0.0024948455,-0.0033500362,0.001241019,0.0019376602,0.0011685397,0.0010604723,-0.0016809427,0.0011229643,0.0036597978,0.0006938372,0.0032432824,-0.004068493,-0.00039801933,-0.001625807,0.00033366424,-0.0024229,-0.0011964273,-0.0034468696,0.0035581272,-4.423596e-05,0.001371285,-0.001986972,0.011558771,0.0045658248,0.0048475,-0.0013384218,-0.0005648965,-0.00085172337,0.0031304234,0.0025305878,-0.0010955553,-0.0014766734,-0.0021690512,0.001784463,-0.0027595302,0.0039438196,-0.006977818
O=C=NC1CCC(CC2CCC(N=C=O)CC2)CC1,0.0024095578,0.0057171155,-0.0029109633,0.0015476109,0.0032254457,0.0017557964,-0.0034946958,-0.0022998995,-0.0009973599,-0.0011080215,-0.0014216267,-0.0017654723,0.0042549446,-0.0029448327,0.00036413223,0.00019741617,0.0025011627,0.005492052,0.00023994409,0.0016520135,0.0041058157,0.0025471188,0.00056219264,0.005556036,0.0011991281,-0.0021690521,0.0011112294,0.0022991276,-0.0032644067,0.0009687096,0.0019585332,0.0026596263,0.0009944169,-0.00026356243,-0.00030868105,0.0031498224,0.00011677481,0.0044704825,-0.004249542,0.0011717472,-0.0021963222,-0.00040291273,-0.002103068,-0.00058547594,-0.0027790982,0.0037489766,0.00033078901,4.8527494e-05,-0.0023092702,0.01127246,0.0025624316,0.0030948552,0.00037224777,-0.0002939077,-0.0010844897,0.003134199,0.0016435012,-0.0013194317,0.0009226054,-0.002344978,0.0025180494,-0.0025290195,0.00434715,-0.007089519
O=C=NCCCCCCN=C=O,0.0016046772,0.006448893,-0.0017561428,0.0014419644,0.0027288403,0.0012195667,-0.004080384,-0.0014767132,-0.0012787012,-0.0016362173,-0.0030805394,-0.0003053072,0.0056069456,-0.0039008707,-0.00094807334,-0.0002801437,0.002462565,0.0046509765,-0.00037110597,0.0015555341,0.00493933,0.0024492722,0.0014247198,0.006554202,0.0018977076,-0.0024325475,0.00147913,0.0033594044,-0.0027143285,0.0003699772,0.0021506555,0.00071316445,0.00028584385,-0.00051190984,0.0015885134,0.0041063763,0.0013344381,0.0033478253,-0.0035861079,-0.0012704106,-0.0015765335,-0.0005594294,-0.001936581,-0.00024881028,-0.0034846636,0.0033966592,-3.941357e-05,0.0010254383,-0.002276234,0.012514575,0.0035940912,0.0043165735,-0.0012438223,-0.0004880326,-0.0009841006,0.0027719135,0.0027554967,-0.0004931898,-0.001553664,-0.0018391954,0.001715302,-0.004237687,0.0037575653,-0.0067806663
O=C(CCS)OCC(COC(=O)CCS)(COC(=O)CCS)COC(=O)CCS,0.0030457573,0.004105109,-0.0018238463,0.0026381053,0.00047628023,0.00015726185,-0.002459636,-0.0037011749,-0.003322118,0.00089565665,-0.0009854119,-0.00203898,0.005075367,-0.0023016725,0.00010306947,0.0016594268,0.0022440758,0.003641758,0.001050814,0.0029111772,0.0013970565,0.0041580275,0.0005687934,0.006594697,0.0024004672,-0.0028963054,0.00032629177,0.0024594706,-0.0015957505,0.0022318969,0.0029245205,0.002074358,-6.876048e-05,1.6012229e-05,-0.0021100545,0.0038367808,0.00035699084,0.0029374762,-0.003472426,0.0006365748,-0.0035744356,-0.0008384404,-0.002686765,-0.001741793,-0.0011195152,0.003663483,0.0005585188,-0.0017528888,-0.0008280184,0.011387685,0.0026519382,0.0044641844,0.00071564363,-0.0017155362,0.0005993722,0.0011896482,0.0023701638,0.00034030667,0.0020950064,-0.002042587,0.0009652721,-0.0031667417,0.0038186824,-0.007057078
CCO[Si](CCCN(CCC(=O)OCCO)CCC(=O)OCCO)(OCC)OCC,0.0022440339,0.0046282727,-0.0014648205,0.0020465269,0.00075410306,0.0008368741,-0.0022603963,-0.0031592185,-0.003131085,0.0006222408,-0.0007175654,-0.0015805247,0.0067151207,-0.0024513379,1.6149133e-05,0.0002725348,0.0019739578,0.0041660573,0.001241656,0.0024646558,0.0016790172,0.0039254744,1.4212681e-05,0.005788721,0.0014406424,-0.0026893911,-0.00026795344,0.0024839006,-0.002077058,0.0020074584,0.0020378847,0.002863857,0.00021776557,-0.00052680355,-0.0018854875,0.0037176237,0.000259649,0.0030255243,-0.0042934995,0.00019223057,-0.0030514402,-0.001973479,-0.0028792638,-0.0020488761,-0.0013181756,0.0038243914,0.0010680379,-0.0014818646,-0.0014644393,0.011470667,0.002913908,0.004001088,0.0001097091,-0.0016000392,0.00018579327,0.001168556,0.0021999683,0.0004435801,0.0011125263,-0.0012918087,0.0012836573,-0.0022911597,0.0037553133,-0.0077770334
CC1(C)CC(N=C=O)CC(C)(N=C=O)C1,0.0017097974,0.0055254884,-0.0027848706,0.0009317808,0.0033249874,0.0012217707,-0.00461463,-0.0014953437,-0.0013774931,-0.0011339867,-0.0019082036,-0.001500977,0.004341714,-0.0028218683,1.9310042e-05,0.00026619248,0.002080449,0.005347848,0.0001081191,0.0025972207,0.0039035426,0.001999611,0.00034273486,0.006052872,0.0019419417,-0.002118729,0.0011315646,0.0027779005,-0.002669884,0.0005748421,0.0023218896,0.0023776703,0.0004397435,-0.00080649136,-0.00027592294,0.0032230727,0.0008921735,0.0035699923,-0.0042454097,0.0005803071,-0.0020707538,-0.00048422907,-0.0022584582,-0.00067320466,-0.0030783198,0.0049354685,-1.8045306e-05,-0.00037718192,-0.0020452654,0.012323915,0.0027942965,0.0040213508,-0.00033501838,0.00019038003,-0.00053431187,0.002890986,0.002126919,-0.0013869461,0.00057413056,-0.001738376,0.0021999637,-0.003247423,0.0048205256,-0.0067624124
COCCOCCOCCOCCOCCOCCOCCOCCO,0.0015972545,0.0060760677,-0.0027803108,0.0022885408,0.0022700187,0.0017647336,-0.0038353214,-0.0024450638,-0.00087574124,4.2224303e-05,-0.0010334738,-0.0009052095,0.0064387377,-0.0045580994,-0.00017194077,-0.00019158237,0.0029395362,0.004065728,8.455478e-06,0.0025297957,0.00405558,0.0033357274,0.0017886155,0.006904496,0.0015977751,-0.002556108,0.0013429944,0.0019557811,-0.0034204088,0.0016281009,0.0022461207,0.0015294603,0.0005339999,-0.0010751518,-0.00025095418,0.004875621,0.0014939774,0.004024349,-0.0035661329,-8.909125e-05,-0.002899819,-0.0005820766,-0.0011439808,-0.0004111342,-0.0031443932,0.0031600343,0.00031639636,-0.00058181956,-0.001838732,0.011617764,0.0040514125,0.0038045715,-0.00041415356,-0.001543303,-0.0009726165,0.0034292652,0.002824448,0.0009145574,0.00025616214,-0.001535478,0.0023414758,-0.0045621935,0.0029917927,-0.006114617
C=C(C)C(=O)OCCOCCOCCOCCOCCOCCOCCOCCOCCOCCOCCOCCOCCOCCOCCOCCOC(=O)C(=C)C,0.0027065324,0.005372353,-0.003342121,0.0012668776,0.00026533194,0.0021272106,-0.0012149103,-0.0026145277,-0.0027259812,0.0005635433,0.0023946557,-0.002643947,0.0048772786,-0.0011312608,0.00061126053,0.0006080456,0.00073496066,0.0017026085,0.0008709198,0.003641825,0.0020495607,0.0038610343,-0.00040417002,0.008043489,-0.0014743395,-0.002790273,-0.0006875867,0.0005456442,0.00030473433,0.0017037718,0.0028077802,0.0022060722,-0.0009225481,-0.0010032305,-0.0025539484,0.003986798,0.0013909899,0.0033708438,-0.0038385093,-0.0033634594,-0.0050408086,-0.00014728913,-0.0027962867,-0.003458662,0.0020076535,0.0011553951,0.0034865001,-0.0020310655,-0.0036489265,0.010027231,0.003081428,0.005493215,-0.001502899,-0.0022773175,-0.00027186703,0.0006799111,0.0013299156,0.00232779,0.0038286261,-0.0029597105,0.0016526212,-0.0016011447,0.001142839,-0.00813339
Nc1cccc(S(=O)(=O)c2cccc(N)c2)c1,-0.0011666436,0.0038436642,-0.001669514,0.0013456242,0.0025955085,0.0015502456,-0.004909792,-0.001441046,-0.0027866187,-0.003083147,-0.004645275,-0.0002873289,0.004555531,-0.003018098,-0.0020643082,0.00066274405,0.00225324,0.0051364284,-4.3598935e-05,0.0018587247,0.003263045,8.596107e-06,0.0006214229,0.0040817503,0.0024581999,-0.0022015818,-0.00037649757,0.0049553066,-0.0014795624,0.00022237469,0.001360259,0.0036364216,-0.0003963872,0.00014281739,0.0011955207,0.0042431355,0.00010298379,0.0026416862,-0.0036634207,-0.0024730759,0.0010928158,2.1369196e-06,-0.0016619442,-0.0025254786,-0.002050859,0.004266246,-0.00031639915,0.00058830343,-0.001309888,0.013137729,0.0024804883,0.006072854,-0.0004951935,9.370688e-05,0.00024916977,0.0038963906,0.0032051727,-0.0014090389,-0.001347905,-0.0011374922,0.002150848,-0.0037501734,0.0030359626,-0.0073476397
OCCOCCO,0.0015368788,0.0067176055,-0.0011659618,0.0010691192,0.0024079606,0.00073741307,-0.0039632814,-0.0006215488,-0.0022878153,-0.0025061555,-0.0032818774,2.2756547e-05,0.006241616,-0.0033209566,-0.0011202786,-0.0012043715,0.0027254457,0.0052799396,-0.00045541395,0.0023799147,0.0049335686,0.002221072,0.0013007547,0.0061243987,0.00204039,-0.0023343386,0.0010378577,0.0035170647,-0.0034194794,0.0013078377,0.0020412866,0.00080971234,0.0009167399,-0.0011979905,0.0018038803,0.0044769235,0.0010776613,0.0025711227,-0.0037580654,-0.0017528636,-0.0011033798,0.00023092772,-0.0022822376,-0.0013133753,-0.0035298392,0.003646439,0.00022181589,0.0014596451,-0.002345961,0.012299972,0.00445717,0.005394533,-0.0017242352,-0.0004756702,-0.0005386807,0.0036441558,0.002959635,-0.0005574771,-0.0020758715,-0.0017604968,0.0015465496,-0.0040644696,0.0042845383,-0.0074294666
OCCCCO,0.0016117478,0.006947672,-0.001048387,0.0011020438,0.0024326332,0.0008625989,-0.004152133,-0.0005936667,-0.0022452539,-0.002708042,-0.0032814294,0.00029662636,0.006340435,-0.0030270237,-0.0011201445,-0.0011981595,0.0030785836,0.005317742,-0.00045266096,0.002312176,0.0048977556,0.0021736827,0.0012725338,0.0060345363,0.0021362808,-0.0023709754,0.0008503309,0.003706445,-0.0034568906,0.0013623284,0.0022169296,0.00094034197,0.0012579509,-0.0013987445,0.0019082434,0.004429994,0.0012885425,0.0023979973,-0.003754408,-0.0018851804,-0.0008951286,0.0002446277,-0.0024953783,-0.0014619175,-0.0035315438,0.0036178678,0.000291422,0.0013915934,-0.0023670772,0.012589981,0.0045081815,0.005484126,-0.0020222506,-0.0005076034,-0.00062251464,0.0038897446,0.0029552504,-0.00043609692,-0.0020828713,-0.0014500571,0.0015363842,-0.0040149055,0.0044069067,-0.007542978
C=CCc1ccc(OCC2CO2)c(-c2cc(CC=C)ccc2OCC2CO2)c1,0.000841639,0.0033363933,-0.0014860472,0.0018931027,0.0017649028,1.2769364e-05,-0.002738908,-0.003030566,-0.0027452977,-0.002771536,-0.0021978747,-0.00094450143,0.0037059207,-0.0012984946,-0.0012582336,0.0021768268,0.003060339,0.0023972187,0.0015032906,0.00029858528,0.0015429677,0.0012418404,0.00018921611,0.0044754334,0.0020061135,-0.0020837458,0.00030526693,0.003732745,-0.0018650889,-0.00016263407,0.00036344538,0.0032237405,-0.00085327635,-7.574726e-05,-0.00088742864,0.0047076587,-0.0014343783,0.0032726023,-0.0037504062,-0.00032407604,-0.0016706884,-0.0007396112,-0.00092584826,-0.0023721252,-0.0008363961,0.0026187496,-0.0005094521,-0.00079532526,-0.00088763423,0.012121768,0.0018755477,0.0051833424,0.0010754308,-0.00074247643,0.00077885017,0.0028787605,0.0023059845,0.00037858915,0.00016906485,-0.001425921,0.0006965636,-0.0005375268,0.0029479507,-0.008090489
COc1cc(CC2CO2)ccc1OP(=O)(Oc1ccc(CC2CO2)cc1OC)Oc1ccc(CC2CO2)cc1OC,-0.0010180781,0.0031669904,-0.0010060724,0.0009419257,0.000586506,0.0015192155,0.00041722786,-0.0012997678,-0.003412719,-0.0022100555,-0.0022592917,0.00031672695,0.003280241,-0.0025629606,-0.00039868988,0.0019202959,0.0030354299,0.0003463626,-0.0011250908,5.041249e-06,0.00023282692,0.0009948593,-4.8971036e-05,0.004790526,0.0005252566,-0.0017582825,-0.0002943221,0.0030578994,0.0016059261,-0.00193201,-0.0016287626,0.0016749264,-0.0016965049,-0.0028151073,8.875248e-05,0.0047623515,-0.0007390864,0.0019495478,-0.0019168239,-0.002185966,-0.00055767596,0.00029199105,-0.0001257956,-0.0040069353,0.00061446754,0.0020738086,-0.0003798697,0.00013825297,-0.0009269072,0.011437327,0.00024510734,0.005799521,-7.217121e-05,-0.002302819,0.00046360493,0.00073303,0.000815073,-4.2499974e-05,-0.0010280665,3.456045e-05,0.00059037795,-0.00024011079,0.0033142446,-0.006428304
C(=N/c1ccc(OCC2CO2)cc1)\c1ccc(OCC2CO2)cc1,-0.0007005157,0.0031324504,-0.0015400695,0.0011883131,0.0018526707,0.0010820425,-0.0033698715,-0.0033697195,-0.002789746,-0.002920607,-0.0036611976,-0.00046807824,0.0038414653,-0.0012321174,-0.0018977635,0.0019706283,0.0028612418,0.0023702048,0.0004344778,7.953262e-05,0.0022150902,7.390417e-05,0.00017312332,0.003926346,0.0016486198,-0.0012089475,0.00041362667,0.0042660655,-0.0023112763,0.00054878835,0.00076166354,0.003924395,-0.0003216751,-0.0011479319,-4.5506284e-05,0.0045023914,-0.0011178963,0.0022447128,-0.003309125,-0.0021042982,-0.00011313427,-0.00018841051,-0.00040879846,-0.0019722804,-0.0020710283,0.0032495633,-0.00080551207,0.00045512244,-0.0018278304,0.011917873,0.001653838,0.0050816475,0.00022483594,-0.0004439205,0.00041760132,0.002854045,0.003583504,-0.00043105753,-0.0006030835,-0.0010425905,0.0012083603,-0.0021545785,0.0028247833,-0.007867467
COc1cc(/C=N/c2ccc(OCC3CO3)cc2)ccc1OCC1CO1,-0.0012074579,0.0028777346,-0.0019595344,0.0012388583,0.001239201,0.0006031683,-0.0026802942,-0.0033277331,-0.0034290375,-0.002999965,-0.002992238,-0.0006868663,0.003400961,-0.002167413,-0.0016392618,0.0024778526,0.0026381472,0.002714133,0.0011025015,0.0004997025,0.002057203,0.00069732405,-0.00065302313,0.003587788,0.0016169809,-0.0018560584,-0.00040149962,0.004123026,-0.0011414699,0.00033164117,-0.00010136515,0.0041146046,0.00040700566,-0.000442883,-0.00079503795,0.004178524,-0.00088075735,0.0023283642,-0.004148421,-0.0016067447,-0.00046092737,-0.00013326784,-0.0009143641,-0.0019080117,-0.00073332386,0.0032055285,-0.0014617378,-0.0003269706,-0.001313908,0.011952835,0.0022287276,0.0057091205,0.00067771855,-0.00038995314,0.0003828574,0.0026868493,0.0029108357,0.00015191827,-0.0002209451,-0.00069780555,0.0012675179,-0.0011743475,0.0012380965,-0.007602388
COc1cc(CC2CO2)ccc1OC(=O)c1ccc(C(=O)Oc2ccc(CC3CO3)cc2OC)cc1,-0.0012135971,0.004398657,-0.00028825458,0.0012874505,0.0008675363,0.0016886559,-0.00046815164,-0.0012472697,-0.003610612,-0.0025777249,-0.002558901,0.00070073473,0.003607249,-0.0015923921,-0.00072247535,0.0021465123,0.002818563,0.00105137,-0.00126096,0.0007328042,0.0012887791,0.00076699443,0.00013096095,0.0052867867,0.0008567609,-0.001965073,-0.00016513385,0.003073983,0.0015496276,-0.0012875823,-0.00081613986,0.0016798521,-0.000833767,-0.0022631274,-0.00066177826,0.0047928113,-0.0010098778,0.0014016898,-0.0019877544,-0.0019048555,-0.0010268502,0.0001495087,-0.001044644,-0.0031245984,-0.00057706656,0.0015481915,0.000120037235,0.00029146485,-0.00046439003,0.011834539,0.00043280795,0.005415479,0.0005904853,-0.0021413332,0.0004456034,0.0017812527,0.0018978566,0.00044067157,-0.0027575102,0.0007384466,0.00052551273,-0.00013697147,0.0026911963,-0.0072396956
COc1cc(CC2CO2)ccc1OCc1ccc(COc2ccc(CC3CO3)cc2OC)cc1,-0.0007486837,0.0038540717,-0.00037240237,0.002233367,0.00087279454,0.0007554663,-0.0016498156,-0.0032643168,-0.0034239972,-0.003369972,-0.0024987794,-2.2158725e-05,0.0040890817,-0.002091745,-0.0019621253,0.0025684051,0.0035984647,0.0013425928,0.00065522734,0.00048399996,0.0010310616,0.00066745095,0.0003986361,0.0047808327,0.0013464522,-0.0017431597,0.0003164797,0.003375995,0.00014984608,-0.00088693853,-0.00043951767,0.0031781727,-0.00059817685,-0.0004914948,-0.0007344533,0.005109992,-0.00085563026,0.0022707814,-0.0026330445,-0.001610362,-0.00012315996,-0.00037687342,-0.0009942213,-0.0030456167,-0.00029190537,0.0021235384,0.00025679544,0.00073074736,-0.0011283346,0.011305945,0.0013384791,0.00577593,0.0010826855,-0.0015594848,0.00017601065,0.0031160438,0.0018368475,2.8813258e-05,-0.0009900667,0.00019944087,0.0017914656,-0.00065521616,0.0025501586,-0.007251689
COc1cc(CC2CO2)ccc1Oc1nc(Oc2ccc(CC3CO3)cc2OC)nc(Oc2ccc(CC3CO3)cc2OC)n1,-0.0009684479,0.0023671621,-0.0021181814,0.0010547917,0.00011064671,0.0017775937,-0.00014776178,-0.0013609596,-0.003607818,-0.001891708,-0.0021148361,-0.00017678674,0.0025202446,-0.001663046,-0.0018327646,0.0018369015,0.001887165,0.0007746108,-0.001784307,0.00044904044,0.00076151267,0.0005878266,0.0003641087,0.0043484066,0.00041812658,-0.001485798,-0.0008310427,0.0037684082,0.0009788573,-0.0012768293,-0.0006288253,0.002486403,-0.00029547047,-0.00216262,-0.00042831153,0.0040486213,-0.00014618784,0.001596909,-0.0014578113,-0.0027267886,-0.00045530498,-0.00019161147,5.8711506e-05,-0.0031432062,-1.3089273e-05,0.001144913,-0.00035477523,0.0007809121,-0.00015144935,0.011089119,0.00012296578,0.0066532777,-0.00069765234,-0.0026740944,0.0006250758,0.000736109,0.0013325661,0.00030147703,-0.0015423298,0.0002129795,-0.0003206348,-0.00089604035,0.0031748246,-0.008098195
COc1cc(C(c2cc(C)c(O)c(O)c2)c2cc(C)c(O)c(O)c2)ccc1OCC1CO1,-0.00029861368,0.0041177524,-0.0017421143,0.0006329478,0.00065923855,0.000979223,-0.00034274906,-0.0008384802,-0.0047177067,-0.0024638074,-0.0030106027,0.00052280404,0.004153693,-0.002087975,-0.0013032518,0.0015076064,0.0027710656,0.0016094781,-0.0005999077,0.0013596597,0.00081507117,0.0011223089,-0.00087565463,0.0037805755,0.0016894937,-0.0011645653,-0.0009625092,0.002995906,3.1840056e-05,4.912354e-05,-0.0015209685,0.0011178427,-0.0013989806,-0.001997884,0.0005377466,0.004833039,-0.0009292606,0.0010958537,-0.002957277,-0.0017945515,0.00015914813,0.0010177642,-0.0017671725,-0.0038796403,-0.0008566356,0.0028188145,-0.00011436734,0.00061025843,-0.0014354852,0.011385946,0.0006211279,0.0063026943,-0.0005017468,-0.0018555447,0.0010816446,0.0022732806,0.0026356727,-0.00029442087,-0.0019642878,-0.00013188273,0.0009296015,-0.0014541522,0.003601469,-0.006694232
COc1cc(C(c2cc(C)c(OCC3CO3)c(O)c2)c2cc(C)c(OCC3CO3)c(O)c2)ccc1OCC1CO1,-0.00043403637,0.0037689041,-0.0022392133,0.00013413373,-0.0006503947,0.0020757383,0.00038549397,-0.00022694033,-0.0042150365,-0.0007711882,-0.002710849,0.00023684699,0.003722636,-0.0034280457,-0.0012378003,0.0006367136,0.002484247,0.0017781574,-0.0018057381,0.0007133251,0.0007257471,0.0017611347,-0.0004953926,0.0039439425,0.00015592948,-0.001177317,-0.0019353738,0.0026992192,0.0008561369,-0.00030882098,-0.00084129116,0.0011704266,-0.00011539599,-0.0020861723,4.7303038e-05,0.0035664104,-0.0012060665,0.0011244183,-0.0018919213,-0.0031278534,-0.0008915998,-2.1720305e-05,-0.001418354,-0.0039399713,0.00019367831,0.0014335373,0.0007265387,0.0005193036,-0.0014383225,0.010444812,-8.2729384e-05,0.006538576,-0.0008842661,-0.0027020779,0.0011170618,0.00088734785,0.0012491513,0.0006022961,-0.0012541059,0.000994876,1.6290694e-05,-0.0006657364,0.0034540985,-0.007082045
