smiles,z_0,z_1,z_2,z_3,z_4,z_5,z_6,z_7,z_8,z_9,z_10,z_11,z_12,z_13,z_14,z_15,z_16,z_17,z_18,z_19,z_20,z_21,z_22,z_23,z_24,z_25,z_26,z_27,z_28,z_29,z_30,z_31,z_32,z_33,z_34,z_35,z_36,z_37,z_38,z_39,z_40,z_41,z_42,z_43,z_44,z_45,z_46,z_47,z_48,z_49,z_50,z_51,z_52,z_53,z_54,z_55,z_56,z_57,z_58,z_59,z_60,z_61,z_62,z_63,z_64,z_65,z_66,z_67,z_68,z_69,z_70,z_71,z_72,z_73,z_74,z_75,z_76,z_77,z_78,z_79,z_80,z_81,z_82,z_83,z_84,z_85,z_86,z_87,z_88,z_89,z_90,z_91,z_92,z_93,z_94,z_95,z_96,z_97,z_98,z_99,z_100,z_101,z_102,z_103,z_104,z_105,z_106,z_107,z_108,z_109,z_110,z_111,z_112,z_113,z_114,z_115,z_116,z_117,z_118,z_119,z_120,z_121,z_122,z_123,z_124,z_125,z_126,z_127
C=CC(=O)OCCOCCOC(=O)C=C,0.00051156804,-0.0048462264,-0.003376266,0.0127717815,-0.009583501,-0.00081526814,-0.00026806444,-0.0057132323,-0.0042260545,-0.0049747317,-0.0071693887,-0.007666369,-0.013429221,0.016369464,-0.0005632178,-0.02432411,-0.0039087795,-0.015788816,-0.0076408377,0.0014157426,-0.030862357,-0.0012424442,0.009011764,-0.008474231,-0.003608036,0.0045237206,0.0019165422,-0.0024154494,-0.0009445194,-0.0025528613,0.018127456,0.006150164,0.013200103,-0.0025114848,-0.009648997,0.0062117428,-0.024635516,-0.019701103,0.0013580346,-0.00038789678,-0.00981278,0.012945065,0.002261131,0.009766677,-0.006073246,-0.0105588,0.005781684,0.0009784587,0.020752618,-0.007684421,-0.008033793,-0.001819849,0.019496549,-0.00486304,0.011253003,0.0010026922,0.0019836603,-0.001956422,-0.019792998,0.0075108106,0.0046227723,-0.0033317776,0.0054876255,0.0051957695,0.019404367,-0.00406951,0.0062406594,0.0061493777,0.004690515,-0.006798973,0.012531806,-0.015874226,-0.00018741749,-0.009594269,-0.010122208,0.006457112,0.0020977808,0.020166444,-0.0054648174,0.009837614,0.012357246,0.002024293,0.016110182,0.0042269886,-0.001155138,0.007260373,0.0011103926,0.013566089,0.0056158276,-0.012885991,-0.0032880083,0.0010409588,-0.0048497147,-0.00022697216,0.008434261,0.008577194,0.0037974678,0.005800289,0.002599872,0.0076450286,0.009611012,0.0020500654,-0.009139768,-0.0068650735,0.011113169,0.009297248,0.00346494,-0.009817289,-0.0077084713,-0.014379734,-0.0060183425,0.014612107,-0.020435555,-0.0048013437,0.0047959294,0.0041415812,0.009878334,-0.006550585,-0.00060805655,0.008043576,-0.012116458,0.0025956724,0.0017085252,-0.009881346,-0.0028262478,-0.00871598,0.0154949855,0.0024547856
C=CC(=O)OC(C)(C)C,-0.00061526336,-0.0040581413,-0.0026074294,0.01189268,-0.008536153,-0.001181094,0.00018820167,-0.006396804,-0.004393103,-0.005175948,-0.006246184,-0.008162688,-0.01274829,0.016188934,-0.0012788926,-0.021738013,-0.005329175,-0.015474647,-0.00695062,0.001628045,-0.030835303,-6.832881e-06,0.009775696,-0.006837709,-0.0028494245,0.0032181023,0.0020788,-0.0023327814,-0.0010106564,-0.0026359102,0.01767237,0.0046303426,0.013346558,-0.0033680622,-0.009494368,0.0062183756,-0.025780335,-0.0198456,0.00034842733,-0.00035698805,-0.007741645,0.013633929,0.0006189863,0.010962141,-0.007109523,-0.009936855,0.005692267,0.0009601824,0.022424493,-0.008689288,-0.007723602,-0.0031362623,0.019631227,-0.0058980915,0.0113196075,0.0004110965,0.0008071428,-0.0028853028,-0.018578148,0.007853828,0.0036714748,-0.002469792,0.003979246,0.0046841325,0.018656962,-0.0025645187,0.0058261408,0.0058072777,0.0039916476,-0.0070118424,0.011247097,-0.016739,-0.00022192858,-0.009483552,-0.010369839,0.005276696,0.0020622555,0.019822136,-0.004558577,0.0090276515,0.013510346,0.003929928,0.01534888,0.005137548,-0.0013637785,0.0066516045,0.0018995996,0.013375825,0.005856517,-0.012778452,-0.0030283947,0.00043101422,-0.00557957,-0.00059104944,0.007446346,0.0076594707,0.005486733,0.006435152,0.0020497285,0.0076380624,0.009469453,0.0012138663,-0.010162091,-0.007843819,0.012132372,0.007370681,0.0030533727,-0.010923576,-0.009234071,-0.014879381,-0.0075390283,0.014161006,-0.019245304,-0.0060741752,0.0042067887,0.0043462534,0.011066649,-0.0055272663,-0.0012646865,0.008203232,-0.010944349,0.003852128,0.0008940059,-0.008880293,-0.0028672512,-0.00811876,0.015587127,0.0023040678
COC(OC)(C(=O)c1ccccc1)c1ccccc1,0.003148173,-0.0024987236,-0.002648307,0.012747666,-0.009650325,-0.00029274775,-0.001387341,-0.005632421,-0.0035250438,-0.002548439,-0.009401804,-0.007706036,-0.014602523,0.016937923,0.0034663472,-0.025301734,-0.005868083,-0.019709,-0.008406535,0.0018577892,-0.033050124,-0.0030666797,0.0087499535,-0.0076509425,-0.0024471085,0.004313621,0.001428518,-0.002457568,-0.0006258432,-0.0032983515,0.018481685,0.007925747,0.014022408,-0.0027604725,-0.01126783,0.0060269777,-0.025745947,-0.020583576,0.0013088677,-0.0009627044,-0.012094279,0.012816552,0.002252045,0.008893335,-0.006897388,-0.009360584,0.0043990267,-0.0015082601,0.022151804,-0.0070776613,-0.008111557,0.00080373883,0.022066465,-0.005192337,0.01311467,-0.0012729322,0.003035943,-0.0017869922,-0.021038376,0.007103068,0.004391305,-0.0038336562,0.006502512,0.0049527357,0.019603709,-0.0038961358,0.009402808,0.007284592,0.0063602487,-0.0075583416,0.013167275,-0.015316816,0.0023225304,-0.009545311,-0.009546506,0.006685692,0.0021081008,0.020688323,-0.003983426,0.012049812,0.014059291,0.003365185,0.01734978,0.0033668224,-0.003237445,0.008864891,0.0020930422,0.014444158,0.0051276363,-0.012534916,-0.0016094679,0.0015887571,-0.00437227,-6.4882915e-05,0.0088786585,0.010857318,0.0025499389,0.005032932,0.0019630662,0.00507149,0.008354461,-0.0010249168,-0.011317774,-0.0056045805,0.009698972,0.008569382,0.004326013,-0.008863791,-0.0073616654,-0.01638535,-0.004735453,0.014615199,-0.022399707,-0.0042899325,0.0058352407,0.0041105314,0.0084754,-0.004257106,-0.0004665628,0.0069650235,-0.013448577,0.0029446753,0.0026255012,-0.010008303,-0.0011679935,-0.009598043,0.012368746,0.0040356163
C=C(C)C(=O)OCCOCCOC(=O)C(=C)C,0.0017204741,-0.004818557,-0.003496576,0.013867872,-0.008823004,-0.0012328329,-0.0007348545,-0.005457068,-0.0026861285,-0.0035492945,-0.008314424,-0.006758283,-0.013274377,0.016094813,0.0016223579,-0.025465475,-0.0029887855,-0.015422726,-0.008805323,0.0015817154,-0.03033617,-0.001552568,0.0077541694,-0.009088825,-0.0036379013,0.0052128267,0.0017396496,-0.0019116356,-0.0005812105,-0.0024688598,0.017654208,0.0070085763,0.012985939,-0.002394412,-0.010122212,0.0049142633,-0.022286503,-0.019176422,0.0015275369,-0.00096993055,-0.011798791,0.011855563,0.002581452,0.008619206,-0.0055221543,-0.009616218,0.004786145,-0.0006941473,0.01890123,-0.006594103,-0.008005673,0.00046524778,0.01909603,-0.004983718,0.010534685,0.00039597927,0.0029942626,-0.0010962905,-0.021118555,0.0062273154,0.0043564104,-0.0032164687,0.006226726,0.0045166966,0.018211385,-0.0046535353,0.0067252293,0.006459615,0.006023973,-0.0061497134,0.01245638,-0.014398824,0.0012341086,-0.008859778,-0.008345356,0.0068240045,0.0017369129,0.01883632,-0.004841651,0.010752895,0.01077101,0.0017388426,0.016523065,0.0030698143,-0.0015562251,0.0074799126,0.0006820131,0.013363254,0.0057140673,-0.012725446,-0.002369335,0.0014408343,-0.003916154,0.0005689445,0.008039433,0.009256745,0.0021440191,0.0047894106,0.0026023074,0.006354819,0.0082759615,0.0008766819,-0.008250082,-0.0059867105,0.008859883,0.009394754,0.0036724051,-0.008105177,-0.0066814255,-0.013889841,-0.0044757854,0.013632894,-0.020558026,-0.0038731871,0.0049595153,0.0048349383,0.0073865824,-0.0064063156,-0.000107276486,0.0067054722,-0.013564729,0.0020728325,0.0030263877,-0.009169423,-0.0020444863,-0.008161407,0.013856137,0.0025908537
C=CC(=O)OCCOCCOCCOCCOC(=O)C=C,0.0015926547,-0.0053263493,-0.0031388067,0.012698337,-0.008817093,-0.0010260558,-0.00092059,-0.0057308786,-0.0026031989,-0.0045922464,-0.008188529,-0.0063967975,-0.013222629,0.015802337,0.0009646504,-0.024102239,-0.0029180832,-0.014432825,-0.008319845,0.0022478867,-0.029291281,-0.0013363014,0.007835107,-0.009312162,-0.003972221,0.0051654656,0.001606869,-0.0017650613,-0.00021736603,-0.0024133753,0.016846541,0.007391119,0.012798926,-0.002107986,-0.009577608,0.004989112,-0.021571552,-0.018841173,0.0017698174,-0.0013216855,-0.011490844,0.011185663,0.0027217222,0.008279198,-0.005181621,-0.010018065,0.004871047,-0.00013596658,0.018720023,-0.0069171847,-0.008013995,-0.0007625297,0.018206595,-0.0041187326,0.009672601,0.00070081884,0.0026281672,-0.00085986685,-0.020362677,0.006464915,0.004285652,-0.0026780237,0.0063413344,0.0047996226,0.018459376,-0.0052224393,0.006061754,0.006218993,0.005403542,-0.0053897775,0.0130036585,-0.015166053,0.0008176565,-0.008346863,-0.008043516,0.006672035,0.0018633306,0.018969033,-0.0050118016,0.010294561,0.010171475,0.0011739284,0.015981337,0.0033209575,-0.0013093576,0.007339484,0.0011506728,0.012477835,0.0058629243,-0.012831588,-0.0031865202,0.0017238688,-0.0038829665,0.0011431086,0.007830034,0.009371547,0.0021699192,0.00475371,0.0026341921,0.0068378123,0.009525804,0.0013962868,-0.00797625,-0.006231806,0.008436431,0.009672061,0.0036000349,-0.00795433,-0.0063160444,-0.013484808,-0.003832615,0.013315257,-0.019896997,-0.004030951,0.004155325,0.00468931,0.007108157,-0.0063484544,-0.00035129674,0.0062254267,-0.013138863,0.0017865477,0.0028255284,-0.009332294,-0.0021633836,-0.008057952,0.0149612315,0.0023118015
C=CC(=O)OCCOCCOCCOCCOCCOCCOCCOCCOCCOCCOC(=O)C=C,0.0018451205,-0.00781651,-0.0009503346,0.008650799,-0.004549678,-0.0011007092,-0.00246135,-0.005544888,-0.0024279398,-0.005516282,-0.0055377074,-0.0030366348,-0.010623353,0.010036679,0.00044448813,-0.015537247,-0.0015256759,-0.006996551,-0.0049281525,0.0032755192,-0.017473638,0.00016268459,0.0053413846,-0.008473789,-0.0043924013,0.004992216,0.00048042042,-0.0021529477,0.0011602268,-0.00075591914,0.009909575,0.0038844286,0.008656069,-0.0024093345,-0.002688285,0.0020339992,-0.010765006,-0.011506054,0.0028678677,-0.003226155,-0.006875525,0.0057305032,0.001811807,0.0053340755,-0.00022231787,-0.008465231,0.0028190399,-0.00054684095,0.013350199,-0.0038732276,-0.0047596227,-0.0017367564,0.011042973,-0.0002611659,0.0052122753,0.002576265,0.0009907437,-0.0005462216,-0.01563499,0.0028985073,0.0013713781,0.0010080598,0.00521815,0.004207449,0.0123995785,-0.0044559976,0.0008449729,0.00399712,0.0026878612,-0.001013278,0.009874603,-0.012220954,0.0013927836,-0.003953203,-0.0017994721,0.0030916035,0.0017261961,0.01375648,-0.005043703,0.0051269354,0.0053997943,-0.0018105805,0.01039477,0.0027512526,0.0008428991,0.0041534407,0.0007493133,0.008031142,0.0063203624,-0.009674712,-0.0053132838,0.0013639238,-0.002630888,0.003456118,0.0045771124,0.0073878425,0.0014866954,0.0027506636,0.003199584,0.0049846107,0.0078781955,0.0051583787,-0.004574707,-0.004832656,0.004271143,0.008211279,0.0051842453,-0.0036242476,-0.0036072582,-0.006965993,-0.0019597989,0.007873319,-0.012866449,-0.0033015646,5.8097765e-05,0.004011782,0.0034078453,-0.0037567625,-0.00013704295,0.0033672592,-0.010889348,-0.0003400175,0.0020495132,-0.006713139,-0.0032266607,-0.0028226613,0.0145428125,0.00059372373
C=C(C)C(=O)OCCOCCOCCOCCOC(=O)C(=C)C,0.002073912,-0.005139975,-0.0025941078,0.01273698,-0.0070689037,-0.001075129,-0.0018441314,-0.0051703965,-0.0023297933,-0.003263826,-0.007948229,-0.0053064656,-0.012692928,0.014113917,0.0024790126,-0.023223637,-0.0027841423,-0.013511203,-0.008392511,0.0019812044,-0.026940811,-0.0013404635,0.006499761,-0.009287002,-0.0037129356,0.005687723,0.00091920514,-0.0010262952,7.588137e-05,-0.0019797357,0.015034915,0.0066352035,0.012418967,-0.0022828698,-0.008676082,0.004279677,-0.018515926,-0.017716229,0.0017150431,-0.0022114362,-0.011560933,0.01035243,0.0023346758,0.0074290456,-0.004518831,-0.008848815,0.0038871542,-0.0015678294,0.016935065,-0.005798649,-0.007641964,0.00047419965,0.017318023,-0.004060621,0.008637242,0.00048294105,0.0028667254,-0.00020730495,-0.019857597,0.005316457,0.003819,-0.0019320333,0.006003175,0.0044996105,0.016436143,-0.0046028835,0.0058648326,0.0064550256,0.0055365665,-0.005066855,0.012643127,-0.0137204835,0.0020692777,-0.008204608,-0.006360627,0.0062239533,0.001634432,0.017354712,-0.0045154663,0.010124141,0.008905436,0.0009600036,0.015364101,0.0023256405,-0.0018329378,0.0070069227,0.00054475944,0.011772872,0.0059388173,-0.012357576,-0.0029370151,0.0018852688,-0.0031851125,0.0013267677,0.0066186534,0.009296949,0.0010031238,0.004603252,0.00256037,0.005676673,0.008339603,0.0014322517,-0.0068696737,-0.005497299,0.006850568,0.009108823,0.0041913614,-0.0060400898,-0.005561727,-0.012106031,-0.0030497536,0.011610371,-0.01904959,-0.003947762,0.0042143166,0.004959815,0.005591179,-0.005564519,-0.00023972988,0.0051428387,-0.013794803,0.001555576,0.0031960616,-0.008611897,-0.0019753445,-0.007132958,0.013275096,0.0023679864
C=C(C)C(=O)OCCOCCOCCOCCOCCOCCOCCOCCOCCOC(=O)C(=C)C,0.0020254692,-0.007812679,-0.0010010693,0.008960804,-0.00383193,-0.0011572307,-0.0025559464,-0.005335165,-0.0023234165,-0.0050894697,-0.0052210432,-0.0030410353,-0.009963326,0.008704817,0.00064981775,-0.014878847,-0.0016235616,-0.005766414,-0.005416667,0.0027570408,-0.01648961,1.3117678e-06,0.005339586,-0.00819739,-0.004183206,0.0047481903,0.0005354355,-0.0014658888,0.0009848438,-0.00025310367,0.009508396,0.0027943659,0.008382104,-0.0027405506,-0.0022806684,0.001986038,-0.00928388,-0.010772685,0.0025173435,-0.0031974837,-0.006815225,0.005527503,0.0015088348,0.0048200376,-6.0781837e-05,-0.00784313,0.0027474687,-0.0007191412,0.012333724,-0.0037826812,-0.0044509377,-0.0010135807,0.010250205,-0.00012745603,0.0047690235,0.0028705182,0.0010079788,-0.0005092127,-0.015063936,0.0021418503,0.0010828245,0.001232774,0.0049381666,0.003468769,0.011719368,-0.0041671246,0.00024020323,0.0041825464,0.0029853527,-0.0005378751,0.008838432,-0.011494448,0.0009877346,-0.0038438924,-0.00074765226,0.002478552,0.0017642872,0.012378203,-0.005377828,0.0041428553,0.0046274513,-0.0014847368,0.009647211,0.002752042,0.0015114862,0.0035848934,0.00012014806,0.007610183,0.0059026224,-0.008553014,-0.0046880534,0.001048943,-0.0027414733,0.003103335,0.004133654,0.006697883,0.00094444863,0.0022604265,0.0029146832,0.004693459,0.006882391,0.0052526062,-0.0037119202,-0.005203665,0.0039732493,0.008004392,0.0049153157,-0.003377122,-0.0036093593,-0.006381816,-0.0018859468,0.00711244,-0.012099268,-0.0033331262,-0.00043713674,0.0042140274,0.0029392121,-0.004174265,-0.00028083613,0.0032914141,-0.010481201,0.00011836272,0.001752032,-0.0060975845,-0.0034091123,-0.0019929945,0.014152776,0.0007595215
c1ccc2c(c1)-c1ccccc1C2(c1ccc(OCCOCC2CO2)cc1)c1ccc(OCCOCC2CO2)cc1,0.0025366554,-0.0036881473,0.003650669,0.003667629,-0.00023999438,-0.0013385888,-0.002994468,-0.0024904972,-0.0010911436,-0.0030037165,-0.002659828,-0.00068698055,-0.0040653273,0.0034740686,0.0020804699,-0.008077323,-0.0040573794,-0.0033681341,-0.0036111,0.002097061,-0.010031732,-0.0017664153,0.0038222186,-0.0043361,-0.0007612526,0.0025767218,-0.0016741105,-0.0014397717,0.0007834658,-0.0004600715,0.0033840167,0.0012954283,0.0036350628,-0.004336997,0.0013653468,0.0026128255,-0.0034953887,-0.00597563,0.0023577567,-0.0013886532,-0.004968213,0.0024530422,0.00093079126,-0.00077794865,-0.00043100864,-0.002310709,0.0005019102,0.00020403229,0.0074987765,-0.0014808215,-0.0024067778,-0.001108719,0.0061732032,0.001835272,0.0026102848,-0.0003540991,-0.0010536117,-0.0012475245,-0.007548805,0.001503678,0.00085492246,0.0012491476,0.004437737,0.0021881864,0.005707958,-0.002105657,0.0008510093,0.002227813,0.0036840057,-0.00010355003,0.003211867,-0.0042863116,0.0023371968,-0.0035899756,0.0012992658,-0.0006075045,0.0018990943,0.0062337248,-0.0020394912,0.0025526183,0.0051559648,-0.0001312904,0.0058185523,0.0010918296,0.0011328328,0.0035261363,-0.000876775,0.0035448456,0.0023102914,-0.0027328087,-0.00086883456,-0.00023895968,-0.0024072423,0.0004449715,0.0022875639,0.005054302,-0.0004524961,0.0013476545,0.0013569158,0.00030350033,0.002245671,0.0024292544,-0.0031459443,-0.004442257,0.0013435627,0.00590939,0.0045207664,-0.00032846513,-0.0016632602,-0.0052714925,-0.0006116573,0.003521835,-0.008450786,-0.0009534946,-0.0014581792,-1.5307218e-05,0.0018875971,0.00079769734,0.00013132836,0.0025605597,-0.0059917364,0.0018883934,-0.0019173247,-0.0038638636,-0.0026682052,0.00070734834,0.006612993,0.0011027139
Nc1ccc(S(=O)(=O)c2ccc(N)cc2)cc1,0.003027171,-0.002488587,-0.002250133,0.014199754,-0.010054722,-0.00076240744,-0.0006858632,-0.0060466873,-0.003346486,-0.0018588816,-0.010065193,-0.0071915556,-0.015266379,0.016941015,0.0032712421,-0.0258401,-0.005932711,-0.020646764,-0.0086345,0.0022882558,-0.032943234,-0.0030889926,0.008289328,-0.007454708,-0.0024528902,0.0042183553,0.001122151,-0.002521026,-0.0014640959,-0.0034382343,0.018864803,0.008849472,0.014396865,-0.0021335112,-0.01144593,0.006411463,-0.025758136,-0.020938393,0.0013429499,-0.00074575655,-0.013458228,0.0121390065,0.0024869074,0.009311362,-0.00731901,-0.009374184,0.004563407,-0.0017372752,0.02171481,-0.0066256747,-0.0090430565,0.0017734505,0.02334221,-0.0053437073,0.013504099,-0.0015672208,0.003796759,-0.00095669855,-0.022253996,0.0070683444,0.0053866096,-0.0039338516,0.006465585,0.0053009065,0.019727198,-0.004185718,0.010315152,0.008061391,0.007006321,-0.008193181,0.013636518,-0.014340279,0.0031916816,-0.00967006,-0.010742741,0.007479909,0.0015883883,0.020899158,-0.003881677,0.011417016,0.014380129,0.0035535172,0.01799564,0.0025772294,-0.0034943428,0.009138735,0.0018917061,0.014646423,0.0046163015,-0.013161766,-0.0017358512,0.0013362011,-0.0036325064,-0.000435628,0.00894734,0.010516414,0.0024038395,0.005048818,0.0026448874,0.005000933,0.0086943,-0.00084397197,-0.010801757,-0.0052352087,0.00947459,0.00928396,0.0046679964,-0.008838122,-0.00708519,-0.016888242,-0.004444493,0.014951872,-0.0237882,-0.0041242177,0.007327483,0.0047365725,0.008020354,-0.0045775855,0.00019467832,0.006768833,-0.01328582,0.002711244,0.002611111,-0.009769753,-0.0011449279,-0.010563472,0.011701939,0.004423147
CC(C)(c1ccc(OCC2CO2)cc1)c1ccc(OCC2CO2)cc1,0.0037457552,-0.0027677286,-0.0012903605,0.014022255,-0.00791532,-0.0019299202,-0.0012200298,-0.0047989413,-0.00387081,-0.002072163,-0.008898208,-0.0056128567,-0.01319267,0.014869517,0.0029970477,-0.0240136,-0.006038824,-0.018407827,-0.0072224457,0.001517104,-0.028910734,-0.0033516295,0.0058484804,-0.007721829,-0.0015350317,0.0051263752,0.0009631645,-0.0035769362,-0.0011295136,-0.0018549897,0.0146890255,0.0069096773,0.012501728,-0.0019289607,-0.008603016,0.0058924872,-0.021732427,-0.017715365,0.00094796205,-0.0005797846,-0.011821103,0.011284481,0.0034756376,0.0064242454,-0.005986614,-0.008224648,0.0044857897,-0.0027835164,0.01764316,-0.0053689675,-0.008209527,0.002122486,0.020472256,-0.004611424,0.012619065,0.00022570277,0.0025679534,-0.001219159,-0.019860113,0.0064718025,0.005478246,-0.0029530302,0.0066434387,0.00630337,0.017116077,-0.0045194803,0.009634465,0.0064060753,0.0067264372,-0.008162759,0.013319872,-0.012459416,0.003523251,-0.009823887,-0.0073914304,0.0070550917,0.0011030231,0.017994644,-0.0030380255,0.010278756,0.010867077,0.0014476907,0.016831871,0.0016765097,-0.0022252323,0.00839759,0.0014770115,0.013021528,0.0053535793,-0.011878086,-0.0013835253,0.0009405492,-0.0020540897,0.00094160903,0.008265999,0.0098023005,0.0026167026,0.004701763,0.0035498135,0.004408802,0.0072476184,0.001502919,-0.010473685,-0.004218569,0.0071852678,0.008124186,0.00424405,-0.0053578075,-0.004456481,-0.014193919,-0.0044405553,0.013389492,-0.021685904,-0.0042085457,0.006246111,0.0043489784,0.0077093462,-0.004055335,8.471124e-05,0.006357466,-0.013364418,0.001534597,0.0019847108,-0.009560721,-0.001217694,-0.0091466885,0.010428256,0.004286575
CC(N)COCC(C)OCC(C)OCC(C)OCC(C)OCC(C)OCC(C)N,0.0025941636,-0.0052884184,-0.000890648,0.01137461,-0.0052723824,-0.0020413992,-0.0018917685,-0.0050019436,-0.001372782,-0.003391188,-0.007460809,-0.0037823787,-0.0114823785,0.012520606,0.0028751348,-0.020376693,-0.003321886,-0.011551307,-0.0074301413,0.0037912894,-0.02312446,-0.0015181222,0.0052487385,-0.008700971,-0.0033993663,0.005526216,0.00037777517,-0.0012017136,0.000801119,-0.0016865134,0.012853644,0.005779901,0.010682592,-0.0029832346,-0.006476097,0.002277745,-0.015035246,-0.015321846,0.0015255972,-0.0031146137,-0.009803709,0.00834511,0.0021169921,0.006174776,-0.0023771562,-0.00800313,0.004201593,-0.0023679985,0.015196515,-0.004984187,-0.0066621224,0.00057455525,0.015479889,-0.0030009425,0.007906191,0.00016056048,0.0023851367,-0.00045200996,-0.01807033,0.0041633253,0.0025712661,0.000120875426,0.0063941646,0.0040311217,0.013228886,-0.004256147,0.004836632,0.0051357727,0.0060358066,-0.0045375163,0.011863584,-0.012426496,0.0023935214,-0.0055629546,-0.0030188682,0.0048109284,0.0022447342,0.015242674,-0.0040394207,0.009359459,0.008062024,-0.00012785941,0.012627207,0.0019916724,-0.0021391055,0.0066918377,0.0014768997,0.009887325,0.006729289,-0.011230849,-0.0036529396,0.0015727533,-0.0029365472,0.0017696829,0.005190552,0.009654203,0.00092671905,0.0029186266,0.002743318,0.00471815,0.007825758,0.0017000008,-0.006825541,-0.005637056,0.00488696,0.00819003,0.0064802854,-0.004542738,-0.0042548478,-0.01083441,-0.0020939726,0.010621294,-0.016099654,-0.0041686576,0.0036281645,0.004049089,0.0041661425,-0.003978246,0.0003855375,0.0033425232,-0.012843244,0.0010435944,0.0036708834,-0.006545215,-0.0022475212,-0.005112263,0.012530882,0.0026191715
NCCNCCN(CCNCCC(CN)CCN)CCN(CCNCCN)CCN(CCN)CCN,0.0022939602,-0.0059802774,-0.0010461044,0.010220136,-0.0048960294,-0.0011487347,-0.0016983412,-0.0038672024,-0.0017707795,-0.0041037863,-0.006526992,-0.004378939,-0.009817915,0.012340315,0.0017491854,-0.02004685,-0.0022135302,-0.010722467,-0.006103406,0.0027688183,-0.020820787,-0.0012335768,0.0053793173,-0.008800682,-0.0036626898,0.0051138583,0.00021395693,-0.0013735696,0.0008803634,-0.0022364808,0.010644465,0.004363974,0.009326055,-0.0023218992,-0.005525386,0.0025669914,-0.013419248,-0.01427799,0.0016827607,-0.0021986132,-0.009189475,0.007396941,0.0016682725,0.0048559154,-0.0015643593,-0.007305431,0.0031434558,-0.002843229,0.01416481,-0.004162958,-0.0056645977,0.0007794518,0.012991442,-0.0020442125,0.006858605,0.001553617,0.0019896058,-0.0003690403,-0.017686205,0.0038506908,0.002272237,0.0003639171,0.00616467,0.0039011075,0.01277208,-0.003950876,0.0036287548,0.0031331554,0.004808654,-0.0043062186,0.009678531,-0.01071078,0.0016410202,-0.004869949,-0.0029787882,0.0030747913,0.0033181254,0.015097254,-0.004650577,0.0059241666,0.0063420236,-0.00069538876,0.0111022955,0.0019159737,-0.00047877245,0.0061508007,0.0004990548,0.009457705,0.0059457542,-0.009878016,-0.0032237945,0.00071875285,-0.0022034273,0.0015064036,0.004637501,0.009348793,0.0009999592,0.0022609122,0.003235672,0.005551505,0.007010256,0.0024838932,-0.0057019107,-0.0050475886,0.005090234,0.008784671,0.0056367656,-0.0029309804,-0.004422549,-0.008648881,-0.0028704815,0.008574038,-0.015575916,-0.003665709,0.0033530649,0.0044774353,0.0051910495,-0.0036376351,-8.507911e-05,0.0044112997,-0.012063853,0.0003213128,0.0034400495,-0.0075992206,-0.0019622096,-0.0036975765,0.011709976,0.002432148
CC(N)COCC(C)OCC(C)OCC(C)N,0.0007661646,-0.0041153263,-0.0027698763,0.012613615,-0.009147724,-0.0008661533,0.00028550066,-0.0055653933,-0.0030093207,-0.0042126174,-0.008287457,-0.0072661443,-0.0132524725,0.016616005,0.00081785256,-0.024593974,-0.0033663064,-0.01589114,-0.008388646,0.0019199979,-0.031245632,-0.0018943294,0.008944642,-0.008229364,-0.0039884383,0.003919823,0.0017934735,-0.0015420365,-0.0008624401,-0.0033161659,0.01821944,0.0068543083,0.012984386,-0.0025584337,-0.010406895,0.004991049,-0.023775596,-0.019890158,0.0011935914,-0.0010186797,-0.01091754,0.012932787,0.002015151,0.009512387,-0.005923991,-0.009775064,0.005688565,0.00014432892,0.020625398,-0.007341047,-0.008456457,-0.0007722676,0.019647796,-0.0054571372,0.0113082975,0.00011920463,0.0025568912,-0.0016901828,-0.020310707,0.007394054,0.0047657583,-0.0030142134,0.0058065727,0.00427965,0.018622858,-0.0038664732,0.0066567613,0.0061779814,0.0056761233,-0.006827296,0.01238581,-0.015520341,0.00050922483,-0.008692704,-0.009007226,0.0064175026,0.002640522,0.019343873,-0.0044284044,0.01047641,0.011921338,0.002954172,0.015580518,0.0039689234,-0.0017749276,0.0076832753,0.0017770706,0.0130672185,0.005964007,-0.013203375,-0.0029394329,0.0013677441,-0.004374866,5.1036943e-05,0.0076669017,0.009099658,0.0034743352,0.0048196823,0.0020280902,0.007013037,0.009265353,0.0007418394,-0.009524217,-0.0071173524,0.010364218,0.008944474,0.004330118,-0.009074352,-0.0072544683,-0.014541204,-0.0053565893,0.014274677,-0.01984111,-0.005036108,0.0051215366,0.0046463106,0.008782793,-0.006433784,-0.00082731596,0.0071621407,-0.012682674,0.0023176074,0.0028855437,-0.009019632,-0.0022830009,-0.007894183,0.014567837,0.0024823342
CCCCCCCCCCN,-0.0007870458,-0.0020932173,-0.0010147002,0.008937107,-0.006797535,0.00016206317,-0.0011275373,-0.005879907,-0.0037949355,-0.0042217304,-0.0044243587,-0.006825192,-0.009551711,0.013028088,-0.0015620445,-0.016472317,-0.005334773,-0.01242841,-0.0059847175,0.0029765684,-0.026855394,0.0007233636,0.010544771,-0.0068209935,-0.0032900416,0.0022486781,0.001536353,-0.0009440129,0.00015665498,-0.0043107737,0.015259504,0.0022400375,0.012051729,-0.0031889637,-0.0072468407,0.0036016833,-0.02236694,-0.017986067,0.00062161195,-0.00075904746,-0.005237096,0.012225956,-0.0002579484,0.010404804,-0.007764383,-0.0062560597,0.0047325753,3.6712736e-05,0.02062719,-0.008492237,-0.0062876376,-0.004632443,0.017487282,-0.0055139363,0.0082773715,0.00010191975,-0.0012553995,-0.0023186065,-0.014584542,0.006481483,0.0010960903,-0.0011495678,0.0021407872,0.0034980879,0.016419984,-0.00011447817,0.0031726158,0.0044117635,0.0030978695,-0.0061844178,0.008522682,-0.016403452,0.0007653199,-0.008192732,-0.008442082,0.0022739414,0.0021693874,0.017780136,-0.0034433631,0.007852433,0.013267623,0.006017605,0.0126306685,0.0058593242,-0.0015110429,0.005543893,0.0021671825,0.010132461,0.005838254,-0.0116788745,-0.0034882706,0.00127126,-0.0054674502,-0.0010704016,0.0044137426,0.005122099,0.0057906257,0.0055140704,0.001510448,0.0057770917,0.008653094,0.0017930642,-0.010457008,-0.008237832,0.011765532,0.0065394365,0.0028640619,-0.0103250835,-0.010043622,-0.013916656,-0.0077035185,0.012197429,-0.015208067,-0.0061358693,0.0032155784,0.004390709,0.010459572,-0.003504726,-0.0021741588,0.0064061275,-0.009507035,0.00528163,-2.902653e-05,-0.007384144,-0.0019509974,-0.0055295355,0.014820725,0.00067263935
CC(C)(COCC1CO1)COCC1CO1,0.0009562494,-0.004414158,-0.0028051883,0.012922209,-0.009575525,-5.5835117e-05,-1.2106262e-05,-0.0053438367,-0.0044418653,-0.003735947,-0.007969834,-0.0081463065,-0.013535367,0.017151782,6.929273e-05,-0.02507682,-0.003568137,-0.017167145,-0.007857313,0.0016061887,-0.03185691,-0.0022092627,0.009284037,-0.008928093,-0.0036595764,0.004931456,0.0023325053,-0.0026616324,-0.0010852264,-0.004171703,0.018513763,0.006488211,0.013299329,-0.0018774869,-0.00989374,0.005899338,-0.025083391,-0.02048594,0.0015628687,-4.194863e-05,-0.00953978,0.013786983,0.0025673844,0.009804477,-0.006775692,-0.009681775,0.0064546894,0.00079393014,0.021672249,-0.0076759667,-0.00801314,-0.0015421081,0.02087833,-0.005115242,0.012531694,0.00063479505,0.0019444497,-0.0022111237,-0.019822916,0.0072995475,0.0049422197,-0.0032193046,0.005582668,0.0048957756,0.01953115,-0.00380099,0.0073759714,0.0064865733,0.0048822593,-0.0073638787,0.01273844,-0.016058875,9.875931e-05,-0.009995844,-0.010066526,0.006512274,0.002583718,0.02017852,-0.0044254707,0.010542754,0.013224269,0.0026848149,0.016721377,0.00415661,-0.0012370925,0.0072175963,0.0019518984,0.014663606,0.0055201543,-0.013575166,-0.0033935215,0.0010819221,-0.0039382786,9.064609e-05,0.008498934,0.008485025,0.0043499554,0.0057812077,0.0021812387,0.007949694,0.009048358,0.001553366,-0.009844651,-0.0068909135,0.01161111,0.009033004,0.0035493867,-0.009486136,-0.007805194,-0.015256059,-0.0065186825,0.015068304,-0.021055216,-0.005816241,0.0055600666,0.004894738,0.010003051,-0.006657942,-0.0015146413,0.008658343,-0.01383941,0.0029454017,0.0012200801,-0.0107143205,-0.00295354,-0.009288402,0.015047338,0.0028760135
CC(N)COCC(C)COCC(C)COCC(C)COCC(C)COCC(C)CN,0.002373268,-0.00540155,-0.00089004077,0.011281149,-0.004979064,-0.0020161958,-0.00142592,-0.0050606853,-0.0015467079,-0.0036546863,-0.007303052,-0.0043721255,-0.0112406295,0.013100784,0.002123604,-0.020250367,-0.003175525,-0.011451481,-0.0074174143,0.003257187,-0.022868624,-0.0009507837,0.005138742,-0.008917358,-0.0037904826,0.005409328,0.00072952267,-0.0010071733,0.00056559965,-0.0018356983,0.012575963,0.006233362,0.0105341505,-0.002927638,-0.006540304,0.0024389066,-0.01484431,-0.015348062,0.0015491159,-0.0036015506,-0.009955217,0.008049217,0.0017250888,0.0063060974,-0.0024088416,-0.0078414185,0.0042129457,-0.0020624027,0.014969593,-0.004932411,-0.006557562,0.00085412525,0.014613504,-0.0028493707,0.0078100525,0.0007080976,0.0026216311,-0.0007450031,-0.018083448,0.0041084797,0.002527481,0.00024630222,0.0063130204,0.0043137698,0.013466836,-0.0043741693,0.004255496,0.0049728574,0.005457863,-0.004058864,0.011593346,-0.011895873,0.0020327047,-0.005492177,-0.003399415,0.004985445,0.0018421533,0.015319521,-0.004083107,0.0090980455,0.0072216243,-0.00041431747,0.012370989,0.0016801126,-0.0016598944,0.0062577054,0.0012449143,0.009542361,0.0066525266,-0.010853084,-0.0028797816,0.0010634502,-0.0023664394,0.002269396,0.0052167634,0.009877946,0.00077319704,0.0029946147,0.0032633033,0.0054445444,0.007756677,0.0016157292,-0.00685977,-0.005335352,0.004905881,0.008553114,0.0062464676,-0.004255589,-0.004459312,-0.009982044,-0.0022896957,0.010102276,-0.01604467,-0.0037257476,0.003481823,0.0046791392,0.00461195,-0.0041281106,0.0001721168,0.003706783,-0.012722172,0.0004970869,0.0033163838,-0.006643536,-0.0021102983,-0.0050351773,0.012224274,0.002313031
CC(N)COCC(C)COC(OCC(C)COCC(C)N)OCC(C)COCC(C)N,0.002612277,-0.005483901,-0.0006651711,0.010566693,-0.0041035363,-0.0022601942,-0.0020577377,-0.0048424914,-0.0010642107,-0.0038723066,-0.0065621207,-0.0035948965,-0.010978697,0.011744574,0.002528871,-0.018811231,-0.0028594509,-0.010393949,-0.0069696847,0.00343954,-0.021045674,-0.000954648,0.0048130117,-0.008051146,-0.0035124423,0.0049777613,5.5714045e-05,-0.0012103805,0.0010928176,-0.0015917327,0.01119479,0.005290666,0.009744739,-0.0031319645,-0.004988758,0.001838455,-0.013502758,-0.014164435,0.0019187257,-0.0032216785,-0.00940867,0.0075054597,0.0015658475,0.00540045,-0.001820812,-0.0071285693,0.0037041092,-0.002062386,0.013879789,-0.0042895437,-0.0060984083,0.00087004155,0.013416551,-0.002364899,0.0069029294,0.0005289987,0.002482946,-0.0003542481,-0.017585391,0.003388952,0.0021311361,0.0003670957,0.006155513,0.003744561,0.011865977,-0.003682063,0.0034803797,0.0047453316,0.0058030235,-0.003296242,0.010572853,-0.011482031,0.0025209505,-0.004438905,-0.0026045404,0.0043858355,0.0022583837,0.01434746,-0.0039445115,0.008615654,0.0069542136,-0.00046174228,0.011612021,0.0015260597,-0.0014815908,0.0060134437,0.0012854743,0.008956097,0.00657221,-0.010234149,-0.0030974802,0.0009928718,-0.0030493978,0.001979352,0.004666808,0.009459186,0.0007038275,0.0025608782,0.0033378603,0.004722084,0.0066929664,0.0023081945,-0.0058000684,-0.0049174414,0.004381743,0.0083054025,0.0062577976,-0.0037203433,-0.004234912,-0.008933438,-0.0018978436,0.009134177,-0.015183911,-0.0037156632,0.0028183786,0.0043536406,0.003420703,-0.0032666624,0.00051278085,0.0032269638,-0.012020165,0.0006163055,0.0031688875,-0.0060816742,-0.0023702173,-0.003916508,0.012082376,0.0021380093
CC(N)COCC(C)COCC(C)CN,0.00012340862,-0.004232209,-0.0025502443,0.011981258,-0.009147288,-0.00060255243,0.0004816642,-0.0060936804,-0.0039334767,-0.0046815015,-0.0072177337,-0.008008158,-0.013019765,0.01687788,-0.0006260718,-0.02357666,-0.003877134,-0.015591603,-0.007669441,0.0015748199,-0.030897196,-0.0011270193,0.008860732,-0.007862398,-0.0038124209,0.0034155147,0.002393967,-0.0018388211,-0.00082749873,-0.003336478,0.017676663,0.0062259524,0.012886251,-0.0025170927,-0.009687306,0.005482169,-0.0244531,-0.019865224,0.0008355542,-0.000977329,-0.0093729235,0.013109947,0.0017290041,0.009925382,-0.00631674,-0.009681162,0.0060376944,0.00094408914,0.021454277,-0.008031663,-0.008064639,-0.0018926524,0.01931911,-0.0055565587,0.011358647,0.0006954358,0.0017383536,-0.0023982308,-0.019345373,0.00749852,0.0043062307,-0.0027019046,0.005397424,0.0046731327,0.018828094,-0.003491139,0.006033753,0.006026878,0.004826449,-0.007018704,0.011937277,-0.016084809,0.00024451502,-0.009308288,-0.009693971,0.006087144,0.0024699373,0.019499566,-0.004507481,0.009694723,0.012428357,0.0032073967,0.015627244,0.0043283636,-0.0013235658,0.0070088515,0.00194648,0.013271469,0.005865928,-0.01303722,-0.0027407184,0.00057938695,-0.0046516787,-1.3649464e-05,0.0077784425,0.0084007885,0.0044315048,0.0054240525,0.0018397311,0.007885872,0.00942592,0.0014590863,-0.0099111935,-0.007319245,0.011312934,0.008440485,0.0037900154,-0.009776465,-0.008308094,-0.014357907,-0.006573788,0.014114434,-0.019076118,-0.005503664,0.004614789,0.0044012098,0.010467913,-0.0063069956,-0.0012239716,0.008085883,-0.011907571,0.0026272126,0.0015915534,-0.0092808455,-0.0027633938,-0.008089382,0.014899729,0.002257418
CC(C)(c1ccc(Oc2ccc3c(c2)C(=O)OC3=O)cc1)c1ccc(Oc2ccc3c(c2)C(=O)OC3=O)cc1,0.0018072939,-0.0032784604,0.004828603,0.0009332788,0.0023394367,-0.0013450903,-0.002497539,-0.0008845418,0.0002835123,-0.0013909215,-0.0003799753,0.0026873045,0.00029007904,-0.0013208806,0.0022695665,-0.0016895342,-0.00333302,0.0028757048,-0.002371001,0.0010726955,-0.0018991055,-0.0018436138,0.00037434604,-0.0019385163,-0.00018177903,0.0025513438,-0.0025782022,-0.0016664976,6.3661486e-05,-0.0014338074,-0.0014009385,0.00020367699,-0.0012583379,-0.0046818117,0.0036624074,-0.0011220276,0.0035899146,-0.000727877,0.0011699838,-0.00052499864,-0.0018789752,-0.0017655343,0.000310509,-0.003827558,0.001896305,0.0009508794,-0.0012519318,0.00061258674,0.0013160836,0.0004903171,0.0007932922,-0.0012538955,-0.00059236353,0.0029344044,-0.0036436347,0.0023369626,-0.0017693778,-0.0008229939,-0.003213379,-0.0011196691,-0.001681543,0.0025980612,0.002086738,-0.00119219,-0.00046191085,-0.00023762882,-0.0010111602,0.0013476489,0.0016963733,0.0022400152,0.00035461504,-0.0005589966,0.0016903691,0.0004499131,0.005070704,-0.003017079,-0.00042287447,0.0013548667,-0.0013869507,7.297285e-05,0.0014456548,-0.0002136305,0.0010252176,0.00082492747,0.0018922053,0.0004744809,-0.0010181051,-0.0012040874,-0.0007738853,-0.0009103548,-0.00023279432,-0.00010846276,-0.0024919733,0.00054481067,-0.0016459152,0.001633116,-0.0024525938,-0.0011811713,0.0002980691,-0.0018386254,-0.002187105,0.0027946108,-0.0001337342,-0.0012614802,-0.0021555908,0.0020971284,0.002127245,0.0024341948,0.0001635626,-0.00022027083,0.0006581489,0.00039808312,-0.0025477703,0.0013528448,-0.0037819631,-0.0018587299,-0.000429241,0.002558493,0.00040897704,-0.0012919055,-0.0028867591,0.0012238538,-0.0017995576,-0.0009704442,-0.0015674308,0.0042221514,0.0037102401,0.0010318924
Nc1ccc(Oc2ccc(N)cc2)cc1,0.0018621599,-0.002283181,-0.0028923582,0.013428988,-0.009870233,-0.00032694777,9.509735e-05,-0.005923054,-0.0043818033,-0.0029414305,-0.008256444,-0.008403029,-0.014231691,0.017275698,0.0014242702,-0.02465018,-0.0059214737,-0.020311652,-0.00792395,0.0018055234,-0.033709586,-0.0023628676,0.009056047,-0.0066000074,-0.0024450815,0.0032507456,0.0020200857,-0.0029652854,-0.0016533583,-0.002589549,0.018277846,0.0072202026,0.0148997875,-0.0028643797,-0.011333307,0.0075415727,-0.027710656,-0.02114836,0.0008001046,0.00031311717,-0.010811019,0.013785289,0.0025762338,0.009283782,-0.007981958,-0.009069339,0.0056396183,-0.00097376667,0.023168439,-0.007713753,-0.008750154,-0.0008201394,0.022862915,-0.0062198,0.013591029,-0.000894072,0.0021893932,-0.0021769467,-0.020074,0.008152595,0.0045010094,-0.0045826407,0.005133358,0.0062379194,0.020757098,-0.004143869,0.009385011,0.0067293895,0.005766429,-0.009555373,0.012397042,-0.015856283,0.0015788786,-0.010962475,-0.011427141,0.006750864,0.0021137819,0.021108588,-0.0034820354,0.010453807,0.014973297,0.004051053,0.017871113,0.0031978171,-0.0022248887,0.008051966,0.0019637784,0.014776136,0.0047365203,-0.012594093,-0.0010151826,0.00029757898,-0.004397162,-0.0015582344,0.009811259,0.009322393,0.0044191442,0.005800362,0.0016368984,0.0064724227,0.009157814,-0.00011166185,-0.011431661,-0.0069267573,0.011561681,0.008354866,0.0039819097,-0.010442411,-0.009342305,-0.016389824,-0.006295597,0.01574178,-0.022992628,-0.0050972793,0.005958558,0.004339882,0.011123478,-0.005269817,-0.00090260874,0.008572024,-0.012118697,0.003654777,0.00025341054,-0.010452917,-0.0018429789,-0.010524938,0.013197657,0.0035214853
Nc1ccc(N(c2ccc(N)cc2)c2ccc(N)cc2)cc1,0.0033690669,-0.0006621359,-0.0017902758,0.013886441,-0.009206928,-0.0014524716,-0.0010225438,-0.004691352,-0.002915408,-0.0017036664,-0.009138483,-0.00687827,-0.014287969,0.016238872,0.004005048,-0.024783479,-0.006478321,-0.021610616,-0.007838365,0.0015867706,-0.031580254,-0.004156867,0.007577711,-0.0061665205,-0.0011999884,0.0037026862,0.0014226087,-0.0027132155,-0.0019722022,-0.002360941,0.016167143,0.008350577,0.013964452,-0.0022381495,-0.010088725,0.006665854,-0.024946764,-0.019584093,0.0003787782,-0.0009789197,-0.01308692,0.011965295,0.002805892,0.0071147573,-0.0074681966,-0.0077783903,0.0037827697,-0.0031982064,0.020735696,-0.005448114,-0.009406466,0.0018606745,0.022428885,-0.0057326485,0.013339613,-0.0019666231,0.003073522,-0.0013858604,-0.02079062,0.007432871,0.004061917,-0.004172489,0.006674233,0.006200932,0.01894626,-0.0044293813,0.010510074,0.006869601,0.007941765,-0.009426607,0.012759488,-0.013605232,0.0041168295,-0.009994829,-0.009197026,0.0069506476,0.002149419,0.019875817,-0.0019484153,0.011477856,0.013343064,0.0038010813,0.018621713,0.0010816288,-0.003902386,0.008879619,0.0019668574,0.013542424,0.004506561,-0.011763358,-0.00045965705,0.00093625207,-0.003571712,-0.0011049369,0.00926233,0.010858556,0.0028894069,0.004558693,0.0022836637,0.004792477,0.0072012115,-0.0013435669,-0.011121158,-0.0049797883,0.00859583,0.00775387,0.0056180386,-0.006507526,-0.006914543,-0.016366772,-0.0043312535,0.013694812,-0.022914,-0.0045271264,0.0068984427,0.0046364204,0.0077744643,-0.003130286,0.0002674244,0.0061606057,-0.012555224,0.0027014846,0.0018774071,-0.009520376,-9.402633e-06,-0.010050816,0.009883374,0.00458296
CC(C)(c1ccc2c(c1)CN(c1ccccc1)CO2)c1ccc2c(c1)CN(c1ccccc1)CO2,0.0021393374,-0.0031778058,0.0019360166,0.008900804,-0.00387253,-0.0027418039,-0.0023826356,-0.002466322,-0.0024096672,-0.0019555688,-0.0049729203,-0.0034435268,-0.007280547,0.0077641243,0.0031644371,-0.014845254,-0.0055362526,-0.009447636,-0.005617059,0.0021129567,-0.018479824,-0.002991288,0.005142672,-0.006032181,-0.00050214096,0.0024603722,-0.0015311968,-0.0015192201,-0.00063046254,-0.0021135937,0.008001755,0.0035720118,0.0070466814,-0.004169505,-0.0020900723,0.005129928,-0.011717422,-0.010124742,0.0013152952,9.268429e-05,-0.008779228,0.0073931846,0.0022031856,0.0011871741,-0.002376167,-0.004044709,0.0011004973,-0.0017490303,0.011938795,-0.0027366467,-0.0047854567,0.0012304336,0.0135480305,-0.0009741052,0.006865696,4.9046706e-05,-5.5711716e-06,-0.0015340755,-0.0135690905,0.0031392577,0.003113104,-0.0020208824,0.006250169,0.0032403374,0.010435053,-0.0025688345,0.0056183385,0.005007402,0.0057237586,-0.0051188343,0.00643825,-0.006857075,0.0038299523,-0.0059348666,-0.0019542277,0.002335947,0.0016746856,0.011289485,-0.002707813,0.0063541685,0.008760505,0.0025588311,0.012537924,0.0003620797,-0.0014187377,0.006561325,0.00047988072,0.007436744,0.0026074345,-0.0060047545,-0.00028716587,9.302888e-05,-0.002801815,-0.0003388445,0.004371685,0.0063283215,-0.00016079983,0.002104219,0.0016440044,0.0013993876,0.0022827294,0.0021068305,-0.007432161,-0.0047894698,0.0040774713,0.005657068,0.0051976508,-0.0007831382,-0.002358336,-0.010501588,-0.0031102598,0.008460021,-0.015552986,-0.0030064206,0.0032417094,0.00261378,0.005118663,-0.00012808852,1.5345635e-05,0.004149382,-0.008263728,0.0021149926,-0.00012949668,-0.005791044,-0.0013830103,-0.0035641757,0.007876394,0.0024119513
CC(N)COCC(C)OCC(C)OCC(C)OCCOCCOCCOCCOCCOCCOCCOCCOCCOCCOCCOCCOCC(C)OCC(C)OCC(C)N,-0.00015229918,-0.0036407374,0.0074706264,-0.017710447,0.011206269,0.004738177,-0.0023178086,0.0005496978,0.0056937607,-0.0052821008,0.0077959136,0.011007946,0.009818546,-0.014057925,-0.0028041457,0.025485313,0.006864492,0.025723957,0.007504343,0.0044949986,0.030685348,0.004050675,-0.0016608443,0.0019204766,-0.0017412016,0.0039415024,-0.0020122668,0.0027085645,0.0049952515,0.00065672584,-0.013065873,-0.006764713,-0.013490807,-0.0027981622,0.010923417,-0.010132302,0.034773905,0.013487754,0.006878401,-0.006895475,0.0114327045,-0.018256426,-0.0071610427,-0.0065333266,0.009096801,-0.00012986455,-0.0046932786,0.006789658,-0.01795057,0.0060429946,0.007001808,-0.009564993,-0.026278652,0.01280313,-0.017874941,0.0021316386,-0.0013879705,0.004167269,0.01605374,-0.0049380027,-0.010196778,0.010865164,-0.0039411616,-0.0068817437,-0.015559704,0.004247733,-0.017629644,-0.007833736,-0.009138561,0.016557477,-0.0091996305,0.006340187,-0.0035921894,0.013584692,0.014093978,-0.0098640565,0.003603587,-0.01336041,-0.0036836555,-0.015177787,-0.011721953,-0.0050747897,-0.024172675,0.008955513,0.0057710167,-0.006764494,-0.0012268731,-0.015443885,-0.0030629653,0.006593894,-0.0016577616,0.0006027622,0.0021009408,0.0062559764,-0.01374842,-0.005525613,-0.0042659054,-0.008197364,-0.0044536097,-0.00696246,-0.0024203826,-0.0012399498,0.0148754455,-0.0007875357,-0.012930322,0.0006954395,-1.2748875e-05,0.006027993,0.003854733,0.014644446,0.007980075,-0.017326733,0.024525661,0.007775371,-0.01399141,-0.007072162,-0.011131922,0.0065088407,0.0025396016,-0.008703034,0.006614292,-0.0025051786,-0.0017108938,0.009683548,-0.0028283414,0.017366644,0.00027927756,-0.0029582419
NCCOCCOCCN,-0.0011064317,-0.0023063952,-0.0008110441,0.009141371,-0.0068298127,0.00031704595,-0.0002562413,-0.006312171,-0.0039378707,-0.004676991,-0.0046955952,-0.0071726795,-0.009776607,0.013950646,-0.0010046833,-0.017425952,-0.005757505,-0.013025815,-0.0058368347,0.0030769054,-0.027384073,0.00071388134,0.010225513,-0.0066307792,-0.0029979835,0.0017666046,0.0016481313,-0.0012851037,0.0003463179,-0.004185125,0.01544381,0.002480762,0.011998604,-0.0027910753,-0.0075143967,0.003604332,-0.023442116,-0.018621884,0.00043507107,-0.0007329965,-0.0055998946,0.012077029,-0.00018645963,0.010449316,-0.007613886,-0.006936618,0.0051722135,2.9530376e-05,0.021479625,-0.008651705,-0.006071753,-0.004407146,0.018050278,-0.005957904,0.008569825,0.00031576585,-0.0013061026,-0.0023214624,-0.015443359,0.006806817,0.0010831617,-0.0012414558,0.0025322295,0.0035225644,0.016777799,-0.00052817445,0.0032233081,0.00441687,0.0032730037,-0.0069493963,0.00849878,-0.016453516,0.0010930542,-0.008798223,-0.008634022,0.0025227265,0.0025702622,0.01818896,-0.0030297684,0.007942406,0.0137641225,0.006480677,0.01279054,0.005994091,-0.001481764,0.0054831095,0.0020351391,0.010702408,0.0054166587,-0.012021398,-0.0033682976,0.0009529134,-0.005501117,-0.0016030744,0.0052955346,0.0057375324,0.0060529877,0.00547276,0.0009817157,0.006169987,0.008798707,0.0017745588,-0.010766112,-0.008549657,0.011715847,0.0061505465,0.003566849,-0.010554549,-0.010315813,-0.0141532235,-0.007987119,0.012126597,-0.015502771,-0.006301109,0.002864657,0.004010396,0.010705516,-0.0039469106,-0.0018787906,0.006457689,-0.00968685,0.0050906353,0.0001311265,-0.007733878,-0.001918429,-0.0056953547,0.014787064,0.0011534151
COCCOCCOCCOCCOCCOCCOCCOCCOCCOCCOCCOCCN,0.001524902,-0.0064317267,-0.0013231877,0.010118803,-0.006662655,2.985727e-05,-0.0011707805,-0.0061552324,-0.0024539144,-0.00435567,-0.006770887,-0.004469703,-0.011608699,0.013339177,0.0019665877,-0.020550692,-0.0015755668,-0.010604437,-0.006629576,0.0034874752,-0.023799026,-0.00087012886,0.0063342284,-0.00982652,-0.0047595585,0.0051423353,0.0016463869,-0.0012620856,0.0011798814,-0.0015585739,0.013705608,0.0058160066,0.010594465,-0.00208917,-0.006298473,0.0023389515,-0.015457073,-0.015195064,0.0023821192,-0.003413478,-0.009211703,0.008143532,0.0023322427,0.0072360085,-0.0021399334,-0.008650715,0.0039606504,-0.0009817891,0.01617285,-0.0056072446,-0.0062335166,-0.0013500247,0.014719674,-0.0022027632,0.0075468738,0.0019574794,0.0023760395,-0.0008718702,-0.017770028,0.004805924,0.0023615807,-0.00030994695,0.006518523,0.0040079365,0.015620544,-0.0045265155,0.003271002,0.0049779685,0.0038791029,-0.00343767,0.012335753,-0.013626812,0.0012375247,-0.0058634677,-0.004066054,0.00481194,0.0023482712,0.017509494,-0.0040061725,0.008177855,0.007627039,-0.0008391645,0.013063891,0.0031609922,-8.71364e-05,0.0062020496,0.0010297718,0.009778391,0.006479391,-0.012089776,-0.0052728616,0.0012479695,-0.0030466337,0.0026594005,0.006261005,0.008422221,0.0017468287,0.0028887298,0.0030499247,0.005802284,0.009202942,0.003153646,-0.006018929,-0.0052881152,0.005719315,0.009533562,0.0053733485,-0.0053384975,-0.00482977,-0.010553997,-0.0021805782,0.010027951,-0.015662089,-0.0045034904,0.0023127757,0.0045727016,0.0045726914,-0.0061809765,0.00029305206,0.0038258051,-0.0132111395,-0.00038461667,0.0036187535,-0.008329323,-0.0017672968,-0.005214412,0.01457863,0.0012027174
COCCOCCOCCOCCOCCOCCOCCOCCOCCOCCOCCOCCOCCOCCOCCOCCOCCOCCOCCOCCOCC(C)N,0.00072177313,-0.0067111626,0.005615102,-0.007137546,0.003953346,0.0025467216,-0.0036883974,-0.004110865,0.0020125182,-0.005503441,0.0026521012,0.0049128244,-0.0006618183,-0.0022607225,-0.0012484821,0.006537108,0.0032460429,0.012820536,0.0014714496,0.0052097496,0.006576443,0.0018849054,0.0024722936,-0.004653234,-0.0034682772,0.004646172,-0.0010246052,0.0012115565,0.0052600857,0.0010133376,-0.0017123038,-0.0007776795,-0.003929319,-0.004181032,0.0058654305,-0.0032896474,0.015165962,0.0003288705,0.006552412,-0.0058346963,0.00208688,-0.0075816326,-0.003357647,-0.0012480859,0.0060316026,-0.0038438635,-0.0019809236,0.005509749,-0.002191985,0.0011410536,0.0014083022,-0.007665321,-0.008412154,0.0076051145,-0.00842933,0.0023701158,0.0002844492,0.0020664046,0.0008229317,-0.0014160294,-0.004555893,0.0072112517,0.0010214355,-0.0013125956,-0.0016965875,0.000853505,-0.010554439,-0.0026052073,-0.0041297833,0.009451182,0.00023000035,-0.003189059,-0.00073815323,0.005798185,0.008055925,-0.0051154913,0.0038634427,0.0003413977,-0.005336386,-0.005229111,-0.0023642397,-0.005229609,-0.00709561,0.0071380204,0.004846707,-0.001415927,-0.00015160441,-0.0052151703,0.0021645753,-0.002258001,-0.0040925965,0.0020692395,-0.0008922932,0.006245552,-0.006491992,0.0009032618,-0.0024792473,-0.0037241327,-0.00050721434,-0.000878674,0.002785944,0.0028190534,0.008142034,-0.004181831,-0.005425319,0.0067727976,0.004058661,0.0017245698,-0.00042442977,0.004980365,0.004583163,-0.006108709,0.007692722,0.0028637415,-0.008244049,-0.0019181576,-0.0057222154,0.001320784,0.0021079823,-0.0028300732,-0.0041034576,-0.0017903047,-0.0006849002,0.0013507758,-0.0035132165,0.009275872,0.007847134,-0.0012817318
COCCOCCOCCOCCOCCOCCOCCOCCOCCOCCOCCOCCOCCOCCOCCOCCOCCOCCOCCOCCOCCOCCOCCOCCOCCOCCOCCOCCOCCOCCOCCOCCOCCOCC(C)OCC(C)OCC(C)OCC(C)OCC(C)OCC(C)OCC(C)OCC(C)OCC(C)OCC(C)N,-0.032978933,0.1003754,0.035919324,-0.2353978,0.15114035,0.004642281,0.018462943,0.08351274,0.07111692,0.039949413,0.13510168,0.085052945,0.21416521,-0.24482945,-0.030580029,0.44277725,0.09366524,0.26846036,0.11330978,-0.004188182,0.48421037,0.076177515,-0.11154432,0.16583508,0.021622367,-0.046784814,-0.021941928,0.06109108,0.024955984,0.012273032,-0.21082065,-0.09703592,-0.17855613,0.039647967,0.074623354,-0.119628526,0.3625559,0.29445156,-0.023471497,-0.010521887,0.19220665,-0.18132374,-0.06423478,-0.09447814,0.09157563,0.15957731,-0.07305826,0.035713054,-0.32074064,0.05512806,0.12192317,-0.017232273,-0.3587501,0.07324559,-0.2123478,-0.029468242,-0.0014653364,0.057332054,0.33719605,-0.12564006,-0.08710931,0.057549562,-0.12269277,-0.10017079,-0.2804214,0.079465084,-0.13407242,-0.12437006,-0.11365937,0.1067181,-0.18623815,0.21657072,-0.024283728,0.137366,0.09959917,-0.06860648,-0.009193538,-0.2927948,0.115439564,-0.1533471,-0.1941063,-0.010459468,-0.2823474,-0.028805146,0.0034276843,-0.1133073,0.013975238,-0.23444703,-0.078969546,0.19010213,0.030409401,0.0013627261,0.06650517,-0.030986322,-0.12342138,-0.16200304,-0.04071195,-0.08752201,-0.04688748,-0.08020219,-0.10742655,-0.06256937,0.15409783,0.07593334,-0.12566048,-0.15393788,-0.08715543,0.07779647,0.049142387,0.23201345,0.06504953,-0.22369741,0.3658093,0.039354883,-0.057945527,-0.052864272,-0.14942113,0.06543008,0.021816038,-0.10732237,0.19974448,0.012527808,-0.0045955935,0.18416421,0.044680364,0.11498401,-0.20964372,-0.06444996
COCCOCCOCCOCCOCCOCCOCCOCCOCCOCCOCCOCCOCCOCCOCCOCCOCCOCCOCCOCCOCCOCCOCCOCCOCCOCCOCCOCCOCCOCCOCCOCCOCCOCCOCCOCCOCCOCC(C)OCC(C)OCC(C)OCC(C)OCC(C)OCC(C)N,-0.02710436,0.07650396,0.028842501,-0.19543046,0.12554803,0.010763533,0.010950599,0.064457215,0.058730837,0.027055193,0.11284381,0.06857745,0.17440161,-0.19946544,-0.03180395,0.3671238,0.07985206,0.22557995,0.09517823,0.00035566092,0.40859738,0.06400512,-0.082245424,0.12958676,0.020324953,-0.039569244,-0.020342467,0.046971552,0.018167935,0.012637271,-0.17545837,-0.07724891,-0.14634827,0.030029202,0.06841115,-0.09463547,0.30077988,0.24210599,-0.012396007,-0.0101708695,0.159563,-0.15262643,-0.05436431,-0.081633225,0.076384805,0.123546,-0.060474887,0.034148548,-0.2584765,0.046500407,0.10539549,-0.02231469,-0.29353532,0.067684695,-0.175033,-0.021489784,-0.003657625,0.046313785,0.28107104,-0.101725675,-0.072899826,0.047354892,-0.09538882,-0.07879883,-0.22935335,0.059907738,-0.1178194,-0.102488644,-0.09616266,0.09563573,-0.14971688,0.17883149,-0.025103034,0.11312476,0.086385995,-0.061951537,-0.0005060937,-0.24032962,0.08749613,-0.13229431,-0.1595316,-0.010033499,-0.24182077,-0.021152278,0.003929293,-0.09662561,0.009048406,-0.19402252,-0.0660006,0.15311512,0.026495265,-1.1920929e-07,0.05660663,-0.02361249,-0.1004925,-0.13281362,-0.028484028,-0.074884504,-0.04038968,-0.067606926,-0.078757964,-0.049398657,0.12860727,0.06222947,-0.10469274,-0.12358716,-0.06897792,0.06593891,0.038287107,0.18947878,0.058234837,-0.18719524,0.30766824,0.030994281,-0.05451507,-0.045345057,-0.12152339,0.057749003,0.019556807,-0.08597901,0.16275384,0.008995835,-0.008971112,0.14808786,0.036347073,0.098530285,-0.16529372,-0.053167783
NCCCOCCOCCCN,-0.0015323423,-0.0031081364,-0.0015210416,0.0096490085,-0.0077618524,0.00034280214,-8.357875e-05,-0.006261981,-0.004343115,-0.0049980623,-0.004756064,-0.007488787,-0.010934046,0.014969099,-0.0016313731,-0.018821113,-0.0052237865,-0.013692476,-0.0056851776,0.0025555547,-0.028324543,0.00027615554,0.009903892,-0.007128807,-0.003174878,0.0021631895,0.0019590077,-0.0016483614,-0.00014345068,-0.003921603,0.01608177,0.0030036788,0.012313451,-0.0024552715,-0.0077282023,0.004528327,-0.024227615,-0.018825762,0.0004882475,-0.00041786395,-0.005937745,0.012470937,0.0005366821,0.010509113,-0.007202193,-0.008135277,0.005520651,0.0007766783,0.021685347,-0.008534328,-0.0066091972,-0.004390618,0.01851787,-0.00585593,0.009672381,0.0008926643,-0.0008860817,-0.002495898,-0.01604007,0.0072937678,0.0020951107,-0.0018373234,0.0031690819,0.0043431465,0.017489266,-0.0010233046,0.0036612267,0.004894101,0.0031276653,-0.006865884,0.009758567,-0.016439423,0.00044596195,-0.009312356,-0.009054794,0.0032189535,0.0023080353,0.01874014,-0.0035767583,0.008066087,0.013729002,0.0049156463,0.013839607,0.005558552,-0.0011482816,0.0057205083,0.0016832957,0.011764734,0.0055151633,-0.012431074,-0.0032810438,0.00049140025,-0.005480942,-0.001498369,0.005974223,0.0059240367,0.006298735,0.005635245,0.0014632645,0.006935415,0.009005889,0.0023401743,-0.010683423,-0.008282007,0.012241278,0.0068243905,0.003480048,-0.010858958,-0.00974743,-0.014222001,-0.00778549,0.013004012,-0.016484024,-0.006289201,0.0032911738,0.004050161,0.011303604,-0.004854937,-0.0019861069,0.007164455,-0.009838325,0.004420164,8.536689e-05,-0.008524266,-0.0025452278,-0.006613216,0.015565783,0.0013853293
CC(C)(C)N,4.0354207e-06,-0.0015415214,-0.00020250492,0.008917688,-0.0055640186,-0.0003271834,-0.0010674018,-0.006183797,-0.0036348104,-0.0039729257,-0.0047533554,-0.006828187,-0.008685874,0.012527309,-0.00059260847,-0.015711734,-0.006265389,-0.0123374015,-0.006470334,0.0036233626,-0.026480686,0.00093975966,0.01077502,-0.006044721,-0.0030204372,0.0021201312,0.0011103479,-0.0012388696,0.0006417269,-0.004743534,0.01464101,0.0020974572,0.0116904825,-0.003798478,-0.0078004412,0.0030173156,-0.0219737,-0.018161502,0.00026847376,-0.0013745772,-0.0058331983,0.012175319,-0.0011024065,0.010009492,-0.008302489,-0.0052073216,0.0047005666,-0.0005608443,0.021223847,-0.008774791,-0.0059833443,-0.004360523,0.017757086,-0.0058701825,0.007321235,-0.0008136919,-0.0014339574,-0.0018596032,-0.014817817,0.006047383,0.0005732095,-0.00037125405,0.0016228005,0.0024063324,0.016010543,0.00011607818,0.0032083641,0.0041324245,0.0036268206,-0.006888476,0.007627914,-0.016474675,0.0016918201,-0.0078636035,-0.008214379,0.0022823978,0.0025918921,0.017392509,-0.0029077036,0.008238994,0.013609911,0.008411743,0.011672147,0.006441797,-0.0023112725,0.0055031404,0.0029191794,0.009654437,0.0055142306,-0.011180961,-0.00330701,0.0016515478,-0.0054497826,-0.0011349767,0.00439532,0.005930227,0.005462764,0.0051774504,0.0007754073,0.005023255,0.008513052,0.0005071759,-0.011005858,-0.008279585,0.010876212,0.0049061035,0.0029249769,-0.009704613,-0.011117791,-0.0139837945,-0.008000879,0.01110073,-0.01458017,-0.0064089205,0.0026484178,0.00432652,0.009330563,-0.0026327157,-0.0017763381,0.005842692,-0.009907373,0.006386581,0.00037398562,-0.0066649015,-0.0014560493,-0.004670548,0.013897875,0.00091749243
CCCCN,0.0004626047,-0.00022679381,0.0010679122,0.0072851535,-0.004095364,0.00015646964,-0.002130596,-0.0060179387,-0.002492406,-0.0032352158,-0.004631803,-0.005732773,-0.00641484,0.010565423,0.00020397501,-0.012796672,-0.0064362492,-0.010636756,-0.0063487696,0.0048446227,-0.023768611,0.0016681508,0.011371744,-0.0060146684,-0.0033644063,0.0015464367,0.0007110024,-0.0003540992,0.0019281087,-0.005972148,0.013479329,0.0011673328,0.010928164,-0.0041167326,-0.006843915,0.0008608289,-0.019705707,-0.017026495,0.0010720347,-0.0018966598,-0.005108121,0.010461538,-0.00201806,0.009704875,-0.008472923,-0.0031807413,0.003458919,-0.001716637,0.019161407,-0.008563553,-0.0048269667,-0.0047137234,0.015601369,-0.0047192504,0.0050311703,-0.0016416879,-0.001918748,-0.0013202131,-0.012544513,0.0052412334,-0.0012879875,0.0004392499,0.0006015585,0.0013688796,0.014129685,0.0012165755,0.0018734562,0.0033294866,0.0034895018,-0.005983406,0.005477116,-0.015820438,0.0026318748,-0.006352641,-0.006935298,0.00071735494,0.003151168,0.016296137,-0.0016724607,0.0076616737,0.013258364,0.009566638,0.010262874,0.0064586657,-0.0026315488,0.0053901123,0.0035834378,0.0070077563,0.0051916554,-0.01028237,-0.0038851518,0.0024146512,-0.00544249,-0.0012336057,0.002865524,0.0049499413,0.004836321,0.004176166,0.00044930005,0.003813791,0.008134216,0.00012490526,-0.010616748,-0.008840311,0.009795473,0.0046997243,0.0035948344,-0.008721995,-0.011381083,-0.013326984,-0.007886712,0.009714782,-0.01240498,-0.005874357,0.002147648,0.004478094,0.0078821145,-0.0008900063,-0.0017118724,0.0041395584,-0.009035734,0.006848597,0.0009832485,-0.005453242,-0.00030110218,-0.0031832247,0.01282183,-0.00018848106
CCCCCCCCCCCCCCCCN,-0.00075260736,-0.0035960544,-0.0022935849,0.010110617,-0.008424958,-0.00010293024,-0.00078332424,-0.005421551,-0.003950101,-0.0045051468,-0.005093711,-0.0070352666,-0.010495728,0.014346568,-0.001816263,-0.018802088,-0.0040608933,-0.013436889,-0.006407464,0.0024115797,-0.027931994,-0.00062678405,0.010122292,-0.008019282,-0.0033446553,0.0030833376,0.0016984758,-0.0015319559,-0.0006334381,-0.003879249,0.016142746,0.0029711328,0.012306692,-0.0027274175,-0.0077463146,0.0044849385,-0.022466382,-0.017986562,0.0007993798,-2.9015355e-05,-0.0064913547,0.012537259,0.0010713916,0.010064064,-0.006853329,-0.0076740487,0.0046737446,0.0005815495,0.020127105,-0.007965319,-0.006840911,-0.0036612032,0.018062636,-0.0054065622,0.009398606,0.0007212376,-0.00019205455,-0.0025874702,-0.015731512,0.00698731,0.002608044,-0.0021254243,0.0031458808,0.0042491406,0.017220285,-0.0012406195,0.0039942525,0.004803068,0.0034018531,-0.0061670053,0.010084737,-0.016276993,0.00020686164,-0.008543769,-0.009252995,0.003562876,0.0019815685,0.018189788,-0.0043324223,0.00795196,0.012698643,0.0039874036,0.014240827,0.004918444,-0.00096258335,0.0058651473,0.0016617626,0.011282339,0.0060689263,-0.0121346805,-0.0036998587,0.001273619,-0.004854343,-0.0005414868,0.005450826,0.0055352487,0.0053125126,0.005550748,0.0019575378,0.006488641,0.008653127,0.0021865927,-0.009942129,-0.0076507796,0.011830969,0.007593459,0.0027564792,-0.010006387,-0.008838778,-0.014244763,-0.0072335247,0.013428202,-0.016963743,-0.0054412335,0.0039282544,0.004800101,0.010675751,-0.005046279,-0.0020677042,0.007366377,-0.0102478005,0.003983983,0.0005669873,-0.0085353665,-0.002380812,-0.0067354054,0.015534775,0.0005270699
CC(N)COCC(C)OCC(C)OCC(C)OCC(C)OCC(C)OCC(C)OCC(C)OCC(C)OCC(C)OCC(C)OCC(C)OCC(C)OCC(C)OCC(C)OCC(C)OCC(C)OCC(C)OCC(C)OCC(C)OCC(C)OCC(C)OCC(C)OCC(C)OCC(C)OCC(C)OCC(C)OCC(C)OCC(C)OCC(C)OCC(C)OCC(C)OCC(C)OCC(C)OCC(C)N,-0.054254416,0.18183005,0.059722826,-0.35302788,0.2420416,-0.0034001903,0.061589062,0.12017978,0.11338675,0.09750116,0.18885599,0.14869751,0.3378222,-0.39562422,-0.023266274,0.6559218,0.14327848,0.4099878,0.15654677,-0.014680473,0.6847773,0.09271485,-0.17136216,0.26634225,0.03858487,-0.058829505,-0.035533294,0.110873654,0.04678022,0.0060566384,-0.30701107,-0.14004984,-0.24589364,0.05161542,0.063366964,-0.1920041,0.5441541,0.44355658,-0.04640749,0.0031949654,0.29517555,-0.2756894,-0.115730494,-0.13759366,0.11286976,0.24498011,-0.103094675,0.026800562,-0.49475902,0.074611254,0.18495293,0.013698582,-0.5422523,0.08052904,-0.31224763,-0.06588013,0.007626512,0.10410103,0.4811511,-0.22035183,-0.13737391,0.08881088,-0.18887976,-0.16829406,-0.42921826,0.13947468,-0.18341058,-0.19492243,-0.14269762,0.14938842,-0.29641587,0.3295051,-0.024774717,0.23382166,0.13694498,-0.0965658,-0.046356574,-0.43517974,0.19217835,-0.19818223,-0.29147983,0.0015657879,-0.40069103,-0.06925695,0.0015987027,-0.15072285,0.034063257,-0.35352263,-0.08562535,0.32354844,0.06001097,0.007549175,0.08387437,-0.050668392,-0.17376146,-0.2411308,-0.079219475,-0.12540108,-0.055071294,-0.15201165,-0.18905842,-0.10944178,0.23245484,0.10559167,-0.16868456,-0.25861388,-0.13631853,0.10021041,0.061520528,0.36250412,0.087040186,-0.34014466,0.54097253,0.049655166,-0.0647494,-0.06873846,-0.23445766,0.09939308,0.04330574,-0.17178175,0.289213,0.008028789,0.012341508,0.30339652,0.07890303,0.14639047,-0.3250894,-0.09710946
CC(N)COCC(C)OCC(C)OCC(C)OCC(C)OCC(C)OCC(C)OCC(C)OCC(C)OCC(C)OCC(C)OCC(C)OCC(C)OCC(C)OCC(C)OCC(C)OCC(C)OCC(C)OCC(C)OCC(C)OCC(C)OCC(C)OCC(C)OCC(C)OCC(C)OCC(C)OCC(C)OCC(C)OCC(C)OCC(C)OCC(C)OCC(C)OCC(C)OCC(C)OCC(C)OCC(C)OCC(C)N,-0.054254416,0.18183005,0.059722826,-0.35302788,0.2420416,-0.0034001903,0.061589062,0.12017978,0.11338675,0.09750116,0.18885599,0.14869751,0.3378222,-0.39562422,-0.023266274,0.6559218,0.14327848,0.4099878,0.15654677,-0.014680473,0.6847773,0.09271485,-0.17136216,0.26634225,0.03858487,-0.058829505,-0.035533294,0.110873654,0.04678022,0.0060566384,-0.30701107,-0.14004984,-0.24589364,0.05161542,0.063366964,-0.1920041,0.5441541,0.44355658,-0.04640749,0.0031949654,0.29517555,-0.2756894,-0.115730494,-0.13759366,0.11286976,0.24498011,-0.103094675,0.026800562,-0.49475902,0.074611254,0.18495293,0.013698582,-0.5422523,0.08052904,-0.31224763,-0.06588013,0.007626512,0.10410103,0.4811511,-0.22035183,-0.13737391,0.08881088,-0.18887976,-0.16829406,-0.42921826,0.13947468,-0.18341058,-0.19492243,-0.14269762,0.14938842,-0.29641587,0.3295051,-0.024774717,0.23382166,0.13694498,-0.0965658,-0.046356574,-0.43517974,0.19217835,-0.19818223,-0.29147983,0.0015657879,-0.40069103,-0.06925695,0.0015987027,-0.15072285,0.034063257,-0.35352263,-0.08562535,0.32354844,0.06001097,0.007549175,0.08387437,-0.050668392,-0.17376146,-0.2411308,-0.079219475,-0.12540108,-0.055071294,-0.15201165,-0.18905842,-0.10944178,0.23245484,0.10559167,-0.16868456,-0.25861388,-0.13631853,0.10021041,0.061520528,0.36250412,0.087040186,-0.34014466,0.54097253,0.049655166,-0.0647494,-0.06873846,-0.23445766,0.09939308,0.04330574,-0.17178175,0.289213,0.008028789,0.012341508,0.30339652,0.07890303,0.14639047,-0.3250894,-0.09710946
CC(N)COC(C)COCC(C)(COCC(C)OCC(C)N)COCC(C)OCC(C)N,0.0027883034,-0.0060757212,-0.00030127354,0.009694286,-0.0035980116,-0.0020538014,-0.0022057435,-0.004878117,-0.0015647537,-0.0039126794,-0.0062889284,-0.0033128017,-0.01000214,0.010456123,0.002134427,-0.017445676,-0.0031192638,-0.008617407,-0.006695258,0.003343206,-0.019306008,-0.00097099994,0.0045364266,-0.008395769,-0.0034604196,0.0051905634,-6.385939e-05,-0.00086119596,0.0014834348,-0.0015448574,0.011108952,0.0043914705,0.008743167,-0.0030218328,-0.003982339,0.0017264988,-0.0114435535,-0.013586145,0.0023549101,-0.0031106472,-0.009214115,0.0066817263,0.0014852923,0.004745923,-0.0006001834,-0.007048684,0.0037906505,-0.001714725,0.012985274,-0.0045185257,-0.0062242304,0.000964839,0.0126279,-0.0018878942,0.005359349,0.00055901427,0.0024876343,-5.024718e-05,-0.016356437,0.0029126469,0.0019265823,0.00079256203,0.005593937,0.0037441019,0.010646408,-0.0033688312,0.0028814164,0.004330078,0.005526365,-0.0026629856,0.009922501,-0.010471392,0.002327837,-0.004249817,-0.0013766838,0.003097701,0.0026909597,0.013077358,-0.004455381,0.0071761897,0.0069253417,-0.00017671287,0.010352495,0.0022102115,-0.0012087747,0.0054209456,0.0010018358,0.00845652,0.006313877,-0.009567308,-0.003283957,0.0012071487,-0.0026603434,0.0019826787,0.003917179,0.0088241305,0.00038507022,0.0020701792,0.0024527444,0.004468768,0.006476276,0.0023002913,-0.0048666243,-0.0054694843,0.0044016773,0.007894166,0.006214186,-0.0032874786,-0.004223842,-0.008248009,-0.001705695,0.008726473,-0.013800077,-0.003082675,0.0022000438,0.0039209304,0.0036045099,-0.0029671993,0.0013265877,0.0033079823,-0.011336947,0.0007797433,0.0027931305,-0.005633965,-0.0030341423,-0.0035610865,0.012327101,0.003023061
CC(N)COC(C)COC(C)COC(C)COC(C)COC(C)COC(C)COC(C)COC(C)COC(C)COC(C)COC(C)COC(C)COC(C)COC(C)COC(C)COC(C)COCC(C)(COCC(C)OCC(C)OCC(C)OCC(C)OCC(C)OCC(C)OCC(C)OCC(C)OCC(C)OCC(C)OCC(C)OCC(C)OCC(C)OCC(C)OCC(C)OCC(C)OCC(C)N)COCC(C)OCC(C)OCC(C)OCC(C)OCC(C)OCC(C)OCC(C)OCC(C)OCC(C)OCC(C)OCC(C)OCC(C)OCC(C)OCC(C)OCC(C)OCC(C)OCC(C)N,-0.053349424,0.17983498,0.060057156,-0.3511492,0.24093401,-0.005661844,0.05951328,0.118307054,0.11232638,0.0988339,0.185662,0.14715958,0.33396798,-0.38933802,-0.02207636,0.652297,0.1421415,0.40522754,0.15334421,-0.0139961485,0.6769324,0.09337224,-0.17028478,0.26579273,0.037276883,-0.057416823,-0.03587908,0.111589834,0.046308257,0.004874278,-0.30309105,-0.13688995,-0.24373825,0.05139749,0.05859182,-0.19116028,0.53824335,0.4396029,-0.045375463,0.0033473298,0.29304945,-0.27227208,-0.11534374,-0.1347505,0.111857526,0.24285729,-0.10201532,0.026903626,-0.4910925,0.07313576,0.18247344,0.015606388,-0.53754884,0.079581685,-0.30996087,-0.06674314,0.01000183,0.1042902,0.47512534,-0.22074804,-0.13635446,0.08926948,-0.18794124,-0.16701292,-0.42522687,0.13989508,-0.18181671,-0.19292198,-0.13987042,0.14870112,-0.2933781,0.32628006,-0.023777204,0.23275897,0.13513827,-0.09466673,-0.046905987,-0.43158874,0.19163452,-0.19474708,-0.28704235,0.0030188449,-0.39817283,-0.06925757,0.0020830445,-0.14777686,0.0358023,-0.351789,-0.08384791,0.32121253,0.060542315,0.007568936,0.083274506,-0.049867824,-0.17135766,-0.238043,-0.08006036,-0.12376991,-0.05377373,-0.15025467,-0.18724084,-0.11198006,0.22866234,0.10335031,-0.16706906,-0.2563345,-0.13485663,0.09788288,0.05998071,0.35796002,0.0852803,-0.33727357,0.53719515,0.048316,-0.06271024,-0.06750502,-0.23363428,0.098612264,0.04454051,-0.16946022,0.2869522,0.0074580265,0.012426688,0.30264783,0.078003414,0.14489412,-0.32196584,-0.09573492
CC(N)COC(C)COC(C)COC(C)COC(C)COC(C)COC(C)COC(C)COC(C)COC(C)COC(C)COC(C)COC(C)COC(C)COC(C)COC(C)COC(C)COC(C)COC(C)COC(C)COC(C)COC(C)COC(C)COC(C)COC(C)COC(C)COC(C)COC(C)COCC(C)(COCC(C)OCC(C)OCC(C)OCC(C)OCC(C)OCC(C)OCC(C)OCC(C)OCC(C)OCC(C)OCC(C)OCC(C)OCC(C)OCC(C)OCC(C)OCC(C)OCC(C)OCC(C)OCC(C)OCC(C)OCC(C)OCC(C)OCC(C)OCC(C)OCC(C)OCC(C)OCC(C)OCC(C)N)COCC(C)OCC(C)OCC(C)OCC(C)OCC(C)OCC(C)OCC(C)OCC(C)OCC(C)OCC(C)OCC(C)OCC(C)OCC(C)OCC(C)OCC(C)OCC(C)OCC(C)OCC(C)OCC(C)OCC(C)OCC(C)OCC(C)OCC(C)OCC(C)OCC(C)OCC(C)OCC(C)OCC(C)N,-0.051995117,0.17168719,0.059630774,-0.33679438,0.23141412,-0.0058892802,0.05730544,0.11199289,0.10678038,0.09534699,0.17816742,0.14228985,0.32097805,-0.374378,-0.020121764,0.6259094,0.13659613,0.38929015,0.14593464,-0.014000876,0.6459974,0.09035511,-0.16223493,0.25577855,0.0353161,-0.05291732,-0.03514308,0.1088017,0.04538329,0.0040834174,-0.29177696,-0.13134106,-0.2318095,0.047895607,0.055134676,-0.18549038,0.51840246,0.42001012,-0.041890234,0.00435605,0.280528,-0.263397,-0.112847075,-0.12954861,0.1071249,0.23262714,-0.09808679,0.025488425,-0.47133395,0.07034547,0.17595251,0.016420789,-0.51399773,0.07676036,-0.29708195,-0.06539304,0.010088389,0.10081153,0.45247197,-0.21241237,-0.13204382,0.08819457,-0.18055838,-0.16152915,-0.40865725,0.13453944,-0.1753484,-0.18602608,-0.13426252,0.14615574,-0.28247634,0.31320098,-0.0240552,0.22465189,0.13014485,-0.0904872,-0.04633674,-0.41465607,0.18305568,-0.18577732,-0.27722314,0.0036143176,-0.38305336,-0.06492376,0.0030971337,-0.14170018,0.034497723,-0.3373518,-0.07924939,0.3091579,0.059271574,0.007300618,0.07933331,-0.047428038,-0.16496275,-0.22976542,-0.076309346,-0.119445026,-0.051220838,-0.14595973,-0.17914514,-0.10928623,0.22053134,0.098797075,-0.16047478,-0.24621157,-0.13016321,0.092913434,0.05744316,0.34423426,0.08089505,-0.32531616,0.5184236,0.04567328,-0.06164284,-0.0632198,-0.22475964,0.095349744,0.042432915,-0.16241983,0.27438033,0.0072163166,0.011866036,0.2904462,0.07598067,0.14032729,-0.3062937,-0.09202928
CC(N)COC(C)COC(C)COC(C)COC(C)COC(C)COC(C)COC(C)COC(C)COC(C)COC(C)COC(C)COC(C)COC(C)COC(C)COC(C)COC(C)COCC(C)(COCC(C)OCC(C)OCC(C)OCC(C)OCC(C)OCC(C)OCC(C)OCC(C)OCC(C)OCC(C)OCC(C)OCC(C)OCC(C)OCC(C)OCC(C)OCC(C)OCC(C)N)COCC(C)OCC(C)OCC(C)OCC(C)OCC(C)OCC(C)OCC(C)OCC(C)OCC(C)OCC(C)OCC(C)OCC(C)OCC(C)OCC(C)OCC(C)OCC(C)OCC(C)OCC(C)N,-0.053349424,0.17983498,0.060057156,-0.3511492,0.24093401,-0.005661844,0.05951328,0.118307054,0.11232638,0.0988339,0.185662,0.14715958,0.33396798,-0.38933802,-0.02207636,0.652297,0.1421415,0.40522754,0.15334421,-0.0139961485,0.6769324,0.09337224,-0.17028478,0.26579273,0.037276883,-0.057416823,-0.03587908,0.111589834,0.046308257,0.004874278,-0.30309105,-0.13688995,-0.24373825,0.05139749,0.05859182,-0.19116028,0.53824335,0.4396029,-0.045375463,0.0033473298,0.29304945,-0.27227208,-0.11534374,-0.1347505,0.111857526,0.24285729,-0.10201532,0.026903626,-0.4910925,0.07313576,0.18247344,0.015606388,-0.53754884,0.079581685,-0.30996087,-0.06674314,0.01000183,0.1042902,0.47512534,-0.22074804,-0.13635446,0.08926948,-0.18794124,-0.16701292,-0.42522687,0.13989508,-0.18181671,-0.19292198,-0.13987042,0.14870112,-0.2933781,0.32628006,-0.023777204,0.23275897,0.13513827,-0.09466673,-0.046905987,-0.43158874,0.19163452,-0.19474708,-0.28704235,0.0030188449,-0.39817283,-0.06925757,0.0020830445,-0.14777686,0.0358023,-0.351789,-0.08384791,0.32121253,0.060542315,0.007568936,0.083274506,-0.049867824,-0.17135766,-0.238043,-0.08006036,-0.12376991,-0.05377373,-0.15025467,-0.18724084,-0.11198006,0.22866234,0.10335031,-0.16706906,-0.2563345,-0.13485663,0.09788288,0.05998071,0.35796002,0.0852803,-0.33727357,0.53719515,0.048316,-0.06271024,-0.06750502,-0.23363428,0.098612264,0.04454051,-0.16946022,0.2869522,0.0074580265,0.012426688,0.30264783,0.078003414,0.14489412,-0.32196584,-0.09573492
CC(N)COCC(C)OCC(C)OCC(C)OCCOCCOCCOCCOCCOCCOCCOCCOCCOCCOCCOCCOCCOCC(C)OCC(C)OCC(C)N,-0.0008751182,-0.0035823425,0.0077657755,-0.02237739,0.013231647,0.005432055,-0.0022652894,0.001828724,0.0072075436,-0.005363301,0.0096402615,0.0135134235,0.013478107,-0.018728439,-0.0026255748,0.034281265,0.0090475455,0.031996056,0.010320223,0.0046600234,0.04063084,0.0058787,-0.0030071177,0.0047185384,-0.001650041,0.002900886,-0.0021943054,0.005174269,0.0058640987,0.00083138794,-0.017141119,-0.00813606,-0.016980926,-0.002225691,0.011641115,-0.012146153,0.04197595,0.019287338,0.008037368,-0.007985376,0.0150796315,-0.023653805,-0.00932687,-0.008170293,0.010945337,0.0013624905,-0.006800885,0.008229703,-0.023190843,0.00701843,0.009477472,-0.01091538,-0.03366104,0.015000707,-0.021393038,0.0022959192,-0.0024260515,0.005391894,0.022449927,-0.0074277194,-0.012880122,0.012834427,-0.005674926,-0.008897999,-0.020460699,0.0059824744,-0.021076625,-0.009502437,-0.011857632,0.019615944,-0.013456222,0.010257959,-0.00535213,0.016400028,0.016216492,-0.011704925,0.0039354544,-0.0192868,-0.0027036592,-0.018818073,-0.015544948,-0.005170759,-0.031015083,0.009596735,0.0053690467,-0.00969735,-0.0013036644,-0.01956673,-0.004564913,0.010157049,-0.0010582684,0.00049339887,0.0034321654,0.006934074,-0.016957294,-0.008481486,-0.004816804,-0.010379738,-0.006684837,-0.008827653,-0.0035462314,-0.0024495553,0.018545605,0.0004315842,-0.015659304,-0.00109027,-0.0011568945,0.008229548,0.0047512297,0.018664213,0.009303197,-0.022792859,0.032464806,0.0091851475,-0.016858893,-0.00916585,-0.013739739,0.008015966,0.002365087,-0.010366162,0.010804238,-0.002973984,-0.0017686614,0.012730595,-0.0013478361,0.020163894,-0.0031985757,-0.0036491957
CC(N)COCC(C)OCC(C)OCC(C)OCC(C)OCC(C)OCC(C)OCCOCCOCCOCCOCCOCCOCCOCCOCCOCCOCCOCCOCCOCCOCCOCCOCCOCCOCCOCCOCCOCCOCCOCCOCCOCCOCCOCCOCCOCCOCCOCCOCCOCCOCCOCCOCC(C)OCC(C)OCC(C)OCC(C)OCC(C)N,-0.031486277,0.13230981,0.06490527,-0.30345213,0.19515464,-0.0030255676,0.025259642,0.09831074,0.091776215,0.07362015,0.167502,0.11813806,0.278626,-0.31966326,-0.027406886,0.5746983,0.11394212,0.34444946,0.13400121,-0.00011894852,0.5927508,0.08593416,-0.13303119,0.21160223,0.029014446,-0.04002143,-0.042732187,0.096209764,0.03867083,0.0036166124,-0.25611186,-0.11125615,-0.20702626,0.040652115,0.074739754,-0.15889321,0.46554542,0.36392447,-0.031522065,-0.010219046,0.23397748,-0.23359445,-0.08063031,-0.10483221,0.113574214,0.19926979,-0.09466556,0.032653183,-0.4102152,0.057157047,0.14838481,-0.010035295,-0.4563983,0.08517687,-0.27185068,-0.056352973,0.011308999,0.086910725,0.41339496,-0.18277384,-0.12574111,0.06951819,-0.1476171,-0.13700266,-0.34992722,0.11271533,-0.16270454,-0.16432075,-0.1269924,0.13182005,-0.23429637,0.26832297,-0.011229927,0.18799037,0.11611089,-0.08341178,-0.009627685,-0.36534697,0.1448216,-0.17434503,-0.23485103,-0.0032829754,-0.34669584,-0.033312514,-0.009612374,-0.13721593,0.027525708,-0.31262308,-0.07740897,0.24860305,0.037861466,0.018433847,0.07877204,-0.03670028,-0.1532451,-0.19884604,-0.061863564,-0.11166302,-0.06220144,-0.13577154,-0.14229263,-0.08857105,0.19983765,0.080044895,-0.16085781,-0.20361783,-0.0968459,0.091423795,0.03717227,0.2873242,0.079989,-0.2879255,0.47116467,0.039116606,-0.05476293,-0.0721596,-0.20825343,0.094733104,0.0396668,-0.15057804,0.23957296,0.013226156,0.011205933,0.2590711,0.06489655,0.13637482,-0.27197644,-0.06964595
COCCOCCOCCOCCOCCOCCOCCOCCOCCOCCOCCN,0.0015179142,-0.006436562,-0.0018211063,0.010785932,-0.007357136,0.00016606599,-0.00089231133,-0.006060402,-0.0024396358,-0.0044076242,-0.007175354,-0.004895975,-0.012215417,0.0144335665,0.0020174035,-0.021520857,-0.0015504025,-0.011832163,-0.007046916,0.0033839326,-0.025520418,-0.0013224578,0.0070805,-0.010017364,-0.0045736674,0.0049301297,0.0016300404,-0.0012106617,0.0008963691,-0.0020644255,0.01479274,0.006445751,0.011169745,-0.0021219703,-0.0076426268,0.002863599,-0.016979026,-0.016172782,0.0024418319,-0.00313057,-0.010091354,0.008836329,0.0026290766,0.007526893,-0.0028275736,-0.008767345,0.004037114,-0.0008298205,0.016676104,-0.0061863833,-0.006842349,-0.0012711734,0.015636846,-0.002694746,0.0077944025,0.0016134954,0.0028004413,-0.0010327436,-0.01870572,0.005277466,0.0027965494,-0.0008295281,0.006859703,0.004198998,0.016698543,-0.0048425025,0.004047975,0.005609221,0.0041233934,-0.0040141176,0.012738569,-0.014135653,0.001255678,-0.0066025844,-0.0050628884,0.0053453706,0.002360383,0.018147187,-0.0040990068,0.008610724,0.008153243,-0.00015337393,0.0140824355,0.0032113888,-0.00012054108,0.0065882048,0.0011231657,0.010623424,0.0062636593,-0.012808198,-0.004969811,0.001302856,-0.003060998,0.0021495712,0.0068257255,0.008559072,0.0017316015,0.0030802018,0.0031050083,0.005836907,0.009477358,0.0028442312,-0.0066228844,-0.005649968,0.006582671,0.009730831,0.0052626655,-0.0060610864,-0.005227335,-0.0115606375,-0.0024274988,0.01107008,-0.016399061,-0.0045520435,0.0030194344,0.004802482,0.0051163873,-0.00650433,0.00018257741,0.0045253076,-0.013513305,-0.00019300357,0.0036947196,-0.008614583,-0.0016949186,-0.006058373,0.014962405,0.0012408216
COCCOCCOCCOCCOCCOCCOCCOCCOCCOCCOCCOCCOCCOCCOCCOCCOCCOCCOCCOCC(C)N,0.00095401146,-0.0070681255,0.0049070287,-0.004479934,0.0022304081,0.0019445815,-0.0036187503,-0.0044125495,0.0013674856,-0.005548271,0.001618778,0.002850406,-0.0029354934,-0.00026568817,-0.0012196642,0.0020413916,0.0024046917,0.0095138345,4.8148446e-05,0.0048535075,0.0018858043,0.0017270201,0.0035178699,-0.005611848,-0.0035942371,0.0048829457,-0.00090683484,0.00079375214,0.0049030213,0.00065633655,0.00089280563,-0.00032559037,-0.0014930163,-0.0038315968,0.004615253,-0.0022962987,0.010652751,-0.0023548342,0.0061280634,-0.0053624073,0.00024040206,-0.0048959497,-0.0023645917,-0.000109679066,0.005036965,-0.0049456256,-0.0006716652,0.0047004,0.0011073472,0.00047166646,-0.0003499249,-0.0067705326,-0.004643385,0.006200244,-0.006161169,0.0022341474,0.00087592285,0.0014784206,-0.0023041898,-0.0004639174,-0.0032878388,0.0061150505,0.0017091653,0.00015020766,0.0011431472,6.906083e-05,-0.008610227,-0.0016235951,-0.002616859,0.00790307,0.0021809526,-0.0051728673,-0.00074837357,0.0040188893,0.0068102973,-0.0036175707,0.004167311,0.0029883925,-0.0056319954,-0.00366865,-0.00055848714,-0.004790714,-0.0037432006,0.0067782644,0.0048224684,-0.0002427753,-0.00064361654,-0.0029348363,0.002976765,-0.003465075,-0.0045433696,0.0020223232,-0.0017103753,0.005719663,-0.004446936,0.0020329938,-0.0022431659,-0.002545244,-6.689667e-05,0.00081298687,0.0034928238,0.0034154085,0.006192062,-0.0048321523,-0.0031304713,0.007756887,0.00436878,0.00064998516,-0.0013465565,0.0026625209,0.0035164598,-0.0032530217,0.0038955999,0.0019030338,-0.006900629,-0.0005607456,-0.0036794012,0.00017817318,0.0022682836,-0.0015880167,-0.0056922007,-0.0013358174,-0.00040218607,-0.0006427872,-0.004033133,0.007342083,0.009233765,-0.0003071325
CC(C)(C1CCC(OCC2CO2)CC1)C1CCC(OCC2CO2)CC1,0.003343746,-0.0045291577,-0.0016104709,0.013288779,-0.0056689517,-0.0013389459,-0.0021659723,-0.004139951,-0.0031839767,-0.0020209714,-0.008129792,-0.0048206495,-0.010849886,0.013517821,0.0020541386,-0.023265293,-0.003909407,-0.014643531,-0.0076193037,0.0023975372,-0.025617642,-0.0026979276,0.0058344277,-0.009322754,-0.0038836466,0.0061722025,0.000990558,-0.0023309002,0.00024353433,-0.0027496992,0.013551313,0.005638297,0.011303614,-0.0019701237,-0.0070818923,0.0030134264,-0.017665872,-0.016606849,0.0014379998,-0.0014269305,-0.01065752,0.009779695,0.0020684488,0.006458585,-0.004644567,-0.007572514,0.0045611225,-0.0026672464,0.015570146,-0.004658969,-0.007340617,0.0016888902,0.016907316,-0.003042541,0.01030172,0.00092166243,0.0024881745,-0.00028775353,-0.019495342,0.0045187566,0.004456684,-0.0007795617,0.005801784,0.0047987625,0.015212931,-0.0039891126,0.0067949835,0.00566665,0.0062904432,-0.0051958133,0.012437416,-0.012081036,0.0021671727,-0.0077553866,-0.0052635637,0.0058843354,0.0017723693,0.015961677,-0.0041299863,0.009199519,0.008691829,5.960092e-05,0.014301959,0.0018639282,-0.0007732753,0.007263529,0.0011007534,0.011501073,0.006279736,-0.01158275,-0.0031231083,0.0018166797,-0.0020908443,0.0015879609,0.0058656866,0.008904614,0.0017685303,0.004038913,0.004375197,0.0048594596,0.0068933545,0.0026872787,-0.0078874575,-0.004974773,0.0058464063,0.008948892,0.004770698,-0.0043891715,-0.0037833788,-0.011309007,-0.0036435314,0.011272607,-0.019114634,-0.004120748,0.0052589336,0.005486591,0.005909597,-0.0043566423,-0.0005514991,0.005378631,-0.014344864,0.0008971011,0.0026416099,-0.008969681,-0.0022831052,-0.0062144944,0.011644358,0.0031146817
O=C1CCCC(=O)O1,-0.0010246243,-0.0037245844,-0.0023103673,0.01143856,-0.008685887,-0.00047053164,-0.00051305257,-0.0064920313,-0.0046788384,-0.0049575805,-0.0056065843,-0.00830314,-0.012811828,0.016164247,-0.001463911,-0.020913832,-0.0056396555,-0.015301261,-0.0064812656,0.0021672416,-0.030491412,0.00012388988,0.010424905,-0.0070371795,-0.0033386156,0.0029616547,0.0020373822,-0.0021903683,-0.00081984326,-0.0031948145,0.017295476,0.0044512986,0.013469245,-0.0025920237,-0.008792838,0.0057426933,-0.02556842,-0.019783435,0.0003080503,0.00019029062,-0.0071036974,0.013855146,0.001365928,0.0109013,-0.0075849807,-0.0095906155,0.005896231,0.0011291169,0.022987105,-0.008413971,-0.0076927836,-0.0037194788,0.02031258,-0.005714864,0.0111808665,0.00088079134,-0.0005578855,-0.0026387998,-0.017675191,0.0075971945,0.0032722782,-0.0024562245,0.0037655209,0.0051825084,0.018829051,-0.0018895399,0.005192875,0.0054903757,0.003740685,-0.0077352105,0.010486893,-0.016864825,0.00020047277,-0.010169353,-0.01064346,0.004101417,0.0016970113,0.020220615,-0.004319628,0.008628403,0.014440695,0.004595672,0.015406594,0.005224852,-0.0014832411,0.005787937,0.0016158158,0.013713089,0.0056532724,-0.013015552,-0.003025202,0.0007412117,-0.0054047354,-0.0012899484,0.007178447,0.006884644,0.0062996205,0.0064594876,0.0019644538,0.0076787407,0.00960023,0.0020680642,-0.010893881,-0.008236654,0.012632491,0.007307111,0.0027420493,-0.011363562,-0.00973103,-0.01521523,-0.008475045,0.014364054,-0.019392895,-0.0064051216,0.0041650636,0.0040960973,0.01170664,-0.0053433655,-0.0017344528,0.008382722,-0.010675518,0.004652447,-0.0005554557,-0.009127765,-0.0029857955,-0.007842051,0.016232122,0.0020194473
c1cc(N(CC2CO2)CC2CO2)ccc1Cc1ccc(N(CC2CO2)CC2CO2)cc1,0.0020843912,-0.004041251,0.0002959203,0.010309745,-0.0042527462,-0.0015519662,-0.0027029654,-0.004395763,-0.003170629,-0.0029617613,-0.0066831163,-0.0036414328,-0.009914843,0.012053255,0.0021283347,-0.018422408,-0.005648695,-0.01181172,-0.0054873577,0.0023464747,-0.021748252,-0.0023888764,0.004625112,-0.007372724,-0.0018121961,0.0045713377,-0.00024314225,-0.002160429,0.00026981533,-0.0016294261,0.011146491,0.004284072,0.008947285,-0.0032695488,-0.003257921,0.0037966166,-0.014209105,-0.0143312905,0.0021127872,-0.0011447258,-0.010210964,0.008755378,0.0017848364,0.0042573535,-0.0032710144,-0.0056616357,0.004904733,-0.0031644758,0.014155209,-0.004019221,-0.005699685,0.0015493669,0.015286015,-0.000805289,0.008775286,-0.0004535974,0.0015247529,-0.0016430777,-0.016911866,0.0042837206,0.0033896994,-0.00038333703,0.0056714006,0.0038983605,0.012708,-0.0033164024,0.005488648,0.004875025,0.006008085,-0.0040489393,0.010092758,-0.010028103,0.0023504514,-0.005746966,-0.004295924,0.0038797045,0.0019920543,0.0144519,-0.0033387905,0.007491857,0.008168681,0.0018279664,0.013256187,0.0016343306,-0.0007697996,0.006107725,0.0013124221,0.00922989,0.0038671498,-0.008423192,-0.0020285696,0.0008236533,-0.0021077725,0.0010653883,0.0058357483,0.0077873035,0.0015749428,0.0028730342,0.00300945,0.0030649202,0.005465089,0.0022746813,-0.007829883,-0.004366996,0.0054415967,0.0072146314,0.0047870977,-0.0024775683,-0.0033151656,-0.010493692,-0.003421545,0.010367168,-0.016449047,-0.0028465046,0.0031023137,0.0050699376,0.0055862735,-0.0024478724,-0.0007162548,0.004427771,-0.010789901,0.0024647685,0.00067670457,-0.007976859,-0.003047559,-0.005115219,0.010364663,0.0033765323
CC(C)(c1ccc(OCC(O)CN=[N+]=[N-])cc1)c1ccc(OCC(O)CN=[N+]=[N-])cc1,0.0022293916,-0.0029877434,0.003417587,0.0031341175,0.00014949357,-0.0017670561,-0.0005089678,-0.00047704345,-0.00040832162,-0.0018780375,0.000112335314,-4.180032e-05,-0.001906788,0.0005664991,0.0010656877,-0.0039632847,-0.0013724603,0.00092425756,-0.001936648,0.0006342288,-0.0038093394,-0.0019293476,0.0013369117,-0.0030786023,0.0014517002,0.00080185384,-0.0011355686,0.00044955208,0.00015953928,-0.0016053356,-0.00024306704,-0.0003282125,0.0003671795,-0.0020874708,0.0028462103,0.002368303,0.0007515983,-0.0018568225,0.0015321518,-0.0015597222,-0.003186914,-0.0004538186,-0.0008455599,-0.0015907548,-0.00011259131,0.0002813274,0.0005257912,0.0009738989,0.0024712384,0.0007197885,-0.00087387674,0.0004584361,0.003956337,0.0015099226,-4.6677887e-06,0.0013601552,0.00012690853,0.0002293596,-0.005529567,0.0007257145,0.00074596424,0.001001521,0.0030643481,0.0011927963,0.0021980498,-0.0018398436,0.00041714497,0.0012523318,0.0022906354,8.2701445e-07,0.0009904979,-0.0017923154,0.0012250077,-0.0014537647,0.0016365796,-0.000103741884,0.000781253,0.0031454498,-0.00086691044,-0.0002814429,0.0016737748,0.00019804388,0.0035152538,4.6887086e-05,0.0032401942,0.0028400663,-0.0007757507,0.0020284401,0.0008789012,-0.0008899877,0.00020757131,-0.0011019176,-0.0008053449,0.00020119362,0.00076568965,0.0009135585,-0.0021962994,0.0006307415,0.0020028495,0.00033338647,-0.0012215823,0.0025133593,2.874434e-05,-0.0033123158,-0.00014056079,0.0029767253,0.0036939792,0.0013547034,-0.00093830004,-0.0023945998,-0.00075982325,0.001779893,-0.003344052,-0.0020596832,-0.0014156289,0.0014949376,-1.0933727e-06,-0.00041913893,-0.00013052509,0.0017761122,-0.004211599,0.0021054698,-0.0018980135,-0.002069672,-0.0023143045,0.0009446512,0.003434882,0.0001219064
C#CCOc1ccc(Cc2ccc(O)cc2OCC#C)cc1,0.0029185154,-0.0020499174,-0.001512114,0.013392225,-0.009418923,-0.0010761402,-0.0009740684,-0.0050888187,-0.003380787,-0.0014096309,-0.009461957,-0.0064998018,-0.013140017,0.015252298,0.0029706885,-0.024351262,-0.0045018215,-0.018683525,-0.0076860487,0.0017825123,-0.031068992,-0.0032406307,0.0077972896,-0.007617835,-0.0024573368,0.0039187334,0.0010553766,-0.00223363,-0.0006327145,-0.0029511247,0.017014958,0.0075251083,0.013441224,-0.001904005,-0.010423269,0.0057184007,-0.023008518,-0.018887393,0.001891416,-0.0013765953,-0.01241973,0.012014095,0.0023263693,0.00824625,-0.0069587007,-0.008090637,0.00398444,-0.002214266,0.018889286,-0.00676947,-0.008691119,0.001203401,0.020832125,-0.0047296686,0.01223027,-0.000926333,0.004160746,-0.0012048653,-0.019730233,0.00663663,0.0053274557,-0.0041817473,0.005775513,0.0056585874,0.018336432,-0.0046712444,0.009126408,0.0067602424,0.006154948,-0.007898057,0.011893706,-0.013718557,0.002909042,-0.00925668,-0.008741328,0.006995349,0.0021328842,0.019239083,-0.0031362036,0.010695063,0.011884587,0.0022984818,0.017795343,0.0017737095,-0.0031117555,0.008978162,0.0017251875,0.012618863,0.0046688435,-0.012579357,-0.0017297342,0.00069466326,-0.0032374975,0.00018670876,0.008490807,0.0097359205,0.002506841,0.0038798442,0.003113557,0.0045993263,0.0081111165,-0.0006591268,-0.009873821,-0.005167935,0.00906314,0.008594986,0.0052015223,-0.007019979,-0.007079052,-0.01568641,-0.0038864687,0.0141963605,-0.021701535,-0.0041272845,0.006751021,0.0048143645,0.008365201,-0.0043015787,-0.00038015773,0.006269114,-0.0130685475,0.0020553553,0.0030043544,-0.009260824,-0.00079175783,-0.009660546,0.011154393,0.0029877406
CCCCCCCCCCCCN,-0.0009361338,-0.0027169976,-0.0017000586,0.009402361,-0.0075597125,8.358434e-05,-0.0008996166,-0.005527553,-0.0040280106,-0.004341238,-0.00464025,-0.007148551,-0.009999588,0.013599379,-0.0017364682,-0.017452406,-0.004843775,-0.013038389,-0.006058546,0.0027198847,-0.027549274,8.831476e-05,0.010522572,-0.00723721,-0.0033798853,0.0025353786,0.0016310937,-0.0013412043,-0.0002690768,-0.004054388,0.015697202,0.002309064,0.012181275,-0.0029584763,-0.0074154213,0.004256161,-0.02273735,-0.017928343,0.0006193023,-0.0002718838,-0.0055270325,0.01253842,0.00039942376,0.010362108,-0.007364357,-0.0069434764,0.0047467016,0.00030008517,0.020598117,-0.008176034,-0.006374098,-0.0045031644,0.01790316,-0.00557882,0.008880448,0.00046445476,-0.0009378353,-0.002399378,-0.01504394,0.006837877,0.0017467486,-0.0015342729,0.0025235752,0.003898434,0.016831303,-0.000423342,0.00347784,0.0044798153,0.0032163393,-0.0063878675,0.009146467,-0.016422007,0.0005807448,-0.008457109,-0.008823739,0.0027613603,0.0020702966,0.018038351,-0.0038360646,0.007846885,0.013287418,0.0051730135,0.013364619,0.005626592,-0.0012261383,0.005600216,0.0019668033,0.010855642,0.005862785,-0.012056621,-0.0036157947,0.0012214305,-0.0052528204,-0.0010443903,0.0048835566,0.0051122964,0.005920593,0.005737237,0.0016763175,0.0061514983,0.008533091,0.0020741764,-0.010319388,-0.008104986,0.012037092,0.006801955,0.002809422,-0.010318065,-0.009667486,-0.014240008,-0.007710872,0.012860047,-0.016150946,-0.0060834386,0.0036254544,0.004476324,0.01077236,-0.0042054662,-0.0021651248,0.00696811,-0.009690603,0.004745002,0.000219482,-0.008119065,-0.0022188057,-0.006053397,0.015112966,0.00067383423
NCc1cccc(CN)c1,-0.0005159881,-0.0026004137,-0.0019752812,0.011465384,-0.008056596,-0.0004525762,0.00014580972,-0.006645182,-0.0051754382,-0.004124014,-0.005957435,-0.008350381,-0.0129386075,0.015580289,-0.0010139565,-0.020328602,-0.0060760183,-0.01612799,-0.0061602257,0.0022561774,-0.03133388,-0.0008156423,0.010391673,-0.005891596,-0.0032424254,0.001908743,0.0025939592,-0.0026273783,-0.0012293737,-0.0028084535,0.01672305,0.0052054324,0.01345088,-0.002859033,-0.008432642,0.006583724,-0.026452543,-0.019856993,0.00027599465,0.00049366895,-0.0069558853,0.014302254,0.0013061147,0.010098353,-0.008499668,-0.008948467,0.0062247105,0.000457678,0.023930945,-0.008808628,-0.008002523,-0.0040440187,0.02079034,-0.0061647096,0.011382705,-5.787192e-05,-0.00054821465,-0.0027247753,-0.017087072,0.007829246,0.003252942,-0.002924285,0.0038089498,0.005610729,0.019019052,-0.0023048017,0.0058438764,0.005356961,0.0038488358,-0.009143014,0.010468187,-0.017096438,0.0007322449,-0.010282703,-0.010821651,0.0048934156,0.0018590782,0.019989701,-0.003319393,0.009058863,0.0147207575,0.005751365,0.015637685,0.0048513077,-0.0022541974,0.006376059,0.0018832842,0.0135429045,0.0054208124,-0.012307555,-0.0019038189,-0.0002922276,-0.00515027,-0.0016882629,0.0077353856,0.0074783266,0.0063959667,0.0064804237,0.0013981306,0.0074856086,0.009816824,0.0009833202,-0.011819602,-0.008025678,0.012434131,0.0065881163,0.0029168362,-0.011080116,-0.010663403,-0.015189035,-0.008524837,0.014510652,-0.019435352,-0.0061672265,0.0043602143,0.0036782008,0.011873832,-0.004856146,-0.0018015124,0.0081625795,-0.010395963,0.0049065975,-0.0011202686,-0.009193785,-0.003050244,-0.008229706,0.01479606,0.0021122126
Nc1ccc(Cc2ccc(N)cc2)cc1,0.0015550219,-0.0020254608,-0.0028343517,0.013095396,-0.009770902,-0.0004215096,-9.3145296e-05,-0.0059429407,-0.0044588307,-0.0028587142,-0.0081009995,-0.008368404,-0.014105406,0.016809896,0.0013747704,-0.024199488,-0.0058312006,-0.01987323,-0.0076970803,0.001852043,-0.03343806,-0.0022944578,0.009134665,-0.006604392,-0.0027255334,0.0030709906,0.0022436413,-0.002915869,-0.0015367977,-0.0027915984,0.018102914,0.0072660404,0.014555109,-0.0028175989,-0.011065688,0.0075507797,-0.027236147,-0.020772394,0.0008420348,0.00014473405,-0.010363499,0.013816798,0.0023348527,0.009224033,-0.008136248,-0.009166281,0.005571263,-0.0008971691,0.02302056,-0.008041765,-0.008793652,-0.00075290166,0.022367913,-0.006084791,0.013483707,-0.00077837193,0.0022862619,-0.0022631313,-0.019775065,0.007953668,0.004778307,-0.0044369,0.005060301,0.0062074848,0.020192739,-0.0040205223,0.008981384,0.00681171,0.005325717,-0.009411566,0.012110423,-0.015898015,0.0015937816,-0.010507448,-0.011335044,0.0068612127,0.0020103361,0.020962674,-0.003567203,0.010356946,0.014682273,0.004069998,0.017650032,0.003105943,-0.0023245495,0.008202422,0.002159194,0.014532815,0.0047746236,-0.012650292,-0.0010208786,4.5288354e-05,-0.00422599,-0.0014084978,0.0095460685,0.009199481,0.0044178255,0.0054436927,0.0018496572,0.0066920696,0.0090226615,-0.00024861936,-0.011370036,-0.006807398,0.011443298,0.008155998,0.0039716605,-0.010386207,-0.009240933,-0.016288722,-0.0066549685,0.015783746,-0.022563592,-0.005188678,0.006047614,0.004500687,0.011031518,-0.0050409893,-0.0012486863,0.008491256,-0.011860959,0.0035945112,0.0003820788,-0.0101140365,-0.0020239665,-0.010214714,0.012857885,0.003346797
Nc1cccc(N)c1,0.00013038516,-0.0016138423,-0.0009651389,0.010976119,-0.0069429236,-0.00030425703,-0.00058027636,-0.006335253,-0.0042562233,-0.00380809,-0.0060360883,-0.007720479,-0.010915453,0.014337884,-0.00034625875,-0.018301878,-0.006559016,-0.015133634,-0.0067937747,0.0030358285,-0.029475028,-4.6584522e-05,0.0112113785,-0.0058402987,-0.0030773,0.0018741209,0.0017226604,-0.0021381797,-0.00039686635,-0.003653992,0.015691571,0.003802217,0.013122609,-0.0034442993,-0.0085074045,0.004799241,-0.024743889,-0.019414205,0.00029814546,1.4652498e-05,-0.0070026433,0.013577705,0.0004908894,0.009989633,-0.008838863,-0.0070441244,0.0053875716,-0.0007956587,0.022857495,-0.00866065,-0.0073176217,-0.0043196874,0.01980172,-0.005901639,0.009503163,-0.00095823826,-0.0012765918,-0.0021708857,-0.015722392,0.007126743,0.0013778005,-0.0021716272,0.0024932593,0.0044118008,0.017980691,-0.0013057636,0.0051351218,0.004864175,0.004446228,-0.009021169,0.008707408,-0.016921058,0.0015487876,-0.009642971,-0.00999197,0.0035703583,0.0022858577,0.019121645,-0.002508522,0.0086280145,0.014555123,0.007684026,0.014620682,0.005323252,-0.0023018774,0.0058467723,0.002392564,0.011893674,0.0052756006,-0.011546923,-0.0023232996,0.00086725876,-0.0052875625,-0.002011973,0.0066693043,0.006444497,0.005867537,0.005965369,0.0006461872,0.0061730677,0.009250481,0.00046506524,-0.011710695,-0.008780252,0.011642102,0.005870844,0.0033633038,-0.010374723,-0.011127022,-0.014664169,-0.008621076,0.013114644,-0.018057842,-0.0062294137,0.0036239363,0.0038842624,0.010637985,-0.0038754959,-0.0017661138,0.006779953,-0.010157606,0.005702202,-0.00070388336,-0.008297976,-0.002085025,-0.006769207,0.0140165,0.0014603911
CC(C)(c1ccc2c(c1)CN(c1ccccc1)CCO2)c1ccc2c(c1)CN(c1ccccc1)CCO2,0.0022619246,-0.0031882059,0.0024726521,0.007824197,-0.0028359224,-0.0016988874,-0.0026964191,-0.00225836,-0.0024560648,-0.001912075,-0.0039052842,-0.0023953018,-0.0055558737,0.0058608735,0.0026819166,-0.012584256,-0.0052996054,-0.0071793753,-0.0045853793,0.0015499331,-0.015336115,-0.0031215549,0.004169788,-0.0056364816,-0.00033952272,0.0024215751,-0.0012654085,-0.0013593744,-0.00026256684,-0.0014144182,0.0060428893,0.0028007026,0.0058024507,-0.003601292,-0.00039412826,0.004463354,-0.008404447,-0.00849646,0.0017276173,-2.1228567e-05,-0.0076838285,0.0058949175,0.0018440653,0.00017424952,-0.0015304033,-0.002966429,0.0006007161,-0.0018067136,0.009589448,-0.0017843968,-0.0035991655,0.0011652838,0.0112638455,-0.00074849674,0.0052778143,0.0003348603,-0.00056210347,-0.0015968159,-0.01164405,0.0025230576,0.0023542512,-0.0010808622,0.005220606,0.0027596548,0.0083855,-0.002770096,0.0043456834,0.004495236,0.005140788,-0.0040435214,0.0053946697,-0.0057109185,0.0033350568,-0.005203216,-0.0010422049,0.0008883402,0.0017050384,0.009539906,-0.0026616547,0.0051139332,0.007005104,0.002010731,0.0106899105,0.0005156897,-0.00083833,0.0054313,6.7188405e-05,0.0056004478,0.0023378925,-0.005239038,-0.0004227981,1.9037165e-05,-0.0026060706,0.00043417,0.0033770436,0.00585159,-0.0006147232,0.0014548954,0.001520822,0.00058901776,0.0016575437,0.0016801301,-0.0061891284,-0.0041371346,0.0029742806,0.0051309397,0.0048287334,3.023236e-05,-0.0019650776,-0.008637885,-0.0020338409,0.006599409,-0.013389252,-0.0020335242,0.002002405,0.0019658431,0.0043574455,-0.00049059186,-0.00034267758,0.0034914017,-0.0071384544,0.0019198153,-0.000786738,-0.004763849,-0.0016276548,-0.0021026363,0.0072074714,0.0025734399
c1cc(N(CC2CO2)CC2CO2)ccc1OCC1CO1,0.0029218253,-0.0036450922,-0.0022788066,0.013529321,-0.009414457,-0.0007107046,-0.0010516923,-0.004973621,-0.0033968105,-0.002134142,-0.0093569625,-0.007094388,-0.012869416,0.016061999,0.002158539,-0.025368901,-0.004421292,-0.017685123,-0.00797306,0.0021827128,-0.03024559,-0.003328753,0.007434221,-0.009040673,-0.0029298526,0.0055825855,0.0017288732,-0.0028256504,-0.00084575824,-0.0035333717,0.016677976,0.0076256595,0.012431066,-0.0017405471,-0.009987496,0.005300345,-0.0232359,-0.019984178,0.0020543346,-0.00086785574,-0.011949445,0.012396882,0.0024179667,0.008203418,-0.006273955,-0.008564136,0.0054950025,-0.0027844002,0.019276178,-0.006871482,-0.007578202,0.00105712,0.02033002,-0.004467337,0.012353027,-0.00039825682,0.003278208,-0.0019825175,-0.020599421,0.006367555,0.004991321,-0.0023515876,0.0062240586,0.005187955,0.018070418,-0.005341712,0.008568433,0.007080973,0.005876923,-0.0073286123,0.013015438,-0.014097387,0.001479337,-0.008325107,-0.008867353,0.007523737,0.0018695304,0.019788463,-0.0039835824,0.010403487,0.011476098,0.0024368037,0.016869973,0.0020722034,-0.0015659984,0.008118687,0.0019255867,0.013474305,0.0051018703,-0.012469421,-0.0027026916,0.0012385352,-0.0025854092,0.0017996985,0.0080353385,0.009845845,0.0025654603,0.004034636,0.0027727329,0.005884181,0.008407025,0.0009133606,-0.010139413,-0.0053327167,0.008788146,0.009583369,0.0041500973,-0.006569174,-0.0051735286,-0.015151312,-0.00534394,0.01394177,-0.022926647,-0.0039934646,0.0064000525,0.0057009542,0.0072881714,-0.0050569,-0.001251966,0.007052214,-0.014214688,0.0017072624,0.0030258605,-0.010085493,-0.00242601,-0.008377565,0.012382044,0.0032329448
O=C(O)CC(O)(CC(=O)O)C(=O)O,0.0013910457,-0.0045384057,-0.0036720969,0.013634164,-0.009335538,-0.0011188383,-0.00023295358,-0.005959528,-0.003619974,-0.0035843248,-0.008650992,-0.007098604,-0.013877848,0.016889162,0.0013613491,-0.025755174,-0.0039395597,-0.01746032,-0.008575489,0.0017095208,-0.031983957,-0.0020233633,0.009283183,-0.008420084,-0.003102095,0.0046481006,0.0021235147,-0.0016049376,-0.00076075643,-0.0034818444,0.01938136,0.0072973357,0.0136497505,-0.0024960313,-0.010442032,0.005239902,-0.024667714,-0.020298364,0.0011278288,-0.00046253484,-0.011304727,0.013283754,0.0019606445,0.009577739,-0.0061288876,-0.010055455,0.005018818,-0.00013676658,0.021172952,-0.0073993537,-0.008270059,-0.0004798565,0.020631883,-0.0057674353,0.011486869,-0.00015721284,0.0028149458,-0.0014087993,-0.02179155,0.0073363357,0.0051882975,-0.0033706957,0.005925861,0.003965456,0.01905401,-0.0036854744,0.0074467203,0.00696572,0.0055540036,-0.0069826655,0.01264379,-0.015657987,0.00069561973,-0.009179582,-0.010126262,0.006878021,0.0030553965,0.020248622,-0.0052352874,0.011057516,0.0126190195,0.0028915573,0.016256694,0.0041620196,-0.0019619558,0.007816428,0.0013596509,0.014000784,0.00572096,-0.013157774,-0.002815078,0.0014735926,-0.0042708833,7.179566e-05,0.008163906,0.009250243,0.0027504414,0.00536332,0.0019022359,0.006572201,0.009012219,0.0005931021,-0.009236097,-0.0069746994,0.010483965,0.009331973,0.004084708,-0.01003992,-0.007044727,-0.01549176,-0.005735699,0.014539277,-0.021021063,-0.005114843,0.0056089293,0.00418186,0.008507706,-0.006460757,-0.00027854694,0.0076311817,-0.013269028,0.0022358345,0.0031578578,-0.009710525,-0.0017383802,-0.008849625,0.0144426245,0.0032191798
O=C(O)CCCCCCCCC(=O)O,0.00012480933,-0.0042752717,-0.0030867178,0.012072511,-0.009121409,-0.0009935168,-0.00046925247,-0.0054653436,-0.0040663695,-0.004346454,-0.006267637,-0.007526735,-0.0121771,0.015896462,-0.001448411,-0.021809101,-0.0043572923,-0.015199978,-0.007327833,0.0018469561,-0.029741172,-0.00082578487,0.009459318,-0.0081313765,-0.003515993,0.0037846179,0.0018383623,-0.0024447264,-0.0010704286,-0.0032902649,0.017672922,0.0047449223,0.013313397,-0.002566187,-0.008915607,0.0055045392,-0.023939095,-0.019507345,0.00083428016,-0.00010320265,-0.00834028,0.01341144,0.0014040484,0.010316557,-0.006656722,-0.009247429,0.005139943,0.00039069913,0.020742308,-0.007909419,-0.0071634115,-0.0024569705,0.019356979,-0.0055095884,0.010784395,0.00059465365,0.00078181457,-0.0023994178,-0.018031187,0.0072752545,0.0038836114,-0.0025469325,0.004143739,0.004665663,0.018187303,-0.0023051351,0.005106573,0.0060642688,0.004147901,-0.0068382737,0.011161517,-0.0160077,0.00022726692,-0.009242989,-0.010085891,0.0053975666,0.0022202209,0.01915678,-0.0051454483,0.009014212,0.012535002,0.0035515912,0.015730252,0.0043711,-0.0012179669,0.006292193,0.0014102235,0.0129422555,0.0056720166,-0.0123896105,-0.0033225613,0.0009092856,-0.0049764304,-0.00062671397,0.00721353,0.0069744997,0.0048410995,0.0058612437,0.002050019,0.0066504544,0.008497193,0.0019750837,-0.009879301,-0.007380615,0.011554527,0.008219894,0.0027380977,-0.009930224,-0.008405935,-0.014775203,-0.007337928,0.014212051,-0.019428235,-0.005098623,0.0047614165,0.0048662876,0.010142416,-0.005386549,-0.0015942396,0.008030038,-0.011240925,0.00340481,0.0008951505,-0.009288584,-0.0025701686,-0.008107025,0.015403418,0.0016599027
Cn1ccnc1,2.6643276e-05,-0.0006476706,0.00024826266,0.009432459,-0.0053538117,0.00042143278,-0.0011382839,-0.006403455,-0.0037546935,-0.0032417886,-0.0052785156,-0.006945476,-0.008767912,0.0122936675,-0.00012090849,-0.015181687,-0.0062733367,-0.012776475,-0.006957355,0.0042530745,-0.027029049,0.0011853676,0.0114786085,-0.0055581033,-0.0038394553,0.0014924896,0.0014954112,-0.0012629182,0.00045074522,-0.0045358827,0.015170676,0.0027731243,0.012379448,-0.0037832584,-0.0075818803,0.0029847044,-0.02263123,-0.018647999,0.0009540131,-0.0010002255,-0.0062514367,0.012646457,-0.0006513372,0.010048624,-0.008807582,-0.0051449956,0.004575759,-0.0012044515,0.021379562,-0.008915236,-0.006189004,-0.004837144,0.018209111,-0.0057239053,0.0068306495,-0.0012120171,-0.0017636335,-0.0016450984,-0.014120832,0.006261903,0.00030177645,-0.0011785645,0.0015660676,0.0031857977,0.015780818,0.00017083902,0.0036496988,0.00404784,0.0040226663,-0.0077763544,0.0070069362,-0.016606037,0.0022656303,-0.007963673,-0.008885034,0.0025153914,0.0026240237,0.01777176,-0.0020164857,0.008078821,0.014493639,0.009045206,0.0124760335,0.0058449367,-0.0028399397,0.0055132983,0.0029402692,0.009870985,0.0051868777,-0.011445804,-0.0029432075,0.0014938926,-0.0053627216,-0.0017904197,0.005224346,0.0055800993,0.005462991,0.0052897297,0.00046899845,0.005362614,0.00904243,0.00023659784,-0.01130613,-0.008980942,0.011140735,0.0051863063,0.0034806738,-0.009940153,-0.011846334,-0.014245664,-0.008614482,0.011779675,-0.014896508,-0.0059498167,0.0030412618,0.0040151505,0.009457488,-0.0023912052,-0.0018281669,0.0056479992,-0.009330671,0.0061693443,-0.0003289031,-0.0066247648,-0.0011988864,-0.0047441595,0.013293382,0.0003969716
O=C(O)CCCC(=O)O,-0.000976799,-0.0036008852,-0.0021707471,0.011156686,-0.008300053,-0.0007030405,-0.000102953985,-0.0064091636,-0.0045291777,-0.004760089,-0.0053862804,-0.008126953,-0.012479318,0.015783057,-0.0016106307,-0.020586463,-0.0053176414,-0.014882259,-0.0067360713,0.0019788202,-0.030044112,-0.00011406955,0.010000224,-0.006585259,-0.0032684037,0.0029003993,0.0018172809,-0.0022170795,-0.00078955106,-0.0031791087,0.017155316,0.00444686,0.013221742,-0.0027546266,-0.008521305,0.0057718847,-0.02523884,-0.019441098,0.00030365796,-0.0002493104,-0.007327671,0.013622569,0.0007319744,0.010934456,-0.007426326,-0.009348598,0.005602668,0.0010415241,0.022694524,-0.008207607,-0.0069912695,-0.003789653,0.01978717,-0.005975155,0.010511383,0.00046500145,-0.0003065234,-0.002504934,-0.017726786,0.0073868986,0.0030198805,-0.0019407393,0.0040106196,0.0046482137,0.018152727,-0.0017055785,0.0051192176,0.005455314,0.003766926,-0.00717304,0.010817125,-0.016783603,0.00014909916,-0.00950532,-0.010047826,0.004609498,0.0018908083,0.019606758,-0.0042753285,0.009051309,0.013894791,0.0047852676,0.014798878,0.0056240344,-0.0016499572,0.0059398822,0.0017452305,0.013022422,0.0053384528,-0.012793287,-0.002845819,0.00044784043,-0.005807155,-0.0011325539,0.006363866,0.0070027635,0.006032038,0.0064002806,0.0019681512,0.007070898,0.009306809,0.0015584184,-0.010553651,-0.007798092,0.012662591,0.0071388395,0.0028171074,-0.011423237,-0.009798499,-0.014964804,-0.0076177903,0.013666954,-0.018690767,-0.0061928933,0.0040556164,0.0041709137,0.010904806,-0.0050455136,-0.0015178141,0.0079911295,-0.010547621,0.00445759,9.847246e-05,-0.008657811,-0.0029756534,-0.0074130544,0.015827393,0.0019973814
