smiles,z_0,z_1,z_2,z_3,z_4,z_5,z_6,z_7,z_8,z_9,z_10,z_11,z_12,z_13,z_14,z_15
C=CC(=O)OCCOCCOC(=O)C=C,-0.00012474813,-0.00017759879,0.0003185263,0.00012054085,-5.7247933e-05,0.0005397784,2.0326115e-06,0.00028948556,-2.5935471e-05,0.00011674175,2.1920801e-05,-0.0002625435,0.00013242522,0.0001555811,-2.999208e-05,0.00017671753
C=CC(=O)OC(C)(C)C,-0.00016445786,-0.00028116838,0.00024406519,0.000322085,-5.1190844e-05,0.00057433755,-3.4119003e-06,0.00031575153,4.748162e-05,0.00013941294,4.4700748e-05,-0.000243977,0.00017081993,0.0001915918,-7.743761e-05,8.604489e-05
COC(OC)(C(=O)c1ccccc1)c1ccccc1,-0.00012056215,-0.00054598623,3.7345104e-05,0.00053798937,-1.6179634e-05,0.00080001005,-0.00012498815,0.00026506057,0.00015591737,7.533934e-05,-6.633316e-05,-0.00016137285,0.00017087162,0.0003230325,-1.869793e-05,-9.752717e-05
C=C(C)C(=O)OCCOCCOC(=O)C(=C)C,-7.9814345e-05,-0.00019986206,0.00026678853,3.6473386e-05,1.4064601e-05,0.00051499705,-5.315477e-05,0.0002655727,-0.00010307599,0.000156058,-6.252568e-05,-0.00020494859,0.00012257649,5.6469988e-05,-1.2242235e-05,0.00012970902
C=CC(=O)OCCOCCOCCOCCOC(=O)C=C,-7.5265445e-05,-0.00010288763,0.0002883803,6.243063e-05,-2.439064e-05,0.00046306764,3.1650998e-06,0.00023561053,-6.7779794e-05,0.000104553066,4.794041e-06,-0.00026029738,8.147303e-05,3.825786e-05,-3.157812e-05,9.900611e-05
C=CC(=O)OCCOCCOCCOCCOCCOCCOCCOCCOCCOCCOC(=O)C=C,-5.308952e-05,0.00016890117,0.00042956136,-0.00013978302,-9.804964e-06,3.6549958e-05,4.3671113e-05,5.139131e-05,-0.00010845065,4.0636864e-05,7.565794e-05,-0.00031646778,-4.7139823e-05,-0.00017701954,-0.00010932353,0.00019654399
C=C(C)C(=O)OCCOCCOCCOCCOC(=O)C(=C)C,-0.00011865451,-9.60629e-05,0.0003163116,-1.8859864e-05,3.1311996e-05,0.00045883242,-3.471505e-05,0.00017568737,-0.00013276841,0.0001352732,-6.40981e-05,-0.00023681391,6.0835388e-05,-2.8251496e-05,-6.461283e-06,0.00012775278
C=C(C)C(=O)OCCOCCOCCOCCOCCOCCOCCOCCOCCOC(=O)C(=C)C,-9.242902e-05,0.00010367017,0.00042157993,-0.00013204955,3.281189e-05,2.6482448e-06,3.5752542e-05,5.584734e-05,-5.9055164e-05,7.793866e-05,5.3821394e-05,-0.00020162947,2.0903535e-06,-0.00017981968,-0.00012387917,0.00019942457
c1ccc2c(c1)-c1ccccc1C2(c1ccc(OCCOCC2CO2)cc1)c1ccc(OCCOCC2CO2)cc1,6.343628e-05,-0.0002693229,0.00024162699,0.00018434651,7.4982876e-05,4.8685877e-05,-8.7004155e-05,-0.00017472962,0.00028913282,0.00010842411,-0.00010758202,9.809552e-05,-6.3760206e-05,-8.056458e-05,-5.732593e-05,-0.00017716782
Nc1ccc(S(=O)(=O)c2ccc(N)cc2)cc1,-6.9613976e-05,-0.00051091635,6.235484e-05,0.0004841037,2.3173867e-05,0.0007725911,-0.00016816799,0.00018929597,3.1352974e-05,0.00017580297,-0.00013811077,-0.00025743508,0.00012632972,0.00037800142,2.0305393e-05,-4.0797517e-05
CC(C)(c1ccc(OCC2CO2)cc1)c1ccc(OCC2CO2)cc1,-0.00016755026,-0.00041089742,0.0002781367,0.00035601167,2.682698e-05,0.0006236893,-9.796815e-05,0.00010063138,8.0018304e-05,0.00012959586,-5.686126e-05,-0.00028186664,6.022025e-05,0.00013414602,-8.147932e-05,3.8196333e-05
CC(N)COCC(C)OCC(C)OCC(C)OCC(C)OCC(C)OCC(C)N,-0.000261355,-0.00011843373,0.0002999315,1.7901184e-06,9.5923664e-05,0.0002581149,-7.809186e-05,8.323346e-06,-3.912393e-05,0.000119009055,5.7448226e-05,-0.00040078105,-2.6496127e-07,4.5922294e-05,-2.9976945e-06,0.00012408989
NCCNCCN(CCNCCC(CN)CCN)CCN(CCNCCN)CCN(CCN)CCN,-9.8050834e-05,-0.00010217843,0.00032743625,-2.9229093e-05,7.5307675e-05,0.0003263575,-0.00014033448,9.174005e-05,-8.098874e-05,0.0001031775,6.582821e-06,-0.0003492257,-1.7471611e-05,-5.4090633e-06,-7.011648e-05,7.289648e-05
CC(N)COCC(C)OCC(C)OCC(C)N,-0.00017295437,-0.0003377914,0.00014286302,0.00024677516,7.2498806e-06,0.0005616088,-0.00012813509,0.00025453977,7.9496764e-05,0.00013219519,4.511539e-05,-0.00031631923,0.0001910883,0.00024013798,4.290603e-06,7.045688e-05
CCCCCCCCCCN,-0.00022375671,-0.00019620243,4.359521e-06,0.00036161568,-7.715146e-05,0.0005147484,0.00010908861,0.0003761117,9.412132e-05,-2.280157e-05,2.7731265e-05,-0.0001988298,0.0002159588,0.0001783063,-6.9033355e-05,-1.3676472e-06
CC(C)(COCC1CO1)COCC1CO1,-0.00013532076,-0.00021418906,0.00014753081,0.00026374846,-2.8100563e-05,0.000538907,3.2215845e-05,0.0003129947,1.4523976e-05,4.3597538e-05,9.624055e-06,-0.00028741156,0.00014145719,0.00014666934,-6.788899e-05,1.8214341e-05
CC(N)COCC(C)COCC(C)COCC(C)COCC(C)COCC(C)CN,-0.00016282563,-0.00017034565,0.00026969053,7.767137e-05,7.00939e-05,0.00035182334,-7.06478e-05,9.825255e-05,-8.052401e-05,9.0638176e-05,3.300709e-05,-0.00033699267,3.9171427e-05,4.2786123e-05,2.0832289e-05,6.0994644e-05
CC(N)COCC(C)COC(OCC(C)COCC(C)N)OCC(C)COCC(C)N,-0.00014512465,-8.711708e-05,0.00036247168,-1.1797412e-05,0.00010615331,0.0002633786,-0.00010966975,1.2563309e-05,-6.235484e-05,0.000117442105,5.190441e-05,-0.00033948087,-9.866431e-06,-8.637784e-06,-3.472087e-05,8.532265e-05
CC(N)COCC(C)COCC(C)CN,-0.00016436103,-0.00032147043,0.00016399566,0.00028363103,-4.3669716e-06,0.0005405803,-7.4476935e-05,0.00028397387,7.42916e-05,9.8366756e-05,5.6217366e-05,-0.00029459142,0.00019916194,0.00019665243,-1.23917125e-05,7.9878606e-05
CC(C)(c1ccc(Oc2ccc3c(c2)C(=O)OC3=O)cc1)c1ccc(Oc2ccc3c(c2)C(=O)OC3=O)cc1,-1.2790173e-05,-7.1595423e-06,0.0005185781,-0.00014703686,0.000256869,-5.743481e-05,-0.0003031497,-0.0002293979,0.00029480085,0.00016298331,0.00014278552,2.1811073e-05,-4.0257815e-05,-0.0002543648,-2.0010164e-05,-0.00028236397
Nc1ccc(Oc2ccc(N)cc2)cc1,-0.00011578784,-0.0005936872,0.00021460373,0.0005400376,-6.3728774e-05,0.0008065328,-0.00016877055,0.0002840096,0.00020675547,9.724172e-05,-5.9937593e-06,-0.00025343103,0.0001590061,0.00042241003,-2.7544098e-05,-5.5679586e-05
Nc1ccc(N(c2ccc(N)cc2)c2ccc(N)cc2)cc1,-0.00016500597,-0.00082508917,0.0001619095,0.0006479563,6.3107815e-05,0.0009961285,-0.00033528358,7.785484e-05,0.00019806437,0.00017754827,-0.00021719123,-0.00021925208,7.423852e-05,0.00041464885,-5.935342e-05,7.0780516e-08
CC(C)(c1ccc2c(c1)CN(c1ccccc1)CO2)c1ccc2c(c1)CN(c1ccccc1)CO2,-1.4691032e-06,-0.00032931496,0.00023600459,0.00034235552,0.00011839694,0.000127028,-9.7418204e-05,-0.00016595866,0.00033284444,0.00013854122,-6.764516e-05,-5.353093e-05,-5.4870266e-05,2.9511342e-05,-0.00013695029,-0.0002737362
CC(N)COCC(C)OCC(C)OCC(C)OCCOCCOCCOCCOCCOCCOCCOCCOCCOCCOCCOCCOCC(C)OCC(C)OCC(C)N,-0.00010168285,0.000534541,0.00058527756,-0.00080041366,0.00040888297,-0.00059224886,-0.0004214188,-0.00027310115,-9.623822e-05,0.00021647895,0.0004611216,-0.00038374856,2.7147122e-05,-0.00028911937,0.00029716594,0.00020734733
NCCOCCOCCN,-0.0001704598,-0.00014999439,5.4315664e-05,0.000276035,-8.294359e-05,0.00045493405,4.6622474e-05,0.00031982502,7.552747e-05,-5.518086e-07,4.236118e-05,-0.00023224752,0.00017259642,0.0001297142,-4.0377723e-05,4.409207e-05
COCCOCCOCCOCCOCCOCCOCCOCCOCCOCCOCCOCCN,-3.5341072e-05,5.4958975e-05,0.00014656316,8.271425e-06,-4.1018706e-05,0.00015971399,4.8914924e-05,0.00018581806,-0.0001031002,-8.019619e-05,5.233282e-05,-0.00022229727,2.2873748e-05,-9.0899295e-05,-1.535099e-05,4.096562e-05
COCCOCCOCCOCCOCCOCCOCCOCCOCCOCCOCCOCCOCCOCCOCCOCCOCCOCCOCCOCCOCC(C)N,8.538918e-06,0.00034788204,0.00027968455,-0.00024765276,-6.8033114e-06,-0.0002831171,1.1670403e-05,2.8793933e-05,-0.0001726523,-6.741844e-05,0.00016980644,-0.00023168977,-2.5331974e-07,-0.00018375038,1.5492551e-06,0.00013982225
COCCOCCOCCOCCOCCOCCOCCOCCOCCOCCOCCOCCOCCOCCOCCOCCOCCOCCOCCOCCOCCOCCOCCOCCOCCOCCOCCOCCOCCOCCOCCOCCOCCOCC(C)OCC(C)OCC(C)OCC(C)OCC(C)OCC(C)OCC(C)OCC(C)OCC(C)OCC(C)N,0.0027248538,0.0013535831,0.0018572304,-0.0018778901,0.0003306123,-0.002125571,0.00032867817,0.0006461507,0.000701149,-0.0010198765,0.0029352813,-0.00037935184,0.0011829622,0.00042298745,-0.0011823226,0.0023768716
COCCOCCOCCOCCOCCOCCOCCOCCOCCOCCOCCOCCOCCOCCOCCOCCOCCOCCOCCOCCOCCOCCOCCOCCOCCOCCOCCOCCOCCOCCOCCOCCOCCOCCOCCOCCOCCOCC(C)OCC(C)OCC(C)OCC(C)OCC(C)OCC(C)N,0.0022849757,0.0015291409,0.0015740925,-0.0017149294,-8.855155e-05,-0.0021072482,7.1575865e-05,0.00056298566,0.00042756554,-0.0010309643,0.0023802496,-0.00016385302,0.0006479183,0.0002358086,-0.00048984727,0.002013402
NCCCOCCOCCCN,-0.00017837834,-0.0001438267,3.7639402e-05,0.0002923074,-5.8902893e-05,0.00045845046,6.1449595e-05,0.0003199696,3.09702e-05,-4.1054096e-05,4.3832988e-05,-0.00024837704,0.0001574317,0.00013398303,-6.945431e-05,8.184928e-06
CC(C)(C)N,-0.00019675343,-0.0002838627,-2.5593676e-05,0.0003780799,-9.588455e-05,0.0005521,4.7908165e-05,0.00039447425,5.5492856e-05,2.3621134e-05,3.7777092e-05,-0.00020439154,0.0001968923,0.00024239457,-5.001109e-05,-2.6452355e-05
CCCCN,-0.00018759212,-0.00024724728,-0.00010464247,0.00036684767,-0.00011478271,0.0004799996,4.2635016e-05,0.0004036203,8.200109e-05,-5.044043e-05,6.241005e-05,-0.00018395542,0.00017956737,0.00026358076,-4.6591973e-05,-7.475214e-05
CCCCCCCCCCCCCCCCN,-0.00022626194,-0.00019538612,5.492568e-05,0.0003347806,-9.3363924e-05,0.00049147476,8.171657e-05,0.00033878675,0.00013576169,-1.2889504e-06,7.076582e-05,-0.00019355817,0.00023007533,0.0001693957,-6.156298e-05,3.8616825e-05
CC(N)COCC(C)OCC(C)OCC(C)OCC(C)OCC(C)OCC(C)OCC(C)OCC(C)OCC(C)OCC(C)OCC(C)OCC(C)OCC(C)OCC(C)OCC(C)OCC(C)OCC(C)OCC(C)OCC(C)OCC(C)OCC(C)OCC(C)OCC(C)OCC(C)OCC(C)OCC(C)OCC(C)OCC(C)OCC(C)OCC(C)OCC(C)OCC(C)OCC(C)OCC(C)N,0.0042144717,0.0019336978,0.0043976577,-0.0018401995,-0.0012944354,-0.0025870684,0.0003402927,0.0011568037,0.00039110426,0.0015340457,0.0032990566,-0.0034346841,0.00036360836,-0.0007642417,-0.002209819,0.0038845874
CC(N)COCC(C)OCC(C)OCC(C)OCC(C)OCC(C)OCC(C)OCC(C)OCC(C)OCC(C)OCC(C)OCC(C)OCC(C)OCC(C)OCC(C)OCC(C)OCC(C)OCC(C)OCC(C)OCC(C)OCC(C)OCC(C)OCC(C)OCC(C)OCC(C)OCC(C)OCC(C)OCC(C)OCC(C)OCC(C)OCC(C)OCC(C)OCC(C)OCC(C)OCC(C)OCC(C)OCC(C)N,0.0042144717,0.0019336978,0.0043976577,-0.0018401995,-0.0012944354,-0.0025870684,0.0003402927,0.0011568037,0.00039110426,0.0015340457,0.0032990566,-0.0034346841,0.00036360836,-0.0007642417,-0.002209819,0.0038845874
CC(N)COC(C)COCC(C)(COCC(C)OCC(C)N)COCC(C)OCC(C)N,-0.00016442995,-1.1814758e-05,0.00033273455,-4.9935188e-05,0.000120697776,0.00025824006,-4.523713e-05,-9.166426e-06,-6.6326e-05,7.1171205e-05,7.495456e-05,-0.00028598495,-5.0244387e-05,-3.9684586e-05,5.1692943e-05,6.367266e-05
CC(N)COC(C)COC(C)COC(C)COC(C)COC(C)COC(C)COC(C)COC(C)COC(C)COC(C)COC(C)COC(C)COC(C)COC(C)COC(C)COC(C)COCC(C)(COCC(C)OCC(C)OCC(C)OCC(C)OCC(C)OCC(C)OCC(C)OCC(C)OCC(C)OCC(C)OCC(C)OCC(C)OCC(C)OCC(C)OCC(C)OCC(C)OCC(C)N)COCC(C)OCC(C)OCC(C)OCC(C)OCC(C)OCC(C)OCC(C)OCC(C)OCC(C)OCC(C)OCC(C)OCC(C)OCC(C)OCC(C)OCC(C)OCC(C)OCC(C)N,0.004562431,0.0019475124,0.004753909,-0.0018379643,-0.0013147661,-0.0034305472,-0.00010538567,0.0013453995,0.00076006074,0.0016254438,0.0033628354,-0.003172102,0.00066848425,-0.001383086,-0.0019692844,0.00351125
CC(N)COC(C)COC(C)COC(C)COC(C)COC(C)COC(C)COC(C)COC(C)COC(C)COC(C)COC(C)COC(C)COC(C)COC(C)COC(C)COC(C)COC(C)COC(C)COC(C)COC(C)COC(C)COC(C)COC(C)COC(C)COC(C)COC(C)COC(C)COCC(C)(COCC(C)OCC(C)OCC(C)OCC(C)OCC(C)OCC(C)OCC(C)OCC(C)OCC(C)OCC(C)OCC(C)OCC(C)OCC(C)OCC(C)OCC(C)OCC(C)OCC(C)OCC(C)OCC(C)OCC(C)OCC(C)OCC(C)OCC(C)OCC(C)OCC(C)OCC(C)OCC(C)OCC(C)N)COCC(C)OCC(C)OCC(C)OCC(C)OCC(C)OCC(C)OCC(C)OCC(C)OCC(C)OCC(C)OCC(C)OCC(C)OCC(C)OCC(C)OCC(C)OCC(C)OCC(C)OCC(C)OCC(C)OCC(C)OCC(C)OCC(C)OCC(C)OCC(C)OCC(C)OCC(C)OCC(C)OCC(C)N,0.0032416699,0.002187633,0.0047087446,-0.0016411297,-0.0015092165,-0.0037509375,-0.00062076,0.0019793555,0.0011081211,0.0019795801,0.0029802155,-0.0029826672,0.0008288594,-0.0016311244,-0.0010139209,0.0036251172
CC(N)COC(C)COC(C)COC(C)COC(C)COC(C)COC(C)COC(C)COC(C)COC(C)COC(C)COC(C)COC(C)COC(C)COC(C)COC(C)COC(C)COCC(C)(COCC(C)OCC(C)OCC(C)OCC(C)OCC(C)OCC(C)OCC(C)OCC(C)OCC(C)OCC(C)OCC(C)OCC(C)OCC(C)OCC(C)OCC(C)OCC(C)OCC(C)N)COCC(C)OCC(C)OCC(C)OCC(C)OCC(C)OCC(C)OCC(C)OCC(C)OCC(C)OCC(C)OCC(C)OCC(C)OCC(C)OCC(C)OCC(C)OCC(C)OCC(C)OCC(C)N,0.004562431,0.0019475124,0.004753909,-0.0018379643,-0.0013147661,-0.0034305472,-0.00010538567,0.0013453995,0.00076006074,0.0016254438,0.0033628354,-0.003172102,0.00066848425,-0.001383086,-0.0019692844,0.00351125
CC(N)COCC(C)OCC(C)OCC(C)OCCOCCOCCOCCOCCOCCOCCOCCOCCOCCOCCOCCOCCOCC(C)OCC(C)OCC(C)N,-6.308139e-05,0.0005974609,0.000566341,-0.0008767323,0.00046048895,-0.00063582556,-0.00033560954,-0.00036841887,-2.894178e-05,0.00018585939,0.00045781286,-0.000450127,3.293529e-05,-0.00037218886,0.00037755724,0.0002490827
CC(N)COCC(C)OCC(C)OCC(C)OCC(C)OCC(C)OCC(C)OCCOCCOCCOCCOCCOCCOCCOCCOCCOCCOCCOCCOCCOCCOCCOCCOCCOCCOCCOCCOCCOCCOCCOCCOCCOCCOCCOCCOCCOCCOCCOCCOCCOCCOCCOCCOCC(C)OCC(C)OCC(C)OCC(C)OCC(C)N,0.0025420273,0.0012311412,0.0019759182,-0.0018192333,-0.0004260298,-0.0014135903,-0.00015546009,0.00015711214,-0.00026199967,-0.00018291315,0.0015433794,-0.0021799053,0.0005994472,-0.00011084098,-0.0012897484,0.0025909524
COCCOCCOCCOCCOCCOCCOCCOCCOCCOCCOCCN,-0.000104939274,-4.0263403e-05,9.98117e-05,7.4827345e-05,-5.0684204e-05,0.00034324167,6.662449e-05,0.0002489977,-8.43592e-05,-5.5521727e-05,5.594251e-05,-0.00021401013,7.83992e-05,-8.936797e-06,-4.490395e-05,1.9325409e-05
COCCOCCOCCOCCOCCOCCOCCOCCOCCOCCOCCOCCOCCOCCOCCOCCOCCOCCOCCOCC(C)N,5.200738e-06,0.00035431702,0.00027597602,-0.0002506558,-4.429603e-06,-0.00026699758,1.10403635e-05,3.2794895e-05,-0.0001760479,-6.787991e-05,0.00018337244,-0.00018937414,-3.7773047e-05,-0.000164075,-5.271053e-06,0.00012734812
CC(C)(C1CCC(OCC2CO2)CC1)C1CCC(OCC2CO2)CC1,-0.00020859652,-7.69014e-05,0.0001644101,0.000103319646,3.3531105e-05,0.00042646614,2.750801e-05,0.00014313089,-0.000100879,5.0103758e-05,2.810746e-05,-0.00030994025,7.870141e-06,2.1430664e-05,-1.263083e-05,1.087226e-05
O=C1CCCC(=O)O1,-0.00022189112,-0.0002631552,5.995389e-05,0.00035007048,-9.0663554e-05,0.00051781174,3.891252e-05,0.0003565885,8.6940825e-05,3.1583477e-05,3.7014863e-05,-0.00020642823,0.00021665543,0.00021177297,-2.91022e-05,5.3052325e-05
c1cc(N(CC2CO2)CC2CO2)ccc1Cc1ccc(N(CC2CO2)CC2CO2)cc1,-0.00011576724,-0.00017616176,0.0002869647,0.00022304244,8.869916e-05,0.00037999603,-9.584986e-05,-3.054354e-05,3.9671548e-05,0.00014938647,-9.471318e-05,-0.00020076364,-8.623488e-05,4.2589847e-05,-6.875885e-05,5.2348245e-05
CC(C)(c1ccc(OCC(O)CN=[N+]=[N-])cc1)c1ccc(OCC(O)CN=[N+]=[N-])cc1,-4.250667e-05,-0.00014798553,0.00027613342,7.693702e-05,0.00013822503,0.00016036746,-7.202383e-05,-0.00017230446,0.00024721213,0.00023549516,2.1274696e-05,-8.196648e-05,-3.9972365e-06,-3.735337e-05,-5.2149408e-05,-0.00014166487
C#CCOc1ccc(Cc2ccc(O)cc2OCC#C)cc1,-0.00013295189,-0.00047014258,0.00012351293,0.00044445548,-2.0562205e-05,0.0008483055,-0.000161984,0.0002538924,0.00010864157,8.416874e-05,-9.8432356e-05,-0.00015991571,9.186752e-05,0.00028818694,2.079131e-05,-6.2667765e-05
CCCCCCCCCCCCN,-0.00022431175,-0.00019740849,-3.0212104e-06,0.0003506175,-9.292527e-05,0.0004860414,8.840673e-05,0.00035511714,0.000121628866,-2.4802983e-05,6.777627e-05,-0.00019321812,0.00021715369,0.00017355557,-6.723637e-05,-5.3253025e-06
NCc1cccc(CN)c1,-0.00014176016,-0.00035502273,9.20007e-05,0.00041352375,-8.617481e-05,0.0005437965,-4.5361463e-05,0.00029952382,0.000119282864,1.3699289e-05,5.2065152e-05,-0.00026318053,0.000191167,0.00025520643,-3.2778364e-05,-1.6328413e-05
Nc1ccc(Cc2ccc(N)cc2)cc1,-0.00012728773,-0.0005749103,0.00023380667,0.0005099071,-4.527252e-05,0.00077638775,-0.00016797427,0.0002717171,0.0002315566,8.5684005e-05,2.3995817e-05,-0.0002578646,0.00015591597,0.0003819333,-3.8012164e-05,-4.0375628e-05
Nc1cccc(N)c1,-0.00013260468,-0.00039697462,4.039146e-05,0.0004159701,-0.00012229616,0.00057695317,-3.4630764e-05,0.00035139057,0.00011275429,2.5773887e-05,3.7779682e-05,-0.00023115339,0.00016300194,0.00037548458,-6.222073e-05,1.36923045e-05
CC(C)(c1ccc2c(c1)CN(c1ccccc1)CCO2)c1ccc2c(c1)CN(c1ccccc1)CCO2,-5.9369486e-06,-0.0002585717,0.0002830103,0.0001814299,0.00016868999,-6.904412e-05,-0.00015582051,-0.00023923768,0.00034397654,7.893797e-05,-2.5131681e-05,3.558398e-05,-7.606018e-05,-7.85435e-05,-8.171308e-05,-0.0003148918
c1cc(N(CC2CO2)CC2CO2)ccc1OCC1CO1,-0.00012349486,-0.0003454315,0.00015441515,0.00035214587,3.7276885e-05,0.00067040446,-8.859532e-05,0.00020278897,4.116725e-05,0.00013282755,-3.960682e-05,-0.0003046585,0.00012512691,0.00023238454,1.626648e-05,4.546158e-05
O=C(O)CC(O)(CC(=O)O)C(=O)O,-0.00010445903,-0.0002687208,0.00017066207,0.00016134698,1.748139e-05,0.00050074555,-3.4133438e-05,0.00024782144,-8.25515e-05,0.000102463644,-3.5063247e-05,-0.00026357477,0.00012091873,0.00014065794,-3.323634e-05,2.2090506e-05
O=C(O)CCCCCCCCC(=O)O,-0.00016818853,-0.00023335381,0.00019348413,0.00026329845,-6.105285e-05,0.00046530186,-2.013892e-05,0.0002764226,0.00011223368,7.210951e-05,7.135025e-05,-0.00024659449,0.00018224306,0.00018685055,-8.4459316e-05,8.999603e-05
Cn1ccnc1,-0.0001689906,-0.00028043403,-0.000100679696,0.00046188524,-0.0002085322,0.00049249094,6.689364e-05,0.00033890037,0.00012323912,-5.040923e-05,-3.5625126e-06,-0.00014768756,0.00013094349,0.00032946415,3.688829e-05,-0.00010493165
O=C(O)CCCC(=O)O,-0.00016854578,-0.0002713378,0.00016194116,0.0002962111,-6.909692e-05,0.00049947004,-3.4818426e-05,0.00031749974,0.00010684971,8.647563e-05,6.4879685e-05,-0.00025622523,0.00019224593,0.0001802257,-7.114024e-05,5.7457015e-05
C1OC1COC1COC2C(OCC3CO3)COC12,-0.00015234924,-0.00016270601,8.6306594e-05,0.000177952,3.2832613e-05,0.00060650427,-1.058029e-05,0.00027914892,-2.1795742e-05,4.023593e-05,5.9447484e-07,-0.00021708978,6.7055225e-05,0.00012127549,2.3250934e-05,-6.271014e-05
Nc1ccc(SSc2ccc(N)cc2)cc1,-0.00011012409,-0.0006727574,0.00022686366,0.0005870971,-1.2783101e-05,0.0008703937,-0.00022983178,0.00021552318,0.00023582019,8.5996e-05,-7.9613004e-05,-0.00024873944,0.00012232503,0.00052338216,-0.00012541213,-8.361414e-06
CC(C)(c1ccc(OCCOCC2CO2)cc1)c1ccc(OCCOCC2CO2)cc1,-9.031256e-05,-0.0003034158,0.0002585305,0.0002912355,6.540748e-05,0.00047203264,-0.00011785282,1.9041589e-05,9.4805844e-05,0.000113694,-4.7960726e-05,-0.00026889192,5.1138923e-06,7.7755074e-05,-0.000112297246,6.7315996e-05
O=C1OC(=O)C2CCCCC12,-0.00015736622,-0.00015586684,0.00013855472,0.00026160874,-3.5196776e-05,0.0005401601,3.8123224e-05,0.00028030598,-3.3028424e-05,2.9941555e-05,1.7417624e-05,-0.00022931746,0.0001439983,0.00012353878,-4.405156e-06,4.9776398e-05
CN(C)Cc1cc(CN(C)C)c(O)c(CN(C)C)c1,-0.000135095,-0.00033686846,0.00011994224,0.0002505845,1.419778e-05,0.00062334654,-0.00014182134,0.00015934848,3.689248e-05,0.0001434777,-5.2683463e-05,-0.00024404487,0.00010551745,0.00022755732,-3.668177e-05,-4.0501356e-05
CC(C)(c1ccc(OCCOCCOCCOCC2CO2)cc1)c1ccc(OCCOCCOCCOCC2CO2)cc1,3.0152965e-05,-0.00011313963,0.00027049426,5.5867713e-05,6.6272216e-05,0.00011843904,-5.8504287e-05,-0.0001617109,6.9428235e-05,3.5184436e-05,5.85331e-05,-0.00011855878,-0.000108047854,-6.093702e-06,-0.00010281522,-3.8455706e-05
Cc1cc(-c2cc(C)c(OCC3CO3)c(C)c2)c(C)cc1OCC1CO1,-0.00011116231,-0.00030829967,0.00033538882,0.00016054558,-2.5430461e-05,0.0004726779,-0.00020372262,3.351143e-05,5.4479577e-05,0.000113188755,-9.8437245e-05,-0.00021506724,-5.643815e-07,3.615918e-05,-5.1239505e-05,-1.4010351e-05
Cc1cc(OCC2CO2)c(C(C)(C)C)cc1-c1cc(C)c(OCC2CO2)c(C(C)(C)C)c1,2.5080226e-05,0.0001138628,0.0003816234,-5.8417558e-05,0.00014611287,-0.00015495904,-1.02263875e-05,-0.00026024622,0.0002148049,0.0001721275,2.935587e-06,-0.00011212969,-0.00018117065,-0.00015062181,-0.0002129313,5.8930367e-05
N#COc1ccc(CC2CCCC(Cc3ccc(OC#N)cc3)C2)cc1,-0.0002105301,-0.00034211087,0.00015623868,0.00031871337,-3.438955e-05,0.0007112118,-0.00013093418,6.964512e-05,5.3098425e-05,0.0001883246,-0.00010795414,-0.00026569486,5.7550147e-05,0.000105106854,3.5436824e-05,-6.583566e-05
NCCNCCN,-0.00018357727,-0.00024384656,-6.860122e-05,0.0003173774,-9.980216e-05,0.0004638553,-8.599367e-06,0.00037434802,0.000100792386,-4.484132e-05,6.811111e-05,-0.00024778093,0.00016891863,0.00028123596,-5.6765275e-05,-2.720533e-05
O=C=Nc1ccc(Cc2ccc(N=C=O)cc2)cc1,-0.00014269422,-0.00048354245,0.000143894,0.00044070708,5.6056306e-06,0.00075104437,-0.00010998966,0.00021569082,7.5913034e-05,0.000106918626,-7.93456e-05,-0.0001631972,0.00013174722,0.00025802822,4.660664e-05,-3.7386548e-05
O=C(CCCC(=O)OCCCCOC(=O)CCCC(=O)OCCCCOC(=O)CCCC(=O)OCCCCOC(=O)CCCC(=O)OCCCCO)OCCCCO,0.00021226332,0.0014056377,0.00093318336,-0.0015536331,0.0006033997,-0.0015554755,-0.00018700724,-0.000734337,-0.00027098972,-0.0001504966,0.00051758316,-0.0003683113,-9.831088e-05,-0.00073260453,0.00025593373,0.00045425445
CCC(CO)(CO)CO,-0.00017179927,-0.00027997023,-1.0843389e-05,0.00035075488,-6.2642386e-05,0.0005714753,1.0072254e-05,0.00036564772,3.0315481e-05,1.8775463e-05,5.346397e-05,-0.00021519326,0.00017924141,0.00022277422,-6.3474756e-05,1.0361895e-05
O=C(CCCC(=O)OCCCCOC(=O)CCCC(=O)OCCCCOC(=O)CCCC(=O)OCCCCOC(=O)CCCC(=O)OCCCCOC(=O)CCCC(=O)OCCCCOC(=O)CCCC(=O)OCCCCOC(=O)CCCC(=O)OCCCCOC(=O)CCCC(=O)OCCCCOC(=O)CCCC(=O)OCCCCO)OCCCCO,0.00485606,0.0025449577,0.0034543723,-0.0044626696,0.00085390103,-0.004080167,9.9741854e-05,0.00041113165,0.00082200766,-0.0011428315,0.0038063645,-0.0022092983,0.0013564182,-0.00044243858,-0.0015831038,0.003617906
O=C(CCCC(=O)OCCCCOC(=O)CCCC(=O)OCCCCOC(=O)CCCC(=O)OCCCCOC(=O)CCCC(=O)OCCCCOC(=O)CCCC(=O)OCCCCOC(=O)CCCC(=O)OCCCCOC(=O)CCCC(=O)OCCCCOC(=O)CCCC(=O)OCCCCOC(=O)CCCC(=O)OCCCCOC(=O)CCCC(=O)OCCCCOC(=O)CCCC(=O)OCCCCOC(=O)CCCC(=O)OCCCCOC(=O)CCCC(=O)OCCCCO)OCCCCO,0.0061949613,0.0026384874,0.004622328,-0.0037916093,-0.0013338472,-0.0047167907,0.00058164215,0.0012251607,9.22326e-05,-2.4624169e-05,0.0036482404,-0.0038752402,0.00082135946,-0.0012402448,-0.0019633956,0.003933388
C=C(C)C(=O)OCCOCCOCCOCCOCCOCCOCCOCCOCCOCCOCCOCCOCCOC(=O)C(=C)C,7.899088e-05,0.00030481094,0.00037819427,-0.00031866075,8.1884675e-05,-0.00027445037,-3.0365773e-06,3.7796563e-06,-6.992929e-05,7.045781e-05,0.00014736259,-0.000111484616,-5.4004602e-05,-0.00021688917,-7.3049916e-05,0.00019767322
O=NN([O-])c1ccccc1.O=NN([O-])c1ccccc1.O=NN([O-])c1ccccc1.[Al+3],0.00015206909,-2.1076994e-05,0.00039369892,0.0001837539,0.00012424635,-0.00017533288,-0.00027639559,-0.00017756887,0.00014745072,0.00013089087,0.0001208169,-1.5786718e-06,-0.00010507461,8.173467e-05,1.2137461e-05,-0.00020012306
CC(COC(=O)CCS)(COC(=O)CCS)COC(=O)CCS,-3.9552804e-05,-0.00014061877,0.00022708718,5.026709e-05,8.330704e-05,0.00035484077,-4.2869244e-05,0.00020362681,-0.00015118532,9.86713e-05,-6.0532533e-05,-0.00023786892,1.8553343e-05,-3.93542e-05,3.843149e-05,-1.9159168e-05
C=CCn1c(=O)n(CC=C)c(=O)n(CC=C)c1=O,-6.100905e-05,-0.00029141293,0.00026977248,7.359509e-05,4.696776e-05,0.0006730498,3.890274e-05,0.00019191578,-0.00018492993,0.00017650286,-0.0001417704,-0.00020529731,4.7172885e-05,8.324551e-05,-5.1050447e-06,2.73576e-05
C=CCOCC(COCC=C)(COCC=C)COC(=O)NCC1(C)CC(NC(=O)OCC(COCC=C)(COCC=C)COCC=C)CC(C)(C)C1,1.0612159e-05,0.0011131873,0.0008237343,-0.0013444753,0.0006828385,-0.0015308458,-0.00014251051,-0.000657656,4.4661574e-05,0.00015943777,0.0004986597,-0.00020542898,-0.00024142768,-0.0007555332,0.00023666583,0.000282282
C=C(CCS)OCC(COC(=O)CCS)(COC(=O)CCS)COC(=O)CCSC(=O)NCC1(C)CC(NC(=O)SCCC(=O)OCC(COC(=O)CCS)(COC(=O)CCS)COC(=O)CCS)CC(C)(C)C1,0.001229807,0.0020673657,0.0018477859,-0.0029172134,0.0015899476,-0.0026684809,-2.2687018e-05,-0.000402287,0.00024191942,-0.00058013014,0.0025847743,-0.0008822138,0.0008203718,-0.0010263586,2.2516586e-05,0.0011643721
C=CCOCC(CO)(COCC=C)COCC=C,-0.00015237965,-0.0002203111,0.000115889125,0.00020791701,-4.7755893e-06,0.0005402297,1.41575e-05,0.00030364783,-3.18503e-05,6.430829e-05,-3.1243428e-05,-0.00021548197,0.00016678125,0.00011246122,-2.2930792e-05,6.470131e-05
C=C(C)C(=O)OC,-0.00017249552,-0.00029467023,0.00014625024,0.00032129354,-7.413956e-05,0.0005552286,-1.7707702e-05,0.00035666313,4.7871843e-05,8.396199e-05,-4.848931e-06,-0.00019298156,0.0001952746,0.00022014324,-6.0590915e-05,0.000100826845
O=C(OOC(=O)c1ccccc1)c1ccccc1,-0.00014602134,-0.00053642155,0.000106362626,0.0005122925,-1.6212696e-05,0.00080718996,-8.790288e-05,0.00031714095,0.0001737522,4.621269e-05,-5.712168e-05,-0.00017811399,0.00018903101,0.00028826692,-7.7708624e-05,-7.6487195e-05
C=C(C)C(=O)OCCOCCOCCOC(=O)C(=C)C,-0.00012967255,-0.00018278998,0.00025742594,9.357452e-05,-2.050912e-05,0.0005449227,-5.696062e-05,0.00024782226,-3.8675964e-05,0.00015512574,-5.176023e-05,-0.00021320913,0.00014278246,0.00010580715,-3.916165e-05,0.0001081517
CC(C)(CCC(C)(C)N=C=O)CN=C=O,-0.00013068225,-0.00027282326,0.00019321684,0.00021157629,-1.5578698e-05,0.00052018126,-3.701588e-05,0.00023908948,-2.0429492e-05,0.000120970886,3.4766737e-05,-0.0002228907,0.0001614769,6.761192e-05,-2.2717286e-05,3.4062658e-05
C=CCOCC(CC)(CO)CO,-0.00017791885,-0.00027632597,0.000100601465,0.00031528895,-4.492351e-05,0.00052422174,7.789116e-06,0.00033091463,5.1802024e-05,7.044664e-05,2.585823e-05,-0.00019649667,0.00021346845,0.00015336211,-4.6550063e-05,4.8654154e-05
CC(CO)CO,-0.00018930464,-0.00024344516,-7.148553e-05,0.00039253366,-8.508377e-05,0.0005507918,1.9089784e-05,0.00036287366,4.45256e-05,-1.7886981e-05,2.8948823e-05,-0.00018971704,0.00019230274,0.00023698597,-3.2710144e-05,-6.075017e-05
C=CCCO,-0.00019410942,-0.00020942348,1.9898638e-05,0.00036429433,-0.00010237517,0.00047618637,8.126628e-05,0.0003707636,9.493902e-05,-2.2655353e-05,6.298078e-05,-0.00015078057,0.00018045446,0.00023647182,-6.828387e-05,-8.2328916e-07
O=c1n(CCS)c(=O)n(CCS)c(=O)n1CCS,-6.3811895e-05,-0.00023560482,0.00019614957,0.00015656697,6.533414e-05,0.00055390835,6.82571e-05,0.00016590499,-7.982552e-05,7.009879e-05,-4.1723077e-05,-0.00023487539,5.007256e-05,2.0834734e-05,3.9235456e-05,-4.852563e-05
CC(C)(CO)CO,-0.00016497797,-0.00028114137,6.674789e-06,0.00034790108,-5.893153e-05,0.0005578598,2.9780436e-05,0.00037901453,5.9802085e-05,8.496456e-06,4.6545494e-05,-0.0002327867,0.00018244283,0.00023887574,-6.0232356e-05,-2.6341062e-05
OCC1CCC(CO)CC1,-0.00017197302,-0.00020718272,-1.3842247e-05,0.00034533843,-9.335647e-05,0.00051177654,6.5702014e-05,0.0003596145,3.6062673e-05,-2.1161512e-05,2.1251122e-05,-0.00020619342,0.00017868588,0.00017014582,-4.6381727e-05,-1.9064173e-05
O=C=NC1CCC(CC2CCC(N=C=O)CC2)CC1,-0.0001649693,-0.00012678443,0.00017475523,0.00014992722,-1.8096063e-05,0.00055171654,-7.667579e-06,0.00018178695,-7.6757744e-05,0.00011157105,-1.4766847e-05,-0.0001859336,0.00011143042,9.155669e-05,8.236384e-05,8.4511936e-05
O=C=NCCCCCCN=C=O,-0.0002718209,-0.00014763209,4.7896057e-05,0.00031684362,-0.00011690357,0.0004523273,0.00012284005,0.00031352218,0.00010940153,-1.497753e-05,8.3707884e-05,-0.00021540385,0.00022596633,0.00019509299,-6.1795814e-05,5.4717995e-05
O=C(CCS)OCC(COC(=O)CCS)(COC(=O)CCS)COC(=O)CCS,-5.850772e-05,9.572366e-06,0.00046881475,-0.000112287235,0.00016729091,0.00018360742,-3.0820258e-05,-6.389385e-05,-0.00022649951,5.276082e-05,-3.2956887e-05,-0.00034325838,-4.4794288e-05,-5.6619232e-05,-3.8148835e-05,0.00016846368
CCO[Si](CCCN(CCC(=O)OCCO)CCC(=O)OCCO)(OCC)OCC,-4.157686e-05,0.00014796224,0.0004665386,-0.00015268743,0.00010820362,-0.00013940388,7.4119307e-06,-0.00015109999,-0.0001367256,3.939122e-05,3.9302802e-05,-0.00034996925,-0.00015138835,-0.00026651594,9.478303e-06,0.00011315942
CC1(C)CC(N=C=O)CC(C)(N=C=O)C1,-0.00012729183,-0.00033171778,0.00019105151,0.00017786259,3.0631665e-05,0.00065002474,-0.00011360925,0.00028066325,-4.9847178e-05,0.00021944521,-4.6631496e-05,-0.00021840964,0.00013648393,0.0001840932,4.8042275e-05,4.1794498e-05
COCCOCCOCCOCCOCCOCCOCCOCCO,-9.7200245e-05,-4.366273e-05,9.574089e-05,0.00010045164,-5.5034645e-05,0.0003361252,6.529968e-05,0.00025706599,-6.1787665e-05,-3.941497e-05,3.9101462e-05,-0.00021818705,8.5188076e-05,-1.5831436e-05,-3.8423343e-05,1.5222933e-05
C=C(C)C(=O)OCCOCCOCCOCCOCCOCCOCCOCCOCCOCCOCCOCCOCCOCCOCCOCCOC(=O)C(=C)C,2.2624386e-05,0.00041506393,0.0005547954,-0.00050401466,0.00013097515,-0.00039615794,-0.00018649502,-3.052433e-05,-0.0002460042,7.374911e-05,0.00020293615,-0.00020108832,1.061568e-05,-0.00021292546,6.988784e-05,0.00025657378
Nc1cccc(S(=O)(=O)c2cccc(N)c2)c1,-9.803017e-05,-0.00048507447,9.100977e-05,0.00049115455,-2.7586007e-05,0.0007786511,-0.00011221785,0.00021152559,7.414725e-05,0.000115249306,-6.905076e-05,-0.00023491663,0.00013730489,0.0003912641,-2.634013e-06,-5.836971e-05
OCCOCCO,-0.00017048919,-0.00021431618,-0.00014465861,0.00033867423,-0.00012925453,0.00047698262,4.7647394e-05,0.00039484142,8.819997e-05,-8.4303785e-05,6.387351e-05,-0.00018733134,0.00016780524,0.0002613652,-6.4489665e-05,-7.420406e-05
OCCCCO,-0.000172436,-0.00022563641,-4.4372864e-05,0.00034719758,-0.00012862775,0.00046614962,4.0780287e-05,0.00038620038,0.00011787843,-3.9667357e-05,7.891611e-05,-0.00018628908,0.00016636262,0.00027695956,-9.513949e-05,-3.5106204e-05
C=CCc1ccc(OCC2CO2)c(-c2cc(CC=C)ccc2OCC2CO2)c1,-0.00014500946,-0.0002828918,0.00018627662,0.00031189824,5.0459756e-05,0.0005950201,-0.00013622874,6.941345e-05,-1.6828999e-05,0.00012714043,-0.00014855905,-0.00020641799,4.8283488e-05,7.855048e-05,-3.5536941e-06,1.3259705e-05
COc1cc(CC2CO2)ccc1OP(=O)(Oc1ccc(CC2CO2)cc1OC)Oc1ccc(CC2CO2)cc1OC,4.9665396e-05,1.3876706e-05,0.00040270202,-9.305449e-05,0.00017255684,-0.00026243847,-0.00010576332,-0.0002794162,0.00028370135,0.0001502675,-6.19982e-05,8.355396e-05,-8.963747e-05,-0.00020889705,-0.0001011861,-0.00023159571
C(=N/c1ccc(OCC2CO2)cc1)\c1ccc(OCC2CO2)cc1,-0.00024871455,-0.00030257995,0.00021966454,0.00035772222,2.0012958e-05,0.0005738067,-0.00010276819,0.000103860744,4.8178248e-05,9.7010285e-05,-6.819214e-05,-0.0003252193,6.417371e-05,0.00013764866,-1.993496e-05,7.366529e-05
COc1cc(/C=N/c2ccc(OCC3CO3)cc2)ccc1OCC1CO1,-1.03099155e-05,-0.00029866234,0.00019536912,0.0002861941,4.683761e-05,0.00047025117,-1.83261e-05,0.000101208105,-1.383014e-06,7.7079516e-05,-9.276427e-05,-0.00019005447,3.3009797e-05,2.4795008e-05,3.783009e-05,-9.939307e-05
COc1cc(CC2CO2)ccc1OC(=O)c1ccc(C(=O)Oc2ccc(CC3CO3)cc2OC)cc1,6.887916e-05,-0.00027516368,0.00022259913,6.720214e-05,0.00011356687,5.381988e-05,-0.000115763396,-0.00016841339,0.00023289397,0.0001956136,-0.00017431419,0.00013899298,-4.0309504e-05,-5.2848423e-05,-4.353933e-06,-0.00030380161
COc1cc(CC2CO2)ccc1OCc1ccc(COc2ccc(CC3CO3)cc2OC)cc1,-9.958117e-05,-0.0003739486,0.00031541567,0.00024151179,0.00013650768,0.0003976631,-0.00015482679,-1.6580103e-05,0.00021282583,0.00014334964,-0.000146573,-0.00011770796,-4.3311622e-05,-5.2451913e-05,-7.841713e-05,-0.0001538992
COc1cc(CC2CO2)ccc1Oc1nc(Oc2ccc(CC3CO3)cc2OC)nc(Oc2ccc(CC3CO3)cc2OC)n1,-4.8295187e-06,8.51152e-05,0.0004993463,-2.2522989e-05,0.00025215605,-0.00018697427,-0.00026177894,-0.00029453018,0.0003332356,0.00025512977,4.4008193e-05,-4.332733e-05,-0.00012336159,-0.00027222675,-1.5502563e-05,-0.00017084368
COc1cc(C(c2cc(C)c(O)c(O)c2)c2cc(C)c(O)c(O)c2)ccc1OCC1CO1,-0.00011622798,-0.0004663898,0.0004447885,0.00033605908,6.680051e-05,0.00043429245,-0.0002079187,-8.7124645e-05,0.00024002325,0.00021669315,-0.00012180966,-0.0001481031,4.5695808e-05,7.529714e-05,-0.00013068994,-7.3403586e-05
COc1cc(C(c2cc(C)c(OCC3CO3)c(O)c2)c2cc(C)c(OCC3CO3)c(O)c2)ccc1OCC1CO1,1.1088676e-05,-1.6974285e-05,0.00044729654,-7.2684954e-05,0.00011819019,-6.445285e-05,-8.467445e-05,-0.0003414296,0.0002773255,0.00013842108,-4.8997463e-06,3.8867074e-06,-8.5934065e-05,-8.47326e-05,-7.596123e-05,-4.4406857e-05
COc1cc(C(c2cc(C)c(OCC3CO3)c(OCC3CO3)c2)c2cc(C)c(OCC3CO3)c(OCC3CO3)c2)ccc1OCC1CO1,-4.9199734e-05,0.0002635913,0.00065784436,-0.0005167406,0.0002649692,-0.0005507078,-0.00018696953,-0.00035900238,0.00023213029,0.00020911172,0.00019734784,-5.3746313e-05,-0.00010398589,-0.00037767793,9.26113e-05,0.00017348444
CCCCC1OC1CCCCC1OC1CCCCCCCC(=O)Oc1ccccc1,-0.00020146772,-2.9669376e-05,8.619018e-05,0.00012823474,2.22479e-05,0.00047450833,7.2402414e-05,0.00011394033,-0.00010182522,9.493902e-06,1.4285673e-05,-0.0002748188,7.0850365e-06,-9.0929825e-05,-7.2075054e-05,-6.4913183e-06
COc1cc(COCC(O)CN)ccc1OCC(O)CN,-0.0001238327,-0.0003932619,0.00029148068,0.00033513876,4.0121377e-06,0.000635461,-8.7063294e-05,0.00019370264,0.000115092844,0.00011988636,-2.2678985e-05,-0.00028747338,0.00014395546,0.00027492776,-4.6870206e-05,0.00010258611
COc1cc(COCC2CO2)ccc1OCC1CO1,-0.00010804643,-0.00037230295,0.00026215427,0.00032526848,4.698243e-05,0.0005832439,-2.739206e-05,0.00025691756,6.673392e-05,4.2809173e-05,-6.304972e-05,-0.0002974366,0.00012301747,0.0002447688,-8.41422e-05,5.4675154e-05
CC1(C)CC(N)CC(C)(CN)C1,-0.0001915331,-0.0002862534,9.214971e-05,0.00034846814,-8.444488e-05,0.00060451136,-2.95043e-06,0.00030538405,4.2642467e-05,0.00012226729,2.932764e-06,-0.00021515286,0.00017807586,0.00019912847,-7.685507e-06,2.4034642e-05
COc1cc(CO)cc(-c2cc(CO)cc(OC)c2OCC2CO2)c1OCC1CO1,-5.1434035e-05,-0.00025135488,0.00032221153,0.00023468147,0.00010166573,0.00039773912,-4.5370776e-05,-2.374174e-06,-1.2943521e-05,2.2845343e-06,-4.210201e-05,-0.00015775589,-0.00010368461,5.870877e-05,-5.0966395e-05,-1.4059246e-05
COc1cc(CO)cc(-c2cc(COCC3CO3)cc(OC)c2OCC2CO2)c1OCC1CO1,-4.0793035e-05,-0.00014376477,0.00043026637,0.00016937719,9.639189e-05,0.00018595127,-3.5313424e-05,-6.674859e-05,2.6130117e-05,-3.8805418e-05,-6.4838096e-06,-0.00018944975,-0.00012377277,3.3732562e-05,-9.965175e-05,6.0267746e-05
COc1cc(COCC2CO2)cc(-c2cc(COCC3CO3)cc(OC)c2OCC2CO2)c1OCC1CO1,-1.5530852e-05,-2.3504952e-05,0.0004687095,4.999293e-05,9.9542085e-05,6.719201e-05,-8.218549e-05,-0.000116575975,6.240234e-05,4.7403853e-05,-3.4338213e-05,-0.0001244256,-8.9937355e-05,8.9415116e-05,-7.162057e-05,1.5429687e-05
O=c1cc(-c2ccc(OCC3CO3)cc2)oc2cc(OCC3CO3)ccc12,-0.00015826596,-0.00035105762,0.00019009039,0.0003319637,3.4446828e-05,0.00058722007,-6.3734595e-05,1.181243e-05,7.029995e-05,0.00010384666,-8.4653846e-05,-0.00018022006,-3.170967e-05,7.471291e-05,-8.64733e-06,-8.306885e-05
CC1(C)CC(CN)CC(CN)C1,-0.00020150117,-0.0003195384,0.00013958104,0.00033323397,-8.703908e-05,0.000595737,-3.79188e-05,0.00030553446,7.193908e-05,0.00013255747,1.5440077e-05,-0.0002322293,0.00018972624,0.00024430786,-4.618056e-05,7.121544e-05
NCCCCCCCCCCN,-0.00019636462,-0.00017118151,5.893223e-05,0.00029710395,-7.644319e-05,0.00045514412,5.595293e-05,0.0003218433,0.000100002624,-2.5003683e-05,6.342927e-05,-0.0002369989,0.00019779941,0.00014756742,-8.159061e-05,2.8077979e-05
c1coc(CNCc2ccco2)c1,-0.00014226453,-0.00041161687,0.00021864194,0.00040072924,-4.836195e-05,0.00080313045,-1.586508e-05,0.00026792497,0.00020473078,4.647998e-05,3.9397215e-05,-0.00027820864,0.00012190174,0.00024933153,-1.7366605e-05,-4.1892752e-05
COc1ccc(OCC2CO2)c(CCC(=O)OCCCCOC(=O)CCc2ccc(OCC3CO3)c(OC)c2)c1,0.00018118601,5.563209e-05,0.0004029544,-0.0003303612,0.00021435483,-8.76351e-05,-0.0001615053,-0.0001699155,3.9599836e-05,0.00011004275,-5.141512e-06,2.5087262e-05,-0.00013250206,-0.00019351649,-3.5371631e-06,-0.00012117298
COc1ccc(OCC2CO2)c(CCC(=O)OC2CC3OCC(OC(=O)CCc4ccc(OCC5CO5)c(OC)c4)C2O3)c1,0.00016727427,0.00047646486,0.00063083414,-0.00061505847,0.00037420448,-0.00061131036,-0.00028486084,-0.0002713704,3.0426309e-06,0.00012522284,0.0001841478,-2.9826995e-05,-5.44074e-05,-0.00036072516,0.00024511653,4.9110502e-05
COc1ccc(OCC2CO2)c(CCC(=O)OCC(COC(=O)CCc2ccc(OCC3CO3)c(OC)c2)OC(=O)CCc2ccc(OCC3CO3)c(OC)c2)c1,0.00028798898,0.0009275293,0.00089117326,-0.0014229923,0.00091624237,-0.0012168129,-0.000251838,-0.000668958,0.00050499383,0.00043285685,0.00063778064,-0.00011244117,-0.00018693646,-0.0009710041,0.00030688744,-6.419374e-05
CC1CCC2C(=O)OC(=O)C2C1,-0.00017569971,-0.00023087184,0.00018905941,0.00029263675,-1.5354017e-05,0.00057416456,2.5675166e-05,0.00024365063,-4.7385693e-06,9.508012e-05,-2.9391318e-05,-0.00021436298,0.00014439598,0.0001595908,4.9332157e-06,6.446708e-05
CC(=O)/C=C(/C)[O][Zn][O]/C(C)=C\C(C)=O,-0.00019620993,-0.0002479942,0.00027495343,0.00020791718,0.00010734517,0.00054373534,-0.00010900898,7.251336e-05,-4.7584996e-05,0.00021456415,-7.531012e-05,-0.00022361826,6.229803e-05,5.578797e-06,-2.7229544e-06,5.767308e-05
COc1ccc(OCC2CO2)c(C(c2ccc(OCC3CO3)c(OC)c2)c2cc(OC)ccc2OCC2CO2)c1,-3.9242383e-05,-9.752088e-05,0.0004945677,-5.475513e-05,0.00016652164,2.6120048e-05,-0.00016764551,-0.00028027932,0.00024281908,0.00016824063,-3.7312973e-05,-9.847881e-05,-4.110532e-05,7.123378e-05,-4.606368e-05,-5.5440236e-05
COc1ccc(OCC2CO2)c(CCCC(=O)OCCOC(=O)CCc2ccc(OCC3CO3)c(OC)c2)c1,0.00025800127,0.00019170297,0.0004921779,-0.00033967418,0.00019224756,-0.00032302793,-0.00013307761,-0.00025523687,6.784033e-05,0.00015202397,4.2681437e-05,2.2303197e-05,-0.00017387839,-0.00023809611,-3.917399e-05,-9.946991e-06
CC1(C)CC(N)CC(C)(C)C1CN,-0.00019392936,-0.0002630835,0.000110389665,0.00032054493,-9.288895e-05,0.00061194715,-6.495975e-06,0.00029982917,2.1147542e-05,0.00011128839,-1.3817917e-06,-0.000214317,0.0001689312,0.00021086395,3.8447324e-06,5.1424373e-05
COc1ccc(OCC2CO2)c(CCCC(=O)OCCCOC(=O)CCc2ccc(OCC3CO3)c(OC)c2)c1,0.00022412237,5.2239513e-05,0.00041353237,-0.00031942164,0.00022657192,-0.00016365424,-0.00012185844,-0.00020545477,3.3192337e-05,0.000114177354,-4.9251365e-05,3.144805e-05,-0.00016480498,-0.00024496208,-1.0199612e-05,-0.00015938375
COc1ccc(OCC2CO2)c(CCCC(=O)OCCCCOC(=O)CCc2ccc(OCC3CO3)c(OC)c2)c1,0.00023789186,0.0001868105,0.00051906146,-0.0003562622,0.00023935526,-0.00031721682,-0.00019097002,-0.00016911584,8.736551e-05,0.00011646608,4.8486865e-05,-5.569451e-05,-0.00012013037,-0.00023768039,-3.9600767e-05,-3.9238017e-05
COc1ccc(OCC2CO2)c(CCCC(=O)OCCCCCCOC(=O)CCc2ccc(OCC3CO3)c(OC)c2)c1,0.0002793782,0.00034980942,0.0005928548,-0.0005605642,0.0002692868,-0.0006002587,-0.00023174891,-0.0002784545,-1.5349127e-05,0.00014013704,0.000112894486,-1.5350764e-05,-0.0001763166,-0.00035255618,7.354049e-05,-2.5238842e-07
COc1cc([C@H]2OC[C@H]3[C@@H]2CO[C@@H]3c2cc(OC)c(OCC3CO3)c(OC)c2)cc(OC)c1OCC1CO1,0.00021894119,0.0006415127,0.0006798655,-0.0009952941,0.0003962554,-0.0010180599,-0.0002513933,-0.0005693742,3.2521784e-06,-9.08738e-06,0.0002050435,-5.1247844e-06,-0.0002302099,-0.00079756335,9.6981996e-05,-2.4037436e-05
CC(C)(c1occc1CN)c1occc1CN,-0.00013793318,-0.00058541144,0.0003459435,0.00048054295,-1.2502773e-05,0.00080688787,-6.4643566e-05,0.00030957686,0.00018947758,5.358411e-05,3.455559e-05,-0.00020753095,0.00013712887,0.00029843935,-5.8976235e-05,-2.3143366e-07
NCCCOC1COC2C(OCCCN)COC12,-0.00015188701,-0.00023273309,0.00021098834,0.0001863265,5.015894e-05,0.00061463105,-9.084586e-05,0.00027474726,2.0530075e-05,0.00012925966,-2.6661903e-05,-0.0003014771,0.000121142715,0.00018249091,7.993076e-07,0.00010022847
OC(COC1COC2C(OCC3CO3)COC12)COC1COC2C(OCC3CO3)COC12,-6.238138e-05,-3.3171615e-05,0.0003287485,4.7420268e-05,0.00014310982,0.00020558022,-3.7509482e-05,4.277972e-05,-3.789738e-05,7.254956e-05,0.000107967615,-0.0003037647,-0.00011735363,6.3995365e-05,-4.590326e-05,6.160606e-05
NCCN,-0.00016224527,-0.00029459526,-8.127373e-05,0.00032315758,-0.00017948728,0.0004211303,-4.873192e-05,0.00041838922,0.00014939625,-1.7313287e-06,0.000108522625,-0.00016163723,0.0001604557,0.0002993539,-3.2330165e-05,-4.3401495e-05
NCCNCCNCCN,-0.00016860946,-0.00017805886,0.00010265317,0.00026785786,-7.226318e-05,0.00043781527,1.2929551e-05,0.00031302427,7.722061e-05,1.9451603e-05,4.8188667e-05,-0.00026625855,0.00017037056,0.00014527148,-3.8616126e-05,5.9183687e-05
NCCN1CCNCC1,-0.00019417341,-0.00016890117,-2.0616688e-05,0.00032199582,-7.704366e-05,0.0004971262,5.155662e-05,0.0003587607,6.732158e-05,1.2820587e-05,5.663786e-05,-0.00025823788,0.00012866687,0.00012600486,1.063128e-05,-5.0584786e-05
CC1(C)CC(CN)CC(C)(N)C1,-0.00017216822,-0.00030098413,0.0001739338,0.00029061968,-6.373064e-05,0.0005905366,-4.6856236e-05,0.0002788133,4.008878e-05,0.00015164819,6.8538357e-06,-0.00021874893,0.00016804272,0.00019095856,-1.1890428e-05,7.225061e-05
CC(=O)/C=C(/C)[O][Zn][O]/C(C)=C\C(C)=O.O,-0.00018987406,-0.0002471644,0.00029690936,0.00020335393,0.00011068303,0.0005209565,-0.0001036576,6.445346e-05,-5.0871633e-05,0.00021797093,-6.210065e-05,-0.00021454706,6.299978e-05,1.504278e-05,-6.0813036e-06,5.4609496e-05
Nc1cccc(Oc2cccc(Oc3cccc(N)c3)c2)c1,-0.00010120979,-0.0006488308,0.00013270881,0.00057989283,-1.4267396e-05,0.00092030386,-0.00020570634,0.00018672331,0.00023740996,8.351123e-05,-0.00011334225,-0.00017563748,7.369323e-05,0.00043256913,-8.085044e-06,-0.00012270408
O=C1OC(=O)c2cc(Oc3ccc4c(c3)C(=O)OC4=O)ccc21,-0.00015701959,-0.00036690547,0.00032617804,0.00030404195,0.00012617349,0.0005633404,-0.000101373065,0.00012342853,6.031897e-05,0.000112033915,-0.00010927726,-0.00021722761,-3.113039e-05,2.357288e-05,-5.023647e-05,-1.4466234e-05
C=Cc1ccccc1,-0.0001884845,-0.0003006251,1.561921e-05,0.0004554651,-0.000115401344,0.00057596003,2.8562266e-05,0.00034970883,0.0001299968,-8.661766e-06,6.2115956e-05,-0.00019225525,0.00016213581,0.00025462895,-8.824281e-06,-9.22326e-05
Nc1ccc(Oc2ccc(-c3ccc(Oc4ccc(N)cc4)cc3)cc2)cc1,-0.00023776692,-0.00074098236,0.00034159422,0.00057075056,5.2138697e-05,0.00092096266,-0.00020669075,-1.0306365e-05,0.00025827345,0.00015164725,-0.000120074896,-0.0003637756,7.124804e-05,0.00032176235,-0.00020761578,2.056174e-05
O=C1OC(=O)c2cc(C(c3ccc4c(c3)C(=O)OC4=O)(C(F)(F)F)C(F)(F)F)ccc21,0.00012506294,0.00030446192,0.00049159303,-0.0001948576,0.00020928239,-0.0005498539,3.6148354e-05,-0.00032334926,0.00023605116,9.548711e-05,0.000114827824,3.8349324e-05,-0.0002832422,-0.0003546261,-8.762884e-05,-9.363191e-05
CC(c1ccc(Oc2ccc(N)cc2)cc1)(c1ccc(Oc2ccc(N)cc2)cc1)c1ccc(Oc2ccc(N)cc2)cc1,-0.00014685633,-0.000260256,0.00055791717,-7.840339e-06,0.00014581834,8.4670755e-05,-0.00033320207,-0.00043216464,0.00047101174,0.00028653257,8.344534e-06,2.199073e-05,8.0891885e-05,-0.00018205025,-4.1528605e-05,-3.8566533e-05
CC(C)(c1ccc(OC#N)cc1)c1ccc(OC#N)cc1,-0.00016200918,-0.0006708747,0.0002812352,0.0005130338,6.4015156e-05,0.00087427604,-0.00018164283,0.00014936924,0.0001723012,0.00015354622,-0.00012278615,-0.00022923137,0.000109199435,0.00036122266,-4.05123e-05,5.4621138e-05
O=C(Oc1cccc(OC(=O)c2ccc(OCCOCC3CO3)cc2)c1)c1ccc(OCCOCC2CO2)cc1,-4.8417627e-05,-0.0002637424,0.0003437791,6.494508e-05,9.419606e-05,0.0001674028,-0.00012291688,-0.00023704441,0.00022744574,7.325597e-05,-2.4026667e-06,-7.9274054e-05,-8.469075e-05,-4.259305e-05,-0.00015076227,-1.8967316e-05
Nc1ccc(-c2ccc(N)cc2)cc1,-0.00013311533,-0.0005966199,0.0001875963,0.0005519208,-8.873711e-05,0.00080213207,-0.00018148683,0.00027816114,0.00022687856,0.00010718312,-9.770738e-07,-0.0002329498,0.00016289344,0.0004343717,-1.9008527e-05,-5.8080535e-05
CC(C)(c1ccc(N)cc1)c1ccc(C(C)(C)c2ccc(N)cc2)cc1,-0.0002716105,-0.0006326309,0.0003206972,0.00036981818,4.394725e-05,0.0006905026,-0.00020284113,3.8892147e-05,0.00017023925,0.00018200697,-6.0416816e-05,-0.00026054325,7.205643e-05,0.00011013355,-0.00018258137,-3.7612393e-05
O=c1cc(-c2ccc3c(c2)CN(Cc2ccco2)CO3)c2c3c(c(O)cc2o1)CN(Cc1ccco1)CO3,5.1741867e-05,-0.00011069211,0.0002963608,0.00023873214,0.0001829851,8.8956425e-05,-0.00013709115,-0.00028008514,0.00028105918,0.00012609316,-2.9187708e-05,0.00012304474,-9.679748e-05,2.0072679e-05,-3.454252e-05,-0.00036709523
CC12CCCCC1C(=O)OC2=O,-0.00017606528,-0.00018098135,0.0001889281,0.00024706102,-4.4800807e-05,0.0004974451,6.6896435e-05,0.00028931873,6.206334e-05,7.834751e-05,5.654234e-06,-0.00021669362,0.00017545046,7.9822494e-05,-5.5202283e-05,8.71839e-05
c1ccc(P(c2ccccc2)c2ccccc2)cc1,-0.00010100426,-0.00058965455,0.00010689814,0.00065055006,-2.3283763e-05,0.0009405501,-0.00014957832,0.00021204457,0.00014943816,9.5180236e-05,-0.00010360102,-0.00020738808,0.00013215002,0.00040317123,1.5538419e-05,-0.00011131028
O=C(O)c1cc(C(=O)O)cc(C(=O)O)c1,-8.26093e-05,-0.00043059397,0.00015936699,0.00037045643,-9.722775e-06,0.00062661234,-7.040193e-05,0.00017203658,7.539615e-05,0.00013058679,-3.251247e-05,-0.00019625452,0.00011945795,0.00025626138,-2.1879794e-05,-5.423557e-05
O=C(O)CCC(=O)O,-0.00020527552,-0.0002611305,0.0001016045,0.0003411554,-8.615083e-05,0.00051517173,8.166302e-06,0.00032400643,9.900518e-05,5.162228e-05,6.596747e-05,-0.0002492392,0.00020593591,0.00020681403,-7.1162125e-05,3.703637e-05
C#Cc1cccc(N2COc3cc(O)c4c(=O)cc(-c5ccccc5)oc4c3C2)c1,-0.00014129575,-0.00051845633,0.00018563867,0.00050915906,1.00985635e-05,0.0006342605,-0.0002268441,2.1768501e-05,0.00022439007,0.00024289172,-0.00015960383,-0.00026547836,2.2404827e-05,0.00015582709,-0.00018977723,-0.00011492614
CC(C)(c1ccc(OCC2CN(c3ccccc3)CO2)cc1)c1ccc(OCC2CN(c3ccccc3)CO2)cc1,1.1078955e-05,-0.00022267387,0.00032039266,0.0001948438,9.430549e-05,0.0001568078,-0.00013437215,-0.00029232434,0.00035204645,0.00015405333,-8.3089864e-05,0.00012933873,-5.6830235e-05,-2.4096225e-06,3.6219833e-05,-0.0002761893
O=C1C=CC(=O)N1c1ccc(Cc2ccc(N3C(=O)C=CC3=O)cc2)cc1,-0.00020368042,-0.000110485824,0.00031591486,0.00017302716,6.8359775e-05,0.00034316196,-6.787479e-06,-6.457302e-05,3.463123e-05,7.897243e-05,-0.00011114497,-0.00019238482,-7.6435506e-05,-7.9563644e-05,-5.5925455e-05,0.00012654578
C=C(C)C(=O)OCCOCCOCCOCCOCCOCCOCCOCCOCCOCCOCCOCCOCCOCCOC(=O)C(=C)C,9.365048e-05,0.00039962307,0.0004947446,-0.00043102063,0.00013412209,-0.00043929662,-0.000121817924,-2.2244523e-05,-0.00018075947,5.5596698e-05,0.00018703516,-0.00014334978,-1.2321863e-05,-0.00020947296,1.0783318e-05,0.00025429064
C=CC(=O)OC,-0.0001606725,-0.00021437719,5.9930608e-05,0.00034646795,-7.114699e-05,0.00054537074,5.6183897e-05,0.00035776058,4.948862e-05,3.2213517e-05,5.535374e-05,-0.0002098048,0.0001516114,0.00016223593,-5.7041412e-05,-3.6874786e-05
C=CC(=O)OCCCC,-0.00015441491,-0.00020026718,0.00016953982,0.0003069766,-8.380017e-05,0.00051322277,5.295733e-05,0.00032240467,5.4575503e-05,4.8954505e-05,6.31717e-05,-0.00023992197,0.00015443703,0.00017019006,-7.4754935e-05,6.4449385e-05
C=C(C)C(=O)OC(C)(C)C,-0.00014992454,-0.0002814706,0.00023388956,0.00026738114,-7.581501e-05,0.0005886309,-1.4839694e-05,0.0003034284,2.011843e-05,0.000130245,-2.7390954e-05,-0.00017402758,0.00017610891,0.00018938666,-3.772392e-05,0.00014064275
C=C(C)C(=O)OCCOCC,-0.00015512755,-0.00021990458,0.00022858381,0.00022537122,-6.665988e-05,0.0005043363,5.4575503e-07,0.00031349633,3.5343692e-06,8.747913e-05,-2.510671e-06,-0.00019762095,0.00017924327,0.00015515013,-3.5099918e-05,0.00018343003
C=C(C)C(=O)OC1CC2CCC1(C)C2(C)C,-6.317324e-05,-0.00017002155,0.0002710335,6.874697e-05,-1.524575e-06,0.00058960624,-5.527446e-05,0.0002462404,-7.9955906e-05,0.00012290245,-8.994801e-05,-0.00015979819,8.023204e-05,0.00010403799,7.04088e-05,0.00012592785
C=C(C)C(=O)OCC(CC)CCCC,-0.00013733457,-0.00026982254,0.00031441823,0.00020740303,-4.8058107e-05,0.00058202725,-7.3336065e-05,0.00027428626,1.2422912e-05,0.00015942147,-6.334798e-06,-0.00019832148,0.00017322134,0.00016123551,-3.143912e-05,0.00016481057
C=CC(=O)OCc1ccccc1,-0.00016086907,-0.00040869392,0.00028706435,0.00039728894,-5.9869373e-05,0.0006996683,-4.0517654e-05,0.00036505412,0.00018130243,4.1306484e-05,4.2107888e-05,-0.00023530517,0.0001464854,0.00025062042,-9.0168556e-05,5.7638623e-05
C=CC(=O)OCC(C)CCCCCCC,-0.00014697257,-0.00019045104,0.00027647708,0.0002209114,-4.1184714e-05,0.0005699722,3.223773e-06,0.00029466557,-3.2521784e-06,0.000103412196,5.0394563e-05,-0.00025486998,0.00014508422,0.00013267848,-4.2163767e-05,0.00010814378
C=C(C)C(=O)OCc1ccccc1,-0.00014748587,-0.00044583087,0.00026790425,0.000390351,-5.7866797e-05,0.00071602594,-9.5941126e-05,0.0003296337,0.00014370121,0.00010652235,-5.0997187e-05,-0.0001673486,0.00017527584,0.00028744608,-6.415346e-05,0.00011119153
C=C(C)C(=O)OCCOc1ccccc1,-0.0001592024,-0.00037970743,0.00021439046,0.00039018923,-8.476153e-05,0.0006744297,-5.6873076e-05,0.00031291996,0.000121396035,9.652134e-05,-7.090211e-05,-0.0001671375,0.00018572714,0.00027917005,-3.6495272e-05,0.00011013262
C=CC(=O)OCC(C)OCC(C)OCC(C)OCC(C)OCC(C)OCC(C)OCC(C)OCC(C)O,-0.0001253745,0.00021936581,0.0005247621,-0.00019914645,3.9183302e-05,-7.706857e-05,0.00010778429,-0.00014641369,-2.7799979e-06,0.00013540965,9.66363e-05,-0.00018439553,-0.00013279729,-3.4214987e-05,-9.8741846e-05,0.00022833282
C=CC(=O)OCCOCCOc1ccccc1,-0.00014205757,-0.00030864705,0.00025166292,0.0003667798,-8.5407635e-05,0.00065754005,-3.0889176e-05,0.00029718014,0.00013278145,7.73659e-05,-1.5528203e-05,-0.00023001345,0.00014935341,0.0002580689,-5.8922684e-05,8.213613e-05
C=CC(=O)OCCOCCOCCOc1ccccc1,-0.00013446566,-0.00021834974,0.00023077615,0.00028022612,-4.1225692e-05,0.0005990574,5.93625e-06,0.00021394121,3.1508505e-05,6.113481e-05,-4.2565458e-05,-0.00025562465,0.000115794595,0.00017495645,-6.962055e-05,0.00013990048
C=CC(=O)OCCOCCOCCOCCOc1ccccc1,-0.00014788599,-0.00021164375,0.0002053678,0.0002921411,-5.673687e-05,0.0005898181,-1.3262033e-06,0.00022678275,5.1942654e-05,8.14423e-05,-1.9919244e-05,-0.00026855327,0.00012538303,0.00017333234,-6.8648485e-05,0.00014048629
C=C(C)C(=O)OCCOCCOCCOCCOCCOCCOCCOCCOCCOCCOCCOCCOCCOCCOCCOc1ccc(C(C)(C)c2ccc(OCCOCCOCCOCCOCCOCCOCCOCCOCCOCCOCCOCCOCCOCCOCCOC(=O)C(=C)C)cc2)cc1,0.0022017378,0.0015260228,0.0015583998,-0.001702336,0.0001730374,-0.0023480116,-0.00014720019,0.0002482856,0.000792657,-0.00023335451,0.0017682253,-0.00035173213,0.00014267117,-0.000536459,-9.736535e-05,0.0018716822
C=C(C)C(=O)OCCOCCOc1ccc(C(C)(C)c2ccc(OCCOCCOC(=O)C(=C)C)cc2)cc1,1.9881845e-05,0.00019424339,0.00035439897,-0.00011554989,0.00010681781,-0.0001725892,3.0268915e-05,-0.00026177336,0.00020983815,0.00015307823,4.0239596e-05,6.359753e-05,-8.383207e-05,-0.0002058931,-0.00015234435,0.00011491077
C=C(C)C(=O)OCCOCCOCCOCCOc1ccc(C(C)(C)c2ccc(OCCOCCOCCOC(=O)C(=C)C)cc2)cc1,-0.00014342606,0.00021191081,0.0005692532,-0.0004837854,0.00016296888,-0.00043244378,-0.000113538,-0.000168895,9.2349015e-05,0.0002010949,0.000104680046,1.0409873e-05,4.158402e-05,-0.0003554962,-5.1776413e-05,0.0002532266
C=C(C)C(=O)OCCOCCOc1ccc(C(C)(C)c2ccc(OCCOC(=O)C(=C)C)cc2)cc1,3.0189694e-06,0.000112351496,0.00033657067,-5.9880782e-05,7.984345e-05,-9.87502e-05,7.943483e-05,-0.00030746986,0.0001916783,0.00013637869,-7.48593e-05,9.99382e-05,-0.00013738591,-0.00017738345,-0.00017946283,1.7530285e-05
C=C(C)C(=O)OCCOc1ccc(C(C)(C)c2ccc(OCCOC(=O)C(=C)C)cc2)cc1,3.1308708e-05,9.138649e-05,0.00043876935,-2.917822e-05,3.6722515e-05,-4.85091e-05,-4.973728e-06,-0.00016114465,0.0001573665,0.00019454071,-6.735866e-05,8.0315935e-05,-0.00013216864,-0.0001282593,-7.741386e-05,4.991889e-07
C=CC(=O)OCCCOCC(C)(C)COCCCOC(=O)C=C,-0.00010074666,-9.143003e-05,0.00034860894,7.3182164e-05,4.2308588e-05,0.00047387148,1.0226853e-05,0.00016068714,-0.00011131819,0.00012999028,-2.3001805e-05,-0.00026309956,3.0954834e-05,-7.5926073e-06,-8.9148525e-06,7.882668e-05
C=CC(=O)OCCCCCCOC(=O)C=C,-8.6912914e-05,-0.00018508756,0.0002953643,0.00012887991,-2.9082876e-06,0.00049922615,-1.5617814e-05,0.00027789967,-2.188608e-05,0.000112580135,1.7762155e-05,-0.0002673823,0.00011189841,7.471454e-05,-6.483239e-05,0.00011717621
C=CC(=O)OCC(CO)(COC(=O)C=C)COC(=O)C=C,-6.628811e-05,-7.944624e-05,0.00040568225,-6.740703e-05,0.00011040969,0.0003134917,-3.5400037e-05,0.00011603162,-0.00016762782,0.0001450372,-2.6109861e-05,-0.00032305007,-4.377775e-05,-7.338211e-05,-5.0820177e-05,0.000110565685
C=CC(=O)OCCOCC(CC)(COCCOC(=O)C=C)COCCOC(=O)C=C,-5.321784e-05,5.5178767e-05,0.00045786053,-0.00013059855,2.8776238e-05,0.000111012254,1.623435e-05,3.1239702e-05,-0.00019517075,0.00010150252,2.7878414e-05,-0.00025774015,-7.9801306e-05,-0.00010505694,-3.4263358e-06,0.00013820268
C=CC(=O)OCCOCCOCCOCC(CC)(COCCOCCOC(=O)C=C)COCCOCCOC(=O)C=C,5.3655298e-05,0.00026096986,0.00047655776,-0.00023702905,5.4938253e-05,-0.00015016674,6.33155e-05,-4.1247462e-05,-0.00010397937,8.764677e-05,6.374545e-05,-0.00024804368,-8.716388e-05,-9.049714e-05,-7.9287216e-05,0.000245546
C=CC(=O)OCCOCCOCCOCCOCCOCC(CC)(COCCOCCOCCOCCOCCOC(=O)C=C)COCCOCCOCCOCCOC(=O)C=C,7.8128534e-05,0.00077094254,0.00070344657,-0.0008775409,0.0003732564,-0.000752848,-0.000119722914,-0.00028236478,-7.1977265e-05,2.8294511e-05,0.00027413137,-0.00034818274,9.000301e-06,-0.00043843975,0.00012468011,0.00029683625
C=CC(=O)OC(C)COC(C)COCC(CC)(COCC(C)OCC(C)OC(=O)C=C)COCC(C)OCC(C)OC(=O)C=C,-0.00017816265,0.00058366684,0.00079096947,-0.00072329165,0.00031185593,-0.00067147694,-0.00016459869,-0.0002750234,-7.7892095e-05,0.00018484332,0.0002990308,-0.00016811868,-9.1666356e-05,-0.00028225343,0.00013109215,0.00029764278
C=CC(=O)OCC(C)OCC(COCC(C)OC(=O)C=C)OCC(C)OC(=O)C=C,-7.8938436e-05,0.00010881759,0.00052652974,-0.00016244862,6.231433e-05,-8.320389e-05,1.7510727e-05,-7.532083e-05,-6.786641e-05,0.00011868728,8.4621104e-05,-0.00024664175,-0.00013007224,-0.00014222864,-7.936102e-05,0.00018105004
C=CC(=O)OCC(CC)(COCC(CC)(COC(=O)C=C)COC(=O)C=C)COC(=O)C=C,3.9467704e-05,0.0003161505,0.0005541211,-0.00027393433,0.00015649735,-0.0003105478,0.000105914194,-0.00019256631,-7.960573e-05,5.866075e-05,9.7524404e-05,-0.00020962337,-0.00017651403,-0.00017248391,-9.253132e-05,0.00021672808
C=CC(=O)OCC(CO)(COCC(COC(=O)C=C)(COC(=O)C=C)COC(=O)C=C)COC(=O)C=C,-3.7486316e-05,0.00057921745,0.0006438596,-0.00051364023,0.00020394055,-0.00056153175,2.5120564e-05,-0.0002956111,-9.018276e-05,0.00011017779,0.00020985791,-0.0002652317,-0.00013517495,-0.00015894172,-8.658972e-05,0.0003199391
O=C(OCCCCCCO)OCCCCCCOC(=O)OCCCCCCOC(=O)OCCCCCCOC(=O)OCCCCCCOC(=O)OCCCCCCOC(=O)OCCCCCCOC(=O)OCCCCCCOC(=O)OCCCCCCOC(=O)OCCCCCCOC(=O)OCCCCCCOC(=O)OCCCCCCOC(=O)OCCCCCCOC(=O)OCCCCCCO,0.0039395555,0.0026581609,0.0027897218,-0.004091446,0.00072539994,-0.004059068,0.0001175222,0.00050902925,0.0007414231,-0.0015449706,0.0036964715,-0.0019237311,0.001303595,-0.00067969755,-0.0013263386,0.003155793
OCc1cccc(CO)n1,-0.00013023606,-0.000342848,3.6670826e-05,0.00041396113,-0.00011048908,0.0005514247,1.4947727e-07,0.00028748577,9.529013e-05,-4.6915375e-06,6.589695e-05,-0.0002441114,0.00017988775,0.00024089636,-1.9965228e-06,-4.0872954e-05
CCCCCCCCCCCC(=O)[O][Sn]([CH2]CCC)([CH2]CCC)[O]C(=O)CCCCCCCCCCC,-6.3348736e-05,0.000270579,0.00030785892,-0.00016009994,0.00013728905,-0.00017715187,-5.9790444e-05,-0.00014940707,2.8529204e-05,-1.5564263e-05,0.000100009,-0.00017612812,-0.00014325744,-0.00020007713,-0.00014053052,0.00019575562
O=S(=O)([O-])C(F)(F)F.O=S(=O)([O-])C(F)(F)F.[Zn+2],-0.00013532848,-0.00016026828,0.0004907707,4.6180212e-05,8.358271e-05,5.6058052e-05,-0.00016647205,-8.278899e-05,5.2019022e-05,0.00026354147,-2.3008557e-05,-0.00016945857,-9.854557e-05,-6.4928317e-06,-0.00016127853,1.1301599e-05
CC(COCC(C)N1COc2ccccc2C1)OCC(C)OCC(C)N1COc2ccccc2C1,-9.276316e-05,-0.0001908869,0.0004045572,0.00011176709,0.00016293675,0.00037406146,-0.0001607202,1.7899903e-05,-1.3507903e-05,9.313412e-05,-1.8533232e-05,-0.00024802756,-7.680431e-05,-7.848133e-05,-0.00010138075,-3.8217753e-05
c1coc(CN2COc3ccccc3C2)c1,-9.0561545e-05,-0.00037170597,0.00014396477,0.00040190195,-7.91857e-07,0.0008043415,-6.23595e-05,0.00025852164,0.00014417805,7.873587e-05,-2.3308501e-05,-0.00028125543,6.6138804e-05,0.00020781305,2.0439504e-05,-0.00014010584
c1cc2ccc3ccc4ccc5ccc6ccc1c1c2c3c4c5c61,-0.00018811921,-0.00085108145,0.00025757495,0.0007765941,-8.350611e-05,0.0008733107,-0.00014343811,0.00022112567,0.000495797,7.834984e-05,-0.00016979617,-6.767989e-05,0.00013230601,0.00044231646,1.7154496e-05,8.3539635e-07
C=CCOc1ccc(SSc2ccc(OCC=C)cc2)cc1,-6.4238324e-05,-0.00036733528,9.9046156e-05,0.00038291287,6.827386e-05,0.00079448475,-0.0001248829,0.00018818944,-7.171184e-08,4.9463473e-05,-0.00015108922,-0.00019037956,4.231371e-05,0.00016881962,2.4542445e-05,-0.00010283524
C=CN1CCCC1=O,-0.00027609552,-0.00014465838,-1.180917e-06,0.00035478693,-0.00011870428,0.00052809174,9.40403e-05,0.00033417915,6.594602e-05,3.5864767e-05,4.1679275e-05,-0.0002039976,0.00017327908,0.00019183196,1.0626391e-06,1.8572435e-05
Cc1cc(C)c(C(=O)P(=O)(c2ccccc2)c2ccccc2)c(C)c1,-0.00021037096,-0.00044663087,0.00023655128,0.0003815373,4.3162145e-06,0.00054235896,-7.928442e-05,4.9575116e-05,0.00015068147,0.00015649386,-0.00014783925,-0.00027900067,3.8635917e-05,0.000110108405,-0.000173704,3.7642196e-05
C=Cc1ccc(C=C)cc1,-0.00022415405,-0.0004438085,0.00023687445,0.0004510071,-0.000113330316,0.0006212698,-4.3359585e-05,0.00030216156,0.00023356639,9.5088035e-07,5.359834e-05,-0.00016801612,0.00020196429,0.0003104562,-4.896545e-05,0.000114224385
C=CC(=O)OCCOCCOCCOCCOCCOCCOC(=O)C=C,-0.00010316033,-3.5015866e-05,0.0003415281,-3.0024676e-05,1.740316e-05,0.00040643927,1.783343e-05,0.00019250892,-0.00015222467,8.636573e-05,8.412084e-06,-0.000300931,3.870949e-05,-6.558484e-05,-4.4313492e-05,0.00012726337
CC(C)(c1ccc(Oc2ccc(C#N)c(C#N)c2)cc1)c1ccc(Oc2ccc(C#N)c(C#N)c2)cc1,-0.00010207386,-0.00029793358,0.00030259602,0.00010680873,0.00017514639,0.00021919303,-0.00022215582,-0.00020894327,0.00043166243,0.00023578294,7.608498e-05,7.823471e-05,1.0503456e-05,-6.4276916e-05,-7.213885e-05,-0.00031110598
Nc1cccc(Oc2ccc(S(=O)(=O)c3ccc(Oc4cccc(N)c4)cc3)cc2)c1,-0.00015178192,-0.00048785866,0.0002388237,0.00038531795,4.0793326e-05,0.00053307216,-0.00017917715,-0.00013533921,0.00032468233,0.00021769293,-3.1825504e-05,-0.00020462606,-1.1269469e-05,0.00018507981,-0.00023695384,-6.728247e-05
N#Cc1ccc(Oc2ccc(-c3ccccc3)cc2)c(C#N)c1,-0.00016611509,-0.0007386112,0.00020596664,0.000547213,2.7449802e-05,0.0008729205,-0.00027866615,0.00016860908,0.00018602703,0.00012419373,-0.00013783225,-0.00023439294,0.000109354034,0.00044598902,-5.39436e-05,1.4230143e-05
CC(C)(c1ccc(Oc2ccc(C(=O)c3ccc(Oc4ccccc4)cc3)cc2)cc1)c1ccc(Oc2ccc(C#N)cc2C#N)cc1,-8.357453e-05,-2.3539644e-05,0.0005574925,-0.00023833779,0.0003013094,-5.3738157e-05,-0.00035345647,-0.00048284733,0.0005074162,0.00030428218,6.301669e-05,8.638178e-05,0.00021275925,-0.00047534378,0.00015648187,-0.00011770241
CC(C)(c1ccc(Oc2ccc(C(=O)c3ccc(Oc4ccc(C(C)(C)c5ccc(Oc6ccc(C#N)cc6C#N)cc5)cc4)cc3)cc2)cc1)c1ccc(Oc2ccc(C#N)c(C#N)c2)cc1,0.0005781906,0.0007185829,0.0013101641,-0.00091415097,0.0012199825,-0.0013616363,0.0002771262,-0.00039331464,0.0015498716,0.00059656566,0.0010160164,-0.0003092746,0.0005319896,-0.00050301704,-4.597474e-05,0.00054089073
C=CC(=O)OCCCOc1ccc(C(=O)Oc2ccc(C)c(OC(=O)c3ccc(OCCCOC(=O)C=C)cc3)c2)cc1,5.5460812e-05,5.9588812e-05,0.000580661,-0.00035750843,0.00022433186,-0.0003931996,-0.000115124974,-0.00021905452,0.00014763791,0.00016366923,7.758278e-05,8.847826e-05,-1.971284e-05,-0.00030894726,3.9392384e-05,6.208336e-05
O=C(CCS)OCCC(COC(=O)CCS)(COC(=O)CCS)OC(=O)CCS,-0.00013266923,-1.4131423e-05,0.00045618694,7.640338e-06,7.771235e-05,0.00022745872,-1.0149088e-05,-6.707106e-05,-0.0001269225,3.753649e-05,1.0664808e-05,-0.00034230645,-1.4332123e-05,9.2274684e-05,-7.8710495e-05,0.000192679
CC(C)(O)C(=O)c1ccc(OCCO)cc1,-0.00016480271,-0.00040875305,0.00014806632,0.00035394606,3.2714335e-05,0.0006795298,-0.000112133566,0.0002823827,7.8131445e-05,0.00011716783,-2.903957e-05,-0.00022986793,0.00017743604,0.00022006623,-3.723381e-05,1.9816682e-05
C1CCOC1,-0.00018116605,-0.0001922187,-0.00015636627,0.0003545456,-0.00014471961,0.00051135453,7.558381e-05,0.0003795909,4.527159e-05,-3.7192833e-05,5.621856e-05,-0.00015037184,0.00013895473,0.0002459713,-3.0298717e-05,-0.000117491465
CCN(CC)CC,-0.00016832311,-0.00023180363,-1.3788231e-05,0.00030349538,-6.49516e-05,0.0005310982,2.6767608e-05,0.00034118257,4.562922e-05,1.4804769e-05,2.9380288e-05,-0.00024749164,0.00018794183,0.00013395742,-5.901931e-05,-9.901822e-06
Oc1ccc(Oc2ccc(O)cc2)cc1,-0.0001111149,-0.00061312853,0.00023167487,0.00054068887,-7.875147e-05,0.00084002165,-0.00016500102,0.00030912785,0.00022239983,0.00010107178,-3.093737e-05,-0.00025135966,0.00016844925,0.00046198728,-5.969056e-05,-2.948055e-05
C=O,-0.00020492024,-0.00029557315,-8.248724e-05,0.00036868785,-0.00018456974,0.00045629658,-4.5076013e-07,0.00041161897,0.0001278501,5.9837475e-07,6.8204914e-05,-9.95392e-05,0.00019139983,0.0003215056,-3.3845194e-05,-2.520252e-05
OB(O)O,-0.00013021781,-0.0002620977,-0.00011218339,0.000365137,-0.00012281397,0.0005020584,9.697862e-06,0.0003767024,7.7236444e-05,-4.6719797e-05,6.196441e-05,-0.00018642715,0.00016325712,0.00028962613,-6.529433e-05,-0.00011329306
O=C1C=CC(=O)N(c2ccc(Cc3ccc(N4C(=O)C=CC4=O)cc3)cc2)C1=O,-0.00015082955,-0.00012514205,0.00032060128,0.00016017712,0.000105882296,0.00015197387,1.505902e-05,-8.1229955e-05,8.501299e-05,0.00013409462,-0.00011875777,-0.00016457247,-4.4283923e-05,-7.3085655e-05,-4.4846674e-05,0.00014398294
Nc1ccccc1,-0.00014168874,-0.0002995527,-6.7878515e-05,0.00043257466,-0.00015454949,0.0005390502,-1.7094426e-05,0.00031670998,0.000109608285,1.0359567e-05,6.942611e-05,-0.0002211901,0.00013497844,0.0003294758,2.4323817e-06,-0.00011392729
Nc1ccc(N)cc1,-0.00017103637,-0.0004161026,6.322749e-05,0.00045087637,-0.00014402228,0.00062673836,-5.3777825e-05,0.00036565424,0.00017840508,-1.6204081e-05,3.498161e-05,-0.00023528357,0.00016751746,0.00036185578,-8.3385734e-05,-1.7933082e-05
Nc1cc(N)cc(N)c1,-0.00018561177,-0.000461051,0.00017764233,0.00042676227,-0.00011645327,0.00060994737,-0.0001520603,0.00030428264,0.00014723465,8.0511905e-05,2.0265841e-05,-0.00029246137,0.0001857793,0.00039314356,-9.306823e-05,4.7716778e-05
Nc1ccc(-c2ccc(N)c(N)c2)c(N)c1,-0.0001318852,-0.0005058388,0.00011232495,0.00046064367,-7.510604e-05,0.000766807,-0.00019652816,0.00024141092,0.00013416447,0.00014162343,-5.470612e-05,-0.00019961077,0.00014826655,0.0003955199,-6.4321794e-06,-0.00010426901
N#CC(CC=CCC1CO1)CCC=CCC1CO1,-0.00015169717,-0.00013788254,0.00020820647,0.00013415585,-3.097905e-05,0.00046279668,-1.8561259e-06,0.000267294,8.0913305e-06,2.4326611e-05,4.7950103e-05,-0.00028941862,0.000114202965,0.00010056741,-3.758259e-05,0.00012923079
N#CNC(=N)N,-0.00019532154,-0.000256174,5.346723e-06,0.0003289497,-7.8208046e-05,0.00051531044,-1.9713305e-05,0.0003615662,0.000101735815,2.8312672e-05,6.4702705e-05,-0.00023910869,0.00017171865,0.00023208518,-8.104136e-06,-1.4721416e-05
Nc1ccc(C(F)(F)F)c(-c2ccc(N)cc2C(F)(F)F)c1,-0.00018710866,-0.00036479044,0.00021620467,0.00026108517,1.994404e-05,0.00053402537,-0.00024224026,5.05168e-05,4.2104162e-05,0.00019281311,-9.787956e-05,-0.00025432522,-7.3513947e-06,7.050956e-05,-0.000115002505,5.9531536e-05
Nc1ccc(-c2ccc(N)c(C(F)(F)F)c2)c(C(F)(F)F)c1,-0.000115474104,-0.00024989038,0.00032819435,0.00014797924,3.1389063e-05,0.000435946,-0.00022586435,6.800925e-05,3.9822422e-05,0.0001718197,-3.9206236e-05,-0.00026117516,-3.281841e-05,6.8091555e-05,-4.758686e-05,-5.037943e-05
Nc1ccc(-c2nc3ccc(N)cc3[nH]2)cc1,-0.00013469934,-0.0006082251,0.00014024507,0.0005376432,-4.696194e-07,0.0009264257,-0.00019927556,0.00017931347,0.00016719941,0.00011190446,-4.4930144e-05,-0.00024025596,7.902691e-05,0.00038442895,-9.787269e-06,-6.8108086e-05
O=C1OC(=O)c2cc(-c3ccc4c(c3)C(=O)OC4=O)ccc21,-0.00014385901,-0.00036261766,0.00034265686,0.0003158088,0.000143921,0.0005992384,-9.449944e-05,0.00012266403,3.538374e-05,0.00010451721,-0.0001341523,-0.00019786501,-3.9952807e-05,3.0290917e-05,-3.6898302e-05,-3.5087578e-05
O=C1C=CN(c2ccc(Cc3ccc(N4C(=O)C=CC4=O)cc3)cc2)C1=O,-0.00013481549,-0.00031026755,0.0004635835,7.071346e-05,0.00011966843,0.00040472543,-0.0001746011,8.25522e-05,8.608215e-06,0.0001034718,-0.00011518656,-0.00021277997,-6.755814e-05,-0.00013969731,-7.0399605e-05,6.10454e-05
Cc1ccc(N=C=O)cc1N=C=O,-0.0001302555,-0.00040900032,0.0002981983,0.00029819622,-2.3938483e-05,0.00055431697,-7.840665e-05,0.0003097509,0.00015376136,0.00010958873,7.3566916e-06,-0.00026301813,0.00018078694,0.00020328921,-7.0323e-05,0.00011300761
CC1OC(=O)OC(C)C1=O,-0.00013785716,-0.00028755865,0.00020191539,0.0002684194,-8.267141e-05,0.000572008,-4.9985014e-05,0.00030701177,6.886106e-05,0.00016663969,4.2097265e-05,-0.00022259646,0.00013277773,0.00016016595,-3.726897e-05,4.2948406e-05
OCCCCCCO,-0.00017611196,-0.00018306659,-5.438924e-07,0.00035354012,-8.813897e-05,0.00046997538,7.9306774e-05,0.00035776023,7.229671e-05,-5.340157e-05,2.803278e-05,-0.00019059761,0.00019609276,0.00017808581,-5.4333592e-05,-2.3480039e-05
CCCCC(CC)C(=O)[O-].CCCCC(CC)C(=O)[O-].[Sn+2],-0.00024936598,-0.00018186797,0.00020890776,0.00011392159,8.574384e-05,0.0004577436,-0.0002151872,0.00011185091,-8.050352e-05,7.886905e-05,-8.343457e-06,-0.00023886975,2.5440007e-05,0.00011546275,-2.0779902e-05,4.736753e-05
O=C1OCCCO1,-0.0002093149,-0.00014834548,-6.489549e-05,0.00036165625,-8.246093e-05,0.0005352367,9.143725e-05,0.0003180412,3.6492012e-05,-3.6838464e-06,3.622807e-05,-0.00019551045,0.000147352,0.00013677526,-2.480112e-06,-9.5155556e-05
