smiles,z_0,z_1,z_2,z_3,z_4,z_5,z_6,z_7,z_8,z_9,z_10,z_11,z_12,z_13,z_14,z_15,z_16,z_17,z_18,z_19,z_20,z_21,z_22,z_23,z_24,z_25,z_26,z_27,z_28,z_29,z_30,z_31,z_32,z_33,z_34,z_35,z_36,z_37,z_38,z_39,z_40,z_41,z_42,z_43,z_44,z_45,z_46,z_47,z_48,z_49,z_50,z_51,z_52,z_53,z_54,z_55,z_56,z_57,z_58,z_59,z_60,z_61,z_62,z_63,z_64,z_65,z_66,z_67,z_68,z_69,z_70,z_71,z_72,z_73,z_74,z_75,z_76,z_77,z_78,z_79,z_80,z_81,z_82,z_83,z_84,z_85,z_86,z_87,z_88,z_89,z_90,z_91,z_92,z_93,z_94,z_95,z_96,z_97,z_98,z_99,z_100,z_101,z_102,z_103,z_104,z_105,z_106,z_107,z_108,z_109,z_110,z_111,z_112,z_113,z_114,z_115,z_116,z_117,z_118,z_119,z_120,z_121,z_122,z_123,z_124,z_125,z_126,z_127,z_128,z_129,z_130,z_131,z_132,z_133,z_134,z_135,z_136,z_137,z_138,z_139,z_140,z_141,z_142,z_143,z_144,z_145,z_146,z_147,z_148,z_149,z_150,z_151,z_152,z_153,z_154,z_155,z_156,z_157,z_158,z_159,z_160,z_161,z_162,z_163,z_164,z_165,z_166,z_167,z_168,z_169,z_170,z_171,z_172,z_173,z_174,z_175,z_176,z_177,z_178,z_179,z_180,z_181,z_182,z_183,z_184,z_185,z_186,z_187,z_188,z_189,z_190,z_191,z_192,z_193,z_194,z_195,z_196,z_197,z_198,z_199,z_200,z_201,z_202,z_203,z_204,z_205,z_206,z_207,z_208,z_209,z_210,z_211,z_212,z_213,z_214,z_215,z_216,z_217,z_218,z_219,z_220,z_221,z_222,z_223,z_224,z_225,z_226,z_227,z_228,z_229,z_230,z_231,z_232,z_233,z_234,z_235,z_236,z_237,z_238,z_239,z_240,z_241,z_242,z_243,z_244,z_245,z_246,z_247,z_248,z_249,z_250,z_251,z_252,z_253,z_254,z_255
C=CC(=O)OCCOCCOC(=O)C=C,-0.009973846,0.00064374786,0.0010481402,0.00916202,0.004004864,0.0060014287,0.0033229874,-0.02547681,0.016183257,-0.009289441,0.0020736959,-0.0059891334,-0.010974358,-0.01063632,-0.0008340627,0.0017261487,-0.011014013,-0.0029465612,-0.01072357,0.002691247,0.018215345,0.047728926,-0.0049222675,0.018613774,0.015472534,0.00500636,-0.011944222,-0.014639782,0.0061169276,0.025170414,0.097186215,0.019401822,-0.004309466,0.026993556,0.024955671,0.02615646,-0.012251517,-0.021962937,-0.025047902,-0.0022327742,-0.015730526,-0.00037663523,0.015235311,0.026278254,0.005809419,0.016535059,0.010469404,0.013836416,-0.0047448277,-0.006550527,-0.01817963,0.018581597,-0.021689123,0.0029156217,0.0009881426,0.004010734,-0.01045393,0.006225312,0.004018924,0.010016931,-0.0060992143,-0.027386043,-0.014812229,0.00022850372,0.0055867787,-0.0048144385,-0.0041098343,-0.01879742,0.0011066413,0.009340368,0.010031407,-0.037292894,-0.002303983,0.016001223,0.0092976,-0.0104385875,0.019069087,-0.0019386862,0.017401524,0.012964527,0.023423709,-0.0040021464,0.0048953053,0.00664362,-0.01794134,0.008859523,0.012179319,0.008325631,0.0026749875,0.017135078,0.018058904,0.0020379834,-0.0014488371,-0.005585957,0.0102001745,0.007610649,-0.0130528575,-0.015459504,0.0036291322,-0.004610753,0.017108982,0.018258926,0.0023686513,0.0044181794,-0.0030456353,0.0030807462,0.0038445045,-0.0006326372,0.017403584,-0.0038938355,-0.0059874887,0.005361248,0.012808657,-0.007618257,-0.0034136865,0.005317162,-0.0064918045,-0.006236689,-0.002569694,-0.008891212,-0.01529548,-0.004458237,-0.0036852788,0.008624923,-0.022972861,-0.0068461383,0.0012441669,0.026030567,-0.005145885,0.016115623,0.023414342,0.008109285,-0.011711096,0.0059727617,-0.033786662,0.0026519191,0.02740894,-0.0020087678,0.0035676402,0.012901041,0.0034627933,0.0013821293,0.016942523,0.009401787,0.025575135,0.0054116566,0.00090817106,0.015353762,-0.0013805218,-0.012077721,0.012810294,-0.017256748,-0.008406108,-0.014552372,-0.0034133792,-0.012756288,-0.023838073,0.0012808852,-0.025475293,-0.014057064,0.003554253,-0.055592485,0.0019687496,-0.00072546396,0.008895265,-0.007930113,0.0028163893,0.0056370925,0.016041787,0.012063095,0.005390032,-0.000696328,0.019670326,-0.023404703,-0.0095096845,-0.00059015956,-0.016266692,0.004548273,0.007316547,0.010216216,-0.01125663,-0.005518949,-0.01867872,0.01434448,-0.0023879483,-0.002266574,-0.0144593045,0.028820878,0.007163463,-0.022432813,0.0030973693,0.0030454602,0.034051683,-0.0012641829,-0.002113087,-0.02198102,0.007371586,0.010129917,-0.00607825,0.014724797,-0.037059046,-0.009105418,-0.013576797,-0.0037873108,0.004008659,-0.009038779,-0.008577661,0.002700144,0.007730547,-0.0056380266,-0.0045317574,-0.018006489,0.004496425,0.0019544885,0.0058565345,-0.024022922,-0.010436088,0.032046326,-0.008090914,-5.7846773e-07,-0.0054299133,0.018449802,-0.011658968,0.0040385686,-0.012900045,0.024311176,-0.008710897,0.0044229347,-0.004337491,-0.011086267,0.008259516,0.00803644,-0.0005676476,-0.0044970065,-0.01771281,0.011188524,-0.023252182,0.009278936,0.0030781548,0.010204264,0.003494855,0.0051315483,0.021697106,0.019729987,-0.0029055923,-0.012346751,-0.016673235,-0.011472279,0.025510551,-0.0108861355,-0.022010792,0.017244158,0.019444464,0.0016437098,-0.005883958,0.0071658585
C=CC(=O)OC(C)(C)C,-0.009805498,0.00033597648,0.0012676865,0.009198496,0.0036324589,0.005982073,0.0028229295,-0.02471475,0.015762968,-0.010035745,0.0019977205,-0.0076395525,-0.011268749,-0.011013186,-0.0014193058,0.0021197917,-0.010702857,-0.0025768084,-0.009760996,0.0019693668,0.018527364,0.0493631,-0.0046736924,0.01801766,0.01685242,0.0040763393,-0.011671693,-0.01323734,0.005117465,0.025292879,0.10329415,0.018835172,-0.0049333097,0.025109975,0.024054393,0.025376288,-0.01201684,-0.022076225,-0.025533706,-0.0014276608,-0.014736097,-0.0006399406,0.015979674,0.026219215,0.005349012,0.014984404,0.01014929,0.013555422,-0.004049141,-0.0070563634,-0.018274873,0.018069016,-0.021428842,0.0031988611,0.0016100444,0.005549264,-0.010721056,0.0055354903,0.003937669,0.009971527,-0.005187662,-0.027486458,-0.014618598,0.0008122511,0.0037261043,-0.005239297,-0.0028470783,-0.017767232,0.0016583651,0.008907246,0.0114195915,-0.03804808,-0.0034742085,0.016503768,0.008952466,-0.010592312,0.019254752,-0.0013579768,0.017209327,0.01227875,0.02485286,-0.005173021,0.00630482,0.005998886,-0.017132971,0.008533938,0.012067616,0.0076461425,0.0028013848,0.01732826,0.018361248,0.0012306506,-0.0030662427,-0.005178411,0.011383897,0.008102052,-0.013662655,-0.015165935,0.003910144,-0.0044506546,0.017665891,0.017844586,0.002376238,0.0035982225,-0.003916165,0.003096262,0.0035192955,0.00036837254,0.018313471,-0.0031446293,-0.0051446026,0.005116665,0.012468654,-0.0077809775,-0.0031015659,0.0065587107,-0.0048748287,-0.0056529064,-0.0012603533,-0.010332353,-0.014673085,-0.003565868,-0.001988301,0.008975327,-0.022218006,-0.006428882,0.001440268,0.025780007,-0.005796152,0.016085178,0.022594828,0.0074801724,-0.011981491,0.0058400175,-0.034659386,0.0022039171,0.028175728,-0.0028150803,0.0029558153,0.0139933955,0.0020380542,0.0005858131,0.01730723,0.008305857,0.026378265,0.004652759,0.00067438674,0.015800847,-0.0026687477,-0.011404926,0.013326693,-0.016228233,-0.008651467,-0.013381746,-0.003429282,-0.012062268,-0.022785176,0.0011305287,-0.025677405,-0.01463371,0.0036046132,-0.056301642,0.0026012326,-0.0011017201,0.008620753,-0.00862292,0.0024712854,0.0041650673,0.016004957,0.01271583,0.004915607,-0.0005691224,0.019640181,-0.022388577,-0.008422103,-0.0017481344,-0.015660355,0.005023632,0.009070264,0.009926275,-0.010015071,-0.00499223,-0.019622786,0.014535876,-0.0029857242,-0.0015571779,-0.014503423,0.02916559,0.005850669,-0.021783812,0.002662396,0.0036646752,0.03445478,-0.0013419352,-0.0026549976,-0.021157842,0.006255176,0.009524623,-0.0054609017,0.014548303,-0.038117476,-0.009585274,-0.012642774,-0.0036986545,0.0041335644,-0.008444588,-0.009700955,0.002379415,0.007715716,-0.005627062,-0.0059132637,-0.01798587,0.004861451,0.0013952181,0.0048820116,-0.024776345,-0.010760315,0.032310832,-0.006545661,-0.0008177849,-0.0069418047,0.018545147,-0.012428785,0.005246628,-0.011747291,0.022887817,-0.0075870045,0.004463615,-0.003912372,-0.011519633,0.007860338,0.00743453,-0.00067384355,-0.003618859,-0.017968558,0.0116922315,-0.02293744,0.009691669,0.0036412342,0.009578672,0.00384292,0.0041100206,0.020581266,0.018883664,-0.0038287695,-0.011313899,-0.01637468,-0.009909416,0.025267106,-0.010820703,-0.0228589,0.016278097,0.019706124,-7.984787e-05,-0.006586386,0.0071334876
COC(OC)(C(=O)c1ccccc1)c1ccccc1,-0.011042018,-0.0002117902,0.0027111284,0.008520605,0.0015828963,0.0070868623,0.002493706,-0.027157862,0.01741758,-0.011210239,0.0009143334,-0.0092434585,-0.011228225,-0.010506136,-0.00016238913,0.0032406151,-0.012560921,-0.0031887256,-0.010022046,0.0034788235,0.018670037,0.053707622,-0.006048973,0.018521117,0.017725542,0.0026595024,-0.012099806,-0.013044046,0.003980698,0.027743734,0.11053567,0.018662669,-0.0040889224,0.027917821,0.026124328,0.027585333,-0.014364385,-0.02404839,-0.026439562,-0.0012470909,-0.015379205,-0.0020776624,0.017683148,0.02844378,0.0060186014,0.0147330845,0.009397074,0.012141557,-0.0050455485,-0.006851076,-0.021145975,0.018315127,-0.024031775,0.0037522633,0.0010457747,0.0049591903,-0.012109024,0.0051756483,0.0048711337,0.0101201795,-0.0054399553,-0.029977892,-0.016905213,0.00029846467,0.0039900374,-0.004687951,-0.0037660962,-0.020392299,0.0014363825,0.010047455,0.012806455,-0.040497985,-0.002144686,0.017930144,0.009052061,-0.011515645,0.020452425,-0.0018220232,0.018147087,0.0121209575,0.026412226,-0.0045219176,0.006256543,0.007772463,-0.017792525,0.009108895,0.013043564,0.007459744,0.0029021455,0.020372583,0.021059679,0.0020776233,-0.0017459122,-0.0045196884,0.01154321,0.0085557345,-0.013462191,-0.016524134,0.0039047068,-0.0051152883,0.018037949,0.017962718,0.0017860774,0.0036978666,-0.004646329,0.003931977,0.0045967847,0.0027813213,0.019450765,-0.0027698455,-0.0067010457,0.005035309,0.013558044,-0.0077299746,-0.0048042703,0.0062180515,-0.004985068,-0.004794879,-0.0027991142,-0.010681378,-0.0151840085,-0.0034343204,-0.0013163853,0.009200382,-0.024779653,-0.006116643,0.0012313705,0.0273275,-0.005235645,0.016577728,0.024044007,0.006672848,-0.012559209,0.006057488,-0.03635356,0.004370474,0.03128867,-0.004633852,0.002675991,0.014814417,0.00429241,-0.0011292528,0.017166946,0.0072842985,0.027629165,0.0058340468,-0.00086814887,0.017937828,-0.0028799549,-0.013169257,0.014819562,-0.01801402,-0.00966461,-0.012501158,-0.0033795913,-0.014330808,-0.024611969,0.002983708,-0.028541408,-0.014923626,0.0049075335,-0.061416492,0.0035267763,-0.0005026292,0.0092156995,-0.01062683,0.0033270395,0.0055381795,0.018488538,0.0132757,0.004723049,0.00075731333,0.02040463,-0.024482865,-0.00909396,-0.0034352085,-0.01564491,0.0069048926,0.011160187,0.009908917,-0.011894582,-0.0068422384,-0.021212975,0.014202911,-0.001715186,-0.0012248957,-0.015330421,0.031371206,0.00588841,-0.024107503,0.0028476631,0.0032186173,0.036089867,-0.00021333061,-0.001745062,-0.023404768,0.009045644,0.0108286785,-0.0057015093,0.016699322,-0.04010213,-0.010558937,-0.013470728,-0.004068353,0.004500975,-0.009768101,-0.009995648,0.0012792549,0.00941452,-0.0045474153,-0.0074243266,-0.019737955,0.006685927,-0.0002279859,0.0039906343,-0.026738856,-0.0118303355,0.03521757,-0.007464244,8.3933235e-05,-0.007833072,0.019809961,-0.0151358675,0.005835083,-0.012260126,0.023832416,-0.008508578,0.0065931994,-0.004319162,-0.011271918,0.008950757,0.008553093,-0.0019135736,-0.004153883,-0.019155117,0.012245005,-0.025200434,0.009380727,0.0042481157,0.011799933,0.004052055,0.0049197203,0.023465266,0.02046293,-0.0043263156,-0.011251348,-0.018820139,-0.012167292,0.026207171,-0.011724731,-0.026650466,0.018566558,0.020154327,-0.0009588115,-0.006183823,0.0067892205
C=C(C)C(=O)OCCOCCOC(=O)C(=C)C,-0.009764675,0.00025455095,0.00059653074,0.007966134,0.0035678763,0.005498492,0.0036343741,-0.025258053,0.015432065,-0.009207276,0.003006123,-0.0058457195,-0.010516433,-0.009851398,-0.00032520108,0.0023185546,-0.011156418,-0.0028617727,-0.010995647,0.0019260538,0.01718728,0.045672804,-0.0053129997,0.018356293,0.014351552,0.0050487164,-0.011727844,-0.013801554,0.0047399346,0.024311852,0.09574969,0.017923422,-0.0048498567,0.02591921,0.02457036,0.025365384,-0.011967501,-0.02070779,-0.024140863,-0.0017225664,-0.014593683,-0.00054694805,0.014901434,0.025500765,0.0062256325,0.015428635,0.00958402,0.012395686,-0.00417261,-0.006410128,-0.017533524,0.017199017,-0.020884095,0.0031152526,0.0007938128,0.0046204845,-0.009818168,0.0057053175,0.0042608874,0.009446394,-0.0058269403,-0.026912913,-0.0143592395,0.00039237738,0.0057891794,-0.0045410735,-0.004695193,-0.017423414,0.0006749714,0.00900747,0.010338339,-0.035992593,-0.0014766334,0.015183739,0.007606481,-0.009931805,0.019227494,-0.0023798863,0.016752321,0.01209205,0.023073614,-0.0040491913,0.004876958,0.005523108,-0.016673613,0.00865664,0.012583561,0.007223818,0.0017387252,0.016104354,0.0181004,0.0027346415,-0.0009699622,-0.0049480186,0.008899964,0.0069881817,-0.013838164,-0.015241097,0.0035249246,-0.004462969,0.016312165,0.01788207,0.001978049,0.0029589776,-0.0028495025,0.002549192,0.0035973906,-0.0006663073,0.017483065,-0.0038047833,-0.0055229114,0.0052315556,0.0118998205,-0.0069476888,-0.0032633236,0.005516014,-0.0059757074,-0.0062609203,-0.0029528737,-0.008477485,-0.014229114,-0.004516483,-0.0037285853,0.009255543,-0.021776585,-0.006734799,0.001816662,0.024732709,-0.0053320043,0.01531593,0.022808965,0.008272221,-0.012236442,0.0065849368,-0.032114677,0.003047585,0.026298363,-0.0013611941,0.0034562554,0.012337817,0.003455134,0.0021240208,0.016867703,0.009999592,0.02477537,0.005470937,0.000429122,0.01497094,-0.0015431195,-0.011893963,0.013249092,-0.01704329,-0.007280098,-0.013937151,-0.0035438226,-0.012204362,-0.023534127,0.0018333178,-0.024234273,-0.014437173,0.0031031556,-0.05487314,0.0025651313,-0.00082868244,0.008338257,-0.007816484,0.0019003046,0.0054705916,0.015529433,0.011213452,0.0056971917,-0.00033222744,0.019165136,-0.02212207,-0.009824032,-0.00059334375,-0.016401848,0.0030281493,0.007334665,0.009468896,-0.011366678,-0.005525812,-0.017414173,0.014516756,-0.0023772437,-0.0019573725,-0.014254965,0.027870454,0.0068350113,-0.022834482,0.0025952263,0.0015641376,0.032680485,-0.0013219826,-0.002043116,-0.021481272,0.0072977915,0.0103998445,-0.006507815,0.013442079,-0.037087105,-0.009633034,-0.01377468,-0.0024962006,0.004419076,-0.008807507,-0.008423709,0.0019811527,0.0070133703,-0.005949391,-0.0047580944,-0.016941741,0.004508262,0.002773149,0.0056408234,-0.02347339,-0.010318557,0.030558296,-0.007808863,-0.00072355126,-0.005165459,0.01841636,-0.010846756,0.0045647253,-0.012238091,0.023501338,-0.00759881,0.0042455904,-0.005057086,-0.011585362,0.007573221,0.008305121,-0.00030270498,-0.0045665214,-0.017324407,0.009627919,-0.023404952,0.008183731,0.0026882961,0.010641834,0.0039310255,0.0054519367,0.020970477,0.019762846,-0.003565887,-0.0113898,-0.015563777,-0.010998415,0.024727633,-0.011196475,-0.020783156,0.016526032,0.019488787,0.0010509733,-0.005726177,0.006651488
C=CC(=O)OCCOCCOCCOCCOC(=O)C=C,-0.010009403,-7.707067e-05,0.00045028422,0.008475041,0.0036574048,0.006186513,0.0036270395,-0.02529893,0.014764666,-0.009201257,0.002889785,-0.005336957,-0.01008449,-0.009996603,-0.0004105568,0.0019968618,-0.01089615,-0.0026285416,-0.011059122,0.0018959274,0.01728698,0.04474511,-0.0056400364,0.01887817,0.01392786,0.0055151386,-0.012190992,-0.014905406,0.0059887655,0.024731202,0.0915759,0.018265627,-0.004154341,0.026197074,0.023846414,0.025147108,-0.011860869,-0.020906596,-0.023339732,-0.002367781,-0.015181005,-0.00030003116,0.013984832,0.025386754,0.0061446037,0.016490154,0.009580378,0.0130141415,-0.0049649854,-0.0060776128,-0.01745924,0.017424151,-0.021232827,0.0036086403,0.0011476725,0.003311571,-0.009636199,0.0059492,0.0038790684,0.009346206,-0.0060262033,-0.026623739,-0.014051219,0.00013777614,0.006310517,-0.004361341,-0.0047098147,-0.017804962,0.00075314846,0.008709023,0.0091888495,-0.03514419,-0.000986957,0.015315447,0.008849374,-0.0096234605,0.01939002,-0.0027256957,0.016985059,0.0117628155,0.02247737,-0.003275551,0.005011687,0.0057850066,-0.01666381,0.009306678,0.0120625645,0.00834503,0.0016569952,0.015644902,0.01760878,0.0023822328,-0.0007893322,-0.005926166,0.009234896,0.0075836014,-0.012630063,-0.015727526,0.0033419533,-0.0047186604,0.015999801,0.018122397,0.0021051262,0.0034684278,-0.0023763645,0.0027594846,0.0033554311,-0.0013562264,0.017085182,-0.0039852923,-0.005431884,0.004906794,0.011346991,-0.0070761917,-0.0031902092,0.0049930443,-0.0068583256,-0.0062555727,-0.0031724889,-0.0076474445,-0.014707434,-0.0050606797,-0.0042300057,0.009086395,-0.021976804,-0.007408715,0.0017217118,0.024407044,-0.004731889,0.015789967,0.023047637,0.008262331,-0.011809966,0.006714523,-0.03203425,0.003493905,0.02559956,-0.00082856,0.003586751,0.01218143,0.0036245082,0.0028354172,0.016360233,0.010420756,0.023909818,0.0051587597,0.0010801195,0.014045512,-0.0009905566,-0.012263423,0.012823451,-0.017095897,-0.007201183,-0.014183126,-0.0034964022,-0.012397502,-0.023435809,0.0015822724,-0.023558013,-0.0140447775,0.003357334,-0.053348348,0.0020663703,-0.0004391335,0.008357235,-0.0075407033,0.0017198124,0.006211443,0.014735861,0.010705488,0.0054578977,-0.00078894384,0.018910605,-0.022738878,-0.010048246,-0.0001662299,-0.016675642,0.0031654362,0.0061244704,0.009589168,-0.011123252,-0.005632325,-0.016851302,0.014324389,-0.0019707698,-0.0021108973,-0.01468293,0.027634215,0.007596123,-0.0225514,0.0035081925,0.0017028376,0.03269426,-0.002421273,-0.0016975608,-0.021392405,0.007613551,0.010494528,-0.006960227,0.013447135,-0.0366257,-0.008747436,-0.014025101,-0.003281149,0.004054158,-0.009139703,-0.007690168,0.0023349156,0.007295129,-0.005727602,-0.0042222184,-0.017295485,0.0037617898,0.002801884,0.0056131687,-0.023099383,-0.010173343,0.030475259,-0.008469071,4.0442683e-05,-0.0049460884,0.017944243,-0.009899,0.0033974056,-0.012819203,0.023941195,-0.007867871,0.004092807,-0.0048794285,-0.0110299615,0.0074011926,0.008570673,-0.0003311308,-0.0044984184,-0.017428758,0.009601912,-0.02284164,0.008924127,0.0023139725,0.010678081,0.0039171167,0.0057193367,0.021098798,0.019645976,-0.0029511536,-0.011544284,-0.0156036485,-0.011376845,0.024820775,-0.010555999,-0.020018488,0.016650362,0.019143386,0.001676485,-0.0055504474,0.0065364596
C=CC(=O)OCCOCCOCCOCCOCCOCCOCCOCCOCCOCCOC(=O)C=C,-0.0055018454,-0.0019605896,0.0022890177,0.003539688,0.006336012,0.00085315574,0.0010592705,-0.020956282,0.0048366073,-0.007897252,0.0035567926,-0.003308231,-0.0012813937,-0.0053419014,-0.0013294499,0.0005190037,-0.007830981,-0.00326302,-0.008008644,-0.003636246,0.012606789,0.024780652,-0.0019737035,0.016082209,0.0056656506,0.009086103,-0.012533813,-0.017275628,0.0063391225,0.013663389,0.046737373,0.013761367,-0.00216053,0.01934452,0.017818268,0.01790707,-0.008262565,-0.0115805045,-0.01269822,-0.0026104203,-0.013615202,-0.0018881075,0.008652945,0.018013708,0.004792276,0.014175524,0.0073877657,0.008888823,-0.0045993985,-0.0037664333,-0.009473602,0.007930251,-0.0121843945,0.0010441076,4.318729e-05,0.0010497584,-0.0054678223,0.0036590835,-0.00043884479,0.006782746,-0.0026408408,-0.018939227,-0.008690376,-0.00062444806,0.011126203,0.0005220119,-0.0034636026,-0.012627098,-0.0011639763,0.0049249274,0.001825031,-0.020574082,0.0038210908,0.008069865,0.0059616845,-0.0054510627,0.01314439,-0.0038317717,0.013721254,0.0032835284,0.0136277685,-0.0034382036,0.004304833,0.00450048,-0.010742016,0.011004841,0.009207901,0.0054698093,-0.0037080236,0.008436939,0.011579299,0.0026034089,0.00088893436,-0.003219164,0.004429929,0.0046271607,-0.008207488,-0.015121863,-0.0010162005,-0.003716032,0.00821261,0.013815826,0.0024003424,0.0011136252,0.0016074162,0.0019872878,0.001432766,-0.0076991958,0.013555841,-0.0013228077,-0.003631358,0.004811054,0.0025089737,-0.0043983376,0.0018350352,0.0065896157,-0.0042089312,-0.008146299,-0.0036487542,-0.0015520863,-0.010686195,-0.0070472485,-0.006605787,0.009560406,-0.011486223,-0.009428533,0.0021901745,0.016946983,-0.0022695179,0.0096505135,0.015338429,0.009442266,-0.007925505,0.006863476,-0.020631313,0.0025159647,0.016830226,0.0021999478,0.0035378193,0.005110317,0.004477592,0.010288674,0.010420339,0.012029087,0.014984953,0.0015175696,0.004581617,0.0044053122,0.00024819747,-0.009775702,0.009106532,-0.013104068,-0.005920082,-0.006856559,2.3052562e-05,-0.0129045285,-0.01749849,-0.00016942248,-0.010370957,-0.009057933,0.00011512637,-0.03238394,0.0009434861,-7.6466706e-05,0.006188418,-0.003616355,-0.0018637581,0.008007742,0.0047018183,0.0036570365,0.0051315883,-0.00027096597,0.013299282,-0.010683406,-0.01018467,0.0006176811,-0.016214449,0.00062594283,0.002288282,0.0075627463,-0.009316654,-0.004544149,-0.006947726,0.011579677,-0.0030916072,-0.002240499,-0.011660371,0.017825842,0.0069835773,-0.017474724,0.0018952023,-0.00170427,0.020732297,-0.0038821455,-0.0036118124,-0.010593168,0.00446729,0.008803658,-0.0073349383,0.0060810293,-0.026616378,-0.0023593223,-0.012276684,0.0019461019,0.004137435,-0.004721566,-0.0060345335,0.0048324163,0.0036700396,-0.005765317,0.00043604756,-0.01411268,-0.0012474763,0.0041061686,0.003500072,-0.013416543,-0.0056506433,0.01873846,-0.0036379602,-0.0013186506,-0.0034126295,0.0074787177,-0.00357325,-0.0006254809,-0.01344257,0.020914389,-0.0029662028,0.0023781229,-0.0008772961,-0.003906086,0.0055518914,0.007844707,5.538296e-05,-0.0058068363,-0.010782978,-0.00045893597,-0.015697442,0.0037689554,-0.00028809998,0.012276789,0.002673043,0.0056972583,0.011598995,0.015406949,-0.0013680002,-0.006531193,-0.0059605185,-0.008946521,0.015393158,-0.0050230986,-0.007853728,0.0113759525,0.01263017,0.00055287033,-0.008424237,0.0025801007
C=C(C)C(=O)OCCOCCOCCOCCOC(=O)C(=C)C,-0.009420592,-0.0010014363,0.00012669154,0.0068861023,0.0040223193,0.0056782244,0.002739802,-0.025594495,0.01318679,-0.009318895,0.0039542774,-0.0047872374,-0.008090346,-0.009302899,-0.00033488125,0.0020192768,-0.010465147,-0.0031038728,-0.010692738,0.0009944295,0.016101196,0.04261954,-0.005694994,0.018041937,0.013076294,0.0057988707,-0.01230155,-0.014503891,0.0058616977,0.023427788,0.088270046,0.016473193,-0.0043206234,0.024706794,0.023944907,0.023955489,-0.011974499,-0.019720957,-0.021811655,-0.0015187893,-0.015056118,-0.00070889015,0.013708643,0.024714585,0.005863024,0.015954576,0.008586534,0.011663575,-0.004986901,-0.005652288,-0.01659524,0.015479621,-0.020185545,0.0041206377,0.0012833942,0.00381758,-0.009386439,0.0053811446,0.0040382836,0.009480151,-0.0055430606,-0.026450135,-0.013340166,-3.0608848e-05,0.006708177,-0.0036705602,-0.0050128074,-0.016749721,0.0006436175,0.008071211,0.008662824,-0.032735616,-0.00029196497,0.014535187,0.007322057,-0.008993769,0.018551335,-0.0027719722,0.016267177,0.010403347,0.02169137,-0.003070456,0.0053502526,0.004752025,-0.015008067,0.009082921,0.01274183,0.0077954447,-0.00025551673,0.014921276,0.017922832,0.0025427444,-0.0010100165,-0.0048199957,0.008140631,0.0068280185,-0.013027327,-0.016153028,0.002456395,-0.0043543503,0.01454956,0.01752491,0.0021783188,0.00247306,-0.001895763,0.0026081335,0.0022437868,-0.0017837537,0.017362501,-0.003556979,-0.004913111,0.004640327,0.009361601,-0.006863308,-0.0019137338,0.0057940334,-0.0058694878,-0.0062898137,-0.0035524238,-0.007035032,-0.014178238,-0.0055068373,-0.0047480594,0.010183383,-0.02026388,-0.007793966,0.0022143722,0.02282086,-0.0045780744,0.014468462,0.021469872,0.0090560075,-0.01255974,0.0069536166,-0.030013327,0.003846523,0.024124859,-0.0008324089,0.00332022,0.011332741,0.003469525,0.004249744,0.016203996,0.01108543,0.02293156,0.004876569,0.0012763441,0.012557238,-0.0015778132,-0.012509864,0.013220411,-0.016589008,-0.00668491,-0.012549829,-0.0028852702,-0.012689831,-0.023219593,0.0018524751,-0.021150723,-0.014344629,0.0022486933,-0.051728465,0.0019411629,-0.0008931849,0.008326955,-0.007359333,0.00027758535,0.0059878677,0.013485574,0.008994019,0.0058192248,-0.00013858639,0.018013556,-0.020068057,-0.010273741,-0.0008020522,-0.016851818,0.0024513907,0.0067474525,0.009055236,-0.011124893,-0.0051788306,-0.014964733,0.013934195,-0.0030831387,-0.0021340796,-0.014270317,0.026559405,0.007404493,-0.022048162,0.0026781373,0.00038700737,0.031035941,-0.002048986,-0.0020142673,-0.019124448,0.0073235035,0.010632694,-0.0071630403,0.011992897,-0.036791384,-0.008919397,-0.013399256,-0.001358348,0.0046839323,-0.008363003,-0.00790982,0.0014449353,0.0066824756,-0.0061677275,-0.004239033,-0.016341066,0.003461156,0.0032812096,0.0053745816,-0.022231542,-0.0096284505,0.028184276,-0.007251106,-0.00032023736,-0.0048609637,0.01693769,-0.009854272,0.00341556,-0.012627067,0.023166448,-0.0070573296,0.0039679743,-0.005038753,-0.010656537,0.0070800353,0.00805158,-0.00016619172,-0.0043184757,-0.017296337,0.00786197,-0.02280191,0.007185675,0.0017725248,0.011092058,0.0038218303,0.00566999,0.020607745,0.01973692,-0.0035947328,-0.010643934,-0.013884777,-0.010587899,0.0235686,-0.010304984,-0.018057177,0.015567457,0.019309087,0.0005754009,-0.005991559,0.0061467513
C=C(C)C(=O)OCCOCCOCCOCCOCCOCCOCCOCCOCCOC(=O)C(=C)C,-0.004344801,-0.002211093,0.003390273,0.0018541999,0.0063483473,-0.00064076576,0.000999951,-0.019344676,0.0027981838,-0.0070694583,0.0033627655,-0.0033790302,0.00014084391,-0.004181396,-0.0013066661,0.00073014945,-0.007408448,-0.0037545664,-0.0071141543,-0.004118581,0.011041256,0.020280113,-0.0014312677,0.014289687,0.0039577615,0.009273173,-0.011627414,-0.015452007,0.0054362603,0.010250574,0.040677324,0.012433163,-0.002633275,0.01757998,0.01588381,0.01574474,-0.006904703,-0.0092518395,-0.010867054,-0.00218808,-0.012177985,-0.0022823159,0.0077210134,0.016291983,0.0048686843,0.01298109,0.006784306,0.0066603497,-0.00403062,-0.0031386772,-0.0074020065,0.005976564,-0.009554124,0.0004238356,-0.0002382733,0.00091170706,-0.003642283,0.0030844547,-0.00073267706,0.005132305,-0.0020239295,-0.017365675,-0.007536404,-0.00053430535,0.011075037,0.0017262762,-0.0029017916,-0.010717499,-0.0016018534,0.004737229,0.0014594436,-0.017668406,0.004413842,0.00690196,0.0041959975,-0.0041008815,0.011999181,-0.0041681887,0.0123546515,0.0014340973,0.011028267,-0.0040004514,0.0041567627,0.0035574085,-0.00894096,0.010675658,0.008304207,0.004281014,-0.004239754,0.0069048908,0.010279728,0.0025830744,0.0015034284,-0.002875384,0.0030213352,0.0034124805,-0.0075629447,-0.014613867,-0.0016808324,-0.003382661,0.0068771336,0.012184415,0.0019768067,-0.00023872219,0.0013834815,0.0015032869,0.0015293786,-0.008573493,0.012113206,-0.00027382374,-0.0033835974,0.004142468,0.0012688721,-0.0030553897,0.0018190118,0.006750227,-0.0029213764,-0.0083802175,-0.0037946943,-0.0011276687,-0.0085208,-0.006530152,-0.0061442424,0.009104066,-0.0090708565,-0.009098177,0.0022230856,0.014245103,-0.0025966703,0.0077185044,0.013599871,0.009397704,-0.0071939044,0.006504978,-0.017833639,0.0023317034,0.015290147,0.0026170108,0.0035799588,0.0041258195,0.0043352842,0.010486979,0.009384212,0.012063458,0.012964266,0.0013024714,0.004896003,0.003048364,0.00064685196,-0.008333086,0.008412357,-0.011391336,-0.0057186666,-0.004936129,0.0010921923,-0.011710094,-0.015977435,0.00016523898,-0.0077583627,-0.008374089,-0.00050789304,-0.028590264,0.0015004019,-0.0005178959,0.0052551664,-0.0025760517,-0.0024525812,0.007960957,0.003042656,0.0026041432,0.004602642,0.0001916266,0.012091846,-0.008089073,-0.009869465,0.0006936947,-0.015626874,-0.0003231624,0.0014731735,0.0063714636,-0.008539001,-0.0047752727,-0.0051519005,0.010775777,-0.0035013743,-0.0015007923,-0.010566246,0.014769513,0.005856394,-0.015716882,0.0011482574,-0.0028458983,0.017301723,-0.003245145,-0.004602641,-0.00875193,0.003393827,0.0075279144,-0.0071241227,0.0041146814,-0.02431307,-0.0012656283,-0.0114941085,0.0031057522,0.004135696,-0.0037504486,-0.005436088,0.0050959247,0.0016742582,-0.005539461,0.0010721958,-0.012565911,-0.0018186558,0.0043788925,0.0028132668,-0.011441544,-0.0045860335,0.016268112,-0.0028133541,-0.002357166,-0.003032704,0.005964319,-0.0020567179,-0.0010898085,-0.012070665,0.018961655,-0.0017509647,0.0020855814,0.00014131004,-0.0028927457,0.0040520374,0.0075156093,0.00091286004,-0.005809199,-0.009023231,-0.0028592392,-0.014278553,0.0024705017,-0.0002663033,0.011454925,0.002187144,0.005387337,0.009680746,0.014029549,-0.001797609,-0.0049484083,-0.0038033668,-0.0070704687,0.013028777,-0.003848123,-0.0058342945,0.009549169,0.010670537,-1.0399148e-05,-0.00862022,0.0023119953
c1ccc2c(c1)-c1ccccc1C2(c1ccc(OCCOCC2CO2)cc1)c1ccc(OCCOCC2CO2)cc1,-0.0006134785,-0.0037415838,0.006182857,-0.005157603,0.0032670172,-0.004252904,-0.0027059645,-0.0063976524,-0.010329136,-0.0012006843,0.0031787613,-0.004117734,0.006887745,0.0010050377,-0.0010567419,0.0031171553,-0.002448761,-0.00609692,0.0018875771,-0.003865182,0.0005887393,-0.0021451581,0.0013290159,0.0012968506,-0.006580501,0.0039959187,-0.005386765,-0.0074551757,0.00079802796,-0.0027301144,-0.0026922245,0.00048459787,0.003947067,0.0021795186,0.0048007574,0.00031255744,0.00040644128,0.006138922,0.0023658415,-0.0020088353,-0.004740022,-0.0009709634,-0.002819947,0.005581285,-4.614517e-05,0.0020742118,0.00023750681,-0.002511818,-0.0019642906,-0.0008291304,0.0030940212,-0.0025952347,0.00214722,-0.0021329187,-0.004951205,-0.0022400552,-8.186698e-05,0.0025048312,-0.0008750763,-0.0014152816,0.0069952034,-0.005880761,0.0005129138,0.0012146998,0.007658828,0.008534745,0.0016977964,-0.00032681413,-0.0029694098,-0.0014927605,-0.0033576284,0.0010606181,0.0065524513,-0.0015755631,0.0021438133,0.0021092873,0.001733114,-0.0037804716,0.0018072659,-0.0049689356,-0.0017026989,-0.0035871994,0.0039053224,-0.0016368185,0.0018175421,0.0038241954,-4.71808e-05,-0.0011686403,-0.0065281717,0.0024758093,-0.0014584768,-0.0009074649,0.0053145085,0.0007279767,-0.0011446681,0.0010449501,0.0030752681,-0.0056108455,-0.0053197234,-0.0014846325,-0.0011747293,0.0014989972,0.0020642206,-0.001947593,0.0023670867,0.0013134051,0.00031766086,-0.010991888,0.003667673,0.003084669,-0.0019981219,0.0012384625,-0.00875709,-0.0018716955,0.0017366558,0.0051713986,-0.00080798194,-0.0011471063,-0.0008444935,0.0037476532,0.001419411,-0.0006045778,-0.001555698,0.0038770814,0.0025625546,-0.0069300886,0.0050876494,-0.0005100253,-0.0015628447,0.00043985248,0.0029368168,0.004982015,0.0010366114,-0.0007921824,-0.0010493202,0.0019824398,0.0005625603,0.0019460004,0.00074730697,-0.0017298777,0.0023115948,0.0048903823,0.00097878,0.005857749,-0.00028901175,-0.003512526,0.0013766943,-0.0043906495,-0.0005185362,-0.00086333137,0.0016850363,-0.0037025465,-0.0017002947,0.0063161347,0.007712289,-0.0032327473,-0.0018588956,-0.00017711148,0.0028037336,-0.0037711114,-0.0008031111,-0.0053946367,0.0009581938,-0.0026355,0.0008383272,0.00093137333,-0.0022632505,0.0029498646,-0.0063261325,-0.0033260784,-0.0015799608,0.0028520809,0.001013468,0.0052485783,-0.0048209564,-0.0012494242,-0.008329712,0.0008838945,3.588386e-05,0.003134029,-0.0042334325,-0.0033999616,0.0045306613,-0.00025643408,-0.0034403987,-0.0005785441,2.767425e-06,-0.0005775634,-0.0003311392,-0.00080052577,-0.0016861139,-0.0015790146,0.0005428139,0.00040429085,-0.004003223,0.0023983056,-0.00071162917,0.0029096697,-0.0020102793,-0.00015297998,-0.0065032495,0.0052106846,-0.0053383773,0.0028409995,0.0028875917,0.0027112802,0.0022878386,0.0047032735,-0.0012582853,0.00014004111,0.002329817,-0.0057881405,-0.0036665718,0.0006930642,-0.003052694,-0.00040358352,0.0058468776,0.00314744,0.00085213594,-0.0029076692,-0.0013703015,-0.006220503,0.0035024676,-0.004097825,-0.0053885337,0.0041547753,0.0020201802,-0.0012949016,0.0027073794,0.007571345,-0.0014604861,0.0010145251,0.0033232882,-0.003432959,-7.097423e-05,-0.008092374,0.00018786639,-0.0008237865,-0.0022196574,0.0066149924,-0.0010321895,0.00072864885,-0.003152892,0.0034707687,-0.0014902223,0.005653557,0.006011839,-0.002287859,0.0021044584,0.001997521,0.0021541063,-2.711406e-05,-0.006821424,-0.0034664497,-0.003999131,-0.0023296718
Nc1ccc(S(=O)(=O)c2ccc(N)cc2)cc1,-0.011617059,-0.0011365265,0.0028506713,0.008367311,0.00081333786,0.0058426615,0.0025996296,-0.02756707,0.017865818,-0.011639472,0.0016673021,-0.009802477,-0.011084745,-0.009645238,-0.00011762418,0.0035419725,-0.013785884,-0.0032066572,-0.010573225,0.0022160406,0.019238476,0.05390472,-0.005252459,0.019296996,0.01753109,0.0031707026,-0.012246881,-0.0130231995,0.0031711096,0.027375147,0.112133026,0.018576078,-0.004602922,0.028766397,0.027921826,0.028545389,-0.014212871,-0.024401974,-0.02684549,-0.0017743277,-0.0156193115,-0.0024128333,0.01885309,0.028639523,0.006785471,0.014035509,0.009853789,0.011346095,-0.004222216,-0.007693234,-0.020744452,0.018550284,-0.023742888,0.0037013255,4.015863e-06,0.005346536,-0.012176016,0.005007172,0.0043854546,0.010315719,-0.004528608,-0.031450197,-0.015938018,-0.00044873357,0.0038912706,-0.00405641,-0.0036127092,-0.020556524,0.0010395003,0.009826319,0.013707299,-0.0405245,-0.0027122768,0.017031603,0.008880411,-0.012844568,0.021292087,-0.0019807625,0.018213525,0.011501762,0.026914261,-0.005731307,0.005342018,0.0062131686,-0.018157445,0.0095739905,0.014107753,0.0071936534,0.002803729,0.0198924,0.02115215,0.0017135292,-0.001802682,-0.0038625733,0.01062984,0.00791674,-0.014020402,-0.016063375,0.003926561,-0.0047309157,0.01689108,0.018309057,0.0019734707,0.0032041073,-0.0042714905,0.003110759,0.0050136894,0.002899197,0.01948046,-0.002614745,-0.006359366,0.005557662,0.013367304,-0.007898558,-0.0039747376,0.006991247,-0.004743551,-0.0046109967,-0.0020688456,-0.011388842,-0.015544479,-0.0039724815,-0.001034095,0.009854243,-0.024965892,-0.0065104137,0.0014217999,0.02789013,-0.0056815823,0.015937557,0.024319846,0.0074903686,-0.013446311,0.006535358,-0.037407715,0.003791857,0.03170245,-0.0050252494,0.003477985,0.015617181,0.003978938,-0.00039115734,0.01816244,0.0075493576,0.028615609,0.0062605347,-0.00077402894,0.018820422,-0.0029023886,-0.012646265,0.015004568,-0.018477788,-0.008652074,-0.01212908,-0.002764299,-0.014421307,-0.025200412,0.0027702842,-0.028900776,-0.0157137,0.0048177354,-0.06301151,0.0038886096,-0.0017292863,0.009439096,-0.010601347,0.0029882602,0.005069485,0.018695373,0.013359768,0.0051900996,0.001506567,0.020608887,-0.023430135,-0.00803422,-0.0033399342,-0.016279241,0.0066988263,0.011896154,0.010690686,-0.012905923,-0.0064784116,-0.021528346,0.014878761,-0.0018517962,-0.00058262143,-0.01500022,0.030445423,0.005352979,-0.025065603,0.002119449,0.0027761701,0.035753503,6.1893836e-05,-0.0020561311,-0.023151925,0.008665338,0.010317428,-0.006001092,0.016712308,-0.04131776,-0.011026118,-0.014403432,-0.0033151405,0.005587466,-0.009505885,-0.010536724,0.0017215651,0.008938979,-0.005475551,-0.008130968,-0.019925054,0.0067401384,0.00033194572,0.0036669413,-0.02695102,-0.011777686,0.03480469,-0.006948691,0.000443473,-0.0077076806,0.02046327,-0.01520445,0.0054411325,-0.011709144,0.0243235,-0.0077092517,0.005818432,-0.0034968657,-0.011049025,0.0085703395,0.008438209,-0.0010957988,-0.004796759,-0.018910808,0.011110231,-0.027342848,0.009225822,0.004180206,0.012362763,0.003953989,0.0052072355,0.022587897,0.021458885,-0.004353094,-0.011414572,-0.01873955,-0.01283096,0.027103454,-0.01243911,-0.026019191,0.01767722,0.021420602,-0.0022488348,-0.006519778,0.006511881
CC(C)(c1ccc(OCC2CO2)cc1)c1ccc(OCC2CO2)cc1,-0.011419214,-0.0021646898,0.001985537,0.0063183457,0.0035037077,0.0043624127,0.0016522703,-0.028788675,0.013989426,-0.012018543,0.0023446176,-0.007303645,-0.007813549,-0.009896593,-0.0008880086,0.0028509656,-0.012081497,-0.004256691,-0.0095047,0.00038287742,0.017297767,0.048479415,-0.004984751,0.019908467,0.014568674,0.004041249,-0.012417359,-0.01500571,0.0047712764,0.026507981,0.099972956,0.017162818,-0.0022610337,0.02844989,0.027751613,0.026465913,-0.014955411,-0.021550503,-0.024874927,-0.00199894,-0.016425434,-0.0021416983,0.017074537,0.030187499,0.006511407,0.015133928,0.008409343,0.011195834,-0.0058291084,-0.00785256,-0.019978005,0.017726472,-0.02094479,0.0042888317,-0.001861345,0.0052946433,-0.010818146,0.0060921693,0.004455424,0.009844455,-0.004463927,-0.029483885,-0.0147236325,-0.0006341357,0.005422825,-0.0026729614,-0.004002941,-0.020642772,0.00093963277,0.00924653,0.011108763,-0.038045682,0.00036670454,0.01726017,0.008919029,-0.01019422,0.018190268,-0.0023180335,0.018171292,0.010214089,0.024055269,-0.004543812,0.00511939,0.006998024,-0.016638502,0.01097811,0.013982341,0.0071541006,-0.0005380884,0.019330164,0.021850258,0.0012202933,-0.001009455,-0.0026321067,0.009404976,0.0073861107,-0.012641589,-0.016942054,0.001333625,-0.005973709,0.015309741,0.01848821,0.0027926508,0.0022402927,-0.0012625214,0.0036687646,0.004026646,-0.001760425,0.020867445,-0.0022889376,-0.005298457,0.0054046502,0.009739646,-0.0075951926,-0.0033637537,0.0076883854,-0.004997706,-0.0063342657,-0.0019488409,-0.009012277,-0.016865376,-0.005315619,-0.0039334223,0.011708279,-0.022343485,-0.008963159,0.0019563735,0.027043656,-0.0043860935,0.015319139,0.023717891,0.008941511,-0.012233606,0.00639812,-0.03352712,0.00498704,0.028951088,-0.004665787,0.0025365022,0.013305457,0.00481092,0.0022089556,0.01716869,0.010531647,0.027639505,0.0039422754,0.00019450556,0.014841024,-0.0033574626,-0.014277654,0.014096171,-0.019148244,-0.008244975,-0.009574622,-0.0017278749,-0.014907964,-0.02307272,0.0016142875,-0.02600729,-0.014444258,0.003737567,-0.0588822,0.002737729,-0.0003021052,0.009265023,-0.010271901,0.001319298,0.0064641424,0.014543701,0.010831267,0.0046510464,0.0012354963,0.020689834,-0.020067208,-0.009740729,-0.0016834782,-0.017983139,0.005720015,0.010716103,0.011155451,-0.012772446,-0.0057952963,-0.018933086,0.014798194,-0.0037265988,-0.0009452414,-0.014420405,0.030556528,0.0053099575,-0.023650514,0.0015055528,0.0024298765,0.03421119,6.424077e-05,-0.0028558513,-0.01968801,0.007305106,0.011408064,-0.006152858,0.015288688,-0.041876145,-0.009293507,-0.015536332,-0.002382975,0.0052308366,-0.008071796,-0.0086337915,0.002923939,0.0080862865,-0.005683871,-0.006262341,-0.020183241,0.0038033486,0.0010271594,0.004106108,-0.023521557,-0.009933263,0.033082005,-0.005819807,-0.0006360463,-0.0076690437,0.016019642,-0.014213735,0.0038770442,-0.015089532,0.025910644,-0.006628588,0.005017305,-0.0035675503,-0.008082023,0.00888305,0.008266039,-0.00026625488,-0.0056546833,-0.018461559,0.008659531,-0.025533747,0.007299412,0.001876364,0.014846481,0.0025326256,0.005064696,0.021493489,0.020493953,-0.0044293394,-0.008220735,-0.014951622,-0.0130775925,0.02432659,-0.010726769,-0.022533314,0.017968247,0.01920431,-0.0016966285,-0.008322052,0.0050946577
CC(N)COCC(C)OCC(C)OCC(C)OCC(C)OCC(C)OCC(C)N,-0.0076036965,-0.0022822805,0.0007088082,0.006612189,0.004844311,0.0037531555,0.0008712567,-0.023412492,0.00894358,-0.009955009,0.0039040996,-0.0049834345,-0.004985515,-0.00741209,-0.0007699616,0.0015525147,-0.007932714,-0.003283619,-0.0071220035,-0.00130411,0.0143987285,0.03660498,-0.0039297864,0.017218648,0.010555271,0.0072728656,-0.011558965,-0.013672454,0.00466373,0.01978253,0.075209565,0.013813549,-0.0030009542,0.02165019,0.021719303,0.021099726,-0.010583291,-0.015886279,-0.01761328,-0.0013391223,-0.01386413,-0.0009655161,0.011161379,0.024439108,0.004996082,0.014437369,0.0066533377,0.009509067,-0.005022205,-0.0055402587,-0.012785091,0.012002246,-0.016201574,0.0030669235,0.00056038983,0.004310443,-0.007537157,0.0043736435,0.0021991916,0.008441648,-0.0050490447,-0.023744203,-0.010833065,-0.00065590814,0.0071784556,-0.0024229507,-0.004743804,-0.016050477,-6.358791e-05,0.006501818,0.0070847464,-0.02856664,0.0010408843,0.012812445,0.00631137,-0.0060471613,0.015011815,-0.0013529514,0.014642339,0.0074922396,0.018507939,-0.0025269268,0.004428369,0.005959768,-0.013046784,0.0097322175,0.010469949,0.006048144,-0.0024412954,0.012479739,0.0155708045,0.0024254378,-2.0995736e-05,-0.0029721577,0.0067301635,0.005688947,-0.011230681,-0.015532261,0.000118142925,-0.004411403,0.012577966,0.015573493,0.0031465907,0.0011362564,0.00011664815,0.0021991078,0.0015292165,-0.004401725,0.017057106,-0.0018968601,-0.0047536725,0.0041218307,0.0051512904,-0.0063246507,-0.0006216215,0.006748501,-0.004022402,-0.0065065697,-0.0027667452,-0.0045436444,-0.012834384,-0.006295229,-0.0056537036,0.009646894,-0.015983632,-0.00897151,0.0023260806,0.019109841,-0.005074429,0.012728083,0.018526994,0.008114733,-0.010271756,0.0065158783,-0.025804568,0.0034389338,0.021811442,-0.0014356892,0.0038293349,0.00802598,0.0024767313,0.004938226,0.013685934,0.011960886,0.020949248,0.0035989266,0.0016805327,0.00991717,-0.00140124,-0.0118877515,0.011740815,-0.015538966,-0.006374541,-0.008592084,-0.0025564788,-0.011186611,-0.020156182,0.00083820336,-0.01680931,-0.011986701,0.0024782345,-0.04519064,0.0025334947,4.9415976e-06,0.007378696,-0.005197819,8.618785e-05,0.005951153,0.0090049105,0.0061727087,0.004117324,0.0003505135,0.016244195,-0.015139356,-0.010194646,0.00058290083,-0.016250331,0.0016524252,0.0052209105,0.0076138983,-0.009981478,-0.004362873,-0.011167297,0.012773087,-0.003630327,-0.001634795,-0.0130355,0.024646234,0.0071053733,-0.019081736,0.001627299,0.00024050288,0.026551284,-0.0018866938,-0.0031901943,-0.016160019,0.005679816,0.010707262,-0.0066807773,0.0100995,-0.034136564,-0.0070676724,-0.012345484,-0.00045603886,0.0038536768,-0.0069024493,-0.0075103017,0.0028513903,0.0068371613,-0.005420451,-0.0022877452,-0.015654905,0.0009845342,0.0030345079,0.005185783,-0.018287353,-0.006569205,0.024707586,-0.0058617108,-0.0012491618,-0.004999111,0.012811106,-0.008088512,0.0025530076,-0.012546854,0.021748384,-0.0046419445,0.0029635113,-0.0034296724,-0.0074971505,0.0065213386,0.006569825,0.0007262053,-0.0045913486,-0.015669024,0.004386737,-0.019897927,0.004689512,0.00088056736,0.012287343,0.0030263932,0.004430971,0.016612133,0.018113695,-0.0038094083,-0.008114546,-0.0101653095,-0.008370256,0.01777042,-0.008548761,-0.0144415945,0.013507875,0.015340621,0.0009413194,-0.0068843644,0.0046268757
NCCNCCN(CCNCCC(CN)CCN)CCN(CCNCCN)CCN(CCN)CCN,-0.00675695,-0.00254496,0.0011593066,0.0061450545,0.0059093065,0.0027829055,0.0012723967,-0.022080656,0.007763523,-0.009562469,0.0047758203,-0.005191058,-0.003756823,-0.0066610593,-0.000753507,0.0018258626,-0.008727381,-0.0034857178,-0.008296781,-0.0021289284,0.0131900655,0.03372766,-0.0022385959,0.017312849,0.009611546,0.007736484,-0.01212486,-0.014677422,0.0052942913,0.0171123,0.06709083,0.014303359,-0.0028601233,0.020626992,0.020774577,0.019895183,-0.009940806,-0.015223606,-0.016895516,-0.0021341317,-0.013317652,-0.0015819306,0.010876755,0.023214243,0.005692253,0.01421441,0.0076978253,0.009439838,-0.0045336313,-0.005765103,-0.011074973,0.011522572,-0.015622726,0.0021258444,-8.7214634e-05,0.0042945044,-0.0066039176,0.004830421,0.0011193287,0.008315813,-0.0047505815,-0.022067692,-0.0100472495,-0.0005351454,0.008590611,-0.0010057911,-0.0053581176,-0.014333551,-0.001425501,0.007315618,0.0066441414,-0.02721595,0.002174628,0.01095623,0.0069534136,-0.0067328624,0.014793035,-0.0017403294,0.015102144,0.006691749,0.017421542,-0.003311932,0.005108947,0.005222953,-0.013630167,0.009603365,0.010654984,0.0056073517,-0.0030005435,0.012003791,0.015282895,0.002946565,0.0015047165,-0.003716427,0.00643022,0.0054395963,-0.010927409,-0.016244957,-0.000501818,-0.004031403,0.012440865,0.015488854,0.0036800671,0.00089855306,0.00033377483,0.00095481053,0.0021055478,-0.0058323676,0.016205302,-0.0016383352,-0.004637816,0.003856848,0.0045862207,-0.0051190006,-4.147645e-05,0.00607503,-0.0032816743,-0.007969409,-0.0017644353,-0.004185604,-0.0126891555,-0.007901013,-0.005865682,0.009837305,-0.016031662,-0.0089827655,0.0027647559,0.018975629,-0.005431919,0.011945433,0.018518662,0.008171178,-0.01020092,0.0076873926,-0.02436459,0.0023764796,0.021162016,2.6718713e-05,0.0036567203,0.006221068,0.0027349014,0.0069886204,0.013632411,0.01310813,0.019334141,0.0031501055,0.003105031,0.009060949,-0.00052042305,-0.010919141,0.011364162,-0.014935149,-0.0052127256,-0.0085476,-0.001364233,-0.01271596,-0.019376006,0.00065801665,-0.015523574,-0.01162531,0.0012725163,-0.042629488,0.002653492,-0.0005176156,0.006834809,-0.004087757,-2.4070498e-05,0.0059519466,0.0075365044,0.0051841834,0.0050721476,-0.00041438825,0.016738512,-0.014008777,-0.010288954,0.00097166933,-0.016777148,0.0010037855,0.0039352532,0.008671055,-0.00949649,-0.0036134874,-0.010143096,0.012787312,-0.0036422238,-0.0015444502,-0.013555327,0.02317548,0.0072545,-0.017896457,0.0005211914,-9.785965e-05,0.025981903,-0.0024374481,-0.0026866822,-0.015495967,0.0047376417,0.009878148,-0.0075196605,0.0085103065,-0.032117542,-0.0062992265,-0.013612672,-1.7939135e-05,0.0035335356,-0.0061641773,-0.0077810967,0.0045113615,0.006264064,-0.006437185,-0.0013618469,-0.015604179,0.0010135327,0.002986595,0.0052744374,-0.01743835,-0.0063589886,0.02359743,-0.0049175434,-0.0018226744,-0.0036131348,0.011960555,-0.0074008815,0.0023526093,-0.012808053,0.021418596,-0.0033979472,0.0030691847,-0.002131892,-0.0066461917,0.006213894,0.006915899,0.0012425729,-0.004852876,-0.014514307,0.0033355982,-0.019510683,0.004506506,0.00086208526,0.012590931,0.0036503086,0.0054426594,0.014726503,0.016886141,-0.003122285,-0.008115954,-0.00869959,-0.008462962,0.017236272,-0.008329544,-0.013184866,0.01281297,0.015254457,0.0011352357,-0.0072261444,0.0045102425
CC(N)COCC(C)OCC(C)OCC(C)N,-0.010911157,-0.00023343135,0.00095621496,0.008683538,0.003948074,0.0067577073,0.0037078578,-0.026285779,0.015960976,-0.010288397,0.0027493974,-0.007279848,-0.01100088,-0.01069268,-0.0004893355,0.0025968067,-0.010827158,-0.0027037933,-0.009884292,0.0019873497,0.018190239,0.049240403,-0.005570502,0.018560909,0.016036367,0.0045850463,-0.012024974,-0.0135502275,0.005882905,0.026904263,0.101871274,0.018921506,-0.004821011,0.026230818,0.024575643,0.02587532,-0.012416124,-0.022393994,-0.025429415,-0.0018493218,-0.014756288,-0.00051845424,0.0155740315,0.027719542,0.006259512,0.016365912,0.009653366,0.014405102,-0.004716185,-0.007375514,-0.0193407,0.018198594,-0.02201705,0.0032439176,0.0016433932,0.004619013,-0.010674996,0.0059264363,0.004476076,0.009989668,-0.0063089817,-0.027912196,-0.0150297815,-4.5245513e-05,0.004170295,-0.005508459,-0.004153882,-0.01925885,0.0010733893,0.008956132,0.011656319,-0.038413208,-0.0025652954,0.017397068,0.0095910495,-0.01010949,0.019296955,-0.0016265009,0.017204028,0.011998444,0.024274215,-0.003664096,0.005704631,0.0066964435,-0.017072525,0.009252348,0.012537703,0.008265017,0.00249793,0.016640687,0.01901203,0.002133363,-0.0021088216,-0.005934835,0.010992898,0.008065205,-0.013352297,-0.01632409,0.0041832,-0.0053119496,0.018055668,0.018324478,0.0020076502,0.0028429609,-0.003174292,0.00337483,0.0033869518,1.863297e-05,0.019380527,-0.0033752099,-0.0051679956,0.004986788,0.0123144565,-0.007891588,-0.0034668278,0.005663654,-0.0062845917,-0.00595109,-0.0026532821,-0.0097502945,-0.015801214,-0.004384454,-0.0028338898,0.009301383,-0.023612766,-0.0069608185,0.00168458,0.02540335,-0.006303396,0.01613962,0.023865454,0.0074167866,-0.011878094,0.0056744153,-0.034047913,0.0037666834,0.028411405,-0.0022733547,0.0026623318,0.013359236,0.002322618,0.0008528363,0.017176664,0.009638302,0.026450183,0.005546171,0.00037965202,0.0154662505,-0.0016361773,-0.013228377,0.013872918,-0.017469464,-0.008452306,-0.013976956,-0.004380706,-0.01207298,-0.02400558,0.0012980513,-0.02558861,-0.014315415,0.0044603255,-0.056882426,0.0029603478,-0.00013094209,0.008138886,-0.008323718,0.002838994,0.00560519,0.016193975,0.011854485,0.004740755,-0.0010675746,0.020398468,-0.02300755,-0.009866315,-0.0009877402,-0.015881898,0.003973661,0.008225352,0.009559707,-0.010588278,-0.0056040986,-0.01838696,0.01500372,-0.002727299,-0.0015645521,-0.014597818,0.03107677,0.0068969056,-0.02223956,0.0031925272,0.0030214787,0.03518445,-0.0020988397,-0.002071336,-0.022942517,0.0073905084,0.010796669,-0.0058303736,0.0154174,-0.039891776,-0.009178497,-0.013412171,-0.004950232,0.0034821592,-0.009679952,-0.009123617,0.002195774,0.008418276,-0.005342135,-0.0053223358,-0.018049648,0.0046892776,0.0014462695,0.006274421,-0.02487325,-0.010475228,0.03287612,-0.008552504,-0.00071839755,-0.0067160423,0.018622559,-0.012048064,0.004771195,-0.012521135,0.024132049,-0.0078189485,0.004719503,-0.004960005,-0.011924585,0.008310763,0.008184105,-0.00033673272,-0.00425627,-0.018399816,0.011105884,-0.022982948,0.009229882,0.0031624786,0.011255326,0.0035437383,0.0045403317,0.021572819,0.018954054,-0.0038694795,-0.010975205,-0.016636306,-0.010680178,0.025213208,-0.010707985,-0.022394747,0.01730963,0.019099692,0.0013547689,-0.006200427,0.00696228
CCCCCCCCCCN,-0.0082462,0.00015643425,0.0013334602,0.00979532,0.0034588072,0.00749866,0.0035296725,-0.02189016,0.01518748,-0.010178434,0.002398124,-0.0061607175,-0.011049938,-0.011878582,-0.0025141519,0.0022213422,-0.008760639,-0.0024978025,-0.008547008,0.0025089472,0.017201653,0.048926167,-0.0041598966,0.016032686,0.01800333,0.0028663408,-0.010498703,-0.012608884,0.0063658813,0.026617158,0.098084755,0.0162035,-0.003694932,0.022188641,0.021215219,0.022529067,-0.011798779,-0.021937853,-0.023099247,-0.0013783997,-0.014453936,-0.0006308565,0.012603554,0.026644226,0.0048333537,0.014598674,0.009344471,0.0132157,-0.0053198696,-0.0066005304,-0.01909922,0.018816732,-0.022883369,0.004037751,0.0033980217,0.0030321674,-0.011563752,0.006967893,0.0022906903,0.009142166,-0.00511007,-0.025554588,-0.013596564,0.0016444586,0.002770543,-0.0055197827,-0.0026142085,-0.017962769,0.0014264453,0.008280632,0.009094988,-0.035208784,-0.0047400566,0.01706428,0.009115195,-0.009352751,0.01759253,0.00014167884,0.01656908,0.012553322,0.024115767,-0.003140225,0.005561926,0.0068036513,-0.01681197,0.0072055254,0.008159868,0.009103816,0.002365266,0.015063673,0.017253973,0.0010972368,-0.0028020954,-0.006739505,0.012324969,0.009315433,-0.014034582,-0.013095971,0.0034633214,-0.004786091,0.015848188,0.015841272,0.0028666407,0.004676994,-0.0023795404,0.0022399724,0.0028509765,0.00037294626,0.017877998,-0.0026392406,-0.0031243684,0.0044271117,0.011565016,-0.008368662,-0.002110025,0.0051911417,-0.005378913,-0.0030946862,7.117167e-06,-0.0075707613,-0.014742791,-0.0024626194,-0.0018873997,0.007352553,-0.021154685,-0.0062410934,0.0012761354,0.023895998,-0.0045655672,0.015176304,0.019913651,0.0050637554,-0.010461558,0.0048590833,-0.033388652,0.0028746622,0.026592778,-0.0037883385,0.002832449,0.012840825,0.0006913617,-0.00086711533,0.014886731,0.006732545,0.02582643,0.0021597948,-0.00036824332,0.0120813865,-0.0037693977,-0.011049585,0.01201098,-0.013816163,-0.008457482,-0.013628587,-0.0032280623,-0.011121292,-0.020321768,0.0003065206,-0.023742717,-0.014222002,0.0052245855,-0.053531997,0.0003650838,-0.00030958606,0.008837605,-0.007968541,0.002113441,0.0045329733,0.013869804,0.011955382,0.004165535,-0.0019303905,0.01796262,-0.023878545,-0.006072698,-0.0011011651,-0.012729753,0.0048147095,0.008733004,0.009134315,-0.009089677,-0.0055431537,-0.01707171,0.01131659,-0.002952748,-0.0026869595,-0.0122017,0.030949403,0.005831491,-0.019319916,0.0037801722,0.0037951563,0.032233816,-0.0025575738,-0.002327308,-0.018979333,0.006988324,0.009584243,-0.0033025532,0.016126286,-0.03681907,-0.00805594,-0.011937739,-0.0049475674,0.0023178319,-0.008218558,-0.0079656625,0.0017582821,0.007827875,-0.005039323,-0.0057756766,-0.015109747,0.0045525306,0.0013321005,0.004032895,-0.023247808,-0.009874845,0.031343684,-0.006287664,0.0006863023,-0.0072479853,0.016621765,-0.0106410645,0.0034714746,-0.010120632,0.019993877,-0.007661801,0.0037304182,-0.004628527,-0.011324668,0.008366648,0.0051020663,-0.003368185,-0.0022267892,-0.017490933,0.013033748,-0.021799013,0.010749947,0.0033066375,0.009226939,0.0037516025,0.002363039,0.021594709,0.01743746,-0.0024191877,-0.008952328,-0.015445774,-0.0080997795,0.02359233,-0.010023893,-0.022633929,0.016516978,0.018046547,8.3018094e-05,-0.0060596704,0.0069522792
CC(C)(COCC1CO1)COCC1CO1,-0.010664071,-0.0005934201,0.0014650114,0.008325639,0.004822994,0.0076263896,0.0036254725,-0.028593872,0.016679574,-0.011092595,0.0020293938,-0.0067845574,-0.010706058,-0.012253318,-0.00039080158,0.0028625764,-0.010757069,-0.0027995538,-0.009695841,0.002518911,0.01861376,0.052146412,-0.006198478,0.019367231,0.016796248,0.005101301,-0.012601128,-0.014715528,0.0064188987,0.02755718,0.10581432,0.019938953,-0.0052362476,0.02801242,0.026470609,0.027066128,-0.013781726,-0.024453254,-0.02659562,-0.0013888042,-0.015851889,-0.0007246053,0.016977742,0.028765852,0.006120462,0.01784337,0.010809298,0.014868987,-0.005662993,-0.0072615007,-0.020814927,0.01868365,-0.023338715,0.0029911958,0.0008049831,0.005388748,-0.010696245,0.005507025,0.0048158253,0.010749192,-0.0063970177,-0.0294941,-0.016245171,-5.3225085e-05,0.0052134916,-0.0058316654,-0.0039017173,-0.019778538,0.0014898097,0.010192179,0.012108927,-0.040389027,-0.002695635,0.018196877,0.009832133,-0.010783516,0.019615807,-0.0023682495,0.018296748,0.012749969,0.02552741,-0.00376351,0.006109912,0.0067879194,-0.017313026,0.010255601,0.013540123,0.009305595,0.0022480786,0.018311443,0.02046572,0.0025338968,-0.0018504392,-0.006335798,0.011882122,0.008255672,-0.013307903,-0.018003505,0.003968234,-0.0051160483,0.018320862,0.019164896,0.0025733728,0.0035868548,-0.0034181904,0.004318364,0.0035824424,0.0011730371,0.021237768,-0.004020353,-0.005542421,0.004937317,0.013634852,-0.008743261,-0.0036128806,0.0061278082,-0.006035041,-0.006695505,-0.0032090303,-0.010291484,-0.017340675,-0.005143273,-0.0024859067,0.010309439,-0.02463107,-0.0073155696,0.0013547055,0.027567841,-0.006458298,0.01616745,0.024842903,0.0075291432,-0.012306832,0.005967343,-0.036688786,0.0034978236,0.030054567,-0.0029578935,0.0026325076,0.0147693325,0.0032324325,0.0016203392,0.017448137,0.009307621,0.02723213,0.0057385974,0.00047952193,0.016080216,-0.0017309003,-0.013566347,0.0146907605,-0.017960778,-0.0101212915,-0.014304476,-0.0036802958,-0.01409008,-0.024738297,0.0018220171,-0.0265132,-0.01370071,0.004340213,-0.0593824,0.003006819,0.00020419434,0.008529927,-0.008880394,0.0032187537,0.005740717,0.01761005,0.012029553,0.0054373564,-0.0009361026,0.021719001,-0.024134282,-0.009874112,-0.0015257252,-0.016824266,0.004873744,0.00861367,0.010233112,-0.010407661,-0.0058662463,-0.019301862,0.01593187,-0.0031111194,-0.0014714613,-0.01563658,0.031747293,0.006755741,-0.02360685,0.0038092984,0.0038164146,0.03696771,-0.0014093257,-0.0028228173,-0.023413153,0.007697817,0.010820447,-0.005923229,0.01618027,-0.04220418,-0.008743787,-0.013949906,-0.0049412176,0.0033390895,-0.009587775,-0.00924201,0.0023122071,0.008956797,-0.0054450613,-0.0058290795,-0.01881079,0.0053743203,0.00072772056,0.0058504194,-0.025967564,-0.012008635,0.034507405,-0.009211026,-0.0010102157,-0.007059626,0.019353196,-0.01369747,0.004350888,-0.013550261,0.025940092,-0.008258563,0.005908763,-0.004446085,-0.011655966,0.008569377,0.008749062,-0.0016856603,-0.0038124232,-0.019502997,0.011949915,-0.024397232,0.009144907,0.0040232465,0.011259541,0.0024220832,0.0057419757,0.022666356,0.019823974,-0.0035245009,-0.012242506,-0.017387865,-0.011891464,0.02615599,-0.01132895,-0.023539247,0.018055232,0.020790584,0.0014964491,-0.0063592363,0.0068014003
CC(N)COCC(C)COCC(C)COCC(C)COCC(C)COCC(C)CN,-0.008196471,-0.0018538283,0.0009648362,0.0068339175,0.005180182,0.0035983669,0.0008584182,-0.023725145,0.009261959,-0.009749444,0.004345948,-0.005230627,-0.0049677677,-0.007269431,-0.0010219924,0.0018245997,-0.00845645,-0.003615722,-0.007755027,-0.0011579711,0.014679496,0.03708949,-0.0040018065,0.017638499,0.010672291,0.007645909,-0.01229848,-0.014236484,0.00496732,0.020250438,0.0761384,0.014304795,-0.0030723033,0.02211283,0.022148069,0.021740334,-0.011270747,-0.015941095,-0.018018462,-0.0014322429,-0.013841119,-0.0011665849,0.010884249,0.02445383,0.0054230224,0.01436898,0.0070624435,0.009938497,-0.004793822,-0.0057310835,-0.012877688,0.012363069,-0.016583635,0.0026594847,0.0003291536,0.0046213437,-0.007861957,0.0042807413,0.002291549,0.008553104,-0.0052144504,-0.02404131,-0.0108530875,-0.00025503896,0.0076196194,-0.0022553816,-0.00505123,-0.015524236,-0.00031383522,0.0068675643,0.007398524,-0.029332824,0.0011325758,0.012523685,0.006222266,-0.007021809,0.01592953,-0.0017686835,0.014666595,0.0072772736,0.019322194,-0.002425367,0.004856926,0.0056043486,-0.013695903,0.009702081,0.010935554,0.006538286,-0.0024628323,0.013262419,0.016176507,0.002958646,0.0002962267,-0.0030195694,0.0065739695,0.005528174,-0.011820279,-0.016094875,6.2899664e-05,-0.0041228463,0.012915206,0.01610193,0.0031395685,0.0015921984,-0.00021996535,0.0019777156,0.001651753,-0.0045208493,0.017388595,-0.0023026997,-0.0049869465,0.004183068,0.0053644655,-0.0061062938,-0.00016205199,0.0066389246,-0.0039699445,-0.006877167,-0.0027026087,-0.0050722836,-0.012778356,-0.0066088545,-0.005557254,0.010006863,-0.016104052,-0.008673618,0.0025947262,0.01962858,-0.0047226595,0.0123542035,0.01910018,0.0083967075,-0.010797523,0.006424549,-0.026370265,0.003111923,0.021965716,-0.0010867026,0.004111367,0.0080735395,0.0027526915,0.0054103956,0.014147969,0.012462246,0.021263815,0.0038800184,0.001769392,0.010369193,-0.001386594,-0.0118470155,0.011866819,-0.016117347,-0.0059036487,-0.009145636,-0.0020566161,-0.012126058,-0.020599395,0.00095693395,-0.017326705,-0.012347244,0.0019263029,-0.045909077,0.002246287,-0.00047881063,0.0076112887,-0.006016772,-8.481555e-06,0.006270298,0.009624091,0.0063624517,0.004588946,0.0005538105,0.01676932,-0.01562261,-0.010395962,0.00070358906,-0.016343396,0.0019770057,0.0052712727,0.0078691775,-0.010331872,-0.0047570197,-0.011632642,0.013126515,-0.0033160942,-0.0015281509,-0.013651133,0.024657357,0.007146974,-0.019615067,0.0012227874,-0.0005096588,0.027229365,-0.0024331715,-0.003072462,-0.016216232,0.00580786,0.010507584,-0.007403112,0.00965372,-0.034430966,-0.0074784653,-0.012241247,-0.00028800406,0.0040013026,-0.0066814455,-0.008087815,0.0030526123,0.006442164,-0.00598057,-0.0024930593,-0.016401395,0.0013831896,0.0034809597,0.004908259,-0.018486379,-0.0073872507,0.026188776,-0.005690789,-0.001223095,-0.004383397,0.013081325,-0.008027276,0.0025875382,-0.012771567,0.022231242,-0.004639687,0.0031586885,-0.0036290013,-0.00783477,0.0068494715,0.0072751623,0.0007714685,-0.0044237105,-0.015188489,0.004630793,-0.020210825,0.005249194,0.00095791835,0.012318043,0.0034657186,0.0047647185,0.016820317,0.018511126,-0.0041216295,-0.008331393,-0.0101513285,-0.009148279,0.018626405,-0.008736589,-0.014476671,0.013697574,0.016111752,0.0005400628,-0.0074892095,0.0048750043
CC(N)COCC(C)COC(OCC(C)COCC(C)N)OCC(C)COCC(C)N,-0.0067622787,-0.0023585362,0.0010719253,0.0061051548,0.0048937155,0.0034760097,0.0008199008,-0.02274412,0.0072661703,-0.009205278,0.004041803,-0.004427651,-0.0036367849,-0.006648629,-0.00046474673,0.0013254639,-0.0077919625,-0.0038138125,-0.006142296,-0.001595912,0.013331592,0.03338857,-0.0031751767,0.016980112,0.00913877,0.007870194,-0.012063014,-0.013796713,0.0047160797,0.017928634,0.06788093,0.013473353,-0.0026171235,0.020656453,0.020675924,0.019670391,-0.010154537,-0.014312549,-0.016126726,-0.0021621934,-0.013694629,-0.0011603832,0.010295578,0.0235674,0.0048517697,0.014613523,0.0063307276,0.008965148,-0.005191419,-0.005228805,-0.011727285,0.010907945,-0.01510326,0.0028058793,0.0002403669,0.0032274502,-0.0066790716,0.004353295,0.0016270056,0.0079352595,-0.0042849686,-0.022258636,-0.009936748,-0.00067822635,0.007924413,-0.0019981181,-0.004547612,-0.015578178,-0.0007604435,0.005801441,0.005889581,-0.026205104,0.0020955438,0.011957022,0.0060665673,-0.005200973,0.013861304,-0.0012337836,0.0135234175,0.0064096814,0.016432278,-0.002218524,0.004121558,0.006475389,-0.011762214,0.009529257,0.009833138,0.005824441,-0.0032564532,0.011443887,0.014504908,0.0024590082,0.0006169579,-0.0030941656,0.0058975555,0.005543733,-0.010614778,-0.01532196,-0.0003228616,-0.0044976305,0.011463664,0.014572273,0.003291797,0.0012909416,0.0007514041,0.0019874126,0.0013391336,-0.005621015,0.016230628,-0.0014476599,-0.004328803,0.0040635047,0.003579718,-0.005901817,4.87566e-05,0.006278242,-0.0040962705,-0.0067170095,-0.003089849,-0.0032685548,-0.012361157,-0.006573101,-0.006290013,0.009636357,-0.01502494,-0.0089848,0.0017996691,0.017843584,-0.005409156,0.011959719,0.016985051,0.0076424144,-0.009640751,0.0059726285,-0.024207156,0.0029793852,0.02054666,-0.0014152741,0.003509384,0.0071826978,0.0027995408,0.0058469977,0.012706649,0.012046767,0.018987581,0.0031332634,0.0019305132,0.008740155,-0.0014727041,-0.011785388,0.010773642,-0.014823072,-0.0062798136,-0.007893626,-0.0018067027,-0.011584254,-0.019203018,0.0005728714,-0.01523826,-0.011149691,0.0021863338,-0.042356484,0.0022832525,8.0989674e-05,0.006798254,-0.004703238,2.5341287e-06,0.0064330706,0.0073176567,0.0055233235,0.003980945,0.00027481373,0.015752923,-0.013451245,-0.010479047,0.0012865067,-0.015776932,0.0010973085,0.00438888,0.007061949,-0.009848705,-0.0042053787,-0.009883276,0.01204513,-0.003801831,-0.00212065,-0.012432529,0.022906581,0.007228818,-0.018080166,0.0013836203,4.6437606e-05,0.024563186,-0.0022688322,-0.0038842708,-0.014951475,0.005547017,0.0106285885,-0.0064996677,0.00902525,-0.031848263,-0.0055045853,-0.012150742,-0.00029527768,0.0038380641,-0.0064366576,-0.0069624754,0.0029995344,0.006088149,-0.005659352,-0.00095349224,-0.014969431,0.00031716516,0.0030126572,0.005291435,-0.01677213,-0.0056059845,0.02257415,-0.0060767755,-0.0013175355,-0.005006054,0.010975687,-0.0070729777,0.0016320581,-0.012729341,0.02105143,-0.004031526,0.002889447,-0.0033587993,-0.0059170984,0.0070218593,0.006685801,0.00091137644,-0.004497746,-0.014462316,0.002928206,-0.01887178,0.003984865,0.0006854683,0.012203836,0.0024033645,0.0045380066,0.015554404,0.017443173,-0.0036964528,-0.0071494123,-0.00897873,-0.008488841,0.016145185,-0.007522176,-0.0129328305,0.013183508,0.013735363,0.0009820797,-0.007020029,0.0035675764
CC(N)COCC(C)COCC(C)CN,-0.010783152,-5.2429736e-05,0.0012354897,0.008688562,0.0042637805,0.006512801,0.0031733927,-0.02607252,0.01612827,-0.010601152,0.002714349,-0.007336884,-0.010757496,-0.0108729545,-0.000769129,0.0024872804,-0.0109158605,-0.003226474,-0.009877572,0.0020751422,0.01829164,0.049504824,-0.00552593,0.018578526,0.016237795,0.00462518,-0.012354071,-0.013818748,0.006192649,0.026932836,0.102427565,0.019249871,-0.004832047,0.026509352,0.024699502,0.026347121,-0.012909599,-0.02289834,-0.025816737,-0.0016999996,-0.015034273,-0.0007412825,0.01565145,0.027547669,0.006302716,0.016397942,0.010333405,0.014401006,-0.0047775735,-0.007444307,-0.019155191,0.018390162,-0.02224258,0.0027825618,0.0015357081,0.0046791304,-0.010630509,0.0056675086,0.0043709464,0.010364297,-0.0061852233,-0.027960742,-0.01512637,0.0003389977,0.004562296,-0.005331179,-0.0038221935,-0.019100647,0.0010539275,0.009340239,0.011827292,-0.03878282,-0.0027419915,0.017290622,0.0093444185,-0.0110079665,0.019286316,-0.0015411549,0.017347762,0.012194437,0.02468675,-0.003998421,0.006044287,0.006603943,-0.017634572,0.009225924,0.0125968605,0.008617718,0.0025620991,0.017722232,0.019026043,0.0022593057,-0.0018702727,-0.0060076313,0.011292842,0.00821853,-0.013697322,-0.016733533,0.0040164096,-0.00502361,0.018445393,0.018539775,0.002388958,0.003430184,-0.0035807993,0.00359869,0.0038329756,0.000109735876,0.019369986,-0.0034969952,-0.0054709436,0.005090081,0.012892759,-0.007933246,-0.0035502473,0.0061177723,-0.0059172846,-0.0062809046,-0.0023435093,-0.009951727,-0.015854131,-0.004583782,-0.0025835186,0.009356756,-0.023618849,-0.0071392213,0.0016964916,0.02602502,-0.0062563317,0.015960138,0.023793451,0.0076419245,-0.012051061,0.005561881,-0.03483516,0.0031602536,0.028914047,-0.0027741548,0.0030895462,0.013620545,0.0026194584,0.0012066402,0.017269427,0.009633106,0.02688653,0.0054962113,0.0007099693,0.0155890435,-0.0017631128,-0.012684148,0.014010046,-0.017567022,-0.00892113,-0.014393356,-0.00394171,-0.012830356,-0.023772888,0.0013637729,-0.025931768,-0.014250971,0.0042357426,-0.05689964,0.002820667,-0.0003864644,0.008375123,-0.008845272,0.0030422118,0.0054267505,0.016620286,0.012403632,0.0052053714,-0.00085169263,0.020506192,-0.023037225,-0.009787134,-0.0013315808,-0.016032964,0.004622151,0.008390255,0.010065343,-0.010466412,-0.005603599,-0.018992208,0.015220789,-0.0027431669,-0.0017553633,-0.015114192,0.030589094,0.0064627393,-0.022377336,0.0029905904,0.0030207783,0.035444003,-0.0018174686,-0.0026054475,-0.02253413,0.0073008947,0.010354068,-0.005967797,0.015258864,-0.03971757,-0.00920205,-0.013244341,-0.0048833005,0.003355801,-0.009092982,-0.009663791,0.002741164,0.008276928,-0.005359063,-0.005440016,-0.018673563,0.0049240063,0.001276115,0.005530592,-0.025145307,-0.01114442,0.033628453,-0.008127291,-0.0007938277,-0.00661556,0.018605333,-0.012600927,0.0047211964,-0.012560373,0.024402317,-0.008057095,0.0050539,-0.0046060216,-0.011741604,0.008558134,0.00814026,-0.0003931038,-0.0040165735,-0.018236432,0.011626524,-0.023059886,0.009641943,0.0036230846,0.010937561,0.003805105,0.004583991,0.021648204,0.01915776,-0.0037207175,-0.0116188405,-0.01660552,-0.010863865,0.025631491,-0.01081983,-0.02272188,0.017188607,0.019665834,0.0011245571,-0.006786821,0.0071672723
CC(C)(c1ccc(Oc2ccc3c(c2)C(=O)OC3=O)cc1)c1ccc(Oc2ccc3c(c2)C(=O)OC3=O)cc1,0.004178787,-0.005541509,0.0033955323,-0.010377601,0.0029357234,-0.0077522164,-0.0032848793,0.0080181295,-0.018780608,0.006623272,0.0044562807,0.001405743,0.010802774,0.007050098,-0.0014880579,0.0022950266,0.002760265,-0.0037445081,0.005076087,-0.0049116756,-0.009162492,-0.02658226,0.004897123,-0.0080790175,-0.014983966,0.0049810586,-0.002038855,-0.002193259,-0.002915645,-0.014150815,-0.04956755,-0.007584368,0.004891307,-0.01035399,-0.009044311,-0.011906927,0.005655464,0.017542653,0.013338808,-0.005371631,0.0016809814,0.0017803209,-0.007518638,-0.009374921,-0.0026401281,-0.0055224914,-0.0045582764,-0.009792898,0.001363693,0.002389878,0.011896612,-0.01212449,0.0139528345,-0.002735665,-0.0055828877,-0.0058709523,0.0066359444,-0.0013489816,0.00038545392,-0.0066779433,0.011174958,0.0092769135,0.0062105386,0.0030414965,0.008557398,0.009635367,0.0026491014,0.009753787,-0.003894003,-0.005210055,-0.008927145,0.019686699,0.007789186,-0.00982108,-0.0021194872,0.0062405057,-0.008778931,-0.0028769667,-0.006217226,-0.0107926,-0.014744167,-0.00069609936,0.0022220584,-0.006657726,0.00939926,-0.0018228181,-0.0061724344,-0.0062402505,-0.00967383,-0.006132108,-0.012300512,-0.0021954896,0.007325843,0.0015187599,-0.00775698,-0.0020858617,0.011221606,0.0029842637,-0.0056422544,0.0012577325,-0.009331683,-0.0078403745,0.00237431,-0.0018812697,0.0030693281,0.0012905616,-0.0016993235,-0.011742422,-0.004786363,0.0040312936,0.0018325653,-0.0013085878,-0.01306503,0.0033996773,0.004252122,-0.0006385385,0.0013416223,0.0011483897,-0.00042771734,0.008435143,0.010578959,0.0016891388,0.0020011012,-0.0006041927,0.013653022,-0.004226571,0.0039779944,-0.013956628,1.5425496e-05,-0.006342346,-0.009694178,0.0017902665,0.007084079,-0.0044481102,0.013635513,-0.000102246646,-0.015705263,0.0040995446,0.0012202545,-0.008946061,0.0034064688,0.007598594,-0.005844945,0.0016154768,-0.012429094,-0.005823197,-0.0018380291,-0.012433817,0.0020983182,0.005425534,-0.0064275693,0.0031960784,0.0026735151,0.010983635,0.010789273,0.0034116711,0.011821855,-0.0002739504,0.014357031,0.0011850595,-0.0034639575,0.021038987,-4.4900225e-05,-0.0044571413,-0.005366261,0.005085665,-0.0037869487,0.0006345399,-0.0150501495,-0.009137731,-0.0009921659,0.002263457,-0.009447527,0.016867943,0.0018269499,-0.00012479443,-0.0029135507,-0.0047931094,-0.004794264,-0.00027469732,0.0010609152,-0.0022527133,0.013740508,-0.009072264,-0.004640621,-0.0010804173,0.009060802,-0.017388592,-0.004520091,0.0105700195,-0.0033418033,-0.004125666,-0.015451763,0.0014375448,-0.004585875,0.010441734,-0.006734469,-0.0033861576,0.00012860587,-0.008149122,0.012524517,0.009293292,0.0014177265,0.0046392977,-0.00034697354,0.008444455,0.005862688,0.0053058774,-0.0060755564,0.0038218144,0.0039110575,0.0026666839,-0.004481109,0.0013193432,-0.0044115484,0.009860277,0.010953957,-0.013315593,0.0030186102,-0.0033401279,0.003020919,-0.012130608,0.009887047,-0.0050235214,0.0018544588,-0.006055295,0.0075283553,-0.003986817,0.0044871247,0.012688149,-0.0072489297,-0.003699788,0.0073060435,-0.0010651981,0.00948659,-0.01216068,0.01307033,-0.005788142,-0.0034208745,-0.00042811688,-0.0027053393,-0.00274023,-0.013982684,-0.0023997338,0.0003461484,0.007847537,0.013766323,0.006400788,-0.0093723135,0.00807386,0.014534993,-0.013136921,-0.014418947,-0.0022899443,-0.0010809898,-0.004962519
Nc1ccc(Oc2ccc(N)cc2)cc1,-0.011466669,-0.0005172519,0.002864751,0.0102761295,0.0011989857,0.0072016483,0.0032280227,-0.027454633,0.017171614,-0.011124017,0.00094328634,-0.009366086,-0.013068914,-0.012285366,-0.0004211273,0.0035209358,-0.012994058,-0.003522642,-0.009116207,0.003162438,0.019846983,0.057939768,-0.0056770877,0.019127667,0.019216783,0.0033089267,-0.012589598,-0.013948372,0.0057712123,0.030870419,0.11654864,0.019352563,-0.004404057,0.028981522,0.026313368,0.028953405,-0.014605983,-0.025140274,-0.02852152,-0.0010680245,-0.016202994,-0.001030188,0.0180141,0.030694738,0.0056693424,0.016794369,0.0108411545,0.014336806,-0.0061551784,-0.008441476,-0.02188805,0.02129123,-0.025759682,0.00444582,0.0021180734,0.004311601,-0.013376078,0.0071657626,0.0030287076,0.010818469,-0.0048880754,-0.031246932,-0.01630651,-0.00021594577,0.0022499738,-0.0048007485,-0.0037661726,-0.022351332,0.0019902652,0.00948467,0.013956156,-0.042108376,-0.0035510827,0.019697325,0.010756854,-0.012531316,0.02131053,-0.0010388033,0.018749615,0.0138409,0.027413562,-0.0048717866,0.0066673374,0.008344068,-0.01928087,0.008771465,0.012546733,0.008957624,0.0028049666,0.019441491,0.020400776,-0.00015867967,-0.0040175244,-0.0053398106,0.013226042,0.010971905,-0.013203578,-0.015862567,0.0036397623,-0.005785047,0.017807584,0.018786872,0.0017732866,0.004328087,-0.004517747,0.0052558724,0.0047752643,0.0034756353,0.019516045,-0.0024228813,-0.0053769415,0.005499264,0.014099156,-0.0088657485,-0.00439409,0.0062260823,-0.0058283387,-0.0041996203,-0.0017057229,-0.011162077,-0.017008219,-0.003149643,-0.0007703621,0.009374887,-0.02702908,-0.0074172383,0.0010426957,0.028642032,-0.006071857,0.017551359,0.025712095,0.006836556,-0.012457715,0.0053948825,-0.038908977,0.0047299652,0.032669522,-0.006228679,0.0025567014,0.016705653,0.002645122,-0.002690589,0.017990258,0.006542069,0.029632654,0.0047370996,-0.0010521251,0.0185825,-0.0038505495,-0.012806136,0.015277363,-0.019145941,-0.011054233,-0.0130634885,-0.004022187,-0.014159054,-0.024991944,0.0023596678,-0.02939165,-0.0154474825,0.0060416404,-0.0643243,0.00273228,-0.0010811766,0.008158719,-0.009921828,0.0035478738,0.005085972,0.017503498,0.014251413,0.004010192,0.00041037658,0.021804456,-0.025199488,-0.008910898,-0.002934956,-0.016242534,0.0077456385,0.011433642,0.010104448,-0.011155764,-0.0061154994,-0.022100221,0.014884731,-0.0022203662,-0.000989503,-0.014985459,0.03235379,0.0064625274,-0.024049671,0.0044651944,0.0057296837,0.03706886,-0.000972962,-0.0002512671,-0.02449806,0.008566882,0.010770501,-0.0049933195,0.0180486,-0.04242274,-0.010248844,-0.013969037,-0.0055839466,0.0044437246,-0.0100533,-0.010679909,0.0015795315,0.010254454,-0.004553087,-0.0063353395,-0.02081516,0.0060664495,-0.00097227655,0.004198406,-0.028444557,-0.011882359,0.037804507,-0.0076450286,0.0011515506,-0.008762514,0.020375542,-0.016223168,0.004464905,-0.0142273065,0.024733555,-0.009549396,0.0058756806,-0.0043560592,-0.01113365,0.009714203,0.007685147,-0.0021915743,-0.0037738152,-0.02145025,0.013112789,-0.02549003,0.012206493,0.0039554946,0.011685716,0.0041529755,0.004764375,0.024192987,0.020650044,-0.002647792,-0.010564533,-0.019509321,-0.013215879,0.027748946,-0.011448779,-0.02702936,0.020301582,0.021647384,-0.00084893405,-0.006742263,0.0054241493
Nc1ccc(N(c2ccc(N)cc2)c2ccc(N)cc2)cc1,-0.011609273,-0.0016357005,0.0021301955,0.008395165,0.000556319,0.006144885,0.0011900607,-0.029003117,0.01651985,-0.012197758,0.0015385896,-0.009242351,-0.011680545,-0.010978222,8.592382e-05,0.0054288544,-0.0130297905,-0.0039529596,-0.009561712,0.0023568724,0.01842644,0.057094395,-0.005940334,0.018599065,0.01927196,0.0014432408,-0.0128362905,-0.013117161,0.0049681542,0.03086295,0.11648111,0.017077558,-0.0031665396,0.02809156,0.02786035,0.029139431,-0.015225602,-0.024747193,-0.027235473,-0.0013981202,-0.016221352,-0.0023803934,0.017934743,0.031066142,0.0060461406,0.015495139,0.008717281,0.012245356,-0.00581882,-0.00850789,-0.021911522,0.02014321,-0.02497608,0.0056564733,0.0009694379,0.005188199,-0.013608394,0.0065944493,0.004049912,0.010428914,-0.0053668856,-0.031950023,-0.016336137,-0.00029124133,0.0025024675,-0.003147772,-0.0037425654,-0.021987204,0.0016476866,0.009140742,0.01436997,-0.04113066,-0.0012662075,0.019806564,0.009479524,-0.011857582,0.020765327,-0.001221865,0.018647743,0.0123382555,0.027784113,-0.004947548,0.006558232,0.008192059,-0.019001178,0.009257024,0.013599794,0.008558133,0.00135748,0.020497648,0.02252416,0.00058865175,-0.0030253148,-0.0030789226,0.011686411,0.009625921,-0.0136350235,-0.015952641,0.0025359467,-0.0055207037,0.016871398,0.018631056,0.0027186386,0.0033186972,-0.004349163,0.005078608,0.0041540125,0.0032312581,0.02086737,-0.0016234387,-0.006419114,0.0053782845,0.011699523,-0.009111988,-0.004103071,0.0074785226,-0.005328393,-0.0033302289,-0.0022167321,-0.010103387,-0.01645111,-0.0035902853,-0.0009202361,0.010291983,-0.025977863,-0.0078016696,0.001334548,0.02827382,-0.0057619577,0.01627645,0.025341887,0.0073634945,-0.012458976,0.0063021453,-0.036767464,0.00597069,0.032471467,-0.005881072,0.0026860393,0.016026698,0.0034674127,-0.0018678866,0.018149314,0.0075442083,0.029607762,0.004447207,-0.0014355604,0.018300775,-0.0045227073,-0.014418755,0.015602142,-0.020051247,-0.009548467,-0.011595212,-0.0038878843,-0.014183775,-0.02455566,0.003302006,-0.029855076,-0.016215842,0.0060164556,-0.06469071,0.0030725484,-0.0007922896,0.009418914,-0.010607678,0.002988303,0.0046864217,0.017292028,0.013375394,0.0038143387,0.0012806882,0.02057064,-0.023729812,-0.009068307,-0.0038260901,-0.017057229,0.007232434,0.012407452,0.010289187,-0.012235226,-0.0060531483,-0.021199796,0.014106929,-0.0025676312,-0.0010038952,-0.015265834,0.03246806,0.005528588,-0.025036922,0.0028982563,0.0041479925,0.03647289,-0.0001612138,-0.00023942254,-0.02248862,0.00875367,0.011366927,-0.005237862,0.017257519,-0.04320775,-0.010988022,-0.0147292465,-0.0041790195,0.005293453,-0.009179883,-0.010285621,0.0010285839,0.010151879,-0.004233435,-0.0077763125,-0.020038433,0.006672244,-0.0016791988,0.003355337,-0.027302636,-0.011295086,0.036882438,-0.0068642357,0.0010627229,-0.009190075,0.020004094,-0.01607232,0.005236731,-0.014496697,0.024614217,-0.008934351,0.0052068476,-0.0043877885,-0.010593237,0.009954851,0.007115191,-0.001900888,-0.0048122006,-0.021611156,0.01175208,-0.02665678,0.010328241,0.003213087,0.013036641,0.0043343203,0.004528127,0.024141716,0.021454573,-0.0044306032,-0.008362229,-0.018348223,-0.013592901,0.026868638,-0.011102864,-0.026394825,0.019813212,0.021678498,-0.0024709348,-0.0071452605,0.005565731
CC(C)(c1ccc2c(c1)CN(c1ccccc1)CO2)c1ccc2c(c1)CN(c1ccccc1)CO2,-0.0056009395,-0.0032674829,0.005168085,-0.0007954687,0.0018104895,-0.0021182345,-0.0013084656,-0.015511329,-0.0008318955,-0.007213272,0.0023742542,-0.004933575,0.0023031346,-0.0031285873,0.00011314638,0.002514503,-0.007813651,-0.005341743,-0.0034776572,-0.0025556604,0.0073628677,0.017243404,-0.00040366966,0.008809499,0.001642351,0.0034393035,-0.0073482348,-0.009039812,0.0015713852,0.007479042,0.043137357,0.006521983,0.00090693403,0.012358489,0.013773646,0.011207135,-0.0047567436,-0.00389757,-0.00933632,-0.0029751468,-0.009143397,-0.0011777347,0.0051333187,0.016012482,0.0034708334,0.007113672,0.002990324,-4.906766e-05,-0.004089375,-0.0039901375,-0.006696116,0.0062415004,-0.006885902,0.0018827487,-0.003739234,0.00051464327,-0.0038349363,0.003611343,0.000948037,0.003335353,0.0015716217,-0.015249254,-0.0052391263,0.00078374706,0.0069707576,0.004580003,-0.0013893219,-0.011059256,-0.0017826976,0.0034731058,0.0025650272,-0.015287317,0.005372579,0.006085168,0.003489744,-0.0008096881,0.007392356,-0.003126129,0.010409133,-0.0005169937,0.007969162,-0.0045979926,0.0030380525,0.0023108693,-0.0055640303,0.0056679086,0.00556143,0.0017801858,-0.004454173,0.010321621,0.008527613,-7.5286254e-05,0.0038814424,-0.0010354817,0.0029211026,0.0033616181,-0.0030397344,-0.011344877,-0.0032582423,-0.004118096,0.0048222076,0.008062027,0.0025092866,-0.0014034044,0.0006118659,0.0026772115,0.0022362645,-0.0072744233,0.009860819,0.00201303,-0.0038033659,0.0019207029,-0.0013475083,-0.0036400638,-0.0015074871,0.0074394424,-0.0025444655,-0.0033269841,-0.0020010713,-0.00041090883,-0.0060272934,-0.0018259543,-0.0014135242,0.008150358,-0.00574005,-0.008109458,0.00426095,0.010336092,-0.0036190446,0.006687006,0.011104942,0.0073337965,-0.0034098541,0.0015618245,-0.012602012,0.004887078,0.012352219,-0.0016899491,0.002374968,0.004650006,0.0039500818,0.0039566793,0.0077550868,0.008137029,0.011747192,-2.630055e-05,0.0011144995,0.0036979187,-0.0024625864,-0.0067746285,0.0076108463,-0.010503577,-0.0041043586,0.0014500814,0.0037122318,-0.006884001,-0.010464043,0.0020748246,-0.0091901105,-0.007974367,0.0012400374,-0.028420305,0.0024349338,-0.0028152447,0.003844472,-0.0029936717,-0.00071502384,0.0037608808,0.0002979627,0.0026391693,-0.0005754195,0.0038150214,0.0077617327,-0.0048744613,-0.0069266087,-0.00087082665,-0.013476133,0.0022434634,0.0047572777,0.006260732,-0.008605904,-0.005296122,-0.005481461,0.006001238,-0.004666833,-0.00025816844,-0.00578527,0.01198889,0.0012699505,-0.009772925,0.00010484923,0.0005850084,0.012549741,0.00056054816,-0.005248189,-0.006416771,0.0028226748,0.0057560815,-0.0040486506,0.005705929,-0.02085749,-0.0004140865,-0.0098563675,0.0015955344,0.0034755021,-0.00063024496,-0.0017994726,0.0052536824,0.00046039466,-0.0018838029,-0.00095805386,-0.010957962,-0.0008903402,4.4755638e-05,0.00044493726,-0.008814015,-0.00021111965,0.014066575,-0.0025616381,-0.0028302013,-0.0050812885,0.0023263767,-0.0035070796,-0.00016664341,-0.0094120335,0.0129381865,-0.00091812946,0.0017827731,-0.0005980418,0.0024104863,0.0012927819,0.0034462567,0.0025752173,-0.005334609,-0.007751329,-0.0028319599,-0.011552481,0.0016356325,-0.00068796705,0.010176816,7.019937e-05,0.0023951076,0.007605197,0.011114994,-0.0034407657,0.0005538119,-0.002219148,-0.006748326,0.010438506,-0.0025625427,-0.008775213,0.006192557,0.0032414037,-0.0038404139,-0.0064413585,0.0007905327
CC(N)COCC(C)OCC(C)OCC(C)OCCOCCOCCOCCOCCOCCOCCOCCOCCOCCOCCOCCOCC(C)OCC(C)OCC(C)N,0.020333704,-0.00086569693,0.0007497398,-0.015360579,0.006019547,-0.013489186,-0.0012125063,0.036636915,-0.03800356,0.02090563,0.00622732,0.013136157,0.021791229,0.01879347,-0.0016023107,-0.00013360381,0.017048353,-0.0008868305,0.01731303,-0.008755876,-0.024151456,-0.089384794,0.0067077577,-0.02431793,-0.03716283,0.009022324,0.0036833594,0.005570308,-0.0056564678,-0.044399254,-0.18899515,-0.018066708,0.005764014,-0.03627182,-0.03697704,-0.04087614,0.016364641,0.044032507,0.046365,0.001588792,0.0216797,0.0031506978,-0.026083207,-0.046761334,-0.008590901,-0.01865886,-0.0115162125,-0.014230367,0.009434335,0.011960924,0.036537252,-0.035864323,0.039752312,-0.013167815,-0.006813552,-0.012976126,0.021606373,-0.011041848,-0.0084456345,-0.01770477,0.017461635,0.04733087,0.016747445,0.0014826488,0.008814603,0.014315876,0.0061590895,0.04231396,-0.009287534,-0.016811602,-0.02710689,0.05628712,0.0061087525,-0.035449542,-0.01499288,0.0127090365,-0.027791705,-0.005977821,-0.030912414,-0.02634189,-0.039676826,0.003863967,0.0030140933,-0.013145434,0.025924474,-0.009100618,-0.021129897,-0.011215104,-0.010060713,-0.034231234,-0.036759175,0.0009889975,0.009481541,0.0042027356,-0.020385029,-0.012657698,0.02315553,0.019808779,-0.0054454478,0.00979452,-0.020150319,-0.022543648,0.00033441745,-0.0037033446,0.006586386,-0.008312305,-0.0052615013,-0.01717825,-0.028563773,0.0024120416,0.0077727237,-0.0054808157,-0.026844095,0.013922349,0.009834145,-0.006951542,0.010222917,0.0020827372,0.001083957,0.015641691,0.026671547,-0.00048320694,-0.0017683078,-0.013840348,0.038341835,0.004028488,-0.0008875802,-0.044785548,-0.0009888723,-0.025599983,-0.03295,-0.006338845,0.02138792,-0.011486997,0.046390273,-0.015833784,-0.046857774,0.014992616,-0.005610057,-0.025012612,-0.0042782333,0.01736354,-0.024634182,-0.006026555,-0.047377534,-0.009715702,0.00034675375,-0.03123313,0.008358894,0.023176644,-0.026428731,0.023503423,0.011709616,0.01562178,0.016174935,0.01214269,0.032405477,-0.006277076,0.044444796,0.019962596,-0.007801721,0.0919443,-0.0077621285,0.0004093186,-0.014859091,0.015596995,-0.0070591676,-0.0031944038,-0.031744268,-0.019753452,-0.0004295064,-0.0056407247,-0.02617618,0.04024883,0.008901991,0.0029156348,0.016764468,-0.013161051,-0.015527902,-0.0052862316,0.014623566,0.004234029,0.03716963,-0.025176147,0.0005738074,-0.0008822123,0.01902805,-0.052505404,-0.0051913057,0.034305792,-0.003933967,-0.014562923,-0.05142968,-0.0045379084,-0.0033033947,0.031325463,-0.020848993,-0.014012654,0.0039710365,-0.030247908,0.056427456,0.021499956,0.020268742,0.0049000084,-0.0027725464,0.016656257,0.016879583,0.0077308784,-0.013370206,0.0064187273,0.015489264,0.020441124,-0.009755025,0.0030938927,-0.0030453706,0.037301525,0.022693593,-0.05162223,0.0069092177,-0.0023916175,0.017019287,-0.034384064,0.022198617,-0.010875374,0.024351,-0.028863264,0.014032003,-0.004966885,0.014528355,0.02051577,-0.014715213,-0.005396994,0.003855146,0.006482143,0.03422132,-0.023091072,0.044949822,-0.020085407,-0.003283673,-0.010780989,-0.002214497,-0.004765497,-0.044183016,-0.026669681,0.0024087075,0.01528482,0.03179376,0.017978601,-0.042473998,0.016091207,0.0442748,-0.034229353,-0.033057332,0.0006193742,0.00914429,-0.009081379
NCCOCCOCCN,-0.008895343,7.199403e-05,0.001096433,0.010570781,0.00331795,0.007756062,0.0038251523,-0.022673879,0.015261334,-0.010570025,0.0022307755,-0.0066441484,-0.011207451,-0.012040347,-0.0017790571,0.002362024,-0.008861546,-0.0026049884,-0.008542948,0.002703994,0.01778102,0.050670236,-0.0043317396,0.016672121,0.018150408,0.003459205,-0.011384529,-0.013471728,0.007026554,0.027374372,0.100019,0.01666237,-0.0040671667,0.02288185,0.022132255,0.023633985,-0.011631653,-0.022625878,-0.023176003,-0.0016445034,-0.015290342,-0.00073774904,0.013051041,0.02752278,0.0052557383,0.0154217025,0.009729401,0.013673324,-0.005615884,-0.007030096,-0.019987108,0.019557515,-0.023544014,0.003739208,0.003829483,0.0031758524,-0.011890659,0.007322372,0.0024802564,0.009617644,-0.005005182,-0.026372634,-0.013991894,0.0016916171,0.003019251,-0.005364136,-0.003018462,-0.018468302,0.001453652,0.008268445,0.009399676,-0.03586169,-0.004978004,0.017268477,0.009565711,-0.00944929,0.017977946,6.09844e-05,0.016105391,0.012510958,0.024705943,-0.0030774195,0.0054092673,0.006957877,-0.017054155,0.0076260306,0.008896487,0.010046007,0.0022696909,0.015712595,0.01772497,0.0013997462,-0.003193221,-0.0070023,0.012967262,0.00958821,-0.013786749,-0.014003014,0.004157816,-0.0051780813,0.01634135,0.016265763,0.0027255472,0.00470623,-0.0022331644,0.0023021493,0.002946357,0.00062111486,0.018587546,-0.0027955566,-0.0032885196,0.0044993227,0.010875325,-0.008815008,-0.0020975824,0.0053669573,-0.0057535786,-0.0031252727,-0.00040311925,-0.0079792105,-0.015543333,-0.002755403,-0.0020866059,0.007592824,-0.021969961,-0.006483486,0.0016224235,0.024136957,-0.004289842,0.015359329,0.020490002,0.0058220252,-0.010591164,0.004074542,-0.034274664,0.0027530896,0.02760082,-0.00425068,0.0026862195,0.0129945185,0.001160847,-0.001079144,0.015289873,0.007296495,0.026869653,0.0026938561,-0.00054232194,0.012815841,-0.003767727,-0.011599198,0.012490153,-0.014772734,-0.008904729,-0.01440152,-0.0033132615,-0.011841688,-0.020960685,0.00015862286,-0.024416458,-0.014339884,0.0057764277,-0.054686937,0.00046097976,0.0003576735,0.008870893,-0.008356942,0.002684534,0.004959055,0.014731466,0.012130311,0.004207163,-0.002202719,0.018458985,-0.023916736,-0.006911449,-0.0011699386,-0.012610231,0.0049075647,0.009568358,0.009276877,-0.00958466,-0.0055817957,-0.017090458,0.011522975,-0.0029302454,-0.0025773284,-0.012797471,0.032007143,0.0062794248,-0.019962942,0.0044730315,0.004304924,0.03329968,-0.0027786177,-0.0021367986,-0.01947305,0.007615559,0.010111846,-0.0033860584,0.016813524,-0.037486278,-0.008010192,-0.011902835,-0.005327739,0.0020966092,-0.00837282,-0.008491659,0.0015447452,0.008638535,-0.004996379,-0.0056656213,-0.016107839,0.004836516,0.0010266062,0.004137706,-0.023703517,-0.009869231,0.032444816,-0.0068194754,0.0011812164,-0.007904071,0.016714968,-0.011210084,0.0036385637,-0.010777628,0.02089835,-0.0078064315,0.0035863835,-0.0050692735,-0.011620006,0.0087983385,0.0048817806,-0.0033667916,-0.0021734925,-0.018125828,0.01366462,-0.02219715,0.010977424,0.0034639002,0.009407815,0.0036111288,0.0026509454,0.022269214,0.018031478,-0.0026397808,-0.009400391,-0.015975116,-0.008280082,0.024426905,-0.009491812,-0.023110587,0.017208207,0.01825419,-1.4917925e-05,-0.006347939,0.0068200566
COCCOCCOCCOCCOCCOCCOCCOCCOCCOCCOCCOCCN,-0.009621836,-0.0018080855,0.0017100144,0.0065908544,0.006322365,0.0049109003,0.0028372938,-0.026721988,0.01178046,-0.009877024,0.0044597676,-0.004253424,-0.0050221253,-0.0075789327,-0.0012626126,0.00088506006,-0.010092324,-0.0038241195,-0.011676943,-0.00093190325,0.016380947,0.040299512,-0.004427325,0.01952448,0.011508722,0.0076050693,-0.014160191,-0.018532237,0.006842768,0.023042582,0.07513317,0.018175509,-0.004220929,0.025984805,0.023632795,0.025275888,-0.012952128,-0.019405792,-0.020696092,-0.0019658725,-0.016360939,-0.002005375,0.01388926,0.024990186,0.0067212842,0.017799832,0.010513968,0.013243603,-0.005584029,-0.0045069437,-0.016102374,0.015831634,-0.018986184,0.001601642,0.0011279173,0.0022747861,-0.008809729,0.0053430935,0.0033591986,0.009364793,-0.006510467,-0.025559742,-0.014039563,-0.0015301891,0.010058954,-0.0016122982,-0.004980129,-0.018075343,-0.00014124159,0.009555449,0.006419242,-0.032069758,0.0010376526,0.013352161,0.009061849,-0.010139048,0.01718444,-0.0029853615,0.017336387,0.009020203,0.020427447,-0.001556755,0.005196796,0.006436657,-0.016608214,0.010849055,0.01143628,0.008633043,-0.0017083809,0.015181359,0.017417705,0.0037089093,0.00022980059,-0.0056874454,0.00819434,0.007002039,-0.011261612,-0.01801204,0.001203333,-0.0040532444,0.012830368,0.017034654,0.004143214,0.0030729193,-0.00064304844,0.0028802194,0.0027591314,-0.004533167,0.016921915,-0.0045175673,-0.0058762776,0.0054265438,0.009501298,-0.0061624646,-0.0003199838,0.005542082,-0.0066109803,-0.008857343,-0.0043003317,-0.005463103,-0.015846495,-0.0076722377,-0.007334914,0.011396573,-0.020441497,-0.009146449,0.0024599433,0.023473363,-0.0032526443,0.013182742,0.022170845,0.010577373,-0.012439752,0.006968676,-0.03011122,0.003600258,0.024068477,-0.0002374514,0.0038415124,0.008819686,0.0059126504,0.007033564,0.015092498,0.012314487,0.02260068,0.005110467,0.003324366,0.010087136,0.00091356225,-0.013399826,0.012656167,-0.018064814,-0.00874126,-0.012002751,-0.0019530971,-0.016520295,-0.023737095,0.00084274076,-0.018953934,-0.012474155,0.0006354656,-0.047294397,0.0009179574,-8.983072e-05,0.007678939,-0.0078017353,0.0011635055,0.009625894,0.010831383,0.008048741,0.0070348894,-0.000612902,0.018364433,-0.019485585,-0.011287207,-0.00030381978,-0.017184958,0.00303163,0.0044621387,0.010060466,-0.011528625,-0.005434706,-0.012353601,0.014754942,-0.0021045143,-0.0026783377,-0.01531462,0.027117841,0.0072240992,-0.023260536,0.0029358482,-0.000659436,0.030792575,-0.0025999695,-0.0035621673,-0.01821373,0.0069166757,0.011690527,-0.0077060713,0.01207739,-0.035492465,-0.005718049,-0.015509097,-0.0011354033,0.0025656195,-0.008305199,-0.008336731,0.004693408,0.0066621676,-0.0066151777,-0.0016842773,-0.01928819,0.00160114,0.0029525943,0.005205009,-0.0208854,-0.012201523,0.029257402,-0.005500909,-0.00095476466,-0.005141994,0.014338249,-0.009372082,0.0012668334,-0.015715407,0.025352005,-0.007490825,0.0052695256,-0.0031996118,-0.00898799,0.008107038,0.010122469,-0.0003537163,-0.006077718,-0.016128665,0.007103745,-0.023136389,0.006769821,0.0014778273,0.014216364,0.0027412102,0.0064399517,0.019304728,0.019570362,-0.0026486702,-0.010810607,-0.013390372,-0.011735329,0.022929523,-0.00877629,-0.016438073,0.016751045,0.0190372,0.0027090274,-0.008351055,0.006836595
COCCOCCOCCOCCOCCOCCOCCOCCOCCOCCOCCOCCOCCOCCOCCOCCOCCOCCOCCOCCOCC(C)N,0.009797253,-0.0022879168,0.0031956108,-0.00777125,0.008417436,-0.0069032414,-0.0007452385,0.008777869,-0.02029514,0.009022044,0.006513428,0.0042506726,0.013717597,0.007486444,-0.0010979269,-0.00051820464,0.0044713225,-0.0049918704,0.004404813,-0.006642234,-0.0063704057,-0.03759799,0.0036239773,-0.006064306,-0.018597104,0.009512564,-0.005481364,-0.008087708,0.0029543377,-0.018518927,-0.08443939,-0.0023684958,0.0033856211,-0.007519326,-0.010814345,-0.011139924,0.006187301,0.017898593,0.019995723,-0.00061956013,0.0043199435,-0.0009557102,-0.011354329,-0.014314664,-0.001003542,-0.0014039231,0.00066886377,-0.004535392,0.0020173555,0.004106516,0.017375778,-0.014396049,0.015326178,-0.009148935,-0.0049627926,-0.009601911,0.0088501945,-0.0028441763,-0.0027170815,-0.00691399,0.010646218,0.014597597,0.005389533,0.0003497433,0.013139809,0.012265378,0.002083511,0.015606617,-0.008650101,-0.0046989038,-0.013596004,0.021899413,0.0067631574,-0.015712783,-0.0021353066,0.0025590807,-0.009243798,-0.006261163,-0.009401897,-0.010379768,-0.017173208,0.00029747002,0.0039160037,-0.004871534,0.008385141,0.0023138141,-0.008098364,-0.004773101,-0.0074318037,-0.012681103,-0.013891835,0.0033654366,0.00796522,0.0007543219,-0.010075776,-0.004496468,0.008449199,0.0016574028,-0.0030468171,0.004323799,-0.0069713313,-0.0058029015,0.003056161,-0.0014163721,0.0043073874,-0.004054458,-0.0012684935,-0.017506376,-0.009378081,0.0009095068,0.002332694,-7.587066e-05,-0.015624753,0.0037087502,0.0060916627,0.00044283783,0.0018690247,-0.0039793123,-0.0023371298,0.008996533,0.008434695,-0.0058946195,-0.005653115,-0.0003350419,0.0134138465,-0.0018149754,0.0008567013,-0.015537021,-0.00049180165,-0.009409056,-0.008699944,0.0024080817,0.0063985176,-0.0019081347,0.013955818,-0.006991547,-0.016448187,0.010669174,0.0008302755,-0.012942057,0.0022529475,0.016570535,-0.0080622,0.0033205403,-0.01933677,-0.003826404,0.0044818707,-0.016809998,0.0051664636,0.0078833895,-0.0070928447,0.0043268604,0.0018992033,0.0054511577,0.011622112,-0.0010873862,0.007654665,-0.0033324603,0.021114126,0.005317807,-0.005457079,0.03299117,-0.0039698677,0.0005081827,-0.003955258,0.005505845,-0.004472927,0.004243845,-0.017131135,-0.009102408,0.0018417472,-0.0027403962,-0.0071603823,0.016241062,-0.002641472,0.0016342932,-0.0008038641,-0.0050607966,-0.009401584,0.002597916,0.0025471495,0.00022889487,0.020184644,-0.0076155216,0.0007375954,-0.0019325654,0.003797784,-0.01908653,0.00050100125,0.009109028,-0.0019708863,-0.009597234,-0.016630258,-0.0029514655,-0.0058700833,0.013056037,-0.00798054,-0.0021385169,-0.0018121828,-0.014075925,0.018221634,0.013637124,0.0020166857,0.004264228,-0.00039478485,0.007978986,0.006298304,0.008563098,-0.0056617353,0.00014292635,0.010593149,0.0011887457,-0.007875128,0.0043466054,-0.0025352563,0.012359401,0.008980837,-0.019123428,0.0028366167,-0.0029847922,0.00806692,-0.017687008,0.011752709,-0.008852478,0.0048329607,-0.003484439,0.0056687538,-0.0006241165,0.0068356316,0.010844663,-0.0050142882,0.0025185067,0.0028756638,0.00065952516,0.011655591,-0.014793589,0.017454453,-0.009122489,-0.0045122458,0.0025587846,-0.0012529735,0.00046286546,-0.017627217,-0.007955406,0.00079524796,0.0057076337,0.016162641,0.004134467,-0.014167299,0.00594825,0.021522148,-0.0099029895,-0.013030697,-0.00068686716,-0.0011848491,-0.002863329
COCCOCCOCCOCCOCCOCCOCCOCCOCCOCCOCCOCCOCCOCCOCCOCCOCCOCCOCCOCCOCCOCCOCCOCCOCCOCCOCCOCCOCCOCCOCCOCCOCCOCC(C)OCC(C)OCC(C)OCC(C)OCC(C)OCC(C)OCC(C)OCC(C)OCC(C)OCC(C)N,0.09554574,0.048532534,-0.06721991,-0.081066646,-0.0073122014,-0.05203443,0.015230457,0.33637908,-0.043915264,0.0819819,-0.0460548,0.06960221,0.07175095,0.110510886,0.03370241,-0.01347743,0.12511213,0.07653314,0.069561034,-0.0014798823,-0.1357742,-0.5264445,0.061241888,-0.16796406,-0.1280233,-0.06963798,0.12604745,0.18210243,-0.0322335,-0.25234595,-1.0809072,-0.17118533,-0.008893572,-0.2815579,-0.3079144,-0.27209285,0.13757543,0.15233964,0.21765925,0.11587041,0.23528966,-0.00022954587,-0.15646096,-0.3322056,-0.070846975,-0.18573973,-0.10179253,-0.09167148,0.12453386,0.061801627,0.2097524,-0.17552193,0.21023847,-0.05039522,0.024243437,-0.028230384,0.15859416,-0.06274735,-0.006932035,-0.089566275,-0.034929805,0.3372707,0.16427195,-0.013188802,-0.12910177,-0.004949671,0.07262357,0.22458753,-0.020186566,-0.08974121,-0.109887436,0.34607518,-0.01823337,-0.21498096,-0.09839587,0.08961659,-0.2099698,0.024477927,-0.23351854,-0.09778978,-0.20580706,0.06387483,-0.064374775,-0.0692405,0.14238891,-0.088389695,-0.13652939,-0.032613993,-0.009726277,-0.2242717,-0.16521905,-0.001571212,-0.005502655,0.025766555,-0.11644091,-0.095283575,0.068896756,0.1779344,0.016013961,0.04750344,-0.1315709,-0.21963304,-0.07663466,-0.06046883,0.007855792,-0.09508188,-0.038753424,0.039900888,-0.20645301,-0.012532593,0.08684922,-0.08527484,-0.09926273,0.09294211,0.0274552,-0.068762615,0.045198962,0.06250944,0.033103235,0.089656554,0.17031585,0.007158429,0.06963577,-0.12486788,0.20619391,0.13985658,-0.05417026,-0.26924637,0.08132536,-0.1816578,-0.22234586,-0.12957798,0.12941514,-0.058342762,0.36091876,-0.093948275,-0.28257895,0.055937737,-0.04267406,-0.110963024,-0.025799502,-0.06078127,-0.17109932,-0.11772945,-0.23760147,-0.03097289,0.013657514,-0.13310358,0.052731674,0.12984318,-0.12317504,0.19279401,0.052696396,0.05601091,-0.006599903,0.13264254,0.24379052,-0.026122825,0.2190645,0.15139951,-0.07168006,0.63553756,-0.035533357,0.027998686,-0.06395428,0.10424775,-0.013012605,-0.071933985,-0.092097946,-0.10720759,-0.03923951,-0.02166488,-0.17758866,0.1962505,0.11079499,-0.027493037,0.22207403,-0.06017523,-0.07926226,-0.101670966,0.15757047,0.10294649,0.1684615,-0.13371259,0.088537514,0.039480567,0.16927423,-0.30102947,-0.06444385,0.21888557,9.995513e-05,-0.009946505,-0.37115636,0.050230004,0.031151416,0.1837528,-0.08486274,-0.116031535,0.043185074,-0.15440567,0.43784568,0.0084822755,0.15752459,0.030774746,-0.03174687,0.11085405,0.09724528,-0.02875531,-0.091904655,0.044175528,0.037890065,0.21973665,-0.04362272,-0.023996342,-0.02732077,0.25023752,0.06048759,-0.35588098,0.06605478,-0.00030669826,0.108479746,-0.15671226,0.07321732,-0.057641618,0.21758999,-0.23914373,0.095995605,-0.025351133,0.042507395,0.050395504,-0.12120402,-0.10310717,-0.010292546,0.07013656,0.19966821,-0.036051817,0.23554423,-0.11039967,-0.046331253,-0.15402545,0.012661733,-0.05964331,-0.1854199,-0.24233727,-0.015991941,0.088023685,0.14632145,0.14387912,-0.2783811,0.10659469,0.17850481,-0.15676169,-0.1615894,0.02333502,0.10565298,-0.0108974315
COCCOCCOCCOCCOCCOCCOCCOCCOCCOCCOCCOCCOCCOCCOCCOCCOCCOCCOCCOCCOCCOCCOCCOCCOCCOCCOCCOCCOCCOCCOCCOCCOCCOCCOCCOCCOCCOCC(C)OCC(C)OCC(C)OCC(C)OCC(C)OCC(C)N,0.08326934,0.0427188,-0.06258817,-0.06871608,-0.00899629,-0.044223912,0.012615972,0.2879623,-0.060288303,0.07868641,-0.039079223,0.07689801,0.06847278,0.09766101,0.026330594,-0.015702015,0.11501305,0.07091659,0.07787488,0.001419229,-0.13174272,-0.47718304,0.051434726,-0.14838189,-0.1228351,-0.055711754,0.11228087,0.14962378,-0.029080717,-0.2193955,-0.9851422,-0.15139619,-0.0061432216,-0.2530176,-0.2692445,-0.24965087,0.115765944,0.14388475,0.2076047,0.09109689,0.20702565,0.004783533,-0.14658044,-0.30309686,-0.06458339,-0.16122022,-0.09453923,-0.07074723,0.103141166,0.054040268,0.18290178,-0.16415747,0.1919636,-0.035756893,0.023491044,-0.03247497,0.14353721,-0.051462047,-0.011312974,-0.0783673,-0.02251349,0.30524787,0.15207699,-0.017064005,-0.10464276,-0.009761115,0.05920694,0.21427809,-0.014053447,-0.08100734,-0.10644079,0.31818137,-0.013964916,-0.18447366,-0.09166398,0.087997,-0.19366455,0.01408633,-0.2122249,-0.09107369,-0.19028327,0.059107926,-0.056415662,-0.06901719,0.13927883,-0.08091223,-0.11752709,-0.024794916,-0.012971533,-0.19915786,-0.15523078,-0.008405817,-0.0039882157,0.022859935,-0.10127717,-0.08636387,0.06664516,0.16069424,0.018756568,0.043635517,-0.11520829,-0.1990822,-0.07475934,-0.05230272,0.012174223,-0.086506315,-0.031249672,0.030012812,-0.19012061,-0.014734273,0.08294197,-0.07926302,-0.09556158,0.08872724,0.022635393,-0.06633183,0.04172538,0.056466646,0.027794132,0.08292772,0.1461256,0.009130729,0.04541546,-0.1199707,0.19032484,0.11570907,-0.049889803,-0.25541827,0.06358951,-0.16161965,-0.20351048,-0.105912566,0.11733663,-0.05812022,0.32120776,-0.082012795,-0.26198074,0.043947622,-0.045855813,-0.10042235,-0.03245711,-0.04645209,-0.1600695,-0.101617046,-0.2213328,-0.034411266,-0.0017300679,-0.12756248,0.03995981,0.12319626,-0.118342884,0.17172968,0.05941005,0.05565985,0.0031842054,0.11555472,0.21591698,-0.027222324,0.19544676,0.13814501,-0.061869323,0.5688838,-0.040517792,0.03333064,-0.06293592,0.08568606,-0.017793525,-0.060093105,-0.09570263,-0.109033175,-0.024495596,-0.026219152,-0.15799025,0.17558783,0.088888034,-0.015599451,0.19489455,-0.05783133,-0.07368943,-0.09420422,0.14656569,0.090932675,0.15353249,-0.1261256,0.0669505,0.03262272,0.15414394,-0.26868826,-0.06049265,0.19454336,-0.0022482583,-0.014670663,-0.3314765,0.034655884,0.030953335,0.1701291,-0.08486952,-0.09691941,0.04431928,-0.13458423,0.3909593,0.02001123,0.14572237,0.021218147,-0.036982946,0.09735349,0.08594974,-0.02745146,-0.08259486,0.041000374,0.048660073,0.19332448,-0.041103445,-0.020182077,-0.025749857,0.2285385,0.06299996,-0.32104295,0.052682184,0.0049872287,0.0957353,-0.14402674,0.06839539,-0.04160633,0.18839306,-0.2117884,0.08297762,-0.022498557,0.039198086,0.054012954,-0.101247005,-0.0903569,-0.008233315,0.06647854,0.18726145,-0.027539497,0.21049789,-0.09635033,-0.03964274,-0.12929557,0.0057250718,-0.048860934,-0.17471349,-0.21758598,-0.0056715896,0.077755146,0.13263154,0.12974994,-0.24720813,0.095076256,0.1735861,-0.14894317,-0.14692949,0.022241423,0.09382914,-0.012367118
