smiles,z_0,z_1,z_2,z_3,z_4,z_5,z_6,z_7,z_8,z_9,z_10,z_11,z_12,z_13,z_14,z_15,z_16,z_17,z_18,z_19,z_20,z_21,z_22,z_23,z_24,z_25,z_26,z_27,z_28,z_29,z_30,z_31,z_32,z_33,z_34,z_35,z_36,z_37,z_38,z_39,z_40,z_41,z_42,z_43,z_44,z_45,z_46,z_47,z_48,z_49,z_50,z_51,z_52,z_53,z_54,z_55,z_56,z_57,z_58,z_59,z_60,z_61,z_62,z_63,z_64,z_65,z_66,z_67,z_68,z_69,z_70,z_71,z_72,z_73,z_74,z_75,z_76,z_77,z_78,z_79,z_80,z_81,z_82,z_83,z_84,z_85,z_86,z_87,z_88,z_89,z_90,z_91,z_92,z_93,z_94,z_95,z_96,z_97,z_98,z_99,z_100,z_101,z_102,z_103,z_104,z_105,z_106,z_107,z_108,z_109,z_110,z_111,z_112,z_113,z_114,z_115,z_116,z_117,z_118,z_119,z_120,z_121,z_122,z_123,z_124,z_125,z_126,z_127,z_128,z_129,z_130,z_131,z_132,z_133,z_134,z_135,z_136,z_137,z_138,z_139,z_140,z_141,z_142,z_143,z_144,z_145,z_146,z_147,z_148,z_149,z_150,z_151,z_152,z_153,z_154,z_155,z_156,z_157,z_158,z_159,z_160,z_161,z_162,z_163,z_164,z_165,z_166,z_167,z_168,z_169,z_170,z_171,z_172,z_173,z_174,z_175,z_176,z_177,z_178,z_179,z_180,z_181,z_182,z_183,z_184,z_185,z_186,z_187,z_188,z_189,z_190,z_191,z_192,z_193,z_194,z_195,z_196,z_197,z_198,z_199,z_200,z_201,z_202,z_203,z_204,z_205,z_206,z_207,z_208,z_209,z_210,z_211,z_212,z_213,z_214,z_215,z_216,z_217,z_218,z_219,z_220,z_221,z_222,z_223,z_224,z_225,z_226,z_227,z_228,z_229,z_230,z_231,z_232,z_233,z_234,z_235,z_236,z_237,z_238,z_239,z_240,z_241,z_242,z_243,z_244,z_245,z_246,z_247,z_248,z_249,z_250,z_251,z_252,z_253,z_254,z_255,z_256,z_257,z_258,z_259,z_260,z_261,z_262,z_263,z_264,z_265,z_266,z_267,z_268,z_269,z_270,z_271,z_272,z_273,z_274,z_275,z_276,z_277,z_278,z_279,z_280,z_281,z_282,z_283,z_284,z_285,z_286,z_287,z_288,z_289,z_290,z_291,z_292,z_293,z_294,z_295,z_296,z_297,z_298,z_299,z_300,z_301,z_302,z_303,z_304,z_305,z_306,z_307,z_308,z_309,z_310,z_311,z_312,z_313,z_314,z_315,z_316,z_317,z_318,z_319,z_320,z_321,z_322,z_323,z_324,z_325,z_326,z_327,z_328,z_329,z_330,z_331,z_332,z_333,z_334,z_335,z_336,z_337,z_338,z_339,z_340,z_341,z_342,z_343,z_344,z_345,z_346,z_347,z_348,z_349,z_350,z_351,z_352,z_353,z_354,z_355,z_356,z_357,z_358,z_359,z_360,z_361,z_362,z_363,z_364,z_365,z_366,z_367,z_368,z_369,z_370,z_371,z_372,z_373,z_374,z_375,z_376,z_377,z_378,z_379,z_380,z_381,z_382,z_383,z_384,z_385,z_386,z_387,z_388,z_389,z_390,z_391,z_392,z_393,z_394,z_395,z_396,z_397,z_398,z_399,z_400,z_401,z_402,z_403,z_404,z_405,z_406,z_407,z_408,z_409,z_410,z_411,z_412,z_413,z_414,z_415,z_416,z_417,z_418,z_419,z_420,z_421,z_422,z_423,z_424,z_425,z_426,z_427,z_428,z_429,z_430,z_431,z_432,z_433,z_434,z_435,z_436,z_437,z_438,z_439,z_440,z_441,z_442,z_443,z_444,z_445,z_446,z_447,z_448,z_449,z_450,z_451,z_452,z_453,z_454,z_455,z_456,z_457,z_458,z_459,z_460,z_461,z_462,z_463,z_464,z_465,z_466,z_467,z_468,z_469,z_470,z_471,z_472,z_473,z_474,z_475,z_476,z_477,z_478,z_479,z_480,z_481,z_482,z_483,z_484,z_485,z_486,z_487,z_488,z_489,z_490,z_491,z_492,z_493,z_494,z_495,z_496,z_497,z_498,z_499,z_500,z_501,z_502,z_503,z_504,z_505,z_506,z_507,z_508,z_509,z_510,z_511,z_512,z_513,z_514,z_515,z_516,z_517,z_518,z_519,z_520,z_521,z_522,z_523,z_524,z_525,z_526,z_527,z_528,z_529,z_530,z_531,z_532,z_533,z_534,z_535,z_536,z_537,z_538,z_539,z_540,z_541,z_542,z_543,z_544,z_545,z_546,z_547,z_548,z_549,z_550,z_551,z_552,z_553,z_554,z_555,z_556,z_557,z_558,z_559,z_560,z_561,z_562,z_563,z_564,z_565,z_566,z_567,z_568,z_569,z_570,z_571,z_572,z_573,z_574,z_575,z_576,z_577,z_578,z_579,z_580,z_581,z_582,z_583,z_584,z_585,z_586,z_587,z_588,z_589,z_590,z_591,z_592,z_593,z_594,z_595,z_596,z_597,z_598,z_599,z_600,z_601,z_602,z_603,z_604,z_605,z_606,z_607,z_608,z_609,z_610,z_611,z_612,z_613,z_614,z_615,z_616,z_617,z_618,z_619,z_620,z_621,z_622,z_623,z_624,z_625,z_626,z_627,z_628,z_629,z_630,z_631,z_632,z_633,z_634,z_635,z_636,z_637,z_638,z_639,z_640,z_641,z_642,z_643,z_644,z_645,z_646,z_647,z_648,z_649,z_650,z_651,z_652,z_653,z_654,z_655,z_656,z_657,z_658,z_659,z_660,z_661,z_662,z_663,z_664,z_665,z_666,z_667,z_668,z_669,z_670,z_671,z_672,z_673,z_674,z_675,z_676,z_677,z_678,z_679,z_680,z_681,z_682,z_683,z_684,z_685,z_686,z_687,z_688,z_689,z_690,z_691,z_692,z_693,z_694,z_695,z_696,z_697,z_698,z_699,z_700,z_701,z_702,z_703,z_704,z_705,z_706,z_707,z_708,z_709,z_710,z_711,z_712,z_713,z_714,z_715,z_716,z_717,z_718,z_719,z_720,z_721,z_722,z_723,z_724,z_725,z_726,z_727,z_728,z_729,z_730,z_731,z_732,z_733,z_734,z_735,z_736,z_737,z_738,z_739,z_740,z_741,z_742,z_743,z_744,z_745,z_746,z_747,z_748,z_749,z_750,z_751,z_752,z_753,z_754,z_755,z_756,z_757,z_758,z_759,z_760,z_761,z_762,z_763,z_764,z_765,z_766,z_767,z_768,z_769,z_770,z_771,z_772,z_773,z_774,z_775,z_776,z_777,z_778,z_779,z_780,z_781,z_782,z_783,z_784,z_785,z_786,z_787,z_788,z_789,z_790,z_791,z_792,z_793,z_794,z_795,z_796,z_797,z_798,z_799,z_800,z_801,z_802,z_803,z_804,z_805,z_806,z_807,z_808,z_809,z_810,z_811,z_812,z_813,z_814,z_815,z_816,z_817,z_818,z_819,z_820,z_821,z_822,z_823,z_824,z_825,z_826,z_827,z_828,z_829,z_830,z_831,z_832,z_833,z_834,z_835,z_836,z_837,z_838,z_839,z_840,z_841,z_842,z_843,z_844,z_845,z_846,z_847,z_848,z_849,z_850,z_851,z_852,z_853,z_854,z_855,z_856,z_857,z_858,z_859,z_860,z_861,z_862,z_863,z_864,z_865,z_866,z_867,z_868,z_869,z_870,z_871,z_872,z_873,z_874,z_875,z_876,z_877,z_878,z_879,z_880,z_881,z_882,z_883,z_884,z_885,z_886,z_887,z_888,z_889,z_890,z_891,z_892,z_893,z_894,z_895,z_896,z_897,z_898,z_899,z_900,z_901,z_902,z_903,z_904,z_905,z_906,z_907,z_908,z_909,z_910,z_911,z_912,z_913,z_914,z_915,z_916,z_917,z_918,z_919,z_920,z_921,z_922,z_923,z_924,z_925,z_926,z_927,z_928,z_929,z_930,z_931,z_932,z_933,z_934,z_935,z_936,z_937,z_938,z_939,z_940,z_941,z_942,z_943,z_944,z_945,z_946,z_947,z_948,z_949,z_950,z_951,z_952,z_953,z_954,z_955,z_956,z_957,z_958,z_959,z_960,z_961,z_962,z_963,z_964,z_965,z_966,z_967,z_968,z_969,z_970,z_971,z_972,z_973,z_974,z_975,z_976,z_977,z_978,z_979,z_980,z_981,z_982,z_983,z_984,z_985,z_986,z_987,z_988,z_989,z_990,z_991,z_992,z_993,z_994,z_995,z_996,z_997,z_998,z_999,z_1000,z_1001,z_1002,z_1003,z_1004,z_1005,z_1006,z_1007,z_1008,z_1009,z_1010,z_1011,z_1012,z_1013,z_1014,z_1015,z_1016,z_1017,z_1018,z_1019,z_1020,z_1021,z_1022,z_1023
C=CC(=O)OCCOCCOC(=O)C=C,-0.052569978,-0.04628831,0.0011400823,0.08225656,-0.045850866,-0.018474855,-0.012045381,-0.035750195,0.014605609,-0.05008431,0.035433043,0.033146746,-0.08513493,0.10347666,-0.03382506,-0.1288731,-0.025003297,-0.014053003,-0.06568626,0.017819647,0.02262976,-0.034728244,-0.005550394,0.050734565,-0.042993322,-0.035755187,0.06010741,-0.050722968,-0.0077566486,0.03614456,0.0131856,-0.020120097,0.009007661,0.01783853,0.017450346,-0.06583755,0.09767833,-0.0047964845,0.022089304,0.076551914,-0.018925369,-0.10372173,0.026603127,-0.073085025,0.00866624,-0.1357777,0.036619566,0.04161454,-0.028317485,0.018488789,0.079211,0.0018629227,-0.007671684,-0.007878114,-0.04313395,0.00060979463,0.00087628514,-0.048222363,-0.031876266,0.05147347,0.06471065,0.050369643,0.037320513,-0.016496822,-0.040380012,0.036637317,-0.043424528,0.06668674,0.027438974,0.028187804,-0.073329605,-0.028932113,-0.00439794,-0.022481931,-0.025740754,0.039709147,-0.0118419975,0.035672016,0.11887739,0.015240547,-0.05208277,-0.01095679,0.06697235,0.0056449957,-0.004076734,0.0081881415,0.066623904,-0.044619963,0.0155614475,-0.09071549,0.0030388888,0.12534305,0.023962712,0.015221812,-0.030566435,0.05742269,0.050467484,0.013940202,-0.040791318,-0.012680873,-0.031692047,-0.064589284,-0.01661637,0.0029441556,-0.103167936,0.034510218,-0.040611356,-0.023684617,-0.016643394,-0.023609115,0.0031029617,-0.059690896,-0.018628474,-0.097238235,-0.038365763,-0.039557286,0.0059338603,-0.02891554,-0.13500813,0.004388999,-0.051277943,-0.055183686,0.039477415,0.046012744,0.005836446,-0.033185057,-0.0026234249,0.022451667,-0.010115927,0.032004837,0.055422526,0.038436987,0.0054243514,-0.00025593862,-0.0484401,-0.0155699225,-0.034410637,0.06395403,-0.016853932,0.08651551,-0.011262013,-0.039896514,0.06273724,-0.045779195,0.05875722,-0.027277276,0.043648224,0.015923431,-0.041176468,-0.04055804,0.034036558,-0.023402788,-0.04245628,-0.037013825,-0.1371355,0.0051836474,-0.031233633,-0.03145448,-0.08474171,-0.0026798216,0.0026021213,-0.03394191,-0.044379666,-0.016494112,0.021943547,0.12384717,0.07260407,-0.06373376,-0.0014967639,0.0068080476,-0.052153587,-0.06492051,-0.040477995,-0.018637966,0.05117561,-0.1035185,0.031199515,-0.019888178,0.03385548,0.021765843,0.068939544,0.06854874,-0.025367118,-0.002066399,-0.030586146,0.056836948,-0.06938446,-0.036374178,-0.039082903,-0.02602449,-0.0005699266,0.06268562,-0.045689132,0.01891147,-0.003959248,-0.05501894,0.0032662805,-0.049410187,-0.06257434,0.010545764,0.050415944,0.027307503,0.057041895,0.002169473,0.016529126,0.118339956,-0.004440517,0.028932203,0.03926795,-0.018082704,0.023954805,0.017746555,-0.055933625,0.009321428,-0.0032582986,-0.1279808,0.00026235636,-0.05450731,0.013785232,-0.04238044,0.04724611,0.029902196,0.017907169,-0.04240677,-0.04285489,0.0010337178,-0.038214106,-0.04955652,0.015448921,-0.048078362,-0.027405865,0.05085384,-0.08016231,0.011038958,-0.024203274,-0.00133562,-0.09502412,-0.04155109,0.016754609,0.02029244,-0.01136063,0.07644776,0.0075658904,-0.05369184,-0.009519443,-0.05762699,0.004592723,0.0048308796,0.15619607,0.039536078,-0.030181656,0.009151744,-0.06069327,0.0866776,-0.043575756,0.0040447693,-0.020458702,-0.011338791,-0.09171046,0.011487154,0.007264519,-0.0107489005,0.062346555,-0.01929236,0.036153518,0.07793116,0.005812582,-0.05013092,0.021501392,0.025640577,-0.044699766,0.03539591,-0.08077526,-0.052557614,-0.07851586,-0.034081236,0.0507707,-0.010362947,0.030648934,0.024092337,0.07245706,-0.006042243,0.016839415,-0.004037584,0.01614361,0.090010315,0.004728129,-0.03296571,0.0024826569,-0.091703616,-0.009691244,0.032560058,0.025397155,-0.007489966,-0.08148994,-0.062735245,-0.04766957,-0.06172365,-0.025649598,-0.01741293,-0.07484291,-0.01663826,-0.120999254,0.0061011016,-0.0390499,-0.031096812,-0.029189225,0.02028311,-0.03611513,0.013858398,-0.08452454,-0.043215223,-0.04760598,-0.019072972,-0.06342057,0.020311339,0.008398156,-0.06306016,0.008045076,0.008566321,-0.0071168756,0.023158928,0.029790502,-0.039890863,0.036784224,0.0526917,-0.029562427,-0.035169262,0.023229789,-0.060183436,-0.0069573857,0.030237343,0.106329285,0.01609477,-0.019596066,0.042581126,-0.027477713,0.03245519,0.0016076155,-0.011676019,-0.07792591,-0.045014102,-0.0015606172,-0.008341156,-0.013539275,0.022480521,-0.04179953,0.03412308,-0.06400368,0.044137094,-0.021344809,0.036194313,-0.007852451,-0.01218044,0.057081148,-0.047593165,-0.039594203,0.020518545,-0.0040531047,-0.05207865,-0.0075581484,0.0015403242,-0.02020157,-0.0013044421,-0.027900362,0.01667853,-0.037089802,-0.011930244,0.070406616,0.045303993,0.010573222,-0.021758882,0.05061224,0.07394886,-0.052001487,0.025267292,-0.059340935,0.10348924,-0.0031548077,-0.003273733,0.028126877,0.014616624,0.08837643,-0.009534791,0.025320832,-0.04738143,0.03205043,0.05199394,0.010379196,-0.094116226,0.040329568,-0.04252633,0.063026756,0.006526418,0.049607664,-0.044801727,0.05622895,0.027348097,0.07597236,-0.0335429,-0.013725713,-0.031282842,-0.059005126,0.006364329,0.012491146,-0.08375522,-0.041819632,0.006337807,0.11206312,0.06937066,0.12305148,-0.10083039,0.034064047,-0.07321255,-0.14092094,0.028514761,0.017785884,0.07401498,-5.607214e-05,0.00096655637,-0.06597017,-0.07015105,-0.072187014,-0.035875447,0.078467846,0.0031383075,0.022028591,-0.030236352,0.062396735,-0.005265914,-0.025593929,0.03160289,-0.11275953,0.06534286,0.09137049,0.02054298,-0.11462372,0.097642444,0.08259056,0.031889938,0.020259023,-0.058189638,0.12497421,-0.042304218,0.04681106,-0.025678163,0.049926937,-0.013249889,-0.06011046,0.027007762,-0.1504825,0.02369258,0.015477889,-0.03417916,0.019595401,-0.0035559405,0.0338958,-0.035406202,0.100973174,-0.074019454,-0.050134074,0.062224157,0.038598694,-0.015454648,0.006875662,0.0041514896,0.054159176,0.036964726,0.029033054,0.0029162345,0.058533315,0.023184627,-0.03306099,0.076709926,-0.04788769,-0.015605921,0.081026345,-0.009329991,0.0017968249,0.03388645,-0.075241916,-0.011013938,0.05044026,-0.05529797,0.039404128,-0.06810443,0.0014544013,-0.031811066,-0.0015506579,0.061513446,-0.026262688,0.048330322,0.0026200698,-0.06667447,0.06837836,-0.10819846,0.031109173,-0.09710596,-0.0288255,-0.019643355,-0.0005402616,0.0075133014,0.049879003,-0.06274292,0.02282136,-0.025835678,-0.038790002,0.07955885,-0.018563045,-0.03217418,0.114626884,0.0044226134,-0.007842047,-0.020212984,0.053131394,0.101966165,-0.0064588035,0.058260445,0.039354317,-0.02072967,-0.023223687,-0.0041426965,0.064319134,0.019032996,-0.007407451,-0.00361628,-0.017005254,0.03590732,0.034888722,-0.022935538,-0.017114457,-0.095585704,0.013680927,0.0850955,0.035138093,-0.051361654,0.027987324,0.00550762,0.040736884,0.024679076,0.042993896,-0.12009262,0.0066998056,-0.034162365,0.025433809,0.020176979,0.063266546,0.018730307,-0.0071146213,-0.009092139,-0.005653188,-0.048450626,0.05226618,-0.0023994753,-0.011990902,0.022501895,-0.052663937,0.021354642,-0.020548517,-0.02520677,-0.052688975,-0.06925461,0.037505846,0.05726653,-0.009912342,-0.032460704,0.019355265,0.086131416,0.0074666096,0.014398688,-0.044095144,0.01400705,-0.09774007,0.025171563,0.016819265,0.0201253,0.04316942,-0.08693871,0.004743805,-0.023052303,0.03883266,-0.0375013,-0.034009628,-0.11810259,-0.021938546,-0.0051284432,0.0034186784,-0.06417675,-0.036168694,-0.026733855,0.013350314,-0.02933992,-0.017929668,0.012693664,-0.016642993,-0.04056146,-0.12919837,0.04796686,0.016186712,-0.020291656,0.019453473,0.047173932,0.024981376,0.012583405,-0.041854113,0.023436775,0.003730311,0.027065482,-0.020066438,0.03044706,0.007853424,-0.029120438,0.04018026,-0.011727074,-0.11534768,-0.059700154,-0.083034165,-0.00990705,0.0038142325,0.049446322,0.051630266,-0.058871977,-0.021901563,0.02228548,-0.015761616,-0.10540159,0.15970168,-0.07247101,0.0046521733,0.027827326,0.05789912,0.046457328,-0.009606809,-0.0827536,0.0060895653,0.009304085,-0.08038055,-0.040162064,0.006806481,-0.012795666,-0.02515421,0.015843522,0.023427425,0.020240866,0.06778973,0.005927844,-0.06736483,0.027243573,-0.004926376,0.088694766,0.02072859,0.03587404,-0.0040244013,-0.096482754,-0.046000827,0.04167596,0.043040037,0.00082314014,-0.024317728,-0.020527156,-0.006044146,0.02452191,-0.05600079,0.0005221758,0.05632032,0.025097817,0.044450767,-0.0015619155,-0.006368283,-0.047163893,0.019361435,0.00487833,0.030630846,0.014346088,0.06497147,-0.015995253,0.06388305,0.06160552,-0.07933751,0.029468909,-0.039438307,-0.024666648,-0.040356014,-0.029084697,0.025992706,-0.013163988,-0.05304872,0.047060806,-0.013084644,-0.0015850272,0.06174665,0.04581564,-0.033705585,0.069380134,0.018772554,-0.024438832,-0.14402999,-0.08858743,0.038806017,-0.055331063,0.082327604,0.030583967,-0.0017362582,0.025006115,0.009950326,0.048434608,-0.061630197,0.05622465,-0.059856758,-0.025595944,-0.012038602,0.05448947,0.024835687,0.02411651,0.04739988,-0.0044939686,-0.06646362,0.07311626,0.04687902,0.07644434,-0.026543137,0.071994305,-0.023140902,-0.032727323,-0.0011335891,0.06121657,-0.043790847,-0.0020985864,-0.019939806,-0.033162046,0.028728057,0.019801313,0.062503174,0.050546106,0.13238752,-0.04000759,-0.05007223,-0.027781662,0.0322271,-0.07420066,0.06390983,0.041603558,0.04021522,0.003349841,-0.00016939826,-0.019555937,0.06061206,0.012129189,-0.02716435,0.049206853,-0.018251304,-0.09595896,0.02468726,-0.017664637,0.007187481,-0.039928067,0.022696592,0.04768051,-0.042493865,0.014784271,0.017614841,-0.038300466,0.01957631,-0.01661909,-0.026361907,0.011420698,0.002363455,-0.10339979,-0.004353076,-0.032721154,0.110403255,-0.056674257,-0.045454085,0.0006844504,-0.01075598,0.03618468,-0.02929106,-0.010181001,-0.086411946,0.024702484,-0.048455715,0.047459695,0.002765447,-0.04999635,0.04240473,-0.07316626,0.05979019,0.08630986,-0.0351292,0.12372964,-0.0012903912,0.08713756,-0.052280605,0.036971085,0.04446534,0.002041323,0.06457342,0.034016505,-0.002286953,-0.071129374,-0.010237642,-0.033068836,-0.020127216,-0.032616716,0.005250788,0.07553018,-0.0034753084,0.03229342,-0.0017191907,0.0028459784,-0.05857735,0.006271988,-0.055592865,-0.06426817,0.04238323,0.035698786,0.017991077,0.04614585,0.069082074,-0.11561439,0.0213246,-0.09087545,-0.021364277,-0.036549017,-0.016587596,-0.0052729417,-0.08384797,-0.033339355,-0.049962427,-0.040431958,0.037698742,0.033198174,-0.04819282,0.09955689,0.0145952925,0.018609896,0.0136347525,0.14277309,0.0026523229,-0.014033718,0.04175379,0.012568791,0.022982724,0.08400515,0.113217704,-0.04875946,-0.0062181987,0.007913001,-0.027325178,-0.06371423,0.034623705,0.0074840435,-0.0063067474,-0.024846965,0.046292387,0.059156585,-0.13115615,-0.022397526,0.034633383,0.02087943,0.05764845,-0.024957761,0.0141758565,0.048536144,-0.055498548,0.0020220894,0.032076,0.024737872,0.04390648,0.022092618,0.005633899,-0.0037771948,-0.04885094,-0.10375689,0.023998428,0.044879206,0.008775925,0.018001823,0.021860998,-0.03131813,-0.05476818,0.0003462229,0.03574612,0.00086335,-0.012672627,-0.079003684,0.052895218,0.015869629,0.051570732,-0.042650115,-0.033141132,0.06105023,-0.009771511,-0.024168365,-0.013461143,0.019923355,-0.007347531,-0.018676925,-0.009873383,-0.021052126,0.055155773,0.05649628,-0.037948497,-0.048701257,-0.043241233,0.052592978,0.022340892,0.032472968,-0.0025782222,-0.0043039704,-0.0040492993,0.0023250096,-0.0055661104,-0.015946928,-0.007446406,-0.015531607,-0.0076016663,0.019319288,-0.01943716,0.048765823,-0.019307733,-0.023076132,-0.03374248,0.12425795,-0.07529812,0.044732526,0.007366859,-0.042512573,0.010264672,0.061138056,-0.0007656198,0.091258384,0.05755978,0.004490816,0.023625271,0.05649894,-0.0651178,-0.059415616,-0.08104041,-0.014539704,-0.027368221,-0.017167887,-0.09004773,0.08357387,0.01794398,0.07898527,-0.00069704466,0.0011317553,0.053107798,0.079500884,-0.07839571,0.014374928,-0.08578813,-0.07799206,0.012907493,0.014755856,0.040088937,0.023541957,-0.08805111,0.025272885,0.020640407,0.07676061,-0.06217912,0.037620652,0.042182352,-0.038488716,-0.038895823,0.029196763,-0.01164407,-0.04319307,-0.02997244,0.04952865,-0.09523827,0.0045315186,0.07467897,-0.073108464,-0.03801618,0.1273354,0.00039758906,0.040033955,0.023678936,-0.03285118,0.0826809,0.042453878,0.016231656,-0.052172873,0.018384814,-0.023023123,-0.036824677,0.012774987,0.0020957496,-0.088395216,0.026583772,0.011406564,-0.02183339,-0.08279783,0.048663236,-0.075328186,-0.07081288,-0.008131225,-0.029716197,-0.043376725,-0.066072896,-0.018619033,0.05349254,0.036963537,0.052393816,-0.049853105,-0.015911397,0.02702409,-0.024865387,-0.099771254,0.02696215,0.070418514,-0.026228614,-0.01562835,-0.08999703,0.019126955,0.019985665,0.017897872,0.0051284237,0.14032337,-0.00024365401,0.04723242
C=CC(=O)OC(C)(C)C,-0.062427357,-0.043371104,-0.0066316873,0.072467074,-0.05601479,-0.01665701,-0.022284728,-0.04116801,0.021496296,-0.04530878,0.02729559,0.028888524,-0.10517971,0.09670248,-0.04235225,-0.12764731,-0.022825034,-0.021164352,-0.06508168,0.0042618588,0.019322544,-0.033431556,-0.014009338,0.05805172,-0.039087467,-0.04966647,0.05885955,-0.06594737,-0.011383118,0.05206464,0.027369713,-0.015137592,0.0037938831,0.008505737,0.017745582,-0.061249852,0.10772755,-0.013970578,0.017457346,0.07481089,-0.00959774,-0.103419885,0.03841726,-0.09054131,0.0066215657,-0.12851244,0.047171175,0.040182915,-0.03631431,0.025397304,0.07662995,-0.009962948,0.0039026625,0.00036495924,-0.055255838,0.013605395,-0.0074671647,-0.054693647,-0.036093842,0.048158683,0.057246312,0.06392913,0.033387654,-0.03399221,-0.040738877,0.044709284,-0.04197732,0.07852731,0.021757077,0.036572177,-0.06590201,-0.02327865,-0.013174903,-0.030647142,-0.03471579,0.031857442,0.00032186834,0.030203866,0.122013524,0.027749076,-0.06272183,-0.0019570556,0.07898053,0.0026854312,-0.0127562545,0.002485076,0.06419694,-0.04449749,0.023875214,-0.09184293,0.0022301283,0.13496047,0.017688297,0.026913738,-0.04288957,0.07133547,0.060759764,0.021329978,-0.055664267,-0.022811294,-0.04746095,-0.07518157,-0.02494198,0.0074033933,-0.118256375,0.033872493,-0.04093661,-0.033483036,-0.013346361,-0.019973341,-0.0028406265,-0.06352872,-0.012150536,-0.11516858,-0.03224452,-0.0383084,0.022172507,-0.023813128,-0.13923448,-0.00029656105,-0.059086926,-0.06602493,0.031857237,0.046764288,-0.0069138557,-0.040824488,0.009767018,0.023574613,-0.02384189,0.026719697,0.0519489,0.033410117,0.010652051,0.0025712568,-0.064490154,-0.014186742,-0.04526244,0.05678039,-0.024510927,0.07856856,-0.021907458,-0.033226695,0.05559361,-0.0405849,0.05768213,-0.021910707,0.03408822,0.026590755,-0.037273485,-0.051017478,0.02876213,-0.030952163,-0.049689826,-0.033842284,-0.13687007,0.0011519715,-0.041499518,-0.026261134,-0.0938026,-0.0149666015,-0.0066123796,-0.037645392,-0.03975394,-0.029477967,0.016156767,0.13125868,0.08305155,-0.07151319,-0.01128622,0.01586934,-0.047383808,-0.06339952,-0.03740788,-0.009535815,0.038420163,-0.11897478,0.019241625,-0.01110321,0.02434332,0.013175779,0.08447668,0.08291765,-0.021253183,0.0064511127,-0.025597164,0.05922322,-0.061797492,-0.050655987,-0.041192807,-0.012229552,-0.011343157,0.061939016,-0.032958634,0.029866159,0.007773559,-0.0473444,-0.004708725,-0.046258625,-0.0601325,0.028182015,0.06483252,0.0402811,0.05201651,0.008520035,0.023118448,0.110555515,-0.017973337,0.03536685,0.051576607,-0.013381721,0.037348237,0.009308118,-0.05178322,0.004478017,-0.013805617,-0.14036041,-0.006750541,-0.05029314,0.009270318,-0.056283392,0.04785214,0.041300595,0.027020633,-0.048530094,-0.03448905,-0.008673149,-0.055471443,-0.04057736,0.02252623,-0.06453882,-0.017384574,0.046623506,-0.07969201,0.016769862,-0.021690348,-0.008483254,-0.09062045,-0.04063917,0.00773732,0.01788556,-0.0028357059,0.07280493,-0.0001826426,-0.04854213,-0.0097039165,-0.05593189,-0.0015431619,0.016088713,0.159941,0.049173273,-0.03993401,0.004733406,-0.075047456,0.09197448,-0.03683038,0.011828947,-0.014155808,-0.026467858,-0.09333711,0.00863561,-0.00022686832,-0.014337798,0.057114244,-0.0145232575,0.050531425,0.08256806,0.0009394435,-0.05822834,0.004917925,0.025689203,-0.05492256,0.030577797,-0.080959216,-0.06082688,-0.072758764,-0.025004406,0.04947981,-0.025752889,0.038425244,0.019542772,0.062429097,-0.016952127,0.012778293,0.0032611499,0.010250646,0.08525128,0.015085931,-0.043977454,0.013422601,-0.09068196,-0.020491267,0.0316246,0.03649146,0.0072537777,-0.10199544,-0.061016697,-0.05995079,-0.07629633,-0.039637193,-0.012775519,-0.08784001,-0.021986755,-0.12050634,0.015739014,-0.030240152,-0.023615148,-0.01993139,0.030006494,-0.02587596,0.020889012,-0.08827259,-0.034351736,-0.038617224,-0.018236516,-0.053726215,0.015574105,0.018847842,-0.06280482,0.023050938,0.0033805203,0.0029179137,0.038848124,0.044029754,-0.03489752,0.032824837,0.0435238,-0.026124256,-0.035488572,0.017106809,-0.07665093,0.0010554697,0.021665007,0.10434888,0.008399691,-0.012551679,0.052493017,-0.020823393,0.041069463,-0.0038594687,-0.024545321,-0.07032729,-0.06098799,0.010861287,-0.021063063,-0.01735699,0.019563826,-0.05476901,0.031844348,-0.059570048,0.044825513,-0.026571,0.04360119,-0.014887964,-0.01736056,0.056525014,-0.03987441,-0.028912872,0.014566699,-0.015323266,-0.0656683,-0.006057652,-0.007749158,-0.023877813,0.00971975,-0.019327667,0.00820905,-0.034576107,-0.0072172508,0.065508835,0.051269807,0.015596641,-0.021307861,0.048352674,0.068832844,-0.06392215,0.02331432,-0.046064053,0.104853734,0.0030948408,0.0039276434,0.021630544,0.007429528,0.08858292,-0.01902311,0.029737998,-0.046241775,0.033863276,0.06486867,0.0016427301,-0.10705988,0.034405272,-0.038375914,0.04590047,0.0016711168,0.05242672,-0.034506768,0.04906397,0.030006515,0.09350072,-0.043436036,-0.005768448,-0.047647253,-0.044485632,0.015806314,0.011297773,-0.087916344,-0.03892485,0.005158636,0.12860729,0.05956177,0.12679379,-0.10735007,0.03977029,-0.065512866,-0.14804637,0.024695009,0.0096108755,0.07979357,-0.0076207276,0.018517924,-0.06116258,-0.08424202,-0.066286646,-0.048725013,0.076034985,-0.00824694,0.02689479,-0.021806974,0.067770146,0.0029877215,-0.035234556,0.027715802,-0.12409723,0.079483524,0.10577795,0.030373322,-0.13317537,0.114335254,0.08326798,0.028543504,0.031218942,-0.068390876,0.1322802,-0.03844071,0.051383257,-0.033387303,0.05001424,-0.019463146,-0.05459338,0.019773036,-0.16255492,0.03200428,0.01920472,-0.040695183,0.023110664,-0.014669503,0.027664706,-0.029601175,0.096957766,-0.074880525,-0.044925198,0.052640032,0.05081813,-0.007135004,0.000987703,0.010164103,0.05857183,0.045643166,0.040005375,0.007101219,0.053387847,0.014568633,-0.04490138,0.07171766,-0.06366069,-0.024990274,0.08428472,-0.012542988,-0.0055041113,0.048414182,-0.08242436,-0.01387999,0.06676333,-0.051635668,0.03737383,-0.08034037,0.011636421,-0.021190507,0.006366359,0.050856166,-0.022318358,0.056574024,0.000106566586,-0.07510178,0.058183547,-0.09825315,0.043921042,-0.106804304,-0.021405397,-0.014220018,0.006970941,0.018750677,0.061658714,-0.07258854,0.0182067,-0.03227126,-0.04714711,0.079588875,-0.0145709235,-0.044732895,0.12830319,0.0032364307,-0.005366676,-0.019437836,0.041971363,0.11517643,0.010659298,0.06915777,0.04990632,-0.008721476,-0.021931889,-0.012577975,0.07005179,0.029601537,-0.01724019,-0.019147202,-0.022045359,0.04540079,0.023605326,-0.03129378,-0.02969949,-0.10463405,0.02997987,0.08695621,0.027503368,-0.065304026,0.037463613,0.013305851,0.03511715,0.039580695,0.028717775,-0.13364416,0.014436707,-0.031632002,0.02172472,0.015027301,0.07734896,0.03381394,0.0052411715,0.00230658,0.0058887126,-0.048056465,0.047485765,3.4028664e-05,-0.002505552,0.014735105,-0.05144815,0.0127983885,-0.01210608,-0.037222113,-0.044850904,-0.065226786,0.052931458,0.05237391,-0.020970514,-0.03675159,0.025440913,0.08635386,0.011250706,0.028125148,-0.04298883,0.025526917,-0.0950892,0.011768712,0.019194202,0.015004889,0.025231741,-0.08196155,0.012094617,-0.030949512,0.03455589,-0.031912267,-0.018363588,-0.11808934,-0.032070145,-0.01243708,0.011369098,-0.058162455,-0.045017876,-0.025954962,0.001986966,-0.039275378,-0.01166022,0.005338561,-0.018127697,-0.049442757,-0.13277605,0.046629407,0.007815786,-0.016202971,0.008069212,0.06653172,0.038369194,0.025379384,-0.05201924,0.019159604,-0.0045362413,0.021224787,-0.029716639,0.021688337,0.015450889,-0.03961497,0.034476973,-0.024066197,-0.13008268,-0.05439832,-0.087553725,-0.01968536,-0.0035645105,0.04460354,0.04262975,-0.056727298,-0.011389783,0.025940727,-0.007514447,-0.10034856,0.16754586,-0.05986573,0.016230997,0.022264045,0.07014468,0.040939465,-0.00736145,-0.08989371,0.020467976,0.022171456,-0.07750295,-0.03522306,-0.00038995128,-0.006900166,-0.016916558,0.0024284162,0.035958797,0.02722697,0.065165564,0.0120371785,-0.07973185,0.021326384,0.006178641,0.087703004,0.013084115,0.047204055,0.001151735,-0.11138949,-0.04029771,0.04171805,0.058726046,0.0064314585,-0.017177166,-0.02810938,-0.011212274,0.016611047,-0.066169344,0.009357125,0.07059721,0.019274652,0.044450153,0.0057003805,2.5143847e-05,-0.040954057,0.013498166,-0.0013009086,0.027688337,0.029761493,0.05987876,-0.0056751254,0.08243498,0.069930844,-0.0769719,0.017130632,-0.053367335,-0.032396406,-0.049042378,-0.04061252,0.019406926,-0.02647271,-0.06166087,0.046169154,-0.0010656487,0.007283979,0.08360327,0.044952493,-0.019158285,0.054502707,0.01478695,-0.01694917,-0.15941069,-0.082241654,0.05012291,-0.06980688,0.07264915,0.02338177,0.009921084,0.03814287,0.0008808826,0.044335637,-0.07426175,0.050580595,-0.07777874,-0.022420805,-0.0034015812,0.06757145,0.030194288,0.026575044,0.0383041,-0.013862511,-0.06361188,0.070060626,0.053560544,0.09288506,-0.033189442,0.06899712,-0.016097885,-0.0282308,-0.0043749623,0.06422893,-0.03624243,0.006562077,-0.029736932,-0.028675811,0.022201365,0.01936472,0.071976736,0.061671328,0.13444711,-0.036726817,-0.043958962,-0.039907888,0.04678968,-0.07387447,0.0536894,0.050342083,0.036594044,0.0050854846,-0.0002890397,-0.028872797,0.056503527,0.009832697,-0.02956061,0.032423537,-0.010230257,-0.10704209,0.02837358,-0.030388582,0.02010445,-0.035579264,0.032054406,0.037779283,-0.055962034,0.023607733,0.012957168,-0.030073242,0.028037487,-0.030030351,-0.040545657,0.021729127,0.008848669,-0.10525277,-0.0040506795,-0.027477533,0.112199195,-0.055382334,-0.053027153,0.0081717055,-0.015645487,0.028379034,-0.021174822,-0.0072632674,-0.087907255,0.034439653,-0.040809557,0.045360718,-0.0025772825,-0.043823186,0.035641305,-0.08964347,0.072439946,0.08782794,-0.024312522,0.1405285,-0.0110640805,0.0817677,-0.051286064,0.049961243,0.058552835,-0.0034595833,0.07327057,0.029647106,-0.0082326,-0.05087083,-0.006050909,-0.045293223,-0.027820243,-0.0432971,0.015569147,0.07409167,-0.011979275,0.040271625,0.010400191,-0.0071645845,-0.072180584,-0.005697339,-0.05402449,-0.07459935,0.030049792,0.027612941,0.028590728,0.040106244,0.06397555,-0.10838724,0.026913319,-0.08654959,-0.0132224355,-0.030945549,-0.009126317,-0.015043497,-0.085712865,-0.026832685,-0.062140122,-0.03554953,0.03436218,0.04630234,-0.044282828,0.09715429,0.007996725,0.0038980544,0.022868559,0.14057948,0.009745304,-0.009525271,0.039021764,0.008454214,0.013304975,0.082731284,0.120362826,-0.056188498,-0.021491962,0.013999853,-0.034366414,-0.07411456,0.024721265,0.017509324,-8.3152205e-05,-0.031559203,0.05712638,0.056578074,-0.1352339,-0.015866186,0.048058797,0.034315135,0.06560925,-0.01681295,0.022580652,0.041472714,-0.0475332,-0.009089371,0.04172319,0.035702154,0.054669313,0.01628703,0.011098033,0.011382749,-0.04624697,-0.12006149,0.026235707,0.047169518,0.023556609,0.030459099,0.013019563,-0.041946992,-0.07303703,-0.01034097,0.049401697,-0.0042813737,-0.002087064,-0.083698645,0.06246525,0.010510944,0.06288354,-0.051693495,-0.02479564,0.055724118,-0.01854002,-0.018454794,-0.0020011235,0.014947582,-0.014786755,-0.025721952,-0.01671684,-0.018449172,0.0713131,0.0685541,-0.0323468,-0.047784965,-0.049843468,0.06523574,0.027458565,0.028919417,-0.012434972,0.006396454,0.00082011893,-0.0050345957,0.0008839433,-0.005547839,-0.02346215,-0.023856655,0.0012495965,0.028697746,-0.030734584,0.039900005,-0.012454796,-0.028848596,-0.02991418,0.1276667,-0.095793724,0.038726907,-0.004991647,-0.047402076,0.023957655,0.06841486,0.0013198163,0.093913175,0.06663564,-0.0022180742,0.038823605,0.05791009,-0.07979035,-0.0706178,-0.0915465,-0.008970799,-0.038932096,-0.025244603,-0.08808465,0.09969636,0.027570026,0.07734914,-0.007629064,0.01510981,0.06306973,0.08442563,-0.07391946,0.009286667,-0.08520595,-0.072554,0.0095310565,0.025691353,0.032224186,0.019356005,-0.098449856,0.039291404,0.028603418,0.071617454,-0.0580993,0.035066146,0.048934918,-0.048723597,-0.038485825,0.038587302,-0.01607212,-0.04424807,-0.02229909,0.044848632,-0.09756285,-0.0032031834,0.064990506,-0.06883676,-0.040676888,0.12922323,-0.011976507,0.034526773,0.022563888,-0.051978875,0.07658146,0.052745752,0.0059033465,-0.037104245,0.0252005,-0.032823198,-0.047509696,0.02572208,0.014739972,-0.10460909,0.021017212,0.017999701,-0.014006858,-0.09813248,0.05987096,-0.07292743,-0.07081025,-0.012664471,-0.03555253,-0.051098518,-0.082788326,-0.014303109,0.048156146,0.030554214,0.0678677,-0.061671447,-0.0048373546,0.042518318,-0.021813551,-0.10150357,0.021170093,0.080206476,-0.035295308,-0.027378948,-0.098674335,0.012650732,0.03104865,0.02542464,0.017818209,0.14353976,0.011821441,0.04468909
COC(OC)(C(=O)c1ccccc1)c1ccccc1,-0.030850317,-0.039970145,0.01700553,0.07577019,-0.032822073,-0.025837265,5.4042786e-05,-0.022288697,0.013534373,-0.05177774,0.026922695,0.02206682,-0.07765103,0.08348052,-0.019430894,-0.11587653,-0.025111677,-0.0034798542,-0.06532141,0.013787812,0.014363732,-0.022976767,-0.0074214563,0.03665164,-0.044127926,-0.026541539,0.058552556,-0.043473233,0.0033856947,0.038299654,0.007083457,-0.017028257,0.0056787487,0.019411188,0.015518287,-0.0670178,0.101129316,0.0018723365,0.02460753,0.06505626,-0.027853565,-0.114298105,0.009258449,-0.056252502,0.0019320752,-0.14320232,0.026614161,0.040203035,-0.01063159,0.0071666623,0.06319002,0.0012691058,-0.011031911,-0.0024389606,-0.036619354,-0.0041026324,0.0029063737,-0.036433958,-0.006125779,0.05747178,0.056585044,0.03661455,0.030881196,-0.020398859,-0.030186063,0.025962032,-0.03657953,0.04583882,0.03474269,0.016325697,-0.07675972,-0.031484544,-0.0007952638,-0.016115801,-0.01609934,0.04425324,-0.013841214,0.028965509,0.10523714,0.012311741,-0.037525143,-0.015287729,0.054163516,0.0076660323,0.005361395,0.0046460265,0.053805515,-0.029830255,0.00693445,-0.069378756,0.004156946,0.10626384,0.020476349,0.010959785,-0.030126903,0.04370133,0.03870444,0.0033428296,-0.03944413,-0.0032111183,-0.030016689,-0.050836623,-0.008357579,-0.011964863,-0.07488529,0.045563243,-0.02749046,-0.008897646,-0.020442437,-0.023098316,0.0046761776,-0.03844812,-0.020358257,-0.08273269,-0.03741657,-0.037697762,-0.014369244,-0.024246383,-0.13058576,0.0020648558,-0.03568214,-0.04831303,0.037702434,0.0470338,0.015496563,-0.029631171,0.0012424132,0.03384544,-0.0025168757,0.03415348,0.03913905,0.02511548,-0.0024811393,-0.009487299,-0.034334764,-0.0077798776,-0.026112711,0.05566562,-0.011230544,0.07970956,-0.004480237,-0.041903775,0.059918884,-0.03255857,0.048984196,-0.022537855,0.03661097,0.007300983,-0.028019052,-0.02433234,0.014744217,-0.013784792,-0.020319369,-0.03103239,-0.1308917,0.0053261975,-0.016599275,-0.030259889,-0.06902489,-0.010887578,0.012889014,-0.03788437,-0.042037334,-0.0044009276,0.019761391,0.12428604,0.049704075,-0.04387667,-0.0031127818,0.004445705,-0.06079552,-0.04982622,-0.048100077,-0.016784925,0.05718793,-0.08032693,0.03388998,-0.014158213,0.020255856,0.018865846,0.052187406,0.059639014,-0.033328712,-0.000884003,-0.026623828,0.037678882,-0.05579438,-0.02724186,-0.04253909,-0.035364848,0.009017937,0.046361744,-0.04310504,0.00887161,-0.003072748,-0.044969283,-0.00035381503,-0.041289087,-0.06303933,0.0060577076,0.034366958,0.0111099705,0.04619954,-0.0035372777,0.00482407,0.10700287,0.0049466966,0.01278504,0.019898465,-0.020161178,0.0139467325,0.021963898,-0.060369708,0.005440768,0.00806006,-0.09259198,0.011203391,-0.06323318,0.016651101,-0.033653732,0.038177505,0.021920772,0.013048986,-0.033220246,-0.028238729,0.011409547,-0.040561624,-0.041341275,0.01636199,-0.031133115,-0.025440387,0.04768024,-0.07758082,0.0022541583,-0.026779637,0.0052170856,-0.07495392,-0.0474621,0.013322312,0.019148935,-0.015191937,0.06325718,0.025729978,-0.048714317,-0.017849255,-0.056388717,0.009881033,-0.008192653,0.1443625,0.017452244,-0.017789682,0.010319658,-0.0501451,0.07354929,-0.037498534,-0.0011863168,-0.00850062,-0.005717136,-0.09522174,0.009673011,0.008735854,-0.0069184694,0.05899451,-0.023783755,0.021871421,0.056852095,0.009540752,-0.027949568,0.022349108,0.03109993,-0.025234649,0.031879585,-0.079190284,-0.04249638,-0.076731294,-0.036397032,0.057533365,-0.0055132583,0.013419835,0.01624932,0.065804124,0.0028714659,0.015450952,-0.01152692,0.02198331,0.09260664,0.008451167,-0.023724679,-0.009829884,-0.08077319,-0.0073889047,0.03374868,0.014039919,-0.0037867548,-0.06843104,-0.05772616,-0.037718385,-0.043828666,-0.022426428,-0.010195698,-0.056527484,-0.01492687,-0.11728208,-0.004295609,-0.038272075,-0.020714758,-0.03046254,0.003224805,-0.03497401,0.0086925775,-0.06900613,-0.04253187,-0.031091157,-0.023408793,-0.06094427,0.011935142,-0.00022970699,-0.06051159,0.0011578472,0.008158175,-0.012465594,0.01780936,0.02433389,-0.027538504,0.034528047,0.04234025,-0.029068423,-0.04398259,0.02530827,-0.045213632,-0.012973018,0.041403845,0.101319395,0.016827658,-0.033835806,0.031231388,-0.021321166,0.020328289,0.0023014415,-0.006156599,-0.07561597,-0.03350467,-0.0025032498,-0.004155863,0.0013852082,0.022774182,-0.031086374,0.04430975,-0.06036664,0.036862582,-0.010965219,0.023619777,0.0008449523,-0.011791427,0.043155216,-0.04873969,-0.03137195,0.02972047,0.0005361866,-0.04089858,-0.013241801,-0.010320954,-0.0069216974,-0.006583348,-0.021576699,0.02472266,-0.022799293,-0.026827646,0.063905895,0.03849385,0.0030015542,-0.016821135,0.069446094,0.069952205,-0.038487405,0.02629317,-0.06030934,0.08966254,-0.014793588,-0.010636764,0.032209504,0.014993214,0.07885969,-0.012107629,0.020618824,-0.049327403,0.017461438,0.037996214,0.004878952,-0.07560278,0.037129365,-0.0317895,0.047033966,0.0048068967,0.04476157,-0.041329727,0.05577673,0.011847319,0.0672645,-0.022382107,-0.018344687,-0.028575465,-0.047728226,-0.0065602204,0.0040641977,-0.06527406,-0.038359635,0.0030372427,0.0913935,0.07500669,0.11205684,-0.09014952,0.022825914,-0.050615653,-0.12497917,0.028573237,0.01840389,0.07099479,0.008502891,-0.012443155,-0.05398997,-0.06402818,-0.0698289,-0.016814213,0.07321588,0.002452081,0.023467034,-0.026403476,0.047458164,-0.015227197,-0.02374611,0.034368847,-0.079127274,0.042148277,0.058429006,0.007147707,-0.09292369,0.083449446,0.080357924,0.031498253,0.011650055,-0.033847176,0.1382218,-0.041991092,0.04731658,-0.00898367,0.044461276,-0.016262414,-0.060058203,0.027370576,-0.10972855,0.007982505,-0.00068265107,-0.024627438,0.009788509,0.0070267525,0.02547105,-0.034886934,0.078539774,-0.07043427,-0.04658843,0.053460468,0.016380513,-0.019902105,0.017133404,-0.007886807,0.05105804,0.029593976,0.016346037,0.0021465952,0.048623655,0.01608549,-0.01854524,0.0734499,-0.04035016,-0.010391897,0.077616245,-0.019324634,0.0075235646,0.026511904,-0.07305697,-0.010564081,0.044670325,-0.049623538,0.041598428,-0.055535764,-0.0077737477,-0.032009773,-0.0012014331,0.056541167,-0.032251474,0.035967432,0.014646021,-0.045723125,0.07220014,-0.10868428,0.024896108,-0.102532245,-0.028453305,-0.031707752,0.0005245963,-0.0074297674,0.03506938,-0.039246656,0.023172751,-0.026429415,-0.028324261,0.06317095,-0.01806332,-0.025181301,0.09555526,0.010287429,-0.016577777,-0.02334239,0.05511818,0.08638498,-0.005322349,0.05199979,0.02962014,-0.024201669,-0.025288237,-0.006006191,0.05404952,0.024177589,-0.0026706252,0.0048629665,-0.011625549,0.014480848,0.022241078,-0.006142836,-0.016065411,-0.076138794,0.01318036,0.06394465,0.026508389,-0.044982575,0.01546204,4.5415945e-05,0.037488468,0.015322933,0.03774125,-0.08625944,0.0066559636,-0.02006627,0.02419177,0.029587978,0.052666076,0.011803716,-0.016993675,-0.006531531,-0.005670021,-0.050805464,0.04695709,-0.009389073,-0.008174851,0.025248213,-0.055739664,0.025836775,-0.017165681,-0.0063236495,-0.041098442,-0.05526594,0.02051707,0.05560395,-0.010056289,-0.018092535,0.023516098,0.067676075,0.0047190897,0.014432714,-0.033581145,0.0049894266,-0.09041114,0.019595902,0.005052403,0.025070667,0.04034422,-0.083561465,-0.0025932603,-0.014497792,0.027682118,-0.023020029,-0.034544893,-0.111696124,-0.013833363,0.016513575,-0.010682317,-0.07170283,-0.018514708,-0.021296395,0.017333545,-0.016305823,-0.019171124,0.009013212,-0.014958365,-0.02625593,-0.12691174,0.039763175,0.012584428,-0.023606896,0.019647509,0.044561073,0.016558781,0.0072969794,-0.021138616,0.019198854,0.0039896276,0.019092634,-0.02351685,0.04091195,-0.004618382,-0.020540137,0.037773304,-0.0074673817,-0.09538455,-0.046058614,-0.07490921,-0.00075124204,0.015894126,0.038538672,0.038190916,-0.057074405,-0.022402722,0.017110841,-0.013799245,-0.102842495,0.16252851,-0.07376593,-0.00058985315,0.0203439,0.041984104,0.05260054,-0.009967913,-0.058800995,-0.0001662001,3.9887615e-05,-0.06942553,-0.045593128,0.016137455,-0.014229432,-0.025225263,0.01690455,0.018933788,0.021889605,0.056188475,0.0015158164,-0.05305359,0.024368642,-0.015969133,0.08756744,0.022842752,0.029362462,0.0035025668,-0.079116896,-0.03355544,0.04479534,0.03568938,-0.011428959,-0.024308158,-0.024798494,0.00465475,0.020419795,-0.03823404,-0.016094549,0.03700797,0.015365395,0.0462918,-0.0063505946,-0.0058819167,-0.028959608,0.023398967,0.011647699,0.027398286,0.0017446661,0.06276472,-0.009940987,0.059156757,0.041544333,-0.06350848,0.03930918,-0.033479884,-0.022368928,-0.021025043,-0.021375142,0.030179538,-0.008639222,-0.04871255,0.03094402,-0.018256463,-0.01039534,0.04731492,0.037019037,-0.03986451,0.06822641,0.016783196,-0.011885239,-0.11451502,-0.09405839,0.032377537,-0.037286814,0.0849362,0.021765437,-7.80141e-05,0.0049281744,0.0043382756,0.039422743,-0.029135209,0.050641134,-0.045255028,-0.02619528,-0.017009906,0.04782196,0.0157215,0.028160032,0.055875055,-0.010931233,-0.06589114,0.059187282,0.03193474,0.052885566,-0.015219416,0.052299563,-0.016046502,-0.029340575,-0.0016844384,0.053382024,-0.04751795,-0.005827874,-0.0051748287,-0.03640811,0.02671057,0.0121497065,0.049441975,0.047067825,0.10453917,-0.030655103,-0.04283404,-0.021900456,0.023376502,-0.057827745,0.06640082,0.028277751,0.043163598,-0.005461193,0.008913001,-0.0023924983,0.053753857,0.021147255,-0.013649487,0.046872526,-0.012211251,-0.072100215,0.01900167,-0.016950516,-0.00089860894,-0.039460365,0.0115501,0.04645555,-0.040488746,0.0072719073,0.011945986,-0.038993817,0.012168741,-0.010734881,-0.020559192,0.010842742,-0.010079423,-0.09188265,-0.0102915075,-0.03627851,0.092765175,-0.06272005,-0.04386058,-0.006883954,-0.011196109,0.041033644,-0.033169623,-0.009330816,-0.066907674,0.020730114,-0.045217678,0.03754206,0.0100449445,-0.047425654,0.036296334,-0.06369592,0.041164745,0.081069894,-0.041110393,0.10087388,0.009275472,0.08594068,-0.048810996,0.020337315,0.023151848,0.017604347,0.051207688,0.03598182,0.0037581744,-0.06665264,-0.018883992,-0.026169196,-0.013397371,-0.018116955,0.007258223,0.06219625,0.004981472,0.024785604,-0.015085631,-0.00032344647,-0.04137109,0.016188035,-0.039578088,-0.05256,0.049626775,0.024860075,0.009030929,0.046913557,0.07028031,-0.11446182,0.0075787324,-0.078370005,-0.027318887,-0.025319984,-0.022358436,0.00036966614,-0.07074546,-0.026309121,-0.039404392,-0.043721367,0.032852452,0.03152708,-0.045377363,0.09648703,0.018574791,0.027601924,0.011388499,0.14635189,0.0018322561,-0.021846013,0.050833993,0.021917704,0.02111699,0.074255265,0.09262424,-0.037480965,-0.0031568035,-0.00020578876,-0.014025366,-0.04722445,0.035316497,-0.0023883681,-0.015625352,-0.018754361,0.03351907,0.04675386,-0.1106351,-0.024722468,0.025018003,0.0028409522,0.042664237,-0.028738026,0.0156964,0.037902378,-0.054871287,0.006867714,0.0037003963,0.008223379,0.027355205,0.032816917,-0.009353557,-0.007447036,-0.055474706,-0.079887845,0.009809474,0.03717312,0.013330428,0.013915712,0.028554529,-0.026170745,-0.048741743,0.004036556,0.034504745,-0.0014741682,-0.028369395,-0.06962665,0.039748736,0.0048686275,0.04165552,-0.024257887,-0.026473997,0.058976922,-0.0096708,-0.02245268,-0.018150602,0.017614093,3.76252e-05,-0.012677264,-0.0030508693,-0.023307335,0.036571518,0.039725233,-0.03923502,-0.042589147,-0.022980062,0.0390338,0.019147456,0.03899583,0.0038049552,-0.01387133,-0.008898094,0.0055536283,-0.006454063,-0.017699167,-0.0045945826,-0.009402178,-0.006611158,0.0034217704,-0.01866521,0.057580322,-0.020337282,-0.011726593,-0.03358093,0.12636709,-0.06068898,0.042910818,0.0088599045,-0.033050098,0.0059432248,0.040605124,-0.0039492287,0.078452215,0.03368192,0.007108568,0.0129149575,0.05115934,-0.05091603,-0.052782573,-0.07022099,-0.009859548,-0.017907377,-0.01434486,-0.093460694,0.07266431,0.016945796,0.08139635,0.013618702,-0.008189194,0.030799547,0.08613552,-0.059745204,0.020148244,-0.08875326,-0.05539017,0.012281561,-0.002699105,0.031025633,0.030103974,-0.071999624,0.015176078,0.011444257,0.053600714,-0.057484075,0.040088546,0.045239955,-0.026201287,-0.031848677,0.021314526,-0.010122261,-0.027873134,-0.017081646,0.061513882,-0.079834476,-0.0028933845,0.07035932,-0.058914624,-0.02670144,0.105976865,0.006264122,0.042739134,0.03101138,-0.027941175,0.06772176,0.037556898,0.017363632,-0.052302144,0.012629215,-0.0070672906,-0.027351975,0.0077648046,0.0046925433,-0.0795524,0.032836266,0.011160602,-0.019275691,-0.06519385,0.0364682,-0.058523443,-0.06394286,-0.0077469926,-0.01859795,-0.03511668,-0.04743821,-0.024459567,0.049235303,0.027987977,0.043993033,-0.04790013,-0.031315,0.025031477,-0.011234391,-0.09231618,0.02598207,0.058850408,-0.02049335,-0.014094235,-0.056749396,0.012677681,0.011472493,0.021740582,-0.0031081894,0.13338953,0.002245741,0.03355211
C=C(C)C(=O)OCCOCCOC(=O)C(=C)C,-0.039150417,-0.046131395,0.0104908915,0.086734384,-0.030924072,-0.01924809,0.0019830568,-0.025994612,0.008806193,-0.052058894,0.037294928,0.03269354,-0.062393576,0.09605601,-0.02433379,-0.121169776,-0.025066143,-0.0039609345,-0.06224797,0.027516093,0.021638045,-0.031865273,0.00060576946,0.039289825,-0.04507985,-0.021850415,0.057828456,-0.031720847,0.00016072765,0.024038196,3.3058226e-05,-0.023077618,0.011910295,0.0238139,0.016119136,-0.06630395,0.08565824,0.005441077,0.025001286,0.069973275,-0.02808132,-0.10287989,0.013231422,-0.050668612,0.010917509,-0.14112233,0.023757728,0.039845485,-0.013832356,0.010137426,0.07446597,0.011592774,-0.017621301,-0.012659196,-0.030561421,-0.009647977,0.009040607,-0.03815088,-0.020096421,0.052021347,0.06668297,0.035774276,0.035955425,-0.0015662424,-0.037141636,0.025669524,-0.038204,0.04724276,0.032520425,0.018905113,-0.07863907,-0.03456987,0.0032514315,-0.013551289,-0.015342675,0.047146343,-0.02168567,0.03797982,0.107088745,0.0042153206,-0.03879751,-0.018965585,0.050234195,0.009726648,0.004730339,0.01334654,0.063979074,-0.038092934,0.00590239,-0.07929712,0.0046950104,0.10519403,0.0274274,0.0039677285,-0.019594725,0.040144816,0.036062784,0.0047617373,-0.028479945,0.0013039624,-0.015643626,-0.049659874,-0.009131336,-0.0034613428,-0.08070278,0.036326658,-0.03405931,-0.010748133,-0.020122629,-0.025996242,0.00821798,-0.048795912,-0.022532936,-0.07245103,-0.039676007,-0.037213553,-0.011198288,-0.03047325,-0.1259017,0.005853759,-0.039202802,-0.044989888,0.043118525,0.04591053,0.020227399,-0.024554133,-0.012921838,0.024297599,0.005261543,0.034103684,0.05091538,0.0384883,-0.0006780401,-0.0043720417,-0.029910559,-0.013664738,-0.02243778,0.065351605,-0.009248461,0.08835031,-0.00082548335,-0.043967877,0.06322335,-0.046698656,0.053531643,-0.030074667,0.047305327,0.0016962525,-0.038073637,-0.025746025,0.029864889,-0.012432897,-0.031721357,-0.03651721,-0.13177203,0.0063509056,-0.017510822,-0.033535883,-0.068362296,0.0059745875,0.010641221,-0.031144531,-0.045369223,-0.0027840305,0.026393127,0.110737495,0.055770706,-0.04925783,0.0036719237,-0.0018135328,-0.05542589,-0.060676947,-0.04424409,-0.024401277,0.062732264,-0.07896678,0.037941642,-0.026754566,0.035935845,0.027681898,0.046918564,0.052201457,-0.02934831,-0.008031286,-0.033145703,0.046819262,-0.070479184,-0.022807151,-0.03624701,-0.042324122,0.011069602,0.05675687,-0.05410864,0.0065495903,-0.013084775,-0.055479564,0.008785995,-0.048605356,-0.06346397,-0.0051667485,0.03304963,0.010013968,0.05606056,-0.0044372203,0.0074841077,0.11726819,0.0092593795,0.01749434,0.023721753,-0.022416163,0.010726374,0.024467034,-0.055910066,0.010733229,0.0074759945,-0.104015715,0.008838418,-0.06122342,0.017722707,-0.02511291,0.041946895,0.01744438,0.005935082,-0.034479022,-0.044896252,0.009636331,-0.022125222,-0.052552227,0.009780076,-0.02977145,-0.032427832,0.051159117,-0.07615874,0.0024421085,-0.024799712,0.006623523,-0.08936626,-0.04459609,0.021829447,0.02094161,-0.018255096,0.071599185,0.016801132,-0.054586902,-0.011153362,-0.055725705,0.012803873,-0.009123959,0.1449514,0.023418177,-0.018103233,0.011128826,-0.04270686,0.0764728,-0.04460173,-0.0032244269,-0.022130605,0.0028521102,-0.08728948,0.012778429,0.014425893,-0.007427168,0.06168116,-0.023446543,0.01941737,0.06406445,0.009962669,-0.034807783,0.036066588,0.025453322,-0.030768713,0.03698009,-0.07749727,-0.038329817,-0.07814828,-0.04048985,0.052149057,0.0036452757,0.019658322,0.025913967,0.07561727,0.0067657875,0.020163765,-0.013813261,0.020436954,0.09375941,-0.003457049,-0.021270815,-0.010334343,-0.08427316,0.00054528564,0.03250214,0.0123857,-0.017955633,-0.057529718,-0.060736325,-0.03147632,-0.043395698,-0.012935294,-0.018949632,-0.055819403,-0.010083688,-0.11615284,-0.0056208754,-0.04596642,-0.030295022,-0.034889325,0.0068186214,-0.046297707,0.007054622,-0.07331318,-0.04673858,-0.048486244,-0.019213416,-0.06718071,0.020182554,-0.00083174,-0.060136497,-0.008072098,0.0128291445,-0.017744841,0.008116744,0.015654087,-0.036517546,0.03864859,0.053870227,-0.03025919,-0.038196493,0.02703479,-0.041479558,-0.012103564,0.03909616,0.101847686,0.022928502,-0.027611416,0.031003553,-0.030124126,0.022014467,0.0048951665,0.00046982244,-0.08184679,-0.027865654,-0.013263352,0.002929654,-0.004861813,0.02321158,-0.02661579,0.037209034,-0.063409746,0.041051276,-0.013403568,0.02447022,-0.001657587,-0.010331798,0.05131066,-0.05089651,-0.044832643,0.02874061,0.0073944675,-0.037652347,-0.010522013,0.006129647,-0.011885727,-0.012248417,-0.032766834,0.024901811,-0.034403622,-0.019132132,0.06844596,0.036203332,0.00448443,-0.021000292,0.05648805,0.07331005,-0.037076283,0.026383387,-0.06899311,0.09420084,-0.010124811,-0.0104010515,0.034308046,0.018030915,0.08181679,-0.00049258117,0.019577123,-0.04518996,0.028358122,0.034352344,0.0143257575,-0.0748661,0.042237453,-0.041698698,0.07278263,0.009265505,0.045216814,-0.05011291,0.060276754,0.019237034,0.055369675,-0.0196395,-0.018124707,-0.016420202,-0.065360285,-0.0047137644,0.011357043,-0.0699361,-0.04140324,0.0068150163,0.084032424,0.07525273,0.11103161,-0.08907541,0.024256986,-0.06981356,-0.12738915,0.029400062,0.024966104,0.0658896,0.006821443,-0.016654745,-0.06237817,-0.05408805,-0.07433448,-0.01834239,0.07447138,0.012093237,0.018531479,-0.033694465,0.05110479,-0.013882998,-0.014974941,0.031615917,-0.08697219,0.04325807,0.067332625,0.0075240326,-0.08940416,0.07470937,0.078944154,0.03579546,0.007293441,-0.03847508,0.12146008,-0.044253666,0.04012789,-0.013340181,0.04572217,-0.008476166,-0.061474826,0.032575708,-0.12353523,0.012617854,0.006917161,-0.026117994,0.01661841,0.008902103,0.035710827,-0.039368108,0.094296604,-0.06706851,-0.05140628,0.0652556,0.020955263,-0.023114854,0.012899691,-0.005148655,0.04607884,0.0269177,0.013668152,0.00037079677,0.0573028,0.02898981,-0.020858679,0.07783247,-0.030987121,-0.005583523,0.07349689,-0.009442844,0.00982235,0.020144753,-0.06610361,-0.0094018,0.03246475,-0.053921193,0.03991212,-0.05258948,-0.01090219,-0.037867106,-0.0070778606,0.066465035,-0.03017427,0.037253503,0.0073918113,-0.05052165,0.07527,-0.11430791,0.018819064,-0.08593448,-0.03475617,-0.027998105,-0.005800676,-0.006264949,0.03520353,-0.04553555,0.025397338,-0.02097626,-0.02895632,0.07430141,-0.023137456,-0.020814732,0.092886925,0.005843245,-0.010246456,-0.02202804,0.06052176,0.08310057,-0.01923484,0.04489738,0.025843695,-0.03331234,-0.02385638,0.003746514,0.05461547,0.0112451855,0.00091202185,0.0110604735,-0.011251856,0.020642633,0.03819696,-0.009705851,-0.006473271,-0.08112076,0.00081111677,0.07506642,0.037769586,-0.033448737,0.017107237,-0.0016038371,0.04278797,0.008336816,0.05328911,-0.09455954,0.0009635128,-0.030155396,0.027497414,0.027508702,0.046013013,0.0034055933,-0.01957092,-0.01699323,-0.014341058,-0.045781936,0.053050794,-0.0059735123,-0.018066004,0.028729018,-0.053901587,0.028511804,-0.02466304,-0.010866829,-0.052643575,-0.0649786,0.0175048,0.060592942,-0.0011060089,-0.021862606,0.013440587,0.07776856,0.0023919875,0.0011145622,-0.037895408,-0.00017820136,-0.09482974,0.03306189,0.013209611,0.022784106,0.05657814,-0.091597594,-0.006518552,-0.011513686,0.037538167,-0.0360818,-0.0442928,-0.112613685,-0.009574597,0.0065387264,-0.007426233,-0.07243919,-0.020725004,-0.025931759,0.022757316,-0.015391846,-0.01969316,0.016336326,-0.015514534,-0.029695291,-0.12403103,0.046030678,0.020838251,-0.021799278,0.028954025,0.028344508,0.012193616,-0.0007324405,-0.025035152,0.024224674,0.00883501,0.02918221,-0.012646826,0.03935323,-7.5131655e-05,-0.016548363,0.043832168,0.0005151015,-0.093353614,-0.057968635,-0.07396636,0.0018248614,0.011209284,0.04811038,0.053558405,-0.054969147,-0.029897962,0.018565677,-0.020963272,-0.1078081,0.14896221,-0.07901554,-0.00740214,0.029144727,0.040704913,0.051140964,-0.010605157,-0.06762872,-0.0045082076,-0.0034850873,-0.0781453,-0.043023024,0.015457345,-0.017808989,-0.029597148,0.02695424,0.012453431,0.014700153,0.06465016,0.0010100352,-0.048348445,0.029285312,-0.015104307,0.08610783,0.02508405,0.02353686,-0.0039863866,-0.075942904,-0.044599224,0.0395845,0.02653154,-0.006525509,-0.028846787,-0.015303858,0.0024252571,0.030015893,-0.03995648,-0.011413354,0.03780266,0.026790183,0.043774318,-0.0064887246,-0.01163535,-0.0455252,0.025857529,0.012413898,0.031984724,-0.0016986951,0.06331611,-0.022506703,0.0459872,0.046435833,-0.07591261,0.04283101,-0.026986446,-0.017129002,-0.02721015,-0.014969319,0.03303125,-0.00057446957,-0.043873977,0.043469183,-0.024935737,-0.013160168,0.039036404,0.04305621,-0.04650543,0.07878558,0.02000723,-0.026134798,-0.11630459,-0.09342477,0.027109079,-0.037443392,0.09357242,0.031659827,-0.011045471,0.009459617,0.0147896875,0.049609326,-0.041573286,0.058974672,-0.039646775,-0.027733613,-0.021425009,0.040300906,0.016245026,0.021390686,0.055284545,0.0017023869,-0.06571802,0.066755265,0.03605525,0.05328538,-0.016277932,0.06719292,-0.026840253,-0.034498967,0.000808239,0.054026037,-0.04854345,-0.010424439,-0.0057332544,-0.03739837,0.031346515,0.016027594,0.048905656,0.040280554,0.11772878,-0.039985992,-0.049183846,-0.016428266,0.01746715,-0.06638534,0.069915354,0.029348549,0.042013995,0.00051868707,0.0047560204,-0.006546386,0.058635864,0.015404099,-0.020053864,0.06499524,-0.02304295,-0.07648097,0.016960882,-0.006147391,-0.006699765,-0.04135764,0.009166556,0.05226715,-0.030110385,0.0043520276,0.020769015,-0.042319845,0.008738374,-0.0039631734,-0.011061359,0.0022179782,-0.007889904,-0.0937032,-0.005143922,-0.035887398,0.09962385,-0.056145333,-0.03665401,-0.007370938,-0.006342493,0.040861227,-0.03597329,-0.009938238,-0.076042295,0.01410866,-0.05173141,0.043827865,0.008212667,-0.054091364,0.041769832,-0.05247493,0.041462943,0.07992016,-0.044205014,0.10013926,0.012032598,0.088431515,-0.049546994,0.022402817,0.028517364,0.01097628,0.05096846,0.038673334,6.225519e-05,-0.08714828,-0.016556937,-0.017668016,-0.010280535,-0.018867113,-0.0020121196,0.06829001,0.0043701315,0.021382738,-0.018822238,0.0085040955,-0.040458195,0.018599229,-0.049562886,-0.04933568,0.051114008,0.039596334,0.00817835,0.04834962,0.07213179,-0.11854088,0.013273224,-0.08907491,-0.029620819,-0.0383282,-0.024511993,0.0048529077,-0.07288914,-0.035496686,-0.036329452,-0.0430473,0.036793903,0.022125613,-0.046702284,0.0988726,0.019480411,0.033089384,0.0041222414,0.13986027,-0.0037639178,-0.020812793,0.046577975,0.018428896,0.028141651,0.078434885,0.09558933,-0.036318652,0.009630768,0.0003087204,-0.016471634,-0.050205953,0.04031706,-0.0018155905,-0.011031602,-0.01779223,0.03242561,0.053988528,-0.11687585,-0.028825965,0.02037698,0.00440879,0.044058546,-0.03328574,0.0057406947,0.04751048,-0.06004592,0.010457136,0.015449481,0.011048812,0.028085854,0.029515097,-0.003097579,-0.015824355,-0.05207646,-0.080466285,0.017099954,0.037184693,-0.0030005178,0.0075089373,0.027772363,-0.01814515,-0.035391975,0.011554919,0.022436295,0.0025569517,-0.024337957,-0.06850497,0.03684214,0.017916413,0.038037222,-0.029916909,-0.03721924,0.06381953,-0.0010692719,-0.026066598,-0.023393136,0.021862611,0.0026379228,-0.010436426,-0.0005429452,-0.022016894,0.034148537,0.038946807,-0.039812848,-0.04560691,-0.029145915,0.03498906,0.018058946,0.035211865,0.0071789636,-0.01696761,-0.008872166,0.0102744615,-0.012301604,-0.023635522,0.0083661275,-0.0055387113,-0.016690519,0.0072694034,-0.008499182,0.05489187,-0.025357008,-0.015803853,-0.034848884,0.118790716,-0.05232743,0.04665651,0.017030738,-0.034646794,-0.003975587,0.049079835,-0.004065605,0.08216229,0.04289411,0.009924771,0.0059757456,0.050973646,-0.046198215,-0.04728635,-0.065067805,-0.018239005,-0.012251068,-0.0098948935,-0.08873166,0.06604538,0.007864622,0.07763443,0.0071207825,-0.0118874265,0.03628456,0.0756713,-0.072917685,0.01941666,-0.082741976,-0.07222931,0.015363417,0.002927579,0.044316046,0.028852236,-0.07221008,0.0118879955,0.01073334,0.07160121,-0.062705725,0.039976176,0.034053847,-0.024015222,-0.037447214,0.018518157,-0.006571316,-0.038739283,-0.03322488,0.055016134,-0.08660503,0.011037216,0.08081961,-0.07018537,-0.0319278,0.114077345,0.014879296,0.04357329,0.024716184,-0.014412502,0.08061355,0.031197695,0.026707767,-0.06507128,0.010970904,-0.007953559,-0.02476133,0.0005076383,-0.0077382186,-0.0710363,0.030294959,0.0052859513,-0.027946152,-0.0615781,0.034846444,-0.06936552,-0.064898595,-0.0038108937,-0.02030156,-0.03245537,-0.044236608,-0.025247648,0.055024814,0.039251965,0.03395911,-0.037810158,-0.028431121,0.013823837,-0.023668366,-0.092388,0.03018329,0.056205772,-0.0154056065,-0.0062496383,-0.07192695,0.022087244,0.0064728404,0.010666212,-0.006684159,0.13042626,-0.008271066,0.04394176
C=CC(=O)OCCOCCOCCOCCOC(=O)C=C,-0.040152162,-0.046909276,0.009367812,0.08699931,-0.031073665,-0.018153235,0.0014154827,-0.027498612,0.009149061,-0.05164732,0.039189994,0.034505658,-0.060742084,0.09823725,-0.024924587,-0.12136356,-0.024722775,-0.005219031,-0.0627059,0.029311493,0.02191993,-0.03201986,0.0027501006,0.039471254,-0.0450816,-0.021214668,0.05783444,-0.029693035,-0.00080824643,0.022209812,-0.0018502139,-0.023206858,0.012294628,0.02540642,0.01564218,-0.06671634,0.08302105,0.0057991017,0.023742454,0.071283765,-0.028696517,-0.100991406,0.013233453,-0.050949007,0.011333134,-0.13809949,0.023242524,0.039477468,-0.015424542,0.010838378,0.074661784,0.0123752775,-0.017722834,-0.013422586,-0.02869675,-0.010726013,0.009643501,-0.038026832,-0.022540243,0.052419417,0.068199635,0.034639943,0.036668595,0.00033415202,-0.037309837,0.026523186,-0.03770595,0.047438085,0.032244876,0.019139983,-0.07876012,-0.03430471,0.004159488,-0.01368632,-0.0152547285,0.04747697,-0.02283487,0.0394511,0.10847162,0.0014878046,-0.039110832,-0.01946535,0.04820064,0.010558832,0.0045727147,0.014360357,0.06443008,-0.038541093,0.006339445,-0.08070307,0.0050735846,0.1057797,0.027823346,0.0035228776,-0.017840536,0.039626956,0.036420885,0.0047843955,-0.02559771,0.0022451384,-0.013793713,-0.049499165,-0.009035292,-0.0025809063,-0.08110809,0.03369683,-0.035341322,-0.011619075,-0.019320657,-0.026826587,0.008065192,-0.05062582,-0.023317084,-0.071773656,-0.041075714,-0.038239904,-0.011312373,-0.03250578,-0.1249991,0.0063864803,-0.03805377,-0.042657692,0.04364755,0.045100167,0.020459723,-0.024769899,-0.014450224,0.022639547,0.005560817,0.034769543,0.051758084,0.04001798,-0.00012361724,-0.0041484144,-0.027898835,-0.014649726,-0.02045713,0.06613449,-0.009363055,0.08814978,-9.165518e-05,-0.044089016,0.06400782,-0.04714394,0.05472211,-0.030025795,0.048669405,0.001308217,-0.038894787,-0.026902284,0.031366855,-0.012659419,-0.033092406,-0.037423886,-0.1324041,0.0073070545,-0.017702013,-0.03473764,-0.06878833,0.007995984,0.01082373,-0.029480131,-0.045996863,-0.0017221104,0.026063662,0.109239325,0.056391474,-0.049892373,0.0046607573,-0.0026186535,-0.053344537,-0.060717795,-0.043644037,-0.024683587,0.062056452,-0.07973834,0.039927773,-0.027309034,0.038426302,0.02848532,0.0457932,0.052202053,-0.027960327,-0.009862956,-0.033428982,0.049025655,-0.07244644,-0.021082621,-0.036954045,-0.041651495,0.010313023,0.056410395,-0.055358153,0.005901105,-0.014620563,-0.057004765,0.01023333,-0.049172577,-0.06268528,-0.006373588,0.032768983,0.010186454,0.056709133,-0.0047462387,0.007888911,0.11898729,0.009296867,0.018905073,0.024426913,-0.022915523,0.01052116,0.024151126,-0.056111112,0.01189237,0.007299412,-0.10512515,0.008613487,-0.061015915,0.018709904,-0.024720939,0.041910335,0.015722517,0.006336551,-0.034172177,-0.04652583,0.009161308,-0.019958243,-0.053348016,0.008690921,-0.030109238,-0.03396097,0.051188715,-0.07502867,0.003174101,-0.023890594,0.005713712,-0.09061793,-0.043670602,0.023724569,0.021576623,-0.017917328,0.071880005,0.016267382,-0.05476678,-0.010173393,-0.054367006,0.01129971,-0.00812565,0.14462063,0.02488656,-0.017827546,0.01177793,-0.04031716,0.07641102,-0.046356387,-0.0033191238,-0.02312394,0.004098952,-0.0857808,0.013829757,0.015924044,-0.00744408,0.062017187,-0.024058063,0.018995661,0.066722065,0.010655082,-0.037546262,0.037990496,0.02449951,-0.030871855,0.037718203,-0.07741697,-0.0384198,-0.07802313,-0.040570334,0.05167899,0.0054184897,0.02020937,0.026576351,0.07716711,0.0059216833,0.020637672,-0.014161372,0.020208124,0.09203378,-0.0054453593,-0.020967176,-0.009731622,-0.08499667,0.0019930229,0.031631045,0.011148248,-0.019397408,-0.055772193,-0.061496843,-0.032133337,-0.042311892,-0.011682088,-0.019865613,-0.05574504,-0.0098931035,-0.11525817,-0.0054052034,-0.044833407,-0.032342654,-0.03468593,0.008867555,-0.04716046,0.0068596704,-0.074059725,-0.047739588,-0.049991857,-0.018025473,-0.06784942,0.02154667,-0.0016174279,-0.060047586,-0.008532934,0.014216334,-0.017810829,0.0071275737,0.014563726,-0.03692109,0.03904087,0.054983396,-0.030917915,-0.036145028,0.027130319,-0.041110948,-0.014022892,0.03858091,0.102479056,0.023768976,-0.026233476,0.029690642,-0.031734362,0.022040883,0.005891553,0.0012613535,-0.08197201,-0.026658269,-0.01462519,0.003995599,-0.006450968,0.022659836,-0.026012579,0.03473195,-0.06380332,0.041473586,-0.012730241,0.02480409,-0.0014784434,-0.009077789,0.052565604,-0.051147074,-0.04558182,0.027725846,0.008028702,-0.036943804,-0.009404094,0.0076237503,-0.01340525,-0.014214976,-0.033824727,0.024762364,-0.035521526,-0.018323835,0.06978669,0.036660865,0.005371459,-0.020887684,0.05371245,0.07265918,-0.03565753,0.025344567,-0.07101103,0.094489194,-0.009245793,-0.010444595,0.033316746,0.019609172,0.08164123,0.00096694357,0.02014691,-0.044644188,0.030010821,0.033506095,0.016411405,-0.07603129,0.042263716,-0.043559317,0.07415568,0.01004722,0.045511074,-0.050556418,0.060077444,0.02113479,0.054422878,-0.019229468,-0.018823108,-0.014910882,-0.06728032,-0.0046112975,0.01126906,-0.07111632,-0.04120862,0.006798394,0.08337626,0.07571943,0.109967485,-0.0886126,0.024167331,-0.07207853,-0.12684917,0.028928839,0.02526928,0.06446674,0.006593788,-0.017024104,-0.062660836,-0.052719317,-0.073141575,-0.01866157,0.07456351,0.013033378,0.017887093,-0.03504432,0.05367849,-0.014110212,-0.014740165,0.031761725,-0.08781719,0.042489342,0.06830592,0.008615646,-0.08835366,0.0738941,0.076849215,0.03612122,0.007797637,-0.04104492,0.117104426,-0.04416164,0.04015985,-0.01460447,0.04517318,-0.007590303,-0.060875807,0.031957768,-0.12581003,0.012919814,0.0071626166,-0.02639944,0.016873913,0.008885788,0.03713718,-0.038756344,0.09672531,-0.06704664,-0.052214965,0.06579534,0.0210123,-0.02279544,0.012222305,-0.004292663,0.04561775,0.027148267,0.014534049,-0.00021108799,0.05853628,0.028887428,-0.02140882,0.07777067,-0.029610604,-0.005848636,0.072872385,-0.008196805,0.009689733,0.019554209,-0.064838864,-0.00857625,0.031833313,-0.054490127,0.039251424,-0.051999744,-0.011280808,-0.038370937,-0.00754557,0.06779406,-0.028368132,0.03815312,0.0059796935,-0.051966503,0.07602668,-0.11459061,0.017734207,-0.08227824,-0.03528563,-0.025350299,-0.0066279336,-0.0050246455,0.03535061,-0.046448328,0.02537147,-0.020445421,-0.028940164,0.07428475,-0.021142224,-0.01935944,0.09214756,0.0053634904,-0.009690966,-0.021503454,0.06045921,0.08295828,-0.021393737,0.042894084,0.026188966,-0.034639426,-0.023654569,0.0040907264,0.05538464,0.00902506,0.0018956065,0.0113304565,-0.009961328,0.022111272,0.040863216,-0.0103995055,-0.0045087542,-0.08116914,-0.0010093749,0.07486958,0.0395675,-0.03429278,0.017133461,-0.0016327193,0.04398537,0.0073684286,0.055494957,-0.09643291,0.00019449089,-0.03155755,0.026539706,0.02650711,0.044847902,0.0020444375,-0.019400792,-0.018321462,-0.016481698,-0.045945056,0.053283572,-0.0054248627,-0.019803498,0.029029593,-0.052899614,0.028912557,-0.025714414,-0.011306188,-0.05358767,-0.06672179,0.018648732,0.06132472,0.0016170032,-0.023580901,0.012209856,0.07902576,0.0026926482,-0.00034460798,-0.038361013,-0.00018538418,-0.0956932,0.03575623,0.014293188,0.023045328,0.059194956,-0.09022586,-0.0058158617,-0.011521453,0.03751647,-0.037716635,-0.045214064,-0.11205821,-0.009633535,0.0047461353,-0.0072010467,-0.07122044,-0.021801641,-0.025124054,0.02345456,-0.016643388,-0.019381734,0.017726364,-0.015921216,-0.030025627,-0.12225485,0.046959043,0.022008412,-0.022404268,0.028509978,0.026021542,0.010976895,-0.0010280088,-0.02631889,0.024824405,0.008931914,0.029328382,-0.0112581905,0.03894254,-0.00022081845,-0.01640387,0.044094294,0.0002582837,-0.09386591,-0.05930882,-0.074018374,0.0007359814,0.011497664,0.049565658,0.055196222,-0.0549163,-0.031089276,0.019156419,-0.022060027,-0.10653052,0.1475248,-0.08000508,-0.007875642,0.02978529,0.041246977,0.049449615,-0.009617313,-0.06915476,-0.00574457,-0.0057180724,-0.079502,-0.042808846,0.014768308,-0.017639276,-0.030182593,0.026432857,0.010108132,0.013501856,0.06522513,0.0006872623,-0.04816365,0.029760584,-0.015929459,0.08539367,0.024947869,0.022847123,-0.0050698887,-0.07567221,-0.04662421,0.03847594,0.0250349,-0.0062568234,-0.028867869,-0.013468074,0.0015516244,0.030273968,-0.042021573,-0.010423176,0.038283918,0.028432563,0.04309887,-0.006396727,-0.013134051,-0.04603182,0.02492658,0.01256625,0.032469153,-0.0019846857,0.06389269,-0.024269529,0.04429804,0.04671953,-0.076099604,0.04306844,-0.026426647,-0.017448034,-0.02842864,-0.014189435,0.032324288,-0.00061102584,-0.043109246,0.043715533,-0.024748735,-0.012135656,0.037153244,0.04332003,-0.046961494,0.07949421,0.019773062,-0.027768126,-0.116278976,-0.09271873,0.027492836,-0.038040187,0.092996776,0.03294675,-0.0120821,0.010139216,0.016497012,0.050386682,-0.043673668,0.059088223,-0.038230345,-0.02701915,-0.021739006,0.040238187,0.016138082,0.019564338,0.055077687,0.0028950945,-0.06504898,0.06726138,0.035522684,0.05233782,-0.016984116,0.06828066,-0.027695114,-0.035251725,0.00082655065,0.055128053,-0.047645133,-0.010290956,-0.0057707475,-0.03690424,0.032135755,0.015719464,0.048582487,0.038873978,0.11942971,-0.041041106,-0.05019393,-0.015797352,0.016572816,-0.06802064,0.07040049,0.028818974,0.041646644,0.000616929,0.0030134162,-0.0076485123,0.058608413,0.013702639,-0.02061132,0.06628701,-0.023065574,-0.077192806,0.018546619,-0.0049158353,-0.0074665053,-0.040313344,0.008565995,0.05343046,-0.027835246,0.004896706,0.022086488,-0.042443708,0.008528927,-0.0035165017,-0.0102329105,0.0012357347,-0.008044853,-0.093937635,-0.0048248414,-0.034330003,0.09815445,-0.054978766,-0.035664205,-0.006804675,-0.004836574,0.04153186,-0.035491765,-0.011036707,-0.07753217,0.01360379,-0.051584564,0.044359777,0.008345395,-0.053900905,0.04219138,-0.051918097,0.04168401,0.080797896,-0.043229897,0.09954263,0.011751579,0.08794743,-0.049608544,0.023192156,0.029412165,0.009321358,0.051369924,0.038771056,0.00023015123,-0.09063755,-0.015542846,-0.017679457,-0.01176212,-0.019141305,-0.0034681144,0.069570825,0.004169037,0.02133694,-0.018910209,0.009692324,-0.041268505,0.018175298,-0.050881226,-0.04942609,0.052489817,0.04031484,0.0075479876,0.048564,0.07186839,-0.118547946,0.014500636,-0.09016479,-0.028422862,-0.039607264,-0.022768293,0.0053848857,-0.07373123,-0.037490096,-0.03551033,-0.042791717,0.037397623,0.02025722,-0.04645528,0.09714551,0.019988135,0.033162832,0.0034645202,0.13904583,-0.0044569205,-0.020223478,0.045253083,0.017894145,0.028546682,0.07791802,0.096467294,-0.03690913,0.009745888,-0.0003954675,-0.016500736,-0.050020054,0.04138048,-0.0021963909,-0.011349919,-0.017694144,0.032592915,0.054133467,-0.11784073,-0.028438566,0.019577075,0.004298215,0.04400629,-0.03301114,0.0039735157,0.04926775,-0.059361346,0.011383589,0.016989384,0.01113778,0.027944878,0.029001663,-0.001435547,-0.016426686,-0.050635226,-0.08053783,0.018117718,0.036788374,-0.0054255533,0.007717201,0.028904647,-0.017188413,-0.034313772,0.012295876,0.020134754,0.0041009868,-0.023761371,-0.06829045,0.037457995,0.019115012,0.037460458,-0.030359242,-0.037864782,0.06465129,0.00051512104,-0.025954302,-0.024016041,0.02085052,0.0025500613,-0.009771624,0.00020341249,-0.021603614,0.03375435,0.03891165,-0.040555343,-0.04571601,-0.03055716,0.03546167,0.01815557,0.0345513,0.0072410367,-0.017031483,-0.009089796,0.010540873,-0.012034232,-0.024458509,0.009639489,-0.0053738747,-0.017133266,0.008547215,-0.005631447,0.055294067,-0.026641788,-0.015868574,-0.03522457,0.11615807,-0.050562605,0.047669537,0.018267956,-0.036006354,-0.0053026658,0.05040717,-0.0031750714,0.082486905,0.04376954,0.009859615,0.006150676,0.050011385,-0.045256674,-0.045932543,-0.06447142,-0.02017525,-0.011969954,-0.009191277,-0.08752839,0.064177684,0.006351758,0.075929284,0.0066807233,-0.012767129,0.036665894,0.07248467,-0.07462016,0.019443203,-0.08236912,-0.07443144,0.016475081,0.003493798,0.04674431,0.028707413,-0.07242912,0.010737153,0.01050442,0.07451253,-0.062317044,0.03817132,0.032201815,-0.023546578,-0.038404092,0.017598802,-0.0066001834,-0.039786562,-0.03435539,0.05314899,-0.086244,0.011802468,0.08060022,-0.07072137,-0.03296885,0.11529698,0.015139172,0.043695766,0.023905471,-0.011076324,0.08291981,0.029829253,0.027182614,-0.06589911,0.010932395,-0.008730805,-0.024204198,0.0004243781,-0.009363658,-0.06834337,0.029367667,0.0040048873,-0.028253581,-0.060744938,0.03423086,-0.070783645,-0.06430104,-0.0029310174,-0.020483576,-0.032298204,-0.04318911,-0.025511375,0.055460658,0.03987772,0.033094116,-0.037129216,-0.027600706,0.011038025,-0.025559273,-0.092508785,0.030790135,0.055106506,-0.014791347,-0.0033642333,-0.073049664,0.02337167,0.006474683,0.009924867,-0.006503002,0.12882006,-0.01015708,0.045311064
C=CC(=O)OCCOCCOCCOCCOCCOCCOCCOCCOCCOCCOC(=O)C=C,0.010653533,-0.030758545,0.03003202,0.058195475,0.02350218,-0.012614754,0.026074417,0.014954094,-0.004001191,-0.03664593,0.023687042,0.031391446,0.022631882,0.04838128,0.011047701,-0.039198563,-0.01639199,0.017698562,-0.014460014,0.041126948,0.002585488,-0.014933399,0.027930442,-0.0091280695,-0.03571987,0.021756792,0.032463178,0.042324595,0.02504612,-0.022794865,-0.036274895,-0.0246763,0.018749233,0.03418996,0.008303677,-0.038162977,0.01283446,0.033720862,0.01729566,0.027697703,-0.040611807,-0.047974933,-0.026538722,0.02606991,-0.002769705,-0.09151661,-0.027608704,0.022225803,0.023949774,-0.018170513,0.031978592,0.039373673,-0.041564498,-0.014544506,0.029147677,-0.032036263,0.025604786,0.002358473,0.013398565,0.031693395,0.046003263,-0.026274808,0.01686295,0.033957303,-0.005934617,-0.008212821,-0.002076961,-0.01532365,0.040105462,-0.019666929,-0.059277304,-0.034151196,0.022943947,0.020606019,0.019058658,0.05379626,-0.04026619,0.02018799,0.034379452,-0.024884906,0.010788771,-0.028575875,-0.025971998,0.02731738,0.029608767,0.0215264,0.02526262,-0.0054830667,-0.018895991,-0.013716751,0.008452213,0.009268347,0.027020238,-0.01828416,0.01487986,-0.01824497,-0.011180085,-0.026827697,0.027363203,0.03828398,0.036821283,0.020574955,0.012244454,-0.01649034,0.022129446,0.022859905,-0.009533983,0.02477978,-0.032171525,-0.021226693,0.013927257,-0.0010655895,-0.029930431,0.028211314,-0.024695624,-0.02120184,-0.0427939,-0.024716433,-0.048282556,0.007885405,0.021147842,0.004494192,0.034589052,0.026320837,0.044847846,0.016645562,-0.037504442,0.014776242,0.037467815,0.029763695,0.019722516,0.02444325,-0.0027457485,-0.019408196,0.034607626,-0.015396608,0.0219484,0.03486815,0.016268069,0.0356632,0.030643277,-0.035082363,0.030853227,-0.02818766,0.019838769,-0.021580312,0.03880796,-0.037812527,-0.018361585,0.016722394,0.0015999153,0.02793021,-0.007517078,-0.018165998,-0.06584638,0.0062776413,0.016273344,-0.022257643,0.0013937484,0.029877609,0.026778929,0.0068060886,-0.03332554,0.031805985,0.030839764,0.026259117,-0.011413147,0.013613429,0.017792545,-0.024811797,-0.03484324,-0.014649034,-0.034508094,-0.027911846,0.064792484,0.0127586415,0.038777504,-0.026288334,0.03692393,0.032028135,-0.044853512,-0.014641512,-0.014899235,-0.026115872,-0.02101065,-0.0011554621,-0.058613904,0.028260984,-0.021999618,-0.07685356,0.04266881,0.0089047495,-0.055753063,-0.027960103,-0.03275036,-0.0344065,0.022116689,-0.023874186,-0.028888553,-0.035465725,-0.026613686,-0.042725176,0.02223762,-0.014160325,-0.03380298,0.07433638,0.036224175,-0.014339141,-0.01931794,-0.025076171,-0.025395636,0.02167982,-0.02944265,0.012536186,0.03529965,0.003704898,0.028775532,-0.053891357,0.023470914,0.03477952,0.0060135843,-0.026072295,-0.029305093,0.0094324285,-0.035151526,0.028114386,0.035895657,-0.034897767,-0.021849992,0.023381539,-0.02878054,0.019611385,-0.015727114,-0.011640414,-0.024238717,0.023977734,-0.041854244,-0.030067999,0.03799069,0.010784838,-0.03326293,0.02575276,0.022902664,-0.02858982,-0.0057100747,-0.015045004,0.014577461,-0.030187422,0.060182244,-0.021589208,0.0243539,0.011500537,0.032518726,0.012404843,-0.033030383,-0.014802232,-0.02515525,0.048882693,-0.029167129,0.018881429,0.032531828,0.014806797,0.02952871,-0.02426124,-0.03850083,-0.0027522296,0.017844975,0.014347215,0.069525324,0.0076713767,0.002013365,0.03215487,-0.039091796,0.026398635,-0.04448425,-0.038683098,0.033189453,0.040345356,-0.00892934,0.025974898,0.047209065,0.037894856,0.020976074,-0.025085337,0.021882484,0.06753438,-0.03226964,0.017047144,-0.022960454,-0.024740186,0.027237393,0.014048048,-0.021744996,-0.04182086,0.023249641,-0.027485143,0.018866718,0.028648537,0.028244449,-0.01163045,0.019779477,0.010042267,-0.049774468,-0.030109653,-0.04184128,-0.020434208,-0.02433803,-0.020514924,-0.058419727,-0.01815956,-0.017523492,-0.047594048,-0.030459955,-0.013097206,-0.034951426,0.015225472,-0.021868167,-0.020281356,-0.0528336,0.02020965,-0.039350413,-0.032576557,-0.03226056,-0.01626677,0.033641636,0.033501297,-0.019443208,-0.03148426,0.028662924,0.02403191,-0.029147102,0.046475902,0.05165913,0.034545373,-0.0201312,-0.01853752,-0.035283417,-0.008456276,0.015149594,0.02803112,-0.06515007,0.032332662,-0.051477693,0.03287942,0.020092689,0.0063818395,0.028127411,0.028493337,-0.03527184,0.0252433,0.021506289,-0.013398657,0.01694019,0.004267577,0.024081288,-0.033044897,-0.038120512,0.040439174,0.041582547,0.0031910948,-0.0129648205,0.015830027,0.009877476,-0.047880635,-0.033978626,0.032716837,-0.013001765,-0.025103595,0.029305087,0.006441582,-0.012414909,-0.013892152,0.03333104,0.038497988,0.014589804,0.016166173,-0.08051441,0.033397555,-0.028136032,-0.022473114,0.029348213,0.02699354,0.025862845,0.028365977,-0.005980905,-0.023384297,0.011809078,-0.03068127,0.02097046,0.009510485,0.02300382,-0.02587146,0.06899359,0.022355052,0.022433463,-0.026516914,0.04287739,-0.0069291126,-0.015044179,0.022344764,-0.03290994,0.017339192,-0.04859712,-0.030859524,0.0016769883,-0.005508518,-0.025605295,0.013830626,-0.028304568,0.06141294,0.02800921,-0.020901928,-0.018844299,-0.03585018,-0.03426025,0.018745655,0.040690128,0.018642396,0.017269114,-0.05155451,-0.030492483,0.015275782,-0.042840347,0.026500389,0.028148934,0.028994925,-0.0034634527,-0.025606561,0.004962354,-0.027514797,0.022858849,0.020075068,0.017281435,-0.03880961,-0.012133986,-0.011548884,0.03216096,-0.028437871,0.027440798,0.0336305,-0.022616968,0.017766997,0.047847804,-0.02774542,0.0036297021,0.023571305,0.021045113,0.011961084,-0.026875224,0.028104752,-0.0032816045,-0.014529403,-0.01752625,0.006894989,-0.0052151512,0.032591388,0.01572987,-0.031447634,0.050215162,-0.023637643,-0.037715912,0.03896338,-0.034278058,-0.030506128,0.016765742,-0.032522872,0.0060994737,-0.013870455,-0.029426467,-0.011409113,0.030515207,0.03451648,0.016313089,0.056846313,0.03683147,0.020720582,0.021660855,-0.00817248,0.022253435,-0.025837615,-0.023885848,0.0125837475,-0.023681732,-0.032773063,0.016657531,0.020874757,-0.03775062,-0.029531555,-0.028743623,0.049844403,-0.014605751,-0.011666017,0.010524905,0.0062326808,0.06429232,-0.08635117,-0.028599143,-0.019023648,-0.03452956,-0.029209856,-0.019559115,-0.03520004,-0.012774963,0.012918983,0.026164874,0.013338625,0.002404104,0.030816546,-0.03109719,0.01820517,9.050127e-05,0.007731712,-0.01498439,-0.01868182,0.04262516,-0.012161776,-0.038506877,-0.016304731,-0.02075179,-0.058024637,-0.015354051,0.02303517,-0.0006677415,-0.022153914,0.02444977,0.04050203,0.013793745,-0.029151779,0.03228014,0.030295305,0.018627575,-0.0019702977,-0.037739873,0.013249521,0.033102714,0.030799933,-0.02160913,-0.021128261,0.03643691,-0.03420494,0.066456124,0.014022853,-0.009368364,-0.011737245,0.017138673,0.033675738,-0.022046296,-0.045588322,-0.037367765,-0.032309525,-0.03605561,-0.018265083,0.036180396,-0.023869,-0.027265571,0.02551349,-0.036187425,0.027457241,-0.02429696,0.02176188,-0.025208913,-0.02071908,-0.03697383,0.04764025,0.022493502,0.013652815,-0.025976952,0.02619132,-0.011724532,-0.027046693,-0.00568367,-0.034454167,-0.041561075,0.041687347,0.008296569,0.024236456,0.07548805,-0.06051598,-0.04454434,0.025713,0.014717573,-0.016090967,-0.04768814,-0.04868962,0.023075707,0.02643215,-0.028342415,-0.041093275,0.0240927,-0.00887188,0.026152907,0.032091204,-0.015984789,0.020949414,-0.0045479634,0.015524194,-0.05701471,0.023821948,0.02748843,-0.020534456,0.027317263,-0.04340955,-0.032466184,-0.0337554,0.032379217,0.014831059,0.009285612,0.024178002,0.021054193,0.042765796,-0.011065578,0.01105989,0.03706105,0.024062332,0.008635643,-0.028027399,-0.022430476,0.01970475,0.018404182,0.030930573,0.043433387,-0.02163836,-0.0498826,0.0031428367,-0.022134708,-0.06227792,0.05306577,-0.074160054,-0.029588059,0.025498748,-0.026442643,0.040893737,-0.0047953455,-0.0032634698,-0.033701804,-0.039200656,-0.043683663,-0.024033386,0.030580297,-0.022065166,-0.019034013,0.036391906,-0.02476996,-0.012534302,0.026553515,-0.012977345,0.034097753,0.015410406,-0.037519637,0.048046403,0.017614255,-0.031897735,-0.012816252,0.023516985,-0.028238442,0.004449727,-0.02167359,-0.019915547,-0.027786477,0.01729143,0.020196676,0.028733151,0.011365985,-0.039675817,-0.013671743,0.032345932,0.029592596,-0.009608962,-0.01680548,-0.023322813,0.036914907,0.03192416,0.02107182,-0.03696283,0.027184552,-0.03868324,-0.022233075,-0.0124499025,-0.023703925,0.06573438,0.014509168,0.012794493,0.01447453,0.029689679,0.03300864,0.032049753,-0.00092454255,0.0150658265,-0.039042648,-0.03143091,-0.045190975,0.01747072,-0.052121744,0.08461892,0.01476463,-0.018867962,0.011113193,-0.06538563,-0.014827387,0.022200424,0.08330427,0.012297702,-0.029365808,-0.024684332,0.027876815,0.03587585,0.019742057,0.053578924,0.044718184,-0.01763092,-0.032736376,-0.015294785,-0.020699719,-0.0002737837,0.04342243,0.01990882,-0.04355386,0.011991642,-0.009796652,-0.033581946,0.01837596,0.031115822,-0.02002163,-0.023284517,-0.0027533732,0.008796969,-0.041538104,-0.023889065,0.031043656,-0.035464715,0.024785336,-0.011281568,-0.008143224,-0.02157909,0.03722131,-0.031407364,-0.015206539,0.023481041,-0.037096318,-0.0244217,0.06390288,-0.022112807,0.02405274,-0.021010607,0.014074989,0.019746065,0.033823203,0.013403604,0.008094002,0.09079801,-0.020080682,0.011473042,-0.015872922,0.040639464,-0.037878707,-0.02364013,-0.026367515,0.04301991,0.024736896,-0.02607619,0.02473242,-0.041439302,-0.021544127,0.028374445,0.037057824,-0.027297188,-0.028434033,-0.025358086,-0.014844557,-0.015784062,0.027790753,-0.03151658,0.014188164,-0.02793854,0.021596165,0.037980083,-0.038545147,-0.010434836,-0.027781729,-0.017815065,-0.038289238,0.016939906,0.008366438,-0.04595806,0.02536698,0.021470834,-0.022257052,0.030028356,-0.04850183,-0.020826882,0.0447124,0.052356947,-0.022836654,-0.009592928,-0.020971015,0.02190487,-0.0055839447,0.023234263,0.005621459,-0.100519635,-0.027278937,0.03729243,0.01511186,0.019328237,-0.028475212,0.015580997,0.011079619,-0.00686605,-0.056650102,0.018111508,0.019916058,0.033699736,-0.017423391,0.005327856,0.06069012,0.03486135,-0.01942276,0.03275892,0.04259695,-0.07600679,-0.0075620273,-0.03952688,-0.032684878,-0.030757735,-0.0150459455,0.026575532,-0.008501756,-0.029764973,0.022373185,-0.026113326,0.024738006,-0.031681184,-0.016210414,0.045752387,0.016618747,0.062521346,-0.020999925,0.0688579,-0.013470089,-0.02166324,0.03828742,0.023534887,0.028021295,0.018729143,-0.011031103,0.00997723,0.046557687,-0.015595036,0.019080743,0.0017035375,0.039094254,-0.03088477,-0.021579904,0.012309881,-0.015108935,0.0137861185,-0.04216928,-0.026890403,-0.032591976,-0.039638046,-0.019398103,-0.035164915,-0.027970664,0.03103358,-0.053824626,0.031786203,-0.040560942,-0.024043642,-0.026894443,0.026084656,-0.016348124,-0.035926215,-0.036273994,0.011182163,-0.006970567,-0.0049394984,-0.04611048,-0.010570049,0.038152184,0.020341141,0.029283425,0.026325082,-0.034710933,0.015833039,-0.033639774,-0.013271679,-0.021120742,0.02159161,-0.02695739,0.010497085,-0.029557947,0.041156303,0.022681598,-0.01007838,-0.03722221,0.0038997293,0.035114467,0.012504192,0.02683217,-0.010750254,-0.02934248,-0.032166816,-0.031336594,-0.018488549,0.020844579,-0.022006964,-0.00817163,0.018384688,0.034468614,-0.036896747,-0.022377701,0.013566487,-0.02371049,-0.042577546,0.050893046,0.028774861,-0.038626075,-0.0339596,0.028818129,0.049091637,-0.022629237,0.009532809,-0.017174026,0.051294584,0.028832866,0.029516239,0.038969547,0.00206648,-0.04663056,-0.0051290113,-0.0073959907,0.025538594,-0.004167838,0.014368505,-0.042030707,0.0042381156,0.022942523,0.0060406365,0.010036071,-0.034159146,0.029327627,0.015945822,-0.044859126,-0.013357757,-0.03165115,0.037602413,0.027721474,-0.031042412,-0.026424358,0.03184104,-0.03100634,0.022538628,-0.043455366,-0.03726548,0.021111341,-0.016636427,0.047928214,0.031193178,0.007068687,-0.02686797,-0.015497712,0.033155028,-0.030659784,0.031518318,-0.006826127,0.026869565,-0.022771223,-0.019204834,0.011817932,-0.0034185553,-0.035379745,0.0361385,-0.0283395,0.03527862,0.05666396,-0.028995415,0.004436942,0.027604228,0.048291013,0.025416486,0.012618431,0.05259513,0.035825208,-0.026561439,0.043293215,-0.07327483,-0.017168803,0.034146797,0.013139451,-0.03136197,-0.031847995,0.011522571,0.022235166,-0.01645575,-0.043196697,0.019441523,-0.02227649,-0.03202398,-0.023456328,0.015836623,0.01728329,0.0151181985,0.032998692,-0.029602492,0.03810332,0.024294017,-0.02824405,0.022974199,-0.037636697,-0.03297766,-0.027390568,-0.035591982,0.02226326,-0.013586165,0.018141836,0.029851984,0.003316795,0.030194672,-0.033867504,-0.01309988,-0.027553491,0.0291629,-0.036732603,0.020631652
C=C(C)C(=O)OCCOCCOCCOCCOC(=O)C(=C)C,-0.022054954,-0.043153338,0.018839672,0.08485898,-0.013185276,-0.017709672,0.0156060485,-0.015514629,0.0067784665,-0.05100511,0.034769107,0.032026578,-0.0343757,0.081320055,-0.012925858,-0.1018764,-0.02215265,0.004578842,-0.052219726,0.036027018,0.016469555,-0.024940278,0.009209937,0.025855744,-0.045277335,-0.006592065,0.051180825,-0.007616479,0.009816566,0.010348283,-0.015126411,-0.023522953,0.013015429,0.029103745,0.012212547,-0.064378336,0.06458575,0.01683777,0.023670988,0.059270747,-0.038118906,-0.093419775,-0.0034134365,-0.023702567,0.012608508,-0.13608558,0.0051218234,0.033462744,0.003635546,0.0005741301,0.062059045,0.022300921,-0.025382556,-0.015067004,-0.011803582,-0.021319758,0.016568562,-0.025298046,-0.006311082,0.051014874,0.06347083,0.016987354,0.03189535,0.01246877,-0.029113455,0.013815673,-0.024645694,0.023960873,0.038162645,0.007246186,-0.07742135,-0.03761769,0.011459315,-0.0039884746,-0.0024581067,0.052768186,-0.029527577,0.03469546,0.08702662,-0.008776544,-0.022641493,-0.025761258,0.025668036,0.014380765,0.013039602,0.01596227,0.0535359,-0.024436794,-0.0037823925,-0.058540568,0.006296614,0.073357336,0.027503733,-0.0072359703,-0.0076840944,0.019868195,0.018090907,-0.0076617682,-0.011386483,0.017069925,0.0029422268,-0.030473141,-0.0020523164,-0.0076502077,-0.048864756,0.034711394,-0.023859117,0.004118817,-0.02348946,-0.027220603,0.012135077,-0.033190284,-0.026314732,-0.037487898,-0.036629528,-0.032408565,-0.02888482,-0.029400595,-0.106950946,0.0038688276,-0.018884553,-0.031092908,0.042526525,0.04380068,0.035910618,-0.012709184,-0.023368731,0.024524637,0.021399021,0.03539468,0.04064867,0.036298484,-0.0031572906,-0.008598713,-0.00670602,-0.010970216,-0.0073276786,0.05878971,1.5474674e-05,0.0801672,0.011037173,-0.04549762,0.05709263,-0.041345377,0.044450823,-0.02910301,0.04923829,-0.014958335,-0.0308575,-0.010277396,0.020787416,0.002394095,-0.022336382,-0.03267921,-0.11754309,0.0061388025,-0.004455109,-0.033864617,-0.047850482,0.0137784835,0.017179446,-0.023550378,-0.04358781,0.012434343,0.03209421,0.088000834,0.033390936,-0.02948982,0.006958382,-0.008876183,-0.05351352,-0.048227027,-0.0456142,-0.026791492,0.070164494,-0.048188075,0.042219054,-0.030047737,0.036802936,0.030130927,0.017100714,0.030529303,-0.02856585,-0.014125202,-0.032355674,0.032560036,-0.06920872,-0.00682377,-0.034009922,-0.05828694,0.022609603,0.043213114,-0.059706178,-0.008603461,-0.021304477,-0.051125877,0.014181895,-0.043165125,-0.05676369,-0.019928826,0.012059519,-0.010043338,0.04950472,-0.011385492,-0.005069319,0.10861859,0.022063483,0.0050011277,0.0059041996,-0.027241942,-0.004221239,0.026667783,-0.05308401,0.011827262,0.01707202,-0.070267424,0.017783362,-0.06391542,0.020285113,-0.0034400742,0.029871535,0.00037872046,-0.008238267,-0.022877036,-0.044460736,0.01662507,-0.0018688925,-0.050998412,0.0018894002,-0.008824557,-0.033850875,0.044428807,-0.060475923,-0.004281151,-0.022661403,0.01364627,-0.077259995,-0.0436413,0.025613638,0.021304386,-0.025983594,0.05855886,0.024279129,-0.049916003,-0.011176119,-0.044941477,0.018632604,-0.020100085,0.12199006,0.005259293,-0.0033570863,0.010726484,-0.017376376,0.059054937,-0.04322844,-0.008293971,-0.021231916,0.020567607,-0.07350856,0.01414898,0.022414245,-0.0019135624,0.055430084,-0.025773596,0.0019101184,0.04467286,0.01463384,-0.018738128,0.05080577,0.021396121,-0.01483913,0.03784386,-0.06955731,-0.01920664,-0.07015783,-0.043375567,0.05078022,0.019722456,0.007921962,0.02673827,0.073567465,0.019735096,0.021642026,-0.021889856,0.02119547,0.09209305,-0.01408012,-0.007399486,-0.019251835,-0.070330955,0.010989949,0.02690402,-0.0015737843,-0.028746078,-0.02874617,-0.0564717,-0.013389077,-0.017354399,0.0029765405,-0.01694515,-0.031148963,-0.0027614357,-0.10028865,-0.016989572,-0.048083592,-0.02506513,-0.03456505,-0.0073586246,-0.054869473,0.000369546,-0.055511218,-0.048301592,-0.044634625,-0.016536059,-0.063282564,0.018449793,-0.010539154,-0.04971119,-0.025359679,0.017132403,-0.029359594,-0.008752656,-0.0008022748,-0.028819205,0.04062944,0.048993174,-0.028347751,-0.038144656,0.028441697,-0.019637456,-0.020158663,0.046409354,0.09159614,0.029426608,-0.031085521,0.014862442,-0.031388223,0.01102508,0.008587901,0.012881445,-0.082243115,-0.005400746,-0.026334353,0.015378414,0.003222499,0.019856628,-0.0064092097,0.03597937,-0.05722595,0.035885002,-0.0014765207,0.010672567,0.0076935026,-0.008677296,0.04135491,-0.048326492,-0.045312665,0.036332965,0.018615989,-0.021114472,-0.010698143,0.00926372,-0.0032198653,-0.025771966,-0.034711786,0.030426932,-0.027605373,-0.025352892,0.060419075,0.02532184,-0.00083075673,-0.018758861,0.05628319,0.0643713,-0.01867415,0.023963809,-0.078538336,0.07681966,-0.01536125,-0.016897481,0.03668237,0.023006167,0.06554595,0.010669783,0.01239289,-0.03846286,0.025192823,0.011407815,0.015833031,-0.049832363,0.036989693,-0.037406612,0.07591069,0.0136469435,0.038088053,-0.048600145,0.061384644,0.011479039,0.03195969,-0.0029224297,-0.022807015,-0.002016889,-0.06439742,-0.017498873,0.0042585228,-0.04934468,-0.037917666,0.0067682657,0.046718325,0.07674712,0.08781247,-0.0705446,0.011577897,-0.05916979,-0.104894504,0.02526149,0.030934308,0.049937487,0.012597211,-0.03400999,-0.052425742,-0.032279458,-0.07070261,0.00090959936,0.06453065,0.020580266,0.014683162,-0.03487046,0.038449913,-0.022124162,-0.00214996,0.029967342,-0.050807104,0.013121258,0.03560536,-0.0028965753,-0.052690506,0.0440238,0.067407906,0.039654337,-0.0027513327,-0.018493537,0.108554885,-0.04228333,0.029586544,0.0017160117,0.03528053,-0.0036933925,-0.054907124,0.03474377,-0.08527283,0.0007166546,-0.0030357977,-0.01516871,0.011810267,0.020232294,0.032264914,-0.03879484,0.08420895,-0.05567757,-0.04903621,0.060821038,-0.0039248094,-0.028826071,0.017497323,-0.016572531,0.033039458,0.014210304,-0.0038063163,-0.0027714688,0.050598897,0.032337442,-0.006963172,0.074837245,-0.011772584,0.003725783,0.060660873,-0.008793072,0.01705292,0.0031904615,-0.05363425,-0.005748609,0.012915918,-0.047930054,0.036360707,-0.031246379,-0.02174536,-0.03979983,-0.012403254,0.063828744,-0.029378558,0.022962231,0.010909667,-0.03160064,0.07840702,-0.11412452,0.0036105309,-0.06551846,-0.038976,-0.032545723,-0.011098519,-0.017983276,0.01679204,-0.025506778,0.026161525,-0.012586163,-0.018082004,0.060095903,-0.023223657,-0.0094872145,0.06424211,0.0056224624,-0.010632519,-0.021729957,0.060848974,0.05613189,-0.031152364,0.027089728,0.010403728,-0.047783952,-0.021502905,0.011453316,0.041361567,0.00071196724,0.009471486,0.02595044,-0.003226079,0.00069456734,0.03905257,0.0062394086,0.003145216,-0.059838977,-0.013807383,0.05481955,0.038597915,-0.013845054,0.0040346887,-0.009684627,0.043808416,-0.01071944,0.06092287,-0.060797796,-0.0030347016,-0.02258984,0.025811806,0.032593146,0.023932297,-0.01665838,-0.03052399,-0.021643858,-0.024531964,-0.041201934,0.04806044,-0.010356439,-0.023477536,0.032770853,-0.05170753,0.033537284,-0.025467644,0.0039485274,-0.046137605,-0.053219326,-0.004175483,0.060006328,0.0093876,-0.009583004,0.005208007,0.062208805,-0.0020399606,-0.011729965,-0.02659839,-0.014614436,-0.08461225,0.0397245,0.010743259,0.024556492,0.06792369,-0.09020322,-0.02021375,0.002147304,0.03131244,-0.029009461,-0.049992055,-0.09828844,0.0030046292,0.017572641,-0.01932374,-0.072483465,-0.003262005,-0.01946707,0.031033074,0.0011087144,-0.018330554,0.017955936,-0.016458431,-0.017540213,-0.1105379,0.03905382,0.023621917,-0.022727085,0.034831468,0.004860984,-0.0034644657,-0.014408522,-0.0067873956,0.021525497,0.009444809,0.029348467,-0.002368668,0.04656914,-0.005858222,-0.0045349794,0.047027618,0.00952537,-0.062867455,-0.04891766,-0.060327675,0.010384766,0.017694805,0.043694474,0.052189067,-0.046404257,-0.040138315,0.014737119,-0.023749817,-0.10265608,0.12824583,-0.0821583,-0.016887944,0.029257845,0.019609842,0.051839374,-0.00553371,-0.047126167,-0.014301304,-0.020150593,-0.07072325,-0.040244125,0.023547702,-0.020398064,-0.029228516,0.032148875,-0.0010650393,0.007900328,0.054656144,-0.0040957765,-0.020852024,0.026635503,-0.026127601,0.07654749,0.02495355,0.008072093,-0.0032434035,-0.04682461,-0.04050597,0.031220276,0.008425832,-0.013565628,-0.029845254,-0.0075590024,0.0102450615,0.031647597,-0.021687103,-0.02339979,0.016885769,0.029740047,0.040974304,-0.008329548,-0.014285412,-0.037294745,0.030553212,0.02187892,0.030187031,-0.01939097,0.05548627,-0.029285382,0.024074698,0.027052643,-0.06431593,0.05533849,-0.013324297,-0.011540553,-0.013085135,0.0025829477,0.037264995,0.012805984,-0.032525107,0.03437591,-0.033867113,-0.022569068,0.011932797,0.035168536,-0.056218825,0.08494091,0.01861151,-0.024590187,-0.07686507,-0.09089071,0.013570073,-0.018060979,0.09861001,0.027479485,-0.021777093,-0.006516736,0.018248651,0.0461673,-0.019568197,0.060807757,-0.011556061,-0.02653854,-0.029105682,0.024663912,0.0041453615,0.014083862,0.060122125,0.0064150505,-0.06066678,0.05082084,0.021998525,0.022461565,-0.0051051965,0.056443766,-0.026874961,-0.03398836,-0.00012434274,0.04209231,-0.049185365,-0.017414246,0.00891661,-0.038701158,0.030069664,0.004574891,0.0324921,0.02317265,0.0939525,-0.037969448,-0.041155793,-0.0015987981,-0.0020642783,-0.052819874,0.07260743,0.014159942,0.03881754,-0.0039857617,0.01010661,0.006060805,0.052284453,0.017435106,-0.010319618,0.08032507,-0.02248092,-0.051250465,0.0073291864,0.0077352356,-0.020920826,-0.037948415,-0.0076838285,0.053963643,-0.015415241,-0.0044661677,0.023038194,-0.04243811,-0.002910016,0.008857362,0.006836179,-0.0070229564,-0.018644499,-0.076195545,-0.0066242274,-0.031688973,0.07903321,-0.05079505,-0.025533492,-0.016697064,0.0009826161,0.045493454,-0.04016064,-0.008860454,-0.058992527,0.0035334826,-0.049900968,0.03425711,0.010935421,-0.05588919,0.03518705,-0.026616681,0.018639088,0.06737439,-0.04944658,0.06550757,0.03021869,0.082890555,-0.041265108,0.009214262,0.010203843,0.017250547,0.034923285,0.039863363,0.000518254,-0.10202724,-0.023524605,-0.00033387914,-0.0028429553,-0.0029335786,-0.008981088,0.05502104,0.011091208,0.010518231,-0.038065173,0.012324723,-0.019246459,0.029606694,-0.036787983,-0.032139264,0.05898259,0.040087685,-0.00256191,0.046022788,0.06953949,-0.11373399,0.0058043213,-0.0792457,-0.03596631,-0.03729167,-0.026601827,0.014799937,-0.05376072,-0.034831353,-0.017764276,-0.041099805,0.0329227,0.007911129,-0.03979517,0.08976962,0.021543304,0.047677644,-0.006436211,0.12534018,-0.007660605,-0.026069662,0.048848197,0.023295775,0.029702406,0.061770752,0.067963995,-0.021100821,0.025294296,-0.007781815,-0.0035430603,-0.031274743,0.0439889,-0.013354147,-0.01668115,-0.01057644,0.017039027,0.041775703,-0.093370005,-0.031924594,0.002534099,-0.014510836,0.02281049,-0.037910864,-0.0045076124,0.04260644,-0.060276058,0.01698961,-0.0050314134,-0.0045792535,0.008922752,0.033527546,-0.011110258,-0.026854996,-0.05064231,-0.049763232,0.0084726745,0.02227905,-0.015080884,0.0009954614,0.03404201,-0.0040927893,-0.014747441,0.020473287,0.0050706733,0.006610512,-0.033920057,-0.05075621,0.017418653,0.0188366,0.018667277,-0.017034456,-0.038137347,0.06478221,0.008021528,-0.022575885,-0.032867372,0.016747782,0.014757074,-0.0016532177,0.011309638,-0.0191942,0.008543401,0.015356407,-0.039814122,-0.038074214,-0.010176506,0.014679567,0.014762739,0.032742925,0.017021503,-0.030976124,-0.012668194,0.015077192,-0.017419202,-0.03191432,0.026070656,0.008471114,-0.023451036,-0.0067719147,0.00218454,0.05739128,-0.03090697,-0.005807064,-0.03272962,0.10663134,-0.023794834,0.0457997,0.026873637,-0.02592048,-0.020606449,0.032559965,-0.004561871,0.067733906,0.024802733,0.013528804,-0.012174556,0.03674885,-0.023208642,-0.03138656,-0.043445196,-0.023303144,0.0038815998,-0.0022148173,-0.0806507,0.04402004,-0.005060546,0.06939063,0.01591866,-0.024088342,0.014000263,0.064582735,-0.060488,0.024171501,-0.07386708,-0.06000243,0.017003056,-0.008341966,0.046800256,0.03339145,-0.051352803,-0.001996899,-0.0005463585,0.06317636,-0.05657413,0.03724068,0.020150457,-0.006431015,-0.0335975,0.004335349,-0.0012701387,-0.03072413,-0.035225525,0.054184992,-0.07088143,0.017971199,0.08087594,-0.060700368,-0.023060214,0.0884344,0.029179748,0.04214944,0.022475513,0.009108808,0.07138532,0.015744567,0.036562838,-0.07512546,0.0028573666,0.009896092,-0.011984636,-0.0125006605,-0.017412428,-0.04604115,0.029919423,-0.0033597415,-0.034783956,-0.035014175,0.017886482,-0.059701312,-0.050425887,0.0019035861,-0.008498023,-0.019441973,-0.014632959,-0.031669192,0.0534241,0.035897925,0.011266317,-0.02226074,-0.038402904,-0.0019317465,-0.02175345,-0.07893258,0.03004915,0.03691256,-0.0037661586,0.006030351,-0.046354897,0.024818877,-0.0077686864,0.0035097012,-0.017940007,0.1078416,-0.016281903,0.036751255
