smiles,z_0,z_1,z_2,z_3,z_4,z_5,z_6,z_7,z_8,z_9,z_10,z_11,z_12,z_13,z_14,z_15,z_16,z_17,z_18,z_19,z_20,z_21,z_22,z_23,z_24,z_25,z_26,z_27,z_28,z_29,z_30,z_31,z_32,z_33,z_34,z_35,z_36,z_37,z_38,z_39,z_40,z_41,z_42,z_43,z_44,z_45,z_46,z_47,z_48,z_49,z_50,z_51,z_52,z_53,z_54,z_55,z_56,z_57,z_58,z_59,z_60,z_61,z_62,z_63
C=CC(=O)OCCOCCOC(=O)C=C,0.0002827365,-0.0017869081,0.001565455,0.00024893507,-0.000814928,-0.00011007022,0.00037153577,0.00022939639,0.00191887,0.0008910047,-0.0029647565,0.0009860229,0.0015831916,0.0011939257,1.7199665e-05,0.0014986666,-0.0004512712,-0.0011234656,-0.001249563,-0.000485925,5.2596675e-05,-0.0011346105,-0.00093787815,-0.0002719505,-0.00070391875,-0.0006504562,0.001352462,0.0012522507,0.0026127798,0.00025538052,-0.000636423,0.0014864836,-0.000764641,0.0016046166,0.00156515,-0.00045445212,0.00041141547,-0.0015052622,-0.00063886493,-0.0013851502,-0.0017436352,0.000963971,-0.003233049,0.0008190628,0.0015781176,-0.0019614426,2.9886141e-06,-0.0010048943,-0.0008786367,0.001399044,-6.200001e-05,-0.0010777749,-0.0013935342,-0.00018502772,0.0015478991,0.00052823545,0.000598487,0.00067872787,0.00069804024,0.00023560785,-0.0002948884,0.0034928117,-8.632988e-05,0.0002558306
C=CC(=O)OC(C)(C)C,-7.7582896e-05,-0.0019993335,0.0021285932,0.0010797121,-0.00021225051,-0.00018084701,-0.00043361308,-0.00014413847,0.0019961018,0.00093556754,-0.0037158253,0.0017360691,0.0022160346,0.0008935705,0.0010820925,0.0023431582,-0.0010887634,-0.0006873477,-0.0011260789,-9.115506e-05,0.00013037794,-0.0011918589,-0.001521795,-0.00048380077,-0.0012739683,-0.0010963697,0.0018632049,0.00063155405,0.003687608,0.00042041088,-0.0007026307,0.0009371076,-0.0009881062,0.0025471803,0.001741726,-0.00065900595,0.0010288544,-0.0014520353,-0.0010980861,-0.0020470002,-0.0015404001,0.0018046908,-0.0030289646,0.00028525293,0.0019793985,-0.002453749,-0.00027822796,-0.0010969238,-0.0013454752,0.0014787782,-0.00019473769,-0.00068939105,-0.001310641,-0.00029698573,0.002319727,0.0008190484,0.0014616835,0.0003966284,0.00084406603,0.00029699318,0.00031195953,0.004303351,-0.00034536235,0.0005165152
COC(OC)(C(=O)c1ccccc1)c1ccccc1,-0.0006050393,-0.0015147831,0.0021754405,0.0009942912,-0.00016026036,-0.00037848856,-2.2220891e-05,-0.0008960818,0.0026789773,0.0013698088,-0.0033299876,0.0008903295,0.0026998678,0.0011607204,0.00041382387,0.0019299509,-0.0010350931,-0.0007824395,-0.0014405297,0.00028411858,0.00035566115,-0.0012767173,-0.001499624,-0.00034080877,-0.00090335216,-0.0017545987,0.001156481,0.0017139651,0.0038181106,-0.00028221612,-0.0007848833,0.0010562759,-0.0009573307,0.00301232,0.00180618,-0.0008339139,0.00034022145,-0.0024085985,-0.0017568311,-0.0017922164,-0.0017186198,0.0011110883,-0.0034584012,0.0009249225,0.0014390413,-0.0025249692,-0.00042840373,-0.0006850967,-0.000348269,0.0021494012,-0.00013420731,-0.0013056509,-0.0011825319,0.0004534647,0.0022238828,0.00028711604,0.0013963927,0.00013434933,0.000977301,-0.00020714011,0.00079420954,0.003608562,-0.0005514901,0.0008294862
C=C(C)C(=O)OCCOCCOC(=O)C(=C)C,-0.00012381375,-0.0010843985,0.0014754585,0.00052702613,-0.0006715639,-0.00031229388,0.00037912885,-1.6902108e-05,0.001466048,0.0006927494,-0.0026137447,0.0012227818,0.001729222,0.0010557957,-0.00049899146,0.0011549359,-0.00012721005,-0.0012765862,-0.0011238037,-0.00022628345,-0.00023829495,-0.0007338475,-0.00068755914,-0.00027592026,-0.00013768021,-0.00069463253,0.0009059552,0.00065000914,0.0020830007,8.8195084e-05,-0.000409076,0.0010161322,-0.0010995939,0.0013587642,0.0016327659,-0.0006272814,0.00037470832,-0.0018307576,-0.0005901279,-0.0013956556,-0.0015275013,0.0011211839,-0.0031169523,0.0011567213,0.0012769074,-0.0019156961,-3.805291e-05,-0.0008059582,-0.000660778,0.0012659188,0.00016900524,-0.0012274384,-0.0014224388,4.0147454e-05,0.0010796022,9.127427e-06,0.00083298003,0.00033405283,0.0008210102,0.00033183582,-3.35183e-05,0.0030251313,-5.9515238e-05,-6.9167465e-05
C=CC(=O)OCCOCCOCCOCCOC(=O)C=C,-0.0004460141,-0.0012237728,0.001183813,-0.00031909347,-0.0008161722,-0.00047301035,0.0004958757,0.000285964,0.0015797988,0.00065672863,-0.002672325,0.0009951666,0.0017823242,0.00089771114,-0.00043290667,0.0012975344,0.0002523337,-0.0012696087,-0.0009138547,-0.00060225185,-0.00022781524,-0.00071045826,-0.0004561441,-0.00023327174,-0.00017532427,-0.0007415898,0.00076675694,0.00043822825,0.001622797,9.506475e-07,-0.00029405393,0.0009968389,-0.0009888737,0.0013414267,0.0016402993,-0.00048446492,0.00039339624,-0.001660441,-0.00033057109,-0.001079587,-0.0013252366,0.0012874715,-0.0031525008,0.0010152925,0.0015124072,-0.0020250445,0.00016264338,-0.000711889,-0.00052044634,0.0012217201,-0.00013790838,-0.001053052,-0.001550829,-5.5036508e-05,0.0011609308,0.00016188854,0.0008148332,9.031268e-05,0.0005826792,0.00029043108,-0.0002322048,0.0029079039,-9.691715e-05,8.419901e-05
C=CC(=O)OCCOCCOCCOCCOCCOCCOCCOCCOCCOCCOC(=O)C=C,0.00020480901,0.00015782472,-0.000721144,-0.0016890559,-0.00071844854,-2.065394e-05,6.878609e-05,0.0015064166,0.0006503705,6.8034045e-05,-0.0012699915,0.00022927113,0.0010457952,-0.00043133274,-6.990321e-05,0.00040626992,0.0014443856,-0.00063932687,-0.00045572966,-0.00082973577,-0.00047371467,-0.0004058245,0.00032559875,0.00046399503,0.00010525156,0.00081616826,8.4342435e-05,0.00032938272,-0.00061092805,-7.130136e-05,-0.00013543852,0.0006695833,-0.0011721347,-0.00092736445,0.00011186022,0.000686256,0.00026906468,-0.0010785097,0.0010075718,0.00023271167,-0.00039383024,0.0015879385,-0.0018367227,0.0012646057,0.0008317054,0.00011042319,0.0009845262,-0.0006527109,-0.00028525665,0.0007306505,0.00036609732,-0.000100398436,-0.0007015895,0.00021038018,-5.5690296e-05,-0.00040733768,0.00016194442,0.00031942548,-0.0006805444,7.678196e-05,-0.0016286653,0.000831075,0.00016334653,0.00014232285
C=C(C)C(=O)OCCOCCOCCOCCOC(=O)C(=C)C,-0.00023276359,-0.0007447768,0.00079845404,-0.00014570355,-0.0005844927,-8.690264e-05,0.00010979688,0.00013270648,0.0013419194,0.0004734667,-0.0021820487,0.00083219074,0.0015422711,0.00083419494,-0.000651652,0.0007222919,0.00026629982,-0.0012598764,-0.00084059965,-0.00033788104,-0.00031888369,-0.00070058624,-0.00024981704,1.073617e-05,0.0001702793,-0.0004794225,0.00078641996,0.00047695637,0.001397769,0.00031896005,-6.224401e-05,0.00071806426,-0.0013442608,0.0008476395,0.001332107,-0.00065070787,0.00046321377,-0.0016595023,-0.00017093215,-0.0010790739,-0.0014590081,0.0014251769,-0.0029059593,0.0013170112,0.0012030498,-0.0011662552,-0.000119143166,-0.0009510638,-0.00040812418,0.0012251977,-3.9283186e-05,-0.0012677852,-0.0012646075,7.828139e-05,0.0007873159,-0.0002912446,0.000440354,0.00021847012,0.00045033824,0.00010924414,-6.912276e-05,0.0021685455,-0.0001471024,-0.00015267171
C=C(C)C(=O)OCCOCCOCCOCCOCCOCCOCCOCCOCCOC(=O)C(=C)C,0.0007587485,0.0005180454,-0.00085103745,-0.0012251325,-0.0005647915,-6.401539e-05,-1.1540484e-05,0.0014533424,8.435082e-05,-0.00020990707,-0.00097508077,0.0004061777,0.0006956216,-0.00022812374,-0.0003107842,0.00019276235,0.0016731203,-0.0005309526,-0.00039801653,-0.0007200856,-0.000690175,-0.00043157744,0.000418772,0.0007098698,0.000428061,0.0011820849,-2.5149435e-05,1.961179e-05,-0.000962005,-0.00016056863,-7.171556e-05,0.0004804168,-0.0012179855,-0.0014624987,-1.911167e-05,0.0007221715,0.00033000857,-0.0010197377,0.0008719582,0.00023846631,-0.00020719878,0.0017756037,-0.0014628507,0.0014737882,0.00057464174,0.00048092473,0.0012409342,-0.00073934253,-0.00029627047,0.0006238427,0.0004075989,-0.0004208982,-0.0006775018,3.3312477e-05,-0.00033101067,-0.0006779949,0.00025958614,0.00039377296,-0.00075545814,0.0004969351,-0.0017576925,0.00048004463,0.00034882687,-0.00038744695
c1ccc2c(c1)-c1ccccc1C2(c1ccc(OCCOCC2CO2)cc1)c1ccc(OCCOCC2CO2)cc1,0.00019206107,0.0005919738,-0.00069781905,-0.0006163474,-0.0005847963,-0.00010628346,-0.0005621896,0.00015264051,0.00046727434,0.00027431734,-0.00010136794,0.000574423,7.476751e-05,0.0001655966,-0.00015487336,-0.0008863183,0.0008005921,-0.00070932694,-0.00016055722,0.0009570457,-0.0005829639,-0.0012502212,-0.00015095528,0.000988013,0.0005788328,-0.00013243407,1.2517907e-05,-1.3444573e-05,-0.0011184374,-0.0002717853,0.00017531589,0.0007736642,-0.0011109812,-0.0003759917,0.0003381176,0.00010456494,-5.558133e-06,-5.6224875e-05,-0.00016976893,-8.243206e-05,0.00063043647,0.0016998667,-0.0011842623,0.00026807934,0.00017398305,0.00016286038,0.0013616206,-0.0008850051,0.0003018584,0.00041481107,0.00025104545,-0.0011872016,-8.745678e-05,-0.0007243529,-2.299808e-05,-0.0006734519,0.0006154883,0.00094396854,-0.00024850294,0.00056842435,0.00018641725,0.0008400064,0.00016794913,-0.00026595034
Nc1ccc(S(=O)(=O)c2ccc(N)cc2)cc1,-0.00044829585,-0.0011255695,0.0019893688,0.0009597335,-0.0004324729,-0.00017949566,-9.469222e-06,-0.0006212364,0.002596097,0.0016842224,-0.0029953131,0.00070426054,0.0022715395,0.0013198983,-0.00025814958,0.0010195645,-0.0011641949,-0.00090026483,-0.0016180817,0.00082692783,0.00042259903,-0.0012361973,-0.0016353903,-0.00045863504,-0.0003557792,-0.0017553736,0.0008845469,0.0020881314,0.0036106082,-0.00037940894,-0.0006235447,0.0012241151,-0.0010235431,0.0029131304,0.001640386,-0.00045265653,7.2786584e-05,-0.0024448028,-0.0017114999,-0.0019045935,-0.0017735679,0.00029348582,-0.003059307,0.0006351229,0.0013503236,-0.002448502,-0.00050104223,-0.0008298177,-0.0006755749,0.0016531926,-0.0005556587,-0.0010357406,-0.0006534215,0.00023721252,0.0014380831,0.0005422742,0.001001962,0.00058152387,0.0012370069,-0.00047163107,0.0007330943,0.0030751992,-0.00050206296,0.0007340517
CC(C)(c1ccc(OCC2CO2)cc1)c1ccc(OCC2CO2)cc1,-0.00023157708,-0.00018142723,0.0012340923,0.0005015079,-0.00084763975,0.0003082743,0.00017575314,-0.00048466725,0.0017657345,0.0013824645,-0.0024379892,0.00085406564,0.0025114259,0.0010020733,-0.00048555247,0.0006776331,-0.00071283313,-0.00029889308,-0.0012707021,0.00064216927,8.638878e-05,-0.0017765246,-0.0012487499,-0.00030656822,0.00013762433,-0.0013255477,0.0006234981,0.0016489606,0.0023901137,-2.6495429e-05,-0.0003745202,0.0013017614,-0.0016186768,0.0020843446,0.0016059568,-0.00048219995,-0.000719592,-0.0019154279,-0.0010088282,-0.001868747,-0.0015084092,0.0010546129,-0.0029400997,0.0012524445,0.0011430708,-0.0014516274,-0.00025419798,-0.000549403,-0.00011582766,0.0016786102,3.0042604e-05,-0.0013753809,-0.00079304166,8.657575e-05,0.0009879386,-0.00041918037,0.00085345795,0.00029870542,0.0011347616,-0.0001380099,0.00011813268,0.0028131064,-0.00047245063,3.2868236e-05
CC(N)COCC(C)OCC(C)OCC(C)OCC(C)OCC(C)OCC(C)N,7.031858e-05,4.931353e-05,6.488757e-05,-0.00019114092,-0.0003533552,9.005889e-05,-7.3740724e-05,0.0004301672,0.00074432604,0.00011506304,-0.001627204,0.00015742145,0.0014624214,0.00028935447,-0.00059482455,0.0003442606,0.00039857742,-0.00079585053,-0.00085555203,7.6963566e-05,-0.0012103559,-0.00040137838,-7.664133e-05,-0.0004762105,0.0007385062,0.00022039935,0.00026849937,0.0007084068,0.00073934067,-0.0008402553,0.0006780699,0.0008683164,-0.0017630514,0.00033708476,0.0010987092,0.000294063,-0.00010176748,-0.0014709188,0.0002020523,-0.0009202033,-0.00048280507,0.0020534024,-0.0021012966,0.0014140382,0.0009877634,2.0402484e-05,-0.00022708159,-0.00038007274,-0.00047725067,0.0005410947,0.0005923044,-0.00032440014,-0.00095033087,-0.0003635371,0.00066075847,-0.0004720739,0.00046843616,0.0005177618,-0.00018371595,-0.00039637368,-0.00059086457,0.001222359,0.00030225143,-7.55731e-05
NCCNCCN(CCNCCC(CN)CCN)CCN(CCNCCN)CCN(CCN)CCN,-0.000100158155,-0.0003150124,-0.0008229655,-0.00085333176,-0.0009616094,-0.00012456067,-0.00021225167,0.0004965686,0.0009360835,5.8459118e-05,-0.0016586715,4.7529116e-05,0.0016130572,0.00042054616,-0.00083826855,0.00039572734,0.00086821546,-0.0012025293,-0.0006843945,-0.000687154,-0.00072216033,-0.00076125073,-0.0006556632,-0.0003834284,0.00026218873,0.00060839765,0.000108058564,0.0008005239,0.00041525718,-0.00018160907,0.00010557845,0.0015055198,-0.001531479,-0.00018791296,0.00016243942,0.0007468292,0.00034252182,-0.0016448898,0.00070301536,-0.00042431126,-0.00036871992,0.001048198,-0.0018585324,0.0015856698,0.00074740953,0.00019054022,0.0005595656,-0.0010376396,-0.00052208826,0.00095615536,0.00077417307,-0.0004448276,-0.0002515409,-0.0001848489,0.00019482523,-0.0002859733,0.00029305788,0.0007240479,-0.0006324863,-0.0004968289,-0.00046184845,0.0014242325,9.782426e-05,-0.00023874454
CC(N)COCC(C)OCC(C)OCC(C)N,-0.00027730316,-0.0015288824,0.0015802435,0.00084884465,-0.00029029348,-1.633726e-05,0.0002524401,-6.035762e-05,0.0018944079,0.0009365268,-0.003002598,0.0011677071,0.0018890491,0.00074149854,0.00023434497,0.001553488,-0.0004367854,-0.0008765571,-0.0012885127,-8.833595e-06,-0.00038456568,-0.0011123351,-0.0011855783,-0.00057424477,-0.00063483324,-0.00076371245,0.0010060081,0.00058335066,0.0027238028,-0.0002156042,-0.00015629083,0.00093686546,-0.0010695336,0.002133267,0.0016624434,-0.0005629624,0.0004022047,-0.0017440589,-0.0008438276,-0.0017335208,-0.001302747,0.0014273357,-0.0029391218,0.00074961036,0.0015882243,-0.0020555789,-0.00031787064,-0.00077335536,-0.0009389883,0.0011779964,6.559305e-05,-0.0009157285,-0.001568513,-0.00017730892,0.0016205963,0.00067035714,0.0011954119,0.00018378766,0.0008769985,-2.2597611e-05,0.00025604106,0.0031090304,-7.203221e-05,0.0002565477
CCCCCCCCCCN,-0.00011957623,-0.002021904,0.0023181872,0.0011426955,-0.00013049715,-0.00025698077,-0.00048116362,-0.0001641796,0.0028003547,0.00092341006,-0.0040231226,0.0021319333,0.0021269526,0.0015247986,0.0013036896,0.0025694938,-0.00062021497,-0.0004462488,-0.0012528067,-0.00025528483,0.0006407595,-0.0011863231,-0.0016363254,0.0001219603,-0.0025731018,-0.0013750382,0.002120994,0.0009372365,0.004501038,0.00011423486,-0.0010114629,0.0012676936,-0.0008310871,0.0026660245,0.0019502556,-0.0008015188,0.0009596646,-0.0015043495,-0.000476731,-0.0018497414,-0.0015772358,0.0022406746,-0.003698418,0.00044542924,0.0019845655,-0.0024239747,0.00045408774,-0.00097057223,-0.0012881635,0.001961045,-0.0004655011,-0.0009460747,-0.0013746154,-7.826835e-05,0.002588883,0.00080525735,0.0016048381,0.00020862417,0.0004785778,-0.0004973952,0.0005811192,0.0043373946,-0.0007206239,0.0010359623
CC(C)(COCC1CO1)COCC1CO1,-0.00022590905,-0.0017000753,0.0017764415,0.0008215625,-0.000577193,-1.2923963e-05,0.0001126104,-0.00019743899,0.0020647282,0.0010663364,-0.0035612294,0.0015879739,0.0022871438,0.00086686015,0.00029988587,0.0022285422,-0.00036187354,-0.0008320231,-0.0015744613,-0.00065033697,-8.189422e-05,-0.0009911663,-0.001226739,-0.00029595348,-0.001292116,-0.0010966342,0.0013628313,0.00082619116,0.0030908054,-5.1855342e-05,-0.00090002455,0.0010880452,-0.0009880373,0.0021439623,0.0018678382,-0.00073639513,0.0004449021,-0.0015852852,-0.0005615754,-0.0018093612,-0.0015754104,0.0017755944,-0.0033162832,0.0007140748,0.0017551341,-0.002093711,0.00012952741,-0.00063379854,-0.000808551,0.0018534865,-0.00032055937,-0.0010155253,-0.0014872197,-0.00011420995,0.0020780638,0.00061788084,0.00144897,0.00021236436,0.00081695523,0.0002917517,0.00017831847,0.0038343165,-0.00022589788,0.000401631
CC(N)COCC(C)COCC(C)COCC(C)COCC(C)COCC(C)CN,-9.515509e-05,-0.00010875054,0.0004885434,5.9068203e-05,-0.0005085154,0.00014346186,-3.800029e-05,0.00029453402,0.00081775244,0.00031772815,-0.001835837,0.00044265762,0.0014784057,0.000396356,-0.0006651338,0.00085540954,0.0001559679,-0.0007908046,-0.0008861236,-0.00054407306,-0.0010343583,-0.0002417292,9.9756755e-05,-0.00064232026,0.0005009426,-0.00024109334,0.00048582256,0.00016277842,0.0006810231,-0.000344272,0.00033441558,0.0009543855,-0.0016715406,0.0004937742,0.0012391498,3.8310653e-05,8.002296e-05,-0.0016437536,0.00021667406,-0.0008333239,-0.0002899263,0.0020248517,-0.0021706,0.0014486574,0.0006368094,-0.00021040346,-0.00019937847,-0.00060151424,-0.0005158251,0.00077661313,0.00031656772,-0.00034141168,-0.0009661522,-0.00032700785,0.00061226264,-0.00029473891,0.0005309875,0.000308136,5.2674673e-05,-0.000105672516,-0.00042067282,0.0019501504,3.774464e-05,-0.000104283914
CC(N)COCC(C)COC(OCC(C)COCC(C)N)OCC(C)COCC(C)N,8.400157e-05,0.00020112749,-0.00024088146,-0.00037353672,-0.0003499838,0.000100045465,4.0622894e-05,0.0003188965,0.0008412786,0.0001713438,-0.0015076781,0.00024746917,0.0016130814,0.00013327599,-0.0006662775,0.0004978208,0.0006067802,-0.0009856746,-0.0007586321,-0.00014575943,-0.0011127016,-0.0002537209,-7.227715e-05,-0.00061632146,0.0007784162,0.00038649328,0.00033249427,0.00024764612,0.00041209254,-0.0005141061,0.00051646866,0.0011526566,-0.0014932631,-0.000104812905,0.0010253219,0.000312438,-0.000117460266,-0.0015916815,0.00018890947,-0.00064852345,7.698312e-06,0.002049679,-0.0019838419,0.001162909,0.00071713224,0.0002950551,1.8668361e-05,-0.0003533922,-0.000349205,0.0007055197,0.0006895866,-0.00014043227,-0.0007831715,-0.0001279246,0.00026297942,-0.00033603935,0.0004935018,0.00048637437,-0.00032339245,-0.00045960397,-0.00062500313,0.0011650268,0.00048321486,0.00014640205
CC(N)COCC(C)COCC(C)CN,8.34465e-07,-0.001637429,0.0018677642,0.0012383871,-0.00022881129,7.5216405e-05,9.342423e-05,-9.0916175e-05,0.0019535897,0.00088171195,-0.0033258637,0.0014536846,0.0017828066,0.0008100569,0.0004764162,0.0018798308,-0.0006406575,-0.00085092336,-0.0012936452,-0.00028604362,-0.00011725235,-0.0008415289,-0.00092297327,-0.0006144742,-0.0010273075,-0.0008712318,0.0012769522,0.0005146004,0.0029142173,7.737498e-05,-0.000327928,0.00093061815,-0.0010110056,0.0019569974,0.0018795272,-0.0006261694,0.000592703,-0.0016155252,-0.00074155815,-0.0017319049,-0.0012480076,0.001666477,-0.003014097,0.00053855404,0.0014870827,-0.0020309156,-0.00036793295,-0.0009289328,-0.0012342473,0.0011601821,-7.020123e-05,-0.0007398445,-0.0013762992,-0.00022357516,0.0019502463,0.00070105726,0.0012467073,0.00023330422,0.0008457266,0.00030089729,-3.7681311e-06,0.0036930908,-0.0001927372,0.00042087585
CC(C)(c1ccc(Oc2ccc3c(c2)C(=O)OC3=O)cc1)c1ccc(Oc2ccc3c(c2)C(=O)OC3=O)cc1,0.0010203049,0.001095769,-0.0015734346,-0.001551602,-0.0007236304,-0.00038449932,0.00029874593,0.00062488345,-0.00023681205,-0.00011076499,0.0012717387,-0.00037742592,-0.00092543056,3.396347e-05,-0.00069486536,-0.001047452,0.0016656306,-0.0012078956,-0.0003139265,0.00011167303,-0.0009236268,-0.0006934393,0.00024605636,0.0008296309,0.0005021151,2.3683533e-05,4.369486e-05,-0.00043000095,-0.0028248858,-2.518599e-05,0.00039098598,0.0015500259,-8.940045e-05,-0.0016827267,-0.00062015746,0.0011046843,-0.0010286421,0.00029376056,0.00041898154,0.00076212944,0.00089886226,0.0008230731,0.00031104684,0.00012688152,-6.681413e-05,0.0014351457,0.0023375778,-0.0007206332,0.00027874205,-0.00019185245,4.6260655e-05,-0.00073338486,-3.6122277e-05,-0.0010100622,-0.00132359,-0.00043294905,-0.0009661461,0.0014120997,-0.00061447034,0.0013238899,0.0004228186,-0.00045358203,0.0010407865,-0.0013484452
Nc1ccc(Oc2ccc(N)cc2)cc1,-0.0004391484,-0.0019971794,0.0024929228,0.0012659822,-0.000429122,-0.0001642881,0.00021714205,-0.0007308773,0.0026817545,0.0018214583,-0.0039136605,0.0016171895,0.002774382,0.0016955677,0.00040889904,0.0017485889,-0.001293144,-0.0008466169,-0.0015672408,0.0005500382,0.00074969814,-0.0015441317,-0.0020669727,-0.0004879149,-0.00073088985,-0.002151275,0.0010248413,0.0021927245,0.0037922887,5.2678166e-05,-0.0010933895,0.0014687997,-0.0010811221,0.002842579,0.0020107618,-0.00086503127,1.6868114e-05,-0.0018409444,-0.0013724482,-0.0020416917,-0.001488341,0.0011049286,-0.003333917,0.0005277842,0.0015301768,-0.0028927466,-0.00036592875,-0.0008787187,-0.00081168395,0.002004942,-0.0002673939,-0.0017643683,-0.00095481426,0.00039777998,0.0025312733,0.00040888274,0.0010909173,0.00052597607,0.0011780439,-5.9477985e-05,0.00049758144,0.0044561345,-0.00078282505,0.0007282179
Nc1ccc(N(c2ccc(N)cc2)c2ccc(N)cc2)cc1,-0.0007692687,-0.0009131022,0.0018240311,0.0013234392,-0.0004041663,-0.00010812096,6.935513e-05,-0.0010064743,0.0026699482,0.0019169403,-0.002749986,0.00079851225,0.0026205322,0.0015402585,7.0491806e-05,0.001122239,-0.0016129527,-0.0008210037,-0.0013857437,0.0009500943,0.0005861989,-0.0013027366,-0.001854769,-0.00056808174,0.0003329916,-0.0022502989,0.00051799417,0.0021015722,0.0033054305,-0.0003488653,-0.00032363273,0.0011149194,-0.0013819011,0.0024094973,0.0018576803,-0.00035420456,-0.0001180172,-0.0024291603,-0.001824812,-0.0020574552,-0.001548633,0.001050679,-0.003236398,0.0007654354,0.0010362667,-0.0022733705,-0.00088841,-0.0006705411,-7.44164e-05,0.0015252512,-0.00016723387,-0.0013438053,-0.00046098605,0.0004751142,0.0021107113,-0.00022408133,0.0009049368,-1.1231285e-05,0.0015022103,-0.0003972277,0.0003407076,0.0034056734,-0.00066994876,0.00080948696
CC(C)(c1ccc2c(c1)CN(c1ccccc1)CO2)c1ccc2c(c1)CN(c1ccccc1)CO2,0.0009582881,0.00065621827,0.00024599629,0.0010278551,-0.0006450529,0.00010611024,-0.00031624874,-2.7274247e-05,0.00069334544,0.00069350563,-0.0007396946,0.00051344745,0.0013851048,0.0012168903,-0.0010919888,-0.00031448994,0.00036320393,-0.0009738188,-0.0009645466,0.0009498475,-0.0010108424,-0.0013269696,-0.0006091492,0.00023748528,0.0007264437,-0.00043541938,0.00064389035,0.00081249885,0.00025452022,-0.0012241539,0.00024674647,0.0011280399,-0.0015925197,0.00027824566,0.00045434106,0.0007169375,-0.0005100556,-0.00056895893,-0.00087252166,-0.0007155703,-0.0005676318,0.0011030938,-0.0019536112,0.0010403767,0.0007328958,7.156469e-05,0.0007396089,-0.0004470991,0.00039297063,-0.00045376085,2.5326386e-05,-0.0010751057,-0.0005117003,8.985214e-05,0.00090419874,-0.00032096868,0.000946891,0.00089641893,0.0005481895,0.0006839661,-0.00022235885,0.0016459189,-4.672818e-05,0.0007061381
CC(N)COCC(C)OCC(C)OCC(C)OCCOCCOCCOCCOCCOCCOCCOCCOCCOCCOCCOCCOCC(C)OCC(C)OCC(C)N,0.00020772591,0.00033240393,-0.0035967599,-0.0039809793,0.00058160326,-0.0005362695,0.0007256209,0.0012040972,-0.0014284737,-0.0011275997,0.0027606534,2.5629997e-06,-0.003843827,-0.0034898296,0.0007478483,-0.0002826592,0.0026443873,0.00201796,0.0006716605,-0.0011961618,0.0009261479,0.00072531705,0.0014856989,0.00023880915,-8.8764355e-06,0.0037010852,-0.0020860853,-0.0018849224,-0.005875681,1.628953e-05,0.0010295007,-0.00019106304,0.0017880863,-0.0035443027,-0.0011622701,0.0003632789,0.0005234666,0.0012110351,0.0024311412,0.004528369,0.0032457989,-9.936467e-05,0.0030331314,-0.0012223609,-0.002204881,0.0029812213,0.0018303124,-0.00010603294,0.00041107833,-0.00022236072,0.0002425164,0.0022441149,0.0015331097,-0.0020480752,-0.0030906852,-0.0015322841,-0.0023833853,0.00058227265,-0.002653487,0.00073762145,0.00029800087,-0.004279474,0.0016418695,-0.0014208928
NCCOCCOCCN,-0.00029361248,-0.0021306342,0.002215656,0.0010071453,-0.00043595792,-0.00030181278,-0.00035506254,-0.00024568057,0.0027733725,0.00078264624,-0.0041861786,0.0020505115,0.0023340043,0.0016782023,0.001403302,0.002758625,-0.0005356956,-0.000491187,-0.0011609346,-0.0004140092,0.00056372606,-0.0011161331,-0.0017299643,-4.0733372e-05,-0.0024279663,-0.0013612192,0.0020533437,0.0007939972,0.0043223957,3.8453145e-05,-0.0009866804,0.0014286038,-0.0007900847,0.002667129,0.0021054652,-0.0003677162,0.0008756202,-0.0015348652,-0.00051005,-0.0017788734,-0.0017303061,0.002264427,-0.0038186368,0.00035649166,0.0021501547,-0.0025395984,0.00022326317,-0.0010049976,-0.0012125215,0.001806261,-0.0004509054,-0.0007947311,-0.0014907382,-4.2917207e-05,0.0025708098,0.00067663984,0.0015880854,0.00024541887,0.0006155148,-0.00036872365,0.00048153102,0.0043764133,-0.00069739856,0.0008885283
COCCOCCOCCOCCOCCOCCOCCOCCOCCOCCOCCOCCN,-0.00048700534,-0.00095099583,0.00031135278,-0.0014142282,-0.00044661225,-6.5638684e-05,0.00022569625,0.00078714406,0.001580432,0.00047176145,-0.0024216557,0.00092541054,0.0015940457,0.0002025608,-0.0005307831,0.001400114,0.0009916008,-0.001155721,-0.00084258895,-0.00091267005,-0.00040766946,-0.00011781859,-6.517116e-05,9.208161e-05,-0.00010880828,-0.00025275908,0.0005805148,0.00015780702,0.00088409055,-0.00014012423,-0.00013788603,0.0008813214,-0.000967456,0.00035913102,0.0011020359,9.758375e-05,0.0007670019,-0.0013929931,0.00053217076,-0.00029859203,-0.0006723888,0.001956556,-0.0028513484,0.0015651397,0.0013248947,-0.0009346297,0.0004970683,-0.0011479417,-0.0004671337,0.001153769,-2.7608126e-05,-0.00032060407,-0.0013152864,0.00031451602,0.00074882153,-0.0004682294,0.00057942746,-9.3092676e-05,-0.00020532496,-8.6490065e-05,-0.00075894035,0.0018271133,-0.0002468191,0.00033465028
COCCOCCOCCOCCOCCOCCOCCOCCOCCOCCOCCOCCOCCOCCOCCOCCOCCOCCOCCOCCOCC(C)N,-0.0003848821,0.00046530552,-0.003389752,-0.003928369,-0.00019208551,-0.00010221731,-0.00017274497,0.0017719367,-0.0007632179,-0.00047694426,0.0015007155,0.00065102614,-0.0019949875,-0.002288146,-3.284216e-05,0.00037062448,0.0021465954,0.0007753726,0.00057906844,-0.0017718263,1.7585e-05,0.00040044566,0.0014895117,0.00047819864,-3.583543e-05,0.0020676814,-0.0015025632,-0.0015356243,-0.004014709,-0.00047125784,7.748604e-07,-0.00052718853,0.00026972126,-0.0029083956,-0.00044926442,0.00076897605,0.00068528764,-0.00023977924,0.0024494566,0.0032702528,0.001822032,0.0008886345,0.001125034,0.0006066486,-0.00087839284,0.0012637945,0.0024604918,-0.0009972267,0.00036488753,0.0007257629,0.00010797568,0.0011751316,0.0008226298,-0.00078426115,-0.0018936181,-0.00074855005,-0.0006322181,0.00010933215,-0.0019943397,0.00076146517,-0.00027615577,-0.0022285525,0.0009399988,-0.00034375116
COCCOCCOCCOCCOCCOCCOCCOCCOCCOCCOCCOCCOCCOCCOCCOCCOCCOCCOCCOCCOCCOCCOCCOCCOCCOCCOCCOCCOCCOCCOCCOCCOCCOCC(C)OCC(C)OCC(C)OCC(C)OCC(C)OCC(C)OCC(C)OCC(C)OCC(C)OCC(C)N,0.0033706035,-0.0034860522,0.008399915,0.016276916,0.011073226,0.013670926,-0.017905423,-0.013806494,-0.03799911,-0.032055255,0.025564779,0.016972955,-0.037116434,-0.027951717,0.026106428,-0.013940045,-0.00025055255,0.034647956,0.017812835,0.0010700654,0.016225044,0.015408625,0.019299787,-0.004928358,-0.0013354355,0.039177775,-0.013931462,-0.04035561,-0.038763758,0.009437372,0.022962527,-0.0409314,0.026803527,-0.00017258897,-0.02170708,-0.009514462,0.010705022,0.057729486,0.020630807,0.03423562,0.023380427,-0.026624823,0.0636682,-0.032796733,-0.034390237,0.03103542,-0.034588296,0.02614592,-0.015489212,-0.03338977,-0.022845514,0.0455017,0.035030603,0.00073344447,-0.007469481,0.0019903188,-0.024273094,-0.005098877,0.0027771583,0.0034068432,-0.008487502,-0.0623727,0.012208112,0.009848688
COCCOCCOCCOCCOCCOCCOCCOCCOCCOCCOCCOCCOCCOCCOCCOCCOCCOCCOCCOCCOCCOCCOCCOCCOCCOCCOCCOCCOCCOCCOCCOCCOCCOCCOCCOCCOCCOCC(C)OCC(C)OCC(C)OCC(C)OCC(C)OCC(C)N,0.0010644719,-0.0004672343,0.004414422,0.00821289,0.008579375,0.00815661,-0.009020555,-0.010056756,-0.026651721,-0.020920303,0.017115641,0.010675583,-0.02773647,-0.01989498,0.01685344,-0.010318994,0.0020500154,0.024411041,0.011138737,-0.0018523289,0.010970152,0.013686602,0.015132186,-0.0019304428,-0.001566683,0.02995493,-0.0109434435,-0.028119817,-0.02798342,0.0038518764,0.015120445,-0.024472171,0.023046184,-0.0024833027,-0.01607918,-0.0066927318,0.0064143166,0.04016731,0.016425565,0.023980426,0.01878338,-0.01821641,0.04330977,-0.02035377,-0.024671804,0.021252695,-0.018830687,0.016592972,-0.012376745,-0.022806399,-0.01481442,0.030272014,0.024080465,-0.002550479,-0.00604756,0.00012179138,-0.018049566,-0.005184039,-0.0009334404,0.0039473176,-0.007548142,-0.044610605,0.009573206,0.005435827
NCCCOCCOCCCN,-0.00022899546,-0.002228057,0.0019615036,0.00078704115,-0.00019922876,-7.740967e-05,-0.00035259174,-0.00010207249,0.0026430134,0.00078050606,-0.004108877,0.0019103196,0.0020319251,0.0015579071,0.0011202078,0.0026383484,-0.00037962454,-0.0006166026,-0.0011996301,-0.00044892915,0.00036885613,-0.0010456692,-0.001466685,-9.0771005e-05,-0.0023303246,-0.0013557654,0.002100843,0.0006365329,0.004184746,-1.6161473e-05,-0.00087128766,0.001255374,-0.00073898584,0.002421867,0.0019420413,-0.00043410645,0.000970101,-0.0014275657,-0.0004344359,-0.0015754753,-0.0015914533,0.002128996,-0.0035528988,0.00055392645,0.0018839416,-0.0024367059,0.00041698013,-0.001120341,-0.0012216447,0.0019242521,-0.00045342185,-0.0008165147,-0.0013818201,-0.00019278191,0.002489455,0.00073878886,0.001705508,0.000115372706,0.0006207237,-0.00040122122,0.00050847605,0.004029978,-0.0006884765,0.0008550007
CC(C)(C)N,-0.00033161975,-0.0017840564,0.0025195717,0.0014583003,3.6995625e-05,-0.00030069053,-0.0007758015,-0.00036330195,0.0025304407,0.0008381428,-0.0041174656,0.0023452602,0.0026160022,0.0013992507,0.0015178975,0.0027973661,-0.00061057205,-0.0006025098,-0.0012454707,0.00023017544,0.00056387694,-0.0011896684,-0.0017307429,0.00023053808,-0.0023624627,-0.0016590226,0.0021436755,0.0006903969,0.0047015,0.00043884735,-0.0009428188,0.0010783296,-0.001297608,0.0027734432,0.002064147,-0.00055932277,0.0010510627,-0.001459728,-0.00081322435,-0.0021763432,-0.0014827084,0.002676405,-0.0036685783,0.00034921244,0.002169284,-0.0026431428,8.334685e-05,-0.00094113406,-0.0012614606,0.0019172262,-0.00053354166,-0.0008507129,-0.001271069,-0.00033594854,0.0028571747,0.00033301907,0.0016220168,2.4585519e-05,0.00075701997,-0.000466194,0.00057284534,0.004510192,-0.0007370431,0.00081140734
CCCCN,-0.0003756676,-0.0020447345,0.0027041729,0.001220854,-0.0002873058,-0.00044613983,-0.0007944959,-0.00059584575,0.0028607212,0.0007241899,-0.0042157015,0.0022153948,0.0025819726,0.0015819874,0.0016490966,0.0031614257,-0.0003602642,-0.00041285902,-0.0011561513,-0.00017832499,0.0005670639,-0.0012063689,-0.0018475698,9.5926574e-05,-0.0025152387,-0.001412902,0.0021657264,0.00073487684,0.0047044316,-1.9631581e-05,-0.0008922033,0.0012207624,-0.0010754168,0.0028914344,0.0019980846,-0.00037097954,0.0010296889,-0.0015848195,-0.00070717,-0.0017925797,-0.0015628319,0.0025774091,-0.0038745385,0.00044137985,0.0023486065,-0.0025962228,0.00015755277,-0.0008388115,-0.0014438657,0.0018588528,-0.00052121654,-0.0007921811,-0.0014183018,-4.0847808e-05,0.0028342856,0.00058439234,0.0016349421,0.00023772242,0.00069950987,-0.00042335223,0.00074454583,0.0046286825,-0.001027137,0.00081542507
CCCCCCCCCCCCCCCCN,0.00014591776,-0.0018827794,0.002187367,0.0011066785,-9.70962e-05,1.6271137e-05,-0.00037574722,0.0002926574,0.0027771555,0.001145455,-0.0036774157,0.0017729364,0.0014927704,0.0011230931,0.0007314179,0.0019462751,-0.00072677503,-0.00019645505,-0.001229817,-0.0004760055,0.00040177698,-0.0010569065,-0.0011317646,-5.6266435e-05,-0.0022020591,-0.00082096644,0.001796552,0.0009745024,0.003842135,-0.00015793112,-0.0009887237,0.0010450069,-0.0008170074,0.0020449068,0.0017599324,-0.0011731593,0.0010172464,-0.0013451325,-0.00018757768,-0.0016174687,-0.0014945287,0.0017361771,-0.0035012867,0.0005269237,0.0015276232,-0.002089928,0.00056195725,-0.0008535562,-0.0013080547,0.0017747041,-0.00022289902,-0.0009853877,-0.0013817232,9.2293136e-05,0.0022327062,0.00082484307,0.0014697008,0.00030737603,0.00034736376,-8.286815e-05,0.00036592036,0.0041604023,-0.0006027352,0.0011585616
CC(N)COCC(C)OCC(C)OCC(C)OCC(C)OCC(C)OCC(C)OCC(C)OCC(C)OCC(C)OCC(C)OCC(C)OCC(C)OCC(C)OCC(C)OCC(C)OCC(C)OCC(C)OCC(C)OCC(C)OCC(C)OCC(C)OCC(C)OCC(C)OCC(C)OCC(C)OCC(C)OCC(C)OCC(C)OCC(C)OCC(C)OCC(C)OCC(C)OCC(C)OCC(C)N,0.014368851,-0.007288982,0.022770898,0.063169904,0.00067591947,0.042629875,-0.059723146,-0.039948586,-0.07828567,-0.07851625,0.060668558,0.045579776,-0.07496135,-0.06529021,0.08588612,-0.056501027,-0.023972727,0.08569984,0.052579932,0.011781509,0.053145602,0.01077888,0.02627933,-0.020803927,-0.0038986066,0.0779339,-0.020691048,-0.11847675,-0.09280966,0.042367943,0.056317814,-0.108119436,0.043008197,0.01906951,-0.06104226,-0.026916007,0.0058061467,0.14170691,0.036384705,0.08246477,0.039556544,-0.0691762,0.14736402,-0.10320519,-0.062909104,0.07655424,-0.11696957,0.059567463,-0.027534597,-0.095299244,-0.06186495,0.109508984,0.08460199,0.023689993,-0.016018825,0.012793317,-0.055745672,0.017102066,0.019933857,-0.0062202476,-0.007322614,-0.14097935,0.018777294,0.03435334
CC(N)COCC(C)OCC(C)OCC(C)OCC(C)OCC(C)OCC(C)OCC(C)OCC(C)OCC(C)OCC(C)OCC(C)OCC(C)OCC(C)OCC(C)OCC(C)OCC(C)OCC(C)OCC(C)OCC(C)OCC(C)OCC(C)OCC(C)OCC(C)OCC(C)OCC(C)OCC(C)OCC(C)OCC(C)OCC(C)OCC(C)OCC(C)OCC(C)OCC(C)OCC(C)OCC(C)OCC(C)N,0.014368851,-0.007288982,0.022770898,0.063169904,0.00067591947,0.042629875,-0.059723146,-0.039948586,-0.07828567,-0.07851625,0.060668558,0.045579776,-0.07496135,-0.06529021,0.08588612,-0.056501027,-0.023972727,0.08569984,0.052579932,0.011781509,0.053145602,0.01077888,0.02627933,-0.020803927,-0.0038986066,0.0779339,-0.020691048,-0.11847675,-0.09280966,0.042367943,0.056317814,-0.108119436,0.043008197,0.01906951,-0.06104226,-0.026916007,0.0058061467,0.14170691,0.036384705,0.08246477,0.039556544,-0.0691762,0.14736402,-0.10320519,-0.062909104,0.07655424,-0.11696957,0.059567463,-0.027534597,-0.095299244,-0.06186495,0.109508984,0.08460199,0.023689993,-0.016018825,0.012793317,-0.055745672,0.017102066,0.019933857,-0.0062202476,-0.007322614,-0.14097935,0.018777294,0.03435334
CC(N)COC(C)COCC(C)(COCC(C)OCC(C)N)COCC(C)OCC(C)N,0.000328999,0.0005923519,-0.00076608686,-0.00027782843,-0.00071431533,-8.996576e-07,0.0001926911,0.00018486707,0.00041119754,8.627027e-05,-0.0009759059,-5.0788745e-05,0.0015358999,-0.00016126968,-0.000623608,-0.000106594525,0.0007623837,-0.0010833517,-0.0005906541,-0.00017016288,-0.0013071208,-0.00038651447,0.00023507047,-0.00048506458,0.0007477645,0.00075474195,-3.2479875e-05,0.00042376108,-0.00010173116,-0.0003619783,0.0005529318,0.0010421571,-0.0019567208,-0.00030792318,0.0006345147,0.00078400946,5.7604164e-05,-0.0017079795,-0.00020440295,-0.00022520754,-4.289672e-06,0.0019359514,-0.001118131,0.0013682786,0.0005079404,0.00062849093,0.0003314698,-0.0003998177,-0.00028971024,0.00028217584,0.0005640276,-0.00030102208,-0.0004615523,-0.00027735438,-0.00029746443,-0.00020288816,0.00047109416,0.00060554454,-0.0005062157,-7.702783e-05,-0.00096001476,0.001115026,0.0006913543,2.647005e-05
CC(N)COC(C)COC(C)COC(C)COC(C)COC(C)COC(C)COC(C)COC(C)COC(C)COC(C)COC(C)COC(C)COC(C)COC(C)COC(C)COC(C)COCC(C)(COCC(C)OCC(C)OCC(C)OCC(C)OCC(C)OCC(C)OCC(C)OCC(C)OCC(C)OCC(C)OCC(C)OCC(C)OCC(C)OCC(C)OCC(C)OCC(C)OCC(C)N)COCC(C)OCC(C)OCC(C)OCC(C)OCC(C)OCC(C)OCC(C)OCC(C)OCC(C)OCC(C)OCC(C)OCC(C)OCC(C)OCC(C)OCC(C)OCC(C)OCC(C)N,0.014538877,-0.0076222327,0.023587037,0.06462587,-0.00032877014,0.042116698,-0.06078258,-0.040708497,-0.078015044,-0.0779727,0.06065993,0.04576678,-0.072916016,-0.06482899,0.08544874,-0.05623691,-0.024577416,0.085443564,0.052521072,0.012806183,0.053154018,0.009896117,0.026535403,-0.021393191,-0.00314062,0.077436805,-0.019946896,-0.11809656,-0.091558814,0.043040834,0.055808887,-0.10919107,0.04228081,0.020100756,-0.060509976,-0.027037552,0.0056102425,0.14177617,0.035749838,0.08193388,0.039259803,-0.069489725,0.14666447,-0.103753164,-0.062321838,0.07657944,-0.11827363,0.059993908,-0.027245417,-0.09623561,-0.063048914,0.1097228,0.08504998,0.025300898,-0.01604052,0.012876533,-0.055419978,0.017021455,0.02071593,-0.0061526056,-0.0070628505,-0.14020735,0.018631244,0.034259535
CC(N)COC(C)COC(C)COC(C)COC(C)COC(C)COC(C)COC(C)COC(C)COC(C)COC(C)COC(C)COC(C)COC(C)COC(C)COC(C)COC(C)COC(C)COC(C)COC(C)COC(C)COC(C)COC(C)COC(C)COC(C)COC(C)COC(C)COC(C)COCC(C)(COCC(C)OCC(C)OCC(C)OCC(C)OCC(C)OCC(C)OCC(C)OCC(C)OCC(C)OCC(C)OCC(C)OCC(C)OCC(C)OCC(C)OCC(C)OCC(C)OCC(C)OCC(C)OCC(C)OCC(C)OCC(C)OCC(C)OCC(C)OCC(C)OCC(C)OCC(C)OCC(C)OCC(C)N)COCC(C)OCC(C)OCC(C)OCC(C)OCC(C)OCC(C)OCC(C)OCC(C)OCC(C)OCC(C)OCC(C)OCC(C)OCC(C)OCC(C)OCC(C)OCC(C)OCC(C)OCC(C)OCC(C)OCC(C)OCC(C)OCC(C)OCC(C)OCC(C)OCC(C)OCC(C)OCC(C)OCC(C)N,0.013739917,-0.0065754782,0.021950422,0.06067442,-9.668083e-05,0.0394322,-0.057773024,-0.039299168,-0.07325883,-0.073972344,0.058498383,0.042730443,-0.06916975,-0.06180273,0.08059926,-0.05298977,-0.023396062,0.08089649,0.048987575,0.012201713,0.050206516,0.008635317,0.024397545,-0.019736722,-0.0029659616,0.07333744,-0.01889918,-0.111025155,-0.086935855,0.040393315,0.053356647,-0.10347293,0.040023863,0.01874162,-0.057650324,-0.025436802,0.0054058842,0.13384245,0.0333705,0.07760986,0.037648056,-0.06522458,0.13850474,-0.09901956,-0.05867837,0.072790675,-0.11193592,0.05677156,-0.02513811,-0.09075364,-0.05916962,0.10370823,0.08100782,0.024057481,-0.015104003,0.011426702,-0.0521152,0.016174842,0.019060742,-0.006858919,-0.006523693,-0.13234033,0.016915696,0.032865725
CC(N)COC(C)COC(C)COC(C)COC(C)COC(C)COC(C)COC(C)COC(C)COC(C)COC(C)COC(C)COC(C)COC(C)COC(C)COC(C)COC(C)COCC(C)(COCC(C)OCC(C)OCC(C)OCC(C)OCC(C)OCC(C)OCC(C)OCC(C)OCC(C)OCC(C)OCC(C)OCC(C)OCC(C)OCC(C)OCC(C)OCC(C)OCC(C)N)COCC(C)OCC(C)OCC(C)OCC(C)OCC(C)OCC(C)OCC(C)OCC(C)OCC(C)OCC(C)OCC(C)OCC(C)OCC(C)OCC(C)OCC(C)OCC(C)OCC(C)OCC(C)N,0.014538877,-0.0076222327,0.023587037,0.06462587,-0.00032877014,0.042116698,-0.06078258,-0.040708497,-0.078015044,-0.0779727,0.06065993,0.04576678,-0.072916016,-0.06482899,0.08544874,-0.05623691,-0.024577416,0.085443564,0.052521072,0.012806183,0.053154018,0.009896117,0.026535403,-0.021393191,-0.00314062,0.077436805,-0.019946896,-0.11809656,-0.091558814,0.043040834,0.055808887,-0.10919107,0.04228081,0.020100756,-0.060509976,-0.027037552,0.0056102425,0.14177617,0.035749838,0.08193388,0.039259803,-0.069489725,0.14666447,-0.103753164,-0.062321838,0.07657944,-0.11827363,0.059993908,-0.027245417,-0.09623561,-0.063048914,0.1097228,0.08504998,0.025300898,-0.01604052,0.012876533,-0.055419978,0.017021455,0.02071593,-0.0061526056,-0.0070628505,-0.14020735,0.018631244,0.034259535
CC(N)COCC(C)OCC(C)OCC(C)OCCOCCOCCOCCOCCOCCOCCOCCOCCOCCOCCOCCOCCOCC(C)OCC(C)OCC(C)N,0.00042386726,0.00027478486,-0.0038107256,-0.0040848404,0.0006335636,-0.00035510305,0.0008664755,0.0014960696,-0.0016937461,-0.0015840195,0.0033490006,4.6323985e-05,-0.004227491,-0.00398227,0.0013647396,-0.00036811922,0.002898428,0.0027190633,0.0008497909,-0.0014407774,0.0013470717,0.0014174443,0.0013862224,0.0005260272,-0.00021672342,0.0039602537,-0.0020856624,-0.0024738684,-0.006282427,8.321623e-05,0.0010295678,-0.00036884134,0.002267965,-0.004138693,-0.0014699949,0.0002197565,0.0008422397,0.0020491304,0.0024637887,0.0050044972,0.0035024155,-0.000360433,0.003996467,-0.0012431815,-0.0028629145,0.0034655714,0.0016354034,-0.00010880176,0.0001691645,-0.0005063433,0.00019642338,0.0025831051,0.001965953,-0.0019982588,-0.0033165067,-0.0018138322,-0.0027074968,0.00039936462,-0.0031018723,0.00063990057,0.00036989525,-0.0053231902,0.0013613198,-0.00078479946
CC(N)COCC(C)OCC(C)OCC(C)OCC(C)OCC(C)OCC(C)OCCOCCOCCOCCOCCOCCOCCOCCOCCOCCOCCOCCOCCOCCOCCOCCOCCOCCOCCOCCOCCOCCOCCOCCOCCOCCOCCOCCOCCOCCOCCOCCOCCOCCOCCOCCOCC(C)OCC(C)OCC(C)OCC(C)OCC(C)N,0.0040443297,-0.007917983,0.014850063,0.032790445,0.0006751062,0.025316712,-0.036063507,-0.0199766,-0.050794974,-0.049739268,0.03909474,0.024857141,-0.04781723,-0.038303167,0.05759093,-0.033202063,-0.012288523,0.050169073,0.03310767,0.0035782745,0.030078301,0.010709968,0.016970836,-0.018328868,-0.001971039,0.04382187,-0.014109678,-0.072771154,-0.05893589,0.025344234,0.03257545,-0.063979976,0.028736949,0.0070909457,-0.037501927,-0.014378661,0.002834227,0.084818415,0.020551784,0.05584058,0.021202996,-0.043637343,0.08761181,-0.05968325,-0.041585166,0.046162896,-0.065922275,0.03400304,-0.018525735,-0.059151046,-0.03429523,0.06804615,0.046599537,0.011977062,-0.013630405,0.010089431,-0.034046475,0.011153653,0.008177438,-0.0053417217,-0.0093128625,-0.08643555,0.011425525,0.02137876
COCCOCCOCCOCCOCCOCCOCCOCCOCCOCCOCCN,-0.00041610003,-0.0011416804,0.0005168789,-0.0011566374,-0.00041202293,-2.2530556e-05,0.00025865855,0.0006152061,0.0017841319,0.00047492888,-0.0026671486,0.00088089146,0.0015797559,0.0003661774,-0.0005536154,0.0013227882,0.00095716235,-0.0010219924,-0.0007598344,-0.00096663367,-0.00021523633,-0.00029587443,-0.00013397913,0.00010921236,-0.00033886358,-0.00013873726,0.0005897777,0.0002233237,0.0011429666,-4.9119117e-05,0.00012769923,0.0008166131,-0.0010701595,0.00072925165,0.0012423154,-2.3007626e-05,0.00090974756,-0.001259488,0.00070030615,-0.0002543719,-0.0009773839,0.0019450095,-0.0030764472,0.0013561286,0.0014341333,-0.0011005709,0.00036081765,-0.0013220655,-0.00039308518,0.0011608936,-0.00036354363,-0.00038304552,-0.001364328,0.00020275079,0.0011548279,-0.0006477325,0.00052196207,-0.00026595546,-0.00019609276,2.3726374e-05,-0.00071471,0.0020610653,-0.00020646863,0.00058628246
COCCOCCOCCOCCOCCOCCOCCOCCOCCOCCOCCOCCOCCOCCOCCOCCOCCOCCOCCOCC(C)N,-0.0005737543,0.00045875832,-0.0031417008,-0.0036127232,-0.00045061694,-9.0496615e-06,-0.0002811337,0.0018095053,-0.00027389452,-0.00040418562,0.001107703,0.0007075742,-0.0014439039,-0.0020059831,-0.00029529817,0.00018981006,0.0019154914,0.00032760017,0.00061199535,-0.0016663093,-0.00012542377,0.0003795263,0.0013554608,0.000693804,-9.8495744e-05,0.0016447473,-0.0013811393,-0.0012503285,-0.0034522181,-0.00053264503,-0.00016362779,-0.000395466,-0.00020037871,-0.0027001705,-0.00038009882,0.0008132828,0.00066728704,-0.000337678,0.002055874,0.0028544387,0.0015977398,0.0012258496,0.00050907396,0.0007049311,-0.00053483725,0.0008261381,0.0023796419,-0.0008043349,0.00034092925,0.00081679784,0.00017325953,0.0010280833,0.00047929026,-0.0006081555,-0.0016943933,-0.0004257853,-0.00020308932,0.0003799745,-0.0016972274,0.00036303233,-0.00044618733,-0.0016227122,0.0008714106,-0.00028797798
CC(C)(C1CCC(OCC2CO2)CC1)C1CCC(OCC2CO2)CC1,7.967651e-05,2.9644929e-05,0.00037594372,9.164587e-05,-0.0011387228,0.00019345153,1.30585395e-05,0.00010271976,0.0011691591,0.00064165797,-0.002031534,0.0009130649,0.0021591056,0.0006642081,-0.000715727,0.0009657694,-0.000110321445,-0.00072939694,-0.0012390893,-0.00050695986,-0.000834245,-0.0013213332,-0.0005082032,-0.00020982709,0.00025537144,-0.0009326562,0.000410215,0.0006971359,0.0013494203,-0.0002391648,-0.0001976043,0.00091086666,-0.0017103199,0.0012917649,0.0013144081,-0.0003609492,-0.00012055971,-0.0019963356,-3.4002587e-06,-0.0012495916,-0.00090233795,0.0015256796,-0.0024051312,0.0014525242,0.001395353,-0.00084548723,0.0001818696,-0.0006849654,-6.595347e-05,0.0014617108,0.00020149723,-0.0011419579,-0.0009120945,-0.0006353315,0.0005466938,-0.0001951675,0.0005067787,0.00063251005,0.00031179097,-3.1113625e-05,-0.00033578835,0.002115665,-0.0001756791,-0.00029806606
O=C1CCCC(=O)O1,-0.00015911087,-0.0018562432,0.0024607317,0.0012976322,-0.00019979314,-0.00035833754,-0.0004282319,-0.00065669464,0.002567511,0.0007840963,-0.0038424125,0.0016682576,0.0023882193,0.0010708869,0.0011663344,0.0024718,-0.000611373,-0.0007985197,-0.0013677767,-0.00031898543,0.00025917054,-0.0011066596,-0.001592706,2.78441e-05,-0.0018300945,-0.0013180599,0.0018761465,0.0008740872,0.0042542005,0.00013648043,-0.0012301523,0.0013030131,-0.0010251738,0.0025645178,0.0018518465,-0.0005571323,0.00066320784,-0.0015623653,-0.0008033803,-0.0018936952,-0.0016959682,0.0019992106,-0.0036719795,0.0004444979,0.0019426205,-0.0025069201,0.00028970186,-0.00092539843,-0.0013699224,0.0018516332,-0.00039143115,-0.0008173324,-0.001401376,-4.713051e-05,0.002642395,0.00075302133,0.001668955,0.0003639073,0.0006588744,0.00019727647,0.00064641424,0.0044050496,-0.0003202036,0.00040508062
c1cc(N(CC2CO2)CC2CO2)ccc1Cc1ccc(N(CC2CO2)CC2CO2)cc1,0.00047095865,0.00042007677,-0.00032329885,3.7888065e-05,-0.00039186724,1.7221086e-05,-0.0004882007,0.00017584162,0.00080834795,0.0005280124,-0.0013268059,0.00090480223,0.0018429756,0.0008524917,-0.00029299594,-8.451752e-06,6.853719e-05,-0.0009803325,-0.0010825815,6.9139525e-05,-0.0006532029,-0.0016187828,-0.000994538,0.00029991555,-0.0001204256,-0.0007883273,0.00074832514,0.00053068623,0.0016147485,-0.00043102098,-0.0005166661,0.0013953854,-0.0018574959,0.0010141414,0.00035761762,0.00028983667,-0.00037706085,-0.0015194518,-0.00036704633,-0.0009165786,-0.001354916,0.0011458322,-0.0021489486,0.0013360307,0.0013700322,-0.00037763733,0.0011102622,-0.0003712084,0.00044376217,0.0012759231,0.00044752844,-0.0013395809,-0.0012718793,-0.00095766596,0.00042195246,-3.5851263e-06,0.0010146652,0.000696423,0.00035647582,-0.00020539854,0.0001642704,0.0017295852,9.045564e-05,0.0002364181
CC(C)(c1ccc(OCC(O)CN=[N+]=[N-])cc1)c1ccc(OCC(O)CN=[N+]=[N-])cc1,0.00043944642,0.0015905034,-0.0017900723,-0.000908792,-7.1080867e-06,-0.00022458937,-0.00021534832,2.5363173e-05,1.6108155e-05,-0.0005504368,0.00073581655,0.0006472003,-0.0006747013,0.0002063904,-0.0006991029,-0.0012924233,0.001027887,-0.00048161298,0.00053273514,0.0006958423,-0.0010005364,-0.0008522689,0.00037877727,0.00078898843,0.0013558576,0.0013663229,-0.0006588986,0.0005749967,-0.0022110604,-0.0005685233,0.00077890046,-2.7168891e-05,-0.000602833,-0.0024637338,-0.000612583,0.00049548387,0.0003651809,-0.00018199999,-0.00040951185,0.00081839995,0.00094196014,0.00083756633,0.00091733783,-4.5634806e-06,-0.00010930293,0.0012243213,0.0013630418,0.00013695657,0.00010433514,-8.611195e-05,0.00028551556,-5.0254166e-06,0.0002775211,0.0002817139,-0.0006143842,-0.00076333387,-0.00016272115,-8.977903e-05,-0.00057168957,0.00030484702,-0.00030082464,-0.0004551243,0.0006409455,-0.00015249103
C#CCOc1ccc(Cc2ccc(O)cc2OCC#C)cc1,-0.00065025873,-0.0013945037,0.0021971068,0.0006135497,-0.0006161558,-0.00034011062,6.4470805e-06,-0.0009993729,0.002389457,0.001689421,-0.003043686,0.0011159144,0.00230515,0.0010114722,-2.5069341e-05,0.0010665683,-0.0009698707,-0.00078388676,-0.0013787746,0.0005886676,0.00043052132,-0.0015032913,-0.0015178723,-0.00046024437,-0.000107496046,-0.00189537,0.0009616753,0.0017360039,0.003483965,-0.000258432,-0.0003833715,0.0009984222,-0.0009871712,0.0025023408,0.0018202933,-0.0006066507,0.00010740757,-0.0020364495,-0.0014001215,-0.0016541022,-0.0015668795,0.0012786165,-0.0032900702,0.00091527775,0.0012008109,-0.0024603857,-0.00047020614,-0.000696877,-0.00089250226,0.0013341177,-0.00024102814,-0.0013983622,-0.00080505013,0.000643868,0.0016943999,0.0006084484,0.0009501516,0.00057238946,0.0014533037,-0.00011926796,0.0007699095,0.0037095044,-0.0009689536,0.0005043745
CCCCCCCCCCCCN,3.6437064e-05,-0.0020025922,0.0023252205,0.001305948,-0.00011584931,-0.00013026409,-0.00040838355,-0.00014045695,0.0027397573,0.0010506604,-0.00393314,0.0020732898,0.0019661682,0.0011589602,0.0010091234,0.0022892235,-0.0007004801,-0.00028909743,-0.0012827935,-0.0003956668,0.00048327935,-0.0011017702,-0.0013258634,1.4093588e-05,-0.002461697,-0.0011416171,0.0018722666,0.0008807443,0.004191556,2.4284003e-05,-0.0009550378,0.0010905039,-0.0009677438,0.0025322605,0.0019159159,-0.0010794366,0.0009805541,-0.0014616633,-0.0003568111,-0.0018359867,-0.0014758874,0.0021216404,-0.003510723,0.00042336434,0.0016989548,-0.002343244,0.0004053237,-0.00082608685,-0.0013776412,0.0018631238,-0.00039742142,-0.00091432594,-0.0013237372,-2.2910535e-05,0.002529312,0.00083946297,0.001624542,0.00027869875,0.0005171476,-0.00010924321,0.00050886534,0.004362859,-0.00067788735,0.0011340026
NCc1cccc(CN)c1,-0.00025828928,-0.001979106,0.0026976732,0.0013388544,-0.00022364059,-0.00032811053,-0.000539782,-0.0007725726,0.0026444253,0.0010311361,-0.0041459994,0.002174344,0.0023791753,0.0014516488,0.0012873821,0.0021750284,-0.0009210359,-0.0006536711,-0.0014648335,0.0001301663,0.0007952547,-0.0012373019,-0.0019289376,-0.0001744224,-0.0014949134,-0.0017611068,0.001751394,0.0014128927,0.0042794766,6.4120395e-05,-0.0010348838,0.00113669,-0.001203266,0.0026250593,0.0019907355,-0.0007163419,0.0008023437,-0.00151652,-0.00072709564,-0.0021808648,-0.001489399,0.0019399319,-0.0033909567,0.0002503395,0.0016574849,-0.0028725015,5.2976422e-05,-0.0011693612,-0.0014797291,0.0019160155,-0.00047357008,-0.0012027398,-0.0012078527,-0.00020820647,0.0025538001,0.0008580242,0.00149181,0.00034293206,0.000934653,-5.0105155e-07,0.0008095987,0.0046905912,-0.0008821655,0.0005885698
Nc1ccc(Cc2ccc(N)cc2)cc1,-0.0003310144,-0.001956461,0.0026351982,0.00120892,-0.00043242075,-7.541105e-05,0.00012879586,-0.0006320211,0.0027376171,0.0018644724,-0.0038950024,0.0015389714,0.0026715621,0.0016974881,0.00041807443,0.0017487099,-0.0013206869,-0.0006698463,-0.0015345328,0.0005452344,0.0008717135,-0.0015747331,-0.00206728,-0.00059588405,-0.00084977504,-0.0020484347,0.0010391446,0.0021653846,0.0038900478,-1.9050436e-05,-0.0009293165,0.0014187318,-0.001025104,0.0028170068,0.0020602457,-0.0009128025,-0.00010948442,-0.0018657958,-0.0012315819,-0.0020435432,-0.0015314538,0.0011070091,-0.00330971,0.0005128104,0.0013970648,-0.0028336225,-0.0004224321,-0.00082437415,-0.0006949371,0.0019546356,-0.00016403757,-0.0017473008,-0.00094209984,0.00044937432,0.002424363,0.00059391605,0.0010600113,0.00059811445,0.0012597125,-0.00012447406,0.0004996583,0.0044469535,-0.0007358361,0.00061261654
Nc1cccc(N)c1,-0.0004808195,-0.0019302554,0.0027335654,0.0012378581,1.6984995e-06,-0.00050254725,-0.00066521065,-0.00072064763,0.002624873,0.00091520604,-0.0043021524,0.0022258665,0.0025852378,0.0014703274,0.001346223,0.0024063261,-0.00070236693,-0.0008579418,-0.0013838336,0.00021411292,0.00082825334,-0.0013432696,-0.0018257899,4.180125e-06,-0.0018160241,-0.0020492394,0.0019068113,0.001157919,0.0045704516,0.0001818079,-0.001090223,0.0010695528,-0.0013512364,0.0029466692,0.0019814596,-0.0004783871,0.0008652583,-0.0014363332,-0.00069579296,-0.0021813519,-0.0013085678,0.0022356287,-0.0034467224,0.0003442131,0.0018937801,-0.003004537,0.00015397277,-0.0011023106,-0.0014070673,0.0020013023,-0.00034034066,-0.0011176094,-0.0010588616,-0.0003481023,0.00290363,0.00045549544,0.0015392306,8.941861e-05,0.00085111056,-0.00021216553,0.0009890478,0.0047085583,-0.0009855609,0.00070605054
CC(C)(c1ccc2c(c1)CN(c1ccccc1)CCO2)c1ccc2c(c1)CN(c1ccccc1)CCO2,0.00074766576,0.0010164212,-3.2203738e-05,0.0006426098,-0.00044377358,0.00031348318,-0.00046526873,-7.550465e-05,0.00060933735,0.00012350362,8.789543e-05,0.00054578297,0.0010300959,0.00087720156,-0.00087740645,-0.00023217034,0.00018452783,-0.0005925875,-0.000722046,0.0009056106,-0.00080319145,-0.0010851834,-0.0003823107,0.00020254671,0.0009471327,-8.808449e-06,0.0005533388,0.0002031494,-0.00045888126,-0.0011856568,0.00030983053,0.00077962095,-0.0018396461,-0.00014320202,0.00053776056,0.0006180217,-0.00015712343,-0.00040277932,-0.0002305815,-0.00070190313,-0.0005248338,0.0013059378,-0.0013833791,0.0008560978,0.0007266671,0.00018629059,0.0007908447,-0.00035505462,0.00032154378,-0.00069878995,-8.0123544e-05,-0.0009847283,-0.0002448149,0.00022299588,0.00059522316,-0.00066839484,0.0010509654,0.00083190436,0.00018201862,0.0011641579,-0.00018254854,0.0010528918,0.00023421831,0.0004905127
c1cc(N(CC2CO2)CC2CO2)ccc1OCC1CO1,-0.00020031817,-0.0013406742,0.001543188,0.00055398326,-0.0006269554,-0.0001845872,-7.790001e-05,-0.00034943921,0.0022310521,0.0012048986,-0.0031841053,0.0016271211,0.0024396274,0.0012957789,6.1281025e-07,0.0013852185,-0.0006640132,-0.0008169282,-0.0018065767,-0.00034787226,-0.00010896637,-0.001866861,-0.0014711572,0.00036668952,-0.0007106541,-0.0016884524,0.0011051716,0.0012638159,0.0032038717,-0.0003343497,-0.0008911174,0.001030251,-0.001037796,0.002450753,0.0016408386,-0.00065533654,0.00054653175,-0.0018078601,-0.0007885918,-0.001667747,-0.0017221346,0.0010831188,-0.0033310074,0.0012137182,0.0020184452,-0.002251695,4.889723e-05,-0.00092395674,-0.00025573,0.0019875914,-0.0003847722,-0.0014811251,-0.001629319,-0.0006268192,0.0014139377,0.00021970132,0.00072572334,0.0003321101,0.0007623723,-0.00032177102,0.00061698444,0.003428556,-0.0005763527,0.00043904223
O=C(O)CC(O)(CC(=O)O)C(=O)O,-0.00030764192,-0.001586942,0.0018208795,0.0012022415,-0.0003079588,-7.817801e-05,-6.218301e-05,-0.0003271061,0.0017388118,0.0010448163,-0.0030338624,0.0014338437,0.0016937251,0.0007998999,0.0004335437,0.0016834466,-0.00086981687,-0.0010252427,-0.0014276924,0.00013852399,-0.0002254534,-0.0006915524,-0.0011043223,-0.0005017441,-0.00040226523,-0.0009539034,0.0011046687,0.00057521276,0.0027436307,0.00024595368,-0.00039867125,0.00095327536,-0.0013178,0.002066506,0.0014550285,-0.00032971823,0.0006975122,-0.0020340597,-0.0012018187,-0.001987173,-0.001474902,0.0014397372,-0.0029074997,0.0009384975,0.0016265315,-0.0019630687,-0.0006234655,-0.001084662,-0.0009448631,0.0012820214,-0.00016512349,-0.0005531758,-0.0013029389,1.2574717e-05,0.001757063,0.00056036236,0.0010322393,0.00037143426,0.00079304725,0.00021849573,-0.0001975391,0.0034087189,-0.00020517968,0.00042923354
O=C(O)CCCCCCCCC(=O)O,7.642992e-05,-0.0017288644,0.0017425814,0.0009325156,-8.8276574e-05,8.927006e-05,-0.00012275623,6.042281e-05,0.0021635573,0.0011672936,-0.0031840084,0.0014000479,0.0016128658,0.0007535666,0.00078173913,0.0016660178,-0.0008669391,-0.00078703463,-0.0014014626,-0.00017794687,4.545995e-05,-0.0010997008,-0.0013362495,-3.316824e-05,-0.001260587,-0.0007848721,0.0016860384,0.00088771246,0.0035097906,0.00017134915,-0.0007489715,0.0011641305,-0.00090767443,0.001987392,0.0015641032,-0.0008437636,0.0008638203,-0.0016594669,-0.0009576129,-0.0017040984,-0.0015659407,0.0013694931,-0.0030837785,0.00072064996,0.0016174325,-0.0021942211,0.0001784442,-0.0011675339,-0.0012916168,0.0014461651,-0.00013888068,-0.0010811277,-0.0013056044,-0.00014340505,0.0020372309,0.00065241987,0.001308657,0.00039754668,0.0006846646,3.176462e-05,0.00012322329,0.0036868658,-0.00048989616,0.0006834287
Cn1ccnc1,-0.00038681552,-0.0020829272,0.003027609,0.001287193,-0.00035505206,-0.00041960273,-0.00058490736,-0.00087695336,0.0028247386,0.0008913772,-0.0045214994,0.0024148952,0.0026138462,0.0018315725,0.0014514923,0.0027484605,-0.0005546983,-0.0004658103,-0.0010255165,0.00022588111,0.0007319816,-0.0013550173,-0.00184152,-0.00012383948,-0.001974973,-0.001756195,0.002202984,0.001082154,0.004907743,-6.141444e-05,-0.00093484484,0.0013804544,-0.0010775449,0.0030489825,0.0018383171,-0.00043072016,0.0010457002,-0.0014551887,-0.0006530257,-0.0020518496,-0.0015364066,0.002552921,-0.003744552,3.8964674e-05,0.0022288794,-0.0029458785,-3.0705705e-06,-0.001036942,-0.001251,0.0016451646,-0.0005626306,-0.00089999475,-0.001242077,-0.00017442182,0.0027732793,0.00036003115,0.001386293,0.0002142177,0.0009615179,-0.00034106802,0.0009736493,0.004626915,-0.0008425284,0.0007856693
O=C(O)CCCC(=O)O,-0.0001956746,-0.0017369781,0.0022321953,0.0014937539,-8.9727575e-05,-4.9019232e-05,-0.00041168602,-0.000109822024,0.0024115685,0.0009629782,-0.0036741206,0.0018427409,0.0020803446,0.0010367557,0.0011593252,0.0022145966,-0.00078145857,-0.0005949624,-0.0014122119,-8.947868e-05,0.00030079135,-0.0011508751,-0.0014735209,-2.4341163e-05,-0.0018534036,-0.0013255868,0.0018345555,0.000983676,0.0040234486,0.0002699017,-0.0010680538,0.0011013631,-0.0011135032,0.0024622697,0.0019797217,-0.00049524964,0.0007733535,-0.0013859412,-0.00083664525,-0.0021713765,-0.0015837103,0.001818534,-0.0034597777,0.00043543056,0.0018754852,-0.0025016228,0.00016649347,-0.0010179374,-0.0013738619,0.0016298834,-0.00032297522,-0.0009721648,-0.001306992,-0.0003149677,0.0025242232,0.0006312304,0.0015998024,0.00019087316,0.00085890014,6.1823055e-05,0.00032449327,0.004130302,-0.00017081015,0.0007134769
C1OC1COC1COC2C(OCC3CO3)COC12,-0.00013402104,-0.0014497126,0.0012144069,1.1490658e-05,-0.0009788296,-0.00017241947,0.00028554117,-0.00034694234,0.0017668372,0.0011155074,-0.0031035515,0.0012394972,0.0026354697,0.00085013546,-0.0003313981,0.0014284356,8.9437235e-06,-0.0011042319,-0.0014385283,-0.00058780797,-0.00053083035,-0.0011591769,-0.0015605958,-5.4405187e-05,-0.00090261456,-0.0011626892,0.0011893511,0.00069320574,0.00275305,-0.00025617075,-0.000888871,0.0012180094,-0.000967768,0.0022937674,0.0016369652,-0.0009706917,0.00013202243,-0.0017053979,-0.00067401864,-0.0013971438,-0.0017160643,0.0012777802,-0.0031299926,0.001113981,0.0023386097,-0.002127028,0.0005210107,-0.0006747581,-0.0005229926,0.001788849,-2.121739e-05,-0.0014013685,-0.0016040523,-0.00018871576,0.0011998266,0.0006592949,0.0010481277,0.0004581851,0.0006000055,0.00018695742,0.00029325671,0.0032053646,-0.000591686,0.00024834462
Nc1ccc(SSc2ccc(N)cc2)cc1,-0.00033337995,-0.0018119616,0.0024331468,0.0011352263,-0.0002304914,-0.00026099756,0.000105759595,-0.00090814335,0.002612738,0.0016336758,-0.0036693094,0.0014909785,0.002567077,0.0012624674,0.00039806403,0.0017138822,-0.0010237291,-0.00077962875,-0.0016530752,0.0004413817,0.0007025043,-0.001322693,-0.0019162195,-0.0002973691,-0.0006388342,-0.0019045882,0.0009890907,0.0019978322,0.0039259093,-0.000120557146,-0.00078667887,0.0011673082,-0.001153511,0.0029337127,0.0020711021,-0.00090941624,0.00013381429,-0.0018925769,-0.0014659157,-0.0019997589,-0.0015035234,0.0011818614,-0.0031139292,0.00026655942,0.0015671783,-0.0028236518,-0.0005107587,-0.00068403315,-0.0008922862,0.0018000491,-0.0004757587,-0.001596516,-0.0006747842,0.00044256635,0.0025891364,0.0007625562,0.0014137484,0.00037815468,0.0011033928,0.00019662455,0.0005788505,0.0041025095,-0.0010342374,0.0007946454
CC(C)(c1ccc(OCCOCC2CO2)cc1)c1ccc(OCCOCC2CO2)cc1,0.00028778426,0.00014974456,0.000695894,-6.198138e-05,-0.0005972462,0.0002369266,-0.00032093143,2.5351066e-05,0.0008945307,0.0006375294,-0.0015809266,0.0007608328,0.0016406365,0.0006887801,-0.00069207326,-8.7714754e-05,0.00028983806,-0.00047141686,-0.0012344988,0.00040486082,-0.00035499944,-0.0010181151,-0.0007215766,7.504958e-05,0.00013841968,-0.0007016007,0.00046817213,0.0011561774,0.0018454464,-0.0008399051,-0.00019533187,0.0012824979,-0.0017889068,0.0009413436,0.0008921558,-0.00026881904,-0.0007989798,-0.0015806844,-0.00042917486,-0.0008680762,-0.0012281425,0.0012804493,-0.0026774239,0.0011458322,0.0009784669,-0.00056690257,0.00043438282,-0.00017059594,0.00014860835,0.0010353457,0.0006760005,-0.0011744369,-0.0011902787,5.8097765e-05,0.000632694,-0.00014972454,0.0009300378,0.0006221798,0.0006216457,-0.00012811087,-0.00010930188,0.0020455755,-0.00023025274,0.00022555701
O=C1OC(=O)C2CCCCC12,2.7943403e-05,-0.0018794881,0.0020976574,0.0009969212,-0.00056034536,-0.000104312785,-0.00032578828,0.00012129592,0.0022702646,0.000918434,-0.0036913129,0.001451917,0.0021673292,0.0012951922,0.0007158574,0.0022280933,-0.0006925601,-0.00071139634,-0.0014087502,-0.00058814976,0.000108989654,-0.0012239784,-0.0015646191,-0.00029497698,-0.0014797011,-0.0011147112,0.0017351834,0.0012312159,0.0038634567,3.9095758e-05,-0.0010702293,0.0014382895,-0.0008922769,0.0022358894,0.0017510103,-0.0005974828,0.0005526636,-0.0013914919,-0.0006993562,-0.00161943,-0.0017358623,0.0015587695,-0.0035576317,0.000482196,0.0019231018,-0.0022195345,0.00045154896,-0.0008620834,-0.0010280395,0.001800932,-6.726198e-05,-0.0009856559,-0.0015194211,-8.4483996e-05,0.0020978926,0.00064953836,0.0012415608,0.0005657454,0.00054300297,3.6086887e-05,0.00022287667,0.004066393,-0.00032996014,0.0004186239
CN(C)Cc1cc(CN(C)C)c(O)c(CN(C)C)c1,-0.0005537458,-0.0007190574,0.0014953609,0.0012372229,-0.0006195961,-0.00024562795,0.00022664806,-0.0005223439,0.0019789552,0.0012573889,-0.0028062137,0.0015416443,0.0022324538,0.0011258423,-0.0005116742,0.000709367,-0.0010945115,-0.00092882477,-0.0014265385,0.00091551244,5.2712625e-05,-0.0014251552,-0.0014385143,-0.0006288487,0.00012944918,-0.0012411363,0.0008348767,0.0013299901,0.0027151844,-0.00015664403,-0.00030030124,0.00084244425,-0.0015483163,0.0023874324,0.0019996231,-0.0007412641,0.00016645156,-0.0021694237,-0.0009504305,-0.001867322,-0.0013720971,0.0014975406,-0.0031540915,0.0007831957,0.0011061531,-0.00201244,-0.00079978723,-0.00069978833,-0.00053071696,0.0010606162,1.9319355e-05,-0.001250565,-0.00070209615,0.00019580312,0.0012992509,0.00013696449,0.0007643881,0.00014185766,0.0015892694,-0.0002645636,0.0006147325,0.0034971721,-0.00037300214,0.00032925606
CC(C)(c1ccc(OCCOCCOCCOCC2CO2)cc1)c1ccc(OCCOCCOCCOCC2CO2)cc1,9.619072e-05,0.0012696823,-0.0008308259,-0.0014562383,-0.00086214044,0.0003122408,-0.0005608215,0.00046091387,0.00049687736,0.00049336255,-9.5236115e-05,0.0005267821,0.00040417816,0.000102996826,-0.00065228716,-0.00031919684,0.0007176951,-0.0004103277,-0.00029063225,0.000105707906,-0.00063975365,-0.0011583816,0.00031749438,0.00040124345,-4.998129e-05,-0.00020223111,0.0002922695,0.00038241223,-7.329788e-05,-0.0006425299,-0.00037964247,0.0009723153,-0.001126063,-0.0006741565,0.00044944417,0.00023190095,-0.0007231254,-0.001216135,9.257626e-05,0.0004770786,-0.0005298741,0.0015938468,-0.0011049416,0.00064782426,0.00062428496,0.00030434132,0.0011928072,-0.00031484757,-1.6650185e-05,0.0007901583,0.0008875113,-0.00089300796,-0.00057012215,1.8553808e-05,-0.00054120645,0.0003792015,0.0004503918,0.00067401165,6.193388e-05,0.00029174704,-2.6719645e-05,0.0010703579,0.0002626013,-0.0005808808
Cc1cc(-c2cc(C)c(OCC3CO3)c(C)c2)c(C)cc1OCC1CO1,0.00011175871,0.00029398594,0.0007827603,0.00027962774,-0.00089745433,-0.00019351393,-3.6089215e-05,-0.00033793272,0.001407627,0.00074775796,-0.00205551,0.0005016569,0.002368508,0.00086329505,-0.0007038638,0.00026133563,-0.0004454821,-0.0011315178,-0.0013445755,0.0009176517,2.1592481e-05,-0.001326828,-0.0010693194,-0.00039471232,0.00045886915,-0.0015873853,0.00070498325,0.0016697012,0.002581806,-0.0009749823,-0.00019904226,0.0011138428,-0.0016638637,0.0017018337,0.0014649993,0.00020234636,-0.0008034706,-0.002079188,-0.00084456336,-0.0013397706,-0.0013257451,0.0011820477,-0.0028102435,0.000970792,0.0011154012,-0.0011812551,0.00014950242,-0.00027506426,-0.00015771948,0.001311576,0.0005062353,-0.0010236688,-0.0007843375,4.762225e-05,0.00068167597,0.0001177215,0.0007522204,0.0008190763,0.0009526098,-0.0005186293,0.00043427944,0.0026088674,-0.00041479804,0.00013813376
Cc1cc(OCC2CO2)c(C(C)(C)C)cc1-c1cc(C)c(OCC2CO2)c(C(C)(C)C)c1,0.0005906429,0.0010919077,-0.0011157948,-0.0006996151,-0.0007580931,-0.0005639633,-0.00056095654,0.00033727055,0.00039095525,-0.00021477323,0.00018850621,-0.00031966716,0.00036997627,0.0010817721,-0.0007098913,-0.0008635046,0.00071364385,-0.0005542487,-0.0003886558,0.00028401706,-0.0014360647,-0.001568251,-0.00033318903,0.0005519175,0.0006104931,0.00027269498,0.0009739427,-0.00025819987,-5.0106086e-05,-0.0012662385,-4.0804967e-05,0.0009268258,-0.0011139512,-0.00022883154,0.00024597812,0.00088933087,-0.00032944977,-0.0015604058,-0.00024934486,0.00014397711,-0.0005185548,0.001437664,-0.0013236422,0.00075100176,0.00018625602,0.00038152654,0.0012719473,-0.00013618078,0.00010397285,0.00060443394,0.00073046796,-0.0006228499,-0.00038588792,-0.0002808757,-0.00058916025,0.000424881,0.00044428324,0.0011944887,4.3886714e-05,0.00041149184,0.00014642254,0.0011762772,0.00068335235,-0.0002052132
N#COc1ccc(CC2CCCC(Cc3ccc(OC#N)cc3)C2)cc1,-0.0001730062,-0.0003925981,0.0010370477,0.0004314594,-0.0012258368,-0.00051634014,-9.717932e-05,-0.0005055838,0.0021172669,0.0010914998,-0.0020834068,0.00045893155,0.0021354062,0.0010989159,-0.0010183025,0.00020154659,-0.00029257755,-0.0010980852,-0.00063406955,9.1201626e-05,-4.010764e-05,-0.0016858864,-0.0010894379,-0.000543018,-0.00021523703,-0.0012037344,0.0009663664,0.0014608,0.0027186694,-0.0004738283,0.00012931973,0.001312222,-0.0013932744,0.0015937109,0.0016247956,-2.2394815e-05,-0.000205243,-0.0019687498,-0.00092141796,-0.0011673186,-0.0017678645,0.0009436738,-0.0033158679,0.001048129,0.0013354224,-0.0013268637,-0.0002295496,-0.0007636994,-0.00033035595,0.00083651394,4.6866015e-05,-0.0009946339,-0.0006548129,2.6849099e-05,0.0008101519,0.000618136,0.0011063828,0.0008726665,0.0011296328,3.194064e-05,0.000660697,0.0029880442,-0.00075438805,0.00011111051
NCCNCCN,-0.0002691839,-0.0020892192,0.0025464683,0.0010183938,-0.0003533105,-0.00049964804,-0.0008317367,-0.0001959377,0.0028042458,0.00071475934,-0.004221809,0.0021144152,0.0023504728,0.0017855577,0.0015506987,0.0030461466,-0.00036609801,-0.0005362872,-0.0010836013,-0.00032582693,0.0007424692,-0.001186895,-0.0017521093,6.970845e-05,-0.002528417,-0.0014678128,0.0022848928,0.00084906816,0.004735048,2.947147e-05,-0.000923723,0.0013011765,-0.0009751357,0.002744548,0.001928919,-0.0003118536,0.00093492307,-0.0015655151,-0.00053683016,-0.0017732575,-0.0015770551,0.0023452695,-0.0038790144,0.00044990703,0.002307509,-0.0024719788,0.00034309644,-0.0008501997,-0.0012521977,0.0019444041,-0.00051282346,-0.00082416274,-0.0013840273,-9.1426075e-05,0.0026478115,0.0008339775,0.0015154763,0.00035599293,0.00057895295,-0.00057492405,0.000581298,0.004396025,-0.0010283235,0.0007552281
O=C=Nc1ccc(Cc2ccc(N=C=O)cc2)cc1,-0.00047523715,-0.0011774246,0.0018780972,0.00045203883,-0.00040003308,-0.0004071137,-0.00011550216,-0.00060295826,0.0024003275,0.0014416296,-0.0032414114,0.00050639175,0.0024363725,0.0014130715,-0.00031301565,0.0013309745,-0.0006806094,-0.0011329968,-0.0014806762,0.00047567207,0.00024455716,-0.0012107461,-0.0013853302,-0.00049397175,-0.00027184095,-0.0018733554,0.000774269,0.0020462777,0.0031352034,-0.00045258668,-0.00039467774,0.0015702691,-0.0012251819,0.0020473413,0.0018210085,-0.00042160624,-0.0002015587,-0.0018750662,-0.0012063561,-0.0013360053,-0.0012546852,0.0008485727,-0.0031381361,0.0008679852,0.0014412672,-0.0020486256,-5.0156377e-05,-0.0006766012,-0.00038326997,0.0016840734,3.106892e-05,-0.0011258014,-0.00075097196,0.0003575245,0.0015199361,0.00020413892,0.0007399996,0.0003705197,0.0009675799,-0.00056553073,0.00038172118,0.0032815635,-0.0009125192,0.00039174967
O=C(CCCC(=O)OCCCCOC(=O)CCCC(=O)OCCCCOC(=O)CCCC(=O)OCCCCOC(=O)CCCC(=O)OCCCCO)OCCCCO,0.0016985871,-0.00021693483,-0.0038539176,-0.0042709783,0.0011768544,-0.0009199036,0.0009114132,0.0019581863,-0.002495464,-0.0026748572,0.0041381987,-0.00050951354,-0.004626546,-0.0025266055,0.0014742874,-0.0019559646,0.0039340993,0.0015929136,0.00044421013,-0.001871028,0.00031705643,0.000992506,0.0009161318,0.001380531,-0.00021266844,0.004212696,-0.0013578692,-0.0029143933,-0.0064968313,0.0001565374,0.00034544058,0.00014884735,0.0019742362,-0.0044377763,-0.002357509,0.0014720128,-0.00091946684,0.0011783903,0.0017137257,0.0042674746,0.0026027411,-0.0004646983,0.003485512,0.00060525164,-0.0027006576,0.004165246,0.0034643644,-0.0008421801,-0.0013253791,-0.00030460954,0.000209786,0.0012403391,0.00093079545,-0.0018207813,-0.0041697826,-0.0005239039,-0.0023070672,0.0012066127,-0.003194186,0.0016502263,0.0009768587,-0.0047893357,0.0016185399,-0.00068581663
CCC(CO)(CO)CO,-0.0001837574,-0.001931035,0.0023214794,0.0012105061,-0.000100424746,-0.00019737333,-0.0004057414,-0.00028712815,0.0023798663,0.0009225942,-0.003781029,0.0019853823,0.0022836998,0.001200078,0.0013199542,0.0025435658,-0.0006434347,-0.0006343685,-0.0012158593,-0.00017835759,0.00043209852,-0.001177252,-0.0015485743,0.00015438849,-0.0019130828,-0.0012250878,0.0021108668,0.00078479014,0.004041544,0.00034748088,-0.0008703191,0.001010019,-0.0011055153,0.0026911218,0.0019903174,-0.00056686834,0.000985207,-0.0016184105,-0.0010324949,-0.0020348558,-0.001814289,0.0021135733,-0.0035395324,0.00048280507,0.0019073401,-0.0026368415,3.66671e-05,-0.0009829216,-0.0013481108,0.0018917266,-0.0006062146,-0.00086918473,-0.0015019253,-0.00016594306,0.0025443807,0.0007099849,0.0016086323,0.00028116303,0.00070399325,7.113442e-05,0.00035968795,0.00430182,-0.0003662873,0.0007173121
O=C(CCCC(=O)OCCCCOC(=O)CCCC(=O)OCCCCOC(=O)CCCC(=O)OCCCCOC(=O)CCCC(=O)OCCCCOC(=O)CCCC(=O)OCCCCOC(=O)CCCC(=O)OCCCCOC(=O)CCCC(=O)OCCCCOC(=O)CCCC(=O)OCCCCOC(=O)CCCC(=O)OCCCCO)OCCCCO,0.007138651,-0.009714861,0.010858512,0.02742795,0.0040323585,0.020716932,-0.028848538,-0.017351076,-0.05026327,-0.04783998,0.038043667,0.021448478,-0.049076717,-0.038637035,0.051094774,-0.02975573,-0.0060152328,0.048177928,0.030217702,0.0023567136,0.0294332,0.015213293,0.018256556,-0.01454081,-0.0018048277,0.046531484,-0.013780902,-0.06383173,-0.056813575,0.023965914,0.030753085,-0.057097394,0.03248981,0.008271847,-0.03886319,-0.010780316,0.0043424647,0.07888343,0.022410728,0.053122677,0.024948359,-0.044416346,0.088570476,-0.057703573,-0.042345155,0.04439484,-0.054446075,0.03319816,-0.021456253,-0.052118726,-0.032731023,0.06304199,0.049430683,0.008823712,-0.015966378,0.010220427,-0.03695452,0.006974014,0.006475415,-0.004131346,-0.0055540632,-0.08433904,0.016678983,0.013527651
O=C(CCCC(=O)OCCCCOC(=O)CCCC(=O)OCCCCOC(=O)CCCC(=O)OCCCCOC(=O)CCCC(=O)OCCCCOC(=O)CCCC(=O)OCCCCOC(=O)CCCC(=O)OCCCCOC(=O)CCCC(=O)OCCCCOC(=O)CCCC(=O)OCCCCOC(=O)CCCC(=O)OCCCCOC(=O)CCCC(=O)OCCCCOC(=O)CCCC(=O)OCCCCOC(=O)CCCC(=O)OCCCCOC(=O)CCCC(=O)OCCCCO)OCCCCO,0.012203492,-0.010906407,0.020232275,0.055437133,-0.0055982005,0.03426806,-0.052202374,-0.03371285,-0.07044809,-0.07099725,0.05528347,0.038134404,-0.06794079,-0.05758643,0.08585726,-0.057899233,-0.019286413,0.078624755,0.05067724,0.007029251,0.053660117,0.007973854,0.018222835,-0.021783005,-0.0048563974,0.06896506,-0.016387895,-0.10978305,-0.08222736,0.045550033,0.045630388,-0.096660286,0.04350383,0.023310857,-0.062577926,-0.020825407,0.0012556538,0.12681535,0.027751654,0.08042541,0.031625576,-0.07008111,0.13351633,-0.09977855,-0.05293085,0.068626426,-0.10409663,0.053170502,-0.028618988,-0.08720717,-0.05545246,0.09789299,0.074900486,0.023135683,-0.020445539,0.016295142,-0.05634504,0.018527145,0.0135951275,-0.010133611,-0.0014910456,-0.12727116,0.018490141,0.026427036
C=C(C)C(=O)OCCOCCOCCOCCOCCOCCOCCOCCOCCOCCOCCOCCOCCOC(=O)C(=C)C,0.00030704215,0.0005615959,-0.0024021245,-0.0021038912,-0.00034038932,0.00020388886,-0.00051140273,0.0019340389,-0.0006915126,-0.00026795454,0.00082720723,0.0005842652,-0.0010855361,-0.00078153796,-0.00018116646,-3.7557445e-05,0.0019178849,0.00015317276,0.00041369256,-0.001193028,-0.00045953155,-9.161187e-06,0.0009977212,0.0011556571,0.00039165467,0.0018169098,-0.0006745616,-0.000567358,-0.0034202663,-0.00043154252,-0.00017219223,-0.00036083942,-0.00063773897,-0.0026923511,-0.00030064676,0.0009551605,0.0008316878,-0.0005649356,0.0015752967,0.0015962499,0.0011624452,0.0012725871,-0.00016301498,0.0010274015,-0.0006661854,0.00081261527,0.0022569997,-0.0007310957,4.171487e-05,0.00056875125,0.00023279153,0.00029486604,0.00022144243,-0.0001328867,-0.0013013072,-0.00054318784,-0.00012685964,0.00052145356,-0.0010012691,-2.4579465e-05,-0.0012602154,-0.000868652,0.0009463448,-0.0008411687
O=NN([O-])c1ccccc1.O=NN([O-])c1ccccc1.O=NN([O-])c1ccccc1.[Al+3],0.0010466054,0.00020295102,-0.0012492039,-0.0003053844,-0.00026690238,-0.00052150805,-0.0006795167,0.00052895537,-0.000115122646,-0.00040104054,0.00033771712,-8.3215535e-05,0.00014793221,0.00020351075,-0.001082588,-0.0007584831,0.0014756483,-4.659407e-05,0.0003273012,0.0008365065,-0.0006189996,-0.0011165205,-0.0005994579,0.00085600966,0.000700851,0.00039680675,1.768861e-05,0.00038742274,-0.0009817546,-0.00064659794,0.0009767078,0.0007442754,-0.0009785024,-0.00074302964,-0.00053334236,0.0010002626,8.459762e-05,-0.00010985788,-0.0005039051,3.926945e-05,0.0003066063,0.00049173273,-0.00035535544,0.00011256896,0.00062586076,0.0010786029,0.00075648073,-0.0004468523,-0.00044425204,-0.0004276596,-0.00011379458,-0.0006680712,0.00028482452,-7.717684e-05,-0.00013699196,-0.00048982864,0.00045266422,0.00044708187,-0.0007397719,0.00016768463,0.00025727227,0.00023270398,0.0001585111,0.00035150722
CC(COC(=O)CCS)(COC(=O)CCS)COC(=O)CCS,7.608533e-05,-0.0006068498,0.0005900259,-0.00030827336,-0.00085606077,-0.0004671309,-0.00021806313,0.00019675633,0.0013896655,0.0006562611,-0.0024048248,0.0005540531,0.0018080357,0.0005959198,-0.000471944,0.0010031173,0.00024282676,-0.0012178384,-0.0011104094,-0.00010663364,-0.0006122573,-0.000739618,-0.00076270197,7.040973e-05,-4.4720247e-05,-0.00040903315,0.00046378374,0.0010606218,0.0017990498,-0.0003399637,-6.6364184e-05,0.0011903528,-0.0012361808,0.0014011767,0.0014970703,-0.0005542396,0.000100024045,-0.001925216,-0.0003142897,-0.0009242005,-0.0011755843,0.0011179429,-0.002802264,0.0014814958,0.0017891721,-0.0013815435,0.00011037942,-0.0009377403,-0.00070578884,0.0013888925,-0.00027080067,-0.00072029047,-0.0010469165,-0.00023438036,0.00078834314,9.034248e-05,0.0007121549,0.00083402405,0.00025275536,-0.0003002202,8.53762e-05,0.0023607388,-0.0003936533,-0.00055084936
C=CCn1c(=O)n(CC=C)c(=O)n(CC=C)c1=O,-0.00025019795,-0.00069196615,0.0012514996,0.00043632835,-0.00083780126,-0.00024839398,-0.00031690346,-0.0004522563,0.0019407403,0.0010732543,-0.002793503,0.0007202942,0.0015780255,0.0014595501,-0.0002480317,0.000836567,-0.0006378952,-0.0011835601,-0.0011053737,-4.975125e-06,-0.00047737476,-0.0013488762,-0.001237384,-0.0006210116,-8.1679784e-05,-0.0013680737,0.0005622078,0.0011494197,0.002745022,-0.0005310115,-0.00041398965,0.0014135685,-0.0013294816,0.0014627315,0.0011571012,-0.0004361777,8.782372e-06,-0.0020723483,-0.00060956646,-0.0014848651,-0.0013060737,0.0013909973,-0.0028339494,0.0013277754,0.0014135417,-0.0018366454,-0.00019271951,-0.0011464879,-0.0003647888,0.0012670308,0.00041381642,-0.00097502023,-0.001201788,-0.00059315003,0.001026094,-0.00013298867,0.00046412786,0.00041234726,0.0008944636,-0.00075308606,0.00071421266,0.0030003097,-0.00041283853,-0.0003447961
C=CCOCC(COCC=C)(COCC=C)COC(=O)NCC1(C)CC(NC(=O)OCC(COCC=C)(COCC=C)COCC=C)CC(C)(C)C1,0.0021446906,0.0013623443,-0.0046114954,-0.0042480603,0.0009948013,-3.008172e-05,0.0014833012,0.0012597642,-0.0030710772,-0.003087853,0.003776175,-0.0003343448,-0.0051088324,-0.003527157,0.00034115463,-0.0018695602,0.0033825648,0.0021161512,0.0010823952,-0.0022835154,-3.9516715e-05,0.0021880504,0.0020019962,0.0020389617,0.000704146,0.004678661,-0.0018395195,-0.003458919,-0.0081627015,-2.5878893e-05,0.0010327082,0.0004345436,0.002293285,-0.0052581485,-0.002103364,0.00064079626,0.00045021623,0.0027004732,0.0022788672,0.0050204434,0.0038626269,0.00072300434,0.004771754,-0.00042000413,-0.0037537953,0.0049030427,0.00352363,-0.00030079577,0.0002984414,-0.00080334395,-0.0005258173,0.0018141456,0.0021332186,-0.002226158,-0.0030350238,-0.001863373,-0.0026929919,0.0005289209,-0.0031514075,0.0014841808,-0.000102503225,-0.0055204537,0.0014930367,-0.0010605808
C=C(CCS)OCC(COC(=O)CCS)(COC(=O)CCS)COC(=O)CCSC(=O)NCC1(C)CC(NC(=O)SCCC(=O)OCC(COC(=O)CCS)(COC(=O)CCS)COC(=O)CCS)CC(C)(C)C1,0.007175125,-0.00082879886,-0.0057757567,-0.003075527,0.004915701,0.004032309,-0.00080579007,-0.0032449276,-0.01442745,-0.014072882,0.012722184,0.00082922913,-0.017022863,-0.010717802,0.0060738754,-0.004636037,0.0056021465,0.013593458,0.0034078062,-0.00075975526,0.004717555,0.009496617,0.0063549737,0.0045086546,-0.002228384,0.016051961,-0.008824664,-0.009096159,-0.021782357,0.0020563833,0.005575666,-0.008477407,0.013880229,-0.0037047267,-0.010225276,-0.00024031685,0.003110759,0.018643059,0.011062403,0.015011777,0.014412336,-0.010231879,0.02398453,-0.010638319,-0.0132123,0.013064665,-0.0025877543,0.0069026463,-0.005774281,-0.006021384,-0.006818788,0.01570214,0.013862859,-0.0041186344,-0.00564776,-0.0007342468,-0.011066057,-0.0023465748,-0.00340762,0.0015678126,-0.001397159,-0.026663674,0.0066578705,-0.00021953881
C=CCOCC(CO)(COCC=C)COCC=C,0.00015694089,-0.0015044175,0.0016618841,0.0004994124,-0.0006383138,-2.7432106e-05,0.00018452154,2.2430904e-06,0.0017617308,0.0007200893,-0.003057708,0.0013110451,0.0014401181,0.0009324644,3.8389117e-06,0.0017246818,-0.0001776747,-0.0010516103,-0.0012879856,-0.0008564014,-0.00026373682,-0.0010042011,-0.00042395387,-0.00025344838,-0.0008149417,-0.00073667243,0.0011385567,0.00053457916,0.0024489323,7.495913e-05,-0.00042748265,0.0010008101,-0.0010802029,0.0014984962,0.00149915,-0.00054876157,0.0005992614,-0.0013959734,-0.0003879806,-0.0014587452,-0.0014753807,0.001457883,-0.0029004645,0.0010607466,0.0011365198,-0.0019833865,-7.284526e-05,-0.00095520355,-0.00091278274,0.0013252981,-0.00030127354,-0.0010035038,-0.0012751594,-0.00024563633,0.0016234023,0.00041455822,0.0008364101,0.00038827443,0.0006894516,0.00067703426,-0.00018894672,0.0034997333,-0.00033632666,7.025525e-05
C=C(C)C(=O)OC,-1.745671e-05,-0.0018215338,0.002363454,0.0013551014,5.901954e-05,-0.00014278106,-0.00043536676,-0.00048960606,0.0022958405,0.00074377283,-0.0038502822,0.001801841,0.002384142,0.0010771528,0.0012504067,0.002472139,-0.0006980791,-0.0008146502,-0.0012559369,-0.0001237439,0.00036441046,-0.0011053837,-0.0015807347,9.7200624e-05,-0.001831851,-0.001447456,0.001930654,0.00071809813,0.0042124065,0.00048038806,-0.0008278955,0.0010603588,-0.0011780728,0.0025507156,0.0019790167,-0.00052452856,0.000921594,-0.0015396466,-0.0009904215,-0.0019580114,-0.0016227067,0.00212905,-0.0034184065,0.00037533417,0.0019199521,-0.00274307,4.5781024e-05,-0.001097911,-0.0013936451,0.0017085485,-0.0003795307,-0.00087502226,-0.0014200136,-0.00033031497,0.0025457311,0.0005574641,0.001576511,0.0001737685,0.00078325253,9.752624e-05,0.000442395,0.0042581502,-0.00035705976,0.0005241763
O=C(OOC(=O)c1ccccc1)c1ccccc1,-0.00034246594,-0.0018077828,0.0022031781,0.001128409,-0.00042332732,-1.49337575e-05,0.000101429876,-0.0007073921,0.0026378073,0.0012903335,-0.0035726083,0.0010479614,0.0029572295,0.001487108,0.0001387652,0.0019147648,-0.0010917883,-0.00067362003,-0.001536156,0.00023579132,0.0004489862,-0.0013951219,-0.0015047053,-0.0003395389,-0.0011238968,-0.0018432364,0.0013794089,0.001800321,0.0037715873,1.5094411e-06,-0.0009992067,0.0014575567,-0.0010006074,0.002810033,0.0019258624,-0.00060450495,0.0003028717,-0.0017998302,-0.0015590871,-0.0016872005,-0.0016215015,0.0011472758,-0.003468318,0.0007886626,0.0014581893,-0.0026011532,-0.00055194926,-0.00085056573,-0.0003643185,0.001968341,-0.00017159618,-0.0014416166,-0.00094890594,0.00043526664,0.002486745,3.5960693e-05,0.0013479225,0.00035988772,0.0011747591,-4.7311187e-07,0.0004642494,0.003864849,-0.00033062696,0.0007397514
C=C(C)C(=O)OCCOCCOCCOC(=O)C(=C)C,-0.00029110163,-0.00086820684,0.001175323,0.00020553917,-0.0007407686,-0.0002540741,0.00039918767,3.239652e-05,0.0013024341,0.000613817,-0.002451702,0.0011904966,0.0017700549,0.0009911899,-0.0006638784,0.0008865567,3.1155767e-05,-0.0011504851,-0.00084747374,-0.00041882135,-0.00044866814,-0.00073174643,-0.00048766937,-0.00024016493,0.00011993479,-0.00044124387,0.00071803294,0.0005101375,0.0014703413,0.00017590332,-0.0001796037,0.0008290295,-0.0012585884,0.0012008138,0.0014797207,-0.0009429718,0.00048121624,-0.0016361,-0.00024370663,-0.0012684267,-0.0014298316,0.0013401564,-0.0030180272,0.0011400394,0.001197121,-0.0016210983,-0.00017434079,-0.000764356,-0.00049552415,0.0011172686,8.086674e-05,-0.0011919476,-0.0013381448,7.408857e-05,0.0010735765,-0.00024118042,0.00067884615,0.00016827555,0.00063765235,0.0003024526,-8.3524734e-05,0.0025502387,-0.00026310794,-0.0001229439
CC(C)(CCC(C)(C)N=C=O)CN=C=O,-8.1941485e-05,-0.0013450179,0.0015770621,0.00042498298,-0.00024902844,-0.00021869969,-0.000149976,0.00015051058,0.0019351821,0.000638389,-0.0026529944,0.0013959277,0.0014226809,0.001083592,0.0002619531,0.0016913945,-0.0001858517,-0.001441624,-0.0012359787,-3.3837743e-05,-0.00010673446,-0.0007964398,-0.0006193863,-0.00032688875,-0.00033927988,-0.000511067,0.0010307161,0.0008200072,0.0025946228,-3.4880359e-06,-7.8259036e-05,0.001081511,-0.0009917775,0.0012191702,0.0013592849,-0.000351595,0.0007884968,-0.0015097326,-0.0004770672,-0.0012252859,-0.0012010355,0.001274066,-0.0030136723,0.0012471937,0.0016115614,-0.0017770501,5.6668185e-05,-0.0014110301,-0.0009367252,0.0013718214,-0.00023652427,-0.000762742,-0.0014073029,-0.00048222393,0.0012647342,0.000102999154,0.00046199327,0.00030966708,0.0003393935,-0.00033656228,-0.00019607693,0.003002923,-0.00012617745,-0.00010693818
C=CCOCC(CC)(CO)CO,-0.00034772046,-0.0018020989,0.0019290582,0.0010478515,0.00012464984,6.1281025e-07,-0.00020668795,-0.00041327765,0.0021813735,0.0009355834,-0.0035301587,0.0018270481,0.0019804826,0.00071263313,0.0011252537,0.0023167701,-0.00061770785,-0.00080769137,-0.0014254851,-0.000111735426,0.00014118222,-0.0010409977,-0.0012361957,-0.00012902694,-0.0014456408,-0.0012771245,0.0016730437,0.00031167828,0.0034800256,0.0003270849,-0.00058574416,0.00079571793,-0.0009916108,0.0024524182,0.0018333448,-0.00055368454,0.0009870566,-0.0015291823,-0.0010308595,-0.0019539285,-0.0014348328,0.0020068325,-0.0030990727,0.00071447715,0.0017615602,-0.0024646753,-4.772935e-05,-0.0011243764,-0.0013630437,0.0016954876,-0.0003996715,-0.0007104315,-0.001240991,-0.00037795398,0.0024155062,0.0006605317,0.0016488123,8.144835e-05,0.00082482956,0.00012045819,0.00037774257,0.003918899,-0.00030822493,0.00067088753
CC(CO)CO,-0.00027568638,-0.0019064574,0.0023675035,0.0011674725,-2.9653544e-05,-0.00035467185,-0.00072253635,-0.0005292739,0.0026829876,0.00081443693,-0.004143554,0.002078563,0.0026609628,0.0012786612,0.0015682336,0.002829845,-0.00055554765,-0.00056342967,-0.0011770781,1.9278377e-05,0.00042890408,-0.0012328501,-0.0018147314,9.51112e-05,-0.0022432497,-0.0015355237,0.0020669857,0.00048475154,0.004655485,0.0002160098,-0.0010127928,0.0011795718,-0.001107729,0.0026298743,0.0021126475,-0.0004886242,0.0009952448,-0.0015668673,-0.00070278626,-0.0019884359,-0.0013376232,0.0026799385,-0.0038114246,0.00022437423,0.0023493534,-0.0026463429,6.447453e-05,-0.0009012995,-0.0012547513,0.0017877296,-0.00037733838,-0.0007747002,-0.0014479943,-0.00026299432,0.0026753182,0.00046184892,0.0017720817,0.00013801688,0.0007352233,-0.00033914298,0.0006749686,0.004445268,-0.0008234829,0.00081138685
C=CCCO,-0.0004648082,-0.0020662062,0.0025371802,0.0010921843,-0.00026353286,-0.00064746104,-0.0008203373,-0.00051493803,0.0029195752,0.0005936371,-0.00428713,0.0020942353,0.0026314696,0.0015798118,0.0017147958,0.0031198533,-0.00036200765,-0.00054271147,-0.0011156797,-0.0002770247,0.00050026714,-0.0013079408,-0.001847134,2.408668e-05,-0.0023722192,-0.0016340055,0.00211587,0.00083580613,0.0046618497,0.00017988193,-0.0008909255,0.0014279854,-0.001049527,0.0028941035,0.0019853534,-0.000264399,0.0010675825,-0.0015104851,-0.00085626636,-0.0016580911,-0.0014228188,0.0025635418,-0.0040610563,0.0003320016,0.0026200516,-0.0024989499,0.00016571674,-0.000894038,-0.0013470082,0.0017718673,-0.000409374,-0.00069877505,-0.0014086794,-0.0001580324,0.0028006285,0.00057770545,0.0014930142,0.000181871,0.0005309591,-0.00054791104,0.0006774254,0.004493581,-0.001017632,0.00088681467
O=c1n(CCS)c(=O)n(CCS)c(=O)n1CCS,-0.00029989704,-0.0009687478,0.0020002094,0.0010581771,-0.000456976,-0.00039112847,-7.677777e-05,-0.0007469109,0.0022641607,0.0012942413,-0.0031038066,0.0010965783,0.0021197405,0.0013548248,-0.00011553429,0.0007364778,-0.0006638325,-0.00075322017,-0.0016682735,0.00034069642,0.00010889699,-0.0013902585,-0.0015519531,-0.0007217034,8.260179e-05,-0.0015840922,0.00075106695,0.001567455,0.0029488849,-0.00035225716,-0.00058595464,0.0011164356,-0.0008676639,0.0024096388,0.0016994644,-0.00052898773,0.00013105199,-0.0023784535,-0.0010070624,-0.0015479091,-0.0015532095,0.001081543,-0.0034233257,0.0006033741,0.0015591633,-0.0025020717,-0.0005603181,-0.0008257367,-0.0008664662,0.0013425499,-0.0002989564,-0.000867825,-0.0013578869,-0.00010615587,0.0014388636,0.0007395451,0.00076019904,0.0007495177,0.001028901,6.140303e-05,0.0009864438,0.0032169446,-0.00028968416,0.00016495213
CC(C)(CO)CO,-0.00022370741,-0.0018567946,0.0022837105,0.0012394721,-9.080232e-05,-0.00026462972,-0.00048916275,-0.00037396094,0.0025208239,0.00085758604,-0.0039751,0.002045961,0.002510245,0.0011863876,0.0014624503,0.0026545925,-0.0006776701,-0.00057396106,-0.00125961,-1.2396835e-05,0.00045660813,-0.0011550437,-0.0016852012,0.00020793255,-0.0021542618,-0.0013736114,0.0019475305,0.00075573847,0.0043153586,0.00039026956,-0.00087078847,0.0011565794,-0.0011334075,0.00274303,0.0020761406,-0.0006315785,0.0010888372,-0.0015449738,-0.00088926125,-0.001923709,-0.001675304,0.0024297982,-0.0035878774,0.00029696897,0.0020564469,-0.002649487,9.390991e-05,-0.0009694174,-0.0012962995,0.0018597059,-0.00055543147,-0.00086049177,-0.0014817845,-0.000294365,0.0026472956,0.0005871174,0.0016789676,0.00013513537,0.0006698882,-0.00023642555,0.00044491142,0.0043729898,-0.00047123805,0.00072725303
OCC1CCC(CO)CC1,-0.0003361106,-0.001736599,0.0021824832,0.0011730585,-0.00011515827,-0.00029847212,-0.00041687815,-0.00063190935,0.0026205033,0.0008576829,-0.0038604038,0.0018309355,0.002318753,0.0010145605,0.0013073646,0.0025984282,-0.0004756383,-0.0008479804,-0.0013655107,-0.00022825971,0.0002278469,-0.0010514937,-0.0015853243,3.4637633e-05,-0.0019644285,-0.0014213286,0.0018656338,0.00070786476,0.0041877525,0.00017420459,-0.00089467876,0.0011910234,-0.00097140856,0.0025517177,0.0019017728,-0.0005986339,0.00078901835,-0.0016101291,-0.0007965369,-0.0019172111,-0.0015416536,0.002270041,-0.003461277,0.0005201623,0.0018821851,-0.0023896294,0.0003520334,-0.0009833518,-0.0013511805,0.0018582083,-0.00034067594,-0.0008872878,-0.0013921652,-0.00019264221,0.002698862,0.00068079354,0.001749288,0.00012614811,0.0006960314,-7.0990995e-05,0.00054665096,0.0042743366,-0.0002858285,0.0004732199
O=C=NC1CCC(CC2CCC(N=C=O)CC2)CC1,-0.0002901908,-0.0009244457,0.0012130518,0.00012937002,-0.0005738775,-0.00028663035,-0.00013389392,-0.00030225562,0.0019456996,0.0005689217,-0.0030291053,0.00060374103,0.0020667464,0.0012676343,-0.0005368907,0.0014549,-8.313428e-05,-0.0014800783,-0.0012910627,-0.00077303685,-0.00048314012,-0.0010028693,-0.0008002585,-0.00051424105,-0.00017678831,-0.0010112859,0.0007316442,0.0005825404,0.0021854145,-0.00015255739,-0.00034494512,0.0014309284,-0.0012859358,0.0014125258,0.0015800577,-0.00032993616,2.3011118e-05,-0.0017555645,-0.00041163992,-0.0011142201,-0.0010477602,0.001338033,-0.0030729938,0.0011414587,0.0015364223,-0.0014271466,0.00036215317,-0.0009780135,-0.000102180056,0.0015349165,0.00016778708,-0.0008315332,-0.0012806859,-0.0003751237,0.000974888,-0.00013955263,0.0004878291,8.5574575e-06,0.0003759591,-0.00010086782,6.1230734e-05,0.0029054917,-0.0002022516,4.9646944e-05
O=C=NCCCCCCN=C=O,0.00015504472,-0.001959375,0.0020159432,0.0009389883,2.22323e-05,0.0002749879,-0.00023077568,0.00026318477,0.002522299,0.00096932705,-0.0035758605,0.0016844105,0.0012898948,0.0013300404,0.00069044344,0.0019347584,-0.00057923864,-0.00049179234,-0.0013567414,-0.0005537579,0.00033485913,-0.0007077928,-0.0013067024,-0.0003533532,-0.0019626087,-0.0007471405,0.0017549368,0.001027571,0.0037028985,-2.8488459e-05,-0.0011166371,0.0014695671,-0.0006222222,0.0017839856,0.001718428,-0.0009728598,0.000840541,-0.0010167183,-2.4045818e-05,-0.001567018,-0.001665296,0.0016334988,-0.0033729225,0.0006924048,0.0013811913,-0.00199766,0.0008842675,-0.0011934591,-0.0013234643,0.0018545017,-0.00013506413,-0.0010036472,-0.0013363808,-0.00015074573,0.002106294,0.00042448984,0.0014514623,3.192248e-05,0.000475551,-0.00023605581,6.07986e-05,0.0036998633,-0.00042916648,0.0008232519
O=C(CCS)OCC(COC(=O)CCS)(COC(=O)CCS)COC(=O)CCS,0.00036407635,0.00022857916,-0.00073330244,-0.0010831133,-0.0008359088,-0.00049116276,-0.0003525582,0.00040602917,0.0005754344,0.00021121837,-0.0012787012,-0.00015555322,0.0016606706,0.00013812818,-0.0011828225,-0.00020571519,0.0009601463,-0.00079190545,-0.0010439409,-5.126279e-05,-0.001304698,-0.0006608281,-0.00035635103,-0.0004609275,0.000551139,0.00025542267,-0.00034678914,0.00076691806,0.00067934673,-0.00037482684,3.1502917e-05,0.0010350865,-0.0011229869,-0.00023394823,0.00062320847,0.0002639664,-4.797615e-05,-0.0018973956,-7.205363e-05,2.0253705e-05,-0.0006898735,0.00095112994,-0.0016350858,0.0015406646,0.0011074216,-0.0001255786,0.00075016636,-0.0008921735,-0.0005937433,0.0012563411,0.00035539828,-0.00045951083,-0.00070540607,-0.00025603268,-0.00041192956,9.92571e-05,0.00018113153,0.001510751,-0.00056422595,6.0040504e-05,-0.00017335452,0.0009999722,-6.2985346e-05,-0.0004072003
CCO[Si](CCCN(CCC(=O)OCCO)CCC(=O)OCCO)(OCC)OCC,0.00022558868,0.00026810542,-0.00015237788,-0.0009856373,-0.0005518517,-0.00041916408,-0.00016134651,3.0026305e-05,0.00060123205,0.00029172003,-0.0014191968,0.000167232,0.0011660391,0.00063575804,-0.00036762469,-0.00021017622,0.00019071368,-0.00056029484,-0.00094650313,-8.939672e-05,-0.00088981516,-0.0011872246,-0.00022218842,-0.0001241659,0.00027906988,-0.00045776367,0.0005380763,0.00055595674,0.0012615761,-0.00040014763,-0.00042968988,0.0011953894,-0.0013601538,3.9957464e-05,0.0004925085,0.000573186,3.7696213e-05,-0.0019686492,2.8355978e-05,-0.0005899591,-0.0007527061,0.0011163838,-0.0015957095,0.0014179796,0.0003821802,0.0001984043,0.00046426337,-0.0009814389,-0.00013915636,0.0011872295,0.00070253946,-0.0010942034,-0.000565527,-0.00020718388,-0.00053809956,7.857615e-05,0.00021003792,0.0015072287,-0.00048996694,-0.00046126824,-0.00012806058,0.0012682844,4.046224e-05,-0.00049724616
CC1(C)CC(N=C=O)CC(C)(N=C=O)C1,-0.00048224628,-0.0010499805,0.0014916216,0.0007028803,-0.00053540454,-0.00032050908,0.00019469531,3.4681987e-05,0.0018976154,0.001098074,-0.0027652094,0.0011303313,0.0017892644,0.0013512801,-5.034916e-05,0.001066166,-0.00043693813,-0.0013324935,-0.0012409128,-0.00014150515,-0.00022115023,-0.0010251671,-0.0010899985,-0.00065662304,-0.00021719001,-0.001121372,0.0010067672,0.0006201938,0.0025122194,1.080404e-05,-0.000767421,0.0010850352,-0.00095747504,0.0018329192,0.0015586251,-0.0003271366,8.303113e-05,-0.001962089,-0.0006064903,-0.0018023893,-0.0012210645,0.001146758,-0.0030881092,0.0010293815,0.0015822266,-0.0017971685,-3.506709e-05,-0.0011885976,-0.0005751895,0.0013649464,0.0002914779,-0.0010094363,-0.0014911592,-0.00016627833,0.0008839518,0.0004992583,0.0007401542,0.00033993507,0.00078622904,-1.4483929e-05,0.0002820026,0.0029934887,4.2796135e-05,4.5966357e-05
COCCOCCOCCOCCOCCOCCOCCOCCO,-0.00035299547,-0.0015487811,0.0012400649,-0.00045758486,-0.0004072825,3.9345585e-05,0.00023299968,0.00013697753,0.002171401,0.00082858186,-0.0030870633,0.0011213813,0.0018440569,0.00082463585,-1.6994774e-05,0.001822331,0.00018987549,-0.0010311585,-0.0010914579,-0.00085377693,-3.093737e-05,-0.00053718383,-0.0006930707,-0.00013036758,-0.0010231631,-0.0007310938,0.0009913221,0.00019559264,0.0022401297,-0.00015549664,-0.0004360471,0.0010903362,-0.0007380182,0.0015671737,0.001671358,-0.00031921663,0.0006271042,-0.0013772892,-5.8233738e-05,-0.0008912941,-0.0014699753,0.0019643381,-0.003106745,0.0010420606,0.001823143,-0.002026529,0.00039203,-0.0011025313,-0.000585177,0.0016504191,-0.00046051852,-0.0006813146,-0.0015571862,-2.1798536e-05,0.0018337518,0.00018575462,0.0011786844,-0.0001922599,0.000535422,0.0003123954,-0.0001390148,0.0030520651,-0.00030224212,0.00081198476
C=C(C)C(=O)OCCOCCOCCOCCOCCOCCOCCOCCOCCOCCOCCOCCOCCOCCOCCOCCOC(=O)C(=C)C,0.00033115968,0.00037790183,-0.0033041365,-0.003780488,-5.3836266e-05,-0.00022171345,0.00024383375,0.0022595632,-0.0009193616,-0.0005971631,0.001746445,0.0006923191,-0.0024714428,-0.0022387877,0.00039997883,2.4796464e-05,0.0021198795,0.0005110465,0.00065959804,-0.0016926322,0.00046251924,0.00071697985,0.0015414739,0.001071629,0.0001798207,0.0023022704,-0.0016750991,-0.0010312982,-0.004848634,0.00031963247,-4.4804066e-05,-0.00044203585,0.00047288556,-0.0031582098,-0.00086191576,0.0008239893,0.0006346889,0.00027841795,0.0020193495,0.0034339011,0.001788592,0.00056310557,0.001272751,-4.6614558e-05,-0.0013888079,0.0017659599,0.0024112454,-0.00068010204,-0.00013035443,5.8090314e-05,7.816218e-05,0.0012636147,0.00071178935,-0.000991404,-0.002442874,-0.00086077256,-0.0011617867,0.00028686645,-0.0019407598,0.000655313,-0.00042166002,-0.0023883544,0.0012918953,-0.0010960251
Nc1cccc(S(=O)(=O)c2cccc(N)c2)c1,-0.00050059333,-0.0011949427,0.0018480592,0.00095114764,-0.00038986676,-0.00040965807,-0.00012715394,-0.00081845233,0.0023167292,0.0017924746,-0.0032675033,0.0014286898,0.0024611587,0.001351485,0.00012089126,0.00089734886,-0.001139336,-0.0006959867,-0.0016045719,0.00066134054,0.0005567435,-0.0015252389,-0.0014660796,-0.00047135085,-0.00029907096,-0.0020154994,0.0012168074,0.0017413963,0.0036500013,-0.00021446613,-0.0007936619,0.0008627471,-0.0009810654,0.003022192,0.0014363714,-0.0006263165,0.00035957433,-0.002399209,-0.0015507052,-0.0017201544,-0.0018419325,0.00070949085,-0.0031853877,0.00031330623,0.0013144639,-0.0027673198,-0.00037828367,-0.0010456583,-0.0009074798,0.0016466565,-0.0004460793,-0.001264751,-0.00088456646,0.00018384866,0.0015764683,0.0005575889,0.0010760226,0.00064721005,0.0011415165,-0.00015012361,0.0008571856,0.0034853015,-0.00073537044,0.0008287411
OCCOCCO,-0.0002922155,-0.0020978618,0.002384,0.00094675925,-0.00038586394,-0.00050816033,-0.0007297448,-0.00026726024,0.002749974,0.00070963334,-0.004270683,0.0021183789,0.0024613244,0.0017249137,0.001612993,0.0030928524,-0.00038770656,-0.000543233,-0.0010525165,-0.000315628,0.00066536595,-0.001240798,-0.0018313462,7.45951e-05,-0.002516768,-0.0013770908,0.0023159022,0.00082339346,0.0047110664,2.1644635e-05,-0.0009279717,0.0013117787,-0.0009057466,0.002789067,0.0020025363,-0.0003954752,0.0009292234,-0.0016649449,-0.0006538676,-0.0017874928,-0.001600869,0.002444189,-0.0039468855,0.0003952738,0.0023817392,-0.00254782,0.00033399556,-0.0008894354,-0.0012637777,0.0019205716,-0.00048542023,-0.00088877045,-0.0014631376,-2.4771318e-05,0.0026037088,0.0007525184,0.0015868752,0.00035063038,0.00052438583,-0.0005370127,0.0006389711,0.004407091,-0.0010654982,0.00079334155
OCCCCO,-0.0004785806,-0.0020765942,0.00253352,0.001161458,-0.00031325617,-0.00054880977,-0.0008322173,-0.00043314742,0.002933301,0.0006691124,-0.004263333,0.0021982603,0.0025787046,0.0016680993,0.001669541,0.0030758092,-0.0003498632,-0.00041646883,-0.0010787435,-0.00022736099,0.00053292443,-0.0013115841,-0.0018926235,4.1055377e-05,-0.002366365,-0.0014502164,0.0022423528,0.0007932782,0.0046435045,8.5956184e-05,-0.0009564422,0.0013306026,-0.0010072617,0.0028473902,0.0020167483,-0.000321083,0.0011352226,-0.0015781587,-0.00078659505,-0.0017668211,-0.0015045274,0.0024931375,-0.004081538,0.0003944952,0.002524172,-0.0025282716,0.00017048884,-0.00089164823,-0.0013740407,0.0018385202,-0.00046713464,-0.0007743165,-0.0015170556,-6.952789e-05,0.0027371794,0.00057979906,0.001580124,0.00020224834,0.00052925106,-0.0005660178,0.00073765963,0.0044989903,-0.0010449421,0.00097128004
C=CCc1ccc(OCC2CO2)c(-c2cc(CC=C)ccc2OCC2CO2)c1,2.1945685e-05,-0.00028040446,0.0004782225,-0.00021721981,-0.0004269688,-0.00031117257,-0.00033504004,-0.00045825867,0.0014820043,0.00051795784,-0.0016432824,0.0007722266,0.002037094,0.0007374156,-0.0011343621,0.00039448496,-8.703093e-05,-0.00094695203,-0.0011997148,0.0008795187,-0.00029711495,-0.0015760947,-0.0009855265,0.00017468247,0.0003351802,-0.0014675204,0.000538677,0.0013905354,0.0025428934,-0.0008746621,-0.0003737267,0.0014322024,-0.0018592058,0.0019081179,0.0014704783,-0.00048229122,-0.00012609176,-0.0019748276,-0.0008016452,-0.001074773,-0.0011440348,0.0009482205,-0.003181383,0.0012007877,0.0013184686,-0.001146731,0.00041302014,-0.00043358747,0.00021921284,0.0015412513,0.00031532533,-0.0011477191,-0.0008545369,-0.0002739206,0.0006177351,-0.00035813777,0.0010102815,0.00042882795,0.000862075,-0.00017966144,0.0010303482,0.0028724056,-0.0004567951,0.00044030137
COc1cc(CC2CO2)ccc1OP(=O)(Oc1ccc(CC2CO2)cc1OC)Oc1ccc(CC2CO2)cc1OC,0.00075402856,0.0008972911,-0.0013304898,-0.0012228191,-0.00023426139,-0.00020555872,-0.0005318979,0.00046266476,0.0002577966,-0.00022943877,0.00014595967,0.00026787072,-0.00019779895,2.4467707e-05,-0.0010549054,-0.0007470818,0.0008355521,-0.0011311844,-0.0004051542,0.00063998904,-0.00070875767,-0.0016879931,-0.00043291692,0.000667394,0.00032511447,1.0987744e-05,0.00062375795,-6.4983964e-05,-0.0009927498,-0.00033732434,0.00032862276,0.0011252869,-0.0007799901,-0.00034583174,0.0004966548,0.0010194031,-0.0005620215,-0.0010117525,0.00023253262,0.00034765084,0.0002826415,0.0014557373,-0.0013337694,0.00051286444,0.00039729,0.00047599524,0.0016590627,-0.00076856,0.00011415966,0.0001540836,0.00046784244,-0.0006768219,-0.0005981587,-0.0007803235,-0.0007898975,-0.00026754057,0.00018051313,0.0012430423,-0.00030373456,0.00029783417,4.8127025e-05,0.0003870614,0.0005637985,-0.00076161325
C(=N/c1ccc(OCC2CO2)cc1)\c1ccc(OCC2CO2)cc1,-0.00023089722,-0.00042960513,0.0013590618,0.00026842393,-0.0007920193,-0.00039411802,1.4530029e-05,-0.00024555763,0.0021131802,0.0013095057,-0.00245154,0.0004705768,0.0024779886,0.0013654381,-0.00032441877,0.0006694263,-0.00039319578,-0.0005868878,-0.0013886932,0.00050668605,0.0007459072,-0.0019355516,-0.0013192771,-0.00017905899,7.5145625e-05,-0.0019428208,0.00060460716,0.0019080266,0.0026476206,0.00018924545,-0.00071653165,0.0015523356,-0.0014035637,0.0023199003,0.0014103753,8.676178e-05,-0.0008696094,-0.001843526,-0.0009172121,-0.001365015,-0.0017276034,0.000918448,-0.0034219455,0.00092120096,0.0010794186,-0.0013323063,7.8688376e-05,-0.0005960865,3.741309e-05,0.0017945878,6.9567934e-05,-0.0013351794,-0.00063905865,7.348508e-05,0.0011249213,-1.7098617e-05,0.00052191643,0.0006082677,0.0010174569,-0.00040080957,3.9055943e-05,0.0027782414,-0.0005553253,0.00012558885
COc1cc(/C=N/c2ccc(OCC3CO3)cc2)ccc1OCC1CO1,-3.0886382e-05,-0.0004332373,0.0011155861,0.00013863947,-0.0005453436,-1.478754e-05,-0.00026585953,-0.00053908536,0.0018066503,0.0009229379,-0.0025722636,0.0004154276,0.002580395,0.0011419654,-0.00044737197,0.0006302828,-0.00063126045,-0.0010370202,-0.0015380252,0.00091867987,0.000119693344,-0.0014420494,-0.0015456146,-0.00014180422,0.00013691839,-0.0018786583,0.0005790172,0.002146732,0.0027830051,-0.0003946696,-0.0008982718,0.0014737841,-0.0013998831,0.0018591862,0.0013584988,-0.00035339245,-0.0007114671,-0.001987324,-0.0011098245,-0.001522402,-0.0014284495,0.0008323211,-0.0027257781,0.0014850963,0.0015348446,-0.001452635,0.00033382606,-0.000849952,-0.00016224291,0.0019937605,0.00031739473,-0.0012631658,-0.0010403693,-0.00012455415,0.0006248113,-5.1341485e-05,0.00039315177,0.00052822987,0.0009071352,-0.00084382854,0.00030894764,0.0027680825,-0.0005950816,-1.0991469e-05
COc1cc(CC2CO2)ccc1OC(=O)c1ccc(C(=O)Oc2ccc(CC3CO3)cc2OC)cc1,0.0006243177,0.0007459447,-0.0011043311,-0.00047866814,-0.00029726536,-9.0404414e-05,-0.0006428235,-1.0022428e-05,0.00015823077,-0.0002544718,-0.0006439658,0.00022346713,0.0008861087,0.00054909475,-0.0006666798,-0.0004726285,0.0008221802,-0.0010570567,-0.00046674162,0.0006934423,-0.00081028393,-0.0013710714,-0.0007874882,0.0007623163,0.00056325924,0.00034831092,0.0005804626,0.00023156032,-3.1390227e-05,-0.0005411592,0.00024612248,0.0014256086,-0.0013436936,-0.0002191905,6.438512e-05,0.0007450038,-0.00052650087,-0.0010462468,-0.00010009669,-0.0008508486,-0.00047165528,0.0013381746,-0.0013507698,0.0009782463,0.00096648454,0.00027573202,0.0012525683,-0.0005902089,0.00045670848,0.000906311,6.4885244e-05,-0.0013726018,-0.00080813654,-0.00028965808,-0.00035541225,-0.000575637,0.000927296,0.0008724914,0.00016521197,0.0001427196,0.00022364967,0.00087344274,0.00017447025,-0.00046751834
COc1cc(CC2CO2)ccc1OCc1ccc(COc2ccc(CC3CO3)cc2OC)cc1,0.00032325834,6.067846e-05,0.0002603992,-0.00037253276,-0.0005178733,-0.0001202235,-0.0001325719,-0.00037412578,0.0013671424,0.00039853156,-0.0014175335,0.00086008944,0.0020635705,0.00097331963,-0.0004539881,0.00045532826,-0.00025104987,-0.001009481,-0.00093794893,0.00033542886,-2.326048e-05,-0.0018569443,-0.0011609579,0.00013568427,3.746245e-05,-0.0010173507,0.0007325364,0.0012710206,0.002080285,-0.00028788974,-0.00074045174,0.0016551834,-0.0012973668,0.0014501698,0.00076959934,-2.9599527e-05,-0.00076730736,-0.0017156797,-0.0004783431,-0.001129274,-0.0011364222,0.0013526361,-0.002426276,0.00088211894,0.0013450355,-0.0009664213,0.00089015346,-0.0006100815,0.00017358363,0.0014574528,0.00035468675,-0.0016250294,-0.0010090955,-0.00010894518,0.0001658788,-0.00014687655,0.0012433664,0.0006445912,0.0006452864,0.00011943001,0.000534378,0.0023952965,-0.0001662597,0.00044762902
COc1cc(CC2CO2)ccc1Oc1nc(Oc2ccc(CC3CO3)cc2OC)nc(Oc2ccc(CC3CO3)cc2OC)n1,0.0007962603,0.0005529603,-0.0012005069,-0.0013246811,-0.0010308326,-0.00041191,-0.0002728738,0.0005312073,-0.000106227584,-0.0003875608,0.00037063286,-0.0005315095,-0.0005841926,5.645305e-05,-0.00045327842,-0.0006855889,0.0013854357,-0.000624991,-0.00017624814,0.00030416297,-0.0007383011,-0.0014605194,-0.0005337326,0.00035575114,-3.04915e-06,-3.6815181e-06,0.00054769963,2.6965514e-05,-0.0015697358,0.00016107876,-0.00019747391,0.0013994052,0.00044397824,-0.00013665296,-0.00054078177,0.00066170446,-0.00084321527,-0.00037608482,0.00028407108,0.00041938457,0.00022619264,0.0006108731,8.9341775e-05,0.00026323274,0.00022840395,0.0005632406,0.0018897885,-0.0006121304,0.00018802844,0.0003740806,5.5244192e-05,-0.001077557,-0.0005199127,-0.0014017001,-0.00057104323,-0.00031359075,-8.091703e-05,0.0012576544,-7.286342e-05,0.0008277502,6.1364844e-06,0.00032286998,0.0013931952,-0.00093974674
