smiles,z_0,z_1,z_2,z_3,z_4,z_5,z_6,z_7,z_8,z_9,z_10,z_11,z_12,z_13,z_14,z_15,z_16,z_17,z_18,z_19,z_20,z_21,z_22,z_23,z_24,z_25,z_26,z_27,z_28,z_29,z_30,z_31,z_32,z_33,z_34,z_35,z_36,z_37,z_38,z_39,z_40,z_41,z_42,z_43,z_44,z_45,z_46,z_47,z_48,z_49,z_50,z_51,z_52,z_53,z_54,z_55,z_56,z_57,z_58,z_59,z_60,z_61,z_62,z_63,z_64,z_65,z_66,z_67,z_68,z_69,z_70,z_71,z_72,z_73,z_74,z_75,z_76,z_77,z_78,z_79,z_80,z_81,z_82,z_83,z_84,z_85,z_86,z_87,z_88,z_89,z_90,z_91,z_92,z_93,z_94,z_95,z_96,z_97,z_98,z_99,z_100,z_101,z_102,z_103,z_104,z_105,z_106,z_107,z_108,z_109,z_110,z_111,z_112,z_113,z_114,z_115,z_116,z_117,z_118,z_119,z_120,z_121,z_122,z_123,z_124,z_125,z_126,z_127,z_128,z_129,z_130,z_131,z_132,z_133,z_134,z_135,z_136,z_137,z_138,z_139,z_140,z_141,z_142,z_143,z_144,z_145,z_146,z_147,z_148,z_149,z_150,z_151,z_152,z_153,z_154,z_155,z_156,z_157,z_158,z_159,z_160,z_161,z_162,z_163,z_164,z_165,z_166,z_167,z_168,z_169,z_170,z_171,z_172,z_173,z_174,z_175,z_176,z_177,z_178,z_179,z_180,z_181,z_182,z_183,z_184,z_185,z_186,z_187,z_188,z_189,z_190,z_191,z_192,z_193,z_194,z_195,z_196,z_197,z_198,z_199,z_200,z_201,z_202,z_203,z_204,z_205,z_206,z_207,z_208,z_209,z_210,z_211,z_212,z_213,z_214,z_215,z_216,z_217,z_218,z_219,z_220,z_221,z_222,z_223,z_224,z_225,z_226,z_227,z_228,z_229,z_230,z_231,z_232,z_233,z_234,z_235,z_236,z_237,z_238,z_239,z_240,z_241,z_242,z_243,z_244,z_245,z_246,z_247,z_248,z_249,z_250,z_251,z_252,z_253,z_254,z_255,z_256,z_257,z_258,z_259,z_260,z_261,z_262,z_263,z_264,z_265,z_266,z_267,z_268,z_269,z_270,z_271,z_272,z_273,z_274,z_275,z_276,z_277,z_278,z_279,z_280,z_281,z_282,z_283,z_284,z_285,z_286,z_287,z_288,z_289,z_290,z_291,z_292,z_293,z_294,z_295,z_296,z_297,z_298,z_299,z_300,z_301,z_302,z_303,z_304,z_305,z_306,z_307,z_308,z_309,z_310,z_311,z_312,z_313,z_314,z_315,z_316,z_317,z_318,z_319,z_320,z_321,z_322,z_323,z_324,z_325,z_326,z_327,z_328,z_329,z_330,z_331,z_332,z_333,z_334,z_335,z_336,z_337,z_338,z_339,z_340,z_341,z_342,z_343,z_344,z_345,z_346,z_347,z_348,z_349,z_350,z_351,z_352,z_353,z_354,z_355,z_356,z_357,z_358,z_359,z_360,z_361,z_362,z_363,z_364,z_365,z_366,z_367,z_368,z_369,z_370,z_371,z_372,z_373,z_374,z_375,z_376,z_377,z_378,z_379,z_380,z_381,z_382,z_383,z_384,z_385,z_386,z_387,z_388,z_389,z_390,z_391,z_392,z_393,z_394,z_395,z_396,z_397,z_398,z_399,z_400,z_401,z_402,z_403,z_404,z_405,z_406,z_407,z_408,z_409,z_410,z_411,z_412,z_413,z_414,z_415,z_416,z_417,z_418,z_419,z_420,z_421,z_422,z_423,z_424,z_425,z_426,z_427,z_428,z_429,z_430,z_431,z_432,z_433,z_434,z_435,z_436,z_437,z_438,z_439,z_440,z_441,z_442,z_443,z_444,z_445,z_446,z_447,z_448,z_449,z_450,z_451,z_452,z_453,z_454,z_455,z_456,z_457,z_458,z_459,z_460,z_461,z_462,z_463,z_464,z_465,z_466,z_467,z_468,z_469,z_470,z_471,z_472,z_473,z_474,z_475,z_476,z_477,z_478,z_479,z_480,z_481,z_482,z_483,z_484,z_485,z_486,z_487,z_488,z_489,z_490,z_491,z_492,z_493,z_494,z_495,z_496,z_497,z_498,z_499,z_500,z_501,z_502,z_503,z_504,z_505,z_506,z_507,z_508,z_509,z_510,z_511
C=CC(=O)OCCOCCOC(=O)C=C,-0.0048557576,-0.016190033,-0.021535804,0.007989962,-0.0016248487,0.012781894,0.008617422,0.008979711,0.015362315,-0.006438896,-0.00018125447,-0.0108098,0.009618798,-0.01420467,0.012232701,-0.0047817444,-0.0013441509,-0.0114379,0.0019229974,-0.010636443,0.014187161,0.005951466,-0.00040961802,0.005537372,0.002469889,0.015155423,-0.018899258,0.0054588094,0.0042814217,-0.0009607719,0.0022562672,0.014661816,-0.003225455,-0.0074160416,-0.007360094,-0.0020996463,-0.012265209,-0.006016149,-0.011810722,0.009014231,-0.013391269,-0.0026769107,-0.0012259798,-0.0050905775,0.011788527,-0.00045495108,0.0071357316,0.009329535,-0.023693927,-0.0020936837,0.0067029055,-0.011155673,-0.006082002,0.016255215,-0.012847243,-0.0016715019,-0.0001057433,0.006924149,-0.005366415,9.707548e-05,-0.021003557,-0.0051224325,-0.0025700107,-0.013504451,-0.008334708,-0.017502293,-0.008150202,0.012466656,-0.0076534804,-0.014568625,-0.009150912,-0.0061479593,0.0031650718,-0.008533154,0.0021268558,-0.0066094776,-0.016055372,-0.010629429,-0.013689498,-0.00813139,0.00044179894,0.0027505318,-0.0056490153,0.020399945,0.01180662,-0.009898918,-0.016934728,-0.0028040241,0.009203425,-0.012863804,-0.011830844,0.009506047,-0.0054777726,0.011720257,0.010465655,-0.0067862077,-0.0006863596,-0.010145745,-0.01213472,-0.0006681774,0.0047207754,-0.008353593,0.014961116,-0.013970815,-0.03265808,-0.017498525,-0.005648162,-0.012449827,-0.010703418,-0.0032242462,-0.00631273,0.015075469,-0.002817572,0.01345306,0.008785603,-0.01287182,-0.0069485265,0.016466273,0.011169079,0.011595971,-0.01160414,-0.011515882,0.0020405035,-0.009254281,-0.0036710259,-0.013299522,-0.0015166514,0.0075042043,-0.010262213,0.005205175,0.0030283295,-0.006896181,0.015814194,-0.00723036,0.007482229,0.0051695853,-0.009739947,0.006460244,0.0001374986,-0.018965986,0.016196007,-0.020647861,-0.0057225246,-0.017482486,0.008158581,0.017104957,0.0101377815,-0.003126033,-0.009024424,-0.007153895,0.0019210624,-0.004777763,0.014483247,-0.008126084,0.0052584503,0.011418491,-0.0054200264,0.014641533,0.008571111,0.009666542,0.015934974,-0.0027289214,-0.015039603,-0.00936066,-0.00049364194,-0.009284054,-0.020273672,0.004734999,-0.006481761,-0.0067997193,0.004594072,-0.014896114,-0.007273376,0.011082683,0.011492605,0.004549549,-0.01232728,0.0016761813,-0.017498018,0.0048440592,-0.014988494,0.0076545617,0.010248042,0.01822254,-0.00897875,0.0028184196,-0.012458924,-0.0031144388,-0.008937204,-0.0037473952,0.010191588,-0.014241468,-0.017122531,0.007992732,-0.016083602,-0.00044860318,-0.0037262335,0.006917421,0.014552295,0.012757511,0.0003622584,-0.017225794,0.016261294,-0.008079832,0.01283437,-0.015662298,0.017346404,-0.016102364,-0.011661375,-0.01617813,0.0077261264,-0.011234642,-0.010954717,0.010575607,0.0074134907,0.014932133,0.021813639,0.008445067,0.0055649336,0.008864977,0.011868039,-0.0046273093,-0.0032696007,-0.007105289,-0.00083728693,0.011842824,-0.00086191855,0.0031889407,0.01377469,-0.017572224,0.0043285796,-0.006115893,1.0813986,-0.011135564,0.009779574,-0.0018857056,-0.011986403,-0.002948287,-0.008803955,-0.0005683843,0.0022097938,-0.018341145,-0.012138356,-0.007918609,0.008619434,0.0058737644,0.00013790093,-0.0030134562,0.021104954,0.013327114,7.344782e-05,-0.007053447,0.007314544,0.004987689,-0.010164501,0.0020359172,-0.006855448,0.0011258656,-0.006938428,-0.01314997,-0.009406993,-0.015880853,-0.0074464474,0.013202857,0.008557203,-0.0007370841,0.007084613,-0.014706307,-0.01597161,-0.003530426,0.016132275,0.0034853788,-0.019255789,-0.0023020334,0.021394718,-0.01862392,-0.0097285425,-0.0012153443,0.011025228,-0.0072202887,-0.0068643726,0.007175762,-0.010136984,-0.013089648,0.006925361,0.0036848001,-0.020208785,0.0022195484,0.007660282,0.002732966,-0.019306445,-0.009452455,-0.008728802,0.0030486844,0.008631868,0.003648672,0.007265389,-0.0029027201,-0.01745881,-0.0070016338,0.0069022942,0.0052874275,0.0018286146,0.008204364,-0.007976742,0.008426359,0.014513749,0.007621203,-0.009862528,-0.003981337,0.016370906,-0.016546827,0.013809872,0.011550993,-0.0038050245,-0.016691517,0.013675813,-0.015519827,0.010851285,0.006844039,-0.023976821,0.013705284,0.017586166,-0.005169265,0.0039962283,0.021268966,0.008606617,0.019594952,-0.0029370487,-0.010509145,0.0046155546,-0.0077178488,-0.0030583588,-0.0025532246,0.014690898,0.018759534,0.0082612885,0.013337614,-0.008696954,-0.013812326,0.013006911,-0.009563068,0.007977708,-0.011078068,0.016350176,0.008556219,-0.010225208,0.009927545,0.01360575,0.008581053,0.0010817562,0.0020418807,0.011194858,0.012897912,-0.0045274906,0.005089521,-0.013053615,-0.0014343187,0.0021101246,0.0005731047,-0.008415292,0.013882435,-0.00091106445,-0.016861778,-0.010006644,0.0048234826,-0.007614301,0.0041147657,-0.010302913,-0.015456513,-0.0062213894,-0.008319945,0.0066032344,0.012707947,0.0021479805,-0.011953168,-0.0075259455,-0.015904656,0.0022488222,0.008535216,-0.012768036,0.023171702,0.0014194865,0.004483577,-0.004281588,-0.00028818473,0.009135095,-0.0056034476,-0.00032450072,-0.012889142,-0.0039912835,0.0042573437,-0.0043865517,-0.018834073,-0.006713826,-0.00059720594,-0.013350763,-0.010511534,0.015770236,-0.0029158099,-0.020118684,0.004191486,0.010042863,-0.0046462277,0.009050107,-0.0132203065,0.011084348,-0.014117639,0.007467363,-0.013522746,0.012579923,-0.014161477,-0.0071244175,-0.011598799,0.0050198426,0.00540917,0.012903616,0.0031310255,0.011475243,0.013907766,-0.0014243966,-0.019863704,-0.011559436,0.015918538,-0.00043929555,0.011966448,-0.010824126,0.011670856,-0.014134012,0.0017374645,0.00590883,0.008262236,0.015762018,0.0051954463,0.0045660697,0.00033344328,-0.016922496,0.00010505784,-0.0032545933,0.013800092,0.0002329275,0.011811549,-0.012748439,-0.008850925,0.008889828,0.011992172,0.00039846462,-0.0070903134,-0.0150435865,0.012820562,0.007843469,-0.008557605,-0.0033808874,0.0044818297,0.0066068573,0.015327026,-0.010068111,-0.01165337,0.0063090315,0.0040438054,-0.0019472465,-0.0057236603,-2.6356429e-06,0.0034461068,-0.014249586,-0.009906819,0.006319439,0.0034045298,-0.009661631,-0.013565767,-0.015770901,0.0057922546,0.0001387475,0.0030321237,-0.011717238,-0.001771709,-0.0026432388,-0.009747696,0.00036781467,0.0037211163,0.017241554,0.014278535,-0.016835822,0.008194532,-0.008522272,0.012635852,-0.010478116,-0.0076394062,-0.012198675,-0.004521395,-0.012598069,0.018181901,-0.013121482,0.015372666,-0.0063179564,-0.005273981,-0.007791497,0.013480193,0.010615564,0.019301657,0.014955575,0.015213655,0.005944412,-0.012040168,0.005289287,0.018614708,0.008762703,0.0014346465,-0.0050831046,0.0051177153,-0.011321898,0.007926714
C=CC(=O)OC(C)(C)C,-0.0015465062,-0.015774213,-0.017504325,0.006019309,-0.00030623004,0.009451059,0.0059549487,0.008381267,0.013037741,-0.003104072,-6.51679e-05,-0.0065892716,0.004327608,-0.01555755,0.011301543,-0.010024329,0.00017733872,-0.008278113,-1.4994293e-06,-0.009542791,0.012684705,-0.0003487449,-0.004349597,0.013524555,-0.0012895896,0.013560578,-0.017995896,0.0022580829,0.00068410905,-0.0024222508,0.0010451203,0.013318017,-0.010109368,-0.0038015954,0.002020795,-0.007557879,-0.006429008,-0.013141311,-0.007387134,0.0042244736,-0.011045467,0.002612221,0.002113932,-0.009249924,0.00623905,0.004581347,0.003874662,0.005286568,-0.02215977,0.00035826163,0.005212905,-0.010801364,-0.00550675,0.017978644,-0.012389526,-0.0028855745,-0.0036060074,0.009977965,-0.0039639445,-0.0032283335,-0.018144304,-0.009378164,0.0010103546,-0.011475315,-0.005714991,-0.014587325,-0.010421276,0.011116505,-0.002148726,-0.017055262,-0.0047924737,-0.002412025,-0.001410854,-0.0137282945,0.0028087944,-0.0019512093,-0.020567635,-0.009512655,-0.012416202,-0.0072955703,-7.276237e-05,-0.00070691016,-0.009217778,0.014206283,0.0113116335,-0.017825913,-0.014699312,0.0006571077,0.0067448984,-0.012636659,-0.007172905,0.0078045223,-0.0016725822,0.011859063,0.009193908,-0.010977963,-0.0009672679,-0.0068454375,-0.009744005,0.00024879444,0.0042320183,-0.009520439,0.008435592,-0.0126647875,-0.03077159,-0.016656615,-0.0028559752,-0.009995868,-0.00867068,-0.0032756496,-0.0028849887,0.021557804,-0.0037885373,0.011804651,0.006967255,-0.014270187,-0.0029895063,0.014162052,0.011461895,0.0086765485,-0.007002075,-0.007270473,0.005137077,-0.00846998,0.0027999422,-0.009494158,0.0030927435,0.0053072246,-0.0081087155,0.010024816,0.006798686,-0.0060696434,0.009543138,-0.0054768324,0.006103117,0.0024131294,-0.011261525,0.005477989,-0.0063957674,-0.018344464,0.013077607,-0.018312257,-0.0062950645,-0.013440233,0.0052839555,0.016041052,0.013247889,0.0021976684,-0.0063234465,-0.004409669,-0.004601326,-0.0025488837,0.012625206,-0.005210978,-5.8669597e-05,0.009905056,-0.0057643997,0.017254947,0.0062595755,0.003545577,0.011498821,-0.007081613,-0.013642825,-0.008424322,0.0013378626,-0.0070320945,-0.02106492,0.0014118801,-0.0006217323,-0.004544204,0.0033447044,-0.0131780645,-0.0053531704,0.0068183476,0.0076073427,0.0024043657,-0.008795837,0.0043254476,-0.010699509,0.0072924932,-0.0140823545,0.0075391727,0.006798818,0.019326769,-0.009079423,0.004621909,-0.012164667,0.0022333974,-0.0039404407,-0.0016029533,0.009066035,-0.010484685,-0.016841961,0.0041819843,-0.0153998025,-0.0055513866,0.002175619,0.005092088,0.014105111,0.011181198,0.002778294,-0.016321862,0.01660123,-0.00649444,0.012306789,-0.014498613,0.0138630625,-0.013615234,-0.0056128073,-0.015255144,0.0016676383,-0.011027828,-0.010033131,0.010027638,0.006330302,0.010556733,0.021193448,0.0071834177,0.0050559994,0.0051922877,0.008876979,-0.0029454539,0.000368746,-0.003408838,0.0019569825,0.0072252257,-0.0057353103,0.007723025,0.009568413,-0.016884765,-0.0019812472,-0.0050255395,1.1522945,-0.008267741,0.0061695073,0.00029920973,-0.010583578,-0.00092951674,-0.009723699,0.0031289198,0.00063100364,-0.017019728,-0.006230944,-0.004888094,0.0042078113,0.0037719863,0.004590247,-0.0054225232,0.019494865,0.011277711,-0.0021789856,-0.0015549473,0.0037027802,-0.0021281014,-0.008565053,0.008255234,-0.003843275,0.005580751,-0.002562217,-0.011118836,-0.00813376,-0.013185637,-0.0054891594,0.0101853255,0.0049878582,-0.004375062,0.0021537864,-0.012510507,-0.016212119,-0.008311973,0.015093368,0.0028405022,-0.020834245,0.0010890347,0.020491436,-0.014314197,-0.00559079,-0.005928118,0.011172997,-0.0039355736,-0.00484029,0.004776905,-0.0066793,-0.008937862,0.0047201365,0.0002884101,-0.019720117,-0.0021265522,0.0053522224,0.0046692397,-0.016551273,-0.007026799,-0.0033255285,0.0017918516,0.0056885127,0.007556581,-0.0028627254,-0.0019039437,-0.015129667,-0.003937762,0.003409788,0.0015646555,0.0064569656,0.005091303,-0.005367218,0.010699117,0.014864554,0.0054418114,-0.007871726,-0.0038492978,0.015758388,-0.017528884,0.0072653284,0.008464709,-0.0071843658,-0.015676588,0.012174908,-0.010556805,0.009766684,0.0057963626,-0.021486185,0.014011284,0.0140143875,-4.5318156e-06,0.0034386152,0.016791282,-4.8175454e-05,0.01582959,-0.0041809287,-0.0064802906,0.004309308,-0.003653531,-0.0025214434,-0.0053066593,0.010784663,0.01504882,0.0012664851,0.0065288255,-0.0047541335,-0.011859452,0.011614524,-0.0026790677,0.005217892,-0.010445879,0.014358886,-0.00068166666,-0.012503063,0.004647447,0.01657708,0.0058111087,-0.0008582433,-0.00091219135,0.010937559,0.0086572645,-0.0029643122,0.00055311155,-0.011098485,-0.006783126,-0.0022592386,0.0036046342,-0.0062997527,0.013377824,-0.0063107293,-0.015005475,-0.006597122,0.00180161,-0.0074216635,0.0015263539,-0.0064602764,-0.012483635,-0.008028549,-0.0050595254,0.0046863873,0.010536645,-0.00022429094,-0.00988809,-0.002765032,-0.011385323,-0.00047662016,0.0027878263,-0.011924485,0.023581367,0.0026734415,0.0065008607,-0.004226206,0.005605802,0.002992373,0.0027764384,0.00017793663,-0.0065304525,-0.0089347605,0.005196538,7.852353e-05,-0.020536084,-0.005269428,0.00035840832,-0.0058517894,-0.0109259095,0.014118888,0.0012073927,-0.019068595,0.0020522717,0.007780062,-0.003005906,0.0075552682,-0.00920677,0.0071307924,-0.009889811,0.006052505,-0.01074307,0.008062509,-0.00915243,-0.0035851644,-0.008673737,0.0040238043,0.0009606704,0.006838388,-0.00055055134,0.009271935,0.015168212,-0.0046229875,-0.020163722,-0.0071560545,0.014669755,0.0003821049,0.008760945,-0.0062573142,0.008928319,-0.008125387,-0.0024044288,0.0026709326,0.0047302125,0.018284377,0.0039751856,0.0011980627,-0.0060431873,-0.015712151,0.0019095931,-0.0106148785,0.007709715,-0.0033853846,0.00942309,-0.009153368,-0.0060004056,0.004112724,0.011590899,0.00451452,-0.0058201617,-0.014023218,0.008920843,0.005157857,-0.007825044,-0.000626049,0.0020204,0.0010531312,0.010578671,-0.008861839,-0.012341434,0.006178743,0.0046567144,-0.006125506,-0.0045494344,-0.0015568519,-0.00017167255,-0.01331779,-0.0077781547,0.00089039956,0.006364284,-0.015555421,-0.01107617,-0.020090222,0.00685349,0.003252489,0.001633117,-0.012503576,0.003783496,-0.007048007,-0.009777072,0.001947293,0.0018778362,0.018804591,0.012735773,-0.016220884,0.0017160857,-0.008424204,0.00753632,-0.008477694,-0.0034366807,-0.010448363,-0.00019951642,-0.012414301,0.015425562,-0.010820388,0.015060942,-3.2598153e-05,0.00015818793,-0.003674297,0.0122279925,0.010572574,0.019002762,0.0140642235,0.0142064355,0.0017563719,-0.009281187,0.0029893592,0.018665666,0.0041381265,0.0046220813,-0.0012576414,0.0027704341,-0.0068645384,0.007554667
COC(OC)(C(=O)c1ccccc1)c1ccccc1,-0.00096950156,-0.0072127655,-0.010837713,-0.0013043433,0.0011065267,0.0019791552,0.0012117461,0.0039235465,0.012925267,-0.0017080996,-0.0014454927,-0.0061421813,0.0024012732,-0.007053621,-0.0016716281,-0.0036894921,-0.00058882125,-0.008673623,-0.0022715796,-0.0035447888,0.010199516,-0.00091922283,-0.006886022,0.004339749,-0.002343053,0.0090578105,-0.010506239,-0.0004390888,-0.002487128,-0.0034635365,-0.0007770036,0.005427997,-0.004844187,-0.0036456678,0.0012873579,-0.0072551845,-0.004862654,-0.0040614586,-0.0032617976,0.0019325234,-0.0033543317,0.0031396756,0.0044688703,-0.0081937555,0.0013170824,0.0036788099,0.0038749937,0.0035143215,-0.0046233507,0.0034439461,0.0001990851,-0.002699647,0.0032081585,0.010667769,0.00022880852,-0.006543909,-0.0036523128,0.0059577255,0.0021636402,-0.0041380376,-0.011345767,-0.007361821,0.0036274903,-0.010540752,-0.0054554613,-0.011189386,-0.0066733398,0.006051874,0.0009723557,-0.009538256,-0.003993319,-0.0023194859,-0.0014780778,-0.010194965,0.004295647,-0.0050657014,-0.014715001,-0.006790163,-0.0060859765,-0.0017211176,-0.0018935427,-0.0031292262,-0.0049690455,0.008295411,0.0068493607,-0.009537293,-0.0076827304,0.0032815598,0.005845726,-0.008179093,-0.0055345353,0.0023059268,0.002540482,0.0046398523,0.003914006,-0.010759179,-0.00398011,-0.004705422,-0.0049636676,0.0052096583,0.0009304541,-0.0029677395,0.006497413,-0.0054362454,-0.017512264,-0.0096744755,-0.0070986506,-0.002818592,-0.0073782993,-0.0028210897,-1.22748315e-05,0.01242625,-0.004818975,0.008074382,0.0031246673,-0.006335997,-0.006210513,0.009851607,0.009024015,0.0046415315,-0.006112851,0.00097098574,0.0034955381,-0.0040945327,0.0021599531,-0.001928919,0.00274303,0.0039452338,-0.004005333,0.008932013,0.0023965298,-0.0027626315,0.007784432,-0.0021945778,0.006164316,0.00032880902,-0.0113661215,0.0018651579,-0.0025661392,-0.010181755,0.009495333,-0.012327655,0.0018624263,-0.010290761,0.0024511581,0.013588651,0.006973191,0.0036525158,-0.004726953,-0.00067414483,-0.004144298,-0.0010713262,0.0080558825,0.00079899654,0.0007086508,0.0019641798,-0.001178449,0.014093703,0.0012584683,0.0013138484,0.0122630745,-0.007625088,-0.004682191,-0.0017909463,0.00350973,-0.001975933,-0.010357462,-0.0040236074,-0.0012132134,0.001595238,-5.1226147e-05,-0.0060031125,-0.00044304784,0.0030351453,0.0004835357,0.0022813678,-0.0025706682,0.0054434165,-0.0072623286,0.0035605906,-0.0073729632,0.0033510933,0.0039505814,0.006698518,-0.0047399155,0.0047299135,-0.008687975,0.0011492133,-0.006101491,-0.0035741525,0.00654773,-0.0072482205,-0.010614002,0.0024125546,-0.00881511,-0.0035722815,-0.00047631934,0.0006141383,0.007877288,0.006317482,0.0025747563,-0.007897785,0.006569041,-0.007332679,0.0052096527,-0.0106507465,0.005117696,-0.007994963,-0.008463633,-0.01201901,0.0027401308,-0.010925255,-0.002509092,0.002724954,0.0016803192,0.0063955598,0.013649088,0.0044456003,0.00019597262,0.0030691836,0.0025854807,-6.0089398e-05,0.00086096115,-0.0005375352,0.0036735702,0.004922174,-0.0032104733,0.0028530238,0.0095263645,-0.012955919,-0.0014268402,-0.002770951,0.9879487,-0.0061783567,0.0024127532,0.0044311625,-0.005897453,0.0015757652,-0.008691421,0.0048113707,-0.00051291566,-0.014561163,-0.004068819,-0.0039710617,0.0032141292,-0.00012715254,0.006303884,-0.0015050191,0.013167555,0.006584974,-0.0055430885,-0.004108985,-0.00015003234,0.0021528131,-0.0018329546,0.0021670344,-0.004740185,0.002037067,-0.0010627308,-0.0066363197,-0.0094988495,-0.0074302875,-0.0050692316,0.0031944998,0.0046583153,-0.0041793734,0.0035815402,-0.0053159427,-0.009283038,-0.008110823,0.009674435,0.0008162493,-0.010524095,0.0012537056,0.011898137,-0.0125747025,0.00022353418,-0.005336349,0.0022950321,-9.432994e-05,-0.003501514,0.0043564937,-0.0031317696,-0.0027789122,0.0018137703,-0.00010529719,-0.010612339,-0.0009916816,-0.0010806539,0.0074258456,-0.010122374,-0.0038625076,7.1302056e-06,0.0019895192,0.0016481597,0.0027659235,0.0020898674,-0.002212543,-0.0083873235,-0.002036537,0.002136398,-0.00310117,0.006144779,0.005822477,-0.0024874439,0.0067248167,0.009881912,0.004101792,-0.0033350717,0.0015555443,0.0072397264,-0.007327607,0.004958975,0.004029073,-0.008257996,-0.007960512,0.0066205673,-0.0068957303,0.0043233195,-0.00018830597,-0.011724072,0.007620759,0.006119041,0.0013293028,0.0011818793,0.008784797,0.0052495645,0.01359444,-0.0027065184,-0.0013407981,0.001330941,0.0023976564,0.00011855876,-0.0039607976,0.0071708355,0.0047649555,0.0026845695,0.0062327804,-0.0025302023,-0.0038900953,0.00619117,0.0016146004,0.0059917914,-0.0019558463,0.009059822,0.006633497,-0.007589028,0.0019914452,0.01329496,0.0023125089,-0.002727623,-0.001450982,0.0053707343,0.0069814185,0.0015821541,0.0012754053,-0.009048758,-0.004442677,-0.004628315,0.00499267,-0.0043453146,0.009073828,-0.00029202737,-0.0046936055,-0.0064497944,-0.00018357113,-0.0049428623,0.0022387458,-0.005191806,-0.005105463,-0.003277997,-0.0002537854,0.003458308,0.009077091,0.0024563568,-0.0026962757,-0.0021669387,-0.010954942,-0.0021861666,0.003678541,-0.0050682975,0.0120898625,0.004239735,0.0052053165,-0.00034483336,0.004153624,-0.00064903125,0.0027420558,-0.0032718945,-0.007674779,-0.006441973,0.000810341,-0.002101073,-0.011769143,-0.00038604438,-0.003552596,-0.001226306,-0.0033829194,0.009422114,0.001618593,-0.012940265,-0.0004999861,0.0030526891,-0.0002569873,0.0038217604,-0.0057876743,0.0021748748,-0.005000854,-0.0019245073,-0.0042723436,0.0097352415,-0.005947425,-0.0042510442,-0.006146267,-0.0011179661,-0.0024010562,0.0070404997,-0.0019298736,0.0039495956,0.0068296287,-0.0048265522,-0.011044843,-0.0057897326,0.011143221,0.006625153,0.0020206366,-0.003750924,0.0004149098,-0.0023253188,-0.004127289,-0.0011829026,0.005212834,0.012270268,-0.002099852,-0.0015679915,-0.004088803,-0.006253061,0.0017420072,-0.010120162,0.005398832,-0.0019755038,0.004731763,-0.005826084,-0.0021772305,0.0013454668,0.004948984,0.0014870093,0.00067519373,-0.005996502,0.0023220144,0.001376627,-0.0012891302,4.3529086e-05,-0.0037645334,0.0052160723,0.0062559377,-0.00093512796,-0.0035537146,0.0037771668,0.002011248,-0.005501448,-0.001445828,0.0008379109,0.0025502285,-0.0023629777,-0.0038008392,0.00021784822,0.0064607877,-0.008948887,-0.0042020325,-0.00712529,0.003045641,0.006753948,-0.0027310345,-0.007378948,0.0010489821,-0.005348364,-0.005334875,0.0023290422,-0.0013820068,0.010711436,0.00761912,-0.0067995014,4.3625943e-05,-0.0053208456,0.004354333,-0.0035475707,-0.0005628986,-0.003581041,0.000115017174,-0.008062903,0.008553206,-0.010437076,0.0050554085,0.0017619915,-0.0023082523,-0.0034126483,0.009361622,0.004969164,0.005538755,0.009753764,0.008768991,0.00048417784,-0.0040117987,0.0042519113,0.008992018,0.001294977,0.003741093,0.002221004,0.00048042834,-0.004311012,0.003859479
C=C(C)C(=O)OCCOCCOC(=O)C(=C)C,-0.0034389163,-0.01285645,-0.018361548,0.0057190973,-0.002688773,0.010898185,0.006398832,0.0074819345,0.013712484,-0.008464901,-0.0010386808,-0.00947498,0.009881161,-0.009557381,0.008530253,-0.0039110864,-0.0009988835,-0.011733927,-0.000112686306,-0.006870413,0.013427645,0.0062957862,-0.0006276239,-0.0003550183,0.003223654,0.0118732955,-0.016711801,0.0047227237,0.004734892,-0.0009233756,0.0013740687,0.012568949,-0.0006253943,-0.006718727,-0.009689691,-1.9925646e-05,-0.010949976,-0.0020312043,-0.01099214,0.008925707,-0.012279446,-0.005243364,-0.0015228351,-0.0032633375,0.009126665,-0.0023194924,0.007611451,0.009647049,-0.016690243,-0.0015619479,0.004820036,-0.008549435,-0.0021517947,0.011705086,-0.0067203324,-0.0030648317,0.0029126583,0.0040348186,-0.004250723,0.00014713779,-0.01789086,-0.004700984,-0.002463447,-0.013489261,-0.0071927654,-0.015978014,-0.004258644,0.009722322,-0.0077786203,-0.009711891,-0.00947012,-0.005649631,0.0029458804,-0.0051929206,0.0024503022,-0.0071555027,-0.0116782915,-0.008362003,-0.011046482,-0.0048928596,-0.00020346232,0.0035266625,-0.003438685,0.017408058,0.009849666,-0.004639801,-0.012550222,-0.0015347023,0.008797926,-0.011821916,-0.012268294,0.007212531,-0.0047843135,0.0072664185,0.0074496586,-0.0042649508,-0.00174079,-0.009739762,-0.010795569,0.0010956051,0.003076318,-0.005557023,0.01589001,-0.012027016,-0.027207121,-0.015103158,-0.008263515,-0.010593947,-0.00970667,-0.0020095985,-0.005303351,0.008384337,-0.0017924169,0.010882964,0.0061117215,-0.008957174,-0.009304073,0.015984498,0.009745542,0.008878914,-0.011103129,-0.011554202,9.74359e-05,-0.0075588245,-0.0056809243,-0.009956804,-0.0014015585,0.007201557,-0.010624351,0.002011463,-0.00017800927,-0.00572485,0.016307103,-0.006315045,0.0061238557,0.003318943,-0.0081013,0.005755225,0.0030931057,-0.015731378,0.014248934,-0.017031498,-0.002835189,-0.016438726,0.0075486605,0.014573916,0.007568392,-0.00432234,-0.009446793,-0.005960187,0.002642409,-0.004521806,0.011778755,-0.009134212,0.0054890495,0.00831795,-0.0033799112,0.011144897,0.007133443,0.00842695,0.014999557,0.0009339601,-0.012930702,-0.007873298,0.0002755709,-0.0068943733,-0.014346449,0.0039170156,-0.007603986,-0.0025699548,0.0027312457,-0.013751895,-0.003803162,0.010020452,0.010333921,0.006126932,-0.012098629,0.00083342846,-0.016356805,0.0004487587,-0.0107782325,0.0056409864,0.009201174,0.010880916,-0.00668092,0.0031148372,-0.01032748,-0.005178108,-0.008797629,-0.0048012547,0.009825912,-0.012776617,-0.014996728,0.008743943,-0.01376172,0.00067021325,-0.0053881314,0.0046948288,0.010572493,0.010315901,0.00034963991,-0.014175346,0.012525419,-0.00897181,0.008714369,-0.012858658,0.013427483,-0.013408234,-0.013526116,-0.013573379,0.008561269,-0.011116197,-0.00781698,0.007976664,0.005105108,0.013878167,0.017619472,0.008021338,0.0025876816,0.0074350433,0.010178203,-0.0031872657,-0.004261134,-0.0067072865,-0.0020010192,0.01092764,0.0016212307,0.00085294014,0.013581342,-0.015897455,0.006847053,-0.004451759,0.92862195,-0.0102646975,0.008435857,-0.0003895918,-0.010925615,-0.0037566368,-0.009035998,-0.00069198944,0.0010171896,-0.016405294,-0.012408231,-0.0068749273,0.0075102625,0.0046765464,-0.0011920556,-0.0010915939,0.019718263,0.011327285,-0.0013497733,-0.00965188,0.005382793,0.009375656,-0.0075800996,-0.0016225753,-0.006742605,-0.0014359006,-0.0065440633,-0.011258309,-0.00914736,-0.01312548,-0.007864844,0.010735609,0.0098136505,0.00019985996,0.007022617,-0.010689853,-0.010997651,-0.002390759,0.01319148,0.0037084054,-0.0134431245,-0.0033035637,0.017631827,-0.016500907,-0.008879151,-0.0004058797,0.0069753956,-0.0064844806,-0.004994901,0.007832129,-0.0081504695,-0.010445453,0.0059424657,0.0032893661,-0.017143205,0.0035995878,0.006296493,0.001612952,-0.017044583,-0.0063284077,-0.008026224,0.0026489664,0.007945605,0.0019928801,0.011161801,-0.0026092827,-0.014569248,-0.006746215,0.0052891914,0.004160039,9.500049e-05,0.007841808,-0.007889926,0.005715455,0.011123478,0.0074383975,-0.0069237268,-0.0024513658,0.014743734,-0.011301715,0.014582914,0.009939589,-0.0020421762,-0.013523663,0.010436898,-0.014481618,0.007924368,0.0048104934,-0.019348573,0.011116037,0.014084207,-0.005877207,0.0038483648,0.01828538,0.010534219,0.01702772,-0.004056014,-0.008951578,0.0026723705,-0.0048122187,-0.0023823318,-0.0016283616,0.013260229,0.01539603,0.009873701,0.014594279,-0.007831011,-0.011615884,0.010775635,-0.010122393,0.007858469,-0.008595057,0.011694257,0.012960521,-0.006968596,0.010563241,0.010674494,0.0059451642,0.0012936374,0.0015086655,0.010098885,0.013287058,-0.0017754966,0.006049661,-0.013224943,0.0002476871,0.0020902036,-0.00039019762,-0.006723119,0.009973046,0.0016793516,-0.012604685,-0.009870892,0.0059211785,-0.0060722195,0.0036343234,-0.010118036,-0.013340243,-0.0042667766,-0.0050924355,0.004463737,0.012431612,0.0019053132,-0.010139711,-0.0072682863,-0.015129594,0.0003789072,0.010084074,-0.010615057,0.017857775,0.0022776835,0.0031440258,-0.003518628,-0.0030182023,0.008782135,-0.00524899,-0.001795819,-0.012425413,-0.0023295227,0.0016792454,-0.005989163,-0.014078169,-0.005042442,-0.003690553,-0.011794101,-0.0076498482,0.013016834,-0.0052458784,-0.016559314,0.0034429897,0.008663395,-0.005232266,0.007953471,-0.01243899,0.009173879,-0.011286899,0.0053369366,-0.011141362,0.01307308,-0.014264936,-0.0076768,-0.011339836,0.0031809872,0.005375849,0.011353007,0.003388254,0.010726973,0.009393854,-0.002188134,-0.014052596,-0.012113927,0.011737097,0.000109164044,0.009537597,-0.010782053,0.008088842,-0.01358724,0.0030254466,0.0047331546,0.009882808,0.011976652,0.0034193257,0.006387951,0.002012888,-0.012452092,-0.000688334,-0.00071206037,0.014511984,0.000982333,0.010675317,-0.013253627,-0.0075078984,0.008949809,0.008338107,-0.0018838755,-0.0047475994,-0.011903611,0.010862237,0.0055644056,-0.0067795925,-0.0036954286,0.0028264355,0.007504613,0.014629773,-0.005977023,-0.007824124,0.006126548,0.0019159513,0.00045061857,-0.006123235,0.0016237898,0.0036919871,-0.010725599,-0.008522155,0.00896897,0.0024320334,-0.005494423,-0.010708938,-0.010412542,0.0048393216,0.0002585505,0.0014433376,-0.008652088,-0.0033638086,-0.00039622374,-0.00733951,-0.0012103952,0.0018110911,0.011624427,0.011495842,-0.011166738,0.008295877,-0.0063980347,0.0100272875,-0.008480883,-0.006375326,-0.009400016,-0.0049341945,-0.009497335,0.01483542,-0.011852011,0.012254694,-0.006636882,-0.0062837144,-0.0077759568,0.01176108,0.009047685,0.015216687,0.01349313,0.013207819,0.005654983,-0.010756702,0.0058848285,0.015081966,0.009170054,-0.0017601624,-0.004286353,0.004383373,-0.009424455,0.0063102823
C=CC(=O)OCCOCCOCCOCCOC(=O)C=C,-0.0061524436,-0.015949916,-0.02152951,0.008842591,-0.0036677998,0.015290484,0.009455904,0.009231417,0.016350418,-0.010272944,-0.0009149276,-0.011233056,0.012740818,-0.012584452,0.012108932,-0.0015436094,-0.0031573363,-0.013986759,0.002349445,-0.009257266,0.015147022,0.009068276,0.0019887406,-0.002436271,0.0063321646,0.015850078,-0.01928613,0.0065947957,0.007364578,0.00021322723,0.003276918,0.014643394,0.0015330613,-0.008704793,-0.014051935,0.0024712067,-0.014640818,-0.00012818631,-0.013636673,0.012034557,-0.01586368,-0.00864878,-0.0037254868,-0.0019058622,0.01367898,-0.0044532306,0.010008382,0.011710461,-0.0215193,-0.00415135,0.0073371744,-0.011133362,-0.00463962,0.013886226,-0.011356082,-0.0010837261,0.004210946,0.004368008,-0.0070709363,0.0027151825,-0.02033696,-0.0022579944,-0.0054437127,-0.016057894,-0.009785006,-0.018601201,-0.0036832057,0.011790924,-0.009890441,-0.010741064,-0.01180783,-0.008792382,0.00585612,-0.0032941718,0.0011713449,-0.009569334,-0.009449672,-0.010222239,-0.013870807,-0.007347028,0.00141377,0.0055389246,-0.0021023005,0.022285137,0.011774231,-0.0023199888,-0.015784184,-0.004690351,0.010467281,-0.014006542,-0.015217496,0.008898942,-0.00793393,0.010601707,0.010248299,-0.002080284,0.000298067,-0.01154345,-0.014170755,-0.0011631008,0.0050456896,-0.007364288,0.019350559,-0.014196046,-0.03198921,-0.016984483,-0.008788936,-0.0132528115,-0.011342976,-0.003418101,-0.008661132,0.006683915,-0.0010153595,0.013594171,0.009239768,-0.0117951855,-0.010183034,0.018692024,0.011517855,0.011863,-0.014243573,-0.014554446,-0.0014067693,-0.009479272,-0.008532096,-0.013748146,-0.0036248397,0.009323362,-0.01205263,-0.0003810618,0.00056670606,-0.007967735,0.019382333,-0.008376844,0.0077390354,0.00651139,-0.009286769,0.0087728975,0.0053136833,-0.01914959,0.01703338,-0.020136252,-0.004459143,-0.020337896,0.010193704,0.016502995,0.008612356,-0.007794135,-0.0109706065,-0.009138001,0.005853231,-0.0069637387,0.014438242,-0.012300191,0.0077352542,0.011365636,-0.0054303305,0.011438953,0.0105804615,0.013086975,0.017768271,0.001815293,-0.016634397,-0.009632427,-0.0026102401,-0.010148059,-0.017567145,0.0059256447,-0.010888746,-0.006379462,0.005670851,-0.016625002,-0.007391073,0.014060594,0.013968448,0.006259841,-0.0148740625,-0.00038909167,-0.020771205,0.002044146,-0.013310854,0.006839323,0.011851667,0.01423551,-0.009192111,0.0019030864,-0.011677925,-0.008327967,-0.011472935,-0.0060345335,0.011293165,-0.016032591,-0.017990932,0.011140705,-0.01587632,0.0029217228,-0.008315972,0.0070130248,0.014227439,0.012908827,-0.001887097,-0.01793879,0.014609048,-0.010257408,0.011112018,-0.015608004,0.017752916,-0.015747031,-0.016188256,-0.015325961,0.011749624,-0.011174157,-0.010020612,0.010625074,0.008446123,0.0179259,0.019111495,0.009587105,0.00576503,0.011072324,0.013121502,-0.0059984857,-0.0066706943,-0.009306943,-0.004076789,0.014209546,0.0036461167,-0.0010187812,0.016078766,-0.018270673,0.009661942,-0.0062082186,0.93204707,-0.01267056,0.011767636,-0.0027103843,-0.011917906,-0.005388954,-0.008393423,-0.0031935796,0.0027249977,-0.018532367,-0.015803525,-0.009611584,0.010973408,0.0073730606,-0.0040120482,-0.001019435,0.021766037,0.013562199,0.0009914637,-0.011432078,0.008259883,0.010600703,-0.0112384055,-0.0036235983,-0.0093019605,-0.0032548844,-0.009196926,-0.014628707,-0.010757693,-0.016568756,-0.008636713,0.013698924,0.011284839,0.0016276035,0.010083804,-0.014110315,-0.013955863,-0.0005909726,0.015814815,0.005567938,-0.015509294,-0.0056435145,0.020166429,-0.019474613,-0.011541607,0.0024090577,0.009930555,-0.008570939,-0.0067954566,0.009569919,-0.011853622,-0.014058581,0.008789221,0.005519212,-0.01872744,0.0060392898,0.008188527,-5.8872625e-05,-0.019690597,-0.008699424,-0.011484878,0.004242832,0.0101413615,0.00018812949,0.014903848,-0.003992468,-0.017576862,-0.008340045,0.00750947,0.0074079633,-0.0023912955,0.010071647,-0.00980398,0.0073182518,0.012811601,0.009758635,-0.010605051,-0.0040420983,0.01752295,-0.014022353,0.018414248,0.012732735,-0.0001555942,-0.016044337,0.012664994,-0.017721724,0.009887996,0.007798503,-0.024244636,0.013682385,0.018543689,-0.008761946,0.0048741736,0.022938434,0.0155711435,0.02033322,-0.0022007246,-0.011931328,0.00450493,-0.008398802,-0.004339197,0.00026725605,0.016777309,0.020665415,0.011989085,0.017654572,-0.010353897,-0.015076692,0.013311766,-0.013527662,0.010256987,-0.011642336,0.01522078,0.017000511,-0.008259335,0.0147448,0.00985177,0.008672282,0.0034812563,0.0040669483,0.01072999,0.0155144865,-0.0057471516,0.008106936,-0.014555788,0.002244901,0.0059680836,-0.0035158657,-0.0092833685,0.012423883,0.0038525965,-0.016296461,-0.012135718,0.009409751,-0.0074237823,0.0045360066,-0.011810129,-0.017255265,-0.0035241605,-0.008753295,0.006363497,0.013974035,0.003191904,-0.012956763,-0.01113106,-0.020026637,0.0038930983,0.013215639,-0.013150223,0.019787356,0.00039269496,0.0009318497,-0.0053790472,-0.004916759,0.012590984,-0.010356899,0.001276128,-0.014974346,-0.00030241534,0.003445167,-0.0082543185,-0.016138405,-0.0073094163,-0.0022908458,-0.01628673,-0.009400228,0.01585946,-0.007048562,-0.018875077,0.0055047013,0.010347186,-0.006970194,0.009763352,-0.015063556,0.013088055,-0.01523478,0.007650884,-0.013875397,0.015800705,-0.016806532,-0.008652565,-0.014031928,0.006019019,0.008406471,0.014878022,0.0060891835,0.013755104,0.012351749,-0.00023135566,-0.017413966,-0.014786861,0.014324834,-0.0023274738,0.01285628,-0.014321139,0.0116554,-0.018238913,0.0067665754,0.007937911,0.0118359495,0.013162173,0.0050711455,0.007914193,0.0049048094,-0.0151097905,-0.002716926,0.0036290735,0.018353384,0.0030280873,0.013835983,-0.015653629,-0.0101904245,0.01245706,0.010291003,-0.0038884925,-0.008142291,-0.01551372,0.014921386,0.007804486,-0.009390676,-0.0055421703,0.0056866985,0.009748514,0.019229747,-0.008933999,-0.011316554,0.008369724,0.0031390758,0.002022002,-0.0076279766,-0.0005111201,0.004810608,-0.014641883,-0.010800974,0.011271543,0.00030144304,-0.0030836798,-0.013457554,-0.012646657,0.0046761893,-0.0016571577,0.003410941,-0.010251102,-0.0046430063,0.0020152796,-0.009347275,-0.002776198,0.005116605,0.0131316595,0.013646811,-0.014329545,0.011657557,-0.008017635,0.014373215,-0.010270613,-0.008355531,-0.012548149,-0.006897279,-0.011810806,0.018462507,-0.014023159,0.014898787,-0.010273738,-0.0071836365,-0.009788661,0.013073566,0.011125409,0.018852752,0.015688308,0.01568644,0.008654855,-0.013248857,0.0073901885,0.017771838,0.012739472,-0.0030328715,-0.008325532,0.0065832185,-0.013068826,0.0072781686
C=CC(=O)OCCOCCOCCOCCOCCOCCOCCOCCOCCOCCOC(=O)C=C,-0.016546873,-0.017597314,-0.02845913,0.019421374,-0.018880805,0.029120801,0.016284544,0.012190909,0.01791241,-0.02135144,-0.0028343499,-0.019087672,0.024749525,-0.015587406,0.023059577,0.013169361,-0.011938741,-0.011013396,0.013696346,-0.019718507,0.011069077,0.023882486,0.019741213,-0.015337918,0.018897135,0.020533789,-0.022341527,0.017201042,0.021578088,0.008680083,0.01286895,0.013089218,0.016012432,-0.0110513605,-0.03508141,0.018857077,-0.02261228,0.010175473,-0.017203897,0.020420194,-0.027051665,-0.030153846,-0.016750917,0.013565679,0.028338987,-0.019936822,0.011774737,0.012923708,-0.02844239,-0.016174264,0.018357327,-0.01853081,-0.013230767,0.014447231,-0.018275058,0.017546454,0.019416183,0.000908419,-0.019953754,0.018796476,-0.021109225,0.014300337,-0.023295103,-0.014366532,-0.014138291,-0.019994793,0.012384677,0.015926104,-0.019170295,-0.008837022,-0.01711518,-0.024575448,0.020212073,0.012926098,-0.011350036,-0.018322932,0.020912036,-0.011569183,-0.018297998,-0.012657309,0.007700829,0.01763542,0.009632586,0.035011325,0.014903522,0.018340284,-0.01883988,-0.016197115,0.011655364,-0.016192028,-0.025141602,0.0075165518,-0.02781962,0.016614102,0.017188638,0.012861393,0.009881718,-0.013926718,-0.019426638,-0.01080765,0.013705202,-0.008416701,0.02991457,-0.019255405,-0.03322609,-0.013434207,-0.008774582,-0.023060719,-0.013240883,-0.0074448697,-0.01613531,-0.02211029,0.011566083,0.011811162,0.020590477,-0.01920994,-0.013905831,0.024014201,0.013808425,0.017525079,-0.02677901,-0.03123141,-0.014780129,-0.012731304,-0.027866073,-0.025080703,-0.011824473,0.016025806,-0.01986894,-0.016666513,0.0011817822,-0.019803222,0.033434488,-0.015250379,0.008968677,0.020942941,-0.006120393,0.020462263,0.021597425,-0.02608235,0.01626784,-0.01955342,-0.016134005,-0.026444726,0.015248444,0.011152501,0.008613373,-0.024024505,-0.014498421,-0.020297548,0.027126893,-0.014341475,0.016632112,-0.02683394,0.012295129,0.022838783,-0.015857259,0.0057583265,0.022728309,0.024137933,0.01771671,0.018899178,-0.02661571,-0.020943874,-0.014793528,-0.019744314,-0.018876666,0.020005316,-0.02550767,-0.020455264,0.02045536,-0.019787889,-0.016839955,0.02757081,0.028986612,0.0056922296,-0.02483502,-0.010183692,-0.029797886,-0.0011229571,-0.013766465,0.010734255,0.016594926,0.01605284,-0.014792042,-0.011682137,-0.00402339,-0.029835923,-0.017717006,-0.009523077,0.013596143,-0.019445397,-0.018379811,0.017584238,-0.014531154,0.023467552,-0.018469078,0.018312646,0.01944206,0.015988171,-0.011788111,-0.023419164,0.01661556,-0.014822182,0.01877829,-0.012378988,0.026347077,-0.017398285,-0.027244586,-0.01046734,0.02543914,-0.0076836413,-0.0109901205,0.025073398,0.019469576,0.025313266,0.01450532,0.013836548,0.019933555,0.022045448,0.022042904,-0.017325994,-0.016993621,-0.01832274,-0.016563341,0.02040892,0.014493054,-0.015844837,0.019044196,-0.016541654,0.024375055,-0.011171471,0.16586035,-0.0163735,0.021006502,-0.014245248,-0.009291166,-0.017852284,0.0048621073,-0.01804323,0.012260325,-0.019871628,-0.021901786,-0.02076514,0.020707667,0.018276168,-0.01730521,0.005300358,0.011770849,0.016217075,0.01946939,-0.014314913,0.021630222,0.019234486,-0.02717974,-0.022072874,-0.015242597,-0.015668117,-0.01950556,-0.022001095,-0.007128935,-0.02023745,-0.011864133,0.02378239,0.018563144,0.01518012,0.014274394,-0.027982662,-0.0106682535,0.015488585,0.020227471,0.014520259,-0.014212336,-0.020454021,0.022396747,-0.019703167,-0.024880074,0.02099732,0.016114168,-0.016577048,-0.008727767,0.010701027,-0.022600876,-0.025228621,0.019228358,0.014095726,-0.01620422,0.013680282,0.01262005,-0.017000385,-0.021599801,-0.015594086,-0.02517023,0.014965523,0.022287859,-0.012478425,0.030833397,-0.008216414,-0.0231777,-0.013058041,0.014082262,0.016719997,-0.018029835,0.01652195,-0.018196955,0.0062506218,0.011587765,0.01804076,-0.018509403,-0.012329701,0.020530343,-0.01184418,0.03277411,0.014781909,0.015943281,-0.022560835,0.0134147275,-0.020795703,0.008670849,0.014552198,-0.025150316,0.019467074,0.028510975,-0.027208533,0.012003531,0.030137174,0.036673196,0.024372032,0.0056933016,-0.023979072,0.0068541635,-0.020373555,-0.010289311,0.014011671,0.027220067,0.032346122,0.02236991,0.025586339,-0.015153324,-0.021932054,0.017967831,-0.033637527,0.013297539,-0.020803047,0.014644615,0.03314876,-0.008822435,0.030887946,-0.010468399,0.016977122,0.016696107,0.01926985,0.013341856,0.023674818,-0.020782884,0.023276698,-0.014070066,0.014777495,0.026808593,-0.019444708,-0.014610708,0.011369499,0.014454674,-0.022014417,-0.015535126,0.0248238,-0.007402942,0.005454624,-0.018584743,-0.022917848,0.009415299,-0.02267863,0.009518858,0.010076791,0.0032527454,-0.020620601,-0.027578533,-0.03102595,0.018104043,0.025676034,-0.018741164,0.016697755,-0.012751784,-0.014499282,-0.011296253,-0.018382754,0.03182913,-0.030011907,0.018594276,-0.02127829,0.01563861,0.015363378,-0.019092895,-0.010819917,-0.016415838,0.011555582,-0.028834619,-0.013646835,0.022236213,-0.021647837,-0.015207741,0.012753151,0.012317715,-0.020771474,0.012128459,-0.025489686,0.027500888,-0.028816396,0.018962806,-0.017416371,0.018241502,-0.025466468,-0.011839564,-0.020255629,0.018125404,0.02016106,0.019513708,0.019787237,0.023705332,0.01354106,0.013907594,-0.02135797,-0.022249825,0.012447788,-0.0108234435,0.022385385,-0.02092682,0.021971563,-0.035276864,0.025828557,0.018306667,0.023992945,0.011401372,0.013486725,0.0124051245,0.024265451,-0.020106668,-0.012632737,0.027064517,0.033640686,0.013544902,0.025139442,-0.023669276,-0.01948119,0.024667868,0.014423214,-0.020977618,-0.014534334,-0.016656436,0.029254038,0.014224675,-0.020735355,-0.01620812,0.018461732,0.013911801,0.03238699,-0.018597225,-0.026324969,0.015198511,0.01129431,0.018470988,-0.021300491,-0.008177081,0.007163357,-0.02198129,-0.017872637,0.024124261,-0.016699385,0.019759417,-0.02243562,-0.013391435,-0.0029587448,-0.01865646,0.015976723,-0.014082634,-0.012162786,0.018031238,-0.01569005,-0.012772865,0.016994068,0.007081814,0.016859092,-0.020812277,0.028371364,-0.015673202,0.02700681,-0.014056212,-0.015346976,-0.019946126,-0.014213345,-0.02032658,0.025050443,-0.018088633,0.02299468,-0.027915873,-0.011892318,-0.012865644,0.012592235,0.021029735,0.025759522,0.016853854,0.012754297,0.018795673,-0.02183219,0.0110397525,0.015817149,0.024580816,-0.019342516,-0.023753434,0.011617244,-0.02265678,0.009600012
C=C(C)C(=O)OCCOCCOCCOCCOC(=O)C(=C)C,-0.0063703284,-0.013248291,-0.019287653,0.0077479184,-0.006530188,0.015830353,0.008142551,0.0071121235,0.013999835,-0.012389118,-0.0013140067,-0.010581961,0.013604688,-0.009447977,0.011494606,0.001342535,-0.00289879,-0.012105014,0.0028025454,-0.008807068,0.0139052365,0.01111539,0.0033863597,-0.006477585,0.0069922237,0.013536325,-0.01652379,0.008307686,0.01018437,0.0012514191,0.0035889999,0.012409055,0.0046173986,-0.0071672183,-0.015310477,0.004635653,-0.012980785,0.0034757983,-0.01198115,0.011486998,-0.01531019,-0.012075179,-0.0044549042,-0.00035602786,0.011851257,-0.007926317,0.009288607,0.010787172,-0.016853891,-0.004800005,0.009950834,-0.0090071885,-0.003867682,0.0126705505,-0.007545332,-0.0004865136,0.008721389,0.0013685524,-0.008089647,0.004385072,-0.016607653,0.0006131064,-0.006682275,-0.013624534,-0.0091328425,-0.01746903,-0.0003379602,0.010041203,-0.010252765,-0.0073490464,-0.012526912,-0.011079086,0.006734091,1.6452745e-05,-0.0008199187,-0.011051793,-0.0021069911,-0.0074455403,-0.01241505,-0.0058552874,0.00011144765,0.0070372904,-4.0197745e-05,0.020032316,0.010012018,0.0027655847,-0.013695316,-0.0046180487,0.008828106,-0.011718107,-0.014918068,0.0064668953,-0.009564878,0.006701739,0.009756531,0.0007160655,0.0004165154,-0.009315696,-0.012224866,-0.0007576477,0.0039532436,-0.006411461,0.019870117,-0.011731835,-0.026437838,-0.0138885705,-0.009484438,-0.01348944,-0.010339275,-0.0022376645,-0.009040598,-0.0024438333,0.001702521,0.010567278,0.0072853556,-0.009966424,-0.012441738,0.01695949,0.010569589,0.009063714,-0.014185524,-0.015316112,-0.0038547562,-0.007829337,-0.01032719,-0.011988599,-0.003943512,0.009744443,-0.012560908,-0.0057058427,0.0003613485,-0.008961322,0.019885177,-0.0075659603,0.0066857617,0.006974088,-0.0071489876,0.008294665,0.00822155,-0.017084666,0.013012592,-0.015000659,-0.004021586,-0.017977774,0.008035399,0.012752398,0.0071100695,-0.009513187,-0.01075746,-0.0084906425,0.008736296,-0.0069251894,0.011747045,-0.012985893,0.005719321,0.010836276,-0.006187031,0.0071493182,0.010019854,0.01231841,0.015604897,0.0063699502,-0.014987986,-0.011203106,-0.0035784803,-0.01047402,-0.013828261,0.005117078,-0.01108437,-0.005169983,0.008362337,-0.015994124,-0.0057581738,0.013096599,0.0149879875,0.005728,-0.0137344105,-0.0022016796,-0.018935917,-0.0012250664,-0.009487596,0.0066012098,0.010297818,0.011160227,-0.009122677,0.00027670246,-0.0071397536,-0.012943811,-0.010164471,-0.006863212,0.011606924,-0.013459712,-0.014569809,0.011850163,-0.013727386,0.004142981,-0.009649277,0.006607024,0.010915067,0.011037987,-0.0017218571,-0.016004695,0.011976048,-0.009359652,0.010057123,-0.012623855,0.015158713,-0.013522891,-0.01808831,-0.011551971,0.012720912,-0.009718145,-0.007434806,0.00842136,0.006176252,0.017394505,0.0150237745,0.009688182,0.0067016073,0.010855599,0.012921088,-0.005247901,-0.0058238525,-0.009163676,-0.0054496443,0.013670315,0.005752471,-0.0043855626,0.01502354,-0.015483247,0.012074239,-0.005758932,0.7147442,-0.011436924,0.010118679,-0.002381538,-0.0106223505,-0.0072334846,-0.005267808,-0.004468873,0.003011711,-0.01671156,-0.0150494855,-0.0100317765,0.011303089,0.007563652,-0.005453652,0.0027908366,0.017883133,0.012391526,0.0036155079,-0.011604188,0.00963469,0.013041884,-0.011995131,-0.0072522843,-0.008575643,-0.006066371,-0.009321801,-0.014030567,-0.0076688947,-0.014969338,-0.00896284,0.011805579,0.011996945,0.004122529,0.007544249,-0.013592116,-0.010249244,0.0011382643,0.014217357,0.0058359336,-0.010833722,-0.0094575025,0.017457169,-0.016598113,-0.012649084,0.0042611733,0.009992139,-0.008333599,-0.0062360596,0.0073486203,-0.010609843,-0.013422249,0.009870242,0.006199169,-0.016632296,0.009216479,0.008290894,-0.0036462285,-0.016348632,-0.0078655975,-0.012453275,0.006599024,0.010462463,-0.002036892,0.015275582,-0.0040577874,-0.0150620965,-0.007712166,0.005770646,0.00692454,-0.0055380324,0.010516058,-0.010110392,0.004757348,0.0104172975,0.010330156,-0.008437478,-0.0045399424,0.014925906,-0.009023461,0.01816589,0.011180637,0.002973428,-0.014741634,0.011761384,-0.015654061,0.0072187847,0.0063973423,-0.01981323,0.013306539,0.0168492,-0.010285994,0.0069022253,0.01913077,0.01653073,0.017245691,-0.0026376024,-0.0111909,0.0022408543,-0.0077490807,-0.004552184,0.0032287706,0.01622874,0.016365862,0.011878589,0.017138766,-0.007870216,-0.013117712,0.0119781345,-0.014394116,0.008211569,-0.009453876,0.009873453,0.019186167,-0.0052581094,0.015916511,0.004387646,0.0068052365,0.0054424857,0.004694664,0.009491048,0.015977016,-0.0068713287,0.01030951,-0.013532985,0.0039995015,0.008349161,-0.0064126886,-0.008813666,0.008630405,0.0046969056,-0.012480109,-0.010713718,0.010920386,-0.0058522876,0.0041358788,-0.010831968,-0.016225591,-0.00041375915,-0.0071550673,0.005187123,0.010587767,0.00013959856,-0.012459353,-0.011766799,-0.018343685,0.003358534,0.015196561,-0.012489554,0.017607525,-9.676721e-05,-0.0007310584,-0.0047581103,-0.00849314,0.013881506,-0.010155927,0.0034118053,-0.013171095,0.0007299725,0.003987659,-0.010620854,-0.010398573,-0.0060193604,-0.000117255375,-0.01651302,-0.007997073,0.014351587,-0.0090822065,-0.014363229,0.0056865048,0.00784065,-0.009445139,0.008552153,-0.01455801,0.012700634,-0.01375056,0.0068644024,-0.011750484,0.013762652,-0.016741274,-0.00834424,-0.013843458,0.0059423433,0.008021879,0.01415608,0.0073164916,0.013267778,0.008831404,0.000544394,-0.012543846,-0.014579408,0.010062618,-0.0027271807,0.011157235,-0.012922665,0.008171307,-0.017566692,0.009218153,0.008134772,0.014476545,0.009361528,0.004601746,0.0078170085,0.0075222207,-0.01170354,-0.0037162527,0.007930913,0.019773746,0.0046822894,0.013336327,-0.015847575,-0.009014624,0.012735305,0.008257154,-0.0062152967,-0.006856106,-0.010694273,0.015277356,0.00717453,-0.008879999,-0.0055911606,0.0054917727,0.0088414,0.018539187,-0.007660263,-0.010485628,0.009525488,0.003800829,0.0055373143,-0.011861868,-0.0018605636,0.003491926,-0.012508847,-0.010649184,0.012578252,-0.0025887564,0.0007618237,-0.011959373,-0.009141105,0.002288539,-0.002971592,0.0044490974,-0.0077829054,-0.0056866836,0.005567167,-0.008571784,-0.004419932,0.0054528452,0.007255081,0.0114672445,-0.010142135,0.011305717,-0.006598314,0.013054498,-0.008979126,-0.008068205,-0.009709703,-0.006829357,-0.010779293,0.016363181,-0.012505945,0.0111983055,-0.0100663435,-0.0055348957,-0.008319376,0.01113104,0.011357346,0.014808278,0.013737321,0.012482395,0.008829474,-0.01240739,0.00919085,0.014920661,0.012779131,-0.007295414,-0.007973593,0.0062714936,-0.011598491,0.005562136
C=C(C)C(=O)OCCOCCOCCOCCOCCOCCOCCOCCOCCOC(=O)C(=C)C,-0.016295135,-0.015842095,-0.027390705,0.01905463,-0.018886896,0.026705327,0.01626376,0.012436552,0.017036144,-0.020119915,-0.004399704,-0.018105263,0.024599038,-0.014984386,0.02225298,0.012098694,-0.013303196,-0.011068385,0.012835195,-0.019821394,0.009636061,0.023423746,0.021538744,-0.015131492,0.018861422,0.019456692,-0.021637075,0.017606905,0.02057628,0.01019855,0.013631805,0.011657169,0.015324188,-0.011094008,-0.03657812,0.019563787,-0.022236442,0.010200473,-0.0170489,0.018449886,-0.025444243,-0.031860627,-0.01687265,0.017461706,0.02894269,-0.019996718,0.009991992,0.012295775,-0.027085949,-0.016086392,0.018243684,-0.018076053,-0.013910092,0.013498781,-0.018748196,0.0193183,0.020350741,0.0021002232,-0.019884259,0.020477798,-0.01881025,0.0147648435,-0.023895873,-0.013277417,-0.012972643,-0.017024346,0.01407432,0.014794756,-0.020527855,-0.008544194,-0.014739729,-0.022341982,0.018751226,0.014939631,-0.012562783,-0.018136766,0.022958599,-0.01096509,-0.017365595,-0.013390137,0.008348418,0.019222014,0.009215553,0.033404376,0.014033516,0.020383727,-0.016872505,-0.01703129,0.010808588,-0.014884068,-0.023617188,0.0071274266,-0.027847977,0.015476128,0.015633568,0.013160126,0.010609541,-0.014771333,-0.018319277,-0.011816217,0.013860458,-0.008186681,0.02780689,-0.019810522,-0.031063527,-0.012039401,-0.009140883,-0.023718748,-0.01276334,-0.0086633675,-0.014891287,-0.024034616,0.0131822275,0.009703652,0.020567711,-0.01886956,-0.012258915,0.021565255,0.012917962,0.016109306,-0.025631625,-0.031946924,-0.015308266,-0.012926543,-0.029448956,-0.024079889,-0.011755297,0.014793776,-0.020252084,-0.016934503,0.001690523,-0.02006689,0.03286054,-0.015340444,0.008321177,0.020272527,-0.0046493495,0.021079596,0.021609643,-0.024407912,0.014218707,-0.018491197,-0.016284235,-0.025929753,0.0147778625,0.009736626,0.00878493,-0.024573596,-0.014200791,-0.019731872,0.027404232,-0.014728313,0.014939232,-0.026824795,0.013964647,0.022689436,-0.01618561,0.0060614273,0.021174092,0.0228791,0.016263565,0.021243123,-0.025671218,-0.020488389,-0.014366416,-0.018804172,-0.017124163,0.02214297,-0.025147632,-0.020470291,0.019263553,-0.017083324,-0.016560342,0.027083753,0.029549832,0.0059376517,-0.024726763,-0.010775732,-0.028705351,-0.00093592703,-0.012726338,0.009090432,0.015561577,0.014022561,-0.013217935,-0.0127246985,-0.0035484992,-0.029497271,-0.017326908,-0.0083361855,0.012916201,-0.018904697,-0.01625311,0.016702281,-0.013610911,0.025400613,-0.017714988,0.01831739,0.01914952,0.014592887,-0.012970926,-0.021684976,0.016718306,-0.013551789,0.018904287,-0.010447614,0.024529371,-0.016022721,-0.025671368,-0.010707364,0.024397846,-0.006499664,-0.0103595015,0.025718195,0.018952651,0.023699455,0.012770967,0.013095871,0.020012842,0.021300051,0.021149112,-0.017337864,-0.01741243,-0.016577324,-0.01680781,0.017864736,0.014230274,-0.015957505,0.016839996,-0.014640292,0.023196932,-0.011228848,0.052746214,-0.015362882,0.02063601,-0.015705045,-0.010214848,-0.018956758,0.007034505,-0.018746492,0.0125493705,-0.017505404,-0.021193866,-0.020518318,0.018638927,0.018357066,-0.018325876,0.005334491,0.010937291,0.016191343,0.020574862,-0.01272557,0.020796916,0.019728057,-0.026853766,-0.02250718,-0.015164965,-0.016988838,-0.019295018,-0.02075719,-0.0064278184,-0.016342683,-0.012476793,0.023526773,0.01792139,0.016775088,0.014564998,-0.026349518,-0.009037385,0.01625065,0.018521981,0.015031275,-0.013599752,-0.020726573,0.021257067,-0.017884685,-0.024513364,0.020440046,0.014265269,-0.015097485,-0.008030057,0.01152092,-0.020426115,-0.023378896,0.018202947,0.013781832,-0.013350709,0.012196859,0.012048103,-0.018788807,-0.020834321,-0.015083237,-0.025558753,0.015627854,0.022155112,-0.013411434,0.030314118,-0.008996541,-0.023257952,-0.012398715,0.014207946,0.016483743,-0.01763348,0.01574836,-0.018515617,0.005541354,0.009831093,0.01741493,-0.018083282,-0.011550898,0.019102568,-0.011217667,0.0330538,0.0140824,0.01698564,-0.022723537,0.012171943,-0.019967308,0.008543932,0.013540993,-0.022730626,0.018065684,0.028073167,-0.02740293,0.011231717,0.028311493,0.035598263,0.024247918,0.0066095535,-0.023789737,0.0065797,-0.020442694,-0.009233839,0.0152463885,0.027119445,0.03161934,0.022891223,0.024298947,-0.014680786,-0.021519294,0.016971063,-0.034868196,0.012725597,-0.020560544,0.014151803,0.030881092,-0.009220121,0.029848557,-0.01358956,0.016758587,0.016585995,0.020004407,0.013901718,0.02285094,-0.019397628,0.022622,-0.013070121,0.0153523795,0.027707618,-0.019013325,-0.012932871,0.011212329,0.014482185,-0.021335656,-0.014330964,0.024530798,-0.0062965536,0.005246793,-0.01792404,-0.020640235,0.010058886,-0.021750964,0.009510424,0.010028461,0.004346296,-0.019266354,-0.0274342,-0.029946158,0.018580455,0.024762064,-0.01910973,0.015134615,-0.014028756,-0.014822854,-0.012790807,-0.017417643,0.03211531,-0.029521309,0.018566415,-0.02089076,0.01635621,0.014551304,-0.018921817,-0.01035034,-0.016176222,0.0131831225,-0.026713226,-0.013694266,0.022026826,-0.022800077,-0.0144159235,0.012301441,0.013206536,-0.020406615,0.0118038915,-0.025262306,0.027215946,-0.02800745,0.019790038,-0.017300455,0.016716462,-0.024920113,-0.01150116,-0.019846193,0.01846429,0.019509165,0.017440256,0.020152992,0.022805775,0.011412298,0.015680674,-0.02035464,-0.022075929,0.012372473,-0.011663519,0.021946669,-0.020938136,0.022960713,-0.035074253,0.02612142,0.017448297,0.022578929,0.010972245,0.01388073,0.011491331,0.025403839,-0.019540446,-0.013966642,0.027882034,0.0331503,0.0134580415,0.02422783,-0.02332097,-0.018846618,0.024869787,0.01418891,-0.02121692,-0.014726784,-0.016171705,0.027456958,0.014141373,-0.020776056,-0.0177761,0.017667165,0.01366309,0.03090917,-0.018121831,-0.026430957,0.0132887075,0.011326448,0.018875249,-0.020940771,-0.009342023,0.007893138,-0.020769846,-0.018552175,0.024119176,-0.018319115,0.021288242,-0.023175783,-0.01209679,-0.0060660522,-0.019287556,0.016919922,-0.014077176,-0.0132320225,0.017515387,-0.015712675,-0.013438164,0.016197637,0.006488149,0.015584484,-0.020512838,0.029758539,-0.015310042,0.027684117,-0.0144398445,-0.015338244,-0.01991362,-0.014521142,-0.020672232,0.023333665,-0.017067827,0.024404567,-0.02880717,-0.013797591,-0.011962993,0.011850852,0.020297296,0.024648353,0.015298447,0.011154948,0.018700834,-0.02124671,0.011511998,0.014196852,0.024816593,-0.021356527,-0.023353746,0.011102763,-0.021954978,0.009601969
c1ccc2c(c1)-c1ccccc1C2(c1ccc(OCCOCC2CO2)cc1)c1ccc(OCCOCC2CO2)cc1,-0.010356152,-0.00121768,-0.006493345,0.008453509,-0.009808454,0.007889426,0.006079882,0.007822104,0.0046104547,-0.0018798709,-0.007670272,-0.00087094586,0.0057924977,-0.0055290284,0.008962345,0.0046264213,-0.010701766,-0.0007661879,0.00537284,-0.0066521815,-0.0025874972,0.006359705,0.015234513,-0.00277894,0.0062627858,0.0025649276,-0.0016825206,0.0070292894,0.0057437033,0.010881413,0.010717997,-0.0014822492,0.011334727,-0.0030491129,-0.01675714,0.006859956,-0.0071853185,0.0066238437,-0.0038765534,0.0014128063,-0.00504593,-0.013555818,-0.009239961,0.016026596,0.0120216645,-0.01105429,0.004144793,0.0015091959,-0.0021917117,-0.007863249,0.0047534443,-0.010569417,-0.013060525,0.0017990945,-0.0061225304,0.013967412,0.006998558,0.003958557,-0.013140773,0.011460755,0.0017558564,0.013603518,-0.014366616,-0.00070544705,-0.00784932,-0.0004691165,0.01004171,0.0018882807,-0.006652988,-0.00075919833,-0.00056200905,-0.0024462184,0.009642324,0.0152987875,-0.0046409955,-0.00934295,0.01919533,-0.0023935568,-0.003212853,-0.014833008,0.010323441,0.0118677495,0.01191048,0.0075177075,0.0024715688,0.013421852,-0.000719229,-0.015527404,0.0043422575,-0.0030807378,-0.0034981016,0.0043826047,-0.009171315,0.004681749,0.008941542,0.011798872,0.0045537073,-0.009242861,-0.002381633,-0.008744035,0.010914278,-0.0042780833,0.0046361517,-0.008638924,-0.0050452524,-0.0011839475,0.0024488587,-0.009414427,-0.0058212527,-0.010943215,-0.0046549737,-0.015256021,0.009387977,0.00048464444,0.0107728625,-0.006351187,-0.0003869722,0.00551711,0.002896938,0.0053181355,-0.0042965496,-0.010215348,-0.0046548164,-0.0038607374,-0.017834648,-0.0061015487,-0.012014083,0.00027218787,-0.0068486147,-0.008391949,0.0034381049,-0.006674353,0.010412781,-0.010252805,0.00024570618,0.011063008,0.0013573043,0.009955331,0.005979717,-0.0019924957,-0.00082845055,-0.0015732897,-0.0060648224,-0.012724206,0.007261262,-0.00021333387,0.003343163,-0.008196426,-0.0029955534,-0.009177852,0.011899661,-0.007024582,0.004815108,-0.00975546,0.009080416,0.010277414,-0.0052651362,0.0053575,0.003085481,0.0129888635,-0.004507958,0.013647774,-0.0050419117,-0.0061553055,-0.004656121,-0.005436914,-0.0025421064,0.013162947,-0.009599084,-0.013022764,0.0072008222,-0.00043951254,-0.006190806,0.010822188,0.011185292,0.0033046305,-0.0038562212,-0.007071725,-0.010774501,0.007211338,-0.0064515313,-0.0002975925,0.0049875686,0.0025594267,-0.0018698147,-0.008653656,-0.004505649,-0.008893786,-0.006928239,0.00091216806,0.0005027838,-0.009321727,-0.0020742957,0.002508054,0.0035343058,0.015734268,-0.0035307535,0.009529091,0.0052690394,0.0050595026,-0.012796164,-0.0017872714,0.0047290623,0.00052909926,0.0071530696,0.002954226,0.0018471088,0.0023677014,-0.002159169,-0.0033666808,0.0022086212,0.0035163816,-0.003074851,0.013686324,0.009882787,-0.00046008453,-0.004246254,0.0012977123,0.010283096,0.008573775,0.001943489,-0.011480238,-0.009205681,-0.0051315706,-0.010385351,-0.0022090003,0.009082428,-0.011183857,-0.00035151956,-0.00022928137,0.0066014538,-0.0046751704,-0.5233674,-0.0019948967,0.008785773,-0.011884497,-0.0050569046,-0.0076586665,0.0125708375,-0.009315839,0.006659068,-3.6765356e-05,-0.005107686,-0.008325815,0.0050571775,0.01053142,-0.0075122546,0.0044139586,-0.0047864057,0.006469518,0.014481256,-0.003947802,0.006756408,0.0019584727,-0.00524264,-0.012616706,-0.0067252535,-0.007026003,-0.011254743,-0.0059422683,-0.0042154463,0.0015903907,0.0007373793,0.0055061635,0.0041682534,0.01128074,0.0071646306,-0.009313077,-0.0019589718,0.009845452,1.9422849e-05,0.0072162207,-0.0028434573,-0.00890691,0.0017945943,-0.0038912408,-0.0042521837,0.011921924,0.0025236774,-0.002803458,-0.0030957973,0.0040974314,-0.0028862692,-0.0018419218,0.00037992373,0.0060316706,0.0016904958,0.0059489124,0.0017029585,-0.012303326,-0.00010641478,-0.009678337,-0.003179538,0.008648824,0.0033023246,-0.007707484,0.013372866,-0.007349437,-0.005161236,-0.004026618,0.008844338,0.0059819743,-0.0083499,0.0043648276,-0.004324669,-0.0012684704,0.00013685692,0.00044194522,-0.0052300114,-0.007913791,0.0031190878,-0.003399876,0.008986072,0.005020665,0.013724074,0.0007434096,-0.00382202,-0.003580602,0.002188622,0.0076295473,-0.00030181347,0.0032313075,0.0109614115,-0.011687596,0.0043760585,0.0045599025,0.015080445,0.004789054,0.0052056797,-0.009406394,0.007369796,-0.011374382,-0.004500829,0.012030981,0.007705203,0.014925649,0.010019381,0.005305649,-0.008150531,-0.006092876,0.0071570706,-0.014340213,0.0047303904,-0.009812976,0.0041694287,0.009394404,-0.0028371084,0.008017415,-0.01839163,0.007347783,0.007559592,0.012327512,0.0021621364,0.0038748402,-0.0070488574,0.006230399,-0.0019801352,0.010915606,0.016309556,-0.009705074,0.00083613023,0.0022619339,0.00965298,-0.0094498955,-0.0052028415,0.011181298,-0.0011218293,0.0031768046,-0.0032940267,0.00093408395,0.006609762,-0.0088647045,0.0066406745,0.006526432,0.0079570785,-0.0009330455,-0.014732574,-0.0110120755,0.010049274,0.0026161561,-0.0039934535,-0.0058892407,-0.013231324,-0.013425618,-0.011334064,-0.0002229996,0.011651289,-0.016094737,0.008421481,-0.010235783,0.00930712,0.0018549953,-0.008558846,0.000310353,-0.0074082967,0.012436085,-0.0076721925,-0.0050933957,0.008216308,-0.007781881,0.0010418585,0.008392863,0.008156398,-0.004091055,0.003720427,-0.00793064,0.008744555,-0.010942204,0.0084352195,-0.004258385,0.0022972217,-0.005897579,0.0034782095,-0.0020384863,0.0069743437,0.0067760074,0.0043836962,0.010568377,0.0016283686,0.0028079022,0.017415974,-0.0053994693,-0.0047178846,0.0067922156,-0.011927571,0.0061103017,-0.008992999,0.015149375,-0.011151683,0.011126043,0.0049756896,0.0021652398,0.0032550101,0.0076271277,0.002484437,0.015536569,-0.0011839867,-0.0128340535,0.012397223,0.008826402,0.0059191044,0.0050254697,-0.0071011055,-0.0055580833,0.009802761,0.0028190073,-0.009680696,-0.007623162,-0.0032022484,0.004435234,0.0074284757,-0.009132244,-0.015009693,0.007960711,0.004641886,0.009863107,-0.00596458,-0.011558476,0.0021130014,0.004832604,0.006560253,-0.0019813478,-0.008631129,0.008480573,-0.0054564853,-0.007065717,0.007789552,-0.013207223,0.016240329,-0.0075725755,-0.0046955813,-0.011853002,-0.012906223,0.00912394,-0.0076285815,-0.008844696,0.010392255,-0.0059635937,-0.009565945,0.008545489,-0.0007172674,0.003341712,-0.0069026416,0.015365002,-0.008633509,0.015668936,-0.00825509,-0.009767415,-0.0045060976,-0.009696031,-0.0053992663,0.004460249,-0.0038835348,0.00681898,-0.012297817,-0.0054175183,-0.007000422,0.0026444206,0.0053454516,0.006159139,0.00354648,0.0016807141,0.007804591,-0.0023236386,0.0006417725,-0.003661098,0.009177298,-0.01032617,-0.008124767,0.0026592026,-0.0052013397,0.0031616576
Nc1ccc(S(=O)(=O)c2ccc(N)cc2)cc1,0.0008884517,-0.0069561154,-0.009945745,-0.0015897648,0.00069601834,0.0024894564,0.0011452851,0.0040431395,0.011663146,-0.0007659849,-0.0004634289,-0.003957077,0.0022141105,-0.004056086,-0.0006604288,-0.0027528498,8.1257895e-06,-0.0058894195,-0.0014355751,-0.00337533,0.008584637,-0.00036918,-0.0061507653,0.004534526,-0.002062939,0.007424455,-0.009641955,0.0015760828,-0.0003056042,-0.0033867452,-0.0009973638,0.0071262456,-0.004916422,-0.002810659,0.00083129667,-0.007100732,-0.004054182,-0.0039114263,-0.0020643421,0.0016674923,-0.0025279494,0.0026312508,0.004292421,-0.00824994,-4.461361e-05,0.004242886,0.004633851,0.0027443613,-0.0043936456,0.0040127765,-0.0013568271,-0.0029209796,0.0024688412,0.009555156,0.0010527397,-0.007858805,-0.0012879102,0.0041412814,0.0019382583,-0.004073603,-0.010507619,-0.0063387007,0.0033815484,-0.00906859,-0.004229457,-0.010279958,-0.0065125674,0.005699806,0.0019927407,-0.0076867747,-0.0046538315,-0.0018712431,-0.00010264199,-0.010616839,0.0029337592,-0.0057109674,-0.014128046,-0.00538511,-0.004103799,-0.0011706073,-0.0021189507,-0.0039129425,-0.0030057244,0.008282846,0.0063180337,-0.0075774435,-0.007945549,0.0032810066,0.0058786697,-0.0075442926,-0.0052292906,0.0022640359,0.004194511,0.004643302,0.0050513567,-0.009124342,-0.004374892,-0.0037609236,-0.002489009,0.003984429,-0.00047975266,-0.0019525969,0.007485088,-0.005956472,-0.014696347,-0.007995881,-0.0067836773,-0.0014209077,-0.004993783,-0.0019348338,-0.00091631804,0.010299316,-0.0054300707,0.005571942,0.0006974172,-0.004168083,-0.006965324,0.009726292,0.008014776,0.0049587456,-0.0050882474,0.0007191114,0.0021094633,-0.0039398978,6.3788146e-05,-0.0022918005,0.0018071439,0.0032834176,-0.0048826295,0.0067729577,-0.0006806413,-0.0016399948,0.0070001557,-0.0022187661,0.005808549,0.0007921662,-0.008496253,0.0021388289,-0.001281254,-0.00918494,0.0097693745,-0.010587991,0.0026924377,-0.0090232575,0.0024071885,0.011085437,0.00823935,0.0038701668,-0.0051541636,-0.00043454487,-0.005615281,-0.00078965514,0.006717854,-0.00044604857,0.0014791545,0.00073433854,-0.000379581,0.012521194,0.0017996002,0.0015133414,0.010535388,-0.0063405717,-0.0055474862,-0.002439049,0.004338637,-0.0008374378,-0.009443842,-0.0038738565,-0.0011614971,0.0016401422,-0.00033568477,-0.0069911564,-0.00042940397,0.0016175264,0.0019368802,0.0022185985,-0.0017548352,0.005889075,-0.006019186,0.0024406584,-0.0067833355,0.0038608862,0.0027706968,0.005591826,-0.0030740588,0.00512743,-0.009268716,0.00039270497,-0.004910076,-0.0042443974,0.007124485,-0.0050864224,-0.009763072,0.0015927905,-0.0064695617,-0.0037113987,0.00014076754,3.6599115e-05,0.005190611,0.0069956495,0.003396994,-0.004092155,0.0048150793,-0.00629789,0.0037877709,-0.009652263,0.0042385813,-0.0061127692,-0.008447186,-0.010670776,0.0029732483,-0.010094023,-0.004081264,0.0018267175,0.0015268726,0.0047293324,0.0114625385,0.00433651,-0.0006840732,0.0035349752,0.0018807756,0.0010353052,-0.0015025418,-0.000706939,0.0033782274,0.004755093,-0.00074516796,0.00030904636,0.00877202,-0.011181507,-0.0011694673,-0.00254523,0.9298775,-0.005074829,0.0014408864,0.006534467,-0.005680874,0.0016149329,-0.0077018766,0.0039157867,-0.00071711,-0.014139768,-0.0044136895,-0.0028045168,0.0022859732,-0.0010572828,0.0062632114,-0.00024528056,0.012662827,0.0071128104,-0.005973989,-0.0033911802,0.0011808332,0.0035171048,-0.00050147343,0.0006934735,-0.0026779966,0.0025728196,-0.0012871628,-0.0052677924,-0.008045824,-0.008794462,-0.005284747,0.0017000735,0.0058934763,-0.004646656,0.0018621129,-0.006673841,-0.008010937,-0.007554165,0.006749939,0.00069064554,-0.0084578805,0.00039085012,0.009956877,-0.012254011,0.0011094809,-0.006357303,0.0022622347,-0.0014847405,-0.0045962613,0.00371204,-0.004502805,-0.0038397487,0.0015101759,-0.00070296787,-0.01162073,0.00067996234,-0.00030375924,0.0069435006,-0.009650096,-0.0034006205,0.00031988136,0.0014233831,-5.9708953e-05,0.0031221386,0.0021622572,-3.689155e-05,-0.0064635994,-0.0010596095,0.0017747525,-0.0034425296,0.0066918414,0.0037965048,-0.002104808,0.0052640554,0.00816722,0.002004482,-0.0027210843,0.0005173562,0.0058853747,-0.007671957,0.003680517,0.005033776,-0.008162212,-0.006554338,0.00646293,-0.0055293124,0.0028065564,-0.0012330599,-0.011088401,0.007891612,0.005411364,0.0017968789,0.0022242994,0.009449281,0.0053706774,0.011368031,-0.001887735,-0.0011312421,-0.00052677654,0.0039671687,-0.00017472077,-0.004364038,0.005448317,0.0019854065,0.0023651305,0.006973451,-0.0023317495,-0.004417736,0.005734099,0.00235595,0.0044457503,0.00064475276,0.008494511,0.0054052994,-0.004677603,0.00030587427,0.012107051,0.0024249894,-0.0027963668,-0.0027836785,0.0035605005,0.005972244,0.0030263402,0.001412855,-0.00619982,-0.0040369984,-0.0016663233,0.0030518766,-0.003144456,0.007674395,-0.00016064197,-0.0046629035,-0.007504939,0.00016767625,-0.0049578417,0.0027358076,-0.0050646476,-0.0064174067,-0.0027348835,0.0036366507,0.0023581274,0.008100741,0.0014652768,-0.0016375072,-0.0012303076,-0.008530721,-9.2328526e-05,0.0031851523,-0.0040717646,0.0118829645,0.0050836345,0.0049524605,0.0003586784,0.0035631508,0.0008401796,0.001937788,-0.003176758,-0.0073025962,-0.006463906,-8.972548e-05,-0.0024318341,-0.008490325,-0.0002818592,-0.0037882132,-0.000736312,-0.0044727605,0.008488145,0.00024085166,-0.013639133,0.0012955479,0.0023287646,-0.00039698184,0.0037749168,-0.004801249,0.0015231073,-0.0027737338,-0.0016621985,-0.0044817943,0.007971776,-0.006415804,-0.0044582784,-0.0047395434,-0.0014754264,-0.0011705183,0.007435277,-0.0020476896,0.004073309,0.0037968718,-0.004314172,-0.008546792,-0.005513262,0.008999566,0.0047220252,0.0021041855,-0.0037715565,0.0018714219,-0.0015485585,-0.001974858,-0.0016743131,0.005620837,0.010927822,-0.0022636047,-0.001344746,-0.0029550204,-0.005593189,0.002349767,-0.0077106813,0.0049286145,-0.0020723147,0.0045783734,-0.0068644173,-0.003495342,-0.0002079485,0.0030899663,0.0011593188,-0.0013903894,-0.0059390413,0.0018794872,0.0011579785,-0.000803777,0.00072493684,-0.0038959347,0.005448834,0.005765941,0.00080453465,-0.0022974275,0.004803892,0.0037431763,-0.0041407133,0.00035728235,0.001953913,0.002087514,-0.0027794898,-0.0024910755,0.00013752165,0.006015649,-0.008633184,-0.004192503,-0.0062938817,0.005077202,0.0076858043,-0.002494702,-0.0058514504,0.0005452242,-0.005479999,-0.0051706424,0.0040876213,-0.001496261,0.008623321,0.0072604697,-0.0060853763,-0.00070557557,-0.0046915994,0.004262581,-0.0040741535,-0.0011581199,-0.0019412278,-0.0007697005,-0.0051614232,0.008468556,-0.009924053,0.0038224175,0.0030168593,-0.0012721466,-0.0023436858,0.008994958,0.0033473587,0.005326463,0.009232276,0.0073759262,-0.00055067614,-0.0036596134,0.00425384,0.008630978,0.0012856396,0.004194703,0.003593684,0.00081951544,-0.0029947665,0.0033045933
CC(C)(c1ccc(OCC2CO2)cc1)c1ccc(OCC2CO2)cc1,-0.0010614985,-0.0058119316,-0.0050986344,-0.00085114967,-0.0059183054,0.0062577417,0.0022036522,0.00046201888,0.007425949,-0.0044188667,-0.0018041544,-0.0067138034,0.005394806,-0.0030608801,0.0010911096,0.0029213857,-0.0038653314,-0.0027165934,0.0012334865,-0.0044189394,0.008556431,0.005756324,-0.002321668,-0.0039964356,0.0019204493,0.009428134,-0.0050052167,0.0030290652,0.0041840174,-0.00063937996,0.0027795031,0.0040892716,0.00085894763,-0.003137868,-0.004043852,-0.0009955876,-0.004976132,0.0021520904,-0.002919598,0.0034944122,-0.0051095383,-0.0024802787,0.001421911,-0.0039257444,0.00077359425,-0.003207827,0.004873253,0.0034157885,-0.0019910631,-0.002360524,0.004781451,-0.0030366536,-0.00012956373,0.008176042,0.00025936056,-0.0038796295,0.003806767,0.0015607597,-0.0023869183,0.0008607105,-0.0051447563,-0.0007240791,-0.0024785064,-0.007234251,-0.0071653845,-0.010788228,0.0019610804,0.0062089097,-0.00020359922,-0.0031196638,-0.005201353,-0.0061760545,0.0035150712,0.00012421608,-4.8978254e-05,-0.0066496436,-0.00017127162,-0.007324081,-0.0052260314,0.00028748624,-0.0029348433,0.0012403093,0.0010355301,0.007645108,0.0056959763,0.0009485418,-0.0052344548,-0.003267806,0.0035102628,-0.006341176,-0.0076781455,0.0009330418,-0.0028836685,0.002836931,0.0046558296,-0.0037975963,-0.0016465429,-0.0029545082,-0.003811827,0.0019192975,-0.000354731,-0.0009337105,0.008309813,-0.00204755,-0.010342676,-0.0031472445,-0.009088676,-0.0024773981,-0.005121906,-0.0036272053,-0.0021500308,-0.0022741742,0.00022864342,0.0050270185,0.0026336592,-0.0025917143,-0.008325063,0.010570264,0.0055208453,0.0039064502,-0.008682681,-0.0026519448,-0.0003901953,-0.0030252342,-0.0047083125,-0.004345197,-0.0006167777,0.0038469702,-0.0070985593,0.00046147592,0.001271809,-0.0049402593,0.009097589,-0.002973646,0.0056569595,0.00421511,-0.007821694,0.005755866,0.0052241087,-0.00877583,0.004163472,-0.0077882865,-0.00097291917,-0.00711896,0.0011402583,0.0072787125,0.0051492983,-0.0022925562,-0.0037530055,-0.0033321744,0.003913629,-3.1010015e-05,0.003398496,-0.004513037,-0.0012489278,0.0026052091,-0.0047474103,0.0054752007,0.004515223,0.0043053343,0.009573864,-0.0005737515,-0.004867791,-0.006961669,-0.0005304236,-0.0010731854,-0.0069727274,-0.0003363907,-0.003521163,-0.0018201522,0.006309911,-0.0070527038,-0.0007580975,0.005575227,0.0054649785,0.002245156,-0.0040648263,0.0016126595,-0.007407991,-0.00070520677,-0.0043107,0.0036225216,0.0027981796,0.0050786654,-0.003831746,0.00056050485,-0.0007418599,-0.0074980827,-0.0068402495,-0.007288863,0.0089765275,-0.005872522,-0.0072310064,0.0063169277,-0.0009836697,0.0016944893,-0.004514193,0.0028282404,0.0048882253,0.005544988,-0.0030011702,-0.003598461,0.0033332296,-0.0067355204,0.0026446208,-0.0047659297,0.0032671131,-0.0065047797,-0.010357799,-0.006378193,0.0054895068,-0.00817398,-0.0035888012,0.0028767972,0.0019929009,0.0070567783,0.0057012225,0.0074995253,0.0023170114,0.0062909904,0.003339046,0.0010970519,-0.0009747483,-0.0018469356,-0.00044738315,0.0057304613,0.003078361,-0.0034419857,0.01054143,-0.0069480073,0.005567086,-0.003796406,0.52727246,-0.0058900006,0.00077116303,0.0028824443,-0.0046499576,-0.0040456187,0.00016902061,-0.00242351,0.0017005652,-0.011119425,-0.0044755004,-0.0038815103,0.0062599434,0.0016332502,-0.00052980334,0.00384848,0.004794007,0.0048752297,0.0015105363,-0.00612268,0.005715089,0.0075293644,-0.0061298795,-0.0047246655,-0.0051898686,-0.0037788197,-0.004570451,-0.007500086,-0.0036823938,-0.005937418,-0.005540855,0.003464846,0.00681609,-0.000845572,0.0032760086,-0.006381301,-0.0049731303,-0.0022697803,0.0073740305,0.004007795,-0.0037052203,-0.0055326647,0.006036212,-0.008550565,-0.002182318,0.0018207338,0.0028531589,-0.0038187355,-0.0033136196,0.002840137,-0.004714869,-0.0063242177,0.0018513734,0.0049430486,-0.008461071,0.0072889235,0.0014141307,0.00065699033,-0.00846637,-0.0029471167,-0.004535136,0.0057546794,0.0019651707,-0.00083408784,0.0044677276,-0.0031224769,-0.007192361,0.0013972856,0.0036627408,0.0011687931,-0.0026408695,0.0061847987,-0.0025588651,0.0015383208,0.002521642,0.00611129,-0.0035023354,-0.0035708938,0.0021604327,-0.0007853138,0.006053659,0.003324112,-0.0004801713,-0.0061288653,0.005918716,-0.0057326574,0.0028205467,0.002026707,-0.008380512,0.01096936,0.006537674,-0.00438477,0.006470139,0.0077332594,0.008799389,0.008382551,0.0025290474,-0.0033333367,0.00041068718,-0.0008989144,-0.0004434036,0.0039128456,0.006274013,0.003923688,0.0014815237,0.0070292586,-0.0017760266,-0.0025261967,0.004193805,-0.0019143363,0.0033084191,-0.002438292,0.004322105,0.012120911,-0.001171343,0.00554711,0.0020084055,0.0037489599,0.0012592605,0.0011248561,0.0034949316,0.005059121,-0.0042935554,0.0044486285,-0.004237813,0.0015698001,0.002841032,-0.004215582,-0.0051122224,0.004958107,0.0038027167,-0.0027457154,-0.007970293,0.0052779047,-0.004469378,0.0022949176,-0.00403729,-0.006898567,0.0035297489,0.00032629445,0.0015667155,0.0021710428,-0.00037668092,-0.005436156,-0.00879615,-0.009978974,0.0014705979,0.008289292,-0.0053945994,0.006269595,-0.0006968463,-0.0021242946,0.00026755035,-0.003742056,0.0041920245,-0.0025315098,0.0039778017,-0.008635327,0.0012329668,0.0030388534,-0.0061293105,-0.0035506831,0.0011123661,-0.0020379452,-0.004078013,-0.0028131437,0.0063855858,-0.003654073,-0.0067563783,0.002800176,-0.001234753,-0.0057609202,0.0032866355,-0.005018078,0.0012326296,-0.0050414484,-0.0004946105,0.00020607375,0.008220148,-0.0062193163,-0.0054631084,-0.005992839,0.0027042655,0.0005068504,0.006368394,0.0011556502,0.0053620413,0.0029721651,0.0002671301,-0.0056247525,-0.006963648,0.0039745,0.0030904822,0.0031361794,-0.0059180073,0.0010062493,-0.004434023,0.0073406333,0.0034428937,0.008475469,0.0055988445,0.00059177354,0.0014451612,0.0020332811,-0.0040689595,0.0017940989,0.002279054,0.007859679,0.00083831884,0.0056306496,-0.0077408757,-0.0033440124,0.0053341594,0.0020557623,-0.0051968507,-0.00092729623,-0.0028697327,0.0067124683,0.0005015712,-0.0058930246,-0.0016699554,-0.0006426908,0.006907548,0.009006002,-0.00025500637,-0.0035409853,0.0070244027,0.003504022,0.0028650388,-0.0053468193,-0.00018458813,5.7479367e-05,-0.0049263523,-0.0023022052,0.0028280942,-0.00034114346,0.0036036689,-0.0019239262,-0.005457841,-0.0011963528,-0.00035705464,0.0033432916,-0.001686261,-0.0008514542,0.0010731965,-0.0027561912,-0.0005313121,0.0016585228,0.0028144903,0.0054287873,-0.0025510192,0.002645175,-0.0057781185,0.004665796,-0.0015352648,-0.00087708025,-0.0018417728,-0.0014379504,-0.0066689905,0.008819339,-0.007807357,0.0017789504,-0.0023628436,0.0021977536,-0.0002690393,0.0063633425,0.003606148,0.004067515,0.0074453494,0.002943267,0.003437737,-0.004057115,0.0071021128,0.007430775,0.0027019575,-0.0018694503,-0.0021956358,0.0018196274,-0.0031835362,0.0018052701
CC(N)COCC(C)OCC(C)OCC(C)OCC(C)OCC(C)OCC(C)N,-0.006920716,-0.011166368,-0.015701868,0.008729838,-0.0112603055,0.01609228,0.008528275,0.008527583,0.010983981,-0.014061753,-0.0020504892,-0.010935578,0.01498394,-0.0077961143,0.009717555,0.0041686967,-0.008456789,-0.007505879,0.005436429,-0.009923072,0.011959005,0.01425162,0.008613159,-0.008722351,0.008361206,0.012535419,-0.0138008855,0.011588626,0.014802834,0.004548718,0.0066893483,0.010699967,0.00713413,-0.0090203155,-0.01813973,0.0076074786,-0.011499851,0.004070393,-0.011187505,0.012218872,-0.016254675,-0.016321406,-0.007280177,0.0038287397,0.009810209,-0.010558367,0.00616219,0.0107757645,-0.01641965,-0.009382557,0.010822777,-0.009279505,-0.0072432775,0.011223291,-0.0075101736,0.004118981,0.012350226,7.84928e-05,-0.012129629,0.008379004,-0.011433373,0.005868444,-0.0103077935,-0.010696974,-0.011419463,-0.017105484,0.0052729584,0.0112823825,-0.010449735,-0.0062283785,-0.011840796,-0.012709951,0.0106719015,0.0057792403,-0.0065333648,-0.012976946,0.006857064,-0.007133752,-0.012947468,-0.0061076274,0.00043763965,0.008850555,0.004544737,0.020407693,0.008521568,0.0076805763,-0.012179794,-0.009854803,0.008351667,-0.010725902,-0.015164705,0.007901033,-0.0133090485,0.008638017,0.011185727,0.0036999378,0.003943853,-0.009193042,-0.012004862,-0.004584316,0.0055273566,-0.0048376517,0.017826993,-0.010333203,-0.02115425,-0.0089407,-0.010836719,-0.014567435,-0.010140504,-0.0054507935,-0.009080378,-0.008855088,0.005669224,0.008120429,0.010733371,-0.011266073,-0.011089778,0.018094502,0.0088458825,0.009177406,-0.016076323,-0.01800275,-0.007528183,-0.0062717656,-0.017438147,-0.013236119,-0.0065173684,0.00989992,-0.014413141,-0.008148081,0.0025874313,-0.01163475,0.02242214,-0.008675657,0.0058089253,0.009027962,-0.006656263,0.010245587,0.009821199,-0.01713789,0.009611055,-0.01079129,-0.00791781,-0.013919863,0.00734013,0.00785446,0.007655791,-0.010391917,-0.009528347,-0.009025873,0.012978645,-0.007266329,0.008601509,-0.017145898,0.004978778,0.014427809,-0.009656333,0.0028299466,0.012006015,0.0127308015,0.013558364,0.010828059,-0.01667669,-0.012351783,-0.0071552787,-0.009996341,-0.012733914,0.007873841,-0.013761822,-0.007974646,0.012335025,-0.015288451,-0.0074152704,0.014333383,0.015948676,0.004386856,-0.013260799,-0.0044488222,-0.01702317,0.00019227434,-0.006458207,0.005188319,0.009231124,0.010142778,-0.0076358104,-0.004320576,-0.0009576734,-0.0156627,-0.009381322,-0.0074112024,0.011140116,-0.013172325,-0.012540085,0.01310139,-0.010322887,0.009544102,-0.010572516,0.010029025,0.0110142995,0.010976464,-0.006511598,-0.013351776,0.010214284,-0.008793332,0.010783898,-0.008036409,0.013847247,-0.012384778,-0.017721739,-0.0074409777,0.0128860315,-0.008630101,-0.0077935513,0.011713065,0.010667281,0.015658252,0.009625939,0.011088362,0.01010269,0.015139938,0.010942117,-0.004654006,-0.0077067846,-0.009515842,-0.007822533,0.011631869,0.005890347,-0.0068030357,0.01402066,-0.01252025,0.014171678,-0.0076568406,0.37505925,-0.012023006,0.01138037,-0.005189296,-0.010091977,-0.007769699,0.00036692992,-0.009833412,0.0049394313,-0.01525406,-0.014104837,-0.0107215615,0.012575219,0.009128403,-0.011437881,0.0038364604,0.012133522,0.0110866595,0.009322893,-0.011695404,0.013379363,0.015163539,-0.015153451,-0.011329991,-0.007373198,-0.009945098,-0.0103951,-0.011841771,-0.0034516756,-0.013632628,-0.008616503,0.013643283,0.013444845,0.008074993,0.007687532,-0.015405962,-0.0077621713,0.006105,0.014241834,0.009011105,-0.0089052785,-0.013656732,0.01541434,-0.0138072,-0.013813121,0.009008484,0.008847725,-0.01094731,-0.0060929395,0.0059480835,-0.011826521,-0.014645781,0.011732217,0.010694299,-0.014435494,0.009952885,0.009660473,-0.009884318,-0.014400717,-0.009403583,-0.016547412,0.009853808,0.011274127,-0.004385433,0.017933976,-0.0034227613,-0.016480168,-0.00533111,0.005441256,0.008389521,-0.009056994,0.011972879,-0.011203878,0.0050617107,0.007114005,0.011857223,-0.007567401,-0.008458316,0.013145788,-0.0074004764,0.01997576,0.009901211,0.007970143,-0.013821802,0.009571897,-0.014187671,0.0029094154,0.009327453,-0.01456796,0.015151226,0.018582137,-0.015448838,0.010885826,0.016652895,0.020510146,0.014023323,0.0031416863,-0.013663014,0.0055374475,-0.010290112,-0.0075275013,0.0074087474,0.015666254,0.017410804,0.0108658485,0.016482446,-0.007634411,-0.012171909,0.010007469,-0.016525116,0.008159096,-0.009744964,0.009022297,0.02110127,-0.004147744,0.019634169,-0.0024256501,0.006842516,0.011388539,0.007696398,0.008593097,0.014767544,-0.011521491,0.011958949,-0.008586548,0.0076300353,0.013114571,-0.010178991,-0.007642762,0.0069185263,0.0063146,-0.011608169,-0.01056264,0.014984849,-0.006934477,0.0025921864,-0.013361945,-0.015538633,0.0072368886,-0.008677016,0.005475441,0.005049866,5.839055e-05,-0.0120711215,-0.015657485,-0.018055234,0.0073131663,0.014422237,-0.012566069,0.01404826,-0.0066558067,-0.0063222125,-0.0044965856,-0.0119027775,0.01742696,-0.012020044,0.010166828,-0.013255313,0.008302209,0.007273523,-0.011107615,-0.0068476396,-0.009435985,0.0017703027,-0.016235141,-0.008491822,0.011132716,-0.0123622725,-0.012149358,0.010019458,0.007914327,-0.014416142,0.006922195,-0.01488783,0.013456233,-0.016424768,0.009051647,-0.008550795,0.010435325,-0.013818494,-0.007013685,-0.012864312,0.010513491,0.010612783,0.0120401755,0.0065776715,0.012864284,0.0062809195,0.00528307,-0.011785017,-0.013363676,0.007465185,-0.004780045,0.012297871,-0.012573593,0.01004008,-0.018745102,0.013228609,0.010664498,0.014349218,0.008403346,0.0065536313,0.0073689492,0.010508012,-0.008609988,-0.004508979,0.013850905,0.019113677,0.006639499,0.0143321045,-0.01566308,-0.008788737,0.0118002,0.0076767905,-0.010496203,-0.009495292,-0.00931439,0.016396616,0.006269221,-0.012742861,-0.00857802,0.006283041,0.009375594,0.019097343,-0.007828696,-0.012360957,0.010783552,0.0072223963,0.009330349,-0.014751783,-0.004926223,0.0039772065,-0.013844671,-0.0103494,0.013469565,-0.008921797,0.0096026,-0.011970091,-0.01119983,-0.00037921034,-0.010370778,0.009774761,-0.005523746,-0.003060935,0.008772792,-0.009875517,-0.006530733,0.0075610103,0.005253925,0.01020962,-0.010658865,0.01535765,-0.007335437,0.014971133,-0.007555305,-0.009283982,-0.009675283,-0.0074622324,-0.013442026,0.016982181,-0.014200773,0.011725793,-0.012575403,-0.0051207393,-0.0055967867,0.009978159,0.011804189,0.016213264,0.0118347,0.009026686,0.011613572,-0.011584214,0.009478035,0.011003492,0.014438991,-0.012630618,-0.01080122,0.0070901373,-0.011946034,0.0062997118
NCCNCCN(CCNCCC(CN)CCN)CCN(CCNCCN)CCN(CCN)CCN,-0.010367187,-0.015574381,-0.018752785,0.012958409,-0.014755625,0.019119592,0.009487636,0.0110753765,0.012696542,-0.01906333,-0.0047308523,-0.013860364,0.018563151,-0.010451155,0.014826442,0.0065311603,-0.010086939,-0.010326959,0.008402387,-0.012313352,0.013331838,0.014788948,0.01168257,-0.010880353,0.013069354,0.01516927,-0.015837938,0.010661885,0.016708264,0.0042948974,0.008845665,0.012545793,0.009923695,-0.010516046,-0.024048535,0.01139638,-0.015299641,0.0054359613,-0.012526676,0.015115475,-0.021876646,-0.020192884,-0.011007295,0.0062727183,0.014972141,-0.012849068,0.0096445475,0.01144271,-0.019098591,-0.011946904,0.012854102,-0.010927145,-0.008298179,0.009310445,-0.010300167,0.00767844,0.014062426,-0.0005120775,-0.015744088,0.011909691,-0.013741288,0.009478411,-0.01534185,-0.011416003,-0.015061015,-0.019033896,0.008541785,0.011999808,-0.014485171,-0.007286742,-0.01583778,-0.01751883,0.013844711,0.010086507,-0.008445613,-0.015870508,0.010200624,-0.010048121,-0.015404752,-0.008708913,0.0021908358,0.010503904,0.005394835,0.026421055,0.008436276,0.010789953,-0.0140323825,-0.009752056,0.009094371,-0.012244787,-0.018829534,0.009163674,-0.017309772,0.0118102245,0.010443859,0.0059980424,0.005281182,-0.010498111,-0.013723541,-0.008278128,0.007579147,-0.004862261,0.020936642,-0.012493085,-0.028885026,-0.011044154,-0.012525214,-0.017635092,-0.011088339,-0.0067063225,-0.011327444,-0.01303279,0.00683237,0.01099865,0.014220168,-0.011842933,-0.012049029,0.023230046,0.011267145,0.009983255,-0.01966052,-0.021973914,-0.010086109,-0.008723474,-0.020117816,-0.017583873,-0.011838641,0.012024188,-0.017197842,-0.011459739,0.0015536305,-0.015918778,0.026764074,-0.010293666,0.0074903667,0.011641735,-0.008348146,0.013069832,0.014925077,-0.018432895,0.010246163,-0.014184154,-0.012258628,-0.01800688,0.009152096,0.010502973,0.006861332,-0.015199155,-0.011631913,-0.011875306,0.015203801,-0.008684676,0.013422415,-0.022473115,0.006552534,0.019430311,-0.01114533,0.004331665,0.016912676,0.0149642695,0.015006496,0.015942035,-0.020626634,-0.015820257,-0.010899406,-0.012563614,-0.014208103,0.010503425,-0.018256754,-0.011490387,0.015393355,-0.016162366,-0.00925927,0.018696882,0.019760758,0.0049351165,-0.016942337,-0.0060820193,-0.022977866,0.00017351937,-0.008879111,0.008083877,0.012284493,0.0133794295,-0.008737528,-0.0060714926,-0.0033323914,-0.020202445,-0.013111724,-0.00963624,0.011238152,-0.016550355,-0.016450861,0.012887402,-0.013110632,0.0119743,-0.015713373,0.013230555,0.016498588,0.012555028,-0.007068741,-0.01730351,0.011689793,-0.012442515,0.01348827,-0.009781778,0.01639086,-0.0135189835,-0.02099139,-0.008421233,0.0161592,-0.009052788,-0.009260748,0.015679803,0.013067029,0.0175599,0.012710466,0.013829306,0.013263991,0.019013222,0.015619952,-0.008003675,-0.008563123,-0.01189696,-0.011395255,0.015072707,0.008883744,-0.009912818,0.01633219,-0.015473735,0.017613567,-0.008632671,0.3317489,-0.013657846,0.01448281,-0.008561983,-0.0099557135,-0.011510826,-0.0029632126,-0.013717761,0.005841907,-0.017812703,-0.017926255,-0.013558649,0.017068736,0.011383181,-0.010392183,0.005579153,0.01401422,0.01444601,0.012776421,-0.014073306,0.016290871,0.017595116,-0.01875984,-0.015339981,-0.009902935,-0.0110987155,-0.014379503,-0.014910546,-0.0049098623,-0.015997265,-0.009900995,0.015765468,0.015417885,0.009794094,0.010660905,-0.01953616,-0.0128437895,0.009318106,0.013915061,0.010195956,-0.009677621,-0.01634669,0.01871233,-0.016981024,-0.018659107,0.014182258,0.011731766,-0.011662151,-0.005658062,0.007523081,-0.017742554,-0.017089983,0.01471974,0.011109013,-0.015864793,0.011590658,0.011002155,-0.012407713,-0.018916884,-0.01157195,-0.018513327,0.012022715,0.013922708,-0.007060405,0.023472324,-0.004950626,-0.018278817,-0.009442308,0.0073662624,0.010979454,-0.013463378,0.013523326,-0.013911889,0.0078007,0.0073400014,0.014764709,-0.01086397,-0.011995574,0.015720528,-0.009515249,0.024878006,0.011664854,0.010775421,-0.0165569,0.011651989,-0.018230202,0.006342062,0.011295302,-0.017381,0.016725758,0.021013742,-0.02090557,0.011434311,0.021144742,0.026961863,0.01817676,0.0029894765,-0.017917143,0.007408767,-0.011618141,-0.009102887,0.01140389,0.020923976,0.02309695,0.012250135,0.02094007,-0.010068577,-0.016231116,0.011250364,-0.022443432,0.011395181,-0.014438551,0.010350054,0.025384609,-0.0049995985,0.02476529,-0.005179632,0.0122136995,0.013407441,0.009833794,0.0097331805,0.017257314,-0.015696842,0.014660031,-0.01067102,0.010934618,0.01702005,-0.013212955,-0.008834586,0.008171142,0.0077176094,-0.015033219,-0.011987459,0.021447256,-0.008313174,0.0035521789,-0.016672287,-0.019056115,0.007923848,-0.014122368,0.0070203766,0.007016613,0.0031471967,-0.015847879,-0.018802162,-0.023650704,0.008760313,0.01781227,-0.014953613,0.015154327,-0.008793355,-0.0100171445,-0.0056957696,-0.013614643,0.02246473,-0.016157586,0.012616668,-0.014317125,0.012007608,0.007824466,-0.013272716,-0.009971899,-0.012756854,0.0034985184,-0.021526732,-0.010169074,0.014379206,-0.014086801,-0.013069445,0.012180483,0.010819355,-0.016253974,0.0062168213,-0.018176956,0.018991096,-0.020079888,0.010620499,-0.010787323,0.016324388,-0.017171144,-0.008099346,-0.015640024,0.0117323985,0.014689174,0.014304759,0.011211488,0.015344536,0.00914624,0.00492974,-0.014174342,-0.015553096,0.009052927,-0.0073537976,0.013733547,-0.013618138,0.014430763,-0.024235118,0.01701505,0.01318164,0.017533321,0.009884948,0.0087483935,0.009799481,0.012632639,-0.0117041245,-0.007121574,0.016868638,0.022242513,0.0085698925,0.0192851,-0.018230569,-0.011301324,0.015543999,0.009529395,-0.013880972,-0.011294047,-0.011075316,0.020121101,0.010324926,-0.015657078,-0.011176885,0.010678651,0.010975302,0.024288058,-0.011635932,-0.01599643,0.01408486,0.006172157,0.013066499,-0.020230832,-0.0058694277,0.004750957,-0.016570346,-0.010357484,0.017352939,-0.01259548,0.012345963,-0.015058734,-0.012298563,-0.000895679,-0.0123568475,0.012244096,-0.007870351,-0.0056780763,0.012948927,-0.010983079,-0.009305238,0.011240014,0.006444617,0.011294814,-0.013713677,0.01831682,-0.009106722,0.017397603,-0.0074911388,-0.010448884,-0.013198359,-0.007945166,-0.017492272,0.019752784,-0.014049692,0.015907532,-0.017030738,-0.008086056,-0.0076781977,0.011144894,0.013129879,0.020492058,0.015402084,0.012542823,0.016642734,-0.013420664,0.010382006,0.011567524,0.01809235,-0.014013053,-0.015070823,0.008105072,-0.016321128,0.008162728
CC(N)COCC(C)OCC(C)OCC(C)N,-0.0036606968,-0.0147384,-0.017899277,0.006380124,-0.0016865656,0.01017135,0.0075249835,0.009164346,0.015100412,-0.006827479,-0.0015568482,-0.009686217,0.00908966,-0.012047365,0.0084685,-0.006061686,-0.0014926204,-0.011052065,0.00080713397,-0.008553834,0.0152709205,0.0035983212,-0.001647735,0.0045882575,0.001637563,0.013352901,-0.01747445,0.0045395885,0.0037912508,-0.00028553698,0.0024643335,0.013472297,-0.0034189504,-0.0071467273,-0.006365453,-0.0026140139,-0.011212484,-0.005638781,-0.010938102,0.008212522,-0.011798252,-0.0028795777,0.0006156119,-0.004771972,0.009048732,0.00023049861,0.006720949,0.007948017,-0.019638415,-0.0009899498,0.00529721,-0.011069401,-0.0038871188,0.0148504395,-0.010790657,-0.0021328465,0.000100235455,0.00727785,-0.0046884827,-0.0010299534,-0.017797187,-0.0054740943,0.0003774725,-0.01491664,-0.0080699315,-0.016797747,-0.008005455,0.011502234,-0.006881285,-0.014058938,-0.009222871,-0.0056098215,0.0018880786,-0.0076212473,0.0015813988,-0.006043779,-0.015886616,-0.009812433,-0.012442338,-0.007455311,-0.00038509443,0.0013994761,-0.0043433886,0.017331373,0.010908589,-0.009539009,-0.01370617,-0.0019780472,0.009213643,-0.0124085285,-0.011677058,0.008912209,-0.003845557,0.009812415,0.009273166,-0.006791101,-0.0006174138,-0.009956552,-0.011308184,-0.0012746453,0.0041194903,-0.007833786,0.013042122,-0.0122812055,-0.029753108,-0.015771404,-0.007757332,-0.011485983,-0.010719955,-0.0035571437,-0.0044844877,0.014500992,-0.0036333734,0.013020755,0.008920073,-0.012036467,-0.0066725393,0.01690851,0.010309771,0.009960603,-0.011529941,-0.009928933,0.001766176,-0.008043081,-0.004637964,-0.010576132,-0.0010997243,0.0066897217,-0.008356952,0.004909875,0.0022450867,-0.0060352553,0.014724398,-0.007404132,0.0073159896,0.0032379758,-0.01094085,0.0062223766,-0.00066261925,-0.018452648,0.014383851,-0.019111298,-0.0041070553,-0.016351286,0.0069685173,0.015350916,0.010896161,-0.0032373238,-0.009416719,-0.005848014,-0.0006761439,-0.0048197675,0.012238881,-0.009496842,0.0041415896,0.009696457,-0.0044641523,0.014352826,0.0073896497,0.008186032,0.014865961,-0.0025816904,-0.014413019,-0.008485663,-0.00035137683,-0.006580035,-0.018703459,0.0031064465,-0.0056409854,-0.0041861515,0.0029634673,-0.012727748,-0.0041856384,0.009144474,0.009832035,0.0050915917,-0.010565188,0.001383516,-0.0166197,0.0046335524,-0.012463898,0.005500096,0.009065064,0.01600727,-0.007392914,0.003895592,-0.0114043,-0.0023103144,-0.007966019,-0.0038459888,0.0097092865,-0.013222767,-0.016825838,0.008455772,-0.014910432,0.00029800087,-0.0032748778,0.0062170867,0.012906404,0.011412131,-0.0003771456,-0.015646163,0.015058044,-0.008077921,0.011842148,-0.014153757,0.01483647,-0.013554884,-0.011391332,-0.014945274,0.0057695964,-0.011568701,-0.0094890315,0.009207463,0.007090252,0.012912542,0.019923251,0.007828305,0.0056761764,0.008462471,0.009570604,-0.0025009564,-0.004031999,-0.0056595244,-0.0007373411,0.008313836,-0.001096956,0.0027690893,0.013037312,-0.018013183,0.0041501923,-0.0061458945,1.0406154,-0.0105723785,0.0071746986,7.245131e-05,-0.010928666,-0.0012723953,-0.009647563,-0.0002922807,0.0008216044,-0.016588116,-0.011217278,-0.0066320626,0.007984712,0.0042838487,-0.00013753772,-0.0024136398,0.020368747,0.012544585,-0.00024741702,-0.008504441,0.004422581,0.0065083285,-0.0084111355,0.001500973,-0.0064067924,0.0015633972,-0.006001715,-0.010707452,-0.009182433,-0.012566207,-0.006517522,0.012907915,0.007998054,-0.0013457332,0.005805478,-0.01244942,-0.014980203,-0.0045766104,0.0140969725,0.003950444,-0.01743036,-0.0024831356,0.019400919,-0.018089827,-0.007543805,-0.0034231367,0.008226233,-0.0065451954,-0.006327484,0.006858796,-0.008114919,-0.01129511,0.0064696353,0.0042239297,-0.019046256,0.0012032986,0.0067799836,0.0030504167,-0.01815801,-0.00846053,-0.0074306168,0.0031087901,0.007883789,0.004698596,0.008202955,-0.0034764856,-0.016151255,-0.0069370447,0.0053318627,0.003603721,0.0020815767,0.007575589,-0.008354983,0.008864572,0.0131986365,0.0069632228,-0.0074670063,-0.0032287333,0.016753022,-0.01443136,0.01402909,0.009554919,-0.004530804,-0.013514557,0.012188345,-0.014558621,0.0079179825,0.0066548707,-0.02149796,0.01264561,0.015132224,-0.0037169708,0.0042493427,0.019974772,0.00804797,0.018190272,-0.0035543814,-0.0083320625,0.004650481,-0.0054147174,-0.0038080276,-0.0033081677,0.012636728,0.01725186,0.0072248895,0.011656826,-0.008682942,-0.012104834,0.010823369,-0.008609697,0.008256906,-0.010078886,0.01475255,0.009607263,-0.0096436255,0.009947674,0.012997429,0.006904103,0.0010729682,0.0010248991,0.011663715,0.011235848,-0.003749719,0.0042533563,-0.012206564,-0.0020408481,0.001912768,0.00012457743,-0.006788196,0.012409999,0.00015413202,-0.014242297,-0.008979968,0.004246942,-0.0073798546,0.0035086023,-0.010769393,-0.012597062,-0.0044574644,-0.0066728713,0.0052307015,0.011603005,0.0019877804,-0.009774936,-0.0062363828,-0.015114796,0.00034370506,0.0072418703,-0.0120523125,0.022198886,8.656178e-05,0.004418643,-0.003660148,0.0006788522,0.006761793,-0.0038926285,-0.0001664292,-0.012094962,-0.0032881554,0.0033842828,-0.003995672,-0.017531682,-0.005385439,-0.0024660965,-0.010564883,-0.009825423,0.013999573,-0.00311434,-0.019800324,0.0036394391,0.010016089,-0.0052531334,0.008008208,-0.011820225,0.00841225,-0.0127565535,0.0052427594,-0.01123243,0.012072415,-0.012561955,-0.0054006837,-0.011224622,0.004556547,0.0048901304,0.011990976,0.0014142357,0.011225697,0.011852847,-0.0012729878,-0.017770126,-0.010950979,0.0144114075,5.513616e-05,0.009227837,-0.008723487,0.0106679965,-0.01193298,0.0020166927,0.0049219094,0.007354869,0.014482826,0.0055835685,0.003925476,-0.000487959,-0.014513997,-0.00021576602,-0.0048137703,0.0120329615,-0.0013900846,0.009625673,-0.012333468,-0.008466839,0.006477695,0.009733939,-0.00026968366,-0.00584519,-0.014444845,0.010443753,0.0065288683,-0.0073998002,-0.0035131203,0.0030128732,0.0054013347,0.014548005,-0.0073394515,-0.0092637045,0.0064264433,0.0031431569,-0.0013830122,-0.005627058,-7.092301e-05,0.0035347408,-0.0139892455,-0.008501779,0.0052641146,0.0034253988,-0.008473153,-0.012000932,-0.01455522,0.005057268,0.0013794033,0.002260739,-0.009803097,-0.0018156338,-0.0029554516,-0.009118829,-0.00011095591,0.0032266055,0.014983161,0.012366809,-0.014314965,0.007286826,-0.0070698564,0.011641223,-0.009819674,-0.0061228108,-0.010116432,-0.0035976102,-0.010832539,0.017829783,-0.014164083,0.015248527,-0.0048273746,-0.0048459824,-0.007573192,0.012562036,0.009112593,0.017149951,0.013437636,0.014215212,0.0051878374,-0.0103736045,0.005979615,0.016529439,0.008098384,0.00061595533,-0.004435655,0.005025002,-0.010096038,0.0066608507
