smiles,z_0,z_1,z_2,z_3,z_4,z_5,z_6,z_7,z_8,z_9,z_10,z_11,z_12,z_13,z_14,z_15,z_16,z_17,z_18,z_19,z_20,z_21,z_22,z_23,z_24,z_25,z_26,z_27,z_28,z_29,z_30,z_31
C=CC(=O)OCCOCCOC(=O)C=C,0.000119934324,0.00052536745,5.0779432e-05,-4.619267e-05,-0.00069334265,-0.00048521254,2.2720546e-05,0.0001535993,0.00018941588,0.00052715,-0.000746117,0.00019580033,-0.00016035605,-0.0001373128,0.00062162336,0.000243939,0.00021690689,0.0004432113,-8.15962e-05,6.7263376e-05,-0.00014924316,-0.0006226265,-0.00042451546,4.4424087e-05,-0.00028204126,-4.62709e-05,0.00010653492,0.00013140682,7.8832265e-05,-0.00030008052,0.00036050193,-2.6088208e-05
C=CC(=O)OC(C)(C)C,7.328531e-05,0.0005886238,3.2289885e-05,-4.186947e-05,-0.00073789293,-0.0005322341,-1.0300428e-06,0.00019665156,0.00020949193,0.00057762396,-0.0009245118,0.00019272417,-0.00020945538,-0.0001671547,0.0006058458,0.00037183193,0.0002473914,0.0006582353,1.7343787e-05,0.00018218206,-0.00013986498,-0.00068898674,-0.00048571592,1.0424294e-05,-0.00022515422,-5.9647486e-05,2.7213246e-05,0.00015263166,0.000112193404,-0.00038587768,0.00037477538,0.000120726414
COC(OC)(C(=O)c1ccccc1)c1ccccc1,-4.9751718e-05,0.00083591975,7.5279735e-05,-0.00018402096,-0.00047971774,-0.0003099218,0.000114065595,0.000101447105,0.00021557393,0.0005757748,-0.0009699501,0.0002353182,-0.00017763721,-0.00020092865,0.00072739646,8.573523e-05,0.00029570935,0.0007433286,-0.00020471704,8.837925e-05,-0.00019718346,-0.0004557902,-0.0007131458,2.4269335e-05,-0.000270091,0.000100863166,0.00017536432,0.00016471138,-2.9841205e-05,-0.00065915845,0.00014946703,-9.910064e-05
C=C(C)C(=O)OCCOCCOC(=O)C(=C)C,0.00020827167,0.00040267035,2.7339906e-05,-6.1826315e-05,-0.0006366945,-0.0004595574,0.000100701116,0.0001176903,0.00015790411,0.00057537155,-0.0006640721,0.00016828533,-0.00018371549,-7.805601e-05,0.0005564317,0.00023544021,0.00040422287,0.00052518793,-0.000119021395,4.1786116e-05,-7.311278e-05,-0.000559952,-0.00034548994,5.4668635e-07,-0.00016181823,2.2776425e-05,0.00016305968,4.0569343e-05,2.6195077e-05,-0.0003831163,0.00036381464,-3.7748832e-05
C=CC(=O)OCCOCCOCCOCCOC(=O)C=C,0.00013477402,0.00049530156,-5.558133e-06,-3.6866404e-05,-0.0007311376,-0.00044505857,2.433546e-06,-6.15567e-05,0.000226476,0.00058032526,-0.0007680021,0.00014834292,-0.000249777,-0.00011279108,0.00058919564,0.0001790626,0.00035523297,0.00034245732,-0.00018575299,4.0473416e-05,-0.00015843299,-0.0005281881,-0.0003444245,-5.7328492e-05,-0.00029756268,4.9621798e-05,0.00024856627,9.9450815e-05,3.0845404e-05,-0.00045299344,0.00036729965,-1.9404572e-05
C=CC(=O)OCCOCCOCCOCCOCCOCCOCCOCCOCCOCCOC(=O)C=C,-4.228903e-05,0.00033575483,3.1914562e-05,-0.00014259294,-0.0004227031,-0.00048078783,-0.00022599474,-0.00018061418,-5.8282167e-06,0.0003139791,-0.00047000498,0.00021756627,-0.00013172533,-0.00011198642,0.00050094817,7.691188e-05,6.070221e-05,0.00013242499,-3.8133236e-05,2.5876798e-06,-0.00021757965,-0.0003266572,-6.5707136e-05,2.6240014e-05,-0.00011174753,-0.00017926842,8.401554e-05,9.2228875e-05,-0.0001561651,-0.00015846966,0.00024433993,7.8430865e-05
C=C(C)C(=O)OCCOCCOCCOCCOC(=O)C(=C)C,0.00013717823,0.00042281765,-5.448889e-05,-0.000106689055,-0.00050246157,-0.00036426075,-1.7523766e-05,-1.5912578e-05,0.00014656759,0.0005131103,-0.0006576581,9.307265e-05,-0.00011609029,-4.0303916e-05,0.0005308371,0.00017513987,0.00035325764,0.00032424438,-0.0001756174,-3.749458e-05,-0.00012574182,-0.0004624445,-0.00023228535,-9.7567216e-05,-0.0001762351,-3.9284118e-05,0.000238901,8.057477e-05,-0.00013354328,-0.0004632282,0.0003124494,-3.2089185e-05
C=C(C)C(=O)OCCOCCOCCOCCOCCOCCOCCOCCOCCOC(=O)C(=C)C,-7.022964e-05,0.000113593414,0.00011185277,-0.00021318998,-0.0002936963,-0.0005002441,-0.0001880182,-0.0001289323,-0.000121630495,0.000117646065,-0.0001723459,9.052735e-05,-4.7301874e-06,-0.00010822108,0.00033692922,0.00012660725,3.3974648e-05,0.00012416416,0.0001559367,7.54823e-05,-0.00026478246,-0.00025422615,6.0023274e-05,0.00010517333,-1.1322554e-05,-0.00018117856,0.00010187831,4.6523754e-05,-0.00022970163,-2.7515925e-05,0.00025527924,0.00013178075
c1ccc2c(c1)-c1ccccc1C2(c1ccc(OCCOCC2CO2)cc1)c1ccc(OCCOCC2CO2)cc1,-0.00015835324,0.00039739907,-0.00016732607,1.3144687e-05,4.1804742e-05,0.00025736168,9.369943e-05,-0.00023058709,0.00035910937,0.00021998398,-2.7578324e-05,0.00016611535,-9.1305934e-05,-0.00011304533,0.00023779646,-3.1138305e-05,0.00017835386,0.00043180818,0.00016199541,6.0111284e-05,-0.00030904042,0.00034903013,-0.00031992607,-6.65104e-05,0.00016153557,-0.00021804869,7.8180805e-05,0.00010314956,-9.432668e-06,-0.00022063311,-0.00047390535,-7.153116e-05
Nc1ccc(S(=O)(=O)c2ccc(N)cc2)cc1,6.626779e-05,0.0005802745,5.843118e-05,-0.0001707836,-0.00044583995,-0.00025771745,0.00016855262,0.00014447514,0.00014536339,0.00050605787,-0.0007976815,0.00012782123,-0.0003256686,-0.00018713204,0.00066322647,0.00027299998,0.00056131976,0.00079762796,-0.00011846493,3.4376048e-05,4.0343497e-05,-0.0004608694,-0.0005803071,9.13823e-05,-0.00019637961,0.00017793477,0.00024003536,6.248942e-05,-7.145177e-05,-0.00068053324,7.411465e-05,-8.2015526e-05
CC(C)(c1ccc(OCC2CO2)cc1)c1ccc(OCC2CO2)cc1,-4.970515e-05,0.00069242157,-6.303936e-05,-0.00017396081,-0.0001853453,-0.00014892407,1.5805475e-05,8.96547e-05,0.00013835332,0.0005343468,-0.0006838143,0.00024385657,-0.00012679677,-0.00019611977,0.0006300425,0.000107151456,0.00021149497,0.0006950591,-0.00025943853,-5.798135e-05,-0.00010885962,-0.00030731375,-0.00045581674,6.072875e-05,-6.245356e-05,7.296074e-05,0.00013193022,0.00012847083,-0.00024890644,-0.00049049733,-2.6812777e-05,-0.00024551759
CC(N)COCC(C)OCC(C)OCC(C)OCC(C)OCC(C)OCC(C)N,8.299807e-05,0.00010165386,-9.352993e-05,-0.00027994346,-0.00019228086,-0.0004426213,-5.6534074e-05,0.00032655615,-0.00011270796,0.00028433744,-0.00045470148,0.0002077911,0.00020441134,-3.1843316e-05,0.000281238,5.6400895e-05,0.000103190076,0.00033146702,-4.0320912e-05,-0.00021205051,-0.00013285666,-0.00034573756,-0.00012520002,0.0001431629,-2.7248636e-05,-8.691102e-06,0.00013762526,-0.00025144685,-0.00036125327,-0.00019496586,0.000112826936,-0.0003075744
NCCNCCN(CCNCCC(CN)CCN)CCN(CCNCCN)CCN(CCN)CCN,0.00018421421,0.00020205043,3.7563033e-05,-0.0003098976,-0.0003448045,-0.0003270954,-0.00014968868,0.00017047953,-0.00016321614,0.0002987138,-0.00032586697,0.00035281386,-3.4288503e-05,-8.069305e-05,0.0006127581,6.9079455e-05,-5.2353367e-05,0.0003791533,3.6878977e-05,-0.00013955729,-0.00029047066,-0.00028080004,-0.00027388288,0.00035530422,-8.8992994e-05,2.2401102e-05,0.00016915053,-0.0002629785,-0.00034216535,-0.00019167783,-1.6237609e-05,-0.00021785917
CC(N)COCC(C)OCC(C)OCC(C)N,0.00012974255,0.00061459467,-8.387491e-06,-7.5527e-05,-0.00065769395,-0.00045905728,0.00015495066,0.00029629283,0.00019191415,0.00057070656,-0.0007759137,0.0002235556,-0.00011706352,-0.0001791087,0.0006199619,0.00019475631,0.00030565262,0.00061399443,-4.9755676e-05,-1.323875e-06,-4.0714513e-05,-0.0005760988,-0.00056072045,4.3465756e-05,-0.0002852683,2.7405098e-05,0.0001430856,4.2269006e-05,8.35699e-06,-0.00043011457,0.0002909815,-9.518396e-05
CCCCCCCCCCN,0.00025295792,0.0007732902,0.000191045,-4.852889e-05,-0.0007404601,-0.00050051045,0.000100616366,0.00014103483,0.00033081626,0.00063768635,-0.0009663636,0.000297443,-0.00012693089,-7.735891e-05,0.0008483799,3.112573e-05,0.00014464185,0.0003943583,-5.202531e-05,0.00026807142,-0.00021114945,-0.000539519,-0.00058862614,0.00016043894,-0.00033056038,-5.7253055e-05,-0.00020055659,0.00024144258,0.0003587494,-0.00016035233,0.00029729493,-0.0001566871
CC(C)(COCC1CO1)COCC1CO1,5.283812e-05,0.0006749844,0.000104396604,-5.6364574e-05,-0.00065189134,-0.00035787188,5.9852377e-05,7.1456656e-05,0.00025193463,0.0005473397,-0.0009169197,0.0001619365,-0.0002263058,-0.00022531906,0.00072852895,4.2080414e-05,0.00030665938,0.00056081335,-0.0001314918,3.631739e-05,-0.00014527608,-0.0006098164,-0.0005802056,1.2145378e-05,-0.00038423156,7.060543e-05,3.4579076e-05,0.00021790387,7.977639e-05,-0.00047737453,0.00032633357,-4.147878e-05
CC(N)COCC(C)COCC(C)COCC(C)COCC(C)COCC(C)CN,5.8892183e-05,0.00023903325,-0.000119423494,-0.00025447085,-0.00023539364,-0.0005579069,-9.700749e-05,0.00017456524,-4.0510204e-06,0.00040615583,-0.00068562105,0.00022374745,5.3476542e-05,-0.00016718218,0.000415558,4.352024e-05,0.0001465194,0.00038695266,-8.112914e-05,-0.00011092005,-0.00012211583,-0.0003564126,-0.00015396858,7.056445e-05,-4.1188207e-05,-7.868744e-06,0.00010923296,-0.00017407723,-0.00025502383,-0.0002486012,0.00022391509,-0.00018823287
CC(N)COCC(C)COC(OCC(C)COCC(C)N)OCC(C)COCC(C)N,8.6021144e-05,5.049631e-05,-8.156616e-05,-0.00036939187,-0.00016262941,-0.00044113398,-0.0001572594,0.00016883574,-8.670194e-05,0.00033710524,-0.00046497025,0.00022094417,0.0001406623,-6.869016e-05,0.00020660367,4.7945883e-05,6.120792e-05,0.00028157583,1.8615043e-05,-0.00020204578,-0.00022817624,-0.00023283996,-5.5363867e-05,0.00013575889,3.27467e-05,-5.096197e-06,0.00012276415,-0.0002750652,-0.00038533867,-0.00018381746,0.00016145874,-0.0002295128
CC(N)COCC(C)COCC(C)CN,6.2790234e-05,0.0006272271,5.2091666e-05,-6.253924e-05,-0.00069577433,-0.00047868956,9.594485e-05,0.00022266898,0.00023270748,0.0005389857,-0.00092065614,0.00020630751,-0.00018252246,-0.00024895323,0.0006870022,0.00018374668,0.0003033746,0.0006277624,2.6747352e-05,0.00010183221,-0.00010729022,-0.00063675235,-0.0005891444,1.075305e-05,-0.00031601265,2.886355e-05,8.327048e-05,7.996801e-05,3.957399e-05,-0.00044445647,0.00035121664,2.2370368e-05
CC(C)(c1ccc(Oc2ccc3c(c2)C(=O)OC3=O)cc1)c1ccc(Oc2ccc3c(c2)C(=O)OC3=O)cc1,-1.8232968e-05,-0.000106651336,-5.874317e-05,2.4502166e-05,6.355811e-05,0.00026341528,0.00022020843,0.0001516398,-0.0001845546,-0.0005580229,0.0007521678,0.00015414972,0.000362047,-0.00016524224,-0.00020944886,-0.00017845863,-0.00025581708,-3.179605e-05,0.00048496458,8.044252e-05,-0.00025113532,0.00061031396,-0.00015949365,-1.5423633e-05,0.00030765962,-0.00028881896,-2.5369227e-06,-2.8563663e-06,-0.00019741314,0.0003413614,-0.00046401843,-0.00016785786
Nc1ccc(Oc2ccc(N)cc2)cc1,6.9793314e-05,0.0005948106,0.00010852981,-0.00015218835,-0.0005750088,-0.00036002137,0.00015021954,0.00011595618,0.00021413318,0.00052371016,-0.0009755045,0.00012230128,-0.00036104256,-0.00013540639,0.0007467717,0.00023568003,0.0005228906,0.0006730822,-7.689861e-05,0.00016170414,-4.392385e-05,-0.00053742307,-0.0005834801,0.00011358503,-0.00030742912,0.00014280714,4.778616e-05,0.0001504235,9.306637e-05,-0.000553146,0.00021516811,-5.191425e-05
Nc1ccc(N(c2ccc(N)cc2)c2ccc(N)cc2)cc1,6.2189996e-05,0.00068969093,-1.8030405e-06,-0.00021739025,-0.00025299937,-0.0001280848,0.00013380218,0.00022787414,4.48653e-05,0.0005412535,-0.00081078615,0.00011507794,-0.00026140176,-0.00014256453,0.00063899625,0.00023158314,0.00036895555,0.00073886174,-0.00022166851,1.47013925e-05,-3.9746286e-05,-0.00035099266,-0.0005979566,0.00014903676,-0.00020407327,0.00010655727,0.00028803572,0.000104539096,-7.843273e-05,-0.0006180722,-5.4020435e-05,-0.00028835004
CC(C)(c1ccc2c(c1)CN(c1ccccc1)CO2)c1ccc2c(c1)CN(c1ccccc1)CO2,-0.00027448824,0.0003920691,-2.1234155e-06,-8.364115e-05,0.00013326108,0.00019219983,3.0545518e-05,5.4873526e-06,0.0001380851,0.00026456686,-4.927162e-05,0.00031184498,8.025672e-05,-0.00011831196,0.00036001392,5.576061e-05,-5.612988e-05,0.00065785623,7.7115605e-05,9.7423326e-05,-0.00034020422,0.00018136413,-0.00031975098,0.000119909644,0.00017749704,-0.00013592094,2.1317042e-05,8.218922e-05,-0.00015349244,-4.406087e-05,-0.00045225024,-0.00022716774
CC(N)COCC(C)OCC(C)OCC(C)OCCOCCOCCOCCOCCOCCOCCOCCOCCOCCOCCOCCOCC(C)OCC(C)OCC(C)N,0.00037187152,-0.00025650673,0.00025778264,0.00019920198,-0.00041045714,-0.000114727765,-9.311456e-05,-0.00039547402,-0.00020995503,-0.0006545605,0.0005749427,-4.617311e-05,0.00020374078,-0.00031377235,-0.0006179502,-0.00052186707,-0.00024303049,-0.0005617072,0.00067226845,0.0005025896,5.9841783e-05,0.00016510196,2.2070017e-05,-0.00069020037,6.8392605e-05,-0.0005810959,-0.000102531165,0.00036144303,-0.00027982774,0.00041713053,0.00020922069,0.0003932719
NCCOCCOCCN,0.0002007708,0.0008663945,0.00019263849,2.8153881e-06,-0.0007654014,-0.00048462115,7.4666925e-05,8.6011365e-05,0.00041945023,0.0007164292,-0.0011033444,0.00032208022,-0.00011055078,-0.00012000138,0.00090847444,3.681751e-05,0.00019636005,0.00044309418,-9.778398e-05,0.00027317042,-0.00023319223,-0.00056185655,-0.00061203074,0.00011706166,-0.00031577563,8.313917e-06,-0.000151949,0.00022941921,0.0004199969,-0.00029024528,0.00026479084,-0.00017758878
COCCOCCOCCOCCOCCOCCOCCOCCOCCOCCOCCOCCN,0.0001547765,0.00067247264,3.0049123e-05,-0.00011365721,-0.00063598156,-0.0004665181,-7.498171e-05,-0.00023751892,0.00027337554,0.00057752524,-0.000840364,0.0002849782,-0.00019560102,-0.00017156685,0.0007475363,-3.4654047e-05,0.00027724914,0.00024093711,-0.00018220372,-5.849637e-06,-0.000224847,-0.00039332348,-0.00037088152,-7.070135e-05,-0.00029748818,8.397829e-05,0.0001577707,6.963266e-05,2.2249296e-05,-0.000417375,0.0002701264,1.60099e-05
COCCOCCOCCOCCOCCOCCOCCOCCOCCOCCOCCOCCOCCOCCOCCOCCOCCOCCOCCOCCOCC(C)N,0.00019623945,0.00020428002,3.8477592e-05,2.2475608e-05,-0.00054208515,-0.00023084506,-0.00017868727,-0.00059610605,0.0003391083,0.00013934495,-0.00034016185,0.00018115528,-7.232558e-05,-0.000115928706,4.962273e-05,-0.0004407824,0.00014948752,-3.5014236e-05,0.0004327295,7.28243e-05,-0.00014317874,-4.650047e-05,-9.025494e-05,-0.00042879302,-8.96682e-05,-0.00038728304,1.6356818e-05,0.00019047176,8.02374e-05,-0.00012834836,0.00022277609,0.0003355681
COCCOCCOCCOCCOCCOCCOCCOCCOCCOCCOCCOCCOCCOCCOCCOCCOCCOCCOCCOCCOCCOCCOCCOCCOCCOCCOCCOCCOCCOCCOCCOCCOCCOCC(C)OCC(C)OCC(C)OCC(C)OCC(C)OCC(C)OCC(C)OCC(C)OCC(C)OCC(C)N,-0.00024856627,-0.0055531636,-0.00027368497,-0.00014178734,-0.0039757164,0.0019650701,-0.00033271313,-0.004677536,0.0012202419,0.0029259785,0.0037003625,0.0028925939,-0.002665184,0.0025283012,-0.00042044,-0.0021303263,-0.005893994,-0.008157641,0.0009606818,0.0047361664,0.0003386262,0.0053396816,0.001490003,-0.0016041505,-0.0016490784,0.0026863217,-0.0042112228,0.000270091,-0.00024002162,0.007352832,0.0013815835,0.001630336
COCCOCCOCCOCCOCCOCCOCCOCCOCCOCCOCCOCCOCCOCCOCCOCCOCCOCCOCCOCCOCCOCCOCCOCCOCCOCCOCCOCCOCCOCCOCCOCCOCCOCCOCCOCCOCCOCC(C)OCC(C)OCC(C)OCC(C)OCC(C)OCC(C)N,0.00018693507,-0.0038777422,-0.00042688195,0.0005721641,-0.0030325921,0.0016232077,-0.0012330702,-0.0035938667,0.0004880603,0.002004641,0.0015997216,0.0017274385,-0.0021668142,0.0016091601,-0.00082660094,-0.0013637762,-0.0035976013,-0.0055733337,4.112837e-05,0.003242291,1.876778e-05,0.0036006188,0.0011534481,-0.0019255509,-0.0012007649,0.0019128453,-0.0026851166,-0.00014034798,-0.00018919935,0.005377291,0.0011944221,0.0010353946
NCCCOCCOCCCN,0.00021410827,0.0007807221,0.00024359021,-2.4646986e-05,-0.0007411442,-0.0004687477,9.625126e-05,7.9842284e-05,0.0003708012,0.00065474724,-0.0010469472,0.00026590936,-0.00017851684,-0.0001344704,0.0008533485,1.2679491e-05,0.00019762572,0.00054687564,-8.019642e-05,0.00025358004,-0.0002022821,-0.0005358154,-0.00063088024,0.00015179627,-0.0003761747,2.0816922e-05,-0.0001602117,0.00023489026,0.00039900676,-0.00024484377,0.00027036294,-0.00019943574
CC(C)(C)N,0.00013565365,0.0008011181,0.00011230819,1.6061123e-05,-0.00069750985,-0.00051906705,5.2236952e-05,0.00018581375,0.00034987624,0.00063752197,-0.0010516476,0.0002569016,-0.0001695999,-0.00014978647,0.0007822709,0.00018569594,0.00010241009,0.0006093129,-0.00011544698,0.00025408017,-0.00019614375,-0.00061805535,-0.0005792235,8.224789e-05,-0.0003251671,-4.0565617e-05,-0.0001843078,0.00022702664,0.00029618922,-0.00036421465,0.00027660187,-9.178417e-05
CCCCN,0.00033350475,0.0008393973,0.00021857303,-5.7952013e-05,-0.00073870225,-0.00044966862,5.573593e-05,3.434252e-05,0.00036501116,0.00067490805,-0.001088121,0.00033904891,-0.00011038035,5.333731e-05,0.0008567767,-2.0605046e-05,0.00010063592,0.0004220868,-0.00016155536,0.00025087642,-0.00023575663,-0.00044116552,-0.000583353,0.0001228787,-0.00037692534,5.812384e-06,-0.00024388079,0.0002564052,0.0004122916,-0.00023207814,0.00025681127,-0.00021149497
CCCCCCCCCCCCCCCCN,0.00019947253,0.0006485246,0.00015401095,-4.873844e-05,-0.00074421754,-0.0004682392,0.00010916125,0.00016251579,0.0002761993,0.0005782307,-0.0008923635,0.000274973,-0.00015010219,-0.00014347443,0.00077522825,3.4688506e-05,0.00023360364,0.0004008226,3.4446595e-05,0.00022740616,-0.00019335211,-0.0005984622,-0.0005743024,0.00012336485,-0.00032780087,-4.541315e-05,-0.00013747625,0.00016799942,0.00027029891,-0.00017333403,0.00034682918,-6.208103e-05
CC(N)COCC(C)OCC(C)OCC(C)OCC(C)OCC(C)OCC(C)OCC(C)OCC(C)OCC(C)OCC(C)OCC(C)OCC(C)OCC(C)OCC(C)OCC(C)OCC(C)OCC(C)OCC(C)OCC(C)OCC(C)OCC(C)OCC(C)OCC(C)OCC(C)OCC(C)OCC(C)OCC(C)OCC(C)OCC(C)OCC(C)OCC(C)OCC(C)OCC(C)OCC(C)N,0.0034840526,-0.011236175,0.0018186374,-0.0021418752,-0.007175992,0.0041158507,0.0028204238,-0.0059635267,0.004319069,0.00077634305,0.011674408,0.003944588,-0.0046271617,0.002501506,-0.0036984738,-0.002377695,-0.013813613,-0.01002371,0.0053974595,0.008544231,-0.0015151289,0.009204162,0.003666211,0.00481108,0.0027034194,0.000119818375,-0.0061921068,-0.0019870847,-0.002083442,0.013908289,-0.00087875687,0.0038923621
CC(N)COCC(C)OCC(C)OCC(C)OCC(C)OCC(C)OCC(C)OCC(C)OCC(C)OCC(C)OCC(C)OCC(C)OCC(C)OCC(C)OCC(C)OCC(C)OCC(C)OCC(C)OCC(C)OCC(C)OCC(C)OCC(C)OCC(C)OCC(C)OCC(C)OCC(C)OCC(C)OCC(C)OCC(C)OCC(C)OCC(C)OCC(C)OCC(C)OCC(C)OCC(C)OCC(C)OCC(C)N,0.0034840526,-0.011236175,0.0018186374,-0.0021418752,-0.007175992,0.0041158507,0.0028204238,-0.0059635267,0.004319069,0.00077634305,0.011674408,0.003944588,-0.0046271617,0.002501506,-0.0036984738,-0.002377695,-0.013813613,-0.01002371,0.0053974595,0.008544231,-0.0015151289,0.009204162,0.003666211,0.00481108,0.0027034194,0.000119818375,-0.0061921068,-0.0019870847,-0.002083442,0.013908289,-0.00087875687,0.0038923621
CC(N)COC(C)COCC(C)(COCC(C)OCC(C)N)COCC(C)OCC(C)N,3.1503383e-05,1.4743768e-05,-0.00018640887,-0.00034629786,2.0070001e-07,-0.00025965367,-0.00022372324,0.00021637324,-0.00012952928,0.00020762114,-0.00033655763,0.00012313295,0.00020701624,1.695333e-05,0.00014508236,4.3235254e-05,4.401896e-06,0.00028193416,0.00012744893,-0.00019186223,-0.00027494424,-0.0002526499,-4.814472e-06,0.00016660336,8.2160346e-05,-0.00015873369,0.00012006331,-0.00025159353,-0.00033320044,-0.00023751287,0.00010847673,-0.00025462452
CC(N)COC(C)COC(C)COC(C)COC(C)COC(C)COC(C)COC(C)COC(C)COC(C)COC(C)COC(C)COC(C)COC(C)COC(C)COC(C)COC(C)COCC(C)(COCC(C)OCC(C)OCC(C)OCC(C)OCC(C)OCC(C)OCC(C)OCC(C)OCC(C)OCC(C)OCC(C)OCC(C)OCC(C)OCC(C)OCC(C)OCC(C)OCC(C)N)COCC(C)OCC(C)OCC(C)OCC(C)OCC(C)OCC(C)OCC(C)OCC(C)OCC(C)OCC(C)OCC(C)OCC(C)OCC(C)OCC(C)OCC(C)OCC(C)OCC(C)N,0.0034106607,-0.011211583,0.0014114911,-0.0016801953,-0.007511855,0.0039343946,0.002685166,-0.006130347,0.0044228723,0.0014295792,0.010842886,0.00392731,-0.004553529,0.002290322,-0.0037064785,-0.0020340462,-0.013450464,-0.009208738,0.005265652,0.008394361,-0.0012575376,0.008830918,0.0034602543,0.004422576,0.002797822,-4.5181252e-05,-0.0060106087,-0.0017650416,-0.001832884,0.013516147,-0.00070923194,0.0039517265
CC(N)COC(C)COC(C)COC(C)COC(C)COC(C)COC(C)COC(C)COC(C)COC(C)COC(C)COC(C)COC(C)COC(C)COC(C)COC(C)COC(C)COC(C)COC(C)COC(C)COC(C)COC(C)COC(C)COC(C)COC(C)COC(C)COC(C)COC(C)COCC(C)(COCC(C)OCC(C)OCC(C)OCC(C)OCC(C)OCC(C)OCC(C)OCC(C)OCC(C)OCC(C)OCC(C)OCC(C)OCC(C)OCC(C)OCC(C)OCC(C)OCC(C)OCC(C)OCC(C)OCC(C)OCC(C)OCC(C)OCC(C)OCC(C)OCC(C)OCC(C)OCC(C)OCC(C)N)COCC(C)OCC(C)OCC(C)OCC(C)OCC(C)OCC(C)OCC(C)OCC(C)OCC(C)OCC(C)OCC(C)OCC(C)OCC(C)OCC(C)OCC(C)OCC(C)OCC(C)OCC(C)OCC(C)OCC(C)OCC(C)OCC(C)OCC(C)OCC(C)OCC(C)OCC(C)OCC(C)OCC(C)N,0.0027679605,-0.010473726,0.0007316312,-0.0017316039,-0.007299792,0.0037647472,0.0019188495,-0.0061854105,0.0037295797,0.0014078661,0.010388939,0.004049766,-0.004300136,0.0022116592,-0.0031325063,-0.0020128996,-0.012828505,-0.0090028895,0.004716563,0.008439778,-0.0011321644,0.008763874,0.003180236,0.003820085,0.0026157373,0.0005169064,-0.0058551356,-0.0014111656,-0.0017926653,0.013127157,-0.00019406248,0.003759646
CC(N)COC(C)COC(C)COC(C)COC(C)COC(C)COC(C)COC(C)COC(C)COC(C)COC(C)COC(C)COC(C)COC(C)COC(C)COC(C)COC(C)COCC(C)(COCC(C)OCC(C)OCC(C)OCC(C)OCC(C)OCC(C)OCC(C)OCC(C)OCC(C)OCC(C)OCC(C)OCC(C)OCC(C)OCC(C)OCC(C)OCC(C)OCC(C)N)COCC(C)OCC(C)OCC(C)OCC(C)OCC(C)OCC(C)OCC(C)OCC(C)OCC(C)OCC(C)OCC(C)OCC(C)OCC(C)OCC(C)OCC(C)OCC(C)OCC(C)OCC(C)N,0.0034106607,-0.011211583,0.0014114911,-0.0016801953,-0.007511855,0.0039343946,0.002685166,-0.006130347,0.0044228723,0.0014295792,0.010842886,0.00392731,-0.004553529,0.002290322,-0.0037064785,-0.0020340462,-0.013450464,-0.009208738,0.005265652,0.008394361,-0.0012575376,0.008830918,0.0034602543,0.004422576,0.002797822,-4.5181252e-05,-0.0060106087,-0.0017650416,-0.001832884,0.013516147,-0.00070923194,0.0039517265
CC(N)COCC(C)OCC(C)OCC(C)OCCOCCOCCOCCOCCOCCOCCOCCOCCOCCOCCOCCOCCOCC(C)OCC(C)OCC(C)N,0.00025318982,-0.00033111498,0.00026915316,0.00013846904,-0.00036605634,0.00017268583,-4.6942383e-05,-0.00039251987,-0.00024728314,-0.000616326,0.00079640746,1.8014573e-05,5.9308484e-05,-0.00017232122,-0.00050292816,-0.0005033226,-0.00039388333,-0.00083154184,0.0006260916,0.00051905494,0.00016396423,9.70324e-05,0.00013403594,-0.000736312,2.9429793e-07,-0.00063715316,-0.0003213454,0.0002178722,-0.00022886577,0.0006937743,0.00021950249,0.00052020885
CC(N)COCC(C)OCC(C)OCC(C)OCC(C)OCC(C)OCC(C)OCCOCCOCCOCCOCCOCCOCCOCCOCCOCCOCCOCCOCCOCCOCCOCCOCCOCCOCCOCCOCCOCCOCCOCCOCCOCCOCCOCCOCCOCCOCCOCCOCCOCCOCCOCCOCC(C)OCC(C)OCC(C)OCC(C)OCC(C)N,0.0028661052,-0.0070608445,-0.00027724542,0.0011246344,-0.0046954094,0.0017323615,0.0015050471,-0.00368301,0.003049337,0.0017960072,0.0020643827,0.0015994804,-0.0010490143,0.0006862208,-0.0036334395,-0.0012471494,-0.0044459756,-0.0022036762,0.0028456536,0.0046592075,1.0619755e-05,0.003080923,0.0009065452,0.0021789428,0.0027448577,8.012168e-06,-0.0024699746,-0.00096651074,0.0010524748,0.0054864977,-0.0011965334,0.0021482268
COCCOCCOCCOCCOCCOCCOCCOCCOCCOCCOCCN,0.00017115753,0.00069862045,3.143493e-05,-7.573236e-05,-0.00066435244,-0.00043824967,-4.6069734e-05,-0.0002255775,0.00029569003,0.0005842587,-0.00086640567,0.0002437951,-0.00021352898,-0.00016189134,0.0007541813,-2.1483283e-05,0.00032140082,0.00027226005,-0.00018151267,3.9944425e-06,-0.0001968519,-0.00043496804,-0.000417958,-8.142833e-05,-0.00032992242,9.782519e-05,0.00018862821,9.988109e-05,5.6416728e-05,-0.00047210185,0.00027365796,1.5401747e-05
COCCOCCOCCOCCOCCOCCOCCOCCOCCOCCOCCOCCOCCOCCOCCOCCOCCOCCOCCOCC(C)N,0.00021130033,0.0003281124,0.00011855643,-6.873347e-05,-0.00049652904,-0.00033136457,-0.00015344191,-0.00060290564,0.00033489172,0.00014474941,-0.00029480457,0.00027579628,-0.00011855364,-0.00017346116,7.0048496e-05,-0.00036288798,5.1598996e-05,3.912556e-05,0.00043319236,8.194847e-05,-0.00024135073,-7.617753e-05,-6.0496386e-05,-0.00032461062,-0.00013186829,-0.00030931085,8.023251e-05,9.3510374e-05,0.00010159775,-0.00011595199,0.0002154354,0.00024661422
CC(C)(C1CCC(OCC2CO2)CC1)C1CCC(OCC2CO2)CC1,-1.22790225e-05,0.0005962718,-0.00010895636,-0.00012029521,-0.00031906087,-0.00023980532,-8.320436e-06,8.9249574e-05,0.000110342866,0.000486705,-0.00059513096,0.0002617482,-4.9548224e-05,-0.0001811916,0.0005504107,-3.5010744e-05,0.00020734733,0.00040986203,-0.00021046377,-0.00014333427,-0.00014842337,-0.0003440464,-0.0003852048,-2.746936e-05,-0.0001906394,-2.8231181e-05,6.464962e-05,5.7213474e-05,-0.00027070916,-0.00036245072,0.00012267847,-0.000101791695
O=C1CCCC(=O)O1,0.00014012167,0.00072325766,7.16215e-05,2.54279e-05,-0.0007681539,-0.0004763836,6.00731e-05,0.00015567336,0.00028789532,0.0005292911,-0.00088883284,0.00024963543,-0.00018373085,-0.00016765064,0.00079536624,0.00023651263,0.0002339934,0.00048135128,-7.911352e-06,0.0002671997,-0.00014763116,-0.0006192172,-0.000550217,0.00013155863,-0.00031061145,-4.914496e-05,-7.8434125e-05,0.00023001013,0.00026592403,-0.00022031087,0.00027333852,-1.09756365e-05
c1cc(N(CC2CO2)CC2CO2)ccc1Cc1ccc(N(CC2CO2)CC2CO2)cc1,-4.886929e-05,0.0004048273,-0.00010591559,-6.801076e-05,2.4409965e-05,-1.9918196e-05,-0.00010027923,7.1687624e-05,-2.931687e-05,0.0002778573,-0.00040642638,0.00023607817,3.64203e-05,6.948132e-06,0.00043114182,6.354367e-05,0.000120582525,0.00042819395,1.2801029e-06,-5.8486592e-05,-0.00015942054,-5.1441486e-05,-0.00025684806,8.164998e-05,9.734603e-05,-6.494019e-05,0.00010840874,-3.7946273e-05,-0.00024694763,-0.00012051128,-0.00017471891,-0.00011217967
CC(C)(c1ccc(OCC(O)CN=[N+]=[N-])cc1)c1ccc(OCC(O)CN=[N+]=[N-])cc1,-0.00012424914,5.2860007e-05,8.7299384e-05,-7.1784016e-05,0.00013348227,0.00017516688,0.00013392232,0.00022929069,-0.00030518277,-0.00038762623,0.00066657364,8.465536e-05,6.595999e-05,5.950639e-05,4.8981048e-05,0.00011634687,-0.00024979468,0.000105899526,0.0003468122,-0.00011030957,-0.00030869222,0.00021852425,2.5296584e-05,0.00042492058,0.00012218626,-0.0003065588,0.0001606457,-4.0213577e-05,-0.00020730752,0.00034482032,-0.00023411587,-0.00036926055
C#CCOc1ccc(Cc2ccc(O)cc2OCC#C)cc1,8.4250234e-05,0.00068315957,2.2770837e-06,-0.00019509997,-0.00052692834,-0.00024698488,0.000113409944,5.4646283e-05,0.00012277975,0.00051428284,-0.00079088565,0.0001592096,-0.0002446724,-5.3382013e-05,0.0006261328,0.00014846446,0.00038955687,0.00063081644,-0.00031207735,3.999425e-05,-7.4255164e-05,-0.00042842282,-0.00058569666,2.3629516e-05,-0.00024717394,0.00017057732,0.00022914074,0.00013524387,-5.523092e-05,-0.00057422183,0.00012374204,-0.00020400481
CCCCCCCCCCCCN,0.000238067,0.0007321723,0.00018734392,-4.552072e-05,-0.0007286826,-0.0004732078,0.00010159239,0.00015349686,0.00031729904,0.0006213528,-0.0009515295,0.00028912537,-0.00013548555,-0.000107943546,0.0008362755,4.0990766e-05,0.0001672022,0.00042265793,-3.390247e-06,0.00026640622,-0.00020650215,-0.0005809249,-0.00059189927,0.0001500193,-0.00032202108,-7.2011724e-05,-0.00019502547,0.00022298703,0.00034221564,-0.00015533809,0.0003160583,-0.000103506725
NCc1cccc(CN)c1,9.808503e-05,0.00076976046,7.3505566e-05,-6.429013e-05,-0.0006803777,-0.00042457785,0.00013758801,0.00017613266,0.00027328148,0.0005505164,-0.0009754766,0.00019946415,-0.0003081495,-0.00014939671,0.0007617939,0.00027729478,0.00029550772,0.0005689524,-7.4749114e-05,0.00017212005,-0.000116722425,-0.0006019118,-0.00055591157,8.964352e-05,-0.00034011994,6.032549e-05,-8.520391e-05,0.00021929946,0.00022922619,-0.00035121525,0.00024780817,-3.9494596e-05
Nc1ccc(Cc2ccc(N)cc2)cc1,0.00011915248,0.00057591405,0.00010300893,-0.00015706569,-0.00054585,-0.0003342498,0.00015798304,0.000114501454,0.00020415685,0.00054093264,-0.00093452446,0.00012978073,-0.0003647604,-0.00014039082,0.00072656386,0.0002539535,0.000507561,0.0006299326,-2.5152927e-05,0.00018124143,-4.6752975e-05,-0.0005447945,-0.0005763755,0.000120311044,-0.0002958756,0.000105179846,3.159605e-05,0.00014536455,9.375927e-05,-0.0004905602,0.00024209917,-9.024981e-06
Nc1cccc(N)c1,0.00018337509,0.00077438354,0.00014374591,-5.4092612e-05,-0.0006762515,-0.00041461177,0.00012214947,0.00017659552,0.00023130025,0.00054779695,-0.0009837402,0.00021032244,-0.00031585433,-0.00010451162,0.00074934494,0.00026397267,0.0002754121,0.00059023895,-4.9243914e-05,0.00021429686,-0.00015731505,-0.0005313066,-0.00057357596,0.00012739655,-0.00030975835,1.9958243e-06,-7.112138e-05,0.00016361894,0.00027833716,-0.00036550313,0.00018905755,-5.1337294e-05
CC(C)(c1ccc2c(c1)CN(c1ccccc1)CCO2)c1ccc2c(c1)CN(c1ccccc1)CCO2,-0.00033407798,0.0003599003,3.808271e-05,-7.218821e-05,0.00018259883,0.00012944639,3.505405e-05,-2.5000423e-05,9.293179e-05,0.00016705366,0.00014572497,0.00036141183,0.00010958593,-0.00013630604,0.00019034185,1.9511208e-07,-0.000101080164,0.00058935373,0.00011528912,0.00015790341,-0.0003886309,0.0002806679,-0.0002867547,6.809924e-05,0.00020965608,-0.00018802471,7.2512776e-06,3.434904e-05,-0.00013659592,6.235344e-05,-0.0004943209,-0.0002508168
c1cc(N(CC2CO2)CC2CO2)ccc1OCC1CO1,0.000106466934,0.000659178,4.5255758e-05,-6.460352e-05,-0.00045242906,-0.00015509315,0.00010433886,-2.5518239e-06,0.000101125566,0.0005133045,-0.00076700095,0.0001424579,-0.00028534327,-3.600819e-05,0.00070173293,0.00017469656,0.0003786469,0.00049736747,-0.00016296026,2.8555281e-05,-0.00010462885,-0.0004003389,-0.0005505043,6.5569766e-05,-0.00036946405,0.00010871515,0.00027597137,0.0001960583,-7.291394e-05,-0.00049776724,0.00016776472,1.1981465e-06
O=C(O)CC(O)(CC(=O)O)C(=O)O,3.198255e-05,0.00051289797,1.8768013e-05,-0.00015177904,-0.0006390093,-0.00055051874,7.9737976e-05,0.00022440497,0.00014332472,0.00045630895,-0.00079334155,0.0001891749,-0.00013282243,-0.00015535904,0.0006593587,0.00013115676,0.00036880374,0.0005961985,-0.00011886074,-8.11629e-05,-2.0498643e-05,-0.0005542763,-0.00048392965,2.5379471e-05,-0.00028329855,7.022731e-05,0.00016568135,9.172084e-05,-0.00011769333,-0.00044994475,0.00033521373,-5.1999e-05
O=C(O)CCCCCCCCC(=O)O,8.7152235e-05,0.0006029904,4.4077635e-05,6.203074e-06,-0.00082378974,-0.00054138247,4.46504e-05,0.00024024397,0.00017087976,0.00051411893,-0.0007841224,0.00025480427,-0.00010998268,-0.00018753111,0.00073174667,0.0001114863,0.0002668444,0.00046838657,-4.0102517e-05,0.00015722308,-0.00014384196,-0.0006122567,-0.000532086,9.090826e-05,-0.00020957692,-4.3231994e-05,4.131999e-05,0.000113727525,9.2497794e-05,-0.00030441396,0.00033010356,-5.463045e-05
Cn1ccnc1,0.00025131134,0.0007776227,0.00016100705,-4.5245048e-05,-0.000679845,-0.0003905706,0.00012786966,5.8860518e-05,0.00030233874,0.00061362283,-0.0010919906,0.00018953811,-0.00033038575,2.8817449e-05,0.00083898194,0.0001557623,0.00025653187,0.00047697267,-6.620004e-05,0.00024387287,-0.00021178601,-0.0005130115,-0.0005444004,0.000107037835,-0.0004154821,2.7079135e-05,-0.00013994146,0.0002501821,0.0003861843,-0.0003544502,0.00017782673,-0.00011947006
O=C(O)CCCC(=O)O,7.628184e-05,0.00071803667,8.152239e-05,-1.8533319e-07,-0.000801119,-0.00056841504,4.8887916e-05,0.00026463252,0.00024168263,0.00051150704,-0.00091926474,0.0002974905,-0.000105291605,-0.00018308964,0.0007886188,0.00015207147,0.00018216623,0.00056306506,-2.192636e-05,0.00022264244,-0.00017793546,-0.0006138239,-0.0005743089,9.157974e-05,-0.00023971638,-7.6265074e-05,-5.7110563e-05,0.00017446559,0.00014742673,-0.0002881731,0.0002830252,-5.2977353e-05
C1OC1COC1COC2C(OCC3CO3)COC12,0.00011425745,0.0006328188,5.1450916e-05,-1.8626451e-09,-0.0006101718,-0.00022555888,9.701867e-05,-0.0001563374,0.00024362351,0.00047035376,-0.0008173343,0.00014619343,-0.00033555087,-0.00014645467,0.00064221583,0.00014953362,0.00044624088,0.00048042904,-0.00017123739,1.2231525e-05,-0.000116011244,-0.00054161006,-0.0005228063,-4.5030378e-05,-0.0004748539,0.0002551563,0.0001480002,0.00015025493,0.00011799601,-0.00050975895,0.00032911915,5.7747122e-05
Nc1ccc(SSc2ccc(N)cc2)cc1,8.550845e-05,0.000624774,0.0001934683,-0.0001724558,-0.0005180398,-0.00023443438,0.00015240721,0.00010217447,0.00013731909,0.0004988606,-0.00093733054,0.00013742223,-0.00041746255,-0.0001575211,0.00077163987,0.00017880602,0.0004788097,0.0006626062,-5.9395796e-05,0.00010942342,-4.2483094e-05,-0.0004956805,-0.00057351403,9.9518336e-05,-0.00026770867,0.00011339318,7.5569376e-05,0.0001783697,8.095591e-05,-0.000527265,0.00015206262,-0.000111515634
CC(C)(c1ccc(OCCOCC2CO2)cc1)c1ccc(OCCOCC2CO2)cc1,-4.6697445e-05,0.00056796987,-4.8282556e-05,-0.00016633281,-0.00015803054,-0.00014619436,-9.163283e-06,0.00013711397,9.629945e-05,0.0004744525,-0.0006415574,0.00030650292,-3.448967e-05,-0.00017456524,0.000557892,7.1849674e-05,0.00018045027,0.00064112595,-7.960596e-05,-7.457519e-05,-0.00012960692,-0.00025383977,-0.00037697516,1.1746772e-05,-6.7041256e-06,2.5760382e-06,5.1593408e-05,2.0718202e-05,-0.0002439993,-0.000294446,-2.874434e-05,-0.0002061734
O=C1OC(=O)C2CCCCC12,7.3399395e-05,0.00045947172,0.00016070344,-8.20742e-05,-0.00075065065,-0.0004240377,4.736241e-05,3.1362288e-05,0.00014503743,0.0004389123,-0.0008225506,6.2189996e-05,-0.00026069675,-2.9066112e-05,0.0006814068,0.00023130514,0.00040582893,0.0004530009,3.102352e-05,0.00012468128,-0.00015188614,-0.00065121765,-0.0004600971,7.363316e-05,-0.00037707435,6.559398e-05,6.516185e-05,0.0002099052,0.0001484335,-0.00031899754,0.00040699635,5.6952238e-05
CN(C)Cc1cc(CN(C)C)c(O)c(CN(C)C)c1,0.000109974295,0.00066532195,-3.6274083e-05,-0.00023909286,-0.0002712533,-0.00024253968,0.0002215486,0.0002605319,1.5001511e-05,0.00054485723,-0.0007154476,0.00011888519,-0.00011150446,-8.8302884e-05,0.00052793603,0.00016744016,0.00036705658,0.000603579,-0.00019606366,-0.00015061302,2.2131484e-05,-0.00043096335,-0.0005186675,-3.1465665e-05,-0.00035624672,8.985214e-05,0.00012142956,0.00013042707,-0.00015362655,-0.0005475902,0.00023129955,-0.00020475453
CC(C)(c1ccc(OCCOCCOCCOCC2CO2)cc1)c1ccc(OCCOCCOCCOCC2CO2)cc1,-0.00011889823,0.00043484755,-5.122274e-05,-1.1175871e-06,-8.6229295e-05,-3.742799e-05,-0.000122002326,1.7909333e-06,0.00014590635,0.00040629134,-0.00037715398,0.00022708345,4.0237792e-05,-0.00014097476,0.00029014982,-5.5899378e-05,0.00017147185,0.00044791703,0.00020760833,-1.2610573e-05,-0.00017183495,-0.00011560228,-0.00021362957,-0.00014175102,9.330455e-06,-0.00018561166,9.189546e-05,0.00012058439,-0.00021451642,-0.00018402375,-2.7287751e-06,-5.668914e-05
Cc1cc(-c2cc(C)c(OCC3CO3)c(C)c2)c(C)cc1OCC1CO1,7.361127e-05,0.0004935395,-8.548517e-05,-0.00025455235,-5.504815e-05,-0.0001292536,1.6650185e-05,0.00020297803,1.2421282e-05,0.00035527535,-0.00054123625,0.00026312098,-0.00012418907,-5.9504528e-05,0.0005795816,0.00013119075,0.00012088008,0.00055844523,-4.342082e-05,-0.0002017743,-7.7387434e-05,-0.0002835669,-0.0003206199,8.7807886e-05,-0.00015411666,8.38656e-06,-8.1679784e-05,-8.753734e-05,-0.00022350182,-0.00039289938,-5.2833e-05,-9.939913e-05
Cc1cc(OCC2CO2)c(C(C)(C)C)cc1-c1cc(C)c(OCC2CO2)c(C(C)(C)C)c1,-0.00020184088,-8.0215745e-05,9.7981654e-05,-0.00020371145,-2.7130358e-05,-0.0002395697,5.4907985e-05,3.1767413e-06,-9.6590025e-05,-6.003678e-05,0.0001625577,-8.9574605e-06,8.8594854e-05,3.9899256e-05,-0.00018526334,7.1199145e-05,0.00020178966,0.00027869595,0.00030308333,0.00016719615,-0.00033199694,0.0001249141,0.0001698914,-1.1997297e-05,5.0854404e-05,-8.555967e-05,0.000115543604,-4.9732625e-05,-0.00012149359,4.033465e-05,2.8808601e-05,-9.01036e-05
N#COc1ccc(CC2CCCC(Cc3ccc(OC#N)cc3)C2)cc1,5.3980853e-05,0.00074989814,-0.000107459724,-0.00016736519,-0.00018814579,-0.0001210738,7.976405e-05,0.00010272302,7.6690456e-05,0.00047582295,-0.0006357888,0.00029835943,-0.00016623875,-0.00014777808,0.0006282525,0.00017553754,0.00010497263,0.000550159,-0.00029565534,-3.184285e-05,-0.00015087274,-0.00030202686,-0.00046289526,5.2462332e-05,-0.00013275864,5.098898e-05,0.00020143483,4.177913e-05,-8.976972e-05,-0.0005148351,-8.96249e-05,-0.00026635593
NCCNCCN,0.00026952242,0.000868205,0.0002306737,-1.9697472e-05,-0.00069554616,-0.0004465757,0.00012173131,8.3032064e-05,0.00039460906,0.0007021325,-0.0011016345,0.00032445788,-0.0001275083,-9.268848e-05,0.0009002546,-5.03147e-06,0.0001619719,0.00045222207,-0.00013436028,0.00030011823,-0.00021837815,-0.0004884418,-0.0006177421,0.00015212502,-0.0003331569,4.3064356e-06,-0.00022827554,0.00023106206,0.0004115242,-0.00025787624,0.0002521174,-0.00021211477
O=C=Nc1ccc(Cc2ccc(N=C=O)cc2)cc1,0.00011184253,0.0006240532,2.6071444e-05,-0.00018815277,-0.0005650064,-0.000292629,0.000101774,9.997096e-05,0.00010554516,0.00044344505,-0.0007604249,0.0002637161,-0.00019990746,-1.5005935e-05,0.00066076405,0.00012217974,0.0003794087,0.00050494797,-0.00026747282,0.00011284277,-0.00010511989,-0.0004494337,-0.0005375254,5.429238e-05,-0.00025766157,0.00013490207,0.0002162084,0.00012516975,-0.00011516572,-0.00045136875,0.00011418294,-0.00021811714
O=C(CCCC(=O)OCCCCOC(=O)CCCC(=O)OCCCCOC(=O)CCCC(=O)OCCCCOC(=O)CCCC(=O)OCCCCO)OCCCCO,-2.1659303e-05,-0.00093588885,7.35661e-05,4.1994266e-05,-0.0003740564,0.00047967583,0.00011092797,0.00011665467,-0.00095484476,-0.0017497428,0.002313111,0.00016571581,0.0005701957,0.00013969326,-0.00029352307,-0.00077842036,-0.0007585194,-0.0016013638,0.0008047952,8.766819e-05,0.00021059928,0.0007101851,0.0004251809,-8.9743175e-05,0.00037186826,-0.0009760186,-0.0003482448,-0.00013179705,-0.0006140147,0.0013739024,-0.00015065074,0.00030780025
CCC(CO)(CO)CO,7.494725e-05,0.00071140565,9.4608404e-05,-1.3737474e-05,-0.00071562734,-0.000543342,9.3933195e-05,0.00023768935,0.00025572604,0.0005476489,-0.0009854045,0.0002697762,-0.00010880362,-0.00013653794,0.0006929245,0.00016566925,0.00015017856,0.00058845803,-3.9613107e-05,0.00017995248,-0.00015976117,-0.0006194598,-0.000525082,8.9116395e-05,-0.0003368822,-4.8625283e-05,-0.00013007503,0.00021939538,0.00024326448,-0.00028044684,0.00031819474,-3.8926955e-05
O=C(CCCC(=O)OCCCCOC(=O)CCCC(=O)OCCCCOC(=O)CCCC(=O)OCCCCOC(=O)CCCC(=O)OCCCCOC(=O)CCCC(=O)OCCCCOC(=O)CCCC(=O)OCCCCOC(=O)CCCC(=O)OCCCCOC(=O)CCCC(=O)OCCCCOC(=O)CCCC(=O)OCCCCO)OCCCCO,0.0004519294,-0.007931621,-0.00016612094,0.00015672436,-0.0046444843,0.0044573545,0.0017879913,-0.0039937273,0.00019626576,0.00063383346,0.008762352,0.0029331231,-0.0025841407,0.0030505843,-0.0011208709,-0.0029486218,-0.008036604,-0.009367508,0.0025910886,0.005463251,0.00053958036,0.0075016185,0.002481432,-6.5316446e-05,0.00032136915,0.00058507174,-0.005327843,-0.00018668454,-0.0006859347,0.01049394,0.00021327939,0.0027608876
O=C(CCCC(=O)OCCCCOC(=O)CCCC(=O)OCCCCOC(=O)CCCC(=O)OCCCCOC(=O)CCCC(=O)OCCCCOC(=O)CCCC(=O)OCCCCOC(=O)CCCC(=O)OCCCCOC(=O)CCCC(=O)OCCCCOC(=O)CCCC(=O)OCCCCOC(=O)CCCC(=O)OCCCCOC(=O)CCCC(=O)OCCCCOC(=O)CCCC(=O)OCCCCOC(=O)CCCC(=O)OCCCCOC(=O)CCCC(=O)OCCCCO)OCCCCO,0.0028263712,-0.010296092,0.00026066042,-0.0014782548,-0.0073018842,0.005488562,0.003176774,-0.0047712214,0.0030531005,0.0002903738,0.010208547,0.0032005403,-0.0044121183,0.0020562715,-0.0030934252,-0.001440818,-0.011312818,-0.007886109,0.0052358247,0.006717828,-0.00065400684,0.0076939343,0.0038118628,0.004427322,0.002840605,-0.0013419371,-0.004528437,-0.0013195518,-0.0013835484,0.012587542,-0.00077030994,0.0041287234
C=C(C)C(=O)OCCOCCOCCOCCOCCOCCOCCOCCOCCOCCOCCOCCOCCOC(=O)C(=C)C,-4.9360096e-08,0.00015987549,0.00018010195,-7.5533986e-05,-0.00039813295,-0.00034910254,-0.00013817381,-0.00027151592,0.00013238634,0.00011956366,5.7346188e-05,0.000136015,-3.2374635e-05,-0.00015588803,9.192154e-07,-8.37869e-05,5.283812e-05,0.00017341156,0.0004347989,0.00015167473,-0.00025298423,-0.0001183853,7.67e-05,-7.886812e-05,-4.270207e-05,-0.0003110189,0.00018765405,0.00015523471,-1.0008225e-05,-1.7169863e-05,0.00027444214,0.00023712125
O=NN([O-])c1ccccc1.O=NN([O-])c1ccccc1.O=NN([O-])c1ccccc1.[Al+3],-0.0002763206,0.00055667385,0.00031198282,-0.00012490386,0.00022109691,-3.4953468e-05,7.496029e-05,-0.000111347996,-4.129857e-05,1.0905787e-05,0.0001853006,0.00013274048,-0.00017371122,-9.2001166e-05,0.000489329,0.00014789635,-0.000340085,0.00059623667,4.3497188e-05,7.3782634e-05,-0.00067666953,0.00017784897,-0.00032569747,0.00016590767,8.1005506e-05,-0.00039740745,2.9408373e-05,-9.355601e-06,6.853184e-05,4.7012232e-05,-0.0006134948,-0.00046831788
CC(COC(=O)CCS)(COC(=O)CCS)COC(=O)CCS,0.00022325665,0.0003020838,7.678196e-05,-0.00023248931,-0.00040567853,-0.0004814593,7.533282e-05,2.2199005e-05,0.00013018562,0.00044014258,-0.00054694153,0.00016726833,-0.000118523836,5.0005503e-05,0.0005414095,8.137757e-05,0.00034122076,0.00046885293,-0.00012012734,-0.00020986563,-6.305659e-05,-0.0004414745,-0.0002893461,3.9585866e-05,-0.00022408785,1.26268715e-05,0.000119896606,-2.7399044e-05,-0.000108348206,-0.00029216148,0.0002941033,-9.489292e-05
C=CCn1c(=O)n(CC=C)c(=O)n(CC=C)c1=O,0.000108411536,0.00049141794,-5.6962483e-05,-0.0001987582,-0.0003921925,-0.00032655802,6.164238e-05,0.00026379712,6.125192e-05,0.00030620443,-0.0005329251,0.00020269118,-5.150214e-06,7.715495e-05,0.00061008055,0.00016507739,0.00030464865,0.00037879846,-0.00021682656,-9.168079e-05,-8.706469e-05,-0.0004206925,-0.00026100734,-5.8352947e-05,-0.0002935701,-1.6149133e-06,0.00022031367,8.565374e-05,-0.00026306044,-0.0003244318,0.00017638411,-0.00017015776
C=CCOCC(COCC=C)(COCC=C)COC(=O)NCC1(C)CC(NC(=O)OCC(COCC=C)(COCC=C)COCC=C)CC(C)(C)C1,0.00012143515,-0.0010651387,0.0001515476,0.000256652,-0.0002017282,0.0002207933,-0.00022761244,-4.691165e-05,-0.00085498346,-0.0013827863,0.0019846652,-0.00021336228,0.00057594944,6.170105e-05,-0.0009965701,-0.00047612237,-0.0008695787,-0.0014312123,0.0008020217,0.0006635501,-0.0002543989,0.0007362139,0.0005170661,-0.00025601033,0.00028836587,-0.0004298305,-7.181987e-05,0.00012162654,-0.000562723,0.0011411873,0.00016349275,0.00047744997
C=C(CCS)OCC(COC(=O)CCS)(COC(=O)CCS)COC(=O)CCSC(=O)NCC1(C)CC(NC(=O)SCCC(=O)OCC(COC(=O)CCS)(COC(=O)CCS)COC(=O)CCS)CC(C)(C)C1,-9.630481e-05,-0.0030286415,0.00079098437,0.0012562247,-0.0010908036,0.0012182798,-0.0008735601,-0.0021252139,-0.00146407,-0.0012715743,0.0039749313,0.00026783347,-0.00072160875,0.0011970829,-0.0009889612,-0.0025774357,-0.003234474,-0.0053935545,0.00054491335,0.002167069,0.0003711729,0.0021344959,0.0016710903,-0.0013300413,0.0007395786,0.00052405894,-0.0009868303,0.0006657378,-0.0003474548,0.0051785884,0.0003474569,0.0010812301
C=CCOCC(CO)(COCC=C)COCC=C,5.6582037e-05,0.0005774377,-2.2222288e-05,-5.5192504e-05,-0.0007374906,-0.00053845346,2.7705915e-05,0.0001514079,0.00023038848,0.0005590217,-0.00083685946,0.00023221411,-0.00016143965,-0.00017303089,0.0005804477,0.00022268994,0.00031644572,0.00051949476,-6.8816356e-05,8.64286e-05,-0.00010298367,-0.000568597,-0.00053979596,3.130734e-05,-0.00030559255,6.886106e-05,0.00016669929,8.645188e-05,6.829761e-05,-0.00035022618,0.00035502668,5.602371e-06
C=C(C)C(=O)OC,0.00016970886,0.0006161425,0.00013365038,-2.5048386e-05,-0.00069242856,-0.000519108,1.0374002e-05,0.00017043483,0.00025601801,0.0005740309,-0.00093334913,0.00016368087,-0.00018756138,-7.835729e-05,0.0007154504,0.00031835167,0.00017429702,0.00057225116,-3.185519e-05,0.00023867982,-0.00017050025,-0.0006889688,-0.00045551127,9.2279166e-05,-0.00026427535,-8.2236715e-05,-9.57055e-05,0.0002308311,0.00025126175,-0.00029580016,0.00034815818,2.3873989e-05
O=C(OOC(=O)c1ccccc1)c1ccccc1,9.452924e-06,0.00078173727,7.5462274e-05,-0.000110580586,-0.0005232338,-0.00038167834,8.026697e-05,0.00010900013,0.00020646653,0.0005981624,-0.00088614225,0.00018555764,-0.00021697488,-0.00017925119,0.0006842343,0.00020661997,0.00025369134,0.00072504836,-0.00023896969,0.00016598823,-0.00019644934,-0.00052860763,-0.0006490224,0.00010924321,-0.0002833805,7.391069e-05,0.00017455779,0.00022337632,3.184867e-05,-0.0005688425,0.00013777055,-8.788705e-05
C=C(C)C(=O)OCCOCCOCCOC(=O)C(=C)C,0.00014115497,0.0004200749,2.4903566e-06,-0.00013710652,-0.0005923584,-0.00044651143,8.546002e-05,1.3210811e-05,0.00017424463,0.00050394656,-0.00066356827,0.00014089327,-0.00015677558,-5.2585732e-05,0.0005190056,0.00018869294,0.00038522715,0.0003639753,-0.00016905111,-2.142135e-05,-9.014504e-05,-0.0004900993,-0.00030165678,-5.192589e-05,-0.00023044879,2.9692426e-05,0.00020301435,5.2607153e-05,-7.7220844e-05,-0.00040152064,0.00034961477,-3.555091e-05
CC(C)(CCC(C)(C)N=C=O)CN=C=O,-4.3231994e-06,0.00050642155,2.4834648e-05,-8.689007e-05,-0.00054404093,-0.00046065263,9.7405165e-05,0.00025545713,0.00013619917,0.00037978776,-0.0007001832,0.00023590308,-8.347351e-05,-0.00016863085,0.00064908806,5.1054638e-05,0.00019180682,0.0003404189,-0.0001661235,-2.606539e-05,-8.143054e-05,-0.00062516227,-0.00042033847,-3.582798e-06,-0.00030507706,-6.507058e-05,0.000104988925,0.00012046471,-0.00013040216,-0.00028586574,0.0003441684,-0.00015750574
C=CCOCC(CC)(CO)CO,8.3331484e-05,0.0006457865,-5.029142e-07,-3.1090807e-05,-0.00082832715,-0.00056652725,9.192154e-06,0.00021053292,0.0002645522,0.0006133234,-0.0009280257,0.0002560448,-0.00016130973,-0.00018390827,0.0006341422,0.0002648742,0.00030716322,0.00058363494,4.8630638e-05,0.00018757395,-0.00015997083,-0.0006466055,-0.0005729161,6.3139945e-05,-0.00028929533,2.0707026e-05,3.891997e-05,0.000102721155,0.00016836612,-0.0003524539,0.0003354475,6.0315244e-05
CC(CO)CO,0.00023250701,0.00082103163,0.00022454094,-2.4506357e-05,-0.00071613956,-0.00050009694,4.975591e-05,5.4118223e-05,0.00036137342,0.0006804634,-0.0010992372,0.00029090606,-0.00014698505,-2.3043714e-05,0.0007877741,5.3448137e-05,9.8842196e-05,0.0005282436,-0.00020295545,0.00021056784,-0.0002147532,-0.0005242297,-0.0005681836,8.5447915e-05,-0.00037061563,2.5845133e-05,-0.00021724869,0.00026205182,0.00041429256,-0.00031353906,0.00027570408,-0.00018547429
C=CCCO,0.0003206837,0.0008080937,0.0002561286,-6.5392815e-06,-0.0007168269,-0.00045173522,6.8617985e-05,2.4828129e-05,0.00032822578,0.00068438705,-0.0010680854,0.00030835532,-0.00014562439,1.5588943e-05,0.0008547818,5.957717e-05,9.004958e-05,0.00041231606,-0.00016764109,0.00029828446,-0.00025193882,-0.00049895083,-0.0005305433,0.00014486257,-0.00032682484,-2.1314248e-05,-0.00019760616,0.00028456096,0.00043097162,-0.00021641748,0.0002738312,-0.00017987378
O=c1n(CCS)c(=O)n(CCS)c(=O)n1CCS,0.00018674694,0.00052813534,-6.0731545e-06,-8.771662e-05,-0.00046362262,-0.00033408683,0.00014217105,0.00019864645,0.00018044165,0.00037379097,-0.0006454466,0.00020987168,-8.274056e-05,-5.7680998e-05,0.0007455414,-1.0186341e-05,0.0004499983,0.0005014248,-0.000133669,-7.8747515e-05,3.5410514e-05,-0.0004283986,-0.00045912853,7.031299e-05,-0.00023823092,7.471442e-05,0.00020548794,0.00011726562,-0.00014594593,-0.0003873394,0.00023351796,-0.00014690589
CC(C)(CO)CO,0.00016509555,0.0007907804,0.00014856923,4.3064356e-06,-0.00068332255,-0.00051715784,6.755162e-05,0.00015972089,0.00034442334,0.0006562434,-0.0010234201,0.00024477765,-0.0001495434,-0.00014602393,0.0007608151,0.00015037647,0.00010093488,0.00049472344,-0.00010982086,0.00021496741,-0.00019282242,-0.000619881,-0.0005770661,0.00010623783,-0.0003480292,-5.389843e-05,-0.00017229933,0.00023970427,0.00032106298,-0.00029668305,0.00030360091,-8.989917e-05
OCC1CCC(CO)CC1,0.00010761898,0.0007654615,6.229151e-05,2.6636291e-05,-0.0007557506,-0.0005059289,0.000110192224,0.00018657837,0.0003148967,0.0005697515,-0.0009559328,0.00029412284,-0.00014224928,-0.00018542772,0.00073888805,0.00017113052,0.00022739265,0.00050617475,-9.65246e-06,0.00021962216,-0.00014804048,-0.0006071081,-0.00059176935,0.00012915768,-0.00034737727,-1.1503696e-05,-0.00011393521,0.0002008751,0.00029971148,-0.00023302529,0.00027299393,-4.5978464e-05
O=C=NC1CCC(CC2CCC(N=C=O)CC2)CC1,0.00015506754,0.00045431964,2.354756e-05,-0.00013844622,-0.00063313777,-0.00039201323,2.6660971e-05,-1.5385449e-05,0.00014947797,0.00046325894,-0.00064755045,0.00026272237,-0.00012953253,-1.4135148e-05,0.000507243,0.00016631559,0.00039228518,0.0003357709,-0.00018973858,2.8738752e-05,-0.00012237579,-0.00047002546,-0.00040690275,-2.4924055e-05,-0.00031503476,0.00013572257,0.00019666925,3.310293e-05,-8.961954e-05,-0.00033855997,0.00029893778,-8.339761e-05
O=C=NCCCCCCN=C=O,0.00027152617,0.00054224953,0.00028822664,2.9125717e-05,-0.00078956597,-0.00058823824,7.0371665e-05,0.00017126277,0.00011990848,0.00048352173,-0.00072402693,0.0002583908,-7.26711e-05,-3.809342e-05,0.00080356747,2.7913135e-05,0.00017814338,0.0003897529,-1.832121e-05,0.0002798261,-0.00019479136,-0.00061256357,-0.00047265086,0.00025502965,-0.00018039718,-8.6616725e-05,-5.6395307e-05,0.00018348545,0.00025622244,-3.0152034e-05,0.00033338554,-0.00022148527
O=C(CCS)OCC(COC(=O)CCS)(COC(=O)CCS)COC(=O)CCS,3.9323233e-05,9.22801e-05,-2.5205314e-05,-0.0002701329,-0.00024597626,-0.0004887674,-6.7097135e-05,0.0001181392,-6.091129e-05,0.00023322739,-0.00025927182,0.00026302133,8.604769e-05,-1.4329795e-05,0.00031079073,-7.9318415e-05,0.0001039519,0.00028995634,-3.1247502e-05,-0.00023079338,4.384271e-05,-0.00030632853,-2.753269e-05,0.00028111413,2.6733615e-06,-0.00013235305,4.7795475e-05,-0.00013976172,-0.0002843612,-8.0304686e-05,0.00015014596,-0.00030877488
CCO[Si](CCCN(CCC(=O)OCCO)CCC(=O)OCCO)(OCC)OCC,-1.9599684e-05,4.6782196e-05,-0.00010038726,-0.00027253758,-0.00021584146,-0.00039319042,3.944151e-06,0.00019727834,-0.00019111554,9.146286e-05,-0.00034922455,0.00021746103,7.741526e-05,8.2416926e-05,0.00017170049,0.00010903692,0.0001822873,0.00019671186,2.4196925e-05,-0.00015794067,6.6214707e-06,-0.0002811466,-9.959936e-05,0.00014926866,-9.543309e-05,-9.205844e-05,3.705267e-05,-0.00016391184,-0.00035539526,-1.805462e-05,0.00011219457,-0.00018590502
CC1(C)CC(N=C=O)CC(C)(N=C=O)C1,7.891143e-05,0.00043295696,1.759734e-05,-0.0001015258,-0.0005726386,-0.00043846853,0.00017160084,0.00015727524,7.320871e-05,0.00038423995,-0.0006315615,0.00024897046,-0.00010854192,-6.187381e-05,0.0005535204,0.00013555028,0.00035232957,0.00035774894,-0.00012112176,1.3268087e-05,-5.0897826e-05,-0.000526792,-0.00041689212,-2.325233e-05,-0.00024148123,5.098805e-05,0.00021031685,1.1865515e-05,-0.00016514189,-0.00028876355,0.000327087,-8.850265e-05
COCCOCCOCCOCCOCCOCCOCCOCCO,0.00017815921,0.0007102359,5.132612e-05,6.515067e-06,-0.00074845785,-0.00045974832,1.4672987e-05,-7.938873e-05,0.0003296712,0.0006210543,-0.00093109347,0.00023275334,-0.00023727212,-0.00017696852,0.0007502977,3.501773e-05,0.00032511353,0.00037809182,-0.00010602921,0.00011833152,-0.00017540983,-0.00054265454,-0.0005029584,-4.977919e-06,-0.00035490142,0.00010148436,0.0001049554,0.000120706856,0.00019858987,-0.00042570196,0.00033262838,-1.3284851e-05
C=C(C)C(=O)OCCOCCOCCOCCOCCOCCOCCOCCOCCOCCOCCOCCOCCOCCOCCOCCOC(=O)C(=C)C,0.00016677752,1.3385899e-05,7.9103746e-05,-3.981404e-06,-0.00044585858,-0.00022962224,-0.00013496727,-0.0003527552,-3.480329e-05,-0.00026891986,0.0001646895,6.1091036e-05,2.0049512e-05,-0.00018723914,-0.00013823155,-0.00024358509,-6.1611645e-05,-0.00012233923,0.0005467881,0.00011223229,-9.4197225e-05,4.317111e-05,-8.6021144e-05,-0.00044178218,7.294724e-05,-0.0005309861,-2.232939e-05,0.00014792522,-0.00017780927,2.6620924e-05,0.00019442942,0.0004216251
Nc1cccc(S(=O)(=O)c2cccc(N)c2)c1,0.00015049893,0.00068895146,6.1949715e-05,-0.00018801121,-0.00045989687,-0.00016182382,0.00012637489,0.00010223873,9.902823e-05,0.0005038702,-0.00075221714,0.00015222188,-0.00032053282,-0.00013050949,0.00066462345,0.00024235109,0.00048757903,0.00064855325,-0.00020625326,-4.135957e-05,2.553314e-05,-0.0003964639,-0.0006038551,6.970018e-06,-0.00026836945,0.00019698963,0.00018265378,6.440189e-05,-4.2486005e-05,-0.00062066317,0.000120474026,-9.870855e-05
OCCOCCO,0.0002440135,0.0008681249,0.00018628687,-1.2782868e-05,-0.0007621129,-0.00046377815,6.107148e-05,5.3239986e-05,0.0004048103,0.0007118024,-0.0011088094,0.00032197032,-0.00011896342,-4.9874652e-05,0.00086661335,2.2793189e-05,0.0001556743,0.00039773923,-0.0001433373,0.00024140393,-0.00022486411,-0.0005221873,-0.00059794635,9.849481e-05,-0.0003656596,1.7869286e-05,-0.00021063164,0.000263541,0.0004182069,-0.00027380884,0.00027377252,-0.00016791979
OCCCCO,0.0003178469,0.00081425346,0.00025435165,-3.437465e-05,-0.0006935992,-0.00043866038,9.5658936e-05,3.73153e-05,0.00033163722,0.00065341964,-0.0010485947,0.00031403638,-0.00014231447,2.621999e-05,0.00082752574,2.7954113e-05,8.665817e-05,0.00040640053,-0.00016235723,0.00026588654,-0.00022817845,-0.0005035695,-0.00055078836,0.00014075264,-0.0003557573,-3.1024218e-05,-0.00025993958,0.00026784278,0.00042995834,-0.00019702408,0.00027232524,-0.00017431332
C=CCc1ccc(OCC2CO2)c(-c2cc(CC=C)ccc2OCC2CO2)c1,-0.000111041125,0.0006448552,-8.511264e-05,-0.00026691798,-0.000101010315,-0.00022054277,-1.2835488e-05,0.000196876,8.576782e-06,0.00041375775,-0.00049184076,0.00037843268,-3.317371e-05,-4.2751897e-05,0.00056751445,0.00017898576,7.5287186e-05,0.0005338695,-0.00021398463,-0.00017919717,-0.00020784594,-0.00026438013,-0.0003420785,3.772322e-05,-0.00018597534,3.003329e-05,0.00015537441,2.0520296e-05,-0.00023258082,-0.0004084725,-0.00021747872,-0.00033414224
COc1cc(CC2CO2)ccc1OP(=O)(Oc1ccc(CC2CO2)cc1OC)Oc1ccc(CC2CO2)cc1OC,-0.0001868438,9.755604e-05,-5.960837e-05,-8.754106e-05,0.00010705646,0.00029321574,5.2238815e-05,-3.0070543e-05,-6.59104e-05,-5.0645787e-05,0.0003613867,7.2469e-05,1.0626391e-05,5.3025316e-05,0.00020435452,-4.5652967e-05,3.938563e-06,0.0003533892,0.00030738,-7.540407e-05,-0.00029172527,0.00031036593,-0.00015979167,3.5910867e-05,0.00019700313,-0.00022804365,0.00011078082,-0.00019149901,-0.00015055644,-4.3194275e-05,-0.00043656304,-0.00014405139
C(=N/c1ccc(OCC2CO2)cc1)\c1ccc(OCC2CO2)cc1,-1.7658342e-05,0.0006539263,-4.6836212e-06,-0.00026838807,-0.00018171594,-0.00010883622,-1.2612902e-05,4.8628077e-05,7.020752e-05,0.0005339463,-0.00076571107,0.00024987012,-0.00017469004,-4.6396628e-05,0.0006717555,-4.062336e-05,0.00022147968,0.0007104231,-0.00032602926,-4.5160297e-05,-0.00017712149,-0.0002832762,-0.00041075936,-3.3142976e-05,-0.00013044244,0.00014224928,0.00014971755,0.00013438053,-0.0002451779,-0.0005689543,-3.4507364e-05,-0.00033333804
COc1cc(/C=N/c2ccc(OCC3CO3)cc2)ccc1OCC1CO1,9.4436575e-05,0.0006863605,-1.9043684e-05,-0.00018009776,-0.00021433877,-0.00015193876,7.491745e-05,-1.7101876e-05,6.524543e-05,0.00045554945,-0.00060438365,0.0002735546,-0.0003730799,-8.2856044e-05,0.00076724216,0.00010441942,0.00020937994,0.0005432342,-0.00014603185,-6.0641207e-05,-0.00016465981,-0.0003568678,-0.00043501705,0.00010584388,-0.00023806514,0.00012850668,-9.028241e-06,5.4880977e-05,-0.00014555152,-0.00043274416,-1.3981946e-05,3.113877e-06
COc1cc(CC2CO2)ccc1OC(=O)c1ccc(C(=O)Oc2ccc(CC3CO3)cc2OC)cc1,-0.00024288893,0.00014255755,-3.0453317e-05,-0.00020101806,0.0002206415,7.5025484e-05,-0.00011908077,9.835418e-05,-9.515858e-05,4.4201966e-05,-0.00010764785,0.00022914167,0.00015478954,-2.9627234e-05,0.00017355196,1.6169623e-05,3.0616764e-05,0.00037225778,7.580151e-05,-0.000120523386,-0.00030509394,7.6884986e-05,-5.2689575e-06,7.7103265e-05,0.00013110926,-6.0498714e-06,0.00030344445,-0.00019385573,-0.0002199153,-9.6574426e-05,-0.0003371099,-0.0003780611
COc1cc(CC2CO2)ccc1OCc1ccc(COc2ccc(CC3CO3)cc2OC)cc1,-0.0001473669,0.00034662336,-3.2113865e-05,-0.00019140728,-3.5450794e-05,-1.4138408e-05,-0.00015989039,-4.4371e-05,-5.8858423e-05,0.00036869198,-0.0004961863,0.00017769169,-7.511675e-05,-0.00011357898,0.0004372541,6.384356e-05,0.0002827039,0.00039396272,-3.6417507e-05,-0.00012425939,-0.0002737511,-0.00020426943,-0.00023870263,-8.895062e-06,-2.1945685e-05,5.9358776e-05,0.00021416135,-3.3842865e-05,-0.00019730465,-0.00038089976,-8.127466e-05,-0.00022162078
COc1cc(CC2CO2)ccc1Oc1nc(Oc2ccc(CC3CO3)cc2OC)nc(Oc2ccc(CC3CO3)cc2OC)n1,-0.000105527695,-8.654222e-05,3.4795143e-05,-2.9752962e-05,-4.849583e-05,0.00033471733,-3.2803044e-05,-0.0001745969,-0.00010332279,-0.0003661369,0.00042753667,-7.593073e-05,0.0001498023,7.164152e-05,7.512886e-05,-0.00012407871,-4.356075e-05,2.0537758e-05,0.0004141375,9.781588e-05,-0.00047928432,0.00043480657,-2.560066e-05,4.8893504e-05,0.00012983894,-0.000282621,0.0001880955,5.8623496e-05,-0.00014506537,-8.755922e-05,-0.0003613364,-4.256144e-05
COc1cc(C(c2cc(C)c(O)c(O)c2)c2cc(C)c(O)c(O)c2)ccc1OCC1CO1,-4.860107e-06,-8.491613e-05,-7.1083196e-05,-0.00035981182,8.234009e-05,-0.00014521182,0.00015707128,0.00034861919,-0.00033825962,-8.3570834e-05,1.828745e-05,-2.0744279e-05,0.00019070972,-8.954201e-06,3.1303614e-05,0.00023765909,0.00015741354,0.00041512842,0.00034599123,-0.00027411617,-9.479176e-05,-3.964256e-05,-9.629503e-05,0.00024980586,0.00031594047,-6.8144873e-06,0.00011319574,-0.0005032043,-0.0002629927,0.00010446645,-0.00013610162,-0.0001788456
COc1cc(C(c2cc(C)c(OCC3CO3)c(O)c2)c2cc(C)c(OCC3CO3)c(O)c2)ccc1OCC1CO1,-1.7372891e-05,-0.00023996644,2.2398308e-06,-0.00018383563,0.00018739514,0.00022265688,0.00020769238,9.528082e-05,-0.00025738892,-0.00041762646,0.0004726546,-0.00011422392,8.026138e-05,1.6449485e-05,-1.4252961e-05,9.0091955e-05,9.4856136e-05,3.0131778e-05,0.0005746789,-9.70806e-05,-0.00011211971,0.00047641504,9.029638e-06,0.00015960354,0.00027620653,-0.0003168732,4.553981e-05,-0.00017490704,-0.0001237879,0.0004331246,-0.0002832096,1.8710736e-05
COc1cc(C(c2cc(C)c(OCC3CO3)c(OCC3CO3)c2)c2cc(C)c(OCC3CO3)c(OCC3CO3)c2)ccc1OCC1CO1,0.0002581952,-0.00047143362,-9.680446e-05,0.00016975636,-8.2454644e-05,0.0005917372,0.00026781205,1.5050173e-06,-0.00034737098,-0.0007258225,0.0009894352,-0.00017138664,0.0002932893,-5.073799e-05,-0.0003580572,-0.00024171313,-3.1217933e-05,-0.00057317223,0.00058867154,1.1515804e-06,0.0001227681,0.00073297194,1.2025237e-05,-8.474104e-06,0.00038684392,-0.00059969537,-7.993821e-05,3.2101292e-05,-0.00017043599,0.00074195676,-0.0003490476,0.00023745652
CCCCC1OC1CCCCC1OC1CCCCCCCC(=O)Oc1ccccc1,6.9772825e-05,0.00054819137,-6.044004e-05,-0.00019466411,-0.0004020678,-0.000121515244,-7.682573e-05,-9.7707845e-05,0.00015974254,0.00044510327,-0.00064640027,0.00022850558,-0.00010972377,-5.4272823e-05,0.0006382549,5.2227173e-05,0.00027704006,0.00026053214,-0.00025003473,-0.00017137546,-0.00026921974,-0.00032011012,-0.00041384064,-0.00011232961,-0.0003085076,0.00015749875,0.0002571093,9.9351164e-05,-9.2434464e-05,-0.00046890182,8.608587e-05,-0.00019717077
COc1cc(COCC(O)CN)ccc1OCC(O)CN,5.822489e-05,0.0006093355,2.5289133e-05,-0.00010303082,-0.00052380934,-0.00020017195,0.00013485178,6.209966e-05,1.7480692e-05,0.00046014925,-0.0008096043,0.0001125047,-0.00040485663,-0.0001220135,0.00064899586,0.0001313095,0.00052893534,0.000648241,-0.00013384176,-6.0992315e-05,-1.3552606e-05,-0.0005189605,-0.00048931036,-4.936289e-05,-0.000339868,0.00017820485,0.00024370849,0.00012219278,-7.2175404e-05,-0.0006345655,0.00021624193,-7.9398975e-05
COc1cc(COCC2CO2)ccc1OCC1CO1,5.1319133e-05,0.00078400224,0.00011693034,-7.7416655e-05,-0.00050418824,-0.00016063359,0.00010982901,-9.903591e-05,0.00019779545,0.000553709,-0.00094165,0.0001074709,-0.00043822266,-0.00017102063,0.0007921811,7.265154e-05,0.00044748327,0.00059110485,-0.00017242576,1.1076219e-05,-0.00011885411,-0.0005390061,-0.0006118859,2.3416243e-05,-0.00040870532,0.0001839567,0.00020828098,0.00027813017,6.0704537e-05,-0.00058900565,0.00018192083,-4.6339817e-05
CC1(C)CC(N)CC(C)(CN)C1,4.574051e-05,0.0006488692,9.633601e-06,-7.894635e-05,-0.0005976977,-0.00051015243,0.00015753508,0.00028528273,0.00017016637,0.0005374332,-0.0008997293,0.00024081301,-0.00014072563,-0.00020448724,0.00066067465,0.00020772777,0.00033566263,0.000729264,3.580493e-05,0.00013870373,-8.268864e-05,-0.0006134511,-0.00057629077,7.903855e-05,-0.00019708415,-2.3092143e-05,3.1897798e-05,8.010445e-05,4.888582e-05,-0.00037722802,0.00032550842,2.2929627e-05
COc1cc(CO)cc(-c2cc(CO)cc(OC)c2OCC2CO2)c1OCC1CO1,5.1669776e-05,0.0006431602,-0.00013340358,-0.0001903777,-4.489906e-05,4.979782e-06,1.6733073e-05,0.00016696379,0.00014597247,0.00046140933,-0.00050255004,0.00041306112,-0.00028062565,-2.7548987e-05,0.0007238267,8.25366e-05,0.00011245161,0.00068284944,-5.5702636e-05,-0.00021410361,-0.00011453731,-0.00023586,-0.00039100787,0.00016988814,-0.00020400388,4.2829663e-05,-9.573996e-06,6.4256135e-05,-0.00012224936,-0.00040029176,-0.00018089917,-1.035165e-05
COc1cc(CO)cc(-c2cc(COCC3CO3)cc(OC)c2OCC2CO2)c1OCC1CO1,-2.4504028e-05,0.00050098356,-0.00012073666,-0.00016191555,1.0782853e-05,-2.724491e-05,-4.8428774e-07,0.0001369277,2.0229956e-05,0.0002789814,-0.00021835044,0.00030237716,-0.00016511884,-8.205837e-05,0.00060732104,0.00011023134,2.6804395e-05,0.00058822497,0.00011433638,-0.0002046912,-0.00015736464,-0.00014525943,-0.00027042348,0.00024030916,-4.7912356e-05,-6.184913e-05,2.4994835e-05,-9.1487076e-05,-0.00011158432,-0.00025141286,-0.00022758916,3.503356e-05
COc1cc(COCC2CO2)cc(-c2cc(COCC3CO3)cc(OC)c2OCC2CO2)c1OCC1CO1,-2.9925723e-05,0.00026864,-6.561633e-05,-0.00019692909,-1.8999912e-05,2.6875176e-05,1.3625249e-05,-0.000113981776,-7.411465e-06,0.00017701043,-0.00017765444,0.00016466994,-4.7126785e-05,-2.7263071e-05,0.0003433181,7.422315e-05,0.0001935414,0.00043329014,0.00025972468,-0.00010319287,-0.00026577583,3.9446168e-06,-0.00022785226,0.00010230206,5.8719423e-05,9.145588e-06,0.00016389973,-0.00018386822,-2.8698938e-05,-0.00020234007,-0.00016555935,-8.4110536e-05
O=c1cc(-c2ccc(OCC3CO3)cc2)oc2cc(OCC3CO3)ccc12,-2.1447428e-05,0.00043722615,-0.00014207046,-0.00020430097,-0.00018050801,-0.00015409663,-0.000104235485,0.00013061985,6.322074e-05,0.00047279336,-0.0007172935,0.0002880888,-9.999238e-05,-0.00017750775,0.00057652965,0.00019020122,0.00021750573,0.00053900667,-0.00012820796,-0.00014685094,-0.00011390459,-0.00027676055,-0.0003129146,-2.5430694e-05,-4.2692292e-05,0.00017210376,0.00022801012,-6.5054744e-05,-0.000263663,-0.00046292134,-9.823963e-05,-0.00017613219
CC1(C)CC(CN)CC(CN)C1,4.320359e-05,0.00063960627,4.821457e-06,-6.542448e-05,-0.0006838767,-0.000503459,0.00010170136,0.00022731163,0.00021889922,0.0005417643,-0.00091737695,0.00021679886,-0.000175911,-0.00021999702,0.00068873726,0.00020152936,0.0003240928,0.0006321727,3.7112273e-05,0.00018530386,-0.00012631842,-0.0006411887,-0.0005816007,4.9627386e-05,-0.00023999857,-2.7408823e-05,4.2153522e-05,8.9363195e-05,8.208188e-05,-0.00040213997,0.0003248239,6.138673e-05
NCCCCCCCCCCN,0.0002528848,0.00074212253,0.00025455467,-5.8613252e-05,-0.00070854416,-0.00042861328,0.0001483215,0.00014248397,0.00030873506,0.0005999394,-0.00095218606,0.00029025786,-0.00014858507,-0.00012989296,0.0008803243,-1.5256461e-05,0.00017834408,0.00043959497,-7.2389375e-06,0.00030047866,-0.0002150815,-0.00054568506,-0.000626029,0.0001777038,-0.00033187447,-8.239318e-05,-0.0002185572,0.00021684635,0.0003501752,-0.00014229305,0.0002874881,-0.00014301436
c1coc(CNCc2ccco2)c1,0.00020170351,0.0006923899,3.94769e-05,-7.566949e-05,-0.0006655543,-0.0003658589,0.0001262771,8.21678e-05,0.00027451082,0.0005244408,-0.001013184,0.00014983397,-0.00032970402,7.6075085e-06,0.0007551452,0.00022656424,0.00049023377,0.00061294367,-5.944865e-06,0.00018471386,-6.237766e-05,-0.00044708594,-0.0005943272,7.811375e-05,-0.0003385339,9.148568e-05,1.5649013e-05,0.00014910428,0.00025812467,-0.00044870842,0.00017067883,-1.9120052e-06
COc1ccc(OCC2CO2)c(CCC(=O)OCCCCOC(=O)CCc2ccc(OCC3CO3)c(OC)c2)c1,-0.00018456345,2.3264438e-06,2.2510067e-06,-0.00022063497,0.00010404317,-5.3751282e-05,4.441198e-05,7.935986e-05,-0.00014794967,-0.000318876,0.00036618486,0.00016412791,0.00014685467,5.0449744e-05,-8.655805e-05,0.0001030392,-0.0001525702,6.905873e-05,0.00021932065,-0.00012124283,-0.0003115699,0.0001846609,6.602937e-05,0.00012547802,-1.6821083e-05,-0.00016307551,0.00018367358,-0.00017961767,-0.00019372022,0.00021802261,-0.00032142177,-0.00021989038
COc1ccc(OCC2CO2)c(CCC(=O)OC2CC3OCC(OC(=O)CCc4ccc(OCC5CO5)c(OC)c4)C2O3)c1,1.1478551e-06,-0.00022613443,-3.805943e-05,8.844305e-06,2.7542934e-05,0.00034627877,5.7282858e-05,-3.8105994e-05,-0.00020118686,-0.00063121784,0.00060706586,-9.2194416e-05,0.00025520194,-1.3010111e-05,-0.00035003386,-0.00012379652,-7.28704e-05,-0.00013565947,0.00041961134,-0.00012905337,-0.0001901089,0.00056320435,5.7061203e-05,3.2077543e-05,0.00021118158,-0.00038031768,-1.4614314e-05,-7.638382e-05,-0.000114080496,0.0004339656,-0.0005203262,8.31224e-05
COc1ccc(OCC2CO2)c(CCC(=O)OCC(COC(=O)CCc2ccc(OCC3CO3)c(OC)c2)OC(=O)CCc2ccc(OCC3CO3)c(OC)c2)c1,0.0004913155,-0.0013746871,0.00033988152,0.0006612325,5.2231364e-05,0.00059485063,-2.7329661e-05,-0.00063976925,-0.0006070924,-0.0014429772,0.0019872282,-0.00019868743,0.00017971825,5.8969483e-05,-0.000824512,-0.0006302311,-0.000699698,-0.0019101764,0.0006196515,0.00063133007,-0.0001657732,0.00086404744,0.0007739421,-0.00044128392,0.00046888692,-0.00048806984,-0.0003802413,3.9341394e-05,-0.00032692938,0.0015938515,-0.0005190158,0.00045635318
CC1CCC2C(=O)OC(=O)C2C1,0.00012967084,0.0005814992,2.2524036e-05,-4.5078807e-05,-0.00069977203,-0.0004289616,6.746687e-05,0.00014007743,0.00024606497,0.0005876813,-0.0007870635,0.00017850287,-0.000202219,-0.00016564503,0.0006433856,0.00032097334,0.00032740645,0.0005215283,1.3627578e-06,0.00014538923,-0.00011483731,-0.00061704277,-0.0005409303,0.000100975856,-0.00027145492,8.888543e-06,5.678553e-05,0.00014843885,8.917996e-05,-0.00032079918,0.00030780118,0.00011899229
CC(=O)/C=C(/C)[O][Zn][O]/C(C)=C\C(C)=O,4.8401766e-05,0.0004747752,5.0508417e-05,-0.00021319743,-0.0003121365,-0.00042513572,-7.057469e-05,3.170222e-05,-2.6179012e-05,0.0003541191,-0.0005294718,0.00013756938,-7.728487e-05,-1.0243151e-05,0.00051967986,7.85063e-05,4.4000335e-05,0.00036567496,-0.00025099306,-0.000106210355,-0.00013831386,-0.0003702792,-0.0002509798,-6.351899e-05,-0.00020488119,4.8726797e-06,8.642208e-05,4.2362604e-05,-0.00020648469,-0.00028768275,0.00019932166,-0.0002404158
COc1ccc(OCC2CO2)c(C(c2ccc(OCC3CO3)c(OC)c2)c2cc(OC)ccc2OCC2CO2)c1,-8.119829e-05,-3.1974167e-05,-3.877282e-05,-9.567896e-05,0.00025176723,0.00017704163,0.00010232162,3.708247e-05,-9.9741854e-05,-0.0001127203,0.00033315085,-9.581167e-05,0.00013679266,4.428858e-05,4.6323054e-05,7.6969154e-05,-4.557427e-06,0.0002915531,0.00034301146,-6.37318e-05,-0.0003207879,0.00031640765,-0.000103189144,0.00014311541,0.00016012834,-0.00024185888,0.00018747896,-0.00020018453,-2.9739924e-05,6.931042e-05,-0.00037817657,-0.0002796217
COc1ccc(OCC2CO2)c(CCCC(=O)OCCOC(=O)CCc2ccc(OCC3CO3)c(OC)c2)c1,-0.00019782735,-1.6563572e-05,-2.2500753e-06,-0.00014020363,0.00011478923,6.172806e-06,2.6983209e-05,7.111207e-05,-0.0001408374,-0.00033041695,0.00033457018,0.0001982646,0.00013011415,5.2340794e-05,-6.134808e-05,4.0808227e-05,-2.6812777e-05,0.00010781945,0.00028226967,-0.0001677624,-0.00021905254,0.00017974677,5.6283083e-05,0.00013182405,2.6545487e-05,-0.00016795285,0.000108051114,-0.0001921067,-0.00020919391,0.00024272176,-0.0003241254,-0.00018901657
CC1(C)CC(N)CC(C)(C)C1CN,7.6491386e-05,0.00063424185,-9.677373e-06,-9.624334e-05,-0.00060587656,-0.00048709568,0.0001257211,0.00022459589,0.0001663256,0.00053399475,-0.0009143613,0.0002216855,-0.00015599746,-0.00016382197,0.0006576078,0.00023333728,0.000366034,0.0006372004,3.5604695e-05,0.0001355689,-8.3955936e-05,-0.0006047728,-0.00055527315,1.58865e-05,-0.0002003978,1.0122545e-05,8.699484e-05,8.6735934e-05,2.5688438e-05,-0.00040077185,0.00035147555,8.387072e-05
COc1ccc(OCC2CO2)c(CCCC(=O)OCCCOC(=O)CCc2ccc(OCC3CO3)c(OC)c2)c1,-0.00017191377,-2.263859e-05,-2.3748726e-07,-0.000223279,0.000106013846,-1.6121194e-05,5.38975e-05,8.4547326e-05,-0.0001607372,-0.00032492634,0.0003823014,0.0001890529,0.00015242957,7.714005e-05,-0.00014267769,8.4867235e-05,-0.000120698474,4.513422e-05,0.00024303724,-0.00013620872,-0.00030597986,0.00020457525,7.1621966e-05,9.700935e-05,-2.174778e-05,-0.00013978593,0.00015568454,-0.00019349856,-0.00021183235,0.00022346247,-0.0003130436,-0.00021732133
COc1ccc(OCC2CO2)c(CCCC(=O)OCCCCOC(=O)CCc2ccc(OCC3CO3)c(OC)c2)c1,-0.000112455804,-1.0389835e-05,5.3979456e-06,-0.0001888466,1.0626391e-05,1.0174699e-05,-9.359792e-07,2.6018359e-05,-0.00010501337,-0.0002298099,0.00026691332,0.00013080798,8.99164e-05,7.979106e-05,-0.00010507554,5.449541e-05,-5.460484e-05,7.058564e-05,0.00021160836,-0.00014030142,-0.0002833904,0.00016803911,0.00015095342,0.00011563208,-9.518582e-06,-0.0001632832,0.00021081883,-0.0001600692,-0.000166137,0.00024479348,-0.000246102,-0.00022532418
COc1ccc(OCC2CO2)c(CCCC(=O)OCCCCCCOC(=O)CCc2ccc(OCC3CO3)c(OC)c2)c1,-0.00017979462,-0.00010848604,4.4563785e-05,-0.00013813004,-2.3166649e-05,9.095296e-06,5.8265403e-05,-8.6454675e-05,-0.00019051018,-0.0005142372,0.00049503706,8.9221634e-05,0.00014239457,5.2411575e-05,-0.00028535724,-3.1942036e-05,-8.35699e-05,-9.2534116e-05,0.00032002735,-0.00010845577,-0.00017853675,0.00024840364,0.00011724746,3.8472936e-06,5.0561037e-05,-0.00027357042,0.00014600158,-0.00014184136,-0.00018838304,0.00039725937,-0.00030562654,-0.00015162397
COc1cc([C@H]2OC[C@H]3[C@@H]2CO[C@@H]3c2cc(OC)c(OCC3CO3)c(OC)c2)cc(OC)c1OCC1CO1,-3.1956006e-05,-0.00048452802,0.00030488614,6.0479622e-05,-9.185355e-05,0.00031404383,0.00018378627,-0.00041068345,-0.0005534503,-0.0013083965,0.0014686119,-7.2084367e-06,9.377953e-05,-6.459467e-05,-0.0002995059,-0.00034159236,-0.00041568838,-0.0012003051,0.0004728299,1.829071e-05,-0.00011918403,0.0006823707,6.59232e-05,-0.0003229389,9.209523e-05,-0.00067848153,-0.00018547103,0.0001675291,-0.0003462208,0.001059277,-0.00016520545,0.00020457571
CC(C)(c1occc1CN)c1occc1CN,0.00010986626,0.0008579213,0.00012776349,-7.17761e-05,-0.0005147364,-0.0003168881,0.00010894239,7.8272074e-05,0.00022062729,0.00052134227,-0.0008936478,0.00014965609,-0.00026018173,-0.00019734306,0.00081222877,0.00010580057,0.00027821772,0.0005980681,-0.00016961084,0.00010192208,-0.00014531799,-0.00055880717,-0.00057749357,4.46653e-05,-0.00029788679,5.3782016e-05,6.2132254e-05,0.0002742256,0.000103861326,-0.00045551732,0.0002228804,-0.00013259659
NCCCOC1COC2C(OCCCN)COC12,5.7755038e-05,0.00060425233,3.486313e-05,-4.7430396e-05,-0.00070638396,-0.0002716193,-1.871027e-06,7.0251524e-05,0.000202331,0.00051380973,-0.00090892427,0.00015714578,-0.00028289296,-0.00018183747,0.00066251215,0.00015126169,0.00035161152,0.00061661424,-0.000111294445,0.0001023002,-0.0001087588,-0.0005851638,-0.00056655286,5.976297e-06,-0.00043858355,0.00013855845,9.742472e-05,0.00015701447,8.4923115e-05,-0.00050320383,0.00032271259,1.048157e-05
OC(COC1COC2C(OCC3CO3)COC12)COC1COC2C(OCC3CO3)COC12,2.3833942e-05,0.0004049847,-3.149174e-05,-0.00017554127,-0.00033633504,-0.000151271,-0.0001946725,-0.0001448514,4.7686044e-06,0.00035368744,-0.00048799627,0.00025475677,-0.00010762084,-3.825687e-05,0.0004023211,-6.322563e-05,0.00014199084,0.00043070875,-8.102553e-05,-0.0001525064,-0.00018402725,-0.00017983594,-0.00019841781,2.8612092e-05,-0.000101886224,3.3918768e-05,4.0147454e-05,-4.3632463e-07,-0.00015415251,-0.00024599675,8.317921e-05,-1.6396865e-05
NCCN,0.00031301007,0.00084556267,0.00025373138,-6.0062855e-05,-0.0006637806,-0.00043501146,0.00011119153,4.2949803e-05,0.0003662079,0.00069453986,-0.0011297492,0.00029950868,-0.00016334932,7.941853e-06,0.0009013964,-9.366777e-06,0.00011866819,0.0004071279,-0.00015601586,0.00030742073,-0.00024441886,-0.0004720966,-0.0005868161,0.00012722518,-0.00036278972,2.5890768e-07,-0.00025034137,0.00024694297,0.00042656506,-0.0002648309,0.0002929652,-0.00020072702
NCCNCCNCCN,0.00022002961,0.00085494295,0.00024116319,-1.1148397e-05,-0.0007373262,-0.000502822,0.00011859648,0.00010961201,0.00038400362,0.0006619529,-0.0010832129,0.00033114478,-0.00011462532,-0.0001083198,0.0009192461,-9.234995e-06,0.00021261582,0.00056984136,-0.000102987746,0.00031537423,-0.00022766762,-0.0004957997,-0.000636755,0.00019495003,-0.0003096708,2.6587397e-05,-0.000151149,0.00017522275,0.00040233717,-0.0002951119,0.0001997212,-0.00026515266
NCCN1CCNCC1,0.00018373318,0.00077644363,0.00019937847,-5.642092e-05,-0.0007323129,-0.00045644864,8.6279586e-05,0.0001011258,0.00034980406,0.0005996297,-0.0010741139,0.00024044141,-0.0001794044,-0.00010784203,0.00089732464,6.867712e-05,0.0002343799,0.0005459823,-0.00010065711,0.0002465737,-0.00021734694,-0.00052496314,-0.0006150021,0.00015213154,-0.000384768,3.1776726e-05,-0.00015201978,0.0002371911,0.00035501434,-0.0003117593,0.00025755912,-0.00019504642
CC1(C)CC(CN)CC(C)(N)C1,6.273715e-05,0.0006038565,-3.7995167e-05,-9.394903e-05,-0.0006384449,-0.0005300883,0.00014927052,0.00029892288,0.00019598403,0.00055436837,-0.0008427361,0.00025188643,-0.00015211478,-0.00022252416,0.00063223764,0.00022523245,0.0003399565,0.0006450827,4.9079536e-05,0.00014584884,-9.2933886e-05,-0.0006374101,-0.0005639787,3.1760894e-05,-0.00019975891,-3.4677796e-05,4.5830384e-05,4.363153e-05,2.9701972e-05,-0.00038605276,0.00033921842,7.298263e-05
CC(=O)/C=C(/C)[O][Zn][O]/C(C)=C\C(C)=O.O,6.32396e-05,0.0004415922,5.553942e-05,-0.00022106059,-0.00029572425,-0.00041501597,-5.8921054e-05,5.8596954e-05,-5.094451e-05,0.000302854,-0.0005136542,0.00013557263,-3.5937876e-05,-3.031455e-07,0.0004963307,6.850576e-05,4.219357e-05,0.00035698875,-0.00020327861,-0.0001306436,-0.0001391694,-0.00037402753,-0.00024465378,-3.990438e-05,-0.00017288933,2.2649765e-05,6.728899e-05,-1.3386365e-05,-0.00022489834,-0.00027451478,0.00018723402,-0.00023624022
Nc1cccc(Oc2cccc(Oc3cccc(N)c3)c2)c1,0.00013100216,0.0007719211,-2.8715469e-05,-0.00012955861,-0.00041845068,-0.00010595843,0.00016229693,6.5674074e-05,0.00018010731,0.00059489673,-0.0008197678,0.00014116522,-0.0003882777,-0.00012226636,0.0006692121,0.00024008285,0.00041333959,0.00077850046,-0.0003128003,6.424263e-06,-4.1174586e-05,-0.00038347428,-0.00060623745,3.9522536e-05,-0.00023003248,0.00020277686,0.00021540653,0.0001263246,-1.8964522e-05,-0.00069379946,-3.29474e-05,-0.00019209925
O=C1OC(=O)c2cc(Oc3ccc4c(c3)C(=O)OC4=O)ccc21,-4.339125e-05,0.00022572093,-7.4893236e-05,-0.00028309645,-0.00028252183,-0.00027400814,-4.4942833e-05,9.049941e-05,-3.235205e-05,0.00028650556,-0.00056150183,0.00014443044,-3.4952536e-05,-4.0801708e-05,0.00049639307,0.00022417912,0.00027590897,0.0004822216,-0.00012378627,-9.131385e-05,-0.00014403649,-0.00032429805,-0.00029765116,5.639624e-05,-8.0240425e-05,0.00017950777,0.00023877434,-0.00012902217,-0.00023089047,-0.00049570063,2.104044e-05,-0.00019352837
C=Cc1ccccc1,0.00018272968,0.0008576177,0.00018419046,-0.00011644093,-0.00068710744,-0.00043914,5.4006465e-05,0.0001355866,0.0002571491,0.00060028955,-0.0010772934,0.00021014363,-0.00029913057,-4.8504677e-05,0.0008838847,0.00018049683,0.00018654531,0.00050079334,-0.00012142607,0.00016506249,-0.00021205377,-0.0005745705,-0.0005599656,0.00010494143,-0.00035223225,-1.3359822e-05,-8.035544e-05,0.00030751713,0.00031898054,-0.0003452138,0.00019622874,-0.00017847447
Nc1ccc(Oc2ccc(-c3ccc(Oc4ccc(N)cc4)cc3)cc2)cc1,-7.715821e-05,0.00033619814,-0.00024678092,-0.00017285626,-0.000107473694,-2.5666319e-05,-0.00011495035,6.634556e-05,0.00011839974,0.0006095292,-0.00086197443,5.5746175e-05,-5.9029087e-05,-9.6992124e-05,0.0004786048,0.00032325694,0.00043946505,0.0006743672,-0.00012983964,0.00011970615,-6.303599e-05,-0.0003489767,-0.0003274111,2.1650456e-05,-7.0458744e-05,0.0001696404,0.00026062876,8.9499634e-05,-4.9525872e-05,-0.00079501607,-0.00010646414,-0.00033741165
O=C1OC(=O)c2cc(C(c3ccc4c(c3)C(=O)OC4=O)(C(F)(F)F)C(F)(F)F)ccc21,-0.0002709222,-0.00056073535,0.00020184182,-0.0001249155,0.00011436362,-0.00017241575,-9.898562e-05,-0.00010954961,-0.00023716874,-0.0005630371,0.00085326005,-0.00023882557,0.00021553226,-1.2218952e-05,-0.000359945,1.4473684e-05,-0.00010010414,6.397418e-05,0.0005309589,0.00019926438,-0.00048382278,0.00026134367,0.00032322248,0.00030088704,0.00010709418,-0.00038714148,0.00021745078,-0.00011850614,-8.8766916e-05,0.0005405741,-0.00013031065,-0.0001382418
CC(c1ccc(Oc2ccc(N)cc2)cc1)(c1ccc(Oc2ccc(N)cc2)cc1)c1ccc(Oc2ccc(N)cc2)cc1,-0.00010735262,-0.00028044917,2.4690293e-05,-8.129515e-06,0.0001613982,0.00031263195,3.6691315e-05,-0.0002387669,-8.6379005e-05,-0.00044688955,0.0005517155,5.518552e-05,0.00015245378,-0.0001369263,-0.0002708258,-9.0029556e-05,-0.00015896792,0.0003177079,0.000390894,0.00043431437,-0.0005168696,0.00073826854,-0.00023528375,-0.000109305605,0.0005233316,-0.0004151836,0.00012875721,2.4316832e-05,-0.00018383935,0.00018027145,-0.00065997895,-0.0003154003
CC(C)(c1ccc(OC#N)cc1)c1ccc(OC#N)cc1,-1.8388033e-05,0.0007283641,-3.029313e-05,-0.00018158928,-0.0002870895,-0.00027605426,3.9768405e-05,0.00018112361,0.0001787839,0.0005654651,-0.0008138111,0.00020500738,-0.0001468216,-0.000244651,0.00071676075,9.0873335e-05,0.00024191802,0.00079941656,-0.00036027632,-5.6341756e-05,-3.268954e-05,-0.0004423951,-0.00048744865,8.121319e-05,-0.00013920292,4.758127e-05,0.00018527173,0.00013598427,-0.00016126595,-0.0006144545,1.3384968e-05,-0.00032465626
O=C(Oc1cccc(OC(=O)c2ccc(OCCOCC3CO3)cc2)c1)c1ccc(OCCOCC2CO2)cc1,-0.00014002807,0.00027884822,-7.432047e-05,-5.606655e-05,-2.0497944e-05,-1.4898367e-05,1.818128e-05,9.001978e-05,8.487399e-05,0.00017167162,-4.414562e-05,0.00012391899,0.00014956202,-8.919602e-05,6.93351e-05,4.7707465e-05,5.431613e-05,0.00050042965,0.00022563594,9.238487e-05,-0.00027947756,0.00011778134,-0.00023567583,-4.896242e-05,0.00022399286,-0.00015279837,0.0002472801,2.4105422e-05,-8.210144e-05,-0.00010020938,-0.0002941396,-0.0002976521
Nc1ccc(-c2ccc(N)cc2)cc1,8.934084e-05,0.000658622,6.889831e-05,-0.00013762806,-0.0005172924,-0.00030679163,0.00017258525,0.00013749581,0.00022075535,0.0005233078,-0.00095159747,0.0001797704,-0.0003512306,-0.00015751692,0.00076001324,0.00021671271,0.00042792596,0.000677089,-8.302112e-05,0.00015398907,-5.6499033e-05,-0.00052074564,-0.0005898061,0.00013117306,-0.00031876424,0.00010381825,2.249144e-06,0.00016714679,0.00010027713,-0.0005192496,0.00018303096,-6.562006e-05
CC(C)(c1ccc(N)cc1)c1ccc(C(C)(C)c2ccc(N)cc2)cc1,-0.00016267784,0.0003170306,-0.0001254566,-0.00028775446,0.000101929065,-0.00019113068,-0.00017144158,0.00017264113,-3.641378e-05,0.000422528,-0.0006818678,0.0002331473,7.889327e-05,-0.00016664295,0.00032425392,0.00011452846,0.00017391518,0.00066768564,-0.00018753274,-1.6185455e-05,-0.00022230204,-0.0002627992,-0.00025388552,3.9351173e-05,9.21716e-05,4.034862e-05,0.00015773159,-5.1469076e-05,-0.00029568258,-0.00044994848,-8.488912e-05,-0.00043950928
O=c1cc(-c2ccc3c(c2)CN(Cc2ccco2)CO3)c2c3c(c(O)cc2o1)CN(Cc1ccco1)CO3,-0.0001817653,-4.3396838e-05,-4.496053e-05,-1.8265564e-05,8.92831e-05,0.00019760616,-1.5469268e-06,5.1117502e-05,-9.394018e-05,-0.00021480303,0.0002626013,0.00022985134,0.0002454929,-0.000108172186,-8.262228e-05,2.0394102e-05,-0.00019465154,0.00042809942,0.00039900024,0.00011233939,-0.00039016095,0.00037184916,-0.00015571853,0.00016302802,0.00029634451,-0.00013239495,0.00013043545,-0.0002149418,-5.395501e-05,0.000109449495,-0.0004975088,-0.0002717874
CC12CCCCC1C(=O)OC2=O,0.00013419706,0.00062823016,9.0193935e-05,2.9996969e-05,-0.000725938,-0.00036375877,8.3624385e-05,8.083973e-05,0.00021713763,0.00047109323,-0.0007978203,0.00022669695,-0.00019724667,-0.00014298921,0.00071437005,0.0001528319,0.00033255946,0.00047144666,-2.9042829e-05,0.00018686149,-0.0001129437,-0.00060756097,-0.00050098076,5.8271922e-05,-0.0003673858,5.788356e-05,-3.4179538e-06,0.00012372667,0.00016779476,-0.0002869703,0.0003382545,-4.36618e-05
c1ccc(P(c2ccccc2)c2ccccc2)cc1,3.9695762e-05,0.00073634647,1.592096e-05,-0.00017504813,-0.00049319305,-0.00033935625,0.00015065726,9.044353e-05,0.00023168209,0.00062953867,-0.0009875325,0.00015989784,-0.00034313463,-0.00010852842,0.00072829705,0.00028809952,0.00044144737,0.00068913517,-0.00017171004,0.00014192471,-0.0001421544,-0.00043795723,-0.0006832513,5.5296347e-05,-0.00027046585,0.00012777653,0.00024240743,0.0001448188,5.172519e-05,-0.0006246362,0.000111149624,-6.0093123e-05
O=C(O)c1cc(C(=O)O)cc(C(=O)O)c1,9.820797e-06,0.000654852,-7.371139e-05,-0.00020827819,-0.000538697,-0.0003687432,7.658079e-05,0.00023699366,7.0232665e-05,0.00047222013,-0.000795966,0.00018434692,-0.00019766157,-9.381911e-05,0.0006298581,0.00019489974,0.00038312003,0.00068666507,-0.00022711302,-5.5896584e-05,-1.6142265e-05,-0.00047146436,-0.0005037682,3.258325e-05,-0.00030318229,0.00012567453,0.000254089,0.000107731204,-0.0001592543,-0.0006215335,0.00019746274,-0.00019197632
O=C(O)CCC(=O)O,9.7433105e-05,0.00072731264,0.000112552196,8.158851e-06,-0.00078747934,-0.000574938,4.7127716e-05,0.00026731472,0.00025662384,0.0005153711,-0.00089350436,0.00027143396,-0.00011312775,-0.00018733926,0.0007720394,0.00017156219,0.00013832981,0.0005633915,-2.748589e-05,0.00021956535,-0.0001816887,-0.0006248263,-0.0005689035,0.00013431627,-0.00027770596,-0.00010579359,-8.555129e-05,0.0001967852,0.00019519986,-0.00025833957,0.00026636012,-8.709356e-05
C#Cc1cccc(N2COc3cc(O)c4c(=O)cc(-c5ccccc5)oc4c3C2)c1,-6.091781e-05,0.00060607307,-0.00011242833,-0.00022083055,1.708977e-05,-0.000109959394,0.00012537092,0.000121479854,7.581501e-05,0.00040646084,-0.00058797095,0.00033343676,6.9182366e-05,-0.0001949477,0.00048978254,0.00012532994,0.00023656106,0.0007656843,-7.754355e-05,-2.9096846e-05,1.22804195e-05,-8.768204e-05,-0.00036886847,0.00014309585,7.537054e-05,0.00020162761,8.6906366e-05,8.13324e-05,-5.101366e-05,-0.00034494046,-0.00034777075,-0.00030015595
CC(C)(c1ccc(OCC2CN(c3ccccc3)CO2)cc1)c1ccc(OCC2CN(c3ccccc3)CO2)cc1,-0.0002750419,0.00013488345,-6.178394e-06,-7.622223e-05,0.00020306464,0.00010847952,-8.8869594e-05,3.4949742e-05,-4.331325e-05,-0.000118509866,0.0002257349,0.0001712013,9.387173e-05,-4.7835056e-05,2.618879e-05,4.8666727e-05,-0.00027629174,0.00046160468,0.0002727115,0.00016532047,-0.00053241046,0.00025912118,-0.00021907687,0.00016813725,0.0001645037,-0.00040014647,-1.0913238e-05,2.6478898e-05,-0.00013619266,0.00010359008,-0.00047261268,-0.00024189893
O=C1C=CC(=O)N1c1ccc(Cc2ccc(N3C(=O)C=CC3=O)cc2)cc1,-0.00020577526,0.00024408102,-9.969715e-05,-0.0001775194,-8.853618e-05,-0.00024563447,-0.00012295693,2.3269095e-05,-9.633484e-05,0.0002018013,-0.00016203895,0.00018769503,0.00011657644,-5.1058363e-05,0.00039494038,0.000109590124,6.975047e-05,0.0002498799,-0.00015079766,-1.1621974e-05,-0.00012502854,-0.0003243204,-5.1036477e-05,0.0001334371,-5.4365024e-05,-4.2506494e-05,0.00020714011,-1.5953556e-05,-0.00020383508,-0.00019893888,-9.8200515e-05,-0.00038330955
C=C(C)C(=O)OCCOCCOCCOCCOCCOCCOCCOCCOCCOCCOCCOCCOCCOCCOC(=O)C(=C)C,3.9841514e-05,5.2092597e-05,0.00017817598,-7.229298e-05,-0.0003790725,-0.00034508202,-0.00015203748,-0.00035517197,0.000113555,-6.933324e-05,8.816086e-05,5.8342703e-05,-2.1224841e-06,-0.00014613615,-0.00023146719,-0.00017968705,-1.0084361e-05,9.726733e-05,0.0005557898,0.00020293845,-0.00027871993,-2.6645605e-05,7.221755e-05,-0.00027158763,-8.489937e-06,-0.00041478407,0.00016970001,0.00012349896,-2.3060245e-05,-6.1513856e-07,0.00024401397,0.0002769027
C=CC(=O)OC,0.00019568484,0.00072069466,0.0001689,1.2396835e-05,-0.00073238136,-0.00050878804,9.927899e-07,0.00014609192,0.0002912886,0.0006415909,-0.0009607682,0.00023463555,-0.00015978329,-9.255903e-05,0.00074047875,0.00024636276,7.253047e-05,0.0005259579,-0.00010643224,0.00026073353,-0.00021955441,-0.00063557306,-0.00049756514,0.00013328716,-0.0002945587,-0.00010033697,-0.000117965974,0.00027667405,0.00032427977,-0.00024164794,0.0002975678,-9.6841715e-05
C=CC(=O)OCCCC,0.00017166138,0.00063773803,0.00015845988,-8.064788e-06,-0.00074338913,-0.0005071126,-1.3817102e-05,0.00014865212,0.00024868012,0.0005864692,-0.00093505625,0.00018627476,-0.00017139595,-7.121358e-05,0.00074577425,0.00025023846,0.00012958003,0.00048555946,-5.5726385e-05,0.00024206704,-0.00020818273,-0.0006615174,-0.00047018053,0.00010987464,-0.0002970905,-9.279605e-05,-7.9540536e-05,0.00025996473,0.00025940943,-0.0002454156,0.00035574567,-3.740983e-05
C=C(C)C(=O)OC(C)(C)C,0.000115551054,0.00052574463,7.3970295e-05,-7.926533e-05,-0.00063920114,-0.00051450357,9.3059614e-05,0.00027793366,0.00013549137,0.0005239267,-0.00080356747,0.00017473288,-0.00016726274,-0.00012505474,0.0005858494,0.0003535468,0.00027757697,0.00070461864,1.7872779e-05,0.00014936691,-8.704362e-05,-0.0006762069,-0.00047751935,7.9230405e-05,-0.00018295087,-8.0265105e-05,-1.5607104e-05,0.00012486242,9.3508745e-05,-0.00031174347,0.00036254153,6.3136686e-05
C=C(C)C(=O)OCCOCC,0.00015877979,0.0005302392,0.00013359729,-3.1038187e-05,-0.0007138043,-0.0005262457,3.165379e-05,0.00018269662,0.00020841672,0.00054787984,-0.00087392237,0.00013261009,-0.00019314326,-0.00010074256,0.0006776266,0.0003111991,0.0002542315,0.00053855614,2.648239e-05,0.00020475173,-0.00014775118,-0.00069142727,-0.0004562158,8.97171e-05,-0.00024950737,-6.646197e-05,-2.7052127e-05,0.00019313628,0.00019051414,-0.00026891194,0.0004007509,5.2363146e-05
C=C(C)C(=O)OC1CC2CCC1(C)C2(C)C,0.00014294637,0.00052957423,1.1118129e-05,-0.00011930801,-0.0005870112,-0.0003571501,0.00014032982,-5.6088902e-05,0.00014467933,0.0005652704,-0.0007140869,0.00013128202,-0.00020212028,-4.9772672e-05,0.00055410527,0.00017789518,0.00046602776,0.000472859,-0.00016651396,9.144191e-06,-0.00012367661,-0.00046437513,-0.00036564376,-6.8540685e-05,-0.0002455623,9.306334e-05,0.00018694159,9.395927e-05,-2.7639326e-06,-0.00051474804,0.00034424663,-4.1550957e-06
C=C(C)C(=O)OCC(CC)CCCC,0.00013597263,0.0005305428,6.9328584e-05,-5.472591e-05,-0.0006539533,-0.0005516624,8.730497e-05,0.00021728221,0.00017224043,0.0005230196,-0.0007653609,0.00018102117,-0.00014082761,-0.00014529098,0.0006048614,0.00032320572,0.0002553612,0.00056341314,-1.0121381e-05,0.00012802286,-0.00010920409,-0.0006261497,-0.00043725735,7.305201e-05,-0.0002129064,-7.915497e-05,5.7253987e-05,0.000118589494,9.115762e-05,-0.0002738973,0.00036442652,2.9537361e-05
C=CC(=O)OCc1ccccc1,0.00012491131,0.000716947,0.00015517604,-8.0990605e-05,-0.0006893333,-0.0004595574,6.815605e-05,0.00014724303,0.00020848843,0.0006119632,-0.0009499183,0.00015442073,-0.000241064,-0.00015213666,0.00071992446,0.00022895774,0.00024328846,0.0006012295,-1.6215025e-05,0.00017589098,-0.00017187325,-0.00065072684,-0.00059407996,0.0001166584,-0.0003035632,-1.3340265e-05,4.2987056e-05,0.00024845172,0.000217492,-0.00031967973,0.00026458316,-7.285969e-05
C=CC(=O)OCC(C)CCCCCCC,7.758383e-05,0.0005346332,4.2422675e-05,-5.1596202e-05,-0.0007303236,-0.00050575007,1.3168901e-06,0.00016534887,0.00018173619,0.0005360083,-0.00086486153,0.00016027782,-0.00019190181,-0.00014196569,0.00060422346,0.000305295,0.00026126346,0.00050757127,-1.25498045e-05,0.00014421484,-0.00015538151,-0.0006398392,-0.00045208633,6.9858506e-06,-0.0002859151,-3.9542094e-05,8.8589266e-05,0.00014292961,6.6927634e-05,-0.00036253594,0.0004024217,8.077361e-05
C=C(C)C(=O)OCc1ccccc1,8.912198e-05,0.00070140883,0.00015311036,-0.00010355469,-0.0005821716,-0.0004558405,8.072704e-05,0.00018601026,0.00019525434,0.00057891477,-0.00087943766,0.0001485413,-0.00021893438,-0.00018974347,0.0007189764,0.00024853693,0.00022579776,0.00066206953,-5.407771e-05,0.00017191423,-0.00015981088,-0.0006591013,-0.00059660664,9.1412105e-05,-0.00026237685,-2.200529e-05,4.8070215e-05,0.00022820849,0.00012419396,-0.00037673162,0.00026646256,-5.8964826e-05
C=C(C)C(=O)OCCOc1ccccc1,8.012261e-05,0.0006791409,0.00014033634,-0.00012415554,-0.00052342005,-0.00041968934,5.582627e-05,0.00016729813,0.00015196553,0.0005465755,-0.0008396935,0.00013278332,-0.00020187628,-0.00015980098,0.0007529175,0.0002313056,0.0002031466,0.0006257291,-9.7171636e-05,0.00014110794,-0.00015568628,-0.0006271269,-0.000563642,8.128118e-05,-0.0002664649,-3.078766e-05,7.48653e-05,0.00023988541,5.6857243e-05,-0.0003931066,0.0002725022,-4.5446213e-05
C=CC(=O)OCC(C)OCC(C)OCC(C)OCC(C)OCC(C)OCC(C)OCC(C)OCC(C)O,-2.1299813e-05,-0.00037586875,8.5624866e-05,-0.00030347984,8.327328e-05,-0.00034352392,-0.00013592653,0.00024808943,-0.00035263435,-0.000254496,0.0004141815,-1.488626e-05,0.00033215433,8.331612e-05,-0.0004299134,0.000117784366,-0.00025531463,0.00023278664,0.0003954128,2.8703827e-05,-0.0003116926,-1.4560064e-05,0.0003045355,0.00033432897,0.00026045972,-0.00013387203,0.00026818737,-0.0002577291,-0.00036302186,0.00021627871,7.147901e-05,-0.00018704263
C=CC(=O)OCCOCCOc1ccccc1,6.914511e-05,0.00073858164,0.00013356376,-9.471644e-05,-0.00057636853,-0.0003749635,-2.306886e-06,8.584838e-05,0.00019524456,0.00060687633,-0.000924075,0.00015053991,-0.00023493497,-0.00017732708,0.00077535305,0.00018571783,0.00019508973,0.00060530216,-0.00013846275,0.00014620414,-0.00019242929,-0.00059906475,-0.0005924725,7.346179e-05,-0.0003317953,2.5440007e-05,0.00011842325,0.00025494024,0.0001038122,-0.00045182975,0.00026119966,-8.204486e-05
C=CC(=O)OCCOCCOCCOc1ccccc1,7.2005205e-05,0.00068721734,0.00012418535,-3.0978583e-05,-0.0006058789,-0.0003365185,-3.371574e-05,1.6861595e-05,0.00021959073,0.00065637846,-0.0008895043,0.00014600344,-0.00026215333,-0.00017037289,0.0007480597,0.00017376943,0.00024394877,0.00056137843,-0.0001704134,0.00014633732,-0.00020061457,-0.0005777407,-0.0005403757,5.312171e-05,-0.00030904496,4.0227547e-05,0.00017650053,0.00025357213,9.954488e-05,-0.00046419958,0.00030117575,-5.7761557e-05
C=CC(=O)OCCOCCOCCOCCOc1ccccc1,5.5409968e-05,0.0006495854,9.263866e-05,-4.381966e-05,-0.00061403774,-0.00037105381,-5.4612756e-05,-4.959479e-05,0.00022766623,0.00064683286,-0.00088883005,0.00012337882,-0.00026954897,-0.00013890071,0.00071789697,0.00020062225,0.00027331803,0.000534147,-0.00022725551,0.000145711,-0.00022494991,-0.0005491233,-0.000499608,7.486902e-06,-0.00033065444,4.891865e-05,0.00021879561,0.00021473458,8.531171e-05,-0.0005333433,0.0003145747,-4.042918e-05
C=C(C)C(=O)OCCOCCOCCOCCOCCOCCOCCOCCOCCOCCOCCOCCOCCOCCOCCOc1ccc(C(C)(C)c2ccc(OCCOCCOCCOCCOCCOCCOCCOCCOCCOCCOCCOCCOCCOCCOCCOC(=O)C(=C)C)cc2)cc1,0.00064797886,-0.0035261717,-0.00054407865,0.0014462271,-0.0024823048,0.0008130511,-0.0010701008,-0.002837183,-0.00012316322,0.00017255032,0.0013967399,0.00094196666,-0.0010291608,0.00055727223,-0.001288306,-0.0013538799,-0.0021255687,-0.0042029666,0.0003963022,0.0020894161,0.00012866594,0.0023807825,0.00095779495,-0.0016259607,7.984834e-05,0.0007614177,-0.0013431273,3.3678487e-05,0.000117448624,0.004087841,0.0005706139,0.0011122162
C=C(C)C(=O)OCCOCCOc1ccc(C(C)(C)c2ccc(OCCOCCOC(=O)C(=C)C)cc2)cc1,-0.00021841982,-0.000118930824,3.0268915e-05,-7.450348e-05,5.187001e-05,-5.6438148e-05,-0.00018967222,1.0290183e-05,-0.000121896854,-3.5561156e-05,0.0001951661,2.549123e-05,0.00029687956,6.4846594e-05,-9.788759e-05,-7.12988e-05,1.0591e-05,0.0002212131,0.0002067613,0.00014016591,-0.00036251708,0.00014963688,5.9792306e-05,5.6331046e-05,0.00020745862,-0.00029346906,0.00024136156,4.5611057e-05,-0.00015114644,0.00012487965,-8.6744316e-05,-0.00023341132
C=C(C)C(=O)OCCOCCOCCOCCOc1ccc(C(C)(C)c2ccc(OCCOCCOCCOC(=O)C(=C)C)cc2)cc1,-0.000100750476,-0.00033865683,1.2758188e-05,0.00019022776,-1.2699515e-05,-2.3182482e-05,-0.00023940299,-5.374942e-05,-0.00025842246,-0.00057579484,0.0006589545,-0.0001625549,0.00032967888,-7.800385e-05,-0.0003884388,-0.00022336282,-0.00014540786,-0.00038047344,0.0004809529,8.940697e-05,-0.00040314603,0.00037547236,0.00017809123,-0.00019511115,0.0003260551,-0.000593679,0.00016340148,6.426545e-05,-0.00023601414,0.000277278,-0.0001431657,-7.500406e-05
C=C(C)C(=O)OCCOCCOc1ccc(C(C)(C)c2ccc(OCCOC(=O)C(=C)C)cc2)cc1,-0.00034830533,-0.00023818947,0.00021242909,-0.00017230585,0.00014888123,-0.0002443511,-0.00013534445,7.225387e-05,-0.00025904062,-0.0001944364,0.00040863734,-2.328027e-05,0.00032070652,2.350239e-05,-9.093247e-05,-4.760688e-05,-2.1671876e-05,0.0001312755,0.00019574468,0.00011004275,-0.0002728909,9.2145754e-05,0.00015216088,0.00014008582,0.00031239726,-0.00027722493,0.0001247041,-0.00012504123,-0.00017528818,0.00028515933,-0.000118945725,-0.0002397974
C=C(C)C(=O)OCCOc1ccc(C(C)(C)c2ccc(OCCOC(=O)C(=C)C)cc2)cc1,-0.00019867392,-0.00014385767,0.00010829605,-0.00024918746,0.0002536215,-0.00026590377,-0.00023752172,0.00017117523,-0.0002397704,-1.5962403e-05,0.00016735774,4.1938387e-05,0.00031005405,2.2207852e-05,0.00010558311,9.765569e-05,-0.00010442035,0.0003502539,0.0001653654,0.00013050064,-0.00035022106,-2.6930124e-05,0.00012467941,0.0002845032,0.00017077709,-0.00022380147,0.00014317781,-0.00012885826,-0.00025328738,5.803816e-05,-0.0001061596,-0.00032926537
C=CC(=O)OCCCOCC(C)(C)COCCCOC(=O)C=C,0.00013974216,0.00045735948,-4.4795685e-05,-0.00012248196,-0.00050084665,-0.00039242487,2.4309382e-05,6.3265674e-05,7.5356336e-05,0.0004920908,-0.00060910266,0.00022432394,-0.00013256166,-4.450837e-05,0.0005002273,0.00018231245,0.00022423314,0.00031253812,-0.00020134263,-5.2077696e-05,-0.000120895565,-0.00045257318,-0.00028191274,-2.6612543e-05,-0.00022683805,-3.244914e-05,0.00018144585,6.159395e-05,-0.00010082079,-0.00032936316,0.00027710106,-8.399133e-05
C=CC(=O)OCCCCCCOC(=O)C=C,0.000148213,0.00048982166,9.8870136e-05,-6.874092e-06,-0.0006949166,-0.00050324295,3.2852404e-05,0.00012941752,0.0001678688,0.000525536,-0.00068893284,0.00018958468,-0.0001622932,-0.00014996482,0.0006308928,0.00022062985,0.00021222793,0.0004590971,-8.406467e-05,8.387165e-05,-0.00014011655,-0.0006261385,-0.0004088888,9.8031946e-05,-0.0002251137,-5.2745454e-05,0.000119354576,0.0001394162,0.0001090772,-0.0002476927,0.00036840793,-5.300762e-05
C=CC(=O)OCC(CO)(COC(=O)C=C)COC(=O)C=C,1.7809682e-05,0.00027761701,-6.109383e-05,-0.00021740422,-0.00038848817,-0.0005021198,4.9237162e-05,0.00015109684,5.1693758e-05,0.00038227625,-0.00035794545,0.00016535074,2.9677525e-05,-2.6769936e-05,0.00029110257,0.00016175071,0.00018418906,0.0002253484,-0.0002587426,-0.0001559523,5.8757374e-05,-0.0004294099,-0.00016869372,1.2240373e-05,-0.00014337711,-7.028878e-05,0.00019203033,-6.365124e-06,-0.00019451347,-0.00016435795,0.0003164066,-0.00024750456
C=CC(=O)OCCOCC(CC)(COCCOC(=O)C=C)COCCOC(=O)C=C,7.1209855e-05,0.00019193813,-9.573251e-05,-0.00014089141,-0.00022540148,-0.00042090006,-0.00018710177,9.35439e-05,-0.00012450875,0.00036437716,-0.00034885574,0.00027561467,4.4794753e-05,-8.405885e-05,0.00028303266,0.00012552598,6.0011167e-05,0.00020556035,-1.3235258e-05,-7.3885545e-05,-0.00012302911,-0.00027877197,1.0859687e-05,0.00015014224,1.6004778e-06,-9.5947646e-05,0.00021610968,-7.984601e-05,-0.00025716354,-7.674983e-05,0.00025180168,-0.000111097936
C=CC(=O)OCCOCCOCCOCC(CC)(COCCOCCOC(=O)C=C)COCCOCCOC(=O)C=C,-2.3228116e-05,-3.8564205e-05,7.7419914e-05,-0.00012079626,-0.00022013858,-0.00033434015,-0.00018118415,-6.707106e-05,-0.00012393715,5.6642108e-05,0.00026384369,0.00018988922,4.430674e-05,-2.6911963e-05,9.333622e-05,8.020084e-06,-6.511295e-05,-8.37422e-06,0.00033077388,8.550473e-06,-0.0003249324,-8.2999584e-05,0.00021548383,0.0001325002,1.0459218e-05,-0.00017699599,0.00025300868,-0.00014954666,-0.00023250119,-3.3621676e-05,0.00015107915,2.8769951e-05
C=CC(=O)OCCOCCOCCOCCOCCOCC(CC)(COCCOCCOCCOCCOCCOC(=O)C=C)COCCOCCOCCOCCOC(=O)C=C,0.0002376493,-0.0003562104,-1.24285e-05,0.00017425418,-0.00042881584,0.00016557425,-0.0002639275,-0.00070190337,-3.4116674e-05,-0.00018279487,0.00041273888,-5.8092177e-05,1.6037375e-06,-1.2685079e-05,-0.00054458994,-0.00037080096,-9.146286e-05,-0.000464516,0.00061834394,0.00040568272,-3.0440628e-05,0.00011447654,0.00020371145,-0.00044835266,0.00013451977,-0.0006180052,-2.4433248e-05,0.00027638068,6.0298247e-05,0.00028377492,0.00017449073,0.00040978752
C=CC(=O)OC(C)COC(C)COCC(CC)(COCC(C)OCC(C)OC(=O)C=C)COCC(C)OCC(C)OC(=O)C=C,2.6450492e-05,-0.00072293263,9.563379e-05,-0.0001422409,-1.8415973e-05,1.2824312e-05,-0.0002308162,-0.00010531768,-0.0007319967,-0.0012122109,0.0013465099,-0.0002498636,0.000327887,-6.162422e-05,-0.0006809868,-0.00023963815,-0.00050764903,-0.0005857762,0.0008078979,0.00020010723,-0.00033342373,0.00048344804,0.00035964465,-0.00014895666,0.00026452867,-0.0004927246,0.00017411355,-9.76501e-05,-0.0005061843,0.00052504335,2.569519e-06,0.00022901827
C=CC(=O)OCC(C)OCC(COCC(C)OC(=O)C=C)OCC(C)OC(=O)C=C,-1.1254102e-05,-0.00013022404,-5.398877e-05,-0.00020614639,-0.00010598544,-0.0004642764,-0.00019030273,0.000241559,-0.00033040508,3.966596e-05,-3.3076853e-05,0.00016842782,0.0001606457,-2.025161e-06,4.201755e-05,0.0001687347,-4.133582e-05,0.00017533381,0.00014736154,-0.00012366241,-0.000121543766,-0.00025598553,0.00014854548,0.00023423042,0.0001293174,-0.0001396751,0.00019983575,-0.00020115124,-0.0003859594,5.0462782e-05,0.00017438084,-0.00015521375
C=CC(=O)OCC(CC)(COCC(CC)(COC(=O)C=C)COC(=O)C=C)COC(=O)C=C,-0.00021523284,-0.0003914889,0.00017615873,-0.0002244208,1.2379605e-05,-0.00055449456,-4.7998503e-05,0.00013360288,-0.00034257676,-0.00025790185,0.00066486374,3.3023767e-05,0.00018397998,-9.807292e-06,-0.000278458,1.5416648e-05,-9.890925e-05,-1.2421049e-05,0.00040855096,6.265659e-05,-0.000121465884,-9.0712216e-05,0.00033573667,0.00035006274,0.00026092026,-0.0001714006,0.00018154457,-0.0003068475,-0.00027686986,0.0003130855,0.00018521957,-0.000116318464
C=CC(=O)OCC(CO)(COCC(COC(=O)C=C)(COC(=O)C=C)COC(=O)C=C)COC(=O)C=C,-0.00022498285,-0.0007617008,0.0002236208,-0.00018591061,-5.8882404e-05,-0.0004496891,-1.0370277e-05,-2.8671697e-05,-0.0004683307,-0.0007122243,0.0013370533,-0.00017263368,0.0002435483,1.3365876e-05,-0.000666582,-0.00017007813,-0.00030566845,-0.00032702927,0.00071644573,0.00012376811,-0.00015968888,7.933541e-05,0.00045780186,0.00031569134,0.00037085311,-0.00035883952,0.00019413978,-0.0003410657,-0.00024179905,0.00061262446,9.680819e-05,-8.938368e-06
O=C(OCCCCCCO)OCCCCCCOC(=O)OCCCCCCOC(=O)OCCCCCCOC(=O)OCCCCCCOC(=O)OCCCCCCOC(=O)OCCCCCCOC(=O)OCCCCCCOC(=O)OCCCCCCOC(=O)OCCCCCCOC(=O)OCCCCCCOC(=O)OCCCCCCOC(=O)OCCCCCCOC(=O)OCCCCCCO,0.001101899,-0.006863498,-5.1851384e-05,0.0011428376,-0.0043767807,0.0036292272,0.0011010617,-0.00397278,0.00089261844,0.00077014556,0.0053064227,0.0019451054,-0.002031331,0.0021645285,-0.0022402043,-0.0022852202,-0.0060338993,-0.006321743,0.0022998808,0.0042793234,0.0002582725,0.005128868,0.0020092265,-0.00028080866,0.00074972725,0.00041793287,-0.003154762,-0.00021491898,0.0005534163,0.007808756,-0.0001045363,0.002629405
OCc1cccc(CO)n1,9.3158334e-05,0.0007932354,6.640423e-05,-5.191518e-05,-0.0006529745,-0.000441961,0.00011908356,0.00016497634,0.00026647397,0.00054435246,-0.0009644134,0.00020196661,-0.0003050426,-0.0001362185,0.0007416429,0.00028820056,0.00029268442,0.00057686004,-8.9734094e-05,0.00016305828,-0.000119909644,-0.000597241,-0.00055530295,9.10759e-05,-0.00034509087,4.6360306e-05,-0.00011657737,0.00023271982,0.00025892374,-0.0003523985,0.00023538712,-3.3660326e-05
CCCCCCCCCCCC(=O)[O][Sn]([CH2]CCC)([CH2]CCC)[O]C(=O)CCCCCCCCCCC,-0.00017303601,2.6276335e-05,7.4555166e-05,-0.00020286115,-9.9563506e-05,-0.00021798722,7.312745e-06,0.00023152679,-0.0003382333,-0.00036437856,0.00067895,0.00034068525,0.00030044932,-2.1303538e-05,0.000109348446,-0.00025383895,-0.00033712666,-0.00015912647,0.00035095797,-0.00011589611,-0.00027621607,0.0001868119,1.8293504e-05,0.0001025619,9.663915e-05,-0.00021085702,2.7106144e-05,-0.00024482515,-0.00033622957,0.0003051022,-0.00011318829,1.2861099e-05
O=S(=O)([O-])C(F)(F)F.O=S(=O)([O-])C(F)(F)F.[Zn+2],-4.1668303e-05,0.00023269933,4.2375177e-05,-0.00018548826,0.0002866611,-0.00053865835,0.00020191446,0.00023286697,-0.0002488608,-7.470604e-05,-3.0929223e-05,6.9724396e-05,0.00030512456,-0.00016286038,0.00027626567,4.8543792e-05,-9.062141e-05,0.00047567766,7.640361e-05,-0.0003386438,-8.744805e-05,-0.00016981945,5.8342703e-06,0.00024259649,0.00013423944,-0.0001423033,-0.00012303889,-0.00017413544,-0.00022767507,0.00013977848,-8.5025094e-05,-0.00037227897
CC(COCC(C)N1COc2ccccc2C1)OCC(C)OCC(C)N1COc2ccccc2C1,-5.7124533e-05,0.00039387587,-4.769489e-05,-0.00021501537,-0.00016577076,-0.0002897745,-0.0001227567,6.6856854e-05,-5.9367158e-05,0.00035228953,-0.00031873118,0.00030230545,7.47405e-05,-0.00014817296,0.0005388474,0.00010052696,-2.149865e-05,0.00045943214,-9.57516e-06,-0.0001999801,-0.00034944736,-0.00011455838,-0.00032611238,4.542619e-05,4.771538e-05,3.682822e-05,9.2573464e-07,-0.00020107487,-0.0001760947,-0.00012409966,-0.00023483299,-0.00021929666
c1coc(CN2COc3ccccc3C2)c1,0.00015164679,0.0006657941,4.475657e-05,-4.269369e-05,-0.0006266376,-0.00033186935,0.00015240908,4.5833178e-05,0.000261707,0.0005451618,-0.00092702825,0.00012467895,-0.00035524182,-9.3541574e-05,0.0007229587,0.000210742,0.0004955707,0.0005768703,-4.8559392e-05,0.00020791357,-0.00010067271,-0.00051634025,-0.00061341934,4.003197e-05,-0.0003224318,0.00011458993,9.798631e-05,0.00015712017,0.00013858406,-0.0004695095,0.0001643505,3.131805e-05
c1cc2ccc3ccc4ccc5ccc6ccc1c1c2c3c4c5c61,2.5943387e-05,0.000922394,3.4148805e-05,-0.000251255,-0.00017274916,6.094575e-06,0.00020511448,-0.00032387022,0.0005255437,0.0006148913,-0.001040766,0.00033447612,-0.00037634186,-0.00016631978,0.0010065017,3.168825e-05,0.00034049898,0.0007426245,-0.000413439,6.718142e-05,-0.00016937219,-0.00012020301,-0.00065824995,0.00022087246,-0.00019787159,0.00032364577,6.0884282e-05,0.00037000095,0.00013189833,-0.00073870644,-0.0002706349,-0.00013535889
C=CCOc1ccc(SSc2ccc(OCC=C)cc2)cc1,4.1387975e-05,0.00063403696,3.5507604e-05,-0.00021695672,-0.00054210424,-0.0002527181,2.5725923e-05,3.6296435e-05,0.00017277733,0.0004942105,-0.00083294977,0.00021212641,-0.00024987385,-5.9319194e-05,0.00068794005,0.00010903133,0.00040602544,0.0006909226,-0.0003192143,5.3832773e-05,-0.00013026234,-0.0004534484,-0.00057735294,5.7499856e-06,-0.00024766987,0.00020535849,0.00019171461,0.00011524884,-7.9581514e-05,-0.00059680175,0.00011405535,-0.00018555438
C=CN1CCCC1=O,0.0002169637,0.00066270493,0.00020857528,-7.628603e-05,-0.0007785028,-0.00048151147,5.009398e-05,0.00013368856,0.0002392705,0.0005515083,-0.00095509365,0.00021577068,-0.0001603039,-2.8872397e-05,0.0008611614,0.00010123663,0.00021419162,0.0004696753,-7.264572e-05,0.00022746669,-0.00024696882,-0.00058599224,-0.0005553346,0.0001685135,-0.0003501405,-1.6239472e-05,-0.000109249726,0.00025904877,0.00031369482,-0.00023832638,0.00028593,-0.00016516214
