smiles,z_0,z_1,z_2,z_3,z_4,z_5,z_6,z_7,z_8,z_9,z_10,z_11,z_12,z_13,z_14,z_15
C=CC(=O)OCCOCCOC(=O)C=C,0.00018896977,0.00015179161,0.000974888,0.004346489,-0.0076779155,0.0039765416,0.0062695974,-0.00806326,-0.0011821017,-0.0012802947,-0.013692985,0.002388685,-0.00776067,0.004432236,-0.0016972227,-0.006526826
C=CC(=O)OC(C)(C)C,0.00027668267,-0.00038633496,-0.00014258362,0.0035105795,-0.007624796,0.0034466214,0.004472212,-0.008549068,-0.0022346172,-0.0015692832,-0.014408334,0.00275693,-0.0067544617,0.005143459,-0.0021002134,-0.006241855
COC(OC)(C(=O)c1ccccc1)c1ccccc1,-0.0035244182,0.0017881854,-0.00055296347,0.003762269,-0.0068180985,0.0035406891,0.0050045187,-0.008903338,-0.00019022077,-9.610318e-05,-0.01643958,0.0022003273,-0.0075284094,0.004572534,-0.0032875212,-0.0061985143
C=C(C)C(=O)OCCOCCOC(=O)C(=C)C,0.0005488475,0.000617126,0.0006159246,0.004467982,-0.008149904,0.003109834,0.005862603,-0.007949472,-0.0015062988,-0.0011633672,-0.013534231,0.0021895557,-0.0075835735,0.004280417,-0.0015262933,-0.0050986754
C=CC(=O)OCCOCCOCCOCCOC(=O)C=C,0.00020677852,0.0003181072,0.0023502316,0.0048739356,-0.006632472,0.00415455,0.0067906724,-0.00832293,-0.0009842105,-0.0012909323,-0.013833595,0.0014705518,-0.008211489,0.003989244,-0.0017981268,-0.0065044286
C=CC(=O)OCCOCCOCCOCCOCCOCCOCCOCCOCCOCCOC(=O)C=C,-0.0006182587,0.0020967992,0.0027672034,0.0037035523,-0.0025276213,0.003528234,0.008014323,-0.008925017,-0.0011670683,-0.0021006651,-0.015725236,0.0010757064,-0.0085445475,0.0047610486,-0.0015371675,-0.0056658955
C=C(C)C(=O)OCCOCCOCCOCCOC(=O)C(=C)C,-2.3555942e-05,0.001354103,0.0021095574,0.0045924736,-0.0067681503,0.0029309469,0.0064308904,-0.008505177,-0.0018464308,-0.0012968732,-0.013726419,0.0014355117,-0.007500021,0.004593632,-0.0012268526,-0.0059640612
C=C(C)C(=O)OCCOCCOCCOCCOCCOCCOCCOCCOCCOC(=O)C(=C)C,-0.00071031903,0.0017827163,0.0013308227,0.0035907305,-0.0035752612,0.003026985,0.0073774727,-0.009563298,-0.00093091466,-0.002575798,-0.015491024,0.0017552292,-0.008055812,0.005196184,-0.0010736147,-0.0041692927
c1ccc2c(c1)-c1ccccc1C2(c1ccc(OCCOCC2CO2)cc1)c1ccc(OCCOCC2CO2)cc1,-0.0063437307,0.0024135392,-0.0011311229,0.00011348678,-0.003922581,0.003533405,0.0072804727,-0.009790534,-0.0017168801,8.356385e-05,-0.015660571,-0.0032468247,-0.005767905,0.004194742,-0.0015202165,-0.0046851467
Nc1ccc(S(=O)(=O)c2ccc(N)cc2)cc1,-0.00420007,0.0016546445,-0.00027919747,0.004433853,-0.007801272,0.0032968759,0.0052326573,-0.008619841,-0.0011229143,0.0010507442,-0.014786215,0.0013617128,-0.00760989,0.004655024,-0.0018866574,-0.004163971
CC(C)(c1ccc(OCC2CO2)cc1)c1ccc(OCC2CO2)cc1,-0.004879319,0.003444627,0.00071310624,0.0028942567,-0.006483982,0.0046449746,0.006183923,-0.009264166,-0.00017219968,0.0014165454,-0.014271344,-6.287126e-05,-0.007527599,0.0048198635,-0.002573818,-0.005457134
CC(N)COCC(C)OCC(C)OCC(C)OCC(C)OCC(C)OCC(C)N,0.00076625054,0.0012378618,0.0021723863,0.002167225,-0.004776646,0.0044586575,0.0047757225,-0.008091439,-0.002313234,0.0002830308,-0.01326954,0.0007299008,-0.0061602397,0.0037479494,-0.0006403439,-0.00596168
NCCNCCN(CCNCCC(CN)CCN)CCN(CCNCCN)CCN(CCN)CCN,-0.00018264563,0.0024917754,0.0030211005,0.0031726127,-0.0032984256,0.004403908,0.0060467888,-0.008397402,-0.0019994937,-8.572079e-05,-0.014104443,0.0015170118,-0.0068499334,0.0047340915,-0.0015568985,-0.0061620595
CC(N)COCC(C)OCC(C)OCC(C)N,-0.00016081729,-0.0010704249,0.00090289675,0.0035515185,-0.007389152,0.004042481,0.0051120995,-0.008137338,-0.0013772827,-0.0005461257,-0.013502218,0.002372427,-0.0071217176,0.00430555,-0.0014255103,-0.00622994
CCCCCCCCCCN,-0.00085630384,0.00084262155,5.6540594e-05,0.0042481837,-0.0073221033,0.003746798,0.0064687757,-0.008476974,-0.002543414,-0.0017680507,-0.01418879,0.002242005,-0.0065655187,0.0062611736,-0.0015067719,-0.0063809007
CC(C)(COCC1CO1)COCC1CO1,-0.00071248994,0.00035627,0.0009175185,0.00412053,-0.0071499012,0.003115455,0.0061461655,-0.008871721,-0.0002589561,-0.0012857132,-0.0139020085,0.0015320685,-0.008464152,0.0040438594,-0.0019346578,-0.007842787
CC(N)COCC(C)COCC(C)COCC(C)COCC(C)COCC(C)CN,0.0002763758,0.00212764,0.002401473,0.0029252414,-0.004915534,0.0040496383,0.005046726,-0.008515458,-0.001988776,0.00041196495,-0.013450773,0.0011047805,-0.0062483605,0.003570864,-0.00097508077,-0.0063247755
CC(N)COCC(C)COC(OCC(C)COCC(C)N)OCC(C)COCC(C)N,0.00059982063,0.0022602077,0.0020741355,0.002489532,-0.0050326735,0.0047779484,0.004689972,-0.008376671,-0.0018412601,0.00087513775,-0.013323227,0.0013586907,-0.0058514727,0.0039780466,-0.0010274425,-0.006102115
CC(N)COCC(C)COCC(C)CN,-5.4855132e-05,-0.00014879834,0.00064783357,0.0044993516,-0.007571684,0.00422697,0.004916935,-0.008416783,-0.0009580534,-0.0005239155,-0.013892856,0.002343968,-0.007241145,0.0044284677,-0.0015627602,-0.0067375535
CC(C)(c1ccc(Oc2ccc3c(c2)C(=O)OC3=O)cc1)c1ccc(Oc2ccc3c(c2)C(=O)OC3=O)cc1,-0.0041482095,0.004753368,-0.0012836121,0.0010074964,-0.0073114512,0.006299914,0.006128568,-0.008177245,-0.0007886011,0.0031174403,-0.014772463,-0.0026251194,-0.0059782797,0.005940022,-0.0034965603,-0.004491061
Nc1ccc(Oc2ccc(N)cc2)cc1,-0.0033596812,0.0010379301,-0.0010353513,0.0037869625,-0.006607327,0.0032106915,0.007007662,-0.008745786,-0.0015873984,0.00010223314,-0.014345202,0.0013017841,-0.0065200673,0.0054477733,-0.0029447163,-0.004175039
Nc1ccc(N(c2ccc(N)cc2)c2ccc(N)cc2)cc1,-0.0051793642,0.0028098691,-0.00017432496,0.0047387565,-0.006858729,0.0034951733,0.005697163,-0.007929038,-0.0013514999,0.002227923,-0.014666517,0.00075664837,-0.0066534877,0.004580441,-0.002277812,-0.0044143246
CC(C)(c1ccc2c(c1)CN(c1ccccc1)CO2)c1ccc2c(c1)CN(c1ccccc1)CO2,-0.0061656022,0.0021543587,-0.0012714881,0.00071509276,-0.0061876946,0.005390048,0.005303449,-0.00804802,-5.9543177e-05,0.0020695273,-0.0155474,-0.0007149307,-0.0061866147,0.0061049648,-0.0022012843,-0.005606069
CC(N)COCC(C)OCC(C)OCC(C)OCCOCCOCCOCCOCCOCCOCCOCCOCCOCCOCCOCCOCC(C)OCC(C)OCC(C)N,-0.0001875863,0.0011643814,0.004216425,0.0023617588,-0.0022889737,0.0018041669,0.005354209,-0.0089954855,-0.0019326173,-0.0023172144,-0.01605032,-0.0025903587,-0.0060909297,0.0023832032,-0.00011309516,-0.0019544698
NCCOCCOCCN,-0.0007879308,0.00085477624,0.00088164955,0.0042701084,-0.0071801175,0.003763314,0.006055651,-0.008328964,-0.0026217606,-0.0006705299,-0.014234968,0.0025568986,-0.00641255,0.0055087768,-0.0016826177,-0.0067545623
COCCOCCOCCOCCOCCOCCOCCOCCOCCOCCOCCOCCN,-0.0008852652,0.00095965527,0.004198378,0.00432084,-0.004142511,0.0035814648,0.00912832,-0.008999653,-0.0020825472,-0.0015207706,-0.014092776,0.0022306503,-0.009122379,0.004240731,-0.0019407198,-0.0070131314
COCCOCCOCCOCCOCCOCCOCCOCCOCCOCCOCCOCCOCCOCCOCCOCCOCCOCCOCCOCCOCC(C)N,-0.0024577763,0.00035915803,0.0051199403,0.0044251075,-0.0014777202,0.002001544,0.008373712,-0.009704908,-0.0018464196,-0.0024319524,-0.017159328,-0.0018314831,-0.0075106667,0.0022568945,-0.00055651367,-0.005777715
COCCOCCOCCOCCOCCOCCOCCOCCOCCOCCOCCOCCOCCOCCOCCOCCOCCOCCOCCOCCOCCOCCOCCOCCOCCOCCOCCOCCOCCOCCOCCOCCOCCOCC(C)OCC(C)OCC(C)OCC(C)OCC(C)OCC(C)OCC(C)OCC(C)OCC(C)OCC(C)N,-4.287227e-05,0.0023369994,0.0022768956,0.0024856124,0.0047677886,0.0021484331,0.0072613433,-0.0058304165,0.0023848861,0.00024456345,-0.013811447,-0.0007104846,-0.009379524,-0.005545444,0.005513772,-0.004390342
COCCOCCOCCOCCOCCOCCOCCOCCOCCOCCOCCOCCOCCOCCOCCOCCOCCOCCOCCOCCOCCOCCOCCOCCOCCOCCOCCOCCOCCOCCOCCOCCOCCOCCOCCOCCOCCOCC(C)OCC(C)OCC(C)OCC(C)OCC(C)OCC(C)N,0.00014533894,0.0018199407,0.0016708784,0.0013216548,0.0034892247,0.0027289547,0.0070515396,-0.0060693067,0.002453955,-0.0016511688,-0.014294123,-0.0015251171,-0.0090369815,-0.0048370915,0.006267706,-0.0050635748
NCCCOCCOCCCN,-0.0007735782,0.00086365547,0.0007708892,0.004502547,-0.006912051,0.004033208,0.006032693,-0.008066023,-0.0021290537,-0.0007772036,-0.014250206,0.0026690308,-0.007195276,0.0058507584,-0.0022325628,-0.0076740533
CC(C)(C)N,-0.0011129046,0.0007719984,-0.0005390793,0.0038792691,-0.007445572,0.003650168,0.005457069,-0.008801695,-0.0025394093,-0.0008201357,-0.014848608,0.002176112,-0.006071504,0.0060699545,-0.0016972227,-0.005926815
CCCCN,-0.001211364,0.0008417005,-0.00022117235,0.004150578,-0.0076683117,0.0034521278,0.006367255,-0.008617904,-0.0030098092,-0.0013174983,-0.014078185,0.0022723167,-0.0056440625,0.0062398687,-0.0015025865,-0.0054850597
CCCCCCCCCCCCCCCCN,-0.00019596634,0.0005682055,0.00036518462,0.004641406,-0.00736701,0.0043101255,0.0070412746,-0.008249005,-0.001945544,-0.0022153724,-0.013620639,0.0019830079,-0.007312881,0.0062751696,-0.001470291,-0.0070335944
CC(N)COCC(C)OCC(C)OCC(C)OCC(C)OCC(C)OCC(C)OCC(C)OCC(C)OCC(C)OCC(C)OCC(C)OCC(C)OCC(C)OCC(C)OCC(C)OCC(C)OCC(C)OCC(C)OCC(C)OCC(C)OCC(C)OCC(C)OCC(C)OCC(C)OCC(C)OCC(C)OCC(C)OCC(C)OCC(C)OCC(C)OCC(C)OCC(C)OCC(C)OCC(C)N,0.0031510694,0.0057661775,-0.0009904299,0.002629458,0.0024736421,0.0053776638,0.0043479046,-0.0067021213,0.0036090668,0.0036661197,-0.013240475,-8.646771e-05,-0.005537483,-0.0046232636,-0.0013331594,-0.0012473445
CC(N)COCC(C)OCC(C)OCC(C)OCC(C)OCC(C)OCC(C)OCC(C)OCC(C)OCC(C)OCC(C)OCC(C)OCC(C)OCC(C)OCC(C)OCC(C)OCC(C)OCC(C)OCC(C)OCC(C)OCC(C)OCC(C)OCC(C)OCC(C)OCC(C)OCC(C)OCC(C)OCC(C)OCC(C)OCC(C)OCC(C)OCC(C)OCC(C)OCC(C)OCC(C)OCC(C)OCC(C)N,0.0031510694,0.0057661775,-0.0009904299,0.002629458,0.0024736421,0.0053776638,0.0043479046,-0.0067021213,0.0036090668,0.0036661197,-0.013240475,-8.646771e-05,-0.005537483,-0.0046232636,-0.0013331594,-0.0012473445
CC(N)COC(C)COCC(C)(COCC(C)OCC(C)N)COCC(C)OCC(C)N,0.0012712583,0.0021835705,0.0012874603,0.002821874,-0.005254151,0.0048211217,0.0036468087,-0.008721504,-0.0010733623,0.0005112346,-0.013817997,0.001220231,-0.005312795,0.0045925286,-0.0010215817,-0.0055590346
CC(N)COC(C)COC(C)COC(C)COC(C)COC(C)COC(C)COC(C)COC(C)COC(C)COC(C)COC(C)COC(C)COC(C)COC(C)COC(C)COC(C)COCC(C)(COCC(C)OCC(C)OCC(C)OCC(C)OCC(C)OCC(C)OCC(C)OCC(C)OCC(C)OCC(C)OCC(C)OCC(C)OCC(C)OCC(C)OCC(C)OCC(C)OCC(C)N)COCC(C)OCC(C)OCC(C)OCC(C)OCC(C)OCC(C)OCC(C)OCC(C)OCC(C)OCC(C)OCC(C)OCC(C)OCC(C)OCC(C)OCC(C)OCC(C)OCC(C)N,0.0041212025,0.0056082555,-0.0006643366,0.0035968237,-0.00017451576,0.0038978583,0.0018895157,-0.0068991845,0.004003931,0.004935289,-0.0139402235,0.00029872358,-0.005126413,-0.00297012,-0.000667789,-0.0030334573
CC(N)COC(C)COC(C)COC(C)COC(C)COC(C)COC(C)COC(C)COC(C)COC(C)COC(C)COC(C)COC(C)COC(C)COC(C)COC(C)COC(C)COC(C)COC(C)COC(C)COC(C)COC(C)COC(C)COC(C)COC(C)COC(C)COC(C)COC(C)COCC(C)(COCC(C)OCC(C)OCC(C)OCC(C)OCC(C)OCC(C)OCC(C)OCC(C)OCC(C)OCC(C)OCC(C)OCC(C)OCC(C)OCC(C)OCC(C)OCC(C)OCC(C)OCC(C)OCC(C)OCC(C)OCC(C)OCC(C)OCC(C)OCC(C)OCC(C)OCC(C)OCC(C)OCC(C)N)COCC(C)OCC(C)OCC(C)OCC(C)OCC(C)OCC(C)OCC(C)OCC(C)OCC(C)OCC(C)OCC(C)OCC(C)OCC(C)OCC(C)OCC(C)OCC(C)OCC(C)OCC(C)OCC(C)OCC(C)OCC(C)OCC(C)OCC(C)OCC(C)OCC(C)OCC(C)OCC(C)OCC(C)N,0.0047033993,0.0051773125,0.0012105033,0.0037040124,0.0007382896,0.0061368207,0.002062045,-0.008598273,0.003792733,0.0029487852,-0.014475384,0.0007052552,-0.0048167408,-0.0009825956,0.0005486831,-0.0028550867
CC(N)COC(C)COC(C)COC(C)COC(C)COC(C)COC(C)COC(C)COC(C)COC(C)COC(C)COC(C)COC(C)COC(C)COC(C)COC(C)COC(C)COCC(C)(COCC(C)OCC(C)OCC(C)OCC(C)OCC(C)OCC(C)OCC(C)OCC(C)OCC(C)OCC(C)OCC(C)OCC(C)OCC(C)OCC(C)OCC(C)OCC(C)OCC(C)N)COCC(C)OCC(C)OCC(C)OCC(C)OCC(C)OCC(C)OCC(C)OCC(C)OCC(C)OCC(C)OCC(C)OCC(C)OCC(C)OCC(C)OCC(C)OCC(C)OCC(C)OCC(C)N,0.0041212025,0.0056082555,-0.0006643366,0.0035968237,-0.00017451576,0.0038978583,0.0018895157,-0.0068991845,0.004003931,0.004935289,-0.0139402235,0.00029872358,-0.005126413,-0.00297012,-0.000667789,-0.0030334573
CC(N)COCC(C)OCC(C)OCC(C)OCCOCCOCCOCCOCCOCCOCCOCCOCCOCCOCCOCCOCCOCC(C)OCC(C)OCC(C)N,0.0003075325,0.0008409023,0.0042961854,0.0018089239,-0.0029711341,0.0017270744,0.00576529,-0.009571613,-0.0029138625,-0.0023843432,-0.015978014,-0.0016423408,-0.0062191384,0.0023626704,0.0007823631,-0.0019584186
CC(N)COCC(C)OCC(C)OCC(C)OCC(C)OCC(C)OCC(C)OCCOCCOCCOCCOCCOCCOCCOCCOCCOCCOCCOCCOCCOCCOCCOCCOCCOCCOCCOCCOCCOCCOCCOCCOCCOCCOCCOCCOCCOCCOCCOCCOCCOCCOCCOCCOCC(C)OCC(C)OCC(C)OCC(C)OCC(C)N,-0.00036497344,0.002505931,-0.00096496753,-0.0017595235,0.00077450165,-0.000893441,0.005558897,-0.0006136745,0.0049220473,0.0018503703,-0.011715266,-0.003296765,-0.00032523647,-0.004252237,0.005892928,-0.002058506
COCCOCCOCCOCCOCCOCCOCCOCCOCCOCCOCCN,-0.0012092062,0.0003810497,0.004474165,0.0046818587,-0.0047270954,0.0034576885,0.00928046,-0.009120112,-0.0023544487,-0.0013371194,-0.013642171,0.0025991453,-0.008981498,0.0046548713,-0.0019858237,-0.0073022842
COCCOCCOCCOCCOCCOCCOCCOCCOCCOCCOCCOCCOCCOCCOCCOCCOCCOCCOCCOCC(C)N,-0.0027577376,0.00040220656,0.0043870565,0.0049967445,-0.0017525924,0.0021380004,0.00823594,-0.009356894,-0.0012062732,-0.0025944924,-0.017078178,-0.001490924,-0.0076282127,0.0018212404,-0.0013175542,-0.00590776
CC(C)(C1CCC(OCC2CO2)CC1)C1CCC(OCC2CO2)CC1,-0.0014845685,0.00245765,0.00072787516,0.0019897982,-0.0057789264,0.0033388096,0.0062458543,-0.009906942,-0.00066849217,-0.00046448037,-0.0134673,0.00014153821,-0.006759204,0.0041314447,-0.002069207,-0.006904563
O=C1CCCC(=O)O1,-0.00029991963,0.0006073415,0.00046899356,0.0041461526,-0.007887384,0.0027314909,0.00555378,-0.0089046145,-0.001989171,-0.0018355045,-0.014407708,0.0015615327,-0.007084118,0.005290377,-0.0021682018,-0.00592398
c1cc(N(CC2CO2)CC2CO2)ccc1Cc1ccc(N(CC2CO2)CC2CO2)cc1,-0.0035699804,0.004069793,-0.00046578608,0.0031821523,-0.0048711584,0.0044005075,0.004675812,-0.009713089,0.0009872355,0.0014575887,-0.016066518,-0.00089470576,-0.006948377,0.0044401083,-0.0011109188,-0.006072414
CC(C)(c1ccc(OCC(O)CN=[N+]=[N-])cc1)c1ccc(OCC(O)CN=[N+]=[N-])cc1,-0.0038282147,0.003323393,-0.00091872364,0.0036536267,-0.0075231767,0.005761549,0.005415541,-0.0056456123,0.00057792105,0.0010389108,-0.014055347,0.00018696673,-0.0060686395,0.004293817,-0.0028182147,-0.0053803893
C#CCOc1ccc(Cc2ccc(O)cc2OCC#C)cc1,-0.0039018032,0.0020366502,0.0006609112,0.004172417,-0.00663547,0.0035088737,0.0071572093,-0.008688055,-0.0011999924,0.0003953874,-0.0143571375,0.001421704,-0.008568339,0.004178116,-0.002120331,-0.0048298137
CCCCCCCCCCCCN,-0.000530666,0.00078152213,0.00020227581,0.004414428,-0.0074566524,0.004090853,0.006566233,-0.008445712,-0.002199944,-0.0019137124,-0.013946739,0.0020996234,-0.006936049,0.0062915254,-0.0016866392,-0.0067209126
NCc1cccc(CN)c1,-0.0010735646,0.000814734,-0.00027813762,0.0041054464,-0.0071426,0.0025650216,0.0058867624,-0.00901732,-0.0022599753,-0.0008813217,-0.013635836,0.0012599621,-0.0065491674,0.0058444273,-0.0017990032,-0.0054518348
Nc1ccc(Cc2ccc(N)cc2)cc1,-0.00336698,0.0011199713,-0.0011038277,0.0038826438,-0.006850102,0.0031633845,0.00681895,-0.009034641,-0.0013577566,-7.488765e-05,-0.013852281,0.0015210854,-0.006814806,0.00587954,-0.0026866393,-0.0045416644
Nc1cccc(N)c1,-0.0011198076,0.00069846027,-0.00044843368,0.004145276,-0.007068964,0.0022513918,0.006219444,-0.009235108,-0.0030722227,-0.0008927882,-0.013844245,0.0013124775,-0.005657912,0.0062389374,-0.0019806214,-0.0048901783
CC(C)(c1ccc2c(c1)CN(c1ccccc1)CCO2)c1ccc2c(c1)CN(c1ccccc1)CCO2,-0.0066000605,0.0024805996,-0.0013329908,0.0013833011,-0.0068350905,0.0058516166,0.0060557537,-0.008654216,-0.00036439113,0.0017560925,-0.015641969,-0.0006371513,-0.006219443,0.0056814197,-0.0023490395,-0.00489398
c1cc(N(CC2CO2)CC2CO2)ccc1OCC1CO1,-0.0028994803,0.0013536448,0.0004987586,0.0045967754,-0.0066132345,0.0023193355,0.0075137103,-0.009923121,-0.00048300065,-0.00056275725,-0.014027654,0.0014195619,-0.007187944,0.004290903,-0.0015766863,-0.0064962124
O=C(O)CC(O)(CC(=O)O)C(=O)O,0.00036647147,-0.0005613379,0.0003659334,0.0032066796,-0.008234638,0.0025435912,0.0043761013,-0.0076211146,-0.0015052576,-0.00053580664,-0.013623557,0.0029759482,-0.007064807,0.005471357,-0.001343281,-0.0055642584
O=C(O)CCCCCCCCC(=O)O,0.00039748638,0.00035120826,-0.00015479885,0.003811657,-0.007934661,0.0032640188,0.00583975,-0.008046759,-0.0016611014,-0.0013762638,-0.013519421,0.0025361367,-0.0070565725,0.005804315,-0.0012718262,-0.0066950535
Cn1ccnc1,-0.0009670018,0.0012010671,-2.046302e-05,0.004217928,-0.00741895,0.0028694677,0.0069328807,-0.009573403,-0.0031013377,-0.0017719641,-0.013657162,0.0012863269,-0.0055281436,0.006431099,-0.0015088664,-0.0048147133
O=C(O)CCCC(=O)O,-3.375509e-05,0.0005027354,2.660416e-05,0.0037251771,-0.007472149,0.0030701929,0.0051511424,-0.0085709365,-0.0023487136,-0.0014818991,-0.01451591,0.0023159361,-0.0068964,0.005275796,-0.0018468667,-0.006084265
C1OC1COC1COC2C(OCC3CO3)COC12,-0.0010499659,0.00087233074,0.0010056719,0.0047613196,-0.006817345,0.0028485402,0.006492774,-0.009930162,-0.0004100278,-0.0015134262,-0.013625748,0.0012347465,-0.008636294,0.0040634554,-0.0014582528,-0.0071855276
Nc1ccc(SSc2ccc(N)cc2)cc1,-0.003132257,0.0016767066,-0.0010172911,0.004272606,-0.0068503413,0.003172528,0.006662064,-0.008877596,-0.0018891357,0.0010887962,-0.014178511,0.001350346,-0.006395217,0.0050299596,-0.002459676,-0.0033276584
CC(C)(c1ccc(OCCOCC2CO2)cc1)c1ccc(OCCOCC2CO2)cc1,-0.0041482598,0.0036936612,0.00054263696,0.0032739653,-0.004779334,0.004752978,0.00584333,-0.008337252,0.0006856248,0.00073506497,-0.015151192,-0.000673695,-0.007619654,0.004022439,-0.002361102,-0.005845418
O=C1OC(=O)C2CCCCC12,-0.00016957638,0.00013617706,-1.6093254e-06,0.003747161,-0.0070666876,0.0031580266,0.006034471,-0.00929193,-0.0014123693,-0.0022797044,-0.014212315,0.0015275842,-0.007512344,0.004797656,-0.002296226,-0.008008692
CN(C)Cc1cc(CN(C)C)c(O)c(CN(C)C)c1,-0.0021477102,0.0011101216,0.00025712885,0.0037048296,-0.007823566,0.0039119087,0.0054678926,-0.008105743,-0.0013030395,0.00023755431,-0.013044465,0.001491447,-0.006911396,0.004414187,-0.0014802264,-0.004848824
CC(C)(c1ccc(OCCOCCOCCOCC2CO2)cc1)c1ccc(OCCOCCOCCOCC2CO2)cc1,-0.0053266045,0.0027808617,0.00050965697,0.0030743568,-0.0037001753,0.005005439,0.0058536027,-0.007984856,0.0003050901,0.00033373572,-0.015749479,-0.0030354327,-0.0071001304,0.0029885778,-0.001646121,-0.0073514315
Cc1cc(-c2cc(C)c(OCC3CO3)c(C)c2)c(C)cc1OCC1CO1,-0.0031219695,0.0037061083,-7.31349e-05,0.0038035284,-0.0061334413,0.0040794895,0.0055335863,-0.007725998,-0.0011129733,0.00015657581,-0.014250642,-0.0010910472,-0.0070572114,0.003389732,-0.002340991,-0.003921245
Cc1cc(OCC2CO2)c(C(C)(C)C)cc1-c1cc(C)c(OCC2CO2)c(C(C)(C)C)c1,-0.0047505945,0.0036486858,-5.54882e-05,0.0031352001,-0.006031414,0.0059749894,0.0021610726,-0.008271892,0.00014230795,0.0012843926,-0.014218153,-5.6372955e-06,-0.0051858043,0.0034413794,-0.0021820264,-0.004772586
N#COc1ccc(CC2CCCC(Cc3ccc(OC#N)cc3)C2)cc1,-0.0036777996,0.0033150208,0.0019496791,0.004752158,-0.0063191336,0.0042834394,0.0066555226,-0.0076684053,-0.0011734404,0.0009652246,-0.0132406615,0.0010450203,-0.0074112145,0.0045323446,-0.0025970219,-0.0072737173
NCCNCCN,-0.001031168,0.0009575514,0.00020665489,0.004256261,-0.007174113,0.0032355194,0.006020326,-0.00859225,-0.0030103214,-0.0008402616,-0.0143173775,0.0024500927,-0.0057587298,0.0060644113,-0.0016162833,-0.0062662037
O=C=Nc1ccc(Cc2ccc(N=C=O)cc2)cc1,-0.003359955,0.0017165393,9.470433e-05,0.0049272627,-0.0076011396,0.0023401587,0.0071625495,-0.0077115027,-0.0011013597,5.0829723e-05,-0.013685139,0.0016107364,-0.007719324,0.005472908,-0.0024882648,-0.0051943194
O=C(CCCC(=O)OCCCCOC(=O)CCCC(=O)OCCCCOC(=O)CCCC(=O)OCCCCOC(=O)CCCC(=O)OCCCCO)OCCCCO,0.0010569403,0.0025658142,0.0027994215,0.0027868943,-0.00498851,0.0032341983,0.005881129,-0.006430005,-0.0026764926,-0.0008596517,-0.01358161,-0.000447419,-0.0050250785,0.0038368683,0.0008198768,-0.0019638352
CCC(CO)(CO)CO,-0.00057692756,0.0006247638,0.0001982972,0.0037927104,-0.0072652055,0.0036603066,0.004621883,-0.009007708,-0.0017982963,-0.0008679535,-0.015071268,0.002046553,-0.006970972,0.0053763352,-0.0016260585,-0.005936023
O=C(CCCC(=O)OCCCCOC(=O)CCCC(=O)OCCCCOC(=O)CCCC(=O)OCCCCOC(=O)CCCC(=O)OCCCCOC(=O)CCCC(=O)OCCCCOC(=O)CCCC(=O)OCCCCOC(=O)CCCC(=O)OCCCCOC(=O)CCCC(=O)OCCCCOC(=O)CCCC(=O)OCCCCO)OCCCCO,0.0018004924,0.008901354,0.0012504254,0.0010645697,-0.0010008042,0.0014377236,0.0069563184,-0.00406901,0.0022041816,0.0014964491,-0.011773454,-0.0012054159,-0.0033719297,-0.0015247464,0.0015145345,-0.0045215124
O=C(CCCC(=O)OCCCCOC(=O)CCCC(=O)OCCCCOC(=O)CCCC(=O)OCCCCOC(=O)CCCC(=O)OCCCCOC(=O)CCCC(=O)OCCCCOC(=O)CCCC(=O)OCCCCOC(=O)CCCC(=O)OCCCCOC(=O)CCCC(=O)OCCCCOC(=O)CCCC(=O)OCCCCOC(=O)CCCC(=O)OCCCCOC(=O)CCCC(=O)OCCCCOC(=O)CCCC(=O)OCCCCOC(=O)CCCC(=O)OCCCCO)OCCCCO,0.0022815072,0.006952383,-0.00022822991,0.00032229768,0.0014569666,0.0013877517,0.007039274,-0.0055566845,0.003085019,0.0017662924,-0.014063808,-0.0020703916,-0.0043569384,-0.0030070734,0.0018702867,-0.0036456576
C=C(C)C(=O)OCCOCCOCCOCCOCCOCCOCCOCCOCCOCCOCCOCCOCCOC(=O)C(=C)C,-0.0027350609,0.000609464,0.0024085063,0.00429046,-0.0024514578,0.0029725446,0.006909578,-0.009454243,-0.0013677403,-0.0038603256,-0.016792826,-0.0013619694,-0.0085323155,0.0025807703,-0.0020493092,-0.0038716067
O=NN([O-])c1ccccc1.O=NN([O-])c1ccccc1.O=NN([O-])c1ccccc1.[Al+3],-0.00401902,0.0019062734,-0.0016079843,4.167529e-05,-0.004844377,0.0024990288,0.006149534,-0.006721181,-0.0014097858,0.00077862665,-0.015143743,-0.0019772404,-0.0068541598,0.0046751816,-0.0036445567,-0.0056592803
CC(COC(=O)CCS)(COC(=O)CCS)COC(=O)CCS,-5.298038e-05,0.0014326116,0.0007026065,0.0030007153,-0.008610956,0.0025815326,0.0059062447,-0.008985169,-0.0021824967,-0.0010557491,-0.013526062,0.0023856116,-0.0061131613,0.004146965,-0.0005489448,-0.00487258
C=CCn1c(=O)n(CC=C)c(=O)n(CC=C)c1=O,-0.00023324066,0.0008558398,0.00094922073,0.0037066415,-0.008570868,0.0033212765,0.0066494206,-0.00858314,-0.001088826,-0.0015016971,-0.01288375,0.00062402757,-0.006821895,0.005042796,-0.002508766,-0.0041566323
C=CCOCC(COCC=C)(COCC=C)COC(=O)NCC1(C)CC(NC(=O)OCC(COCC=C)(COCC=C)COCC=C)CC(C)(C)C1,0.0025872528,0.0034139906,0.0040551815,0.0037918696,-0.005571098,0.0048519457,0.005321366,-0.008055627,-0.0024201404,-0.0018759295,-0.012009184,-0.00022174558,-0.00541782,0.005057106,0.00034516677,-0.0028465856
C=C(CCS)OCC(COC(=O)CCS)(COC(=O)CCS)COC(=O)CCSC(=O)NCC1(C)CC(NC(=O)SCCC(=O)OCC(COC(=O)CCS)(COC(=O)CCS)COC(=O)CCS)CC(C)(C)C1,0.0038728905,0.0072585586,0.0012813676,0.0024406237,-0.0021941133,0.0028410484,0.0027391128,-0.007699992,0.002030488,0.00073680654,-0.011462483,-0.000726013,-0.006845815,0.0017718114,0.0009565968,-0.0045927335
C=CCOCC(CO)(COCC=C)COCC=C,0.00057610427,-0.00052618515,0.00049035065,0.004310174,-0.007909831,0.003590353,0.006360571,-0.0083997855,-0.0011608973,-0.0013178,-0.013522353,0.0030398248,-0.0077603394,0.004316463,-0.0022679092,-0.0064059068
C=C(C)C(=O)OC,-0.00040028547,0.00079160277,-0.00018142723,0.0038275046,-0.007403528,0.0027592573,0.004658305,-0.008854462,-0.0022769794,-0.0014903722,-0.014841714,0.0023122677,-0.0069285193,0.0053679263,-0.0018670205,-0.005627513
O=C(OOC(=O)c1ccccc1)c1ccccc1,-0.0036245224,0.0018460774,-0.00039210916,0.0043482007,-0.006433707,0.0034419238,0.00607555,-0.008852335,-0.00070146844,-0.00023913197,-0.015927177,0.0023561437,-0.007649407,0.0052032676,-0.0031707222,-0.0062941806
C=C(C)C(=O)OCCOCCOCCOC(=O)C(=C)C,0.00042129098,0.0007683644,0.0014915466,0.004548371,-0.0076709203,0.0034709645,0.0060726786,-0.008406166,-0.0013928581,-0.001301053,-0.0135330595,0.0015844572,-0.00741711,0.0041745473,-0.0010656491,-0.0055352943
CC(C)(CCC(C)(C)N=C=O)CN=C=O,-0.00024877232,-0.0005538026,-6.0729682e-05,0.0036518725,-0.009031986,0.0027816915,0.006486099,-0.008181596,-0.0005013216,-0.0006867405,-0.013330655,0.0034475438,-0.0071314424,0.0052103857,-0.0017136484,-0.005637693
C=CCOCC(CC)(CO)CO,-9.411038e-05,0.0002810154,0.0004410129,0.0040740827,-0.0078046937,0.0036714708,0.00464506,-0.008704154,-0.0016297288,-0.0010485426,-0.01402319,0.0024201684,-0.007548243,0.005214803,-0.0016250443,-0.0061427625
CC(CO)CO,-0.0011336033,0.0007458236,1.8402934e-05,0.003912232,-0.0071463543,0.0034685943,0.005447222,-0.008665787,-0.002457792,-0.0006035473,-0.014834554,0.002279987,-0.0059780106,0.0059333257,-0.0017396621,-0.0061634434
C=CCCO,-0.0011612878,0.0007144157,0.00026786514,0.00419341,-0.00736755,0.0033203203,0.005981234,-0.008434832,-0.0028656777,-0.0014376715,-0.014227924,0.0022639208,-0.005683638,0.005851241,-0.001727147,-0.005567697
O=c1n(CCS)c(=O)n(CCS)c(=O)n1CCS,-0.0007191163,0.0003690282,0.0015901532,0.0036068466,-0.007742046,0.0028552783,0.004974257,-0.00884225,-0.0019132011,-0.001507422,-0.013142021,0.0013167472,-0.0073444517,0.0045588883,-0.0011784481,-0.004673004
CC(C)(CO)CO,-0.0008242291,0.0008046124,-0.00010803342,0.0035831053,-0.0073439456,0.0035655969,0.0050152196,-0.008696806,-0.0021731965,-0.0007914584,-0.014857371,0.0019899006,-0.006683938,0.0054161754,-0.0019022683,-0.006080257
OCC1CCC(CO)CC1,-0.00052132946,0.0004169764,0.00069201924,0.004205264,-0.0074150213,0.0036630132,0.005412765,-0.008945186,-0.0012662783,-0.0009901617,-0.01395281,0.0016196659,-0.007070615,0.0051608207,-0.0019020457,-0.0069198357
O=C=NC1CCC(CC2CCC(N=C=O)CC2)CC1,-0.00047969096,0.00037749298,0.0008854922,0.0046135727,-0.007551784,0.0029365453,0.007273257,-0.008705456,-0.0007401444,-0.001718414,-0.012779563,0.0017967769,-0.007567091,0.0045626257,-0.0019504102,-0.0077838833
O=C=NCCCCCCN=C=O,-2.6466325e-05,0.00078721344,0.0005534142,0.0041190996,-0.007600439,0.0027759536,0.006626811,-0.008004628,-0.0023699403,-0.0019612294,-0.013307839,0.0025888886,-0.0075891325,0.0057924856,-0.002257323,-0.0071529346
O=C(CCS)OCC(COC(=O)CCS)(COC(=O)CCS)COC(=O)CCS,0.0009779746,0.0030245301,0.0006745253,0.0022381856,-0.0067746392,0.0035410563,0.0048342897,-0.0076391804,-0.001988262,-0.0006307103,-0.0140524665,0.00089033786,-0.004375795,0.0041722944,-0.0012176158,-0.005640246
CCO[Si](CCCN(CCC(=O)OCCO)CCC(=O)OCCO)(OCC)OCC,3.2932498e-05,0.0028178538,0.0007935986,0.0029464988,-0.005366017,0.0043127253,0.005073485,-0.00784184,-0.0014013834,0.0007174518,-0.013639015,0.0015224377,-0.00557488,0.0045537185,-0.0008391598,-0.00529766
CC1(C)CC(N=C=O)CC(C)(N=C=O)C1,0.00029820832,0.00014681276,-0.00015282817,0.0040300284,-0.008323378,0.003254118,0.0060437657,-0.00808906,-0.0011908375,-0.00063404813,-0.013335598,0.0028355941,-0.007240558,0.004438947,-0.0018699849,-0.0058305217
COCCOCCOCCOCCOCCOCCOCCOCCO,-0.0009093669,-3.6246143e-05,0.0032190438,0.0052129556,-0.005862023,0.0047290814,0.0075098984,-0.008362854,-0.0012964383,-0.00081191584,-0.013573713,0.0024884222,-0.009112431,0.0047026556,-0.0017901389,-0.008189125
C=C(C)C(=O)OCCOCCOCCOCCOCCOCCOCCOCCOCCOCCOCCOCCOCCOCCOCCOCCOC(=O)C(=C)C,-0.0016950981,0.0010816278,0.004444018,0.0041337516,-0.002242638,0.0021508676,0.006680309,-0.009969444,-0.0019488521,-0.0037359223,-0.017250648,-0.0025799852,-0.007892129,0.0022729551,-0.000772777,-0.0043273
Nc1cccc(S(=O)(=O)c2cccc(N)c2)c1,-0.0034400674,0.0022119493,-0.0002962686,0.0034822016,-0.007789799,0.0029129311,0.0053066993,-0.008585939,-0.0020014048,0.0003761463,-0.013787958,0.0013460824,-0.007558625,0.004489485,-0.0027217707,-0.004758902
OCCOCCO,-0.0011353905,0.00085177366,0.00031386688,0.0038965251,-0.0072210575,0.003507644,0.0056811636,-0.008371925,-0.0029128715,-0.00071276166,-0.014582635,0.0023380616,-0.0057648225,0.0058746077,-0.0017447174,-0.006275379
OCCCCO,-0.0012814219,0.0007268451,-4.1846186e-05,0.0040832367,-0.0076545607,0.0034394132,0.0059703942,-0.00840915,-0.0028305016,-0.0011103693,-0.014353782,0.0023986707,-0.0056912797,0.0062641986,-0.0018639881,-0.005890541
C=CCc1ccc(OCC2CO2)c(-c2cc(CC=C)ccc2OCC2CO2)c1,-0.003743442,0.004483336,8.280203e-05,0.0021022824,-0.004709118,0.0039990814,0.006281187,-0.008902425,2.052635e-06,0.00013045594,-0.015336715,-0.0008809897,-0.0075560575,0.0036927322,-0.0022960985,-0.0040568523
COc1cc(CC2CO2)ccc1OP(=O)(Oc1ccc(CC2CO2)cc1OC)Oc1ccc(CC2CO2)cc1OC,-0.0046230834,0.0026519885,-0.00021718442,0.0015506002,-0.0050669443,0.004421124,0.004752652,-0.008519439,-0.00011468865,0.0013863314,-0.016051702,-0.0018541324,-0.0070929825,0.0047806613,-0.0012181569,-0.005403416
C(=N/c1ccc(OCC2CO2)cc1)\c1ccc(OCC2CO2)cc1,-0.004636001,0.0037005106,0.0012384132,0.003182557,-0.0054949974,0.003861179,0.0055584908,-0.009290001,-0.00039814785,0.0010151584,-0.014559381,-0.00055120233,-0.0076050432,0.004201073,-0.0023751836,-0.0057992665
COc1cc(/C=N/c2ccc(OCC3CO3)cc2)ccc1OCC1CO1,-0.0035950134,0.0035007638,0.00034252554,0.004035478,-0.00647592,0.0029557128,0.0064390367,-0.009095471,-0.0007759277,-0.0004916992,-0.015435489,-0.0010274951,-0.0074433116,0.0040764986,-0.002649569,-0.0048866076
COc1cc(CC2CO2)ccc1OC(=O)c1ccc(C(=O)Oc2ccc(CC3CO3)cc2OC)cc1,-0.004086755,0.0027648574,-0.00045099482,0.0021279457,-0.0062011485,0.0051336046,0.0049290024,-0.008998523,0.0004375428,0.0012668017,-0.0153895095,-0.00134438,-0.005988477,0.005050541,-0.001445083,-0.005985885
COc1cc(CC2CO2)ccc1OCc1ccc(COc2ccc(CC3CO3)cc2OC)cc1,-0.0047278013,0.00411048,-7.640384e-05,0.0024046658,-0.0048313197,0.0049728905,0.005155786,-0.009993549,0.0014134217,0.0011967272,-0.015377281,-0.00010263128,-0.0074653355,0.0049727336,-0.001756453,-0.005489396
COc1cc(CC2CO2)ccc1Oc1nc(Oc2ccc(CC3CO3)cc2OC)nc(Oc2ccc(CC3CO3)cc2OC)n1,-0.0047954414,0.0026749903,0.00026007742,0.0030394904,-0.005569763,0.004200021,0.005730775,-0.009573447,-0.00080663525,0.0008031614,-0.016544135,-0.00305358,-0.0065892274,0.0053461203,-0.00268808,-0.0047353534
COc1cc(C(c2cc(C)c(O)c(O)c2)c2cc(C)c(O)c(O)c2)ccc1OCC1CO1,-0.0054098032,0.0021879845,-0.00082242116,0.0014018738,-0.0060826726,0.0054193125,0.0035531921,-0.0074456786,-0.00044323877,0.0026902724,-0.014435441,-0.0006982926,-0.0059543867,0.006091073,0.00013583433,-0.004534483
COc1cc(C(c2cc(C)c(OCC3CO3)c(O)c2)c2cc(C)c(OCC3CO3)c(O)c2)ccc1OCC1CO1,-0.0047647385,0.001944188,-0.00031908974,0.0020010562,-0.0060390728,0.0050662323,0.0038253693,-0.007817667,-0.0012536235,0.0026047826,-0.014785699,-0.0013810056,-0.0060489895,0.0051253894,-0.0015815822,-0.0052349474
COc1cc(C(c2cc(C)c(OCC3CO3)c(OCC3CO3)c2)c2cc(C)c(OCC3CO3)c(OCC3CO3)c2)ccc1OCC1CO1,-0.0028213093,0.0017134435,0.00072742626,0.0017073161,-0.0072772126,0.0041958364,0.0062447395,-0.008209476,-0.0016841143,0.0020731408,-0.014086099,-0.0012520351,-0.0050074393,0.0068085324,-0.0001957221,-0.002834794
CCCCC1OC1CCCCC1OC1CCCCCCCC(=O)Oc1ccccc1,-0.0022791803,0.0020523886,0.0019717421,0.003357335,-0.006379152,0.0037038382,0.00677542,-0.007990715,-0.0003557261,-0.00025105104,-0.013467016,-0.0005558133,-0.008896168,0.0025617396,-0.0018349327,-0.008791154
COc1cc(COCC(O)CN)ccc1OCC(O)CN,-0.0018808891,0.00082455017,0.0013150238,0.0041498244,-0.006349954,0.0033230241,0.006757047,-0.009202724,-0.0010163188,-0.00026999786,-0.0134943845,0.0020956197,-0.008134408,0.004253936,-0.0014839899,-0.005493138
COc1cc(COCC2CO2)ccc1OCC1CO1,-0.0025222444,0.0004941374,0.0014967676,0.0041486686,-0.006147884,0.0025534509,0.0073580844,-0.009869384,-0.00013597123,-0.00096968375,-0.01381894,0.0012364918,-0.008503029,0.0047699325,-0.0019529844,-0.006668293
CC1(C)CC(N)CC(C)(CN)C1,-0.00040049502,-0.0009735292,-0.0006163027,0.0036587464,-0.007760524,0.003626962,0.0043740952,-0.008479788,-0.00093476847,-0.000713706,-0.014565783,0.0030862782,-0.0067268293,0.005063786,-0.0018368857,-0.0064768717
COc1cc(CO)cc(-c2cc(CO)cc(OC)c2OCC2CO2)c1OCC1CO1,-0.0044237794,0.004326423,0.0005059689,0.0015960243,-0.004202445,0.0037352361,0.0053871786,-0.0076613734,-0.0010556728,0.0019138809,-0.015355792,-0.0009161527,-0.0064666755,0.0042995354,-0.0020917235,-0.0037888763
COc1cc(CO)cc(-c2cc(COCC3CO3)cc(OC)c2OCC2CO2)c1OCC1CO1,-0.004149964,0.003728279,0.0007949807,0.002443091,-0.0037743947,0.0031194733,0.0053318664,-0.0083067315,-0.00020579807,0.0019025058,-0.016117197,-0.0018749866,-0.0063765403,0.0045274515,-0.0010524569,-0.004377695
COc1cc(COCC2CO2)cc(-c2cc(COCC3CO3)cc(OC)c2OCC2CO2)c1OCC1CO1,-0.005331546,0.0033666454,0.00080792047,0.001815907,-0.0040897964,0.0044200527,0.004502398,-0.008944119,0.0003341902,0.0016258173,-0.016109549,-0.0028575077,-0.0058403453,0.0054244576,-0.0013356367,-0.004855348
O=c1cc(-c2ccc(OCC3CO3)cc2)oc2cc(OCC3CO3)ccc12,-0.0043057464,0.0034109424,0.00056489,0.003646503,-0.0056375763,0.0032326751,0.006740398,-0.008683099,-0.0009194836,0.00019372627,-0.014310678,-0.0013038409,-0.0070783747,0.0046904106,-0.0025366573,-0.004311501
CC1(C)CC(CN)CC(CN)C1,3.403239e-05,-0.00064869784,-0.0003055539,0.003864468,-0.007585587,0.0040694717,0.004682184,-0.008688215,-0.0009826533,-0.0009534545,-0.014329914,0.0023720646,-0.0071547814,0.005030982,-0.0016502663,-0.0068025915
NCCCCCCCCCCN,-0.00078893383,0.0008481601,6.6358596e-05,0.0042753317,-0.0073794643,0.0038536878,0.006204311,-0.008463411,-0.0023607146,-0.0016375678,-0.014086884,0.0023072842,-0.006849289,0.006433081,-0.0016832594,-0.006727826
c1coc(CNCc2ccco2)c1,-0.0016852266,0.0012088167,0.0002292078,0.004130001,-0.0070694694,0.0027362956,0.007190536,-0.009833815,-0.0018094704,-0.00094246306,-0.013586106,0.0013194177,-0.0070376853,0.0062249154,-0.0029630652,-0.0061931266
COc1ccc(OCC2CO2)c(CCC(=O)OCCCCOC(=O)CCc2ccc(OCC3CO3)c(OC)c2)c1,-0.0017067858,0.0013049813,0.0005137753,0.00190219,-0.005777739,0.0048347358,0.0054932004,-0.008716544,-0.00032059848,0.0005459152,-0.014829571,-0.0013716444,-0.0058677727,0.00477303,-0.0028385557,-0.004955751
COc1ccc(OCC2CO2)c(CCC(=O)OC2CC3OCC(OC(=O)CCc4ccc(OCC5CO5)c(OC)c4)C2O3)c1,-0.0019231753,0.0014251703,0.00034037046,0.0028457341,-0.005194924,0.004408301,0.00701157,-0.008970857,-0.0025851503,-0.00063536875,-0.015526952,-0.001765639,-0.004697106,0.005856598,-0.0028189542,-0.004114557
COc1ccc(OCC2CO2)c(CCC(=O)OCC(COC(=O)CCc2ccc(OCC3CO3)c(OC)c2)OC(=O)CCc2ccc(OCC3CO3)c(OC)c2)c1,-0.0011916121,0.0015634615,3.825687e-05,0.002727307,-0.006060488,0.0061195637,0.0042292094,-0.0074854544,-0.0004123412,0.00044907816,-0.012557853,-0.0025750734,-0.005648751,0.0051078647,-0.0013804631,-0.0038922466
CC1CCC2C(=O)OC(=O)C2C1,-0.0007236155,0.00036549754,0.00023634732,0.0039599407,-0.007894367,0.003316901,0.0059016515,-0.008985255,-0.001017537,-0.0017949529,-0.01375124,0.0019198232,-0.007583185,0.0050151255,-0.0012526531,-0.006164192
CC(=O)/C=C(/C)[O][Zn][O]/C(C)=C\C(C)=O,-0.0013401464,0.0018935017,0.00015387312,0.004108529,-0.008371414,0.0012714243,0.005626873,-0.009348726,-0.0011890065,-0.0011520553,-0.013751394,-0.00046468433,-0.007361899,0.004757466,-0.0033786437,-0.00508649
COc1ccc(OCC2CO2)c(C(c2ccc(OCC3CO3)c(OC)c2)c2cc(OC)ccc2OCC2CO2)c1,-0.00473921,0.0015085023,0.00055034645,0.0012903402,-0.0048662117,0.0051900214,0.004796467,-0.009911697,3.2164156e-05,0.0019678567,-0.015204538,-0.0016321414,-0.0056619532,0.006332347,-0.0018470241,-0.0050600693
COc1ccc(OCC2CO2)c(CCCC(=O)OCCOC(=O)CCc2ccc(OCC3CO3)c(OC)c2)c1,-0.0024615603,0.0013658386,0.00021401234,0.0019291262,-0.0049477383,0.0054798727,0.005053944,-0.008379715,-0.0007754471,0.0012302548,-0.015447669,-0.0021172594,-0.006102957,0.0046351543,-0.0023546256,-0.0053788815
CC1(C)CC(N)CC(C)(C)C1CN,-0.00045433012,-0.0010128068,-0.00045488589,0.00380962,-0.007751705,0.003551293,0.0046054376,-0.008628638,-0.0012217127,-0.0007585194,-0.014325471,0.0032616323,-0.0068808272,0.00481069,-0.0019351533,-0.0069071567
COc1ccc(OCC2CO2)c(CCCC(=O)OCCCOC(=O)CCc2ccc(OCC3CO3)c(OC)c2)c1,-0.0019300024,0.0011413945,0.000486549,0.002172845,-0.0058580274,0.0052224537,0.0049258964,-0.008314227,-0.00032460876,0.0006205719,-0.014846808,-0.0014869776,-0.005922965,0.0043881554,-0.0026610903,-0.004929509
COc1ccc(OCC2CO2)c(CCCC(=O)OCCCCOC(=O)CCc2ccc(OCC3CO3)c(OC)c2)c1,-0.0020407245,0.0008721864,0.00041379035,0.0017284655,-0.0054541137,0.004270473,0.0050950926,-0.0087403795,-0.0007360559,2.5313348e-05,-0.014004734,-0.0018128934,-0.0054371357,0.0050889906,-0.0025374321,-0.0051347874
COc1ccc(OCC2CO2)c(CCCC(=O)OCCCCCCOC(=O)CCc2ccc(OCC3CO3)c(OC)c2)c1,-0.002228123,0.000722982,0.00030833483,0.0016567993,-0.0048661227,0.0046186317,0.0054173423,-0.0086817825,-0.0011193529,0.00012403727,-0.015629146,-0.0017392132,-0.005965662,0.004363035,-0.001883368,-0.005285606
COc1cc([C@H]2OC[C@H]3[C@@H]2CO[C@@H]3c2cc(OC)c(OCC3CO3)c(OC)c2)cc(OC)c1OCC1CO1,-0.0035301798,0.0023936536,-0.0009343233,0.0023731866,-0.0066257594,0.0042734896,0.008302536,-0.007916117,-0.0022186283,0.00072864257,-0.013705027,-0.0010612705,-0.0066606356,0.0052928505,-0.0036188653,-0.005159064
CC(C)(c1occc1CN)c1occc1CN,-0.0032836434,0.0011924161,0.00058530085,0.0040758336,-0.0072023175,0.0026405803,0.00801888,-0.009603202,-0.00046764687,-0.00038798153,-0.0137901,0.0016426137,-0.008071256,0.0059501976,-0.002535156,-0.005354842
NCCCOC1COC2C(OCCCN)COC12,-0.0005084744,8.714106e-05,0.0010388475,0.0047729174,-0.006703835,0.003752171,0.0061487732,-0.008976807,-0.0005740002,-0.0015727514,-0.013726087,0.0017126966,-0.008533208,0.0048693353,-0.0014936049,-0.0073276977
OC(COC1COC2C(OCC3CO3)COC12)COC1COC2C(OCC3CO3)COC12,-0.0016324839,0.003487879,0.00015845895,0.0017794976,-0.003346989,0.0029117074,0.0061308388,-0.009207001,-0.00029527955,-0.00032793917,-0.015035599,-0.0012561125,-0.0066527743,0.00524038,-0.0009194473,-0.0062793586
NCCN,-0.0013241444,0.0008541439,-0.00029347837,0.004087768,-0.007540216,0.0032213852,0.0060772356,-0.008769353,-0.003055947,-0.0010852236,-0.014206412,0.0022533392,-0.0055044657,0.0063024163,-0.0014998205,-0.005513164
NCCNCCNCCN,-0.00081726094,0.0007990729,0.0006743744,0.0045021805,-0.0071456055,0.0035976358,0.0061804038,-0.008429468,-0.0027077552,-0.00073034875,-0.014230662,0.00264462,-0.006294568,0.005729284,-0.0017341692,-0.0068402165
NCCN1CCNCC1,-0.0003203929,0.00064693484,0.00029139593,0.0040256963,-0.007331804,0.003258938,0.0064168135,-0.008795654,-0.002344435,-0.0010854937,-0.013956861,0.0017815679,-0.006957311,0.005407433,-0.0019002864,-0.007258164
CC1(C)CC(CN)CC(C)(N)C1,-0.00018314668,-0.00076388195,-0.0008789599,0.0037409782,-0.007936174,0.004106967,0.004564139,-0.0084230155,-0.0012330338,-0.000680957,-0.014201083,0.002980872,-0.006869876,0.004887132,-0.0013682572,-0.0065672044
CC(=O)/C=C(/C)[O][Zn][O]/C(C)=C\C(C)=O.O,-0.0012408516,0.0019725491,0.00014553033,0.0037956687,-0.00765007,0.001252831,0.0055657327,-0.009445122,-0.0016063247,-0.0009630937,-0.014153813,-0.0005706954,-0.006977869,0.0048368573,-0.003008454,-0.0047542825
Nc1cccc(Oc2cccc(Oc3cccc(N)c3)c2)c1,-0.0038746942,0.0035843062,8.8799745e-05,0.004239755,-0.0063237073,0.003825593,0.006843986,-0.0076879263,-0.0016956553,0.0010949578,-0.014524108,0.0002020835,-0.0071664313,0.0042125015,-0.0024319263,-0.004307392
O=C1OC(=O)c2cc(Oc3ccc4c(c3)C(=O)OC4=O)ccc21,-0.0038634764,0.0028540157,-0.00057714246,0.0025693455,-0.006484374,0.0035165264,0.005983689,-0.008741415,0.00011107512,0.00081274286,-0.015286129,0.0006899284,-0.0076504955,0.005082855,-0.00308418,-0.003381988
C=Cc1ccccc1,-0.0007612009,0.0012590466,-0.00067369826,0.0035271845,-0.0071572713,0.0028000064,0.0071614617,-0.008945698,-0.0030305758,-0.0017364956,-0.013321131,0.0010051196,-0.006340881,0.005595552,-0.0012231991,-0.005267241
Nc1ccc(Oc2ccc(-c3ccc(Oc4ccc(N)cc4)cc3)cc2)cc1,-0.0059445947,0.0034903325,-0.000799885,0.003136219,-0.0066029322,0.0053218226,0.005199057,-0.0087946225,0.0012851041,0.0025231726,-0.01481908,-0.0005212282,-0.006962573,0.005829867,-0.0020022318,-0.005377787
O=C1OC(=O)c2cc(C(c3ccc4c(c3)C(=O)OC4=O)(C(F)(F)F)C(F)(F)F)ccc21,-0.0034823448,0.0030494374,-0.0019286536,0.003504011,-0.00508636,0.005561525,0.005234997,-0.008800972,-0.00022513978,0.0005413983,-0.016294291,0.0018382636,-0.0052644676,0.0062867086,-0.0026023434,-0.005409185
CC(c1ccc(Oc2ccc(N)cc2)cc1)(c1ccc(Oc2ccc(N)cc2)cc1)c1ccc(Oc2ccc(N)cc2)cc1,-0.006115699,0.0050875843,-0.0021557119,0.0005453271,-0.0066488716,0.00701053,0.004828428,-0.008110128,0.00020897388,0.003312884,-0.01417327,-0.0018892819,-0.0041737715,0.0050631436,-0.0024618618,-0.006534013
CC(C)(c1ccc(OC#N)cc1)c1ccc(OC#N)cc1,-0.004265908,0.0024871002,0.0013442654,0.0039016367,-0.0065712784,0.0032742978,0.0064197388,-0.008248206,-0.0016239621,0.0008273516,-0.014332684,0.001123921,-0.007501987,0.0046264064,-0.0021713004,-0.0051250765
O=C(Oc1cccc(OC(=O)c2ccc(OCCOCC3CO3)cc2)c1)c1ccc(OCCOCC2CO2)cc1,-0.005433305,0.0015249457,-9.930506e-05,0.0004807529,-0.004039456,0.00471171,0.006151139,-0.009435826,-0.00062907115,0.0011253785,-0.015451392,-0.00073178764,-0.006944009,0.0053011244,-0.0011348901,-0.004093593
Nc1ccc(-c2ccc(N)cc2)cc1,-0.0030339195,0.0010373136,-0.0015549492,0.0038440076,-0.00678326,0.0030953828,0.006996435,-0.008989743,-0.0017199889,-0.0002915077,-0.013984989,0.001189257,-0.006394348,0.0056203306,-0.0029621767,-0.0043003196
CC(C)(c1ccc(N)cc1)c1ccc(C(C)(C)c2ccc(N)cc2)cc1,-0.0036282346,0.0030250223,-0.00074973516,0.0011897916,-0.006467676,0.0061135436,0.00512264,-0.008119665,-0.00021419115,0.002564093,-0.014256406,-8.125743e-05,-0.0072478587,0.00481865,-0.0027475348,-0.0043421285
O=c1cc(-c2ccc3c(c2)CN(Cc2ccco2)CO3)c2c3c(c(O)cc2o1)CN(Cc1ccco1)CO3,-0.004484386,0.0017480971,-0.0014432743,0.0021965965,-0.0064554885,0.004888313,0.006204592,-0.008470536,-0.00041972846,0.0022170022,-0.015147224,-0.001532454,-0.004606587,0.0059143025,-0.0016866159,-0.00438207
CC12CCCCC1C(=O)OC2=O,-0.0001051391,0.00057747215,3.8376078e-05,0.0038035372,-0.008283807,0.0027337058,0.0070897928,-0.009064392,-0.0011518896,-0.0016339002,-0.013200388,0.001388032,-0.008157148,0.004884959,-0.001685922,-0.006273563
c1ccc(P(c2ccccc2)c2ccccc2)cc1,-0.0040805023,0.0023278478,-0.0012388919,0.004947966,-0.007099572,0.0038944453,0.0071618846,-0.009060289,-0.0012116302,0.00046602637,-0.014877654,0.0008877553,-0.0067448495,0.004636988,-0.0027693445,-0.005006641
O=C(O)c1cc(C(=O)O)cc(C(=O)O)c1,-0.0018552879,0.0012461757,0.0002002623,0.003973109,-0.008271555,0.0027969289,0.0053387024,-0.007381294,-0.0012185872,0.0001799073,-0.013653828,0.0018572607,-0.0071989438,0.0041967286,-0.0017501861,-0.004496186
O=C(O)CCC(=O)O,-0.0003399395,0.0005432144,0.00044929236,0.0036473977,-0.007267361,0.0027785217,0.0048852703,-0.008505177,-0.0024097692,-0.001407587,-0.014798643,0.00230753,-0.006842727,0.005380285,-0.0021787304,-0.005929975
C#Cc1cccc(N2COc3cc(O)c4c(=O)cc(-c5ccccc5)oc4c3C2)c1,-0.0052652843,0.0037971772,0.0006430205,0.0028039645,-0.006203808,0.0041212845,0.0050304895,-0.008168052,0.0010611638,0.0020505227,-0.015447201,-6.159721e-05,-0.007462099,0.004210756,-0.0018832022,-0.004618857
CC(C)(c1ccc(OCC2CN(c3ccccc3)CO2)cc1)c1ccc(OCC2CN(c3ccccc3)CO2)cc1,-0.005864663,0.0039303624,-0.0010270029,0.0022950643,-0.0056555076,0.0067497706,0.0044549936,-0.008466133,0.00011429377,0.0014139116,-0.01532767,-0.0023909272,-0.005917399,0.0058009587,-0.0015708292,-0.0074710636
O=C1C=CC(=O)N1c1ccc(Cc2ccc(N3C(=O)C=CC3=O)cc2)cc1,-0.0021791982,0.003937485,-0.0006516855,0.0022249345,-0.0054927454,0.0032129548,0.006424863,-0.00977369,0.001090169,0.00093592517,-0.016126525,-0.00010373909,-0.0070150234,0.005766673,-0.0027715033,-0.004781549
C=C(C)C(=O)OCCOCCOCCOCCOCCOCCOCCOCCOCCOCCOCCOCCOCCOCCOC(=O)C(=C)C,-0.00246113,0.0003485782,0.0029909946,0.004578934,-0.0024268285,0.0024335142,0.006874582,-0.009748466,-0.0012495052,-0.0037188083,-0.017018508,-0.002061612,-0.008400395,0.002024538,-0.0016272673,-0.0041890955
C=CC(=O)OC,-0.0007050226,0.0009047352,0.00038666464,0.004163621,-0.007281146,0.003167612,0.00549527,-0.008787972,-0.0023889225,-0.0013567181,-0.014518023,0.0021226467,-0.006653566,0.005516826,-0.0019316403,-0.0062908204
C=CC(=O)OCCCC,-0.00016157166,0.0008696001,0.000522878,0.0043751486,-0.007367505,0.003696464,0.006024059,-0.008470478,-0.002290614,-0.001246823,-0.014166546,0.00227973,-0.00696849,0.005208374,-0.002325315,-0.007168066
C=C(C)C(=O)OC(C)(C)C,0.00022407039,-0.0002789041,-0.00015638396,0.0035299305,-0.0077211894,0.0030067996,0.0037279548,-0.008411502,-0.001885362,-0.0015362557,-0.014626996,0.0028110947,-0.006830165,0.004608677,-0.0020118486,-0.005417158
C=C(C)C(=O)OCCOCC,-0.00041555078,0.00040235743,0.00037705898,0.0040598228,-0.0071654613,0.0036745723,0.0050738147,-0.008736979,-0.0017603915,-0.0018070312,-0.014351465,0.0020230194,-0.0076907575,0.0051739896,-0.0017345492,-0.0062270537
C=C(C)C(=O)OC1CC2CCC1(C)C2(C)C,-0.00078804255,0.0006993385,0.00018446706,0.0038199108,-0.0078048343,0.0032285205,0.0057180533,-0.008817103,-0.0015521944,-0.0019211331,-0.013801289,0.0015948564,-0.007414816,0.003408147,-0.0019360259,-0.006548441
C=C(C)C(=O)OCC(CC)CCCC,1.937151e-07,-0.00040749647,0.00028752908,0.0041656354,-0.0074726003,0.0039206725,0.0045616636,-0.008328844,-0.0017643347,-0.0015443694,-0.014203649,0.0025725607,-0.007262774,0.004203519,-0.002118731,-0.0063145906
C=CC(=O)OCc1ccccc1,-0.0012939668,0.0010535996,0.00052057765,0.0038018748,-0.006468481,0.003235743,0.0066279173,-0.008833608,-0.0015247371,-0.0012759548,-0.014226547,0.0014559757,-0.0073570414,0.0052960915,-0.0030108253,-0.0063909926
C=CC(=O)OCC(C)CCCCCCC,-3.404473e-05,-9.5637515e-05,0.00086153485,0.0046680756,-0.0070147873,0.0043525966,0.005331776,-0.008485043,-0.0014085211,-0.001328839,-0.014254347,0.0023763385,-0.0074194577,0.0044906773,-0.0024850788,-0.007958426
C=C(C)C(=O)OCc1ccccc1,-0.0014514497,0.0012018867,-0.00048957206,0.0036826725,-0.006527802,0.0029809666,0.0058885394,-0.009313051,-0.0010457914,-0.0013621245,-0.014946905,0.0020085615,-0.0078494055,0.0049493844,-0.0024865447,-0.0061060404
C=C(C)C(=O)OCCOc1ccccc1,-0.0021307098,0.0012272121,-0.00019576773,0.004312774,-0.0063883346,0.0035507968,0.005872313,-0.009099532,-0.00023400411,-0.0015881946,-0.015334772,0.0020865821,-0.008451746,0.004997479,-0.0020974185,-0.006197975
C=CC(=O)OCC(C)OCC(C)OCC(C)OCC(C)OCC(C)OCC(C)OCC(C)OCC(C)O,-0.0007990815,0.0007899925,0.0017130319,0.0019073975,-0.0035847514,0.0056361724,0.003731954,-0.008301837,-0.001794437,-0.000112861395,-0.015162869,-2.4309848e-05,-0.005307883,0.0034118062,-0.0010488871,-0.004569168
C=CC(=O)OCCOCCOc1ccccc1,-0.0019221411,0.0010901447,0.0009025857,0.004530935,-0.0058288313,0.0043372223,0.006719512,-0.008835036,-8.958951e-05,-0.0010826942,-0.015101616,0.0017285822,-0.008606492,0.0047373604,-0.0024233088,-0.0072650234
C=CC(=O)OCCOCCOCCOc1ccccc1,-0.0021392081,0.0007073814,0.0017604586,0.00514519,-0.0053135077,0.004367956,0.0066076918,-0.0087714465,5.5035576e-05,-0.00084662996,-0.015248757,0.001962422,-0.0092238,0.004864011,-0.0023697633,-0.006726207
C=CC(=O)OCCOCCOCCOCCOc1ccccc1,-0.0023764179,0.0011125188,0.0020063818,0.0059278836,-0.0053717867,0.004912599,0.0065830154,-0.008388523,-0.00015193783,-0.00095337816,-0.01547092,0.0017677993,-0.009193227,0.0039000213,-0.0018928656,-0.007757582
C=C(C)C(=O)OCCOCCOCCOCCOCCOCCOCCOCCOCCOCCOCCOCCOCCOCCOCCOc1ccc(C(C)(C)c2ccc(OCCOCCOCCOCCOCCOCCOCCOCCOCCOCCOCCOCCOCCOCCOCCOC(=O)C(=C)C)cc2)cc1,-0.0003066992,0.006323406,-0.0002039317,0.0010729795,-0.00042585976,0.0015924866,0.0071452325,-0.0049556103,0.0016850121,-0.0048699556,-0.015158638,-0.0011191978,-0.006732668,-0.0015860777,0.0032339096,-0.003826065
C=C(C)C(=O)OCCOCCOc1ccc(C(C)(C)c2ccc(OCCOCCOC(=O)C(=C)C)cc2)cc1,-0.0034376679,0.0025855224,-0.0012107156,0.0031521479,-0.0048629316,0.0059247566,0.0042790165,-0.007997023,0.00029551797,-0.0014573652,-0.015790729,-0.0015912983,-0.0074715866,0.003557899,-0.0022246065,-0.0047533438
C=C(C)C(=O)OCCOCCOCCOCCOc1ccc(C(C)(C)c2ccc(OCCOCCOCCOC(=O)C(=C)C)cc2)cc1,-0.0036713078,0.0014675763,0.0016938727,0.007079887,-0.0053970553,0.004947856,0.0043769656,-0.0077291694,0.00012545101,-0.00046266802,-0.017247671,-0.002234179,-0.007517985,0.003007805,-0.0010943804,-0.004321073
C=C(C)C(=O)OCCOCCOc1ccc(C(C)(C)c2ccc(OCCOC(=O)C(=C)C)cc2)cc1,-0.00315177,0.0026705903,-0.0017192531,0.0025790518,-0.005092207,0.006022975,0.004495234,-0.007959524,0.0009162873,-0.0013311794,-0.015779095,-0.00027072616,-0.007582183,0.004045508,-0.0021735309,-0.004610614
C=C(C)C(=O)OCCOc1ccc(C(C)(C)c2ccc(OCCOC(=O)C(=C)C)cc2)cc1,-0.0032391965,0.0032787481,-0.0014396943,0.0026930252,-0.004970207,0.006575124,0.003720968,-0.008917751,0.00094020925,-0.00052266754,-0.0158423,-0.00040338887,-0.007463609,0.0040412955,-0.0013087001,-0.0059960894
C=CC(=O)OCCCOCC(C)(C)COCCCOC(=O)C=C,0.0005687799,0.00091368053,0.0021580998,0.00418411,-0.007407109,0.0036342137,0.005875361,-0.007878233,-0.0017045029,-0.00053035095,-0.013473259,0.0023624552,-0.0064884713,0.0038557919,-0.0015144646,-0.00624285
C=CC(=O)OCCCCCCOC(=O)C=C,0.00021598465,0.00054498576,0.00081781857,0.004264228,-0.007489763,0.0035914045,0.006455794,-0.008395078,-0.0012696162,-0.0014679432,-0.013548732,0.0023161448,-0.007830729,0.004514548,-0.0017096903,-0.006525781
C=CC(=O)OCC(CO)(COC(=O)C=C)COC(=O)C=C,0.0012209297,0.0016124267,0.0020498354,0.0039072083,-0.007889332,0.002570311,0.0063077463,-0.007899984,-0.0015664753,-0.00036524422,-0.013422781,0.0013949154,-0.0063427314,0.0043355124,-0.001958223,-0.0051936377
C=CC(=O)OCCOCC(CC)(COCCOC(=O)C=C)COCCOC(=O)C=C,0.0011395686,0.0025408352,0.0016897433,0.0034954823,-0.0050146673,0.0035907961,0.0052591683,-0.007275866,-0.0011409186,-0.00039137714,-0.014757364,0.00066877995,-0.006261899,0.0043581724,-0.0021936512,-0.0050174734
C=CC(=O)OCCOCCOCCOCC(CC)(COCCOCCOC(=O)C=C)COCCOCCOC(=O)C=C,-0.0007367276,0.0016742358,0.0016637128,0.0040526427,-0.0031317486,0.004868892,0.0061682938,-0.008134995,-0.00050739385,-0.0012145378,-0.0154722575,-0.0013747504,-0.0066433745,0.0036694454,-0.00073127076,-0.004694349
C=CC(=O)OCCOCCOCCOCCOCCOCC(CC)(COCCOCCOCCOCCOCCOC(=O)C=C)COCCOCCOCCOCCOC(=O)C=C,0.00011451403,0.00046488643,0.004552068,0.0034975382,-0.0017760762,0.0038866221,0.006088483,-0.009004557,-0.0011636931,-0.0027326243,-0.01595195,-0.0035409401,-0.009119954,0.002514259,0.00051333103,-0.0039766952
C=CC(=O)OC(C)COC(C)COCC(CC)(COCC(C)OCC(C)OC(=O)C=C)COCC(C)OCC(C)OC(=O)C=C,0.00023426022,0.0021917014,0.0035681762,0.004104725,-0.0043543647,0.004940083,0.0026364513,-0.008920401,-0.002069734,-0.0006649215,-0.01523643,-0.00067284657,-0.0054294476,0.003957213,-0.0013647005,-0.0033208588
C=CC(=O)OCC(C)OCC(COCC(C)OC(=O)C=C)OCC(C)OC(=O)C=C,0.0010979169,0.002473324,0.0014012717,0.0036934349,-0.0051974445,0.00436402,0.005112621,-0.0083679715,-0.0014362559,-0.00020693801,-0.014026412,8.807378e-05,-0.005764083,0.004815977,-0.0010063285,-0.005025833
C=CC(=O)OCC(CC)(COCC(CC)(COC(=O)C=C)COC(=O)C=C)COC(=O)C=C,0.0012463327,0.0012869351,0.00021202117,0.003730272,-0.005577173,0.004930742,0.0046214582,-0.007687432,-0.0007928349,-0.0003587138,-0.014649604,-0.00093445554,-0.004767455,0.0038267802,-0.0015048245,-0.0037973141
C=CC(=O)OCC(CO)(COCC(COC(=O)C=C)(COC(=O)C=C)COC(=O)C=C)COC(=O)C=C,0.0012714348,0.0015640547,0.00082209706,0.0051526334,-0.0061129946,0.00534932,0.004250408,-0.007822682,-0.0010342486,-0.0004656855,-0.014909058,-0.0017049578,-0.005164465,0.004480889,-0.0017777467,-0.003624319
O=C(OCCCCCCO)OCCCCCCOC(=O)OCCCCCCOC(=O)OCCCCCCOC(=O)OCCCCCCOC(=O)OCCCCCCOC(=O)OCCCCCCOC(=O)OCCCCCCOC(=O)OCCCCCCOC(=O)OCCCCCCOC(=O)OCCCCCCOC(=O)OCCCCCCOC(=O)OCCCCCCOC(=O)OCCCCCCO,0.0022870165,0.0077021853,0.0008655563,0.002128188,-6.1561586e-06,0.0023711463,0.006959048,-0.0021424815,0.0029483903,0.001326831,-0.01157067,-0.0023812517,-0.003544488,-0.0014211275,0.0032047676,-0.0051706573
OCc1cccc(CO)n1,-0.000952285,0.0009886045,-5.9004873e-05,0.0038179155,-0.007486903,0.0023448044,0.0057629542,-0.009444758,-0.0023560561,-0.00094816275,-0.013574817,0.0007866407,-0.006413594,0.005701326,-0.0012009544,-0.0055078818
CCCCCCCCCCCC(=O)[O][Sn]([CH2]CCC)([CH2]CCC)[O]C(=O)CCCCCCCCCCC,-0.003210298,0.00079263095,0.0011178087,0.0037585753,-0.005133286,0.0033094268,0.0064546755,-0.009640834,0.00055736676,-0.0020211013,-0.013470436,-0.0006832564,-0.008220732,0.0045599043,-0.0026406506,-0.0032346835
O=S(=O)([O-])C(F)(F)F.O=S(=O)([O-])C(F)(F)F.[Zn+2],-0.00038193562,0.0016893204,0.0020984244,-0.00028918497,-0.0051466255,0.0024569426,0.0034593428,-0.007205553,-0.002077056,0.0012381542,-0.013420339,0.002285915,-0.0047010593,0.0034664785,-0.0012543146,-0.0068674306
CC(COCC(C)N1COc2ccccc2C1)OCC(C)OCC(C)N1COc2ccccc2C1,-0.0039483756,0.0030571916,0.00043050945,0.00023256056,-0.0041354015,0.0032276295,0.006003108,-0.009533785,-0.00017237291,0.00058781914,-0.015205381,-0.0006861882,-0.0073632626,0.00407969,-0.0010102466,-0.0058026286
c1coc(CN2COc3ccccc3C2)c1,-0.0028666465,0.0017794748,-0.0003257431,0.004493605,-0.006943362,0.0029992023,0.0071883667,-0.009565387,-0.00061397254,-0.0007574018,-0.014078663,0.0017554471,-0.0071377866,0.0053390013,-0.002706253,-0.005977787
c1cc2ccc3ccc4ccc5ccc6ccc1c1c2c3c4c5c61,-0.0060216887,0.004523303,-0.002309041,0.0056408374,-0.005597586,0.004811682,0.009924367,-0.008533015,-0.0010422859,4.8436224e-05,-0.015108905,0.00057786796,-0.0077866185,0.004586136,-0.0025865976,-0.0046884883
C=CCOc1ccc(SSc2ccc(OCC=C)cc2)cc1,-0.0032220914,0.0028481665,0.00030217692,0.0046976362,-0.0070281387,0.00400087,0.006601343,-0.008742401,-0.0009879507,0.00060501695,-0.013940535,0.0004512053,-0.008091733,0.0034051398,-0.0021705395,-0.004800746
C=CN1CCCC1=O,-0.00069609866,0.0010649897,0.00076824613,0.0039030318,-0.0074076033,0.0026498488,0.0061628893,-0.008794305,-0.002369566,-0.0016603554,-0.014111224,0.0015147282,-0.007154512,0.005425008,-0.0020841472,-0.0066940254
Cc1cc(C)c(C(=O)P(=O)(c2ccccc2)c2ccccc2)c(C)c1,-0.0042172493,0.0038032816,-0.0009002499,0.003324214,-0.0069656353,0.004592763,0.0036034537,-0.008068194,0.00028550066,0.0019576568,-0.014037549,0.0011384236,-0.007346333,0.0059053134,-0.0009965068,-0.005494236
C=Cc1ccc(C=C)cc1,-0.00026154635,0.0007631434,-0.000528777,0.0038839527,-0.0074152444,0.0030663125,0.007064203,-0.008442525,-0.002510013,-0.0019272137,-0.013075183,0.002173209,-0.00746049,0.0057560615,-0.0027151844,-0.0057484303
C=CC(=O)OCCOCCOCCOCCOCCOCCOC(=O)C=C,-8.7804394e-05,0.0008532852,0.003309073,0.004780263,-0.005776922,0.0039004288,0.007581304,-0.008538432,-0.0012637842,-0.0012836363,-0.013976567,0.0011138618,-0.008127074,0.0042627305,-0.0018613478,-0.0069480096
CC(C)(c1ccc(Oc2ccc(C#N)c(C#N)c2)cc1)c1ccc(Oc2ccc(C#N)c(C#N)c2)cc1,-0.0067218225,0.004073284,-0.0009410046,0.0013544781,-0.007378463,0.0065614493,0.0042865956,-0.0071104225,-0.0005325172,0.0019758772,-0.014308041,-0.00037426222,-0.005551912,0.0046011945,-0.0032669688,-0.006032762
Nc1cccc(Oc2ccc(S(=O)(=O)c3ccc(Oc4cccc(N)c4)cc3)cc2)c1,-0.0037567534,0.0028591682,-0.0006738603,0.0013658046,-0.006645447,0.0046794256,0.0043530026,-0.00878326,-3.5872683e-05,0.0028575119,-0.013811612,0.00039729243,-0.0073280567,0.006170923,-0.0012314077,-0.0034349635
N#Cc1ccc(Oc2ccc(-c3ccccc3)cc2)c(C#N)c1,-0.0047524795,0.00420714,0.00036431476,0.0049910042,-0.006902141,0.004163558,0.006506319,-0.008321196,-0.0012477115,0.0009292122,-0.014328195,0.00019415887,-0.0065629864,0.0043960437,-0.0022902004,-0.004618479
CC(C)(c1ccc(Oc2ccc(C(=O)c3ccc(Oc4ccccc4)cc3)cc2)cc1)c1ccc(Oc2ccc(C#N)cc2C#N)cc1,-0.0041065067,0.004607912,-0.0017483626,0.0015948585,-0.008819536,0.0060173,0.005615822,-0.0076162694,0.0012726616,0.0028240494,-0.014463135,-0.0009908108,-0.0054727625,0.006209716,-0.0020889817,-0.005224405
CC(C)(c1ccc(Oc2ccc(C(=O)c3ccc(Oc4ccc(C(C)(C)c5ccc(Oc6ccc(C#N)cc6C#N)cc5)cc4)cc3)cc2)cc1)c1ccc(Oc2ccc(C#N)c(C#N)c2)cc1,-0.0065051178,0.006965614,-0.0039935037,0.004092653,-0.004531361,0.005326004,0.0050950125,-0.007596353,0.0012221076,0.0037040934,-0.011578469,-0.0003797589,-0.002214143,0.009011747,-0.0020234557,-0.0052207047
C=CC(=O)OCCCOc1ccc(C(=O)Oc2ccc(C)c(OC(=O)c3ccc(OCCCOC(=O)C=C)cc3)c2)cc1,-0.0029156168,0.0023847003,0.00028095767,0.0055626617,-0.0073868576,0.0054950137,0.005802919,-0.007870053,-0.00076418,0.00072915107,-0.016151838,-0.0009867023,-0.00584366,0.0045327684,-0.0034512104,-0.004078472
O=C(CCS)OCCC(COC(=O)CCS)(COC(=O)CCS)OC(=O)CCS,0.0010654484,0.003023183,-8.206256e-05,0.0027433606,-0.0071895905,0.004379919,0.0047319373,-0.007379026,-0.0013813004,-0.0006391313,-0.0137479985,0.0011628866,-0.0046767555,0.0043788226,6.750226e-06,-0.0056287926
CC(C)(O)C(=O)c1ccc(OCCO)cc1,-0.0025765628,0.00063228887,-8.184463e-06,0.0042483653,-0.0072030844,0.0034249774,0.0052976767,-0.008587031,-0.000375418,7.1484596e-05,-0.015476415,0.002209634,-0.008154315,0.0052129086,-0.0027899155,-0.0056476193
C1CCOC1,-0.0009601994,0.0010430617,7.167272e-05,0.0041122986,-0.007618086,0.0031245647,0.0061621917,-0.009374741,-0.0026788134,-0.0014330056,-0.014030219,0.0018130341,-0.0062298076,0.005805608,-0.0013417462,-0.0058960086
CCN(CC)CC,-0.0006226322,0.00063197874,-0.00038916804,0.0042452035,-0.0075914836,0.003640866,0.0058764378,-0.008777279,-0.002559444,-0.0008922536,-0.014197762,0.002393932,-0.0062828837,0.0059267785,-0.0016736528,-0.006542855
Oc1ccc(Oc2ccc(O)cc2)cc1,-0.003401845,0.0012434488,-0.0009388458,0.0037878614,-0.006622182,0.0032586106,0.0068472223,-0.008949656,-0.0016118791,4.63482e-05,-0.014273244,0.0011992902,-0.0065840986,0.0053046523,-0.002854419,-0.004084468
C=O,-0.0012391929,0.00056773145,-0.0004383009,0.0038361982,-0.0075867595,0.0031522522,0.0059541324,-0.008809278,-0.0030423533,-0.001660876,-0.014167563,0.0021260637,-0.0052766744,0.006349059,-0.0014339378,-0.0052393675
OB(O)O,-0.0011578111,0.0004335735,-7.482804e-05,0.0038522426,-0.0071895127,0.0030192551,0.00535326,-0.008867388,-0.003010733,-0.0010708924,-0.014812289,0.0019229851,-0.005407652,0.006008867,-0.001995881,-0.0055562807
O=C1C=CC(=O)N(c2ccc(Cc3ccc(N4C(=O)C=CC4=O)cc3)cc2)C1=O,-0.002237771,0.0028755544,-0.0013894197,0.0025253128,-0.005493156,0.0039163274,0.0058826124,-0.0091893915,0.0013997816,0.00079787336,-0.016537812,-5.6810677e-08,-0.0064923856,0.0059798155,-0.0025284057,-0.0034700725
Nc1ccccc1,-0.00084219617,0.0014487794,-0.0005205162,0.0040440094,-0.0071537527,0.002503735,0.006992912,-0.009152271,-0.0037655793,-0.0012136083,-0.013042465,0.0007779142,-0.0057001617,0.0057325084,-0.0010885177,-0.00510648
Nc1ccc(N)cc1,-0.001137539,0.0008967137,-0.00057144836,0.004112209,-0.0070057027,0.002273324,0.006375649,-0.009134726,-0.003071731,-0.00067920424,-0.013724377,0.0011993833,-0.005729677,0.0061280876,-0.0021369336,-0.005127821
Nc1cc(N)cc(N)c1,-0.0009575144,0.0006015524,-0.00075962767,0.003365565,-0.006685888,0.0023512845,0.0059358263,-0.008991584,-0.0026970431,-0.000993155,-0.014499501,0.001488898,-0.0062498413,0.0061096214,-0.0023353053,-0.0049371766
Nc1ccc(-c2ccc(N)c(N)c2)c(N)c1,-0.003006562,0.00091025233,-0.0010948982,0.004046235,-0.007162625,0.003367261,0.0056573516,-0.0077781,-0.00171539,-5.3863972e-05,-0.013817517,0.0011883304,-0.0065903906,0.0050700316,-0.0024952935,-0.0036365772
N#CC(CC=CCC1CO1)CCC=CCC1CO1,-0.00075611495,0.00048280787,0.0012996197,0.004368633,-0.0074664527,0.0030540065,0.007440542,-0.008909525,-0.000963971,-0.0017761467,-0.012755596,0.0019443897,-0.008490766,0.0043019652,-0.002187022,-0.008350644
N#CNC(=N)N,-0.0010713937,0.00064832065,0.0001267381,0.0039664954,-0.00711382,0.002914438,0.0053453315,-0.008674572,-0.0028831065,-0.0013322905,-0.015151196,0.0023135967,-0.0059127975,0.0060954615,-0.0021435935,-0.005860354
Nc1ccc(C(F)(F)F)c(-c2ccc(N)cc2C(F)(F)F)c1,-0.0023979826,0.0024019796,0.00086167455,0.004011791,-0.0055591757,0.004967256,0.004737274,-0.008794094,-0.0027726106,0.002118254,-0.0144738825,0.0015405798,-0.0068078823,0.0046165325,-0.0012480794,-0.0058748676
Nc1ccc(-c2ccc(N)c(C(F)(F)F)c2)c(C(F)(F)F)c1,-0.0016270925,0.002337426,0.0014054291,0.002931232,-0.0052606417,0.004800128,0.004342544,-0.008372994,-0.0025931913,0.0020852257,-0.013808196,0.000594452,-0.0060416106,0.004207977,-0.001616409,-0.004915721
Nc1ccc(-c2nc3ccc(N)cc3[nH]2)cc1,-0.0039589433,0.0020456081,-0.00053838827,0.00438434,-0.006648686,0.0027371682,0.006914134,-0.008961478,-0.0015176497,-0.0003707409,-0.014262098,0.0001597004,-0.0069950437,0.0053700795,-0.0029859701,-0.004523499
O=C1OC(=O)c2cc(-c3ccc4c(c3)C(=O)OC4=O)ccc21,-0.0033958212,0.0026129144,-0.00058633834,0.0025635061,-0.0069595072,0.003347633,0.006192471,-0.008873737,-9.824708e-05,0.0007952843,-0.014917473,0.0009694677,-0.007193558,0.0049647456,-0.0036095968,-0.0038709352
O=C1C=CN(c2ccc(Cc3ccc(N4C(=O)C=CC4=O)cc3)cc2)C1=O,-0.00220003,0.0027302182,-0.0002563242,0.0019897278,-0.0056420034,0.002961351,0.0059461044,-0.008921688,0.0004141759,0.0013459437,-0.015059796,-0.00035467558,-0.0061962837,0.0066664815,-0.003339869,-0.004089173
Cc1ccc(N=C=O)cc1N=C=O,-0.0006921955,0.00083202403,0.0005144831,0.004604732,-0.007543872,0.0021624684,0.007355651,-0.0085225105,-0.0019021686,-0.0012384579,-0.012989626,0.0020394702,-0.008076806,0.0062601604,-0.0023548584,-0.005559901
CC1OC(=O)OC(C)C1=O,0.00015864777,-0.00012505706,0.00050356984,0.0035731355,-0.0077585736,0.002688631,0.005618061,-0.008868348,-0.0017506722,-0.0012727249,-0.014358497,0.002172721,-0.0072713103,0.0051852874,-0.0024157064,-0.006007498
OCCCCCCO,-0.0014287943,0.0008624783,0.00034775026,0.00390292,-0.007300919,0.003662707,0.005823613,-0.008308921,-0.0024610814,-0.0010609701,-0.014440118,0.0022839676,-0.006191645,0.0062875766,-0.0018124329,-0.0063183233
CCCCC(CC)C(=O)[O-].CCCCC(CC)C(=O)[O-].[Sn+2],-0.00069186115,0.00018766895,0.00095752813,0.002126942,-0.007388894,0.002964073,0.005265477,-0.008686064,-0.00029731728,0.00030375645,-0.0135882655,0.00082848687,-0.0073833754,0.0030104863,-0.0027158624,-0.005992136
O=C1OCCCO1,-0.0007182753,0.00091922935,0.00061428733,0.0042411475,-0.007589913,0.00310958,0.006150509,-0.008901291,-0.0024371352,-0.0013105152,-0.014076186,0.0016635126,-0.0064572524,0.0053372374,-0.002082237,-0.0067477645
